Language model created by QuickLM on Sat Dec 12 04:55:01 EST 2020
Copyright (c) 1996-2010 Carnegie Mellon University and Alexander I. Rudnicky

The model is in standard ARPA format, designed by Doug Paul while he was at MITRE.

The code that was used to produce this language model is available in Open Source.
Please visit http://www.speech.cs.cmu.edu/tools/ for more information

The (fixed) discount mass is 0.5. The backoffs are computed using the ratio method.
This model based on a corpus of 400 sentences and 17 words

\data\
ngram 1=17
ngram 2=101
ngram 3=490

\1-grams:
-1.0792 </s> -0.3010
-1.0792 <s> -0.2632
-1.0792 COUNT -0.2218
-1.6812 DIVIDE -0.2218
-1.7782 EIGHT -0.2218
-1.7782 FIVE -0.2218
-1.7782 FOUR -0.2218
-1.6812 MINUS -0.2218
-1.7782 NINE -0.2218
-1.7782 ONE -0.2218
-1.6812 PLUS -0.2218
-1.7782 SEVEN -0.2218
-1.7782 SIX -0.2218
-1.7782 THREE -0.2218
-1.6812 TIMES -0.2218
-1.7782 TWO -0.2218
-1.7782 ZERO -0.2218

\2-grams:
-0.3010 <s> COUNT 0.0000
-1.3010 COUNT EIGHT -0.1761
-1.3010 COUNT FIVE -0.1761
-1.3010 COUNT FOUR -0.1761
-1.3010 COUNT NINE -0.1761
-1.3010 COUNT ONE -0.1761
-1.3010 COUNT SEVEN -0.1761
-1.3010 COUNT SIX -0.1761
-1.3010 COUNT THREE -0.1761
-1.3010 COUNT TWO -0.1761
-1.3010 COUNT ZERO -0.1761
-1.3010 DIVIDE EIGHT -0.1761
-1.3010 DIVIDE FIVE -0.1761
-1.3010 DIVIDE FOUR -0.1761
-1.3010 DIVIDE NINE -0.1761
-1.3010 DIVIDE ONE -0.1761
-1.3010 DIVIDE SEVEN -0.1761
-1.3010 DIVIDE SIX -0.1761
-1.3010 DIVIDE THREE -0.1761
-1.3010 DIVIDE TWO -0.1761
-1.3010 DIVIDE ZERO -0.1761
-0.6021 EIGHT </s> -0.3010
-1.2041 EIGHT DIVIDE 0.0000
-1.2041 EIGHT MINUS 0.0000
-1.2041 EIGHT PLUS 0.0000
-1.2041 EIGHT TIMES 0.0000
-0.6021 FIVE </s> -0.3010
-1.2041 FIVE DIVIDE 0.0000
-1.2041 FIVE MINUS 0.0000
-1.2041 FIVE PLUS 0.0000
-1.2041 FIVE TIMES 0.0000
-0.6021 FOUR </s> -0.3010
-1.2041 FOUR DIVIDE 0.0000
-1.2041 FOUR MINUS 0.0000
-1.2041 FOUR PLUS 0.0000
-1.2041 FOUR TIMES 0.0000
-1.3010 MINUS EIGHT -0.1761
-1.3010 MINUS FIVE -0.1761
-1.3010 MINUS FOUR -0.1761
-1.3010 MINUS NINE -0.1761
-1.3010 MINUS ONE -0.1761
-1.3010 MINUS SEVEN -0.1761
-1.3010 MINUS SIX -0.1761
-1.3010 MINUS THREE -0.1761
-1.3010 MINUS TWO -0.1761
-1.3010 MINUS ZERO -0.1761
-0.6021 NINE </s> -0.3010
-1.2041 NINE DIVIDE 0.0000
-1.2041 NINE MINUS 0.0000
-1.2041 NINE PLUS 0.0000
-1.2041 NINE TIMES 0.0000
-0.6021 ONE </s> -0.3010
-1.2041 ONE DIVIDE 0.0000
-1.2041 ONE MINUS 0.0000
-1.2041 ONE PLUS 0.0000
-1.2041 ONE TIMES 0.0000
-1.3010 PLUS EIGHT -0.1761
-1.3010 PLUS FIVE -0.1761
-1.3010 PLUS FOUR -0.1761
-1.3010 PLUS NINE -0.1761
-1.3010 PLUS ONE -0.1761
-1.3010 PLUS SEVEN -0.1761
-1.3010 PLUS SIX -0.1761
-1.3010 PLUS THREE -0.1761
-1.3010 PLUS TWO -0.1761
-1.3010 PLUS ZERO -0.1761
-0.6021 SEVEN </s> -0.3010
-1.2041 SEVEN DIVIDE 0.0000
-1.2041 SEVEN MINUS 0.0000
-1.2041 SEVEN PLUS 0.0000
-1.2041 SEVEN TIMES 0.0000
-0.6021 SIX </s> -0.3010
-1.2041 SIX DIVIDE 0.0000
-1.2041 SIX MINUS 0.0000
-1.2041 SIX PLUS 0.0000
-1.2041 SIX TIMES 0.0000
-0.6021 THREE </s> -0.3010
-1.2041 THREE DIVIDE 0.0000
-1.2041 THREE MINUS 0.0000
-1.2041 THREE PLUS 0.0000
-1.2041 THREE TIMES 0.0000
-1.3010 TIMES EIGHT -0.1761
-1.3010 TIMES FIVE -0.1761
-1.3010 TIMES FOUR -0.1761
-1.3010 TIMES NINE -0.1761
-1.3010 TIMES ONE -0.1761
-1.3010 TIMES SEVEN -0.1761
-1.3010 TIMES SIX -0.1761
-1.3010 TIMES THREE -0.1761
-1.3010 TIMES TWO -0.1761
-1.3010 TIMES ZERO -0.1761
-0.6021 TWO </s> -0.3010
-1.2041 TWO DIVIDE 0.0000
-1.2041 TWO MINUS 0.0000
-1.2041 TWO PLUS 0.0000
-1.2041 TWO TIMES 0.0000
-0.6021 ZERO </s> -0.3010
-1.2041 ZERO DIVIDE 0.0000
-1.2041 ZERO MINUS 0.0000
-1.2041 ZERO PLUS 0.0000
-1.2041 ZERO TIMES 0.0000

\3-grams:
-1.3010 <s> COUNT EIGHT
-1.3010 <s> COUNT FIVE
-1.3010 <s> COUNT FOUR
-1.3010 <s> COUNT NINE
-1.3010 <s> COUNT ONE
-1.3010 <s> COUNT SEVEN
-1.3010 <s> COUNT SIX
-1.3010 <s> COUNT THREE
-1.3010 <s> COUNT TWO
-1.3010 <s> COUNT ZERO
-0.9031 COUNT EIGHT DIVIDE
-0.9031 COUNT EIGHT MINUS
-0.9031 COUNT EIGHT PLUS
-0.9031 COUNT EIGHT TIMES
-0.9031 COUNT FIVE DIVIDE
-0.9031 COUNT FIVE MINUS
-0.9031 COUNT FIVE PLUS
-0.9031 COUNT FIVE TIMES
-0.9031 COUNT FOUR DIVIDE
-0.9031 COUNT FOUR MINUS
-0.9031 COUNT FOUR PLUS
-0.9031 COUNT FOUR TIMES
-0.9031 COUNT NINE DIVIDE
-0.9031 COUNT NINE MINUS
-0.9031 COUNT NINE PLUS
-0.9031 COUNT NINE TIMES
-0.9031 COUNT ONE DIVIDE
-0.9031 COUNT ONE MINUS
-0.9031 COUNT ONE PLUS
-0.9031 COUNT ONE TIMES
-0.9031 COUNT SEVEN DIVIDE
-0.9031 COUNT SEVEN MINUS
-0.9031 COUNT SEVEN PLUS
-0.9031 COUNT SEVEN TIMES
-0.9031 COUNT SIX DIVIDE
-0.9031 COUNT SIX MINUS
-0.9031 COUNT SIX PLUS
-0.9031 COUNT SIX TIMES
-0.9031 COUNT THREE DIVIDE
-0.9031 COUNT THREE MINUS
-0.9031 COUNT THREE PLUS
-0.9031 COUNT THREE TIMES
-0.9031 COUNT TWO DIVIDE
-0.9031 COUNT TWO MINUS
-0.9031 COUNT TWO PLUS
-0.9031 COUNT TWO TIMES
-0.9031 COUNT ZERO DIVIDE
-0.9031 COUNT ZERO MINUS
-0.9031 COUNT ZERO PLUS
-0.9031 COUNT ZERO TIMES
-0.3010 DIVIDE EIGHT </s>
-0.3010 DIVIDE FIVE </s>
-0.3010 DIVIDE FOUR </s>
-0.3010 DIVIDE NINE </s>
-0.3010 DIVIDE ONE </s>
-0.3010 DIVIDE SEVEN </s>
-0.3010 DIVIDE SIX </s>
-0.3010 DIVIDE THREE </s>
-0.3010 DIVIDE TWO </s>
-0.3010 DIVIDE ZERO </s>
-1.3010 EIGHT DIVIDE EIGHT
-1.3010 EIGHT DIVIDE FIVE
-1.3010 EIGHT DIVIDE FOUR
-1.3010 EIGHT DIVIDE NINE
-1.3010 EIGHT DIVIDE ONE
-1.3010 EIGHT DIVIDE SEVEN
-1.3010 EIGHT DIVIDE SIX
-1.3010 EIGHT DIVIDE THREE
-1.3010 EIGHT DIVIDE TWO
-1.3010 EIGHT DIVIDE ZERO
-1.3010 EIGHT MINUS EIGHT
-1.3010 EIGHT MINUS FIVE
-1.3010 EIGHT MINUS FOUR
-1.3010 EIGHT MINUS NINE
-1.3010 EIGHT MINUS ONE
-1.3010 EIGHT MINUS SEVEN
-1.3010 EIGHT MINUS SIX
-1.3010 EIGHT MINUS THREE
-1.3010 EIGHT MINUS TWO
-1.3010 EIGHT MINUS ZERO
-1.3010 EIGHT PLUS EIGHT
-1.3010 EIGHT PLUS FIVE
-1.3010 EIGHT PLUS FOUR
-1.3010 EIGHT PLUS NINE
-1.3010 EIGHT PLUS ONE
-1.3010 EIGHT PLUS SEVEN
-1.3010 EIGHT PLUS SIX
-1.3010 EIGHT PLUS THREE
-1.3010 EIGHT PLUS TWO
-1.3010 EIGHT PLUS ZERO
-1.3010 EIGHT TIMES EIGHT
-1.3010 EIGHT TIMES FIVE
-1.3010 EIGHT TIMES FOUR
-1.3010 EIGHT TIMES NINE
-1.3010 EIGHT TIMES ONE
-1.3010 EIGHT TIMES SEVEN
-1.3010 EIGHT TIMES SIX
-1.3010 EIGHT TIMES THREE
-1.3010 EIGHT TIMES TWO
-1.3010 EIGHT TIMES ZERO
-1.3010 FIVE DIVIDE EIGHT
-1.3010 FIVE DIVIDE FIVE
-1.3010 FIVE DIVIDE FOUR
-1.3010 FIVE DIVIDE NINE
-1.3010 FIVE DIVIDE ONE
-1.3010 FIVE DIVIDE SEVEN
-1.3010 FIVE DIVIDE SIX
-1.3010 FIVE DIVIDE THREE
-1.3010 FIVE DIVIDE TWO
-1.3010 FIVE DIVIDE ZERO
-1.3010 FIVE MINUS EIGHT
-1.3010 FIVE MINUS FIVE
-1.3010 FIVE MINUS FOUR
-1.3010 FIVE MINUS NINE
-1.3010 FIVE MINUS ONE
-1.3010 FIVE MINUS SEVEN
-1.3010 FIVE MINUS SIX
-1.3010 FIVE MINUS THREE
-1.3010 FIVE MINUS TWO
-1.3010 FIVE MINUS ZERO
-1.3010 FIVE PLUS EIGHT
-1.3010 FIVE PLUS FIVE
-1.3010 FIVE PLUS FOUR
-1.3010 FIVE PLUS NINE
-1.3010 FIVE PLUS ONE
-1.3010 FIVE PLUS SEVEN
-1.3010 FIVE PLUS SIX
-1.3010 FIVE PLUS THREE
-1.3010 FIVE PLUS TWO
-1.3010 FIVE PLUS ZERO
-1.3010 FIVE TIMES EIGHT
-1.3010 FIVE TIMES FIVE
-1.3010 FIVE TIMES FOUR
-1.3010 FIVE TIMES NINE
-1.3010 FIVE TIMES ONE
-1.3010 FIVE TIMES SEVEN
-1.3010 FIVE TIMES SIX
-1.3010 FIVE TIMES THREE
-1.3010 FIVE TIMES TWO
-1.3010 FIVE TIMES ZERO
-1.3010 FOUR DIVIDE EIGHT
-1.3010 FOUR DIVIDE FIVE
-1.3010 FOUR DIVIDE FOUR
-1.3010 FOUR DIVIDE NINE
-1.3010 FOUR DIVIDE ONE
-1.3010 FOUR DIVIDE SEVEN
-1.3010 FOUR DIVIDE SIX
-1.3010 FOUR DIVIDE THREE
-1.3010 FOUR DIVIDE TWO
-1.3010 FOUR DIVIDE ZERO
-1.3010 FOUR MINUS EIGHT
-1.3010 FOUR MINUS FIVE
-1.3010 FOUR MINUS FOUR
-1.3010 FOUR MINUS NINE
-1.3010 FOUR MINUS ONE
-1.3010 FOUR MINUS SEVEN
-1.3010 FOUR MINUS SIX
-1.3010 FOUR MINUS THREE
-1.3010 FOUR MINUS TWO
-1.3010 FOUR MINUS ZERO
-1.3010 FOUR PLUS EIGHT
-1.3010 FOUR PLUS FIVE
-1.3010 FOUR PLUS FOUR
-1.3010 FOUR PLUS NINE
-1.3010 FOUR PLUS ONE
-1.3010 FOUR PLUS SEVEN
-1.3010 FOUR PLUS SIX
-1.3010 FOUR PLUS THREE
-1.3010 FOUR PLUS TWO
-1.3010 FOUR PLUS ZERO
-1.3010 FOUR TIMES EIGHT
-1.3010 FOUR TIMES FIVE
-1.3010 FOUR TIMES FOUR
-1.3010 FOUR TIMES NINE
-1.3010 FOUR TIMES ONE
-1.3010 FOUR TIMES SEVEN
-1.3010 FOUR TIMES SIX
-1.3010 FOUR TIMES THREE
-1.3010 FOUR TIMES TWO
-1.3010 FOUR TIMES ZERO
-0.3010 MINUS EIGHT </s>
-0.3010 MINUS FIVE </s>
-0.3010 MINUS FOUR </s>
-0.3010 MINUS NINE </s>
-0.3010 MINUS ONE </s>
-0.3010 MINUS SEVEN </s>
-0.3010 MINUS SIX </s>
-0.3010 MINUS THREE </s>
-0.3010 MINUS TWO </s>
-0.3010 MINUS ZERO </s>
-1.3010 NINE DIVIDE EIGHT
-1.3010 NINE DIVIDE FIVE
-1.3010 NINE DIVIDE FOUR
-1.3010 NINE DIVIDE NINE
-1.3010 NINE DIVIDE ONE
-1.3010 NINE DIVIDE SEVEN
-1.3010 NINE DIVIDE SIX
-1.3010 NINE DIVIDE THREE
-1.3010 NINE DIVIDE TWO
-1.3010 NINE DIVIDE ZERO
-1.3010 NINE MINUS EIGHT
-1.3010 NINE MINUS FIVE
-1.3010 NINE MINUS FOUR
-1.3010 NINE MINUS NINE
-1.3010 NINE MINUS ONE
-1.3010 NINE MINUS SEVEN
-1.3010 NINE MINUS SIX
-1.3010 NINE MINUS THREE
-1.3010 NINE MINUS TWO
-1.3010 NINE MINUS ZERO
-1.3010 NINE PLUS EIGHT
-1.3010 NINE PLUS FIVE
-1.3010 NINE PLUS FOUR
-1.3010 NINE PLUS NINE
-1.3010 NINE PLUS ONE
-1.3010 NINE PLUS SEVEN
-1.3010 NINE PLUS SIX
-1.3010 NINE PLUS THREE
-1.3010 NINE PLUS TWO
-1.3010 NINE PLUS ZERO
-1.3010 NINE TIMES EIGHT
-1.3010 NINE TIMES FIVE
-1.3010 NINE TIMES FOUR
-1.3010 NINE TIMES NINE
-1.3010 NINE TIMES ONE
-1.3010 NINE TIMES SEVEN
-1.3010 NINE TIMES SIX
-1.3010 NINE TIMES THREE
-1.3010 NINE TIMES TWO
-1.3010 NINE TIMES ZERO
-1.3010 ONE DIVIDE EIGHT
-1.3010 ONE DIVIDE FIVE
-1.3010 ONE DIVIDE FOUR
-1.3010 ONE DIVIDE NINE
-1.3010 ONE DIVIDE ONE
-1.3010 ONE DIVIDE SEVEN
-1.3010 ONE DIVIDE SIX
-1.3010 ONE DIVIDE THREE
-1.3010 ONE DIVIDE TWO
-1.3010 ONE DIVIDE ZERO
-1.3010 ONE MINUS EIGHT
-1.3010 ONE MINUS FIVE
-1.3010 ONE MINUS FOUR
-1.3010 ONE MINUS NINE
-1.3010 ONE MINUS ONE
-1.3010 ONE MINUS SEVEN
-1.3010 ONE MINUS SIX
-1.3010 ONE MINUS THREE
-1.3010 ONE MINUS TWO
-1.3010 ONE MINUS ZERO
-1.3010 ONE PLUS EIGHT
-1.3010 ONE PLUS FIVE
-1.3010 ONE PLUS FOUR
-1.3010 ONE PLUS NINE
-1.3010 ONE PLUS ONE
-1.3010 ONE PLUS SEVEN
-1.3010 ONE PLUS SIX
-1.3010 ONE PLUS THREE
-1.3010 ONE PLUS TWO
-1.3010 ONE PLUS ZERO
-1.3010 ONE TIMES EIGHT
-1.3010 ONE TIMES FIVE
-1.3010 ONE TIMES FOUR
-1.3010 ONE TIMES NINE
-1.3010 ONE TIMES ONE
-1.3010 ONE TIMES SEVEN
-1.3010 ONE TIMES SIX
-1.3010 ONE TIMES THREE
-1.3010 ONE TIMES TWO
-1.3010 ONE TIMES ZERO
-0.3010 PLUS EIGHT </s>
-0.3010 PLUS FIVE </s>
-0.3010 PLUS FOUR </s>
-0.3010 PLUS NINE </s>
-0.3010 PLUS ONE </s>
-0.3010 PLUS SEVEN </s>
-0.3010 PLUS SIX </s>
-0.3010 PLUS THREE </s>
-0.3010 PLUS TWO </s>
-0.3010 PLUS ZERO </s>
-1.3010 SEVEN DIVIDE EIGHT
-1.3010 SEVEN DIVIDE FIVE
-1.3010 SEVEN DIVIDE FOUR
-1.3010 SEVEN DIVIDE NINE
-1.3010 SEVEN DIVIDE ONE
-1.3010 SEVEN DIVIDE SEVEN
-1.3010 SEVEN DIVIDE SIX
-1.3010 SEVEN DIVIDE THREE
-1.3010 SEVEN DIVIDE TWO
-1.3010 SEVEN DIVIDE ZERO
-1.3010 SEVEN MINUS EIGHT
-1.3010 SEVEN MINUS FIVE
-1.3010 SEVEN MINUS FOUR
-1.3010 SEVEN MINUS NINE
-1.3010 SEVEN MINUS ONE
-1.3010 SEVEN MINUS SEVEN
-1.3010 SEVEN MINUS SIX
-1.3010 SEVEN MINUS THREE
-1.3010 SEVEN MINUS TWO
-1.3010 SEVEN MINUS ZERO
-1.3010 SEVEN PLUS EIGHT
-1.3010 SEVEN PLUS FIVE
-1.3010 SEVEN PLUS FOUR
-1.3010 SEVEN PLUS NINE
-1.3010 SEVEN PLUS ONE
-1.3010 SEVEN PLUS SEVEN
-1.3010 SEVEN PLUS SIX
-1.3010 SEVEN PLUS THREE
-1.3010 SEVEN PLUS TWO
-1.3010 SEVEN PLUS ZERO
-1.3010 SEVEN TIMES EIGHT
-1.3010 SEVEN TIMES FIVE
-1.3010 SEVEN TIMES FOUR
-1.3010 SEVEN TIMES NINE
-1.3010 SEVEN TIMES ONE
-1.3010 SEVEN TIMES SEVEN
-1.3010 SEVEN TIMES SIX
-1.3010 SEVEN TIMES THREE
-1.3010 SEVEN TIMES TWO
-1.3010 SEVEN TIMES ZERO
-1.3010 SIX DIVIDE EIGHT
-1.3010 SIX DIVIDE FIVE
-1.3010 SIX DIVIDE FOUR
-1.3010 SIX DIVIDE NINE
-1.3010 SIX DIVIDE ONE
-1.3010 SIX DIVIDE SEVEN
-1.3010 SIX DIVIDE SIX
-1.3010 SIX DIVIDE THREE
-1.3010 SIX DIVIDE TWO
-1.3010 SIX DIVIDE ZERO
-1.3010 SIX MINUS EIGHT
-1.3010 SIX MINUS FIVE
-1.3010 SIX MINUS FOUR
-1.3010 SIX MINUS NINE
-1.3010 SIX MINUS ONE
-1.3010 SIX MINUS SEVEN
-1.3010 SIX MINUS SIX
-1.3010 SIX MINUS THREE
-1.3010 SIX MINUS TWO
-1.3010 SIX MINUS ZERO
-1.3010 SIX PLUS EIGHT
-1.3010 SIX PLUS FIVE
-1.3010 SIX PLUS FOUR
-1.3010 SIX PLUS NINE
-1.3010 SIX PLUS ONE
-1.3010 SIX PLUS SEVEN
-1.3010 SIX PLUS SIX
-1.3010 SIX PLUS THREE
-1.3010 SIX PLUS TWO
-1.3010 SIX PLUS ZERO
-1.3010 SIX TIMES EIGHT
-1.3010 SIX TIMES FIVE
-1.3010 SIX TIMES FOUR
-1.3010 SIX TIMES NINE
-1.3010 SIX TIMES ONE
-1.3010 SIX TIMES SEVEN
-1.3010 SIX TIMES SIX
-1.3010 SIX TIMES THREE
-1.3010 SIX TIMES TWO
-1.3010 SIX TIMES ZERO
-1.3010 THREE DIVIDE EIGHT
-1.3010 THREE DIVIDE FIVE
-1.3010 THREE DIVIDE FOUR
-1.3010 THREE DIVIDE NINE
-1.3010 THREE DIVIDE ONE
-1.3010 THREE DIVIDE SEVEN
-1.3010 THREE DIVIDE SIX
-1.3010 THREE DIVIDE THREE
-1.3010 THREE DIVIDE TWO
-1.3010 THREE DIVIDE ZERO
-1.3010 THREE MINUS EIGHT
-1.3010 THREE MINUS FIVE
-1.3010 THREE MINUS FOUR
-1.3010 THREE MINUS NINE
-1.3010 THREE MINUS ONE
-1.3010 THREE MINUS SEVEN
-1.3010 THREE MINUS SIX
-1.3010 THREE MINUS THREE
-1.3010 THREE MINUS TWO
-1.3010 THREE MINUS ZERO
-1.3010 THREE PLUS EIGHT
-1.3010 THREE PLUS FIVE
-1.3010 THREE PLUS FOUR
-1.3010 THREE PLUS NINE
-1.3010 THREE PLUS ONE
-1.3010 THREE PLUS SEVEN
-1.3010 THREE PLUS SIX
-1.3010 THREE PLUS THREE
-1.3010 THREE PLUS TWO
-1.3010 THREE PLUS ZERO
-1.3010 THREE TIMES EIGHT
-1.3010 THREE TIMES FIVE
-1.3010 THREE TIMES FOUR
-1.3010 THREE TIMES NINE
-1.3010 THREE TIMES ONE
-1.3010 THREE TIMES SEVEN
-1.3010 THREE TIMES SIX
-1.3010 THREE TIMES THREE
-1.3010 THREE TIMES TWO
-1.3010 THREE TIMES ZERO
-0.3010 TIMES EIGHT </s>
-0.3010 TIMES FIVE </s>
-0.3010 TIMES FOUR </s>
-0.3010 TIMES NINE </s>
-0.3010 TIMES ONE </s>
-0.3010 TIMES SEVEN </s>
-0.3010 TIMES SIX </s>
-0.3010 TIMES THREE </s>
-0.3010 TIMES TWO </s>
-0.3010 TIMES ZERO </s>
-1.3010 TWO DIVIDE EIGHT
-1.3010 TWO DIVIDE FIVE
-1.3010 TWO DIVIDE FOUR
-1.3010 TWO DIVIDE NINE
-1.3010 TWO DIVIDE ONE
-1.3010 TWO DIVIDE SEVEN
-1.3010 TWO DIVIDE SIX
-1.3010 TWO DIVIDE THREE
-1.3010 TWO DIVIDE TWO
-1.3010 TWO DIVIDE ZERO
-1.3010 TWO MINUS EIGHT
-1.3010 TWO MINUS FIVE
-1.3010 TWO MINUS FOUR
-1.3010 TWO MINUS NINE
-1.3010 TWO MINUS ONE
-1.3010 TWO MINUS SEVEN
-1.3010 TWO MINUS SIX
-1.3010 TWO MINUS THREE
-1.3010 TWO MINUS TWO
-1.3010 TWO MINUS ZERO
-1.3010 TWO PLUS EIGHT
-1.3010 TWO PLUS FIVE
-1.3010 TWO PLUS FOUR
-1.3010 TWO PLUS NINE
-1.3010 TWO PLUS ONE
-1.3010 TWO PLUS SEVEN
-1.3010 TWO PLUS SIX
-1.3010 TWO PLUS THREE
-1.3010 TWO PLUS TWO
-1.3010 TWO PLUS ZERO
-1.3010 TWO TIMES EIGHT
-1.3010 TWO TIMES FIVE
-1.3010 TWO TIMES FOUR
-1.3010 TWO TIMES NINE
-1.3010 TWO TIMES ONE
-1.3010 TWO TIMES SEVEN
-1.3010 TWO TIMES SIX
-1.3010 TWO TIMES THREE
-1.3010 TWO TIMES TWO
-1.3010 TWO TIMES ZERO
-1.3010 ZERO DIVIDE EIGHT
-1.3010 ZERO DIVIDE FIVE
-1.3010 ZERO DIVIDE FOUR
-1.3010 ZERO DIVIDE NINE
-1.3010 ZERO DIVIDE ONE
-1.3010 ZERO DIVIDE SEVEN
-1.3010 ZERO DIVIDE SIX
-1.3010 ZERO DIVIDE THREE
-1.3010 ZERO DIVIDE TWO
-1.3010 ZERO DIVIDE ZERO
-1.3010 ZERO MINUS EIGHT
-1.3010 ZERO MINUS FIVE
-1.3010 ZERO MINUS FOUR
-1.3010 ZERO MINUS NINE
-1.3010 ZERO MINUS ONE
-1.3010 ZERO MINUS SEVEN
-1.3010 ZERO MINUS SIX
-1.3010 ZERO MINUS THREE
-1.3010 ZERO MINUS TWO
-1.3010 ZERO MINUS ZERO
-1.3010 ZERO PLUS EIGHT
-1.3010 ZERO PLUS FIVE
-1.3010 ZERO PLUS FOUR
-1.3010 ZERO PLUS NINE
-1.3010 ZERO PLUS ONE
-1.3010 ZERO PLUS SEVEN
-1.3010 ZERO PLUS SIX
-1.3010 ZERO PLUS THREE
-1.3010 ZERO PLUS TWO
-1.3010 ZERO PLUS ZERO
-1.3010 ZERO TIMES EIGHT
-1.3010 ZERO TIMES FIVE
-1.3010 ZERO TIMES FOUR
-1.3010 ZERO TIMES NINE
-1.3010 ZERO TIMES ONE
-1.3010 ZERO TIMES SEVEN
-1.3010 ZERO TIMES SIX
-1.3010 ZERO TIMES THREE
-1.3010 ZERO TIMES TWO
-1.3010 ZERO TIMES ZERO

\end\
