~h "ah"
<BEGINHMM>
<NUMSTATES> 5
<STATE> 2
<MEAN> 25
 -1.984788e-09 -1.478174e-08 -7.675977e-09 -1.597700e-08 -4.747591e-08 -4.174635e-08 1.181004e-08 -5.126182e-08 -2.633682e-08 1.395383e-09 3.034204e-08 2.347204e-08 6.262808e-03 2.009691e-03 -1.046709e-03 7.016656e-04 -5.620404e-03 -7.011942e-04 -1.884909e-03 -1.185009e-03 -5.735792e-03 -1.017377e-03 -4.267860e-03 -1.605519e-03 -1.255265e-02
<VARIANCE> 25
 5.861395e+01 3.876106e+01 4.187193e+01 3.405584e+01 4.414338e+01 4.560874e+01 5.167349e+01 4.561368e+01 3.483361e+01 2.773950e+01 3.310555e+01 2.349122e+01 1.522918e+00 1.037582e+00 1.293040e+00 1.479618e+00 1.888099e+00 2.091717e+00 2.225197e+00 2.179906e+00 1.796479e+00 1.620783e+00 1.613829e+00 1.364862e+00 8.874317e-01
<GCONST> 9.563836e+01
<STATE> 3
<MEAN> 25
 -1.984788e-09 -1.478174e-08 -7.675977e-09 -1.597700e-08 -4.747591e-08 -4.174635e-08 1.181004e-08 -5.126182e-08 -2.633682e-08 1.395383e-09 3.034204e-08 2.347204e-08 6.262808e-03 2.009691e-03 -1.046709e-03 7.016656e-04 -5.620404e-03 -7.011942e-04 -1.884909e-03 -1.185009e-03 -5.735792e-03 -1.017377e-03 -4.267860e-03 -1.605519e-03 -1.255265e-02
<VARIANCE> 25
 5.861395e+01 3.876106e+01 4.187193e+01 3.405584e+01 4.414338e+01 4.560874e+01 5.167349e+01 4.561368e+01 3.483361e+01 2.773950e+01 3.310555e+01 2.349122e+01 1.522918e+00 1.037582e+00 1.293040e+00 1.479618e+00 1.888099e+00 2.091717e+00 2.225197e+00 2.179906e+00 1.796479e+00 1.620783e+00 1.613829e+00 1.364862e+00 8.874317e-01
<GCONST> 9.563836e+01
<STATE> 4
<MEAN> 25
 -1.984788e-09 -1.478174e-08 -7.675977e-09 -1.597700e-08 -4.747591e-08 -4.174635e-08 1.181004e-08 -5.126182e-08 -2.633682e-08 1.395383e-09 3.034204e-08 2.347204e-08 6.262808e-03 2.009691e-03 -1.046709e-03 7.016656e-04 -5.620404e-03 -7.011942e-04 -1.884909e-03 -1.185009e-03 -5.735792e-03 -1.017377e-03 -4.267860e-03 -1.605519e-03 -1.255265e-02
<VARIANCE> 25
 5.861395e+01 3.876106e+01 4.187193e+01 3.405584e+01 4.414338e+01 4.560874e+01 5.167349e+01 4.561368e+01 3.483361e+01 2.773950e+01 3.310555e+01 2.349122e+01 1.522918e+00 1.037582e+00 1.293040e+00 1.479618e+00 1.888099e+00 2.091717e+00 2.225197e+00 2.179906e+00 1.796479e+00 1.620783e+00 1.613829e+00 1.364862e+00 8.874317e-01
<GCONST> 9.563836e+01
<TRANSP> 5
 0.000000e+00 1.000000e+00 0.000000e+00 0.000000e+00 0.000000e+00
 0.000000e+00 6.000000e-01 4.000000e-01 0.000000e+00 0.000000e+00
 0.000000e+00 0.000000e+00 6.000000e-01 4.000000e-01 0.000000e+00
 0.000000e+00 0.000000e+00 0.000000e+00 7.000000e-01 3.000000e-01
 0.000000e+00 0.000000e+00 0.000000e+00 0.000000e+00 0.000000e+00
<ENDHMM>
~h "b"
<BEGINHMM>
<NUMSTATES> 5
<STATE> 2
<MEAN> 25
 -1.984788e-09 -1.478174e-08 -7.675977e-09 -1.597700e-08 -4.747591e-08 -4.174635e-08 1.181004e-08 -5.126182e-08 -2.633682e-08 1.395383e-09 3.034204e-08 2.347204e-08 6.262808e-03 2.009691e-03 -1.046709e-03 7.016656e-04 -5.620404e-03 -7.011942e-04 -1.884909e-03 -1.185009e-03 -5.735792e-03 -1.017377e-03 -4.267860e-03 -1.605519e-03 -1.255265e-02
<VARIANCE> 25
 5.861395e+01 3.876106e+01 4.187193e+01 3.405584e+01 4.414338e+01 4.560874e+01 5.167349e+01 4.561368e+01 3.483361e+01 2.773950e+01 3.310555e+01 2.349122e+01 1.522918e+00 1.037582e+00 1.293040e+00 1.479618e+00 1.888099e+00 2.091717e+00 2.225197e+00 2.179906e+00 1.796479e+00 1.620783e+00 1.613829e+00 1.364862e+00 8.874317e-01
<GCONST> 9.563836e+01
<STATE> 3
<MEAN> 25
 -1.984788e-09 -1.478174e-08 -7.675977e-09 -1.597700e-08 -4.747591e-08 -4.174635e-08 1.181004e-08 -5.126182e-08 -2.633682e-08 1.395383e-09 3.034204e-08 2.347204e-08 6.262808e-03 2.009691e-03 -1.046709e-03 7.016656e-04 -5.620404e-03 -7.011942e-04 -1.884909e-03 -1.185009e-03 -5.735792e-03 -1.017377e-03 -4.267860e-03 -1.605519e-03 -1.255265e-02
<VARIANCE> 25
 5.861395e+01 3.876106e+01 4.187193e+01 3.405584e+01 4.414338e+01 4.560874e+01 5.167349e+01 4.561368e+01 3.483361e+01 2.773950e+01 3.310555e+01 2.349122e+01 1.522918e+00 1.037582e+00 1.293040e+00 1.479618e+00 1.888099e+00 2.091717e+00 2.225197e+00 2.179906e+00 1.796479e+00 1.620783e+00 1.613829e+00 1.364862e+00 8.874317e-01
<GCONST> 9.563836e+01
<STATE> 4
<MEAN> 25
 -1.984788e-09 -1.478174e-08 -7.675977e-09 -1.597700e-08 -4.747591e-08 -4.174635e-08 1.181004e-08 -5.126182e-08 -2.633682e-08 1.395383e-09 3.034204e-08 2.347204e-08 6.262808e-03 2.009691e-03 -1.046709e-03 7.016656e-04 -5.620404e-03 -7.011942e-04 -1.884909e-03 -1.185009e-03 -5.735792e-03 -1.017377e-03 -4.267860e-03 -1.605519e-03 -1.255265e-02
<VARIANCE> 25
 5.861395e+01 3.876106e+01 4.187193e+01 3.405584e+01 4.414338e+01 4.560874e+01 5.167349e+01 4.561368e+01 3.483361e+01 2.773950e+01 3.310555e+01 2.349122e+01 1.522918e+00 1.037582e+00 1.293040e+00 1.479618e+00 1.888099e+00 2.091717e+00 2.225197e+00 2.179906e+00 1.796479e+00 1.620783e+00 1.613829e+00 1.364862e+00 8.874317e-01
<GCONST> 9.563836e+01
<TRANSP> 5
 0.000000e+00 1.000000e+00 0.000000e+00 0.000000e+00 0.000000e+00
 0.000000e+00 6.000000e-01 4.000000e-01 0.000000e+00 0.000000e+00
 0.000000e+00 0.000000e+00 6.000000e-01 4.000000e-01 0.000000e+00
 0.000000e+00 0.000000e+00 0.000000e+00 7.000000e-01 3.000000e-01
 0.000000e+00 0.000000e+00 0.000000e+00 0.000000e+00 0.000000e+00
<ENDHMM>
~h "ae"
<BEGINHMM>
<NUMSTATES> 5
<STATE> 2
<MEAN> 25
 -1.984788e-09 -1.478174e-08 -7.675977e-09 -1.597700e-08 -4.747591e-08 -4.174635e-08 1.181004e-08 -5.126182e-08 -2.633682e-08 1.395383e-09 3.034204e-08 2.347204e-08 6.262808e-03 2.009691e-03 -1.046709e-03 7.016656e-04 -5.620404e-03 -7.011942e-04 -1.884909e-03 -1.185009e-03 -5.735792e-03 -1.017377e-03 -4.267860e-03 -1.605519e-03 -1.255265e-02
<VARIANCE> 25
 5.861395e+01 3.876106e+01 4.187193e+01 3.405584e+01 4.414338e+01 4.560874e+01 5.167349e+01 4.561368e+01 3.483361e+01 2.773950e+01 3.310555e+01 2.349122e+01 1.522918e+00 1.037582e+00 1.293040e+00 1.479618e+00 1.888099e+00 2.091717e+00 2.225197e+00 2.179906e+00 1.796479e+00 1.620783e+00 1.613829e+00 1.364862e+00 8.874317e-01
<GCONST> 9.563836e+01
<STATE> 3
<MEAN> 25
 -1.984788e-09 -1.478174e-08 -7.675977e-09 -1.597700e-08 -4.747591e-08 -4.174635e-08 1.181004e-08 -5.126182e-08 -2.633682e-08 1.395383e-09 3.034204e-08 2.347204e-08 6.262808e-03 2.009691e-03 -1.046709e-03 7.016656e-04 -5.620404e-03 -7.011942e-04 -1.884909e-03 -1.185009e-03 -5.735792e-03 -1.017377e-03 -4.267860e-03 -1.605519e-03 -1.255265e-02
<VARIANCE> 25
 5.861395e+01 3.876106e+01 4.187193e+01 3.405584e+01 4.414338e+01 4.560874e+01 5.167349e+01 4.561368e+01 3.483361e+01 2.773950e+01 3.310555e+01 2.349122e+01 1.522918e+00 1.037582e+00 1.293040e+00 1.479618e+00 1.888099e+00 2.091717e+00 2.225197e+00 2.179906e+00 1.796479e+00 1.620783e+00 1.613829e+00 1.364862e+00 8.874317e-01
<GCONST> 9.563836e+01
<STATE> 4
<MEAN> 25
 -1.984788e-09 -1.478174e-08 -7.675977e-09 -1.597700e-08 -4.747591e-08 -4.174635e-08 1.181004e-08 -5.126182e-08 -2.633682e-08 1.395383e-09 3.034204e-08 2.347204e-08 6.262808e-03 2.009691e-03 -1.046709e-03 7.016656e-04 -5.620404e-03 -7.011942e-04 -1.884909e-03 -1.185009e-03 -5.735792e-03 -1.017377e-03 -4.267860e-03 -1.605519e-03 -1.255265e-02
<VARIANCE> 25
 5.861395e+01 3.876106e+01 4.187193e+01 3.405584e+01 4.414338e+01 4.560874e+01 5.167349e+01 4.561368e+01 3.483361e+01 2.773950e+01 3.310555e+01 2.349122e+01 1.522918e+00 1.037582e+00 1.293040e+00 1.479618e+00 1.888099e+00 2.091717e+00 2.225197e+00 2.179906e+00 1.796479e+00 1.620783e+00 1.613829e+00 1.364862e+00 8.874317e-01
<GCONST> 9.563836e+01
<TRANSP> 5
 0.000000e+00 1.000000e+00 0.000000e+00 0.000000e+00 0.000000e+00
 0.000000e+00 6.000000e-01 4.000000e-01 0.000000e+00 0.000000e+00
 0.000000e+00 0.000000e+00 6.000000e-01 4.000000e-01 0.000000e+00
 0.000000e+00 0.000000e+00 0.000000e+00 7.000000e-01 3.000000e-01
 0.000000e+00 0.000000e+00 0.000000e+00 0.000000e+00 0.000000e+00
<ENDHMM>
~h "n"
<BEGINHMM>
<NUMSTATES> 5
<STATE> 2
<MEAN> 25
 -1.984788e-09 -1.478174e-08 -7.675977e-09 -1.597700e-08 -4.747591e-08 -4.174635e-08 1.181004e-08 -5.126182e-08 -2.633682e-08 1.395383e-09 3.034204e-08 2.347204e-08 6.262808e-03 2.009691e-03 -1.046709e-03 7.016656e-04 -5.620404e-03 -7.011942e-04 -1.884909e-03 -1.185009e-03 -5.735792e-03 -1.017377e-03 -4.267860e-03 -1.605519e-03 -1.255265e-02
<VARIANCE> 25
 5.861395e+01 3.876106e+01 4.187193e+01 3.405584e+01 4.414338e+01 4.560874e+01 5.167349e+01 4.561368e+01 3.483361e+01 2.773950e+01 3.310555e+01 2.349122e+01 1.522918e+00 1.037582e+00 1.293040e+00 1.479618e+00 1.888099e+00 2.091717e+00 2.225197e+00 2.179906e+00 1.796479e+00 1.620783e+00 1.613829e+00 1.364862e+00 8.874317e-01
<GCONST> 9.563836e+01
<STATE> 3
<MEAN> 25
 -1.984788e-09 -1.478174e-08 -7.675977e-09 -1.597700e-08 -4.747591e-08 -4.174635e-08 1.181004e-08 -5.126182e-08 -2.633682e-08 1.395383e-09 3.034204e-08 2.347204e-08 6.262808e-03 2.009691e-03 -1.046709e-03 7.016656e-04 -5.620404e-03 -7.011942e-04 -1.884909e-03 -1.185009e-03 -5.735792e-03 -1.017377e-03 -4.267860e-03 -1.605519e-03 -1.255265e-02
<VARIANCE> 25
 5.861395e+01 3.876106e+01 4.187193e+01 3.405584e+01 4.414338e+01 4.560874e+01 5.167349e+01 4.561368e+01 3.483361e+01 2.773950e+01 3.310555e+01 2.349122e+01 1.522918e+00 1.037582e+00 1.293040e+00 1.479618e+00 1.888099e+00 2.091717e+00 2.225197e+00 2.179906e+00 1.796479e+00 1.620783e+00 1.613829e+00 1.364862e+00 8.874317e-01
<GCONST> 9.563836e+01
<STATE> 4
<MEAN> 25
 -1.984788e-09 -1.478174e-08 -7.675977e-09 -1.597700e-08 -4.747591e-08 -4.174635e-08 1.181004e-08 -5.126182e-08 -2.633682e-08 1.395383e-09 3.034204e-08 2.347204e-08 6.262808e-03 2.009691e-03 -1.046709e-03 7.016656e-04 -5.620404e-03 -7.011942e-04 -1.884909e-03 -1.185009e-03 -5.735792e-03 -1.017377e-03 -4.267860e-03 -1.605519e-03 -1.255265e-02
<VARIANCE> 25
 5.861395e+01 3.876106e+01 4.187193e+01 3.405584e+01 4.414338e+01 4.560874e+01 5.167349e+01 4.561368e+01 3.483361e+01 2.773950e+01 3.310555e+01 2.349122e+01 1.522918e+00 1.037582e+00 1.293040e+00 1.479618e+00 1.888099e+00 2.091717e+00 2.225197e+00 2.179906e+00 1.796479e+00 1.620783e+00 1.613829e+00 1.364862e+00 8.874317e-01
<GCONST> 9.563836e+01
<TRANSP> 5
 0.000000e+00 1.000000e+00 0.000000e+00 0.000000e+00 0.000000e+00
 0.000000e+00 6.000000e-01 4.000000e-01 0.000000e+00 0.000000e+00
 0.000000e+00 0.000000e+00 6.000000e-01 4.000000e-01 0.000000e+00
 0.000000e+00 0.000000e+00 0.000000e+00 7.000000e-01 3.000000e-01
 0.000000e+00 0.000000e+00 0.000000e+00 0.000000e+00 0.000000e+00
<ENDHMM>
~h "d"
<BEGINHMM>
<NUMSTATES> 5
<STATE> 2
<MEAN> 25
 -1.984788e-09 -1.478174e-08 -7.675977e-09 -1.597700e-08 -4.747591e-08 -4.174635e-08 1.181004e-08 -5.126182e-08 -2.633682e-08 1.395383e-09 3.034204e-08 2.347204e-08 6.262808e-03 2.009691e-03 -1.046709e-03 7.016656e-04 -5.620404e-03 -7.011942e-04 -1.884909e-03 -1.185009e-03 -5.735792e-03 -1.017377e-03 -4.267860e-03 -1.605519e-03 -1.255265e-02
<VARIANCE> 25
 5.861395e+01 3.876106e+01 4.187193e+01 3.405584e+01 4.414338e+01 4.560874e+01 5.167349e+01 4.561368e+01 3.483361e+01 2.773950e+01 3.310555e+01 2.349122e+01 1.522918e+00 1.037582e+00 1.293040e+00 1.479618e+00 1.888099e+00 2.091717e+00 2.225197e+00 2.179906e+00 1.796479e+00 1.620783e+00 1.613829e+00 1.364862e+00 8.874317e-01
<GCONST> 9.563836e+01
<STATE> 3
<MEAN> 25
 -1.984788e-09 -1.478174e-08 -7.675977e-09 -1.597700e-08 -4.747591e-08 -4.174635e-08 1.181004e-08 -5.126182e-08 -2.633682e-08 1.395383e-09 3.034204e-08 2.347204e-08 6.262808e-03 2.009691e-03 -1.046709e-03 7.016656e-04 -5.620404e-03 -7.011942e-04 -1.884909e-03 -1.185009e-03 -5.735792e-03 -1.017377e-03 -4.267860e-03 -1.605519e-03 -1.255265e-02
<VARIANCE> 25
 5.861395e+01 3.876106e+01 4.187193e+01 3.405584e+01 4.414338e+01 4.560874e+01 5.167349e+01 4.561368e+01 3.483361e+01 2.773950e+01 3.310555e+01 2.349122e+01 1.522918e+00 1.037582e+00 1.293040e+00 1.479618e+00 1.888099e+00 2.091717e+00 2.225197e+00 2.179906e+00 1.796479e+00 1.620783e+00 1.613829e+00 1.364862e+00 8.874317e-01
<GCONST> 9.563836e+01
<STATE> 4
<MEAN> 25
 -1.984788e-09 -1.478174e-08 -7.675977e-09 -1.597700e-08 -4.747591e-08 -4.174635e-08 1.181004e-08 -5.126182e-08 -2.633682e-08 1.395383e-09 3.034204e-08 2.347204e-08 6.262808e-03 2.009691e-03 -1.046709e-03 7.016656e-04 -5.620404e-03 -7.011942e-04 -1.884909e-03 -1.185009e-03 -5.735792e-03 -1.017377e-03 -4.267860e-03 -1.605519e-03 -1.255265e-02
<VARIANCE> 25
 5.861395e+01 3.876106e+01 4.187193e+01 3.405584e+01 4.414338e+01 4.560874e+01 5.167349e+01 4.561368e+01 3.483361e+01 2.773950e+01 3.310555e+01 2.349122e+01 1.522918e+00 1.037582e+00 1.293040e+00 1.479618e+00 1.888099e+00 2.091717e+00 2.225197e+00 2.179906e+00 1.796479e+00 1.620783e+00 1.613829e+00 1.364862e+00 8.874317e-01
<GCONST> 9.563836e+01
<TRANSP> 5
 0.000000e+00 1.000000e+00 0.000000e+00 0.000000e+00 0.000000e+00
 0.000000e+00 6.000000e-01 4.000000e-01 0.000000e+00 0.000000e+00
 0.000000e+00 0.000000e+00 6.000000e-01 4.000000e-01 0.000000e+00
 0.000000e+00 0.000000e+00 0.000000e+00 7.000000e-01 3.000000e-01
 0.000000e+00 0.000000e+00 0.000000e+00 0.000000e+00 0.000000e+00
<ENDHMM>
~h "ey"
<BEGINHMM>
<NUMSTATES> 5
<STATE> 2
<MEAN> 25
 -1.984788e-09 -1.478174e-08 -7.675977e-09 -1.597700e-08 -4.747591e-08 -4.174635e-08 1.181004e-08 -5.126182e-08 -2.633682e-08 1.395383e-09 3.034204e-08 2.347204e-08 6.262808e-03 2.009691e-03 -1.046709e-03 7.016656e-04 -5.620404e-03 -7.011942e-04 -1.884909e-03 -1.185009e-03 -5.735792e-03 -1.017377e-03 -4.267860e-03 -1.605519e-03 -1.255265e-02
<VARIANCE> 25
 5.861395e+01 3.876106e+01 4.187193e+01 3.405584e+01 4.414338e+01 4.560874e+01 5.167349e+01 4.561368e+01 3.483361e+01 2.773950e+01 3.310555e+01 2.349122e+01 1.522918e+00 1.037582e+00 1.293040e+00 1.479618e+00 1.888099e+00 2.091717e+00 2.225197e+00 2.179906e+00 1.796479e+00 1.620783e+00 1.613829e+00 1.364862e+00 8.874317e-01
<GCONST> 9.563836e+01
<STATE> 3
<MEAN> 25
 -1.984788e-09 -1.478174e-08 -7.675977e-09 -1.597700e-08 -4.747591e-08 -4.174635e-08 1.181004e-08 -5.126182e-08 -2.633682e-08 1.395383e-09 3.034204e-08 2.347204e-08 6.262808e-03 2.009691e-03 -1.046709e-03 7.016656e-04 -5.620404e-03 -7.011942e-04 -1.884909e-03 -1.185009e-03 -5.735792e-03 -1.017377e-03 -4.267860e-03 -1.605519e-03 -1.255265e-02
<VARIANCE> 25
 5.861395e+01 3.876106e+01 4.187193e+01 3.405584e+01 4.414338e+01 4.560874e+01 5.167349e+01 4.561368e+01 3.483361e+01 2.773950e+01 3.310555e+01 2.349122e+01 1.522918e+00 1.037582e+00 1.293040e+00 1.479618e+00 1.888099e+00 2.091717e+00 2.225197e+00 2.179906e+00 1.796479e+00 1.620783e+00 1.613829e+00 1.364862e+00 8.874317e-01
<GCONST> 9.563836e+01
<STATE> 4
<MEAN> 25
 -1.984788e-09 -1.478174e-08 -7.675977e-09 -1.597700e-08 -4.747591e-08 -4.174635e-08 1.181004e-08 -5.126182e-08 -2.633682e-08 1.395383e-09 3.034204e-08 2.347204e-08 6.262808e-03 2.009691e-03 -1.046709e-03 7.016656e-04 -5.620404e-03 -7.011942e-04 -1.884909e-03 -1.185009e-03 -5.735792e-03 -1.017377e-03 -4.267860e-03 -1.605519e-03 -1.255265e-02
<VARIANCE> 25
 5.861395e+01 3.876106e+01 4.187193e+01 3.405584e+01 4.414338e+01 4.560874e+01 5.167349e+01 4.561368e+01 3.483361e+01 2.773950e+01 3.310555e+01 2.349122e+01 1.522918e+00 1.037582e+00 1.293040e+00 1.479618e+00 1.888099e+00 2.091717e+00 2.225197e+00 2.179906e+00 1.796479e+00 1.620783e+00 1.613829e+00 1.364862e+00 8.874317e-01
<GCONST> 9.563836e+01
<TRANSP> 5
 0.000000e+00 1.000000e+00 0.000000e+00 0.000000e+00 0.000000e+00
 0.000000e+00 6.000000e-01 4.000000e-01 0.000000e+00 0.000000e+00
 0.000000e+00 0.000000e+00 6.000000e-01 4.000000e-01 0.000000e+00
 0.000000e+00 0.000000e+00 0.000000e+00 7.000000e-01 3.000000e-01
 0.000000e+00 0.000000e+00 0.000000e+00 0.000000e+00 0.000000e+00
<ENDHMM>
~h "l"
<BEGINHMM>
<NUMSTATES> 5
<STATE> 2
<MEAN> 25
 -1.984788e-09 -1.478174e-08 -7.675977e-09 -1.597700e-08 -4.747591e-08 -4.174635e-08 1.181004e-08 -5.126182e-08 -2.633682e-08 1.395383e-09 3.034204e-08 2.347204e-08 6.262808e-03 2.009691e-03 -1.046709e-03 7.016656e-04 -5.620404e-03 -7.011942e-04 -1.884909e-03 -1.185009e-03 -5.735792e-03 -1.017377e-03 -4.267860e-03 -1.605519e-03 -1.255265e-02
<VARIANCE> 25
 5.861395e+01 3.876106e+01 4.187193e+01 3.405584e+01 4.414338e+01 4.560874e+01 5.167349e+01 4.561368e+01 3.483361e+01 2.773950e+01 3.310555e+01 2.349122e+01 1.522918e+00 1.037582e+00 1.293040e+00 1.479618e+00 1.888099e+00 2.091717e+00 2.225197e+00 2.179906e+00 1.796479e+00 1.620783e+00 1.613829e+00 1.364862e+00 8.874317e-01
<GCONST> 9.563836e+01
<STATE> 3
<MEAN> 25
 -1.984788e-09 -1.478174e-08 -7.675977e-09 -1.597700e-08 -4.747591e-08 -4.174635e-08 1.181004e-08 -5.126182e-08 -2.633682e-08 1.395383e-09 3.034204e-08 2.347204e-08 6.262808e-03 2.009691e-03 -1.046709e-03 7.016656e-04 -5.620404e-03 -7.011942e-04 -1.884909e-03 -1.185009e-03 -5.735792e-03 -1.017377e-03 -4.267860e-03 -1.605519e-03 -1.255265e-02
<VARIANCE> 25
 5.861395e+01 3.876106e+01 4.187193e+01 3.405584e+01 4.414338e+01 4.560874e+01 5.167349e+01 4.561368e+01 3.483361e+01 2.773950e+01 3.310555e+01 2.349122e+01 1.522918e+00 1.037582e+00 1.293040e+00 1.479618e+00 1.888099e+00 2.091717e+00 2.225197e+00 2.179906e+00 1.796479e+00 1.620783e+00 1.613829e+00 1.364862e+00 8.874317e-01
<GCONST> 9.563836e+01
<STATE> 4
<MEAN> 25
 -1.984788e-09 -1.478174e-08 -7.675977e-09 -1.597700e-08 -4.747591e-08 -4.174635e-08 1.181004e-08 -5.126182e-08 -2.633682e-08 1.395383e-09 3.034204e-08 2.347204e-08 6.262808e-03 2.009691e-03 -1.046709e-03 7.016656e-04 -5.620404e-03 -7.011942e-04 -1.884909e-03 -1.185009e-03 -5.735792e-03 -1.017377e-03 -4.267860e-03 -1.605519e-03 -1.255265e-02
<VARIANCE> 25
 5.861395e+01 3.876106e+01 4.187193e+01 3.405584e+01 4.414338e+01 4.560874e+01 5.167349e+01 4.561368e+01 3.483361e+01 2.773950e+01 3.310555e+01 2.349122e+01 1.522918e+00 1.037582e+00 1.293040e+00 1.479618e+00 1.888099e+00 2.091717e+00 2.225197e+00 2.179906e+00 1.796479e+00 1.620783e+00 1.613829e+00 1.364862e+00 8.874317e-01
<GCONST> 9.563836e+01
<TRANSP> 5
 0.000000e+00 1.000000e+00 0.000000e+00 0.000000e+00 0.000000e+00
 0.000000e+00 6.000000e-01 4.000000e-01 0.000000e+00 0.000000e+00
 0.000000e+00 0.000000e+00 6.000000e-01 4.000000e-01 0.000000e+00
 0.000000e+00 0.000000e+00 0.000000e+00 7.000000e-01 3.000000e-01
 0.000000e+00 0.000000e+00 0.000000e+00 0.000000e+00 0.000000e+00
<ENDHMM>
~h "aw"
<BEGINHMM>
<NUMSTATES> 5
<STATE> 2
<MEAN> 25
 -1.984788e-09 -1.478174e-08 -7.675977e-09 -1.597700e-08 -4.747591e-08 -4.174635e-08 1.181004e-08 -5.126182e-08 -2.633682e-08 1.395383e-09 3.034204e-08 2.347204e-08 6.262808e-03 2.009691e-03 -1.046709e-03 7.016656e-04 -5.620404e-03 -7.011942e-04 -1.884909e-03 -1.185009e-03 -5.735792e-03 -1.017377e-03 -4.267860e-03 -1.605519e-03 -1.255265e-02
<VARIANCE> 25
 5.861395e+01 3.876106e+01 4.187193e+01 3.405584e+01 4.414338e+01 4.560874e+01 5.167349e+01 4.561368e+01 3.483361e+01 2.773950e+01 3.310555e+01 2.349122e+01 1.522918e+00 1.037582e+00 1.293040e+00 1.479618e+00 1.888099e+00 2.091717e+00 2.225197e+00 2.179906e+00 1.796479e+00 1.620783e+00 1.613829e+00 1.364862e+00 8.874317e-01
<GCONST> 9.563836e+01
<STATE> 3
<MEAN> 25
 -1.984788e-09 -1.478174e-08 -7.675977e-09 -1.597700e-08 -4.747591e-08 -4.174635e-08 1.181004e-08 -5.126182e-08 -2.633682e-08 1.395383e-09 3.034204e-08 2.347204e-08 6.262808e-03 2.009691e-03 -1.046709e-03 7.016656e-04 -5.620404e-03 -7.011942e-04 -1.884909e-03 -1.185009e-03 -5.735792e-03 -1.017377e-03 -4.267860e-03 -1.605519e-03 -1.255265e-02
<VARIANCE> 25
 5.861395e+01 3.876106e+01 4.187193e+01 3.405584e+01 4.414338e+01 4.560874e+01 5.167349e+01 4.561368e+01 3.483361e+01 2.773950e+01 3.310555e+01 2.349122e+01 1.522918e+00 1.037582e+00 1.293040e+00 1.479618e+00 1.888099e+00 2.091717e+00 2.225197e+00 2.179906e+00 1.796479e+00 1.620783e+00 1.613829e+00 1.364862e+00 8.874317e-01
<GCONST> 9.563836e+01
<STATE> 4
<MEAN> 25
 -1.984788e-09 -1.478174e-08 -7.675977e-09 -1.597700e-08 -4.747591e-08 -4.174635e-08 1.181004e-08 -5.126182e-08 -2.633682e-08 1.395383e-09 3.034204e-08 2.347204e-08 6.262808e-03 2.009691e-03 -1.046709e-03 7.016656e-04 -5.620404e-03 -7.011942e-04 -1.884909e-03 -1.185009e-03 -5.735792e-03 -1.017377e-03 -4.267860e-03 -1.605519e-03 -1.255265e-02
<VARIANCE> 25
 5.861395e+01 3.876106e+01 4.187193e+01 3.405584e+01 4.414338e+01 4.560874e+01 5.167349e+01 4.561368e+01 3.483361e+01 2.773950e+01 3.310555e+01 2.349122e+01 1.522918e+00 1.037582e+00 1.293040e+00 1.479618e+00 1.888099e+00 2.091717e+00 2.225197e+00 2.179906e+00 1.796479e+00 1.620783e+00 1.613829e+00 1.364862e+00 8.874317e-01
<GCONST> 9.563836e+01
<TRANSP> 5
 0.000000e+00 1.000000e+00 0.000000e+00 0.000000e+00 0.000000e+00
 0.000000e+00 6.000000e-01 4.000000e-01 0.000000e+00 0.000000e+00
 0.000000e+00 0.000000e+00 6.000000e-01 4.000000e-01 0.000000e+00
 0.000000e+00 0.000000e+00 0.000000e+00 7.000000e-01 3.000000e-01
 0.000000e+00 0.000000e+00 0.000000e+00 0.000000e+00 0.000000e+00
<ENDHMM>
~h "t"
<BEGINHMM>
<NUMSTATES> 5
<STATE> 2
<MEAN> 25
 -1.984788e-09 -1.478174e-08 -7.675977e-09 -1.597700e-08 -4.747591e-08 -4.174635e-08 1.181004e-08 -5.126182e-08 -2.633682e-08 1.395383e-09 3.034204e-08 2.347204e-08 6.262808e-03 2.009691e-03 -1.046709e-03 7.016656e-04 -5.620404e-03 -7.011942e-04 -1.884909e-03 -1.185009e-03 -5.735792e-03 -1.017377e-03 -4.267860e-03 -1.605519e-03 -1.255265e-02
<VARIANCE> 25
 5.861395e+01 3.876106e+01 4.187193e+01 3.405584e+01 4.414338e+01 4.560874e+01 5.167349e+01 4.561368e+01 3.483361e+01 2.773950e+01 3.310555e+01 2.349122e+01 1.522918e+00 1.037582e+00 1.293040e+00 1.479618e+00 1.888099e+00 2.091717e+00 2.225197e+00 2.179906e+00 1.796479e+00 1.620783e+00 1.613829e+00 1.364862e+00 8.874317e-01
<GCONST> 9.563836e+01
<STATE> 3
<MEAN> 25
 -1.984788e-09 -1.478174e-08 -7.675977e-09 -1.597700e-08 -4.747591e-08 -4.174635e-08 1.181004e-08 -5.126182e-08 -2.633682e-08 1.395383e-09 3.034204e-08 2.347204e-08 6.262808e-03 2.009691e-03 -1.046709e-03 7.016656e-04 -5.620404e-03 -7.011942e-04 -1.884909e-03 -1.185009e-03 -5.735792e-03 -1.017377e-03 -4.267860e-03 -1.605519e-03 -1.255265e-02
<VARIANCE> 25
 5.861395e+01 3.876106e+01 4.187193e+01 3.405584e+01 4.414338e+01 4.560874e+01 5.167349e+01 4.561368e+01 3.483361e+01 2.773950e+01 3.310555e+01 2.349122e+01 1.522918e+00 1.037582e+00 1.293040e+00 1.479618e+00 1.888099e+00 2.091717e+00 2.225197e+00 2.179906e+00 1.796479e+00 1.620783e+00 1.613829e+00 1.364862e+00 8.874317e-01
<GCONST> 9.563836e+01
<STATE> 4
<MEAN> 25
 -1.984788e-09 -1.478174e-08 -7.675977e-09 -1.597700e-08 -4.747591e-08 -4.174635e-08 1.181004e-08 -5.126182e-08 -2.633682e-08 1.395383e-09 3.034204e-08 2.347204e-08 6.262808e-03 2.009691e-03 -1.046709e-03 7.016656e-04 -5.620404e-03 -7.011942e-04 -1.884909e-03 -1.185009e-03 -5.735792e-03 -1.017377e-03 -4.267860e-03 -1.605519e-03 -1.255265e-02
<VARIANCE> 25
 5.861395e+01 3.876106e+01 4.187193e+01 3.405584e+01 4.414338e+01 4.560874e+01 5.167349e+01 4.561368e+01 3.483361e+01 2.773950e+01 3.310555e+01 2.349122e+01 1.522918e+00 1.037582e+00 1.293040e+00 1.479618e+00 1.888099e+00 2.091717e+00 2.225197e+00 2.179906e+00 1.796479e+00 1.620783e+00 1.613829e+00 1.364862e+00 8.874317e-01
<GCONST> 9.563836e+01
<TRANSP> 5
 0.000000e+00 1.000000e+00 0.000000e+00 0.000000e+00 0.000000e+00
 0.000000e+00 6.000000e-01 4.000000e-01 0.000000e+00 0.000000e+00
 0.000000e+00 0.000000e+00 6.000000e-01 4.000000e-01 0.000000e+00
 0.000000e+00 0.000000e+00 0.000000e+00 7.000000e-01 3.000000e-01
 0.000000e+00 0.000000e+00 0.000000e+00 0.000000e+00 0.000000e+00
<ENDHMM>
~h "k"
<BEGINHMM>
<NUMSTATES> 5
<STATE> 2
<MEAN> 25
 -1.984788e-09 -1.478174e-08 -7.675977e-09 -1.597700e-08 -4.747591e-08 -4.174635e-08 1.181004e-08 -5.126182e-08 -2.633682e-08 1.395383e-09 3.034204e-08 2.347204e-08 6.262808e-03 2.009691e-03 -1.046709e-03 7.016656e-04 -5.620404e-03 -7.011942e-04 -1.884909e-03 -1.185009e-03 -5.735792e-03 -1.017377e-03 -4.267860e-03 -1.605519e-03 -1.255265e-02
<VARIANCE> 25
 5.861395e+01 3.876106e+01 4.187193e+01 3.405584e+01 4.414338e+01 4.560874e+01 5.167349e+01 4.561368e+01 3.483361e+01 2.773950e+01 3.310555e+01 2.349122e+01 1.522918e+00 1.037582e+00 1.293040e+00 1.479618e+00 1.888099e+00 2.091717e+00 2.225197e+00 2.179906e+00 1.796479e+00 1.620783e+00 1.613829e+00 1.364862e+00 8.874317e-01
<GCONST> 9.563836e+01
<STATE> 3
<MEAN> 25
 -1.984788e-09 -1.478174e-08 -7.675977e-09 -1.597700e-08 -4.747591e-08 -4.174635e-08 1.181004e-08 -5.126182e-08 -2.633682e-08 1.395383e-09 3.034204e-08 2.347204e-08 6.262808e-03 2.009691e-03 -1.046709e-03 7.016656e-04 -5.620404e-03 -7.011942e-04 -1.884909e-03 -1.185009e-03 -5.735792e-03 -1.017377e-03 -4.267860e-03 -1.605519e-03 -1.255265e-02
<VARIANCE> 25
 5.861395e+01 3.876106e+01 4.187193e+01 3.405584e+01 4.414338e+01 4.560874e+01 5.167349e+01 4.561368e+01 3.483361e+01 2.773950e+01 3.310555e+01 2.349122e+01 1.522918e+00 1.037582e+00 1.293040e+00 1.479618e+00 1.888099e+00 2.091717e+00 2.225197e+00 2.179906e+00 1.796479e+00 1.620783e+00 1.613829e+00 1.364862e+00 8.874317e-01
<GCONST> 9.563836e+01
<STATE> 4
<MEAN> 25
 -1.984788e-09 -1.478174e-08 -7.675977e-09 -1.597700e-08 -4.747591e-08 -4.174635e-08 1.181004e-08 -5.126182e-08 -2.633682e-08 1.395383e-09 3.034204e-08 2.347204e-08 6.262808e-03 2.009691e-03 -1.046709e-03 7.016656e-04 -5.620404e-03 -7.011942e-04 -1.884909e-03 -1.185009e-03 -5.735792e-03 -1.017377e-03 -4.267860e-03 -1.605519e-03 -1.255265e-02
<VARIANCE> 25
 5.861395e+01 3.876106e+01 4.187193e+01 3.405584e+01 4.414338e+01 4.560874e+01 5.167349e+01 4.561368e+01 3.483361e+01 2.773950e+01 3.310555e+01 2.349122e+01 1.522918e+00 1.037582e+00 1.293040e+00 1.479618e+00 1.888099e+00 2.091717e+00 2.225197e+00 2.179906e+00 1.796479e+00 1.620783e+00 1.613829e+00 1.364862e+00 8.874317e-01
<GCONST> 9.563836e+01
<TRANSP> 5
 0.000000e+00 1.000000e+00 0.000000e+00 0.000000e+00 0.000000e+00
 0.000000e+00 6.000000e-01 4.000000e-01 0.000000e+00 0.000000e+00
 0.000000e+00 0.000000e+00 6.000000e-01 4.000000e-01 0.000000e+00
 0.000000e+00 0.000000e+00 0.000000e+00 7.000000e-01 3.000000e-01
 0.000000e+00 0.000000e+00 0.000000e+00 0.000000e+00 0.000000e+00
<ENDHMM>
~h "s"
<BEGINHMM>
<NUMSTATES> 5
<STATE> 2
<MEAN> 25
 -1.984788e-09 -1.478174e-08 -7.675977e-09 -1.597700e-08 -4.747591e-08 -4.174635e-08 1.181004e-08 -5.126182e-08 -2.633682e-08 1.395383e-09 3.034204e-08 2.347204e-08 6.262808e-03 2.009691e-03 -1.046709e-03 7.016656e-04 -5.620404e-03 -7.011942e-04 -1.884909e-03 -1.185009e-03 -5.735792e-03 -1.017377e-03 -4.267860e-03 -1.605519e-03 -1.255265e-02
<VARIANCE> 25
 5.861395e+01 3.876106e+01 4.187193e+01 3.405584e+01 4.414338e+01 4.560874e+01 5.167349e+01 4.561368e+01 3.483361e+01 2.773950e+01 3.310555e+01 2.349122e+01 1.522918e+00 1.037582e+00 1.293040e+00 1.479618e+00 1.888099e+00 2.091717e+00 2.225197e+00 2.179906e+00 1.796479e+00 1.620783e+00 1.613829e+00 1.364862e+00 8.874317e-01
<GCONST> 9.563836e+01
<STATE> 3
<MEAN> 25
 -1.984788e-09 -1.478174e-08 -7.675977e-09 -1.597700e-08 -4.747591e-08 -4.174635e-08 1.181004e-08 -5.126182e-08 -2.633682e-08 1.395383e-09 3.034204e-08 2.347204e-08 6.262808e-03 2.009691e-03 -1.046709e-03 7.016656e-04 -5.620404e-03 -7.011942e-04 -1.884909e-03 -1.185009e-03 -5.735792e-03 -1.017377e-03 -4.267860e-03 -1.605519e-03 -1.255265e-02
<VARIANCE> 25
 5.861395e+01 3.876106e+01 4.187193e+01 3.405584e+01 4.414338e+01 4.560874e+01 5.167349e+01 4.561368e+01 3.483361e+01 2.773950e+01 3.310555e+01 2.349122e+01 1.522918e+00 1.037582e+00 1.293040e+00 1.479618e+00 1.888099e+00 2.091717e+00 2.225197e+00 2.179906e+00 1.796479e+00 1.620783e+00 1.613829e+00 1.364862e+00 8.874317e-01
<GCONST> 9.563836e+01
<STATE> 4
<MEAN> 25
 -1.984788e-09 -1.478174e-08 -7.675977e-09 -1.597700e-08 -4.747591e-08 -4.174635e-08 1.181004e-08 -5.126182e-08 -2.633682e-08 1.395383e-09 3.034204e-08 2.347204e-08 6.262808e-03 2.009691e-03 -1.046709e-03 7.016656e-04 -5.620404e-03 -7.011942e-04 -1.884909e-03 -1.185009e-03 -5.735792e-03 -1.017377e-03 -4.267860e-03 -1.605519e-03 -1.255265e-02
<VARIANCE> 25
 5.861395e+01 3.876106e+01 4.187193e+01 3.405584e+01 4.414338e+01 4.560874e+01 5.167349e+01 4.561368e+01 3.483361e+01 2.773950e+01 3.310555e+01 2.349122e+01 1.522918e+00 1.037582e+00 1.293040e+00 1.479618e+00 1.888099e+00 2.091717e+00 2.225197e+00 2.179906e+00 1.796479e+00 1.620783e+00 1.613829e+00 1.364862e+00 8.874317e-01
<GCONST> 9.563836e+01
<TRANSP> 5
 0.000000e+00 1.000000e+00 0.000000e+00 0.000000e+00 0.000000e+00
 0.000000e+00 6.000000e-01 4.000000e-01 0.000000e+00 0.000000e+00
 0.000000e+00 0.000000e+00 6.000000e-01 4.000000e-01 0.000000e+00
 0.000000e+00 0.000000e+00 0.000000e+00 7.000000e-01 3.000000e-01
 0.000000e+00 0.000000e+00 0.000000e+00 0.000000e+00 0.000000e+00
<ENDHMM>
~h "eh"
<BEGINHMM>
<NUMSTATES> 5
<STATE> 2
<MEAN> 25
 -1.984788e-09 -1.478174e-08 -7.675977e-09 -1.597700e-08 -4.747591e-08 -4.174635e-08 1.181004e-08 -5.126182e-08 -2.633682e-08 1.395383e-09 3.034204e-08 2.347204e-08 6.262808e-03 2.009691e-03 -1.046709e-03 7.016656e-04 -5.620404e-03 -7.011942e-04 -1.884909e-03 -1.185009e-03 -5.735792e-03 -1.017377e-03 -4.267860e-03 -1.605519e-03 -1.255265e-02
<VARIANCE> 25
 5.861395e+01 3.876106e+01 4.187193e+01 3.405584e+01 4.414338e+01 4.560874e+01 5.167349e+01 4.561368e+01 3.483361e+01 2.773950e+01 3.310555e+01 2.349122e+01 1.522918e+00 1.037582e+00 1.293040e+00 1.479618e+00 1.888099e+00 2.091717e+00 2.225197e+00 2.179906e+00 1.796479e+00 1.620783e+00 1.613829e+00 1.364862e+00 8.874317e-01
<GCONST> 9.563836e+01
<STATE> 3
<MEAN> 25
 -1.984788e-09 -1.478174e-08 -7.675977e-09 -1.597700e-08 -4.747591e-08 -4.174635e-08 1.181004e-08 -5.126182e-08 -2.633682e-08 1.395383e-09 3.034204e-08 2.347204e-08 6.262808e-03 2.009691e-03 -1.046709e-03 7.016656e-04 -5.620404e-03 -7.011942e-04 -1.884909e-03 -1.185009e-03 -5.735792e-03 -1.017377e-03 -4.267860e-03 -1.605519e-03 -1.255265e-02
<VARIANCE> 25
 5.861395e+01 3.876106e+01 4.187193e+01 3.405584e+01 4.414338e+01 4.560874e+01 5.167349e+01 4.561368e+01 3.483361e+01 2.773950e+01 3.310555e+01 2.349122e+01 1.522918e+00 1.037582e+00 1.293040e+00 1.479618e+00 1.888099e+00 2.091717e+00 2.225197e+00 2.179906e+00 1.796479e+00 1.620783e+00 1.613829e+00 1.364862e+00 8.874317e-01
<GCONST> 9.563836e+01
<STATE> 4
<MEAN> 25
 -1.984788e-09 -1.478174e-08 -7.675977e-09 -1.597700e-08 -4.747591e-08 -4.174635e-08 1.181004e-08 -5.126182e-08 -2.633682e-08 1.395383e-09 3.034204e-08 2.347204e-08 6.262808e-03 2.009691e-03 -1.046709e-03 7.016656e-04 -5.620404e-03 -7.011942e-04 -1.884909e-03 -1.185009e-03 -5.735792e-03 -1.017377e-03 -4.267860e-03 -1.605519e-03 -1.255265e-02
<VARIANCE> 25
 5.861395e+01 3.876106e+01 4.187193e+01 3.405584e+01 4.414338e+01 4.560874e+01 5.167349e+01 4.561368e+01 3.483361e+01 2.773950e+01 3.310555e+01 2.349122e+01 1.522918e+00 1.037582e+00 1.293040e+00 1.479618e+00 1.888099e+00 2.091717e+00 2.225197e+00 2.179906e+00 1.796479e+00 1.620783e+00 1.613829e+00 1.364862e+00 8.874317e-01
<GCONST> 9.563836e+01
<TRANSP> 5
 0.000000e+00 1.000000e+00 0.000000e+00 0.000000e+00 0.000000e+00
 0.000000e+00 6.000000e-01 4.000000e-01 0.000000e+00 0.000000e+00
 0.000000e+00 0.000000e+00 6.000000e-01 4.000000e-01 0.000000e+00
 0.000000e+00 0.000000e+00 0.000000e+00 7.000000e-01 3.000000e-01
 0.000000e+00 0.000000e+00 0.000000e+00 0.000000e+00 0.000000e+00
<ENDHMM>
~h "p"
<BEGINHMM>
<NUMSTATES> 5
<STATE> 2
<MEAN> 25
 -1.984788e-09 -1.478174e-08 -7.675977e-09 -1.597700e-08 -4.747591e-08 -4.174635e-08 1.181004e-08 -5.126182e-08 -2.633682e-08 1.395383e-09 3.034204e-08 2.347204e-08 6.262808e-03 2.009691e-03 -1.046709e-03 7.016656e-04 -5.620404e-03 -7.011942e-04 -1.884909e-03 -1.185009e-03 -5.735792e-03 -1.017377e-03 -4.267860e-03 -1.605519e-03 -1.255265e-02
<VARIANCE> 25
 5.861395e+01 3.876106e+01 4.187193e+01 3.405584e+01 4.414338e+01 4.560874e+01 5.167349e+01 4.561368e+01 3.483361e+01 2.773950e+01 3.310555e+01 2.349122e+01 1.522918e+00 1.037582e+00 1.293040e+00 1.479618e+00 1.888099e+00 2.091717e+00 2.225197e+00 2.179906e+00 1.796479e+00 1.620783e+00 1.613829e+00 1.364862e+00 8.874317e-01
<GCONST> 9.563836e+01
<STATE> 3
<MEAN> 25
 -1.984788e-09 -1.478174e-08 -7.675977e-09 -1.597700e-08 -4.747591e-08 -4.174635e-08 1.181004e-08 -5.126182e-08 -2.633682e-08 1.395383e-09 3.034204e-08 2.347204e-08 6.262808e-03 2.009691e-03 -1.046709e-03 7.016656e-04 -5.620404e-03 -7.011942e-04 -1.884909e-03 -1.185009e-03 -5.735792e-03 -1.017377e-03 -4.267860e-03 -1.605519e-03 -1.255265e-02
<VARIANCE> 25
 5.861395e+01 3.876106e+01 4.187193e+01 3.405584e+01 4.414338e+01 4.560874e+01 5.167349e+01 4.561368e+01 3.483361e+01 2.773950e+01 3.310555e+01 2.349122e+01 1.522918e+00 1.037582e+00 1.293040e+00 1.479618e+00 1.888099e+00 2.091717e+00 2.225197e+00 2.179906e+00 1.796479e+00 1.620783e+00 1.613829e+00 1.364862e+00 8.874317e-01
<GCONST> 9.563836e+01
<STATE> 4
<MEAN> 25
 -1.984788e-09 -1.478174e-08 -7.675977e-09 -1.597700e-08 -4.747591e-08 -4.174635e-08 1.181004e-08 -5.126182e-08 -2.633682e-08 1.395383e-09 3.034204e-08 2.347204e-08 6.262808e-03 2.009691e-03 -1.046709e-03 7.016656e-04 -5.620404e-03 -7.011942e-04 -1.884909e-03 -1.185009e-03 -5.735792e-03 -1.017377e-03 -4.267860e-03 -1.605519e-03 -1.255265e-02
<VARIANCE> 25
 5.861395e+01 3.876106e+01 4.187193e+01 3.405584e+01 4.414338e+01 4.560874e+01 5.167349e+01 4.561368e+01 3.483361e+01 2.773950e+01 3.310555e+01 2.349122e+01 1.522918e+00 1.037582e+00 1.293040e+00 1.479618e+00 1.888099e+00 2.091717e+00 2.225197e+00 2.179906e+00 1.796479e+00 1.620783e+00 1.613829e+00 1.364862e+00 8.874317e-01
<GCONST> 9.563836e+01
<TRANSP> 5
 0.000000e+00 1.000000e+00 0.000000e+00 0.000000e+00 0.000000e+00
 0.000000e+00 6.000000e-01 4.000000e-01 0.000000e+00 0.000000e+00
 0.000000e+00 0.000000e+00 6.000000e-01 4.000000e-01 0.000000e+00
 0.000000e+00 0.000000e+00 0.000000e+00 7.000000e-01 3.000000e-01
 0.000000e+00 0.000000e+00 0.000000e+00 0.000000e+00 0.000000e+00
<ENDHMM>
~h "w"
<BEGINHMM>
<NUMSTATES> 5
<STATE> 2
<MEAN> 25
 -1.984788e-09 -1.478174e-08 -7.675977e-09 -1.597700e-08 -4.747591e-08 -4.174635e-08 1.181004e-08 -5.126182e-08 -2.633682e-08 1.395383e-09 3.034204e-08 2.347204e-08 6.262808e-03 2.009691e-03 -1.046709e-03 7.016656e-04 -5.620404e-03 -7.011942e-04 -1.884909e-03 -1.185009e-03 -5.735792e-03 -1.017377e-03 -4.267860e-03 -1.605519e-03 -1.255265e-02
<VARIANCE> 25
 5.861395e+01 3.876106e+01 4.187193e+01 3.405584e+01 4.414338e+01 4.560874e+01 5.167349e+01 4.561368e+01 3.483361e+01 2.773950e+01 3.310555e+01 2.349122e+01 1.522918e+00 1.037582e+00 1.293040e+00 1.479618e+00 1.888099e+00 2.091717e+00 2.225197e+00 2.179906e+00 1.796479e+00 1.620783e+00 1.613829e+00 1.364862e+00 8.874317e-01
<GCONST> 9.563836e+01
<STATE> 3
<MEAN> 25
 -1.984788e-09 -1.478174e-08 -7.675977e-09 -1.597700e-08 -4.747591e-08 -4.174635e-08 1.181004e-08 -5.126182e-08 -2.633682e-08 1.395383e-09 3.034204e-08 2.347204e-08 6.262808e-03 2.009691e-03 -1.046709e-03 7.016656e-04 -5.620404e-03 -7.011942e-04 -1.884909e-03 -1.185009e-03 -5.735792e-03 -1.017377e-03 -4.267860e-03 -1.605519e-03 -1.255265e-02
<VARIANCE> 25
 5.861395e+01 3.876106e+01 4.187193e+01 3.405584e+01 4.414338e+01 4.560874e+01 5.167349e+01 4.561368e+01 3.483361e+01 2.773950e+01 3.310555e+01 2.349122e+01 1.522918e+00 1.037582e+00 1.293040e+00 1.479618e+00 1.888099e+00 2.091717e+00 2.225197e+00 2.179906e+00 1.796479e+00 1.620783e+00 1.613829e+00 1.364862e+00 8.874317e-01
<GCONST> 9.563836e+01
<STATE> 4
<MEAN> 25
 -1.984788e-09 -1.478174e-08 -7.675977e-09 -1.597700e-08 -4.747591e-08 -4.174635e-08 1.181004e-08 -5.126182e-08 -2.633682e-08 1.395383e-09 3.034204e-08 2.347204e-08 6.262808e-03 2.009691e-03 -1.046709e-03 7.016656e-04 -5.620404e-03 -7.011942e-04 -1.884909e-03 -1.185009e-03 -5.735792e-03 -1.017377e-03 -4.267860e-03 -1.605519e-03 -1.255265e-02
<VARIANCE> 25
 5.861395e+01 3.876106e+01 4.187193e+01 3.405584e+01 4.414338e+01 4.560874e+01 5.167349e+01 4.561368e+01 3.483361e+01 2.773950e+01 3.310555e+01 2.349122e+01 1.522918e+00 1.037582e+00 1.293040e+00 1.479618e+00 1.888099e+00 2.091717e+00 2.225197e+00 2.179906e+00 1.796479e+00 1.620783e+00 1.613829e+00 1.364862e+00 8.874317e-01
<GCONST> 9.563836e+01
<TRANSP> 5
 0.000000e+00 1.000000e+00 0.000000e+00 0.000000e+00 0.000000e+00
 0.000000e+00 6.000000e-01 4.000000e-01 0.000000e+00 0.000000e+00
 0.000000e+00 0.000000e+00 6.000000e-01 4.000000e-01 0.000000e+00
 0.000000e+00 0.000000e+00 0.000000e+00 7.000000e-01 3.000000e-01
 0.000000e+00 0.000000e+00 0.000000e+00 0.000000e+00 0.000000e+00
<ENDHMM>
~h "ay"
<BEGINHMM>
<NUMSTATES> 5
<STATE> 2
<MEAN> 25
 -1.984788e-09 -1.478174e-08 -7.675977e-09 -1.597700e-08 -4.747591e-08 -4.174635e-08 1.181004e-08 -5.126182e-08 -2.633682e-08 1.395383e-09 3.034204e-08 2.347204e-08 6.262808e-03 2.009691e-03 -1.046709e-03 7.016656e-04 -5.620404e-03 -7.011942e-04 -1.884909e-03 -1.185009e-03 -5.735792e-03 -1.017377e-03 -4.267860e-03 -1.605519e-03 -1.255265e-02
<VARIANCE> 25
 5.861395e+01 3.876106e+01 4.187193e+01 3.405584e+01 4.414338e+01 4.560874e+01 5.167349e+01 4.561368e+01 3.483361e+01 2.773950e+01 3.310555e+01 2.349122e+01 1.522918e+00 1.037582e+00 1.293040e+00 1.479618e+00 1.888099e+00 2.091717e+00 2.225197e+00 2.179906e+00 1.796479e+00 1.620783e+00 1.613829e+00 1.364862e+00 8.874317e-01
<GCONST> 9.563836e+01
<STATE> 3
<MEAN> 25
 -1.984788e-09 -1.478174e-08 -7.675977e-09 -1.597700e-08 -4.747591e-08 -4.174635e-08 1.181004e-08 -5.126182e-08 -2.633682e-08 1.395383e-09 3.034204e-08 2.347204e-08 6.262808e-03 2.009691e-03 -1.046709e-03 7.016656e-04 -5.620404e-03 -7.011942e-04 -1.884909e-03 -1.185009e-03 -5.735792e-03 -1.017377e-03 -4.267860e-03 -1.605519e-03 -1.255265e-02
<VARIANCE> 25
 5.861395e+01 3.876106e+01 4.187193e+01 3.405584e+01 4.414338e+01 4.560874e+01 5.167349e+01 4.561368e+01 3.483361e+01 2.773950e+01 3.310555e+01 2.349122e+01 1.522918e+00 1.037582e+00 1.293040e+00 1.479618e+00 1.888099e+00 2.091717e+00 2.225197e+00 2.179906e+00 1.796479e+00 1.620783e+00 1.613829e+00 1.364862e+00 8.874317e-01
<GCONST> 9.563836e+01
<STATE> 4
<MEAN> 25
 -1.984788e-09 -1.478174e-08 -7.675977e-09 -1.597700e-08 -4.747591e-08 -4.174635e-08 1.181004e-08 -5.126182e-08 -2.633682e-08 1.395383e-09 3.034204e-08 2.347204e-08 6.262808e-03 2.009691e-03 -1.046709e-03 7.016656e-04 -5.620404e-03 -7.011942e-04 -1.884909e-03 -1.185009e-03 -5.735792e-03 -1.017377e-03 -4.267860e-03 -1.605519e-03 -1.255265e-02
<VARIANCE> 25
 5.861395e+01 3.876106e+01 4.187193e+01 3.405584e+01 4.414338e+01 4.560874e+01 5.167349e+01 4.561368e+01 3.483361e+01 2.773950e+01 3.310555e+01 2.349122e+01 1.522918e+00 1.037582e+00 1.293040e+00 1.479618e+00 1.888099e+00 2.091717e+00 2.225197e+00 2.179906e+00 1.796479e+00 1.620783e+00 1.613829e+00 1.364862e+00 8.874317e-01
<GCONST> 9.563836e+01
<TRANSP> 5
 0.000000e+00 1.000000e+00 0.000000e+00 0.000000e+00 0.000000e+00
 0.000000e+00 6.000000e-01 4.000000e-01 0.000000e+00 0.000000e+00
 0.000000e+00 0.000000e+00 6.000000e-01 4.000000e-01 0.000000e+00
 0.000000e+00 0.000000e+00 0.000000e+00 7.000000e-01 3.000000e-01
 0.000000e+00 0.000000e+00 0.000000e+00 0.000000e+00 0.000000e+00
<ENDHMM>
~h "er"
<BEGINHMM>
<NUMSTATES> 5
<STATE> 2
<MEAN> 25
 -1.984788e-09 -1.478174e-08 -7.675977e-09 -1.597700e-08 -4.747591e-08 -4.174635e-08 1.181004e-08 -5.126182e-08 -2.633682e-08 1.395383e-09 3.034204e-08 2.347204e-08 6.262808e-03 2.009691e-03 -1.046709e-03 7.016656e-04 -5.620404e-03 -7.011942e-04 -1.884909e-03 -1.185009e-03 -5.735792e-03 -1.017377e-03 -4.267860e-03 -1.605519e-03 -1.255265e-02
<VARIANCE> 25
 5.861395e+01 3.876106e+01 4.187193e+01 3.405584e+01 4.414338e+01 4.560874e+01 5.167349e+01 4.561368e+01 3.483361e+01 2.773950e+01 3.310555e+01 2.349122e+01 1.522918e+00 1.037582e+00 1.293040e+00 1.479618e+00 1.888099e+00 2.091717e+00 2.225197e+00 2.179906e+00 1.796479e+00 1.620783e+00 1.613829e+00 1.364862e+00 8.874317e-01
<GCONST> 9.563836e+01
<STATE> 3
<MEAN> 25
 -1.984788e-09 -1.478174e-08 -7.675977e-09 -1.597700e-08 -4.747591e-08 -4.174635e-08 1.181004e-08 -5.126182e-08 -2.633682e-08 1.395383e-09 3.034204e-08 2.347204e-08 6.262808e-03 2.009691e-03 -1.046709e-03 7.016656e-04 -5.620404e-03 -7.011942e-04 -1.884909e-03 -1.185009e-03 -5.735792e-03 -1.017377e-03 -4.267860e-03 -1.605519e-03 -1.255265e-02
<VARIANCE> 25
 5.861395e+01 3.876106e+01 4.187193e+01 3.405584e+01 4.414338e+01 4.560874e+01 5.167349e+01 4.561368e+01 3.483361e+01 2.773950e+01 3.310555e+01 2.349122e+01 1.522918e+00 1.037582e+00 1.293040e+00 1.479618e+00 1.888099e+00 2.091717e+00 2.225197e+00 2.179906e+00 1.796479e+00 1.620783e+00 1.613829e+00 1.364862e+00 8.874317e-01
<GCONST> 9.563836e+01
<STATE> 4
<MEAN> 25
 -1.984788e-09 -1.478174e-08 -7.675977e-09 -1.597700e-08 -4.747591e-08 -4.174635e-08 1.181004e-08 -5.126182e-08 -2.633682e-08 1.395383e-09 3.034204e-08 2.347204e-08 6.262808e-03 2.009691e-03 -1.046709e-03 7.016656e-04 -5.620404e-03 -7.011942e-04 -1.884909e-03 -1.185009e-03 -5.735792e-03 -1.017377e-03 -4.267860e-03 -1.605519e-03 -1.255265e-02
<VARIANCE> 25
 5.861395e+01 3.876106e+01 4.187193e+01 3.405584e+01 4.414338e+01 4.560874e+01 5.167349e+01 4.561368e+01 3.483361e+01 2.773950e+01 3.310555e+01 2.349122e+01 1.522918e+00 1.037582e+00 1.293040e+00 1.479618e+00 1.888099e+00 2.091717e+00 2.225197e+00 2.179906e+00 1.796479e+00 1.620783e+00 1.613829e+00 1.364862e+00 8.874317e-01
<GCONST> 9.563836e+01
<TRANSP> 5
 0.000000e+00 1.000000e+00 0.000000e+00 0.000000e+00 0.000000e+00
 0.000000e+00 6.000000e-01 4.000000e-01 0.000000e+00 0.000000e+00
 0.000000e+00 0.000000e+00 6.000000e-01 4.000000e-01 0.000000e+00
 0.000000e+00 0.000000e+00 0.000000e+00 7.000000e-01 3.000000e-01
 0.000000e+00 0.000000e+00 0.000000e+00 0.000000e+00 0.000000e+00
<ENDHMM>
~h "r"
<BEGINHMM>
<NUMSTATES> 5
<STATE> 2
<MEAN> 25
 -1.984788e-09 -1.478174e-08 -7.675977e-09 -1.597700e-08 -4.747591e-08 -4.174635e-08 1.181004e-08 -5.126182e-08 -2.633682e-08 1.395383e-09 3.034204e-08 2.347204e-08 6.262808e-03 2.009691e-03 -1.046709e-03 7.016656e-04 -5.620404e-03 -7.011942e-04 -1.884909e-03 -1.185009e-03 -5.735792e-03 -1.017377e-03 -4.267860e-03 -1.605519e-03 -1.255265e-02
<VARIANCE> 25
 5.861395e+01 3.876106e+01 4.187193e+01 3.405584e+01 4.414338e+01 4.560874e+01 5.167349e+01 4.561368e+01 3.483361e+01 2.773950e+01 3.310555e+01 2.349122e+01 1.522918e+00 1.037582e+00 1.293040e+00 1.479618e+00 1.888099e+00 2.091717e+00 2.225197e+00 2.179906e+00 1.796479e+00 1.620783e+00 1.613829e+00 1.364862e+00 8.874317e-01
<GCONST> 9.563836e+01
<STATE> 3
<MEAN> 25
 -1.984788e-09 -1.478174e-08 -7.675977e-09 -1.597700e-08 -4.747591e-08 -4.174635e-08 1.181004e-08 -5.126182e-08 -2.633682e-08 1.395383e-09 3.034204e-08 2.347204e-08 6.262808e-03 2.009691e-03 -1.046709e-03 7.016656e-04 -5.620404e-03 -7.011942e-04 -1.884909e-03 -1.185009e-03 -5.735792e-03 -1.017377e-03 -4.267860e-03 -1.605519e-03 -1.255265e-02
<VARIANCE> 25
 5.861395e+01 3.876106e+01 4.187193e+01 3.405584e+01 4.414338e+01 4.560874e+01 5.167349e+01 4.561368e+01 3.483361e+01 2.773950e+01 3.310555e+01 2.349122e+01 1.522918e+00 1.037582e+00 1.293040e+00 1.479618e+00 1.888099e+00 2.091717e+00 2.225197e+00 2.179906e+00 1.796479e+00 1.620783e+00 1.613829e+00 1.364862e+00 8.874317e-01
<GCONST> 9.563836e+01
<STATE> 4
<MEAN> 25
 -1.984788e-09 -1.478174e-08 -7.675977e-09 -1.597700e-08 -4.747591e-08 -4.174635e-08 1.181004e-08 -5.126182e-08 -2.633682e-08 1.395383e-09 3.034204e-08 2.347204e-08 6.262808e-03 2.009691e-03 -1.046709e-03 7.016656e-04 -5.620404e-03 -7.011942e-04 -1.884909e-03 -1.185009e-03 -5.735792e-03 -1.017377e-03 -4.267860e-03 -1.605519e-03 -1.255265e-02
<VARIANCE> 25
 5.861395e+01 3.876106e+01 4.187193e+01 3.405584e+01 4.414338e+01 4.560874e+01 5.167349e+01 4.561368e+01 3.483361e+01 2.773950e+01 3.310555e+01 2.349122e+01 1.522918e+00 1.037582e+00 1.293040e+00 1.479618e+00 1.888099e+00 2.091717e+00 2.225197e+00 2.179906e+00 1.796479e+00 1.620783e+00 1.613829e+00 1.364862e+00 8.874317e-01
<GCONST> 9.563836e+01
<TRANSP> 5
 0.000000e+00 1.000000e+00 0.000000e+00 0.000000e+00 0.000000e+00
 0.000000e+00 6.000000e-01 4.000000e-01 0.000000e+00 0.000000e+00
 0.000000e+00 0.000000e+00 6.000000e-01 4.000000e-01 0.000000e+00
 0.000000e+00 0.000000e+00 0.000000e+00 7.000000e-01 3.000000e-01
 0.000000e+00 0.000000e+00 0.000000e+00 0.000000e+00 0.000000e+00
<ENDHMM>
~h "ao"
<BEGINHMM>
<NUMSTATES> 5
<STATE> 2
<MEAN> 25
 -1.984788e-09 -1.478174e-08 -7.675977e-09 -1.597700e-08 -4.747591e-08 -4.174635e-08 1.181004e-08 -5.126182e-08 -2.633682e-08 1.395383e-09 3.034204e-08 2.347204e-08 6.262808e-03 2.009691e-03 -1.046709e-03 7.016656e-04 -5.620404e-03 -7.011942e-04 -1.884909e-03 -1.185009e-03 -5.735792e-03 -1.017377e-03 -4.267860e-03 -1.605519e-03 -1.255265e-02
<VARIANCE> 25
 5.861395e+01 3.876106e+01 4.187193e+01 3.405584e+01 4.414338e+01 4.560874e+01 5.167349e+01 4.561368e+01 3.483361e+01 2.773950e+01 3.310555e+01 2.349122e+01 1.522918e+00 1.037582e+00 1.293040e+00 1.479618e+00 1.888099e+00 2.091717e+00 2.225197e+00 2.179906e+00 1.796479e+00 1.620783e+00 1.613829e+00 1.364862e+00 8.874317e-01
<GCONST> 9.563836e+01
<STATE> 3
<MEAN> 25
 -1.984788e-09 -1.478174e-08 -7.675977e-09 -1.597700e-08 -4.747591e-08 -4.174635e-08 1.181004e-08 -5.126182e-08 -2.633682e-08 1.395383e-09 3.034204e-08 2.347204e-08 6.262808e-03 2.009691e-03 -1.046709e-03 7.016656e-04 -5.620404e-03 -7.011942e-04 -1.884909e-03 -1.185009e-03 -5.735792e-03 -1.017377e-03 -4.267860e-03 -1.605519e-03 -1.255265e-02
<VARIANCE> 25
 5.861395e+01 3.876106e+01 4.187193e+01 3.405584e+01 4.414338e+01 4.560874e+01 5.167349e+01 4.561368e+01 3.483361e+01 2.773950e+01 3.310555e+01 2.349122e+01 1.522918e+00 1.037582e+00 1.293040e+00 1.479618e+00 1.888099e+00 2.091717e+00 2.225197e+00 2.179906e+00 1.796479e+00 1.620783e+00 1.613829e+00 1.364862e+00 8.874317e-01
<GCONST> 9.563836e+01
<STATE> 4
<MEAN> 25
 -1.984788e-09 -1.478174e-08 -7.675977e-09 -1.597700e-08 -4.747591e-08 -4.174635e-08 1.181004e-08 -5.126182e-08 -2.633682e-08 1.395383e-09 3.034204e-08 2.347204e-08 6.262808e-03 2.009691e-03 -1.046709e-03 7.016656e-04 -5.620404e-03 -7.011942e-04 -1.884909e-03 -1.185009e-03 -5.735792e-03 -1.017377e-03 -4.267860e-03 -1.605519e-03 -1.255265e-02
<VARIANCE> 25
 5.861395e+01 3.876106e+01 4.187193e+01 3.405584e+01 4.414338e+01 4.560874e+01 5.167349e+01 4.561368e+01 3.483361e+01 2.773950e+01 3.310555e+01 2.349122e+01 1.522918e+00 1.037582e+00 1.293040e+00 1.479618e+00 1.888099e+00 2.091717e+00 2.225197e+00 2.179906e+00 1.796479e+00 1.620783e+00 1.613829e+00 1.364862e+00 8.874317e-01
<GCONST> 9.563836e+01
<TRANSP> 5
 0.000000e+00 1.000000e+00 0.000000e+00 0.000000e+00 0.000000e+00
 0.000000e+00 6.000000e-01 4.000000e-01 0.000000e+00 0.000000e+00
 0.000000e+00 0.000000e+00 6.000000e-01 4.000000e-01 0.000000e+00
 0.000000e+00 0.000000e+00 0.000000e+00 7.000000e-01 3.000000e-01
 0.000000e+00 0.000000e+00 0.000000e+00 0.000000e+00 0.000000e+00
<ENDHMM>
~h "ch"
<BEGINHMM>
<NUMSTATES> 5
<STATE> 2
<MEAN> 25
 -1.984788e-09 -1.478174e-08 -7.675977e-09 -1.597700e-08 -4.747591e-08 -4.174635e-08 1.181004e-08 -5.126182e-08 -2.633682e-08 1.395383e-09 3.034204e-08 2.347204e-08 6.262808e-03 2.009691e-03 -1.046709e-03 7.016656e-04 -5.620404e-03 -7.011942e-04 -1.884909e-03 -1.185009e-03 -5.735792e-03 -1.017377e-03 -4.267860e-03 -1.605519e-03 -1.255265e-02
<VARIANCE> 25
 5.861395e+01 3.876106e+01 4.187193e+01 3.405584e+01 4.414338e+01 4.560874e+01 5.167349e+01 4.561368e+01 3.483361e+01 2.773950e+01 3.310555e+01 2.349122e+01 1.522918e+00 1.037582e+00 1.293040e+00 1.479618e+00 1.888099e+00 2.091717e+00 2.225197e+00 2.179906e+00 1.796479e+00 1.620783e+00 1.613829e+00 1.364862e+00 8.874317e-01
<GCONST> 9.563836e+01
<STATE> 3
<MEAN> 25
 -1.984788e-09 -1.478174e-08 -7.675977e-09 -1.597700e-08 -4.747591e-08 -4.174635e-08 1.181004e-08 -5.126182e-08 -2.633682e-08 1.395383e-09 3.034204e-08 2.347204e-08 6.262808e-03 2.009691e-03 -1.046709e-03 7.016656e-04 -5.620404e-03 -7.011942e-04 -1.884909e-03 -1.185009e-03 -5.735792e-03 -1.017377e-03 -4.267860e-03 -1.605519e-03 -1.255265e-02
<VARIANCE> 25
 5.861395e+01 3.876106e+01 4.187193e+01 3.405584e+01 4.414338e+01 4.560874e+01 5.167349e+01 4.561368e+01 3.483361e+01 2.773950e+01 3.310555e+01 2.349122e+01 1.522918e+00 1.037582e+00 1.293040e+00 1.479618e+00 1.888099e+00 2.091717e+00 2.225197e+00 2.179906e+00 1.796479e+00 1.620783e+00 1.613829e+00 1.364862e+00 8.874317e-01
<GCONST> 9.563836e+01
<STATE> 4
<MEAN> 25
 -1.984788e-09 -1.478174e-08 -7.675977e-09 -1.597700e-08 -4.747591e-08 -4.174635e-08 1.181004e-08 -5.126182e-08 -2.633682e-08 1.395383e-09 3.034204e-08 2.347204e-08 6.262808e-03 2.009691e-03 -1.046709e-03 7.016656e-04 -5.620404e-03 -7.011942e-04 -1.884909e-03 -1.185009e-03 -5.735792e-03 -1.017377e-03 -4.267860e-03 -1.605519e-03 -1.255265e-02
<VARIANCE> 25
 5.861395e+01 3.876106e+01 4.187193e+01 3.405584e+01 4.414338e+01 4.560874e+01 5.167349e+01 4.561368e+01 3.483361e+01 2.773950e+01 3.310555e+01 2.349122e+01 1.522918e+00 1.037582e+00 1.293040e+00 1.479618e+00 1.888099e+00 2.091717e+00 2.225197e+00 2.179906e+00 1.796479e+00 1.620783e+00 1.613829e+00 1.364862e+00 8.874317e-01
<GCONST> 9.563836e+01
<TRANSP> 5
 0.000000e+00 1.000000e+00 0.000000e+00 0.000000e+00 0.000000e+00
 0.000000e+00 6.000000e-01 4.000000e-01 0.000000e+00 0.000000e+00
 0.000000e+00 0.000000e+00 6.000000e-01 4.000000e-01 0.000000e+00
 0.000000e+00 0.000000e+00 0.000000e+00 7.000000e-01 3.000000e-01
 0.000000e+00 0.000000e+00 0.000000e+00 0.000000e+00 0.000000e+00
<ENDHMM>
~h "uw"
<BEGINHMM>
<NUMSTATES> 5
<STATE> 2
<MEAN> 25
 -1.984788e-09 -1.478174e-08 -7.675977e-09 -1.597700e-08 -4.747591e-08 -4.174635e-08 1.181004e-08 -5.126182e-08 -2.633682e-08 1.395383e-09 3.034204e-08 2.347204e-08 6.262808e-03 2.009691e-03 -1.046709e-03 7.016656e-04 -5.620404e-03 -7.011942e-04 -1.884909e-03 -1.185009e-03 -5.735792e-03 -1.017377e-03 -4.267860e-03 -1.605519e-03 -1.255265e-02
<VARIANCE> 25
 5.861395e+01 3.876106e+01 4.187193e+01 3.405584e+01 4.414338e+01 4.560874e+01 5.167349e+01 4.561368e+01 3.483361e+01 2.773950e+01 3.310555e+01 2.349122e+01 1.522918e+00 1.037582e+00 1.293040e+00 1.479618e+00 1.888099e+00 2.091717e+00 2.225197e+00 2.179906e+00 1.796479e+00 1.620783e+00 1.613829e+00 1.364862e+00 8.874317e-01
<GCONST> 9.563836e+01
<STATE> 3
<MEAN> 25
 -1.984788e-09 -1.478174e-08 -7.675977e-09 -1.597700e-08 -4.747591e-08 -4.174635e-08 1.181004e-08 -5.126182e-08 -2.633682e-08 1.395383e-09 3.034204e-08 2.347204e-08 6.262808e-03 2.009691e-03 -1.046709e-03 7.016656e-04 -5.620404e-03 -7.011942e-04 -1.884909e-03 -1.185009e-03 -5.735792e-03 -1.017377e-03 -4.267860e-03 -1.605519e-03 -1.255265e-02
<VARIANCE> 25
 5.861395e+01 3.876106e+01 4.187193e+01 3.405584e+01 4.414338e+01 4.560874e+01 5.167349e+01 4.561368e+01 3.483361e+01 2.773950e+01 3.310555e+01 2.349122e+01 1.522918e+00 1.037582e+00 1.293040e+00 1.479618e+00 1.888099e+00 2.091717e+00 2.225197e+00 2.179906e+00 1.796479e+00 1.620783e+00 1.613829e+00 1.364862e+00 8.874317e-01
<GCONST> 9.563836e+01
<STATE> 4
<MEAN> 25
 -1.984788e-09 -1.478174e-08 -7.675977e-09 -1.597700e-08 -4.747591e-08 -4.174635e-08 1.181004e-08 -5.126182e-08 -2.633682e-08 1.395383e-09 3.034204e-08 2.347204e-08 6.262808e-03 2.009691e-03 -1.046709e-03 7.016656e-04 -5.620404e-03 -7.011942e-04 -1.884909e-03 -1.185009e-03 -5.735792e-03 -1.017377e-03 -4.267860e-03 -1.605519e-03 -1.255265e-02
<VARIANCE> 25
 5.861395e+01 3.876106e+01 4.187193e+01 3.405584e+01 4.414338e+01 4.560874e+01 5.167349e+01 4.561368e+01 3.483361e+01 2.773950e+01 3.310555e+01 2.349122e+01 1.522918e+00 1.037582e+00 1.293040e+00 1.479618e+00 1.888099e+00 2.091717e+00 2.225197e+00 2.179906e+00 1.796479e+00 1.620783e+00 1.613829e+00 1.364862e+00 8.874317e-01
<GCONST> 9.563836e+01
<TRANSP> 5
 0.000000e+00 1.000000e+00 0.000000e+00 0.000000e+00 0.000000e+00
 0.000000e+00 6.000000e-01 4.000000e-01 0.000000e+00 0.000000e+00
 0.000000e+00 0.000000e+00 6.000000e-01 4.000000e-01 0.000000e+00
 0.000000e+00 0.000000e+00 0.000000e+00 7.000000e-01 3.000000e-01
 0.000000e+00 0.000000e+00 0.000000e+00 0.000000e+00 0.000000e+00
<ENDHMM>
~h "iy"
<BEGINHMM>
<NUMSTATES> 5
<STATE> 2
<MEAN> 25
 -1.984788e-09 -1.478174e-08 -7.675977e-09 -1.597700e-08 -4.747591e-08 -4.174635e-08 1.181004e-08 -5.126182e-08 -2.633682e-08 1.395383e-09 3.034204e-08 2.347204e-08 6.262808e-03 2.009691e-03 -1.046709e-03 7.016656e-04 -5.620404e-03 -7.011942e-04 -1.884909e-03 -1.185009e-03 -5.735792e-03 -1.017377e-03 -4.267860e-03 -1.605519e-03 -1.255265e-02
<VARIANCE> 25
 5.861395e+01 3.876106e+01 4.187193e+01 3.405584e+01 4.414338e+01 4.560874e+01 5.167349e+01 4.561368e+01 3.483361e+01 2.773950e+01 3.310555e+01 2.349122e+01 1.522918e+00 1.037582e+00 1.293040e+00 1.479618e+00 1.888099e+00 2.091717e+00 2.225197e+00 2.179906e+00 1.796479e+00 1.620783e+00 1.613829e+00 1.364862e+00 8.874317e-01
<GCONST> 9.563836e+01
<STATE> 3
<MEAN> 25
 -1.984788e-09 -1.478174e-08 -7.675977e-09 -1.597700e-08 -4.747591e-08 -4.174635e-08 1.181004e-08 -5.126182e-08 -2.633682e-08 1.395383e-09 3.034204e-08 2.347204e-08 6.262808e-03 2.009691e-03 -1.046709e-03 7.016656e-04 -5.620404e-03 -7.011942e-04 -1.884909e-03 -1.185009e-03 -5.735792e-03 -1.017377e-03 -4.267860e-03 -1.605519e-03 -1.255265e-02
<VARIANCE> 25
 5.861395e+01 3.876106e+01 4.187193e+01 3.405584e+01 4.414338e+01 4.560874e+01 5.167349e+01 4.561368e+01 3.483361e+01 2.773950e+01 3.310555e+01 2.349122e+01 1.522918e+00 1.037582e+00 1.293040e+00 1.479618e+00 1.888099e+00 2.091717e+00 2.225197e+00 2.179906e+00 1.796479e+00 1.620783e+00 1.613829e+00 1.364862e+00 8.874317e-01
<GCONST> 9.563836e+01
<STATE> 4
<MEAN> 25
 -1.984788e-09 -1.478174e-08 -7.675977e-09 -1.597700e-08 -4.747591e-08 -4.174635e-08 1.181004e-08 -5.126182e-08 -2.633682e-08 1.395383e-09 3.034204e-08 2.347204e-08 6.262808e-03 2.009691e-03 -1.046709e-03 7.016656e-04 -5.620404e-03 -7.011942e-04 -1.884909e-03 -1.185009e-03 -5.735792e-03 -1.017377e-03 -4.267860e-03 -1.605519e-03 -1.255265e-02
<VARIANCE> 25
 5.861395e+01 3.876106e+01 4.187193e+01 3.405584e+01 4.414338e+01 4.560874e+01 5.167349e+01 4.561368e+01 3.483361e+01 2.773950e+01 3.310555e+01 2.349122e+01 1.522918e+00 1.037582e+00 1.293040e+00 1.479618e+00 1.888099e+00 2.091717e+00 2.225197e+00 2.179906e+00 1.796479e+00 1.620783e+00 1.613829e+00 1.364862e+00 8.874317e-01
<GCONST> 9.563836e+01
<TRANSP> 5
 0.000000e+00 1.000000e+00 0.000000e+00 0.000000e+00 0.000000e+00
 0.000000e+00 6.000000e-01 4.000000e-01 0.000000e+00 0.000000e+00
 0.000000e+00 0.000000e+00 6.000000e-01 4.000000e-01 0.000000e+00
 0.000000e+00 0.000000e+00 0.000000e+00 7.000000e-01 3.000000e-01
 0.000000e+00 0.000000e+00 0.000000e+00 0.000000e+00 0.000000e+00
<ENDHMM>
~h "v"
<BEGINHMM>
<NUMSTATES> 5
<STATE> 2
<MEAN> 25
 -1.984788e-09 -1.478174e-08 -7.675977e-09 -1.597700e-08 -4.747591e-08 -4.174635e-08 1.181004e-08 -5.126182e-08 -2.633682e-08 1.395383e-09 3.034204e-08 2.347204e-08 6.262808e-03 2.009691e-03 -1.046709e-03 7.016656e-04 -5.620404e-03 -7.011942e-04 -1.884909e-03 -1.185009e-03 -5.735792e-03 -1.017377e-03 -4.267860e-03 -1.605519e-03 -1.255265e-02
<VARIANCE> 25
 5.861395e+01 3.876106e+01 4.187193e+01 3.405584e+01 4.414338e+01 4.560874e+01 5.167349e+01 4.561368e+01 3.483361e+01 2.773950e+01 3.310555e+01 2.349122e+01 1.522918e+00 1.037582e+00 1.293040e+00 1.479618e+00 1.888099e+00 2.091717e+00 2.225197e+00 2.179906e+00 1.796479e+00 1.620783e+00 1.613829e+00 1.364862e+00 8.874317e-01
<GCONST> 9.563836e+01
<STATE> 3
<MEAN> 25
 -1.984788e-09 -1.478174e-08 -7.675977e-09 -1.597700e-08 -4.747591e-08 -4.174635e-08 1.181004e-08 -5.126182e-08 -2.633682e-08 1.395383e-09 3.034204e-08 2.347204e-08 6.262808e-03 2.009691e-03 -1.046709e-03 7.016656e-04 -5.620404e-03 -7.011942e-04 -1.884909e-03 -1.185009e-03 -5.735792e-03 -1.017377e-03 -4.267860e-03 -1.605519e-03 -1.255265e-02
<VARIANCE> 25
 5.861395e+01 3.876106e+01 4.187193e+01 3.405584e+01 4.414338e+01 4.560874e+01 5.167349e+01 4.561368e+01 3.483361e+01 2.773950e+01 3.310555e+01 2.349122e+01 1.522918e+00 1.037582e+00 1.293040e+00 1.479618e+00 1.888099e+00 2.091717e+00 2.225197e+00 2.179906e+00 1.796479e+00 1.620783e+00 1.613829e+00 1.364862e+00 8.874317e-01
<GCONST> 9.563836e+01
<STATE> 4
<MEAN> 25
 -1.984788e-09 -1.478174e-08 -7.675977e-09 -1.597700e-08 -4.747591e-08 -4.174635e-08 1.181004e-08 -5.126182e-08 -2.633682e-08 1.395383e-09 3.034204e-08 2.347204e-08 6.262808e-03 2.009691e-03 -1.046709e-03 7.016656e-04 -5.620404e-03 -7.011942e-04 -1.884909e-03 -1.185009e-03 -5.735792e-03 -1.017377e-03 -4.267860e-03 -1.605519e-03 -1.255265e-02
<VARIANCE> 25
 5.861395e+01 3.876106e+01 4.187193e+01 3.405584e+01 4.414338e+01 4.560874e+01 5.167349e+01 4.561368e+01 3.483361e+01 2.773950e+01 3.310555e+01 2.349122e+01 1.522918e+00 1.037582e+00 1.293040e+00 1.479618e+00 1.888099e+00 2.091717e+00 2.225197e+00 2.179906e+00 1.796479e+00 1.620783e+00 1.613829e+00 1.364862e+00 8.874317e-01
<GCONST> 9.563836e+01
<TRANSP> 5
 0.000000e+00 1.000000e+00 0.000000e+00 0.000000e+00 0.000000e+00
 0.000000e+00 6.000000e-01 4.000000e-01 0.000000e+00 0.000000e+00
 0.000000e+00 0.000000e+00 6.000000e-01 4.000000e-01 0.000000e+00
 0.000000e+00 0.000000e+00 0.000000e+00 7.000000e-01 3.000000e-01
 0.000000e+00 0.000000e+00 0.000000e+00 0.000000e+00 0.000000e+00
<ENDHMM>
~h "z"
<BEGINHMM>
<NUMSTATES> 5
<STATE> 2
<MEAN> 25
 -1.984788e-09 -1.478174e-08 -7.675977e-09 -1.597700e-08 -4.747591e-08 -4.174635e-08 1.181004e-08 -5.126182e-08 -2.633682e-08 1.395383e-09 3.034204e-08 2.347204e-08 6.262808e-03 2.009691e-03 -1.046709e-03 7.016656e-04 -5.620404e-03 -7.011942e-04 -1.884909e-03 -1.185009e-03 -5.735792e-03 -1.017377e-03 -4.267860e-03 -1.605519e-03 -1.255265e-02
<VARIANCE> 25
 5.861395e+01 3.876106e+01 4.187193e+01 3.405584e+01 4.414338e+01 4.560874e+01 5.167349e+01 4.561368e+01 3.483361e+01 2.773950e+01 3.310555e+01 2.349122e+01 1.522918e+00 1.037582e+00 1.293040e+00 1.479618e+00 1.888099e+00 2.091717e+00 2.225197e+00 2.179906e+00 1.796479e+00 1.620783e+00 1.613829e+00 1.364862e+00 8.874317e-01
<GCONST> 9.563836e+01
<STATE> 3
<MEAN> 25
 -1.984788e-09 -1.478174e-08 -7.675977e-09 -1.597700e-08 -4.747591e-08 -4.174635e-08 1.181004e-08 -5.126182e-08 -2.633682e-08 1.395383e-09 3.034204e-08 2.347204e-08 6.262808e-03 2.009691e-03 -1.046709e-03 7.016656e-04 -5.620404e-03 -7.011942e-04 -1.884909e-03 -1.185009e-03 -5.735792e-03 -1.017377e-03 -4.267860e-03 -1.605519e-03 -1.255265e-02
<VARIANCE> 25
 5.861395e+01 3.876106e+01 4.187193e+01 3.405584e+01 4.414338e+01 4.560874e+01 5.167349e+01 4.561368e+01 3.483361e+01 2.773950e+01 3.310555e+01 2.349122e+01 1.522918e+00 1.037582e+00 1.293040e+00 1.479618e+00 1.888099e+00 2.091717e+00 2.225197e+00 2.179906e+00 1.796479e+00 1.620783e+00 1.613829e+00 1.364862e+00 8.874317e-01
<GCONST> 9.563836e+01
<STATE> 4
<MEAN> 25
 -1.984788e-09 -1.478174e-08 -7.675977e-09 -1.597700e-08 -4.747591e-08 -4.174635e-08 1.181004e-08 -5.126182e-08 -2.633682e-08 1.395383e-09 3.034204e-08 2.347204e-08 6.262808e-03 2.009691e-03 -1.046709e-03 7.016656e-04 -5.620404e-03 -7.011942e-04 -1.884909e-03 -1.185009e-03 -5.735792e-03 -1.017377e-03 -4.267860e-03 -1.605519e-03 -1.255265e-02
<VARIANCE> 25
 5.861395e+01 3.876106e+01 4.187193e+01 3.405584e+01 4.414338e+01 4.560874e+01 5.167349e+01 4.561368e+01 3.483361e+01 2.773950e+01 3.310555e+01 2.349122e+01 1.522918e+00 1.037582e+00 1.293040e+00 1.479618e+00 1.888099e+00 2.091717e+00 2.225197e+00 2.179906e+00 1.796479e+00 1.620783e+00 1.613829e+00 1.364862e+00 8.874317e-01
<GCONST> 9.563836e+01
<TRANSP> 5
 0.000000e+00 1.000000e+00 0.000000e+00 0.000000e+00 0.000000e+00
 0.000000e+00 6.000000e-01 4.000000e-01 0.000000e+00 0.000000e+00
 0.000000e+00 0.000000e+00 6.000000e-01 4.000000e-01 0.000000e+00
 0.000000e+00 0.000000e+00 0.000000e+00 7.000000e-01 3.000000e-01
 0.000000e+00 0.000000e+00 0.000000e+00 0.000000e+00 0.000000e+00
<ENDHMM>
~h "f"
<BEGINHMM>
<NUMSTATES> 5
<STATE> 2
<MEAN> 25
 -1.984788e-09 -1.478174e-08 -7.675977e-09 -1.597700e-08 -4.747591e-08 -4.174635e-08 1.181004e-08 -5.126182e-08 -2.633682e-08 1.395383e-09 3.034204e-08 2.347204e-08 6.262808e-03 2.009691e-03 -1.046709e-03 7.016656e-04 -5.620404e-03 -7.011942e-04 -1.884909e-03 -1.185009e-03 -5.735792e-03 -1.017377e-03 -4.267860e-03 -1.605519e-03 -1.255265e-02
<VARIANCE> 25
 5.861395e+01 3.876106e+01 4.187193e+01 3.405584e+01 4.414338e+01 4.560874e+01 5.167349e+01 4.561368e+01 3.483361e+01 2.773950e+01 3.310555e+01 2.349122e+01 1.522918e+00 1.037582e+00 1.293040e+00 1.479618e+00 1.888099e+00 2.091717e+00 2.225197e+00 2.179906e+00 1.796479e+00 1.620783e+00 1.613829e+00 1.364862e+00 8.874317e-01
<GCONST> 9.563836e+01
<STATE> 3
<MEAN> 25
 -1.984788e-09 -1.478174e-08 -7.675977e-09 -1.597700e-08 -4.747591e-08 -4.174635e-08 1.181004e-08 -5.126182e-08 -2.633682e-08 1.395383e-09 3.034204e-08 2.347204e-08 6.262808e-03 2.009691e-03 -1.046709e-03 7.016656e-04 -5.620404e-03 -7.011942e-04 -1.884909e-03 -1.185009e-03 -5.735792e-03 -1.017377e-03 -4.267860e-03 -1.605519e-03 -1.255265e-02
<VARIANCE> 25
 5.861395e+01 3.876106e+01 4.187193e+01 3.405584e+01 4.414338e+01 4.560874e+01 5.167349e+01 4.561368e+01 3.483361e+01 2.773950e+01 3.310555e+01 2.349122e+01 1.522918e+00 1.037582e+00 1.293040e+00 1.479618e+00 1.888099e+00 2.091717e+00 2.225197e+00 2.179906e+00 1.796479e+00 1.620783e+00 1.613829e+00 1.364862e+00 8.874317e-01
<GCONST> 9.563836e+01
<STATE> 4
<MEAN> 25
 -1.984788e-09 -1.478174e-08 -7.675977e-09 -1.597700e-08 -4.747591e-08 -4.174635e-08 1.181004e-08 -5.126182e-08 -2.633682e-08 1.395383e-09 3.034204e-08 2.347204e-08 6.262808e-03 2.009691e-03 -1.046709e-03 7.016656e-04 -5.620404e-03 -7.011942e-04 -1.884909e-03 -1.185009e-03 -5.735792e-03 -1.017377e-03 -4.267860e-03 -1.605519e-03 -1.255265e-02
<VARIANCE> 25
 5.861395e+01 3.876106e+01 4.187193e+01 3.405584e+01 4.414338e+01 4.560874e+01 5.167349e+01 4.561368e+01 3.483361e+01 2.773950e+01 3.310555e+01 2.349122e+01 1.522918e+00 1.037582e+00 1.293040e+00 1.479618e+00 1.888099e+00 2.091717e+00 2.225197e+00 2.179906e+00 1.796479e+00 1.620783e+00 1.613829e+00 1.364862e+00 8.874317e-01
<GCONST> 9.563836e+01
<TRANSP> 5
 0.000000e+00 1.000000e+00 0.000000e+00 0.000000e+00 0.000000e+00
 0.000000e+00 6.000000e-01 4.000000e-01 0.000000e+00 0.000000e+00
 0.000000e+00 0.000000e+00 6.000000e-01 4.000000e-01 0.000000e+00
 0.000000e+00 0.000000e+00 0.000000e+00 7.000000e-01 3.000000e-01
 0.000000e+00 0.000000e+00 0.000000e+00 0.000000e+00 0.000000e+00
<ENDHMM>
~h "ih"
<BEGINHMM>
<NUMSTATES> 5
<STATE> 2
<MEAN> 25
 -1.984788e-09 -1.478174e-08 -7.675977e-09 -1.597700e-08 -4.747591e-08 -4.174635e-08 1.181004e-08 -5.126182e-08 -2.633682e-08 1.395383e-09 3.034204e-08 2.347204e-08 6.262808e-03 2.009691e-03 -1.046709e-03 7.016656e-04 -5.620404e-03 -7.011942e-04 -1.884909e-03 -1.185009e-03 -5.735792e-03 -1.017377e-03 -4.267860e-03 -1.605519e-03 -1.255265e-02
<VARIANCE> 25
 5.861395e+01 3.876106e+01 4.187193e+01 3.405584e+01 4.414338e+01 4.560874e+01 5.167349e+01 4.561368e+01 3.483361e+01 2.773950e+01 3.310555e+01 2.349122e+01 1.522918e+00 1.037582e+00 1.293040e+00 1.479618e+00 1.888099e+00 2.091717e+00 2.225197e+00 2.179906e+00 1.796479e+00 1.620783e+00 1.613829e+00 1.364862e+00 8.874317e-01
<GCONST> 9.563836e+01
<STATE> 3
<MEAN> 25
 -1.984788e-09 -1.478174e-08 -7.675977e-09 -1.597700e-08 -4.747591e-08 -4.174635e-08 1.181004e-08 -5.126182e-08 -2.633682e-08 1.395383e-09 3.034204e-08 2.347204e-08 6.262808e-03 2.009691e-03 -1.046709e-03 7.016656e-04 -5.620404e-03 -7.011942e-04 -1.884909e-03 -1.185009e-03 -5.735792e-03 -1.017377e-03 -4.267860e-03 -1.605519e-03 -1.255265e-02
<VARIANCE> 25
 5.861395e+01 3.876106e+01 4.187193e+01 3.405584e+01 4.414338e+01 4.560874e+01 5.167349e+01 4.561368e+01 3.483361e+01 2.773950e+01 3.310555e+01 2.349122e+01 1.522918e+00 1.037582e+00 1.293040e+00 1.479618e+00 1.888099e+00 2.091717e+00 2.225197e+00 2.179906e+00 1.796479e+00 1.620783e+00 1.613829e+00 1.364862e+00 8.874317e-01
<GCONST> 9.563836e+01
<STATE> 4
<MEAN> 25
 -1.984788e-09 -1.478174e-08 -7.675977e-09 -1.597700e-08 -4.747591e-08 -4.174635e-08 1.181004e-08 -5.126182e-08 -2.633682e-08 1.395383e-09 3.034204e-08 2.347204e-08 6.262808e-03 2.009691e-03 -1.046709e-03 7.016656e-04 -5.620404e-03 -7.011942e-04 -1.884909e-03 -1.185009e-03 -5.735792e-03 -1.017377e-03 -4.267860e-03 -1.605519e-03 -1.255265e-02
<VARIANCE> 25
 5.861395e+01 3.876106e+01 4.187193e+01 3.405584e+01 4.414338e+01 4.560874e+01 5.167349e+01 4.561368e+01 3.483361e+01 2.773950e+01 3.310555e+01 2.349122e+01 1.522918e+00 1.037582e+00 1.293040e+00 1.479618e+00 1.888099e+00 2.091717e+00 2.225197e+00 2.179906e+00 1.796479e+00 1.620783e+00 1.613829e+00 1.364862e+00 8.874317e-01
<GCONST> 9.563836e+01
<TRANSP> 5
 0.000000e+00 1.000000e+00 0.000000e+00 0.000000e+00 0.000000e+00
 0.000000e+00 6.000000e-01 4.000000e-01 0.000000e+00 0.000000e+00
 0.000000e+00 0.000000e+00 6.000000e-01 4.000000e-01 0.000000e+00
 0.000000e+00 0.000000e+00 0.000000e+00 7.000000e-01 3.000000e-01
 0.000000e+00 0.000000e+00 0.000000e+00 0.000000e+00 0.000000e+00
<ENDHMM>
~h "aa"
<BEGINHMM>
<NUMSTATES> 5
<STATE> 2
<MEAN> 25
 -1.984788e-09 -1.478174e-08 -7.675977e-09 -1.597700e-08 -4.747591e-08 -4.174635e-08 1.181004e-08 -5.126182e-08 -2.633682e-08 1.395383e-09 3.034204e-08 2.347204e-08 6.262808e-03 2.009691e-03 -1.046709e-03 7.016656e-04 -5.620404e-03 -7.011942e-04 -1.884909e-03 -1.185009e-03 -5.735792e-03 -1.017377e-03 -4.267860e-03 -1.605519e-03 -1.255265e-02
<VARIANCE> 25
 5.861395e+01 3.876106e+01 4.187193e+01 3.405584e+01 4.414338e+01 4.560874e+01 5.167349e+01 4.561368e+01 3.483361e+01 2.773950e+01 3.310555e+01 2.349122e+01 1.522918e+00 1.037582e+00 1.293040e+00 1.479618e+00 1.888099e+00 2.091717e+00 2.225197e+00 2.179906e+00 1.796479e+00 1.620783e+00 1.613829e+00 1.364862e+00 8.874317e-01
<GCONST> 9.563836e+01
<STATE> 3
<MEAN> 25
 -1.984788e-09 -1.478174e-08 -7.675977e-09 -1.597700e-08 -4.747591e-08 -4.174635e-08 1.181004e-08 -5.126182e-08 -2.633682e-08 1.395383e-09 3.034204e-08 2.347204e-08 6.262808e-03 2.009691e-03 -1.046709e-03 7.016656e-04 -5.620404e-03 -7.011942e-04 -1.884909e-03 -1.185009e-03 -5.735792e-03 -1.017377e-03 -4.267860e-03 -1.605519e-03 -1.255265e-02
<VARIANCE> 25
 5.861395e+01 3.876106e+01 4.187193e+01 3.405584e+01 4.414338e+01 4.560874e+01 5.167349e+01 4.561368e+01 3.483361e+01 2.773950e+01 3.310555e+01 2.349122e+01 1.522918e+00 1.037582e+00 1.293040e+00 1.479618e+00 1.888099e+00 2.091717e+00 2.225197e+00 2.179906e+00 1.796479e+00 1.620783e+00 1.613829e+00 1.364862e+00 8.874317e-01
<GCONST> 9.563836e+01
<STATE> 4
<MEAN> 25
 -1.984788e-09 -1.478174e-08 -7.675977e-09 -1.597700e-08 -4.747591e-08 -4.174635e-08 1.181004e-08 -5.126182e-08 -2.633682e-08 1.395383e-09 3.034204e-08 2.347204e-08 6.262808e-03 2.009691e-03 -1.046709e-03 7.016656e-04 -5.620404e-03 -7.011942e-04 -1.884909e-03 -1.185009e-03 -5.735792e-03 -1.017377e-03 -4.267860e-03 -1.605519e-03 -1.255265e-02
<VARIANCE> 25
 5.861395e+01 3.876106e+01 4.187193e+01 3.405584e+01 4.414338e+01 4.560874e+01 5.167349e+01 4.561368e+01 3.483361e+01 2.773950e+01 3.310555e+01 2.349122e+01 1.522918e+00 1.037582e+00 1.293040e+00 1.479618e+00 1.888099e+00 2.091717e+00 2.225197e+00 2.179906e+00 1.796479e+00 1.620783e+00 1.613829e+00 1.364862e+00 8.874317e-01
<GCONST> 9.563836e+01
<TRANSP> 5
 0.000000e+00 1.000000e+00 0.000000e+00 0.000000e+00 0.000000e+00
 0.000000e+00 6.000000e-01 4.000000e-01 0.000000e+00 0.000000e+00
 0.000000e+00 0.000000e+00 6.000000e-01 4.000000e-01 0.000000e+00
 0.000000e+00 0.000000e+00 0.000000e+00 7.000000e-01 3.000000e-01
 0.000000e+00 0.000000e+00 0.000000e+00 0.000000e+00 0.000000e+00
<ENDHMM>
~h "g"
<BEGINHMM>
<NUMSTATES> 5
<STATE> 2
<MEAN> 25
 -1.984788e-09 -1.478174e-08 -7.675977e-09 -1.597700e-08 -4.747591e-08 -4.174635e-08 1.181004e-08 -5.126182e-08 -2.633682e-08 1.395383e-09 3.034204e-08 2.347204e-08 6.262808e-03 2.009691e-03 -1.046709e-03 7.016656e-04 -5.620404e-03 -7.011942e-04 -1.884909e-03 -1.185009e-03 -5.735792e-03 -1.017377e-03 -4.267860e-03 -1.605519e-03 -1.255265e-02
<VARIANCE> 25
 5.861395e+01 3.876106e+01 4.187193e+01 3.405584e+01 4.414338e+01 4.560874e+01 5.167349e+01 4.561368e+01 3.483361e+01 2.773950e+01 3.310555e+01 2.349122e+01 1.522918e+00 1.037582e+00 1.293040e+00 1.479618e+00 1.888099e+00 2.091717e+00 2.225197e+00 2.179906e+00 1.796479e+00 1.620783e+00 1.613829e+00 1.364862e+00 8.874317e-01
<GCONST> 9.563836e+01
<STATE> 3
<MEAN> 25
 -1.984788e-09 -1.478174e-08 -7.675977e-09 -1.597700e-08 -4.747591e-08 -4.174635e-08 1.181004e-08 -5.126182e-08 -2.633682e-08 1.395383e-09 3.034204e-08 2.347204e-08 6.262808e-03 2.009691e-03 -1.046709e-03 7.016656e-04 -5.620404e-03 -7.011942e-04 -1.884909e-03 -1.185009e-03 -5.735792e-03 -1.017377e-03 -4.267860e-03 -1.605519e-03 -1.255265e-02
<VARIANCE> 25
 5.861395e+01 3.876106e+01 4.187193e+01 3.405584e+01 4.414338e+01 4.560874e+01 5.167349e+01 4.561368e+01 3.483361e+01 2.773950e+01 3.310555e+01 2.349122e+01 1.522918e+00 1.037582e+00 1.293040e+00 1.479618e+00 1.888099e+00 2.091717e+00 2.225197e+00 2.179906e+00 1.796479e+00 1.620783e+00 1.613829e+00 1.364862e+00 8.874317e-01
<GCONST> 9.563836e+01
<STATE> 4
<MEAN> 25
 -1.984788e-09 -1.478174e-08 -7.675977e-09 -1.597700e-08 -4.747591e-08 -4.174635e-08 1.181004e-08 -5.126182e-08 -2.633682e-08 1.395383e-09 3.034204e-08 2.347204e-08 6.262808e-03 2.009691e-03 -1.046709e-03 7.016656e-04 -5.620404e-03 -7.011942e-04 -1.884909e-03 -1.185009e-03 -5.735792e-03 -1.017377e-03 -4.267860e-03 -1.605519e-03 -1.255265e-02
<VARIANCE> 25
 5.861395e+01 3.876106e+01 4.187193e+01 3.405584e+01 4.414338e+01 4.560874e+01 5.167349e+01 4.561368e+01 3.483361e+01 2.773950e+01 3.310555e+01 2.349122e+01 1.522918e+00 1.037582e+00 1.293040e+00 1.479618e+00 1.888099e+00 2.091717e+00 2.225197e+00 2.179906e+00 1.796479e+00 1.620783e+00 1.613829e+00 1.364862e+00 8.874317e-01
<GCONST> 9.563836e+01
<TRANSP> 5
 0.000000e+00 1.000000e+00 0.000000e+00 0.000000e+00 0.000000e+00
 0.000000e+00 6.000000e-01 4.000000e-01 0.000000e+00 0.000000e+00
 0.000000e+00 0.000000e+00 6.000000e-01 4.000000e-01 0.000000e+00
 0.000000e+00 0.000000e+00 0.000000e+00 7.000000e-01 3.000000e-01
 0.000000e+00 0.000000e+00 0.000000e+00 0.000000e+00 0.000000e+00
<ENDHMM>
~h "hh"
<BEGINHMM>
<NUMSTATES> 5
<STATE> 2
<MEAN> 25
 -1.984788e-09 -1.478174e-08 -7.675977e-09 -1.597700e-08 -4.747591e-08 -4.174635e-08 1.181004e-08 -5.126182e-08 -2.633682e-08 1.395383e-09 3.034204e-08 2.347204e-08 6.262808e-03 2.009691e-03 -1.046709e-03 7.016656e-04 -5.620404e-03 -7.011942e-04 -1.884909e-03 -1.185009e-03 -5.735792e-03 -1.017377e-03 -4.267860e-03 -1.605519e-03 -1.255265e-02
<VARIANCE> 25
 5.861395e+01 3.876106e+01 4.187193e+01 3.405584e+01 4.414338e+01 4.560874e+01 5.167349e+01 4.561368e+01 3.483361e+01 2.773950e+01 3.310555e+01 2.349122e+01 1.522918e+00 1.037582e+00 1.293040e+00 1.479618e+00 1.888099e+00 2.091717e+00 2.225197e+00 2.179906e+00 1.796479e+00 1.620783e+00 1.613829e+00 1.364862e+00 8.874317e-01
<GCONST> 9.563836e+01
<STATE> 3
<MEAN> 25
 -1.984788e-09 -1.478174e-08 -7.675977e-09 -1.597700e-08 -4.747591e-08 -4.174635e-08 1.181004e-08 -5.126182e-08 -2.633682e-08 1.395383e-09 3.034204e-08 2.347204e-08 6.262808e-03 2.009691e-03 -1.046709e-03 7.016656e-04 -5.620404e-03 -7.011942e-04 -1.884909e-03 -1.185009e-03 -5.735792e-03 -1.017377e-03 -4.267860e-03 -1.605519e-03 -1.255265e-02
<VARIANCE> 25
 5.861395e+01 3.876106e+01 4.187193e+01 3.405584e+01 4.414338e+01 4.560874e+01 5.167349e+01 4.561368e+01 3.483361e+01 2.773950e+01 3.310555e+01 2.349122e+01 1.522918e+00 1.037582e+00 1.293040e+00 1.479618e+00 1.888099e+00 2.091717e+00 2.225197e+00 2.179906e+00 1.796479e+00 1.620783e+00 1.613829e+00 1.364862e+00 8.874317e-01
<GCONST> 9.563836e+01
<STATE> 4
<MEAN> 25
 -1.984788e-09 -1.478174e-08 -7.675977e-09 -1.597700e-08 -4.747591e-08 -4.174635e-08 1.181004e-08 -5.126182e-08 -2.633682e-08 1.395383e-09 3.034204e-08 2.347204e-08 6.262808e-03 2.009691e-03 -1.046709e-03 7.016656e-04 -5.620404e-03 -7.011942e-04 -1.884909e-03 -1.185009e-03 -5.735792e-03 -1.017377e-03 -4.267860e-03 -1.605519e-03 -1.255265e-02
<VARIANCE> 25
 5.861395e+01 3.876106e+01 4.187193e+01 3.405584e+01 4.414338e+01 4.560874e+01 5.167349e+01 4.561368e+01 3.483361e+01 2.773950e+01 3.310555e+01 2.349122e+01 1.522918e+00 1.037582e+00 1.293040e+00 1.479618e+00 1.888099e+00 2.091717e+00 2.225197e+00 2.179906e+00 1.796479e+00 1.620783e+00 1.613829e+00 1.364862e+00 8.874317e-01
<GCONST> 9.563836e+01
<TRANSP> 5
 0.000000e+00 1.000000e+00 0.000000e+00 0.000000e+00 0.000000e+00
 0.000000e+00 6.000000e-01 4.000000e-01 0.000000e+00 0.000000e+00
 0.000000e+00 0.000000e+00 6.000000e-01 4.000000e-01 0.000000e+00
 0.000000e+00 0.000000e+00 0.000000e+00 7.000000e-01 3.000000e-01
 0.000000e+00 0.000000e+00 0.000000e+00 0.000000e+00 0.000000e+00
<ENDHMM>
~h "m"
<BEGINHMM>
<NUMSTATES> 5
<STATE> 2
<MEAN> 25
 -1.984788e-09 -1.478174e-08 -7.675977e-09 -1.597700e-08 -4.747591e-08 -4.174635e-08 1.181004e-08 -5.126182e-08 -2.633682e-08 1.395383e-09 3.034204e-08 2.347204e-08 6.262808e-03 2.009691e-03 -1.046709e-03 7.016656e-04 -5.620404e-03 -7.011942e-04 -1.884909e-03 -1.185009e-03 -5.735792e-03 -1.017377e-03 -4.267860e-03 -1.605519e-03 -1.255265e-02
<VARIANCE> 25
 5.861395e+01 3.876106e+01 4.187193e+01 3.405584e+01 4.414338e+01 4.560874e+01 5.167349e+01 4.561368e+01 3.483361e+01 2.773950e+01 3.310555e+01 2.349122e+01 1.522918e+00 1.037582e+00 1.293040e+00 1.479618e+00 1.888099e+00 2.091717e+00 2.225197e+00 2.179906e+00 1.796479e+00 1.620783e+00 1.613829e+00 1.364862e+00 8.874317e-01
<GCONST> 9.563836e+01
<STATE> 3
<MEAN> 25
 -1.984788e-09 -1.478174e-08 -7.675977e-09 -1.597700e-08 -4.747591e-08 -4.174635e-08 1.181004e-08 -5.126182e-08 -2.633682e-08 1.395383e-09 3.034204e-08 2.347204e-08 6.262808e-03 2.009691e-03 -1.046709e-03 7.016656e-04 -5.620404e-03 -7.011942e-04 -1.884909e-03 -1.185009e-03 -5.735792e-03 -1.017377e-03 -4.267860e-03 -1.605519e-03 -1.255265e-02
<VARIANCE> 25
 5.861395e+01 3.876106e+01 4.187193e+01 3.405584e+01 4.414338e+01 4.560874e+01 5.167349e+01 4.561368e+01 3.483361e+01 2.773950e+01 3.310555e+01 2.349122e+01 1.522918e+00 1.037582e+00 1.293040e+00 1.479618e+00 1.888099e+00 2.091717e+00 2.225197e+00 2.179906e+00 1.796479e+00 1.620783e+00 1.613829e+00 1.364862e+00 8.874317e-01
<GCONST> 9.563836e+01
<STATE> 4
<MEAN> 25
 -1.984788e-09 -1.478174e-08 -7.675977e-09 -1.597700e-08 -4.747591e-08 -4.174635e-08 1.181004e-08 -5.126182e-08 -2.633682e-08 1.395383e-09 3.034204e-08 2.347204e-08 6.262808e-03 2.009691e-03 -1.046709e-03 7.016656e-04 -5.620404e-03 -7.011942e-04 -1.884909e-03 -1.185009e-03 -5.735792e-03 -1.017377e-03 -4.267860e-03 -1.605519e-03 -1.255265e-02
<VARIANCE> 25
 5.861395e+01 3.876106e+01 4.187193e+01 3.405584e+01 4.414338e+01 4.560874e+01 5.167349e+01 4.561368e+01 3.483361e+01 2.773950e+01 3.310555e+01 2.349122e+01 1.522918e+00 1.037582e+00 1.293040e+00 1.479618e+00 1.888099e+00 2.091717e+00 2.225197e+00 2.179906e+00 1.796479e+00 1.620783e+00 1.613829e+00 1.364862e+00 8.874317e-01
<GCONST> 9.563836e+01
<TRANSP> 5
 0.000000e+00 1.000000e+00 0.000000e+00 0.000000e+00 0.000000e+00
 0.000000e+00 6.000000e-01 4.000000e-01 0.000000e+00 0.000000e+00
 0.000000e+00 0.000000e+00 6.000000e-01 4.000000e-01 0.000000e+00
 0.000000e+00 0.000000e+00 0.000000e+00 7.000000e-01 3.000000e-01
 0.000000e+00 0.000000e+00 0.000000e+00 0.000000e+00 0.000000e+00
<ENDHMM>
~h "y"
<BEGINHMM>
<NUMSTATES> 5
<STATE> 2
<MEAN> 25
 -1.984788e-09 -1.478174e-08 -7.675977e-09 -1.597700e-08 -4.747591e-08 -4.174635e-08 1.181004e-08 -5.126182e-08 -2.633682e-08 1.395383e-09 3.034204e-08 2.347204e-08 6.262808e-03 2.009691e-03 -1.046709e-03 7.016656e-04 -5.620404e-03 -7.011942e-04 -1.884909e-03 -1.185009e-03 -5.735792e-03 -1.017377e-03 -4.267860e-03 -1.605519e-03 -1.255265e-02
<VARIANCE> 25
 5.861395e+01 3.876106e+01 4.187193e+01 3.405584e+01 4.414338e+01 4.560874e+01 5.167349e+01 4.561368e+01 3.483361e+01 2.773950e+01 3.310555e+01 2.349122e+01 1.522918e+00 1.037582e+00 1.293040e+00 1.479618e+00 1.888099e+00 2.091717e+00 2.225197e+00 2.179906e+00 1.796479e+00 1.620783e+00 1.613829e+00 1.364862e+00 8.874317e-01
<GCONST> 9.563836e+01
<STATE> 3
<MEAN> 25
 -1.984788e-09 -1.478174e-08 -7.675977e-09 -1.597700e-08 -4.747591e-08 -4.174635e-08 1.181004e-08 -5.126182e-08 -2.633682e-08 1.395383e-09 3.034204e-08 2.347204e-08 6.262808e-03 2.009691e-03 -1.046709e-03 7.016656e-04 -5.620404e-03 -7.011942e-04 -1.884909e-03 -1.185009e-03 -5.735792e-03 -1.017377e-03 -4.267860e-03 -1.605519e-03 -1.255265e-02
<VARIANCE> 25
 5.861395e+01 3.876106e+01 4.187193e+01 3.405584e+01 4.414338e+01 4.560874e+01 5.167349e+01 4.561368e+01 3.483361e+01 2.773950e+01 3.310555e+01 2.349122e+01 1.522918e+00 1.037582e+00 1.293040e+00 1.479618e+00 1.888099e+00 2.091717e+00 2.225197e+00 2.179906e+00 1.796479e+00 1.620783e+00 1.613829e+00 1.364862e+00 8.874317e-01
<GCONST> 9.563836e+01
<STATE> 4
<MEAN> 25
 -1.984788e-09 -1.478174e-08 -7.675977e-09 -1.597700e-08 -4.747591e-08 -4.174635e-08 1.181004e-08 -5.126182e-08 -2.633682e-08 1.395383e-09 3.034204e-08 2.347204e-08 6.262808e-03 2.009691e-03 -1.046709e-03 7.016656e-04 -5.620404e-03 -7.011942e-04 -1.884909e-03 -1.185009e-03 -5.735792e-03 -1.017377e-03 -4.267860e-03 -1.605519e-03 -1.255265e-02
<VARIANCE> 25
 5.861395e+01 3.876106e+01 4.187193e+01 3.405584e+01 4.414338e+01 4.560874e+01 5.167349e+01 4.561368e+01 3.483361e+01 2.773950e+01 3.310555e+01 2.349122e+01 1.522918e+00 1.037582e+00 1.293040e+00 1.479618e+00 1.888099e+00 2.091717e+00 2.225197e+00 2.179906e+00 1.796479e+00 1.620783e+00 1.613829e+00 1.364862e+00 8.874317e-01
<GCONST> 9.563836e+01
<TRANSP> 5
 0.000000e+00 1.000000e+00 0.000000e+00 0.000000e+00 0.000000e+00
 0.000000e+00 6.000000e-01 4.000000e-01 0.000000e+00 0.000000e+00
 0.000000e+00 0.000000e+00 6.000000e-01 4.000000e-01 0.000000e+00
 0.000000e+00 0.000000e+00 0.000000e+00 7.000000e-01 3.000000e-01
 0.000000e+00 0.000000e+00 0.000000e+00 0.000000e+00 0.000000e+00
<ENDHMM>
~h "ng"
<BEGINHMM>
<NUMSTATES> 5
<STATE> 2
<MEAN> 25
 -1.984788e-09 -1.478174e-08 -7.675977e-09 -1.597700e-08 -4.747591e-08 -4.174635e-08 1.181004e-08 -5.126182e-08 -2.633682e-08 1.395383e-09 3.034204e-08 2.347204e-08 6.262808e-03 2.009691e-03 -1.046709e-03 7.016656e-04 -5.620404e-03 -7.011942e-04 -1.884909e-03 -1.185009e-03 -5.735792e-03 -1.017377e-03 -4.267860e-03 -1.605519e-03 -1.255265e-02
<VARIANCE> 25
 5.861395e+01 3.876106e+01 4.187193e+01 3.405584e+01 4.414338e+01 4.560874e+01 5.167349e+01 4.561368e+01 3.483361e+01 2.773950e+01 3.310555e+01 2.349122e+01 1.522918e+00 1.037582e+00 1.293040e+00 1.479618e+00 1.888099e+00 2.091717e+00 2.225197e+00 2.179906e+00 1.796479e+00 1.620783e+00 1.613829e+00 1.364862e+00 8.874317e-01
<GCONST> 9.563836e+01
<STATE> 3
<MEAN> 25
 -1.984788e-09 -1.478174e-08 -7.675977e-09 -1.597700e-08 -4.747591e-08 -4.174635e-08 1.181004e-08 -5.126182e-08 -2.633682e-08 1.395383e-09 3.034204e-08 2.347204e-08 6.262808e-03 2.009691e-03 -1.046709e-03 7.016656e-04 -5.620404e-03 -7.011942e-04 -1.884909e-03 -1.185009e-03 -5.735792e-03 -1.017377e-03 -4.267860e-03 -1.605519e-03 -1.255265e-02
<VARIANCE> 25
 5.861395e+01 3.876106e+01 4.187193e+01 3.405584e+01 4.414338e+01 4.560874e+01 5.167349e+01 4.561368e+01 3.483361e+01 2.773950e+01 3.310555e+01 2.349122e+01 1.522918e+00 1.037582e+00 1.293040e+00 1.479618e+00 1.888099e+00 2.091717e+00 2.225197e+00 2.179906e+00 1.796479e+00 1.620783e+00 1.613829e+00 1.364862e+00 8.874317e-01
<GCONST> 9.563836e+01
<STATE> 4
<MEAN> 25
 -1.984788e-09 -1.478174e-08 -7.675977e-09 -1.597700e-08 -4.747591e-08 -4.174635e-08 1.181004e-08 -5.126182e-08 -2.633682e-08 1.395383e-09 3.034204e-08 2.347204e-08 6.262808e-03 2.009691e-03 -1.046709e-03 7.016656e-04 -5.620404e-03 -7.011942e-04 -1.884909e-03 -1.185009e-03 -5.735792e-03 -1.017377e-03 -4.267860e-03 -1.605519e-03 -1.255265e-02
<VARIANCE> 25
 5.861395e+01 3.876106e+01 4.187193e+01 3.405584e+01 4.414338e+01 4.560874e+01 5.167349e+01 4.561368e+01 3.483361e+01 2.773950e+01 3.310555e+01 2.349122e+01 1.522918e+00 1.037582e+00 1.293040e+00 1.479618e+00 1.888099e+00 2.091717e+00 2.225197e+00 2.179906e+00 1.796479e+00 1.620783e+00 1.613829e+00 1.364862e+00 8.874317e-01
<GCONST> 9.563836e+01
<TRANSP> 5
 0.000000e+00 1.000000e+00 0.000000e+00 0.000000e+00 0.000000e+00
 0.000000e+00 6.000000e-01 4.000000e-01 0.000000e+00 0.000000e+00
 0.000000e+00 0.000000e+00 6.000000e-01 4.000000e-01 0.000000e+00
 0.000000e+00 0.000000e+00 0.000000e+00 7.000000e-01 3.000000e-01
 0.000000e+00 0.000000e+00 0.000000e+00 0.000000e+00 0.000000e+00
<ENDHMM>
~h "zh"
<BEGINHMM>
<NUMSTATES> 5
<STATE> 2
<MEAN> 25
 -1.984788e-09 -1.478174e-08 -7.675977e-09 -1.597700e-08 -4.747591e-08 -4.174635e-08 1.181004e-08 -5.126182e-08 -2.633682e-08 1.395383e-09 3.034204e-08 2.347204e-08 6.262808e-03 2.009691e-03 -1.046709e-03 7.016656e-04 -5.620404e-03 -7.011942e-04 -1.884909e-03 -1.185009e-03 -5.735792e-03 -1.017377e-03 -4.267860e-03 -1.605519e-03 -1.255265e-02
<VARIANCE> 25
 5.861395e+01 3.876106e+01 4.187193e+01 3.405584e+01 4.414338e+01 4.560874e+01 5.167349e+01 4.561368e+01 3.483361e+01 2.773950e+01 3.310555e+01 2.349122e+01 1.522918e+00 1.037582e+00 1.293040e+00 1.479618e+00 1.888099e+00 2.091717e+00 2.225197e+00 2.179906e+00 1.796479e+00 1.620783e+00 1.613829e+00 1.364862e+00 8.874317e-01
<GCONST> 9.563836e+01
<STATE> 3
<MEAN> 25
 -1.984788e-09 -1.478174e-08 -7.675977e-09 -1.597700e-08 -4.747591e-08 -4.174635e-08 1.181004e-08 -5.126182e-08 -2.633682e-08 1.395383e-09 3.034204e-08 2.347204e-08 6.262808e-03 2.009691e-03 -1.046709e-03 7.016656e-04 -5.620404e-03 -7.011942e-04 -1.884909e-03 -1.185009e-03 -5.735792e-03 -1.017377e-03 -4.267860e-03 -1.605519e-03 -1.255265e-02
<VARIANCE> 25
 5.861395e+01 3.876106e+01 4.187193e+01 3.405584e+01 4.414338e+01 4.560874e+01 5.167349e+01 4.561368e+01 3.483361e+01 2.773950e+01 3.310555e+01 2.349122e+01 1.522918e+00 1.037582e+00 1.293040e+00 1.479618e+00 1.888099e+00 2.091717e+00 2.225197e+00 2.179906e+00 1.796479e+00 1.620783e+00 1.613829e+00 1.364862e+00 8.874317e-01
<GCONST> 9.563836e+01
<STATE> 4
<MEAN> 25
 -1.984788e-09 -1.478174e-08 -7.675977e-09 -1.597700e-08 -4.747591e-08 -4.174635e-08 1.181004e-08 -5.126182e-08 -2.633682e-08 1.395383e-09 3.034204e-08 2.347204e-08 6.262808e-03 2.009691e-03 -1.046709e-03 7.016656e-04 -5.620404e-03 -7.011942e-04 -1.884909e-03 -1.185009e-03 -5.735792e-03 -1.017377e-03 -4.267860e-03 -1.605519e-03 -1.255265e-02
<VARIANCE> 25
 5.861395e+01 3.876106e+01 4.187193e+01 3.405584e+01 4.414338e+01 4.560874e+01 5.167349e+01 4.561368e+01 3.483361e+01 2.773950e+01 3.310555e+01 2.349122e+01 1.522918e+00 1.037582e+00 1.293040e+00 1.479618e+00 1.888099e+00 2.091717e+00 2.225197e+00 2.179906e+00 1.796479e+00 1.620783e+00 1.613829e+00 1.364862e+00 8.874317e-01
<GCONST> 9.563836e+01
<TRANSP> 5
 0.000000e+00 1.000000e+00 0.000000e+00 0.000000e+00 0.000000e+00
 0.000000e+00 6.000000e-01 4.000000e-01 0.000000e+00 0.000000e+00
 0.000000e+00 0.000000e+00 6.000000e-01 4.000000e-01 0.000000e+00
 0.000000e+00 0.000000e+00 0.000000e+00 7.000000e-01 3.000000e-01
 0.000000e+00 0.000000e+00 0.000000e+00 0.000000e+00 0.000000e+00
<ENDHMM>
~h "jh"
<BEGINHMM>
<NUMSTATES> 5
<STATE> 2
<MEAN> 25
 -1.984788e-09 -1.478174e-08 -7.675977e-09 -1.597700e-08 -4.747591e-08 -4.174635e-08 1.181004e-08 -5.126182e-08 -2.633682e-08 1.395383e-09 3.034204e-08 2.347204e-08 6.262808e-03 2.009691e-03 -1.046709e-03 7.016656e-04 -5.620404e-03 -7.011942e-04 -1.884909e-03 -1.185009e-03 -5.735792e-03 -1.017377e-03 -4.267860e-03 -1.605519e-03 -1.255265e-02
<VARIANCE> 25
 5.861395e+01 3.876106e+01 4.187193e+01 3.405584e+01 4.414338e+01 4.560874e+01 5.167349e+01 4.561368e+01 3.483361e+01 2.773950e+01 3.310555e+01 2.349122e+01 1.522918e+00 1.037582e+00 1.293040e+00 1.479618e+00 1.888099e+00 2.091717e+00 2.225197e+00 2.179906e+00 1.796479e+00 1.620783e+00 1.613829e+00 1.364862e+00 8.874317e-01
<GCONST> 9.563836e+01
<STATE> 3
<MEAN> 25
 -1.984788e-09 -1.478174e-08 -7.675977e-09 -1.597700e-08 -4.747591e-08 -4.174635e-08 1.181004e-08 -5.126182e-08 -2.633682e-08 1.395383e-09 3.034204e-08 2.347204e-08 6.262808e-03 2.009691e-03 -1.046709e-03 7.016656e-04 -5.620404e-03 -7.011942e-04 -1.884909e-03 -1.185009e-03 -5.735792e-03 -1.017377e-03 -4.267860e-03 -1.605519e-03 -1.255265e-02
<VARIANCE> 25
 5.861395e+01 3.876106e+01 4.187193e+01 3.405584e+01 4.414338e+01 4.560874e+01 5.167349e+01 4.561368e+01 3.483361e+01 2.773950e+01 3.310555e+01 2.349122e+01 1.522918e+00 1.037582e+00 1.293040e+00 1.479618e+00 1.888099e+00 2.091717e+00 2.225197e+00 2.179906e+00 1.796479e+00 1.620783e+00 1.613829e+00 1.364862e+00 8.874317e-01
<GCONST> 9.563836e+01
<STATE> 4
<MEAN> 25
 -1.984788e-09 -1.478174e-08 -7.675977e-09 -1.597700e-08 -4.747591e-08 -4.174635e-08 1.181004e-08 -5.126182e-08 -2.633682e-08 1.395383e-09 3.034204e-08 2.347204e-08 6.262808e-03 2.009691e-03 -1.046709e-03 7.016656e-04 -5.620404e-03 -7.011942e-04 -1.884909e-03 -1.185009e-03 -5.735792e-03 -1.017377e-03 -4.267860e-03 -1.605519e-03 -1.255265e-02
<VARIANCE> 25
 5.861395e+01 3.876106e+01 4.187193e+01 3.405584e+01 4.414338e+01 4.560874e+01 5.167349e+01 4.561368e+01 3.483361e+01 2.773950e+01 3.310555e+01 2.349122e+01 1.522918e+00 1.037582e+00 1.293040e+00 1.479618e+00 1.888099e+00 2.091717e+00 2.225197e+00 2.179906e+00 1.796479e+00 1.620783e+00 1.613829e+00 1.364862e+00 8.874317e-01
<GCONST> 9.563836e+01
<TRANSP> 5
 0.000000e+00 1.000000e+00 0.000000e+00 0.000000e+00 0.000000e+00
 0.000000e+00 6.000000e-01 4.000000e-01 0.000000e+00 0.000000e+00
 0.000000e+00 0.000000e+00 6.000000e-01 4.000000e-01 0.000000e+00
 0.000000e+00 0.000000e+00 0.000000e+00 7.000000e-01 3.000000e-01
 0.000000e+00 0.000000e+00 0.000000e+00 0.000000e+00 0.000000e+00
<ENDHMM>
~h "th"
<BEGINHMM>
<NUMSTATES> 5
<STATE> 2
<MEAN> 25
 -1.984788e-09 -1.478174e-08 -7.675977e-09 -1.597700e-08 -4.747591e-08 -4.174635e-08 1.181004e-08 -5.126182e-08 -2.633682e-08 1.395383e-09 3.034204e-08 2.347204e-08 6.262808e-03 2.009691e-03 -1.046709e-03 7.016656e-04 -5.620404e-03 -7.011942e-04 -1.884909e-03 -1.185009e-03 -5.735792e-03 -1.017377e-03 -4.267860e-03 -1.605519e-03 -1.255265e-02
<VARIANCE> 25
 5.861395e+01 3.876106e+01 4.187193e+01 3.405584e+01 4.414338e+01 4.560874e+01 5.167349e+01 4.561368e+01 3.483361e+01 2.773950e+01 3.310555e+01 2.349122e+01 1.522918e+00 1.037582e+00 1.293040e+00 1.479618e+00 1.888099e+00 2.091717e+00 2.225197e+00 2.179906e+00 1.796479e+00 1.620783e+00 1.613829e+00 1.364862e+00 8.874317e-01
<GCONST> 9.563836e+01
<STATE> 3
<MEAN> 25
 -1.984788e-09 -1.478174e-08 -7.675977e-09 -1.597700e-08 -4.747591e-08 -4.174635e-08 1.181004e-08 -5.126182e-08 -2.633682e-08 1.395383e-09 3.034204e-08 2.347204e-08 6.262808e-03 2.009691e-03 -1.046709e-03 7.016656e-04 -5.620404e-03 -7.011942e-04 -1.884909e-03 -1.185009e-03 -5.735792e-03 -1.017377e-03 -4.267860e-03 -1.605519e-03 -1.255265e-02
<VARIANCE> 25
 5.861395e+01 3.876106e+01 4.187193e+01 3.405584e+01 4.414338e+01 4.560874e+01 5.167349e+01 4.561368e+01 3.483361e+01 2.773950e+01 3.310555e+01 2.349122e+01 1.522918e+00 1.037582e+00 1.293040e+00 1.479618e+00 1.888099e+00 2.091717e+00 2.225197e+00 2.179906e+00 1.796479e+00 1.620783e+00 1.613829e+00 1.364862e+00 8.874317e-01
<GCONST> 9.563836e+01
<STATE> 4
<MEAN> 25
 -1.984788e-09 -1.478174e-08 -7.675977e-09 -1.597700e-08 -4.747591e-08 -4.174635e-08 1.181004e-08 -5.126182e-08 -2.633682e-08 1.395383e-09 3.034204e-08 2.347204e-08 6.262808e-03 2.009691e-03 -1.046709e-03 7.016656e-04 -5.620404e-03 -7.011942e-04 -1.884909e-03 -1.185009e-03 -5.735792e-03 -1.017377e-03 -4.267860e-03 -1.605519e-03 -1.255265e-02
<VARIANCE> 25
 5.861395e+01 3.876106e+01 4.187193e+01 3.405584e+01 4.414338e+01 4.560874e+01 5.167349e+01 4.561368e+01 3.483361e+01 2.773950e+01 3.310555e+01 2.349122e+01 1.522918e+00 1.037582e+00 1.293040e+00 1.479618e+00 1.888099e+00 2.091717e+00 2.225197e+00 2.179906e+00 1.796479e+00 1.620783e+00 1.613829e+00 1.364862e+00 8.874317e-01
<GCONST> 9.563836e+01
<TRANSP> 5
 0.000000e+00 1.000000e+00 0.000000e+00 0.000000e+00 0.000000e+00
 0.000000e+00 6.000000e-01 4.000000e-01 0.000000e+00 0.000000e+00
 0.000000e+00 0.000000e+00 6.000000e-01 4.000000e-01 0.000000e+00
 0.000000e+00 0.000000e+00 0.000000e+00 7.000000e-01 3.000000e-01
 0.000000e+00 0.000000e+00 0.000000e+00 0.000000e+00 0.000000e+00
<ENDHMM>
~h "oy"
<BEGINHMM>
<NUMSTATES> 5
<STATE> 2
<MEAN> 25
 -1.984788e-09 -1.478174e-08 -7.675977e-09 -1.597700e-08 -4.747591e-08 -4.174635e-08 1.181004e-08 -5.126182e-08 -2.633682e-08 1.395383e-09 3.034204e-08 2.347204e-08 6.262808e-03 2.009691e-03 -1.046709e-03 7.016656e-04 -5.620404e-03 -7.011942e-04 -1.884909e-03 -1.185009e-03 -5.735792e-03 -1.017377e-03 -4.267860e-03 -1.605519e-03 -1.255265e-02
<VARIANCE> 25
 5.861395e+01 3.876106e+01 4.187193e+01 3.405584e+01 4.414338e+01 4.560874e+01 5.167349e+01 4.561368e+01 3.483361e+01 2.773950e+01 3.310555e+01 2.349122e+01 1.522918e+00 1.037582e+00 1.293040e+00 1.479618e+00 1.888099e+00 2.091717e+00 2.225197e+00 2.179906e+00 1.796479e+00 1.620783e+00 1.613829e+00 1.364862e+00 8.874317e-01
<GCONST> 9.563836e+01
<STATE> 3
<MEAN> 25
 -1.984788e-09 -1.478174e-08 -7.675977e-09 -1.597700e-08 -4.747591e-08 -4.174635e-08 1.181004e-08 -5.126182e-08 -2.633682e-08 1.395383e-09 3.034204e-08 2.347204e-08 6.262808e-03 2.009691e-03 -1.046709e-03 7.016656e-04 -5.620404e-03 -7.011942e-04 -1.884909e-03 -1.185009e-03 -5.735792e-03 -1.017377e-03 -4.267860e-03 -1.605519e-03 -1.255265e-02
<VARIANCE> 25
 5.861395e+01 3.876106e+01 4.187193e+01 3.405584e+01 4.414338e+01 4.560874e+01 5.167349e+01 4.561368e+01 3.483361e+01 2.773950e+01 3.310555e+01 2.349122e+01 1.522918e+00 1.037582e+00 1.293040e+00 1.479618e+00 1.888099e+00 2.091717e+00 2.225197e+00 2.179906e+00 1.796479e+00 1.620783e+00 1.613829e+00 1.364862e+00 8.874317e-01
<GCONST> 9.563836e+01
<STATE> 4
<MEAN> 25
 -1.984788e-09 -1.478174e-08 -7.675977e-09 -1.597700e-08 -4.747591e-08 -4.174635e-08 1.181004e-08 -5.126182e-08 -2.633682e-08 1.395383e-09 3.034204e-08 2.347204e-08 6.262808e-03 2.009691e-03 -1.046709e-03 7.016656e-04 -5.620404e-03 -7.011942e-04 -1.884909e-03 -1.185009e-03 -5.735792e-03 -1.017377e-03 -4.267860e-03 -1.605519e-03 -1.255265e-02
<VARIANCE> 25
 5.861395e+01 3.876106e+01 4.187193e+01 3.405584e+01 4.414338e+01 4.560874e+01 5.167349e+01 4.561368e+01 3.483361e+01 2.773950e+01 3.310555e+01 2.349122e+01 1.522918e+00 1.037582e+00 1.293040e+00 1.479618e+00 1.888099e+00 2.091717e+00 2.225197e+00 2.179906e+00 1.796479e+00 1.620783e+00 1.613829e+00 1.364862e+00 8.874317e-01
<GCONST> 9.563836e+01
<TRANSP> 5
 0.000000e+00 1.000000e+00 0.000000e+00 0.000000e+00 0.000000e+00
 0.000000e+00 6.000000e-01 4.000000e-01 0.000000e+00 0.000000e+00
 0.000000e+00 0.000000e+00 6.000000e-01 4.000000e-01 0.000000e+00
 0.000000e+00 0.000000e+00 0.000000e+00 7.000000e-01 3.000000e-01
 0.000000e+00 0.000000e+00 0.000000e+00 0.000000e+00 0.000000e+00
<ENDHMM>
~h "ow"
<BEGINHMM>
<NUMSTATES> 5
<STATE> 2
<MEAN> 25
 -1.984788e-09 -1.478174e-08 -7.675977e-09 -1.597700e-08 -4.747591e-08 -4.174635e-08 1.181004e-08 -5.126182e-08 -2.633682e-08 1.395383e-09 3.034204e-08 2.347204e-08 6.262808e-03 2.009691e-03 -1.046709e-03 7.016656e-04 -5.620404e-03 -7.011942e-04 -1.884909e-03 -1.185009e-03 -5.735792e-03 -1.017377e-03 -4.267860e-03 -1.605519e-03 -1.255265e-02
<VARIANCE> 25
 5.861395e+01 3.876106e+01 4.187193e+01 3.405584e+01 4.414338e+01 4.560874e+01 5.167349e+01 4.561368e+01 3.483361e+01 2.773950e+01 3.310555e+01 2.349122e+01 1.522918e+00 1.037582e+00 1.293040e+00 1.479618e+00 1.888099e+00 2.091717e+00 2.225197e+00 2.179906e+00 1.796479e+00 1.620783e+00 1.613829e+00 1.364862e+00 8.874317e-01
<GCONST> 9.563836e+01
<STATE> 3
<MEAN> 25
 -1.984788e-09 -1.478174e-08 -7.675977e-09 -1.597700e-08 -4.747591e-08 -4.174635e-08 1.181004e-08 -5.126182e-08 -2.633682e-08 1.395383e-09 3.034204e-08 2.347204e-08 6.262808e-03 2.009691e-03 -1.046709e-03 7.016656e-04 -5.620404e-03 -7.011942e-04 -1.884909e-03 -1.185009e-03 -5.735792e-03 -1.017377e-03 -4.267860e-03 -1.605519e-03 -1.255265e-02
<VARIANCE> 25
 5.861395e+01 3.876106e+01 4.187193e+01 3.405584e+01 4.414338e+01 4.560874e+01 5.167349e+01 4.561368e+01 3.483361e+01 2.773950e+01 3.310555e+01 2.349122e+01 1.522918e+00 1.037582e+00 1.293040e+00 1.479618e+00 1.888099e+00 2.091717e+00 2.225197e+00 2.179906e+00 1.796479e+00 1.620783e+00 1.613829e+00 1.364862e+00 8.874317e-01
<GCONST> 9.563836e+01
<STATE> 4
<MEAN> 25
 -1.984788e-09 -1.478174e-08 -7.675977e-09 -1.597700e-08 -4.747591e-08 -4.174635e-08 1.181004e-08 -5.126182e-08 -2.633682e-08 1.395383e-09 3.034204e-08 2.347204e-08 6.262808e-03 2.009691e-03 -1.046709e-03 7.016656e-04 -5.620404e-03 -7.011942e-04 -1.884909e-03 -1.185009e-03 -5.735792e-03 -1.017377e-03 -4.267860e-03 -1.605519e-03 -1.255265e-02
<VARIANCE> 25
 5.861395e+01 3.876106e+01 4.187193e+01 3.405584e+01 4.414338e+01 4.560874e+01 5.167349e+01 4.561368e+01 3.483361e+01 2.773950e+01 3.310555e+01 2.349122e+01 1.522918e+00 1.037582e+00 1.293040e+00 1.479618e+00 1.888099e+00 2.091717e+00 2.225197e+00 2.179906e+00 1.796479e+00 1.620783e+00 1.613829e+00 1.364862e+00 8.874317e-01
<GCONST> 9.563836e+01
<TRANSP> 5
 0.000000e+00 1.000000e+00 0.000000e+00 0.000000e+00 0.000000e+00
 0.000000e+00 6.000000e-01 4.000000e-01 0.000000e+00 0.000000e+00
 0.000000e+00 0.000000e+00 6.000000e-01 4.000000e-01 0.000000e+00
 0.000000e+00 0.000000e+00 0.000000e+00 7.000000e-01 3.000000e-01
 0.000000e+00 0.000000e+00 0.000000e+00 0.000000e+00 0.000000e+00
<ENDHMM>
~h "sh"
<BEGINHMM>
<NUMSTATES> 5
<STATE> 2
<MEAN> 25
 -1.984788e-09 -1.478174e-08 -7.675977e-09 -1.597700e-08 -4.747591e-08 -4.174635e-08 1.181004e-08 -5.126182e-08 -2.633682e-08 1.395383e-09 3.034204e-08 2.347204e-08 6.262808e-03 2.009691e-03 -1.046709e-03 7.016656e-04 -5.620404e-03 -7.011942e-04 -1.884909e-03 -1.185009e-03 -5.735792e-03 -1.017377e-03 -4.267860e-03 -1.605519e-03 -1.255265e-02
<VARIANCE> 25
 5.861395e+01 3.876106e+01 4.187193e+01 3.405584e+01 4.414338e+01 4.560874e+01 5.167349e+01 4.561368e+01 3.483361e+01 2.773950e+01 3.310555e+01 2.349122e+01 1.522918e+00 1.037582e+00 1.293040e+00 1.479618e+00 1.888099e+00 2.091717e+00 2.225197e+00 2.179906e+00 1.796479e+00 1.620783e+00 1.613829e+00 1.364862e+00 8.874317e-01
<GCONST> 9.563836e+01
<STATE> 3
<MEAN> 25
 -1.984788e-09 -1.478174e-08 -7.675977e-09 -1.597700e-08 -4.747591e-08 -4.174635e-08 1.181004e-08 -5.126182e-08 -2.633682e-08 1.395383e-09 3.034204e-08 2.347204e-08 6.262808e-03 2.009691e-03 -1.046709e-03 7.016656e-04 -5.620404e-03 -7.011942e-04 -1.884909e-03 -1.185009e-03 -5.735792e-03 -1.017377e-03 -4.267860e-03 -1.605519e-03 -1.255265e-02
<VARIANCE> 25
 5.861395e+01 3.876106e+01 4.187193e+01 3.405584e+01 4.414338e+01 4.560874e+01 5.167349e+01 4.561368e+01 3.483361e+01 2.773950e+01 3.310555e+01 2.349122e+01 1.522918e+00 1.037582e+00 1.293040e+00 1.479618e+00 1.888099e+00 2.091717e+00 2.225197e+00 2.179906e+00 1.796479e+00 1.620783e+00 1.613829e+00 1.364862e+00 8.874317e-01
<GCONST> 9.563836e+01
<STATE> 4
<MEAN> 25
 -1.984788e-09 -1.478174e-08 -7.675977e-09 -1.597700e-08 -4.747591e-08 -4.174635e-08 1.181004e-08 -5.126182e-08 -2.633682e-08 1.395383e-09 3.034204e-08 2.347204e-08 6.262808e-03 2.009691e-03 -1.046709e-03 7.016656e-04 -5.620404e-03 -7.011942e-04 -1.884909e-03 -1.185009e-03 -5.735792e-03 -1.017377e-03 -4.267860e-03 -1.605519e-03 -1.255265e-02
<VARIANCE> 25
 5.861395e+01 3.876106e+01 4.187193e+01 3.405584e+01 4.414338e+01 4.560874e+01 5.167349e+01 4.561368e+01 3.483361e+01 2.773950e+01 3.310555e+01 2.349122e+01 1.522918e+00 1.037582e+00 1.293040e+00 1.479618e+00 1.888099e+00 2.091717e+00 2.225197e+00 2.179906e+00 1.796479e+00 1.620783e+00 1.613829e+00 1.364862e+00 8.874317e-01
<GCONST> 9.563836e+01
<TRANSP> 5
 0.000000e+00 1.000000e+00 0.000000e+00 0.000000e+00 0.000000e+00
 0.000000e+00 6.000000e-01 4.000000e-01 0.000000e+00 0.000000e+00
 0.000000e+00 0.000000e+00 6.000000e-01 4.000000e-01 0.000000e+00
 0.000000e+00 0.000000e+00 0.000000e+00 7.000000e-01 3.000000e-01
 0.000000e+00 0.000000e+00 0.000000e+00 0.000000e+00 0.000000e+00
<ENDHMM>
~h "uh"
<BEGINHMM>
<NUMSTATES> 5
<STATE> 2
<MEAN> 25
 -1.984788e-09 -1.478174e-08 -7.675977e-09 -1.597700e-08 -4.747591e-08 -4.174635e-08 1.181004e-08 -5.126182e-08 -2.633682e-08 1.395383e-09 3.034204e-08 2.347204e-08 6.262808e-03 2.009691e-03 -1.046709e-03 7.016656e-04 -5.620404e-03 -7.011942e-04 -1.884909e-03 -1.185009e-03 -5.735792e-03 -1.017377e-03 -4.267860e-03 -1.605519e-03 -1.255265e-02
<VARIANCE> 25
 5.861395e+01 3.876106e+01 4.187193e+01 3.405584e+01 4.414338e+01 4.560874e+01 5.167349e+01 4.561368e+01 3.483361e+01 2.773950e+01 3.310555e+01 2.349122e+01 1.522918e+00 1.037582e+00 1.293040e+00 1.479618e+00 1.888099e+00 2.091717e+00 2.225197e+00 2.179906e+00 1.796479e+00 1.620783e+00 1.613829e+00 1.364862e+00 8.874317e-01
<GCONST> 9.563836e+01
<STATE> 3
<MEAN> 25
 -1.984788e-09 -1.478174e-08 -7.675977e-09 -1.597700e-08 -4.747591e-08 -4.174635e-08 1.181004e-08 -5.126182e-08 -2.633682e-08 1.395383e-09 3.034204e-08 2.347204e-08 6.262808e-03 2.009691e-03 -1.046709e-03 7.016656e-04 -5.620404e-03 -7.011942e-04 -1.884909e-03 -1.185009e-03 -5.735792e-03 -1.017377e-03 -4.267860e-03 -1.605519e-03 -1.255265e-02
<VARIANCE> 25
 5.861395e+01 3.876106e+01 4.187193e+01 3.405584e+01 4.414338e+01 4.560874e+01 5.167349e+01 4.561368e+01 3.483361e+01 2.773950e+01 3.310555e+01 2.349122e+01 1.522918e+00 1.037582e+00 1.293040e+00 1.479618e+00 1.888099e+00 2.091717e+00 2.225197e+00 2.179906e+00 1.796479e+00 1.620783e+00 1.613829e+00 1.364862e+00 8.874317e-01
<GCONST> 9.563836e+01
<STATE> 4
<MEAN> 25
 -1.984788e-09 -1.478174e-08 -7.675977e-09 -1.597700e-08 -4.747591e-08 -4.174635e-08 1.181004e-08 -5.126182e-08 -2.633682e-08 1.395383e-09 3.034204e-08 2.347204e-08 6.262808e-03 2.009691e-03 -1.046709e-03 7.016656e-04 -5.620404e-03 -7.011942e-04 -1.884909e-03 -1.185009e-03 -5.735792e-03 -1.017377e-03 -4.267860e-03 -1.605519e-03 -1.255265e-02
<VARIANCE> 25
 5.861395e+01 3.876106e+01 4.187193e+01 3.405584e+01 4.414338e+01 4.560874e+01 5.167349e+01 4.561368e+01 3.483361e+01 2.773950e+01 3.310555e+01 2.349122e+01 1.522918e+00 1.037582e+00 1.293040e+00 1.479618e+00 1.888099e+00 2.091717e+00 2.225197e+00 2.179906e+00 1.796479e+00 1.620783e+00 1.613829e+00 1.364862e+00 8.874317e-01
<GCONST> 9.563836e+01
<TRANSP> 5
 0.000000e+00 1.000000e+00 0.000000e+00 0.000000e+00 0.000000e+00
 0.000000e+00 6.000000e-01 4.000000e-01 0.000000e+00 0.000000e+00
 0.000000e+00 0.000000e+00 6.000000e-01 4.000000e-01 0.000000e+00
 0.000000e+00 0.000000e+00 0.000000e+00 7.000000e-01 3.000000e-01
 0.000000e+00 0.000000e+00 0.000000e+00 0.000000e+00 0.000000e+00
<ENDHMM>
~h "dh"
<BEGINHMM>
<NUMSTATES> 5
<STATE> 2
<MEAN> 25
 -1.984788e-09 -1.478174e-08 -7.675977e-09 -1.597700e-08 -4.747591e-08 -4.174635e-08 1.181004e-08 -5.126182e-08 -2.633682e-08 1.395383e-09 3.034204e-08 2.347204e-08 6.262808e-03 2.009691e-03 -1.046709e-03 7.016656e-04 -5.620404e-03 -7.011942e-04 -1.884909e-03 -1.185009e-03 -5.735792e-03 -1.017377e-03 -4.267860e-03 -1.605519e-03 -1.255265e-02
<VARIANCE> 25
 5.861395e+01 3.876106e+01 4.187193e+01 3.405584e+01 4.414338e+01 4.560874e+01 5.167349e+01 4.561368e+01 3.483361e+01 2.773950e+01 3.310555e+01 2.349122e+01 1.522918e+00 1.037582e+00 1.293040e+00 1.479618e+00 1.888099e+00 2.091717e+00 2.225197e+00 2.179906e+00 1.796479e+00 1.620783e+00 1.613829e+00 1.364862e+00 8.874317e-01
<GCONST> 9.563836e+01
<STATE> 3
<MEAN> 25
 -1.984788e-09 -1.478174e-08 -7.675977e-09 -1.597700e-08 -4.747591e-08 -4.174635e-08 1.181004e-08 -5.126182e-08 -2.633682e-08 1.395383e-09 3.034204e-08 2.347204e-08 6.262808e-03 2.009691e-03 -1.046709e-03 7.016656e-04 -5.620404e-03 -7.011942e-04 -1.884909e-03 -1.185009e-03 -5.735792e-03 -1.017377e-03 -4.267860e-03 -1.605519e-03 -1.255265e-02
<VARIANCE> 25
 5.861395e+01 3.876106e+01 4.187193e+01 3.405584e+01 4.414338e+01 4.560874e+01 5.167349e+01 4.561368e+01 3.483361e+01 2.773950e+01 3.310555e+01 2.349122e+01 1.522918e+00 1.037582e+00 1.293040e+00 1.479618e+00 1.888099e+00 2.091717e+00 2.225197e+00 2.179906e+00 1.796479e+00 1.620783e+00 1.613829e+00 1.364862e+00 8.874317e-01
<GCONST> 9.563836e+01
<STATE> 4
<MEAN> 25
 -1.984788e-09 -1.478174e-08 -7.675977e-09 -1.597700e-08 -4.747591e-08 -4.174635e-08 1.181004e-08 -5.126182e-08 -2.633682e-08 1.395383e-09 3.034204e-08 2.347204e-08 6.262808e-03 2.009691e-03 -1.046709e-03 7.016656e-04 -5.620404e-03 -7.011942e-04 -1.884909e-03 -1.185009e-03 -5.735792e-03 -1.017377e-03 -4.267860e-03 -1.605519e-03 -1.255265e-02
<VARIANCE> 25
 5.861395e+01 3.876106e+01 4.187193e+01 3.405584e+01 4.414338e+01 4.560874e+01 5.167349e+01 4.561368e+01 3.483361e+01 2.773950e+01 3.310555e+01 2.349122e+01 1.522918e+00 1.037582e+00 1.293040e+00 1.479618e+00 1.888099e+00 2.091717e+00 2.225197e+00 2.179906e+00 1.796479e+00 1.620783e+00 1.613829e+00 1.364862e+00 8.874317e-01
<GCONST> 9.563836e+01
<TRANSP> 5
 0.000000e+00 1.000000e+00 0.000000e+00 0.000000e+00 0.000000e+00
 0.000000e+00 6.000000e-01 4.000000e-01 0.000000e+00 0.000000e+00
 0.000000e+00 0.000000e+00 6.000000e-01 4.000000e-01 0.000000e+00
 0.000000e+00 0.000000e+00 0.000000e+00 7.000000e-01 3.000000e-01
 0.000000e+00 0.000000e+00 0.000000e+00 0.000000e+00 0.000000e+00
<ENDHMM>
~h "sil"
<BEGINHMM>
<NUMSTATES> 5
<STATE> 2
<MEAN> 25
