~o
<STREAMINFO> 1 25
<VECSIZE> 25<NULLD><MFCC_D_N_Z_0><DIAGC>
~h "proto"
<BEGINHMM>
<NUMSTATES> 5
<STATE> 2
<MEAN> 25
 -1.984788e-09 -1.478174e-08 -7.675977e-09 -1.597700e-08 -4.747591e-08 -4.174635e-08 1.181004e-08 -5.126182e-08 -2.633682e-08 1.395383e-09 3.034204e-08 2.347204e-08 6.262808e-03 2.009691e-03 -1.046709e-03 7.016656e-04 -5.620404e-03 -7.011942e-04 -1.884909e-03 -1.185009e-03 -5.735792e-03 -1.017377e-03 -4.267860e-03 -1.605519e-03 -1.255265e-02
<VARIANCE> 25
 5.861395e+01 3.876106e+01 4.187193e+01 3.405584e+01 4.414338e+01 4.560874e+01 5.167349e+01 4.561368e+01 3.483361e+01 2.773950e+01 3.310555e+01 2.349122e+01 1.522918e+00 1.037582e+00 1.293040e+00 1.479618e+00 1.888099e+00 2.091717e+00 2.225197e+00 2.179906e+00 1.796479e+00 1.620783e+00 1.613829e+00 1.364862e+00 8.874317e-01
<GCONST> 9.563836e+01
<STATE> 3
<MEAN> 25
 -1.984788e-09 -1.478174e-08 -7.675977e-09 -1.597700e-08 -4.747591e-08 -4.174635e-08 1.181004e-08 -5.126182e-08 -2.633682e-08 1.395383e-09 3.034204e-08 2.347204e-08 6.262808e-03 2.009691e-03 -1.046709e-03 7.016656e-04 -5.620404e-03 -7.011942e-04 -1.884909e-03 -1.185009e-03 -5.735792e-03 -1.017377e-03 -4.267860e-03 -1.605519e-03 -1.255265e-02
<VARIANCE> 25
 5.861395e+01 3.876106e+01 4.187193e+01 3.405584e+01 4.414338e+01 4.560874e+01 5.167349e+01 4.561368e+01 3.483361e+01 2.773950e+01 3.310555e+01 2.349122e+01 1.522918e+00 1.037582e+00 1.293040e+00 1.479618e+00 1.888099e+00 2.091717e+00 2.225197e+00 2.179906e+00 1.796479e+00 1.620783e+00 1.613829e+00 1.364862e+00 8.874317e-01
<GCONST> 9.563836e+01
<STATE> 4
<MEAN> 25
 -1.984788e-09 -1.478174e-08 -7.675977e-09 -1.597700e-08 -4.747591e-08 -4.174635e-08 1.181004e-08 -5.126182e-08 -2.633682e-08 1.395383e-09 3.034204e-08 2.347204e-08 6.262808e-03 2.009691e-03 -1.046709e-03 7.016656e-04 -5.620404e-03 -7.011942e-04 -1.884909e-03 -1.185009e-03 -5.735792e-03 -1.017377e-03 -4.267860e-03 -1.605519e-03 -1.255265e-02
<VARIANCE> 25
 5.861395e+01 3.876106e+01 4.187193e+01 3.405584e+01 4.414338e+01 4.560874e+01 5.167349e+01 4.561368e+01 3.483361e+01 2.773950e+01 3.310555e+01 2.349122e+01 1.522918e+00 1.037582e+00 1.293040e+00 1.479618e+00 1.888099e+00 2.091717e+00 2.225197e+00 2.179906e+00 1.796479e+00 1.620783e+00 1.613829e+00 1.364862e+00 8.874317e-01
<GCONST> 9.563836e+01
<TRANSP> 5
 0.000000e+00 1.000000e+00 0.000000e+00 0.000000e+00 0.000000e+00
 0.000000e+00 6.000000e-01 4.000000e-01 0.000000e+00 0.000000e+00
 0.000000e+00 0.000000e+00 6.000000e-01 4.000000e-01 0.000000e+00
 0.000000e+00 0.000000e+00 0.000000e+00 7.000000e-01 3.000000e-01
 0.000000e+00 0.000000e+00 0.000000e+00 0.000000e+00 0.000000e+00
<ENDHMM>
