~o
<STREAMINFO> 1 25
<VECSIZE> 25<NULLD><MFCC_D_N_Z_0><DIAGC>
~s "silst"
<MEAN> 25
 -7.506979e+00 -7.791083e+00 -1.120254e+00 5.286149e-01 4.268415e+00 4.622296e+00 3.300568e+00 -2.263891e+00 4.266512e+00 1.989871e+00 1.625691e+00 1.709942e+00 -2.844686e-02 -2.606721e-02 -1.005418e-02 -1.222958e-02 -2.638301e-03 4.747353e-02 -9.745333e-03 -1.341999e-02 -2.620425e-02 -1.580522e-02 -2.669433e-02 -3.898758e-02 -4.623357e-02
<VARIANCE> 25
 1.243155e+01 7.900612e+00 6.797388e+00 9.764833e+00 1.592936e+01 1.349659e+01 1.866142e+01 1.568421e+01 1.865245e+01 1.670954e+01 1.598561e+01 1.316497e+01 1.183277e-01 2.471703e-01 4.044237e-01 6.086590e-01 7.908936e-01 9.988554e-01 1.178341e+00 1.282639e+00 1.373628e+00 1.369058e+00 1.268363e+00 1.196425e+00 4.281704e-02
<GCONST> 7.001171e+01
~h "b"
<BEGINHMM>
<NUMSTATES> 5
<STATE> 2
<MEAN> 25
 1.275641e+00 -9.305977e-01 2.844746e+00 3.288586e+00 1.971038e+00 1.870508e+00 3.881238e-01 -4.060033e+00 -2.828205e-02 9.719671e-01 -1.542380e+00 -9.427441e-01 4.660964e-01 7.026056e-01 9.392746e-01 7.720611e-01 4.133401e-01 2.589166e-01 1.287712e-01 -9.654895e-01 -3.040048e-01 -9.185185e-01 -7.792014e-01 -5.937918e-01 -2.558758e-01
<VARIANCE> 25
 1.916801e+01 1.456174e+01 1.469705e+01 1.080472e+01 1.682929e+01 2.608043e+01 2.444947e+01 2.738458e+01 2.669830e+01 2.193138e+01 1.871448e+01 1.817039e+01 1.950545e+00 1.939738e+00 1.296026e+00 1.245283e+00 1.620283e+00 2.669234e+00 3.015979e+00 2.690306e+00 2.919524e+00 2.213406e+00 2.043037e+00 1.971761e+00 1.184230e+00
<GCONST> 9.023440e+01
<STATE> 3
<MEAN> 25
 3.401412e+00 2.187966e+00 5.254292e+00 5.612400e+00 3.515234e+00 2.484189e+00 8.745795e-01 -6.138399e+00 -2.060129e+00 -2.313467e+00 -4.012232e+00 -2.836845e+00 -1.988233e-01 5.464000e-02 9.417531e-02 2.288356e-01 2.899936e-01 3.265086e-01 3.024018e-01 3.617159e-02 1.454951e-02 -6.750037e-02 8.383031e-03 -5.766398e-02 -9.158830e-02
<VARIANCE> 25
 5.005966e+00 6.661849e+00 7.591165e+00 6.605336e+00 1.386230e+01 1.315604e+01 1.304127e+01 1.400840e+01 1.349459e+01 1.028900e+01 9.626773e+00 1.132868e+01 3.984330e-01 2.853841e-01 3.744517e-01 4.827640e-01 7.691000e-01 9.109450e-01 9.166201e-01 7.713960e-01 1.149597e+00 8.520105e-01 9.669611e-01 8.897699e-01 1.488466e-01
<GCONST> 6.674485e+01
<STATE> 4
<MEAN> 25
 1.911589e+00 1.730910e+00 3.466813e+00 5.176371e+00 3.746264e+00 2.298973e+00 1.000816e+00 -5.035800e+00 -1.107518e+00 -1.080976e+00 -1.918536e+00 -1.720356e+00 8.604941e-01 -1.789153e-01 -1.914826e+00 -1.684717e+00 -1.402054e+00 -2.009457e+00 -1.697441e+00 1.553119e+00 3.448066e-01 8.032854e-01 1.178635e+00 5.040778e-01 2.180390e+00
<VARIANCE> 25
 1.102175e+01 1.110600e+01 2.342073e+01 1.744578e+01 1.489175e+01 2.533700e+01 3.058914e+01 1.774369e+01 1.573323e+01 1.746618e+01 1.666920e+01 1.178148e+01 2.242526e+00 1.461127e+00 3.153120e+00 2.528137e+00 2.329620e+00 2.568685e+00 4.771092e+00 3.833007e+00 2.103804e+00 2.921814e+00 2.381881e+00 1.452925e+00 9.590275e-01
<GCONST> 9.086649e+01
<TRANSP> 5
 0.000000e+00 1.000000e+00 0.000000e+00 0.000000e+00 0.000000e+00
 0.000000e+00 7.251627e-01 2.748373e-01 0.000000e+00 0.000000e+00
 0.000000e+00 0.000000e+00 8.403621e-01 1.596379e-01 0.000000e+00
 0.000000e+00 0.000000e+00 0.000000e+00 5.976359e-01 4.023641e-01
 0.000000e+00 0.000000e+00 0.000000e+00 0.000000e+00 0.000000e+00
<ENDHMM>
~h "d"
<BEGINHMM>
<NUMSTATES> 5
<STATE> 2
<MEAN> 25
 2.443235e+00 2.043604e+00 5.544518e+00 2.196918e+00 -2.966185e+00 -3.462533e+00 -2.919259e+00 -2.047853e+00 -2.352798e+00 -5.568485e-01 -3.832799e-01 -5.954902e-01 -3.833678e-01 -6.594456e-01 1.185691e-01 8.114295e-01 1.586992e+00 1.489992e+00 1.356941e+00 -1.040597e+00 5.055795e-01 -1.689547e-01 -2.209860e-01 2.217104e-01 -1.338001e+00
<VARIANCE> 25
 8.599511e+00 1.354375e+01 1.995412e+01 1.727858e+01 3.307489e+01 3.422710e+01 2.754441e+01 3.819683e+01 1.990245e+01 2.063515e+01 2.603872e+01 1.700398e+01 8.349234e-01 1.425709e+00 1.351147e+00 1.481063e+00 2.589578e+00 2.710227e+00 3.029981e+00 2.976854e+00 2.025580e+00 2.039682e+00 2.293871e+00 1.880603e+00 1.088629e+00
<GCONST> 9.063000e+01
<STATE> 3
<MEAN> 25
 2.961907e-01 -1.261498e+00 4.009145e+00 4.212918e+00 2.940787e+00 3.345642e+00 2.826321e+00 -3.181881e+00 1.282523e-01 -2.614534e-01 -1.553653e+00 -1.976097e-01 -5.587527e-01 -3.719787e-01 -4.552747e-01 -2.054604e-01 4.133639e-01 5.001842e-01 7.256873e-01 4.577738e-01 5.011259e-01 3.219298e-01 2.894305e-01 2.139201e-01 -2.364031e-01
<VARIANCE> 25
 1.169377e+01 1.397260e+01 1.098666e+01 9.981236e+00 1.301860e+01 1.382826e+01 1.944249e+01 1.901817e+01 1.659295e+01 2.017104e+01 1.958240e+01 1.665140e+01 9.199157e-01 1.111868e+00 1.034045e+00 1.065142e+00 1.227371e+00 1.528387e+00 1.564885e+00 1.581743e+00 1.659334e+00 1.561313e+00 1.360101e+00 1.386197e+00 5.800385e-01
<GCONST> 8.114275e+01
<STATE> 4
<MEAN> 25
 -3.309678e+00 -1.934155e+00 2.525879e-01 9.543164e-01 3.022243e+00 1.699944e+00 4.656315e+00 -8.895496e-01 2.777746e+00 1.316008e+00 1.230177e+00 2.630045e+00 -3.594311e-01 3.282168e-01 -4.002668e-01 -6.355817e-01 -5.683121e-01 -8.656436e-01 -3.671061e-01 1.463324e-01 3.231496e-01 -4.822044e-02 3.114120e-01 3.558938e-01 8.216329e-01
<VARIANCE> 25
 1.372438e+01 2.349544e+01 1.688570e+01 2.260197e+01 2.129911e+01 3.488808e+01 2.368696e+01 2.681386e+01 2.388273e+01 2.726097e+01 2.051955e+01 1.544175e+01 2.167562e+00 2.178486e+00 2.124922e+00 2.967840e+00 2.959996e+00 5.736392e+00 3.367406e+00 3.009293e+00 2.592509e+00 2.604128e+00 2.194200e+00 1.731475e+00 3.123492e+00
<GCONST> 9.589429e+01
<TRANSP> 5
 0.000000e+00 1.000000e+00 0.000000e+00 0.000000e+00 0.000000e+00
 0.000000e+00 6.804383e-01 3.195617e-01 0.000000e+00 0.000000e+00
 0.000000e+00 0.000000e+00 7.423415e-01 2.576585e-01 0.000000e+00
 0.000000e+00 0.000000e+00 0.000000e+00 6.937759e-01 3.062241e-01
 0.000000e+00 0.000000e+00 0.000000e+00 0.000000e+00 0.000000e+00
<ENDHMM>
~h "f"
<BEGINHMM>
<NUMSTATES> 5
<STATE> 2
<MEAN> 25
 -1.952379e+00 -1.558215e+00 -1.250577e+00 3.376769e+00 9.151701e-01 1.662912e+00 1.840122e+00 -1.493468e-02 1.737349e+00 1.680607e+00 -4.205388e-01 1.464078e+00 -1.777385e+00 -3.204704e-01 -1.077098e+00 7.221630e-01 2.944098e-01 1.290788e+00 7.768954e-01 2.994417e-02 7.755721e-01 4.209992e-02 2.129690e-01 4.953640e-01 -5.566346e-01
<VARIANCE> 25
 2.485663e+01 8.249898e+00 2.476718e+01 2.135119e+01 1.710040e+01 2.815811e+01 2.409181e+01 2.134332e+01 2.916128e+01 1.973978e+01 2.170343e+01 1.960246e+01 2.080298e+00 1.199951e+00 1.643129e+00 1.855142e+00 2.606097e+00 2.161448e+00 3.282444e+00 2.751567e+00 3.218655e+00 2.736954e+00 2.118327e+00 2.012224e+00 7.129507e-01
<GCONST> 9.161510e+01
<STATE> 3
<MEAN> 25
 -9.174426e+00 -1.089707e-01 -7.927178e+00 6.617788e+00 -8.529691e-01 6.053275e+00 1.701853e+00 9.021109e-01 2.911632e+00 2.400664e+00 3.530749e-01 2.017481e+00 -1.806722e-01 9.609170e-02 -1.291978e-01 1.047316e-01 5.098966e-02 -4.798017e-02 -3.254335e-02 -4.339432e-04 4.016338e-02 -7.930089e-03 1.016294e-02 3.341533e-03 1.196955e-01
<VARIANCE> 25
 5.406994e+00 8.837166e+00 1.240779e+01 1.467625e+01 1.549815e+01 1.878369e+01 2.726037e+01 1.821914e+01 1.797911e+01 1.695813e+01 1.591533e+01 1.447898e+01 4.379125e-01 5.380073e-01 7.616260e-01 9.375905e-01 1.245995e+00 1.517640e+00 1.736088e+00 1.508862e+00 1.506712e+00 1.598462e+00 1.581902e+00 1.118733e+00 2.359256e-01
<GCONST> 7.788298e+01
<STATE> 4
<MEAN> 25
 -6.375111e+00 -2.004665e+00 -5.150610e+00 3.542115e+00 1.861006e+00 2.438692e+00 3.506821e+00 -3.015489e-01 3.244190e+00 1.875650e+00 -2.926981e-01 2.086642e+00 2.028634e+00 3.560158e-02 1.004623e+00 -8.713068e-01 -1.910047e-01 -7.849150e-01 -6.424488e-02 -5.327601e-01 -4.640168e-01 -2.582137e-01 -7.671913e-02 -3.111940e-01 9.007479e-02
<VARIANCE> 25
 2.122785e+01 1.206362e+01 1.746750e+01 1.435943e+01 1.903548e+01 2.469637e+01 2.920866e+01 1.588835e+01 1.955686e+01 1.889470e+01 1.681602e+01 1.606199e+01 4.306409e+00 2.153063e+00 1.766666e+00 2.258262e+00 2.620088e+00 3.694080e+00 2.828585e+00 2.418001e+00 2.409231e+00 1.806619e+00 1.700560e+00 2.104441e+00 1.218615e+00
<GCONST> 9.156804e+01
<TRANSP> 5
 0.000000e+00 1.000000e+00 0.000000e+00 0.000000e+00 0.000000e+00
 0.000000e+00 8.104794e-01 1.895206e-01 0.000000e+00 0.000000e+00
 0.000000e+00 0.000000e+00 8.916356e-01 1.083644e-01 0.000000e+00
 0.000000e+00 0.000000e+00 0.000000e+00 7.507496e-01 2.492504e-01
 0.000000e+00 0.000000e+00 0.000000e+00 0.000000e+00 0.000000e+00
<ENDHMM>
~h "g"
<BEGINHMM>
<NUMSTATES> 5
<STATE> 2
<MEAN> 25
 2.005499e+00 1.676141e+00 5.318347e+00 3.678081e+00 1.532108e+00 1.447293e+00 5.232266e-01 -5.357892e+00 -3.051017e+00 -1.738271e+00 -1.778072e+00 -2.520325e+00 -5.735846e-02 -1.535557e-01 3.504407e-02 3.382423e-01 7.436820e-01 4.506643e-01 6.023038e-01 -1.528334e-01 2.916508e-01 -1.725856e-01 -3.660821e-01 1.887653e-01 -3.024517e-01
<VARIANCE> 25
 1.064989e+01 1.192082e+01 9.677231e+00 1.191252e+01 2.329655e+01 2.006960e+01 1.909588e+01 2.011562e+01 1.802844e+01 1.689016e+01 1.612839e+01 1.242987e+01 1.243642e+00 1.316017e+00 8.927259e-01 9.623230e-01 2.459975e+00 1.912581e+00 2.150605e+00 2.296928e+00 2.327231e+00 1.618591e+00 1.649262e+00 1.558314e+00 7.502897e-01
<GCONST> 8.412554e+01
<STATE> 3
<MEAN> 25
 -1.252023e+00 -9.148991e-01 9.031554e-01 3.982288e+00 5.131705e+00 1.434104e+00 2.288815e+00 -9.236512e-01 4.749903e-01 1.328126e-01 -1.459170e+00 -1.078119e-01 -5.919802e-01 8.078352e-03 -5.822164e-01 -4.401868e-01 -6.981377e-01 -1.801016e+00 -1.015680e+00 1.524861e+00 9.703335e-02 2.943076e-01 6.613823e-01 6.202778e-01 1.393947e+00
<VARIANCE> 25
 1.635701e+01 2.207014e+01 3.595276e+01 2.479126e+01 2.659871e+01 3.968546e+01 3.990022e+01 3.962156e+01 3.478234e+01 3.619215e+01 1.692472e+01 1.428904e+01 1.876515e+00 3.180488e+00 4.684349e+00 3.672239e+00 3.049420e+00 3.766233e+00 5.520435e+00 5.106527e+00 4.497949e+00 2.889119e+00 2.134929e+00 1.448225e+00 1.888031e+00
<GCONST> 1.003227e+02
<STATE> 4
<MEAN> 25
 2.457752e+00 1.496565e+00 3.922379e+00 4.313046e+00 -2.850881e+00 -8.198371e+00 -4.759056e+00 3.600905e+00 -2.709595e+00 -1.956775e+00 2.497131e+00 -8.987013e-02 1.219031e+00 7.171541e-02 -1.131833e-02 -5.662963e-01 -1.510863e+00 -6.910465e-01 -1.291513e+00 1.071216e+00 8.960441e-02 -4.553763e-01 8.037788e-01 -4.430557e-01 6.675131e-01
<VARIANCE> 25
 2.049824e+01 1.834834e+01 3.167919e+01 3.484432e+01 4.145298e+01 4.201423e+01 4.712127e+01 4.602465e+01 4.086197e+01 2.793121e+01 2.742206e+01 1.497083e+01 1.819925e+00 1.583687e+00 3.261139e+00 1.894676e+00 4.094713e+00 3.166856e+00 2.898270e+00 4.420486e+00 3.025450e+00 2.472290e+00 3.994445e+00 2.259020e+00 6.004992e-01
<GCONST> 9.877974e+01
<TRANSP> 5
 0.000000e+00 1.000000e+00 0.000000e+00 0.000000e+00 0.000000e+00
 0.000000e+00 8.690268e-01 1.309732e-01 0.000000e+00 0.000000e+00
 0.000000e+00 0.000000e+00 6.909226e-01 3.090774e-01 0.000000e+00
 0.000000e+00 0.000000e+00 0.000000e+00 6.266977e-01 3.733023e-01
 0.000000e+00 0.000000e+00 0.000000e+00 0.000000e+00 0.000000e+00
<ENDHMM>
~h "k"
<BEGINHMM>
<NUMSTATES> 5
<STATE> 2
<MEAN> 25
 -8.275151e-01 3.699945e-01 2.581378e+00 1.350467e+00 1.350682e+00 -5.596268e-01 8.884058e-01 -3.400564e+00 -1.322183e+00 9.216555e-01 1.604275e-01 4.067429e-01 -1.130247e+00 -1.393494e+00 -8.100826e-01 5.057907e-01 9.217919e-01 1.447649e+00 1.688557e+00 -6.555870e-02 1.458866e+00 3.092662e-01 2.979127e-01 6.560940e-01 -1.261338e+00
<VARIANCE> 25
 2.432813e+01 2.869645e+01 2.685351e+01 1.821374e+01 2.691508e+01 3.478254e+01 3.611260e+01 4.165335e+01 3.257796e+01 2.360707e+01 2.079996e+01 1.595809e+01 1.315036e+00 1.720122e+00 1.908344e+00 1.964332e+00 2.789236e+00 2.860261e+00 3.148111e+00 3.538256e+00 2.702336e+00 2.806989e+00 2.540527e+00 1.743963e+00 6.932651e-01
<GCONST> 9.506902e+01
<STATE> 3
<MEAN> 25
 -3.704489e+00 -5.636150e+00 -8.534454e-01 2.015164e+00 2.395820e+00 4.633513e+00 5.460286e+00 1.954105e-01 3.665407e+00 3.549676e+00 2.253529e+00 2.542633e+00 -1.517616e-01 -6.138742e-02 -1.870926e-01 -1.577922e-01 -1.098783e-01 -2.553222e-02 3.089965e-02 2.790888e-01 3.740673e-02 6.861076e-02 -1.182444e-03 9.092718e-02 1.431401e-01
<VARIANCE> 25
 5.813053e+00 7.233095e+00 1.214856e+01 1.719669e+01 1.484163e+01 2.359145e+01 2.588736e+01 2.526714e+01 1.966751e+01 1.794337e+01 1.694119e+01 1.278562e+01 8.283757e-01 1.051305e+00 1.013047e+00 1.246781e+00 1.653368e+00 2.569350e+00 2.182014e+00 2.374540e+00 2.126089e+00 1.903381e+00 1.259364e+00 1.301953e+00 1.617645e+00
<GCONST> 8.417362e+01
<STATE> 4
<MEAN> 25
 -3.523787e+00 -3.385902e+00 -3.682370e+00 -1.820373e-01 1.593924e+00 -1.723369e+00 2.304673e+00 3.976767e+00 1.610938e+00 2.028716e+00 -6.224203e-02 2.484185e+00 6.564800e-01 5.353712e-01 1.627647e-01 1.845902e-02 -6.089019e-02 -6.607015e-01 -5.041592e-01 3.349146e-01 -3.121415e-01 -4.261704e-01 -3.335980e-01 -1.983366e-01 8.886303e-01
<VARIANCE> 25
 2.401364e+01 2.255409e+01 3.792784e+01 3.832690e+01 4.177361e+01 4.526293e+01 3.961183e+01 5.077338e+01 4.130853e+01 3.561207e+01 2.438228e+01 2.468600e+01 3.307523e+00 2.124168e+00 4.253717e+00 3.976927e+00 3.564814e+00 4.244122e+00 3.934666e+00 5.771042e+00 3.722798e+00 3.711058e+00 2.511822e+00 2.239769e+00 4.071938e+00
<GCONST> 1.047429e+02
<TRANSP> 5
 0.000000e+00 1.000000e+00 0.000000e+00 0.000000e+00 0.000000e+00
 0.000000e+00 7.275187e-01 2.724813e-01 0.000000e+00 0.000000e+00
 0.000000e+00 0.000000e+00 8.338152e-01 1.661848e-01 0.000000e+00
 0.000000e+00 0.000000e+00 0.000000e+00 7.830995e-01 2.169005e-01
 0.000000e+00 0.000000e+00 0.000000e+00 0.000000e+00 0.000000e+00
<ENDHMM>
~h "l"
<BEGINHMM>
<NUMSTATES> 5
<STATE> 2
<MEAN> 25
 4.185717e+00 2.237208e+00 -2.757070e+00 -3.600077e+00 -1.369936e+00 -1.475536e+00 -1.672705e+00 2.519338e-01 5.465995e-01 2.635067e+00 -1.879169e+00 -5.504009e-01 8.426279e-01 5.408236e-01 -4.562667e-01 -1.109697e+00 1.357663e-01 3.381278e-01 -2.758880e-01 -4.362886e-01 -3.283483e-01 3.538507e-01 -3.751058e-01 1.943553e-01 2.007814e-01
<VARIANCE> 25
 2.359743e+01 2.021624e+01 2.294201e+01 4.653712e+01 2.750208e+01 3.344251e+01 4.144604e+01 4.099455e+01 3.435009e+01 2.397144e+01 2.883243e+01 2.376738e+01 2.429682e+00 1.438824e+00 1.557852e+00 3.182456e+00 2.750152e+00 2.790232e+00 2.831739e+00 2.461241e+00 3.606816e+00 2.003586e+00 2.517269e+00 1.833970e+00 1.184132e+00
<GCONST> 9.710130e+01
<STATE> 3
<MEAN> 25
 8.016708e+00 5.400700e+00 -5.596041e+00 -1.145899e+01 -3.141594e+00 2.251668e+00 -2.602697e+00 4.089924e-01 -5.134861e+00 4.246318e+00 -2.707727e+00 8.324167e-01 -4.500699e-02 1.361362e-01 1.666895e-01 2.653905e-02 -4.184270e-02 -9.197745e-02 -5.687321e-02 -1.329432e-01 -3.100987e-02 2.272642e-01 2.444247e-02 5.336223e-02 -1.568128e-01
<VARIANCE> 25
 4.043028e+00 9.747478e+00 1.576898e+01 2.353644e+01 2.112840e+01 2.086020e+01 2.821444e+01 1.990638e+01 2.508446e+01 2.712204e+01 2.352773e+01 1.552915e+01 1.080932e-01 2.719625e-01 3.812288e-01 8.034869e-01 6.858922e-01 7.084612e-01 8.946111e-01 8.879991e-01 8.176521e-01 8.783411e-01 7.560562e-01 7.455290e-01 1.318519e-01
<GCONST> 7.178809e+01
<STATE> 4
<MEAN> 25
 5.371857e+00 3.293796e+00 -2.840578e+00 -5.093029e+00 -8.168551e-01 4.047923e-01 -2.325986e+00 -2.221089e+00 -7.709547e-01 4.944108e+00 -1.740641e+00 -8.285909e-01 -8.879995e-01 -6.222574e-01 4.497944e-01 1.461491e+00 5.915642e-01 -1.342285e-01 4.679734e-01 -2.172033e-02 8.585663e-01 -6.180967e-01 2.680493e-01 -3.761585e-02 -4.705323e-01
<VARIANCE> 25
 1.239750e+01 1.677952e+01 1.961692e+01 3.642833e+01 1.898569e+01 3.018357e+01 4.291586e+01 2.936951e+01 2.980709e+01 2.336715e+01 2.725302e+01 1.510802e+01 6.591331e-01 7.692130e-01 1.040247e+00 1.945978e+00 1.576059e+00 2.587085e+00 2.616774e+00 2.817811e+00 1.826433e+00 2.470095e+00 1.993138e+00 1.303828e+00 7.844269e-01
<GCONST> 8.956116e+01
<TRANSP> 5
 0.000000e+00 1.000000e+00 0.000000e+00 0.000000e+00 0.000000e+00
 0.000000e+00 7.671570e-01 2.328430e-01 0.000000e+00 0.000000e+00
 0.000000e+00 0.000000e+00 8.860784e-01 1.139215e-01 0.000000e+00
 0.000000e+00 0.000000e+00 0.000000e+00 7.297592e-01 2.702408e-01
 0.000000e+00 0.000000e+00 0.000000e+00 0.000000e+00 0.000000e+00
<ENDHMM>
~h "m"
<BEGINHMM>
<NUMSTATES> 5
<STATE> 2
<MEAN> 25
 3.657888e+00 -8.854657e-01 2.192669e+00 1.803719e+00 -8.093266e-01 7.719469e-02 -1.199230e-01 -1.531855e+00 -1.997323e+00 -1.099756e+00 -1.148721e+00 -1.446078e+00 2.494301e-01 3.542626e-01 4.803793e-01 1.310872e+00 1.860137e-01 -8.593466e-02 -1.958634e-01 -1.387627e+00 -4.401601e-01 -5.046766e-01 1.064587e-01 1.061043e-02 -4.937985e-01
<VARIANCE> 25
 1.628531e+01 1.326134e+01 2.040153e+01 2.349138e+01 1.762384e+01 2.352104e+01 1.891291e+01 3.099354e+01 2.702977e+01 2.044375e+01 2.136975e+01 1.374026e+01 1.449574e+00 1.175099e+00 1.591648e+00 1.577660e+00 1.970614e+00 1.911209e+00 1.953216e+00 2.518018e+00 3.564280e+00 2.096505e+00 2.235998e+00 1.500466e+00 1.156967e+00
<GCONST> 8.963184e+01
<STATE> 3
<MEAN> 25
 5.076316e+00 2.216542e+00 3.697512e+00 5.114156e+00 -1.023952e+00 -9.016840e-02 -1.530380e+00 -6.495733e+00 -5.423966e+00 -2.278511e+00 -3.041040e-01 -1.722930e+00 -1.736702e-02 1.498884e-01 9.197709e-02 1.972943e-01 6.103680e-03 -2.587591e-02 9.743344e-03 -1.424617e-01 -1.597741e-01 -5.790341e-02 1.027965e-01 -9.865850e-02 -5.726426e-02
<VARIANCE> 25
 2.218826e+00 5.433748e+00 6.922908e+00 8.390183e+00 1.313933e+01 1.221279e+01 1.041703e+01 1.241266e+01 1.112786e+01 9.888502e+00 1.110259e+01 1.115958e+01 1.065697e-01 1.716837e-01 3.488877e-01 4.184975e-01 4.965312e-01 5.412772e-01 7.080225e-01 7.516228e-01 9.013652e-01 7.668760e-01 7.658281e-01 6.652932e-01 8.769666e-02
<GCONST> 6.061166e+01
<STATE> 4
<MEAN> 25
 2.038250e+00 -3.717857e-01 4.075857e+00 6.669777e+00 1.890009e+00 1.289136e+00 4.339384e-01 -4.904609e+00 -3.619600e+00 -2.546682e+00 -3.987891e-01 -1.618893e+00 -4.421024e-01 -2.923617e-01 -2.955829e-01 -3.031047e-01 3.369421e-01 3.609582e-01 3.871277e-01 4.490640e-01 5.694646e-01 2.164648e-01 8.412611e-03 1.635482e-01 -1.615146e-01
<VARIANCE> 25
 9.039282e+00 1.066066e+01 5.669899e+00 8.170305e+00 1.794789e+01 2.236881e+01 1.604031e+01 1.883602e+01 1.609847e+01 1.345970e+01 9.885540e+00 1.254439e+01 6.584792e-01 4.813808e-01 7.607357e-01 7.254429e-01 1.011238e+00 1.360540e+00 1.090818e+00 1.503756e+00 1.483720e+00 1.201316e+00 1.055429e+00 9.387798e-01 4.169514e-01
<GCONST> 7.502010e+01
<TRANSP> 5
 0.000000e+00 1.000000e+00 0.000000e+00 0.000000e+00 0.000000e+00
 0.000000e+00 7.747502e-01 2.252498e-01 0.000000e+00 0.000000e+00
 0.000000e+00 0.000000e+00 8.462521e-01 1.537478e-01 0.000000e+00
 0.000000e+00 0.000000e+00 0.000000e+00 7.260911e-01 2.739089e-01
 0.000000e+00 0.000000e+00 0.000000e+00 0.000000e+00 0.000000e+00
<ENDHMM>
~h "n"
<BEGINHMM>
<NUMSTATES> 5
<STATE> 2
<MEAN> 25
 3.969339e+00 1.822245e+00 2.916989e+00 5.421080e-01 -1.292719e+00 -7.317023e-02 -8.099050e-01 -9.879066e-01 -3.119814e+00 -1.250360e+00 -2.853875e+00 -1.108049e+00 3.078233e-01 9.422714e-02 1.473224e-01 1.084983e+00 2.652562e-01 4.754436e-01 4.583185e-02 -1.778391e+00 1.753437e-01 -4.335952e-01 4.305749e-01 1.008358e-01 -8.605970e-01
<VARIANCE> 25
 5.711781e+00 9.134734e+00 1.855190e+01 1.813107e+01 2.043778e+01 2.103144e+01 1.926014e+01 3.999203e+01 1.795602e+01 1.790388e+01 2.904634e+01 1.777691e+01 6.128827e-01 7.800120e-01 9.383597e-01 1.291585e+00 1.452726e+00 1.744901e+00 1.693569e+00 2.790502e+00 1.782954e+00 1.742669e+00 2.311627e+00 1.276903e+00 5.955352e-01
<GCONST> 8.408480e+01
<STATE> 3
<MEAN> 25
 4.919782e+00 2.080983e+00 3.050988e+00 3.528552e+00 -9.488110e-01 1.521502e+00 -1.866794e+00 -6.414340e+00 -2.717282e+00 -3.018731e+00 -1.655107e+00 -8.238065e-01 -7.210765e-02 4.289036e-02 1.173064e-01 7.363917e-02 1.481564e-01 3.253840e-02 -2.300165e-02 -1.900623e-01 -6.349799e-02 4.594132e-02 -6.773077e-02 -1.328168e-02 -2.215125e-01
<VARIANCE> 25
 2.559016e+00 4.666131e+00 8.419243e+00 8.208347e+00 1.314382e+01 1.196445e+01 1.049848e+01 1.272227e+01 1.120636e+01 1.088092e+01 1.215971e+01 1.010113e+01 1.293118e-01 2.210068e-01 3.650880e-01 4.380146e-01 6.226635e-01 6.784861e-01 7.633128e-01 8.958399e-01 8.531654e-01 7.936601e-01 7.846881e-01 7.487761e-01 7.681168e-02
<GCONST> 6.211128e+01
<STATE> 4
<MEAN> 25
 1.526000e+00 6.519473e-01 3.689941e+00 3.605676e+00 2.270968e+00 2.245418e+00 5.643105e-01 -5.530081e+00 -1.387245e+00 -1.504149e+00 -2.215908e+00 -6.734200e-01 -8.970765e-01 -4.207117e-01 -3.568332e-01 -1.548154e-01 7.268561e-01 2.099374e-01 7.030280e-01 6.678723e-01 5.237461e-01 3.813379e-01 8.357140e-02 1.321177e-01 -2.187476e-01
<VARIANCE> 25
 1.122031e+01 9.172414e+00 8.435417e+00 1.233021e+01 1.851974e+01 2.011647e+01 1.972535e+01 1.799337e+01 1.715430e+01 1.497155e+01 1.299232e+01 1.227490e+01 8.643007e-01 7.767509e-01 8.092591e-01 1.143853e+00 1.621181e+00 2.228997e+00 1.827151e+00 1.797953e+00 1.575379e+00 1.591882e+00 1.666918e+00 1.415659e+00 6.399134e-01
<GCONST> 8.096792e+01
<TRANSP> 5
 0.000000e+00 1.000000e+00 0.000000e+00 0.000000e+00 0.000000e+00
 0.000000e+00 7.449248e-01 2.550752e-01 0.000000e+00 0.000000e+00
 0.000000e+00 0.000000e+00 8.714592e-01 1.285408e-01 0.000000e+00
 0.000000e+00 0.000000e+00 0.000000e+00 6.899805e-01 3.100195e-01
 0.000000e+00 0.000000e+00 0.000000e+00 0.000000e+00 0.000000e+00
<ENDHMM>
~h "p"
<BEGINHMM>
<NUMSTATES> 5
<STATE> 2
<MEAN> 25
 1.499726e+00 -1.567139e+00 1.162334e+00 1.665370e+00 5.843464e-01 -3.641931e-01 3.932359e-01 -2.495237e+00 3.387609e-02 9.984195e-01 9.957270e-02 3.017908e-02 -1.232465e+00 -1.304200e+00 -2.620578e-01 2.839350e-01 7.433459e-01 1.127870e+00 1.324631e+00 -3.996728e-01 1.111809e+00 1.345032e-01 6.080019e-01 8.647898e-01 -1.487915e+00
<VARIANCE> 25
 2.041185e+01 1.395907e+01 2.932100e+01 1.844713e+01 3.349826e+01 4.341303e+01 3.452056e+01 3.346869e+01 3.133867e+01 2.234441e+01 2.124750e+01 1.889453e+01 1.165870e+00 9.776587e-01 1.984890e+00 2.344887e+00 3.095970e+00 2.801548e+00 2.763613e+00 4.157533e+00 2.366562e+00 2.419433e+00 2.012364e+00 1.660480e+00 6.295925e-01
<GCONST> 9.353244e+01
<STATE> 3
<MEAN> 25
 -3.767079e+00 -5.559754e+00 -8.163518e-01 1.623689e+00 2.816844e+00 4.577236e+00 5.277962e+00 -1.098318e+00 3.894257e+00 3.435467e+00 2.101311e+00 2.262049e+00 -1.780664e-01 -1.538497e-01 -3.430323e-02 4.405910e-02 9.689741e-02 3.386225e-01 1.260366e-01 1.345182e-01 6.094109e-02 1.363736e-01 1.627218e-03 1.051926e-02 -2.032320e-01
<VARIANCE> 25
 5.216682e+00 6.368488e+00 1.062483e+01 1.323645e+01 1.550209e+01 2.362243e+01 2.943914e+01 1.855562e+01 1.711251e+01 1.876351e+01 1.922255e+01 1.511981e+01 1.888524e-01 3.497206e-01 4.779588e-01 6.347048e-01 8.598785e-01 1.111369e+00 1.271294e+00 1.333920e+00 1.525152e+00 1.485124e+00 1.363750e+00 1.191854e+00 8.777513e-02
<GCONST> 7.348933e+01
<STATE> 4
<MEAN> 25
 -3.205146e+00 -3.818078e+00 -1.321849e+00 2.446149e+00 2.916133e+00 2.837903e+00 4.200034e+00 -5.134543e-01 3.828596e+00 1.956404e+00 1.286305e+00 2.293488e+00 1.676622e+00 1.158856e+00 -4.577842e-01 -7.712508e-02 -5.915650e-01 -1.337915e+00 -1.003453e+00 3.363580e-01 -3.616540e-01 -7.970861e-01 -4.901286e-01 -4.322043e-01 2.169528e+00
<VARIANCE> 25
 1.284237e+01 1.095210e+01 1.216056e+01 1.664216e+01 1.352797e+01 2.614167e+01 2.681288e+01 1.883384e+01 1.713083e+01 1.666282e+01 1.885110e+01 1.270055e+01 3.891221e+00 1.661217e+00 2.221037e+00 3.085944e+00 2.183176e+00 3.672521e+00 5.494887e+00 3.126701e+00 2.714384e+00 2.206878e+00 2.394230e+00 2.015089e+00 1.773661e+00
<GCONST> 9.208192e+01
<TRANSP> 5
 0.000000e+00 1.000000e+00 0.000000e+00 0.000000e+00 0.000000e+00
 0.000000e+00 7.216786e-01 2.783214e-01 0.000000e+00 0.000000e+00
 0.000000e+00 0.000000e+00 8.674232e-01 1.325768e-01 0.000000e+00
 0.000000e+00 0.000000e+00 0.000000e+00 6.986975e-01 3.013025e-01
 0.000000e+00 0.000000e+00 0.000000e+00 0.000000e+00 0.000000e+00
<ENDHMM>
~h "r"
<BEGINHMM>
<NUMSTATES> 5
<STATE> 2
<MEAN> 25
 7.092360e+00 -1.959812e+00 -6.862032e-01 2.553763e+00 -3.463580e+00 -5.844266e+00 -6.002080e+00 2.084986e+00 1.184711e+00 -4.634776e-01 -2.479677e-01 1.251727e+00 1.684182e+00 -1.146644e-01 -2.847981e-01 2.879273e-01 -4.144700e-01 -1.405388e+00 -1.233840e+00 5.138824e-01 2.207430e-01 -5.587415e-01 -3.212613e-01 4.880615e-01 2.967222e-01
<VARIANCE> 25
 2.301367e+01 1.492898e+01 5.448520e+01 2.365733e+01 3.620216e+01 3.075371e+01 3.519068e+01 5.796560e+01 2.939962e+01 2.517799e+01 2.489015e+01 1.403622e+01 2.849283e+00 1.614749e+00 2.293456e+00 1.920174e+00 2.245260e+00 2.708112e+00 3.060781e+00 3.432858e+00 2.764035e+00 2.150535e+00 1.842761e+00 1.419643e+00 6.678155e-01
<GCONST> 9.555294e+01
<STATE> 3
<MEAN> 25
 1.069920e+01 -3.235052e+00 -3.994569e+00 2.730257e+00 -2.798864e+00 -9.005517e+00 -7.770960e+00 7.061908e+00 2.802876e+00 -2.188763e+00 -2.147272e+00 2.769269e+00 -8.237565e-02 -6.346858e-02 4.030107e-01 1.689522e-01 -1.775202e-01 -4.302020e-01 2.511800e-01 3.333221e-02 3.437306e-02 -2.701009e-01 6.606802e-02 1.945243e-01 -1.377688e-01
<VARIANCE> 25
 4.561775e+00 9.048810e+00 3.401146e+01 1.424106e+01 1.506123e+01 2.431257e+01 2.767629e+01 4.497606e+01 1.479389e+01 1.737910e+01 1.671381e+01 9.875929e+00 1.683429e-01 3.450072e-01 1.137401e+00 7.117143e-01 1.023479e+00 1.030824e+00 1.243228e+00 1.909357e+00 1.204743e+00 9.079290e-01 9.611313e-01 6.352397e-01 1.489253e-01
<GCONST> 7.508849e+01
<STATE> 4
<MEAN> 25
 6.079654e+00 -3.125197e+00 9.498093e-01 3.539698e+00 -3.520219e+00 -7.484313e+00 -3.460984e+00 3.454286e+00 1.944411e+00 -1.455632e+00 -2.852029e-02 2.755026e+00 -9.157216e-01 1.236074e-01 4.806748e-01 -1.337577e-01 2.778937e-01 1.235946e+00 9.400146e-01 -8.278356e-01 -3.950748e-01 3.629216e-01 4.068074e-01 -3.001437e-01 -5.879033e-01
<VARIANCE> 25
 1.815080e+01 1.135287e+01 2.842649e+01 1.835702e+01 2.296536e+01 3.347052e+01 3.019963e+01 3.929979e+01 2.306489e+01 2.209839e+01 1.991170e+01 1.262985e+01 8.783759e-01 6.916456e-01 1.318052e+00 1.266416e+00 1.956921e+00 1.716393e+00 2.081264e+00 2.455370e+00 1.966039e+00 1.510218e+00 1.321624e+00 1.420335e+00 6.113546e-01
<GCONST> 8.710011e+01
<TRANSP> 5
 0.000000e+00 1.000000e+00 0.000000e+00 0.000000e+00 0.000000e+00
 0.000000e+00 6.466262e-01 3.533737e-01 0.000000e+00 0.000000e+00
 0.000000e+00 0.000000e+00 8.323505e-01 1.676495e-01 0.000000e+00
 0.000000e+00 0.000000e+00 0.000000e+00 7.161739e-01 2.838262e-01
 0.000000e+00 0.000000e+00 0.000000e+00 0.000000e+00 0.000000e+00
<ENDHMM>
~h "s"
<BEGINHMM>
<NUMSTATES> 5
<STATE> 2
<MEAN> 25
 -6.370760e+00 5.681089e+00 -2.109943e+00 3.723426e+00 4.192786e+00 -3.061048e+00 3.990052e+00 -2.263046e+00 3.023129e+00 1.365875e+00 -4.866800e-01 1.960410e+00 -3.229332e+00 1.225732e+00 -1.730106e+00 3.164230e-01 1.903417e+00 -8.179229e-03 1.832864e+00 -3.073973e-02 8.504645e-01 6.609445e-03 2.364552e-01 5.346740e-01 6.108001e-01
<VARIANCE> 25
 5.146349e+01 2.892404e+01 2.864557e+01 2.203139e+01 4.044393e+01 3.519303e+01 5.003683e+01 3.430085e+01 3.080189e+01 2.475094e+01 2.087284e+01 1.635480e+01 2.813236e+00 2.415623e+00 2.165547e+00 2.378138e+00 3.586731e+00 3.690496e+00 4.311725e+00 3.425565e+00 3.077962e+00 2.597830e+00 2.471685e+00 1.989176e+00 8.855867e-01
<GCONST> 9.925899e+01
<STATE> 3
<MEAN> 25
 -1.833662e+01 8.851685e+00 -1.012111e+01 2.989609e+00 7.962852e+00 -2.856425e+00 7.670862e+00 -1.799343e+00 4.334072e+00 1.325887e+00 6.192373e-01 3.028229e+00 -1.939267e-01 -5.030384e-02 -1.590337e-01 -1.400806e-01 5.130431e-03 -5.381161e-02 -6.624694e-02 -5.914405e-04 -4.218826e-02 -8.564305e-03 1.069016e-02 -1.212347e-03 -6.971891e-02
<VARIANCE> 25
 6.244018e+00 8.183302e+00 9.734557e+00 1.519077e+01 1.789940e+01 2.099139e+01 1.844359e+01 2.368917e+01 1.865844e+01 1.832600e+01 1.468515e+01 1.405288e+01 7.977133e-01 5.824007e-01 9.894627e-01 1.018375e+00 1.147344e+00 1.438934e+00 1.421959e+00 1.728993e+00 1.542326e+00 1.509905e+00 1.487151e+00 1.374872e+00 2.602687e-01
<GCONST> 7.890638e+01
<STATE> 4
<MEAN> 25
 -1.157571e+01 3.765135e+00 -5.530043e+00 1.227438e+00 6.547111e+00 -2.070094e+00 6.646188e+00 -1.547286e+00 5.146219e+00 1.617318e+00 7.855001e-01 3.054658e+00 2.663045e+00 -1.425768e+00 1.404246e+00 -4.266571e-01 -9.533330e-01 3.893985e-01 -7.557193e-01 -3.445694e-01 2.679313e-02 -1.634521e-02 -1.940415e-01 -2.658251e-01 -8.431662e-01
<VARIANCE> 25
 2.620635e+01 2.114158e+01 2.273948e+01 2.322828e+01 2.241122e+01 3.454169e+01 2.674177e+01 2.426367e+01 2.129232e+01 2.143180e+01 1.794236e+01 1.442088e+01 3.124428e+00 1.623871e+00 1.863106e+00 2.100303e+00 2.300672e+00 3.488567e+00 2.934172e+00 2.896920e+00 2.156292e+00 2.196318e+00 2.387945e+00 1.732243e+00 1.413271e+00
<GCONST> 9.387170e+01
<TRANSP> 5
 0.000000e+00 1.000000e+00 0.000000e+00 0.000000e+00 0.000000e+00
 0.000000e+00 7.858995e-01 2.141005e-01 0.000000e+00 0.000000e+00
 0.000000e+00 0.000000e+00 8.949355e-01 1.050645e-01 0.000000e+00
 0.000000e+00 0.000000e+00 0.000000e+00 7.632511e-01 2.367489e-01
 0.000000e+00 0.000000e+00 0.000000e+00 0.000000e+00 0.000000e+00
<ENDHMM>
~h "t"
<BEGINHMM>
<NUMSTATES> 5
<STATE> 2
<MEAN> 25
 7.558360e-01 -1.126903e+00 6.565356e-01 2.002101e+00 9.859263e-01 7.789621e-01 2.185865e+00 -8.703008e-01 1.524076e+00 1.334026e+00 -1.594250e+00 2.710034e-01 -8.558993e-01 -1.246168e+00 -7.750005e-02 5.597436e-01 1.137955e+00 1.794540e+00 1.669462e+00 -9.382692e-02 1.046306e+00 3.472963e-01 6.907544e-01 5.333805e-01 -1.462904e+00
<VARIANCE> 25
 1.863270e+01 1.793362e+01 2.480456e+01 1.899625e+01 3.549069e+01 3.933564e+01 3.949607e+01 3.942541e+01 2.591414e+01 2.215234e+01 2.969750e+01 1.895585e+01 1.011265e+00 1.395521e+00 1.791628e+00 2.368231e+00 2.905085e+00 2.827779e+00 2.826648e+00 4.071867e+00 2.203866e+00 2.490685e+00 2.708007e+00 1.842675e+00 8.446308e-01
<GCONST> 9.467195e+01
<STATE> 3
<MEAN> 25
 -3.482320e+00 -5.581579e+00 -7.373718e-01 2.329208e+00 3.454345e+00 6.572406e+00 7.075239e+00 6.426751e-01 4.647518e+00 4.084341e+00 1.803942e+00 2.263342e+00 -2.245511e-01 -1.234155e-01 -8.556344e-02 -5.962899e-02 4.737689e-02 7.543714e-02 -2.247346e-02 1.609603e-02 2.555504e-02 1.414862e-01 1.374056e-01 9.184696e-02 -1.487639e-01
<VARIANCE> 25
 5.385259e+00 6.490530e+00 1.138584e+01 1.515951e+01 1.496046e+01 1.855884e+01 2.398960e+01 2.266847e+01 1.826810e+01 1.775967e+01 1.713970e+01 1.361311e+01 3.453125e-01 5.852981e-01 7.093011e-01 9.543446e-01 1.087823e+00 1.521699e+00 1.623732e+00 1.630429e+00 1.695097e+00 1.583255e+00 1.294749e+00 1.212892e+00 2.801241e-01
<GCONST> 7.746585e+01
<STATE> 4
<MEAN> 25
 -6.951779e+00 -1.698686e+00 -3.316678e+00 -1.169052e+00 3.361698e+00 1.667445e-01 4.942420e+00 9.360420e-01 4.012894e+00 1.539192e+00 1.607905e+00 3.166712e+00 2.691427e-01 1.118656e+00 -2.465624e-02 -4.281886e-01 -6.572211e-01 -1.668514e+00 -9.269754e-01 8.660229e-02 -3.551009e-01 -7.989743e-01 -4.098551e-01 -8.900757e-02 1.530206e+00
<VARIANCE> 25
 2.202887e+01 2.198784e+01 2.315729e+01 3.266073e+01 2.283533e+01 4.611327e+01 3.000291e+01 2.680732e+01 2.437213e+01 2.286646e+01 1.664455e+01 1.600598e+01 4.520838e+00 2.486952e+00 3.836339e+00 5.466524e+00 2.901988e+00 4.784319e+00 4.208823e+00 3.680407e+00 2.897059e+00 2.485646e+00 2.207236e+00 2.023536e+00 3.470638e+00
<GCONST> 9.986481e+01
<TRANSP> 5
 0.000000e+00 1.000000e+00 0.000000e+00 0.000000e+00 0.000000e+00
 0.000000e+00 6.920528e-01 3.079473e-01 0.000000e+00 0.000000e+00
 0.000000e+00 0.000000e+00 8.412895e-01 1.587105e-01 0.000000e+00
 0.000000e+00 0.000000e+00 0.000000e+00 7.391238e-01 2.608763e-01
 0.000000e+00 0.000000e+00 0.000000e+00 0.000000e+00 0.000000e+00
<ENDHMM>
~h "v"
<BEGINHMM>
<NUMSTATES> 5
<STATE> 2
<MEAN> 25
 4.190329e+00 -6.839378e-01 -1.183036e+00 6.666655e-01 -8.346202e-01 -2.711032e+00 -1.419196e+00 2.664602e-01 -1.479388e+00 1.471555e+00 -2.466202e+00 -6.475352e-01 -4.350165e-02 1.361939e-01 -5.024447e-01 -3.327382e-02 9.117238e-01 1.191323e+00 3.306057e-01 -5.058726e-01 2.170397e-02 -1.671658e-01 -2.314145e-01 1.781927e-01 -1.291983e-01
<VARIANCE> 25
 2.744521e+01 1.582668e+01 4.866366e+01 6.758816e+01 2.781845e+01 5.435212e+01 4.040985e+01 4.189233e+01 2.230342e+01 2.140957e+01 2.007372e+01 1.854874e+01 3.958249e+00 1.145057e+00 2.392738e+00 4.977407e+00 2.562460e+00 3.392149e+00 3.696715e+00 3.896699e+00 3.135040e+00 2.288831e+00 2.575704e+00 1.764205e+00 2.770018e+00
<GCONST> 1.002849e+02
<STATE> 3
<MEAN> 25
 9.219652e+00 9.020180e-01 -8.834023e+00 -1.108943e+01 -9.237741e-02 4.527194e+00 3.937936e+00 3.451485e+00 -6.320832e+00 1.193756e+00 -4.609352e+00 -8.384827e-01 -1.576146e-01 3.972378e-01 1.876576e-01 2.741499e-01 -3.825982e-01 -1.717721e-02 2.785987e-02 -8.145051e-02 2.408732e-02 1.821415e-01 1.567331e-01 2.332928e-02 -1.905680e-01
<VARIANCE> 25
 1.390941e+01 1.172927e+01 2.309114e+01 5.444243e+01 1.869525e+01 2.447436e+01 1.917526e+01 1.896676e+01 1.671430e+01 1.686143e+01 1.360798e+01 9.599797e+00 3.910061e-01 2.351780e-01 5.187864e-01 6.821378e-01 7.810925e-01 1.127255e+00 8.539000e-01 7.924865e-01 8.491694e-01 7.061416e-01 6.899797e-01 5.250764e-01 1.551176e-01
<GCONST> 7.338071e+01
<STATE> 4
<MEAN> 25
 -2.635067e+00 2.654226e-01 -3.936991e+00 3.897577e+00 -2.447496e-01 3.459686e+00 2.296366e+00 -8.613893e-01 1.531588e+00 1.273298e+00 -1.136438e+00 -8.166657e-02 -5.568765e-01 -3.502393e-01 1.212888e-01 3.246417e-01 2.385433e-01 1.205481e-01 1.304413e-01 -5.554589e-02 3.709808e-01 -5.074048e-02 1.537193e-01 1.275389e-01 -3.134539e-01
<VARIANCE> 25
 2.806247e+01 1.369448e+01 2.607209e+01 2.979583e+01 1.708456e+01 2.536402e+01 2.519538e+01 1.977040e+01 2.160945e+01 1.572072e+01 1.623472e+01 1.313370e+01 2.628589e+00 8.848752e-01 1.646639e+00 2.804868e+00 1.618242e+00 2.677398e+00 2.323278e+00 2.174654e+00 2.527093e+00 1.746730e+00 1.605831e+00 1.317265e+00 4.175625e-01
<GCONST> 8.884734e+01
<TRANSP> 5
 0.000000e+00 1.000000e+00 0.000000e+00 0.000000e+00 0.000000e+00
 0.000000e+00 6.963301e-01 3.036699e-01 0.000000e+00 0.000000e+00
 0.000000e+00 0.000000e+00 8.235130e-01 1.764870e-01 0.000000e+00
 0.000000e+00 0.000000e+00 0.000000e+00 8.953788e-01 1.046212e-01
 0.000000e+00 0.000000e+00 0.000000e+00 0.000000e+00 0.000000e+00
<ENDHMM>
~h "w"
<BEGINHMM>
<NUMSTATES> 5
<STATE> 2
<MEAN> 25
 1.307249e+00 -6.277835e-01 1.068373e+00 1.371465e-01 -1.966914e+00 2.221963e-01 2.031479e-01 -3.630493e+00 -5.269164e-01 1.094723e+00 9.964043e-01 1.073625e+00 1.567548e+00 1.073027e+00 -1.377642e-01 -7.960390e-01 -1.143004e+00 -6.862080e-01 -4.526416e-01 -2.755251e-01 -7.751502e-01 -6.711739e-01 -5.292171e-01 -1.022189e-01 4.781477e-01
<VARIANCE> 25
 2.528751e+01 1.783697e+01 1.793978e+01 2.426332e+01 3.547357e+01 3.761189e+01 3.846245e+01 1.972960e+01 2.734801e+01 2.427595e+01 1.930926e+01 1.580922e+01 3.301448e+00 2.671274e+00 1.224863e+00 2.483862e+00 4.749746e+00 4.271012e+00 3.313066e+00 2.194034e+00 3.226361e+00 2.802895e+00 1.956521e+00 1.926609e+00 1.539968e+00
<GCONST> 9.642553e+01
<STATE> 3
<MEAN> 25
 8.579454e+00 5.646915e+00 1.012047e+00 -3.509289e+00 -7.445466e+00 -1.884309e+00 -1.192027e+00 -3.670428e+00 -3.145471e+00 -1.829610e+00 -1.471827e+00 1.698313e-01 3.916032e-01 3.338319e-01 -2.802286e-01 -2.483251e-01 -2.485836e-01 2.055786e-01 1.968197e-01 2.371244e-01 -1.266979e-01 -5.144104e-02 1.413715e-01 2.242845e-01 2.451968e-01
<VARIANCE> 25
 4.286847e+00 5.167799e+00 1.014410e+01 1.335153e+01 1.795577e+01 1.432952e+01 1.136409e+01 1.580861e+01 1.829995e+01 1.305851e+01 9.381147e+00 1.051703e+01 4.233288e-01 3.740432e-01 9.663551e-01 1.171678e+00 8.433157e-01 9.163984e-01 9.353510e-01 1.136669e+00 1.224370e+00 9.025930e-01 8.868716e-01 9.019617e-01 1.870918e-01
<GCONST> 7.104807e+01
<STATE> 4
<MEAN> 25
 1.093431e+01 4.444946e+00 -5.466224e+00 -7.201960e+00 -6.549634e+00 2.119467e+00 4.551135e-01 -4.540321e-01 -5.951833e+00 -1.037449e+00 2.029063e+00 1.854394e+00 1.156643e-01 -7.064519e-01 -1.259560e+00 -1.479734e-01 9.085699e-01 4.242550e-01 -5.415295e-01 7.817413e-01 -1.985665e-01 6.565045e-01 3.952931e-01 -4.993556e-01 6.729115e-01
<VARIANCE> 25
 3.827063e+00 9.302030e+00 1.405099e+01 2.469631e+01 1.997643e+01 1.619451e+01 2.161203e+01 2.697672e+01 1.594127e+01 1.721716e+01 1.941568e+01 1.469735e+01 1.933319e-01 4.076867e-01 8.098834e-01 1.236309e+00 1.300890e+00 2.025926e+00 2.103374e+00 1.325949e+00 1.819124e+00 1.368986e+00 1.673828e+00 1.926946e+00 1.281281e-01
<GCONST> 7.826878e+01
<TRANSP> 5
 0.000000e+00 1.000000e+00 0.000000e+00 0.000000e+00 0.000000e+00
 0.000000e+00 8.025097e-01 1.974903e-01 0.000000e+00 0.000000e+00
 0.000000e+00 0.000000e+00 8.474774e-01 1.525227e-01 0.000000e+00
 0.000000e+00 0.000000e+00 0.000000e+00 7.588770e-01 2.411230e-01
 0.000000e+00 0.000000e+00 0.000000e+00 0.000000e+00 0.000000e+00
<ENDHMM>
~h "y"
<BEGINHMM>
<NUMSTATES> 5
<STATE> 2
<MEAN> 25
 -3.742370e+00 1.276917e+00 3.318715e+00 6.388075e-01 2.220843e+00 2.801504e+00 4.260480e-01 -3.353570e+00 -5.336627e-01 5.903431e-01 5.509955e-01 -4.653392e-01 1.280662e+00 1.832251e+00 1.653964e+00 -4.799668e-01 -1.193623e+00 -1.047556e+00 -2.181960e+00 -5.354087e-01 -2.326339e+00 -1.369621e+00 1.842598e-02 -1.927840e+00 9.366947e-01
<VARIANCE> 25
 1.992073e+01 2.403345e+01 1.602572e+01 2.956906e+01 1.876788e+01 2.499620e+01 2.995510e+01 2.660584e+01 4.145173e+01 2.594467e+01 1.724352e+01 2.500383e+01 2.317981e+00 2.734877e+00 1.446313e+00 3.485716e+00 2.630588e+00 2.834574e+00 4.011558e+00 2.935341e+00 3.964849e+00 3.111578e+00 2.432933e+00 3.278190e+00 1.273198e+00
<GCONST> 9.692783e+01
<STATE> 3
<MEAN> 25
 -1.277353e+00 7.209806e+00 6.462787e+00 6.957831e-01 -4.947323e-02 9.179169e-01 -3.858753e+00 -5.807198e+00 -4.118787e+00 -3.943923e+00 1.402778e+00 -5.703448e+00 3.043455e-01 5.102561e-01 5.131140e-01 3.239278e-02 -8.713898e-01 -1.984924e-01 -3.762429e-01 -1.174240e-01 -3.219871e-01 -2.407453e-01 5.445414e-01 -1.546398e-01 3.380207e-01
<VARIANCE> 25
 1.045007e+01 1.698641e+01 1.023169e+01 1.718681e+01 3.244355e+01 1.423660e+01 1.995565e+01 2.551188e+01 2.277541e+01 1.575042e+01 1.692465e+01 2.581461e+01 9.255662e-01 9.169040e-01 7.530421e-01 1.550330e+00 2.478122e+00 1.339514e+00 2.497521e+00 2.111727e+00 2.151011e+00 1.627336e+00 1.444224e+00 2.786564e+00 3.571460e-01
<GCONST> 8.509481e+01
<STATE> 4
<MEAN> 25
 1.957451e+00 7.484664e+00 8.059194e+00 3.892614e+00 -9.218242e+00 -3.368541e+00 -4.637641e+00 -3.327997e+00 -7.156604e+00 -4.196134e+00 5.893978e+00 -6.864856e+00 3.565564e-01 -4.012343e-01 -3.166912e-01 7.019919e-01 -4.685628e-01 -1.080745e+00 -8.163290e-03 9.060877e-01 -9.407179e-02 -2.468869e-01 6.632693e-02 4.397666e-01 1.477280e-01
<VARIANCE> 25
 3.265334e+00 7.265552e+00 6.335333e+00 3.095741e+01 2.433857e+01 3.013033e+01 2.335109e+01 2.485617e+01 2.133747e+01 2.149493e+01 2.210437e+01 1.837639e+01 2.068599e-01 4.651777e-01 4.569454e-01 1.030852e+00 1.579091e+00 1.559383e+00 1.915640e+00 2.412218e+00 1.910138e+00 1.477545e+00 1.451398e+00 1.345410e+00 1.040977e-01
<GCONST> 7.827090e+01
<TRANSP> 5
 0.000000e+00 1.000000e+00 0.000000e+00 0.000000e+00 0.000000e+00
 0.000000e+00 6.385921e-01 3.614080e-01 0.000000e+00 0.000000e+00
 0.000000e+00 0.000000e+00 8.183603e-01 1.816396e-01 0.000000e+00
 0.000000e+00 0.000000e+00 0.000000e+00 8.687134e-01 1.312867e-01
 0.000000e+00 0.000000e+00 0.000000e+00 0.000000e+00 0.000000e+00
<ENDHMM>
~h "z"
<BEGINHMM>
<NUMSTATES> 5
<STATE> 2
<MEAN> 25
 -4.634212e+00 7.966425e+00 -9.459101e-01 2.795705e+00 2.498954e+00 -4.729570e+00 1.766712e+00 -3.309189e+00 1.294513e+00 2.598380e-01 -1.958506e+00 1.641015e+00 -3.442753e+00 8.766944e-01 -1.660772e+00 6.768343e-01 2.256439e+00 4.350221e-01 2.356866e+00 -1.122308e-01 1.489120e+00 -2.507143e-01 4.744242e-01 5.484710e-01 2.142269e-01
<VARIANCE> 25
 5.269873e+01 1.896066e+01 2.609662e+01 2.676225e+01 4.397190e+01 2.754533e+01 4.104718e+01 3.872205e+01 2.481058e+01 2.676390e+01 2.492484e+01 1.490266e+01 2.380144e+00 1.314874e+00 2.167524e+00 3.279489e+00 3.164141e+00 3.092129e+00 3.546918e+00 4.527533e+00 2.366419e+00 2.911674e+00 3.023623e+00 1.921704e+00 4.623407e-01
<GCONST> 9.736643e+01
<STATE> 3
<MEAN> 25
 -1.804328e+01 9.200464e+00 -9.508717e+00 1.845729e+00 8.098636e+00 -2.969551e+00 8.268469e+00 -1.684722e+00 4.528730e+00 1.278380e+00 1.072422e+00 2.889420e+00 -2.865277e-01 -1.770936e-01 -1.743868e-01 -9.817061e-02 7.302997e-02 -7.207274e-02 3.641594e-02 -6.647784e-02 -3.190539e-02 9.049290e-02 1.304446e-01 7.158235e-02 -2.775092e-01
<VARIANCE> 25
 5.867198e+00 7.139278e+00 1.428430e+01 1.706134e+01 1.647888e+01 2.018426e+01 2.099062e+01 2.632152e+01 2.100782e+01 1.726892e+01 1.493923e+01 1.499362e+01 1.239488e+00 6.324726e-01 1.470624e+00 1.119567e+00 1.269265e+00 1.369516e+00 1.485503e+00 2.006583e+00 1.764173e+00 1.528442e+00 1.438114e+00 1.552837e+00 2.183688e-01
<GCONST> 8.077882e+01
<STATE> 4
<MEAN> 25
 -9.654556e+00 2.233673e+00 -3.301564e+00 2.723974e+00 5.970661e+00 -4.105971e-01 7.669128e+00 -3.157202e+00 5.483296e+00 2.107083e+00 1.919091e+00 2.696012e+00 1.651308e+00 -1.282138e+00 1.010399e+00 5.504278e-02 -5.147110e-01 7.492700e-01 -2.586319e-01 -1.938982e-01 3.708375e-02 1.508773e-01 7.156054e-02 -2.458132e-01 -9.446273e-01
<VARIANCE> 25
 2.249899e+01 2.040903e+01 1.619015e+01 1.922235e+01 2.236115e+01 3.498772e+01 2.701048e+01 2.594743e+01 2.232164e+01 2.064673e+01 2.071041e+01 1.496618e+01 2.458616e+00 1.784838e+00 1.692441e+00 1.582511e+00 2.254103e+00 3.293757e+00 2.684940e+00 2.797687e+00 2.216573e+00 2.154526e+00 2.171583e+00 1.545555e+00 1.227665e+00
<GCONST> 9.236587e+01
<TRANSP> 5
 0.000000e+00 1.000000e+00 0.000000e+00 0.000000e+00 0.000000e+00
 0.000000e+00 7.881706e-01 2.118294e-01 0.000000e+00 0.000000e+00
 0.000000e+00 0.000000e+00 8.846006e-01 1.153994e-01 0.000000e+00
 0.000000e+00 0.000000e+00 0.000000e+00 8.407575e-01 1.592425e-01
 0.000000e+00 0.000000e+00 0.000000e+00 0.000000e+00 0.000000e+00
<ENDHMM>
~h "aa"
<BEGINHMM>
<NUMSTATES> 5
<STATE> 2
<MEAN> 25
 3.851974e+00 -9.963948e-01 -4.551132e+00 -4.782820e+00 1.306758e+00 7.631598e-01 -2.922342e-01 2.027368e+00 -7.824528e-01 6.556299e-01 -2.098607e+00 -8.400277e-01 1.555885e+00 -4.716750e-01 -1.663674e+00 -1.945939e+00 3.628191e-01 5.333271e-01 -4.306114e-01 1.452095e+00 -7.046898e-01 -4.737560e-01 -1.385566e+00 -4.336131e-01 1.416365e+00
<VARIANCE> 25
 3.547063e+01 3.368652e+01 2.891922e+01 4.345417e+01 5.014413e+01 4.153251e+01 5.539071e+01 3.663545e+01 3.216064e+01 2.925460e+01 3.199606e+01 1.898529e+01 4.109677e+00 1.346169e+00 2.225724e+00 4.003953e+00 4.116975e+00 2.821141e+00 3.910100e+00 4.141559e+00 2.950289e+00 3.472381e+00 3.174663e+00 1.756164e+00 2.310180e+00
<GCONST> 1.026991e+02
<STATE> 3
<MEAN> 25
 8.758634e+00 -3.636740e-01 -8.440331e+00 -9.085814e+00 9.818699e-01 2.676134e+00 7.493685e-01 5.945809e+00 -3.756150e+00 -3.920655e-01 -6.387427e+00 -7.971314e-01 4.489447e-01 -5.377797e-01 -6.567618e-01 -4.538947e-01 6.238416e-01 1.004999e+00 6.454037e-02 1.027449e-01 -7.902458e-01 1.157580e-01 -2.021423e-01 2.688599e-02 1.502879e-01
<VARIANCE> 25
 8.924067e+00 1.912238e+01 1.286323e+01 2.602960e+01 3.654010e+01 2.974146e+01 3.882565e+01 2.943582e+01 2.459811e+01 2.256933e+01 2.517348e+01 1.557959e+01 5.547410e-01 5.250755e-01 7.361449e-01 8.203397e-01 1.548194e+00 1.298195e+00 1.351214e+00 1.269346e+00 1.191920e+00 1.590859e+00 1.276592e+00 1.098562e+00 3.439831e-01
<GCONST> 8.263403e+01
<STATE> 4
<MEAN> 25
 9.503945e+00 -1.929816e+00 -9.565367e+00 -8.573548e+00 2.275035e+00 4.519509e+00 -1.018301e+00 5.805176e+00 -5.394674e+00 8.300203e-01 -6.191958e+00 -1.768256e+00 -1.880648e-01 1.235119e-01 2.605092e-01 4.112670e-01 -7.330196e-02 -4.785016e-01 -3.913632e-01 6.344573e-02 2.484941e-01 3.159914e-01 -1.488303e-01 -9.990355e-02 -6.641290e-02
<VARIANCE> 25
 5.362077e+00 1.385417e+01 1.096171e+01 2.587609e+01 2.508754e+01 2.419181e+01 3.136032e+01 2.013617e+01 1.722894e+01 3.694950e+01 2.192936e+01 1.361578e+01 1.477034e-01 3.954405e-01 5.276322e-01 6.705059e-01 7.678000e-01 9.379698e-01 9.247805e-01 1.057340e+00 8.988926e-01 9.325638e-01 9.426022e-01 8.052323e-01 1.488626e-01
<GCONST> 7.432726e+01
<TRANSP> 5
 0.000000e+00 1.000000e+00 0.000000e+00 0.000000e+00 0.000000e+00
 0.000000e+00 6.413271e-01 3.586728e-01 0.000000e+00 0.000000e+00
 0.000000e+00 0.000000e+00 6.425931e-01 3.574069e-01 0.000000e+00
 0.000000e+00 0.000000e+00 0.000000e+00 9.157249e-01 8.427507e-02
 0.000000e+00 0.000000e+00 0.000000e+00 0.000000e+00 0.000000e+00
<ENDHMM>
~h "ae"
<BEGINHMM>
<NUMSTATES> 5
<STATE> 2
<MEAN> 25
 6.439756e-01 -3.583315e+00 -1.147872e+00 -5.044311e-01 7.349592e-01 -1.108918e+00 3.450088e+00 4.064626e+00 1.181916e+00 -2.453432e-01 -1.780278e+00 1.321312e+00 1.387079e+00 -6.901776e-01 -9.089015e-01 -1.237890e+00 -7.541653e-01 -1.491191e+00 -2.747880e-02 2.558442e+00 -6.512872e-01 -9.407043e-01 -1.615909e+00 3.841793e-02 1.946921e+00
<VARIANCE> 25
 2.785552e+01 3.414975e+01 2.600558e+01 2.659251e+01 3.610260e+01 4.485550e+01 3.816829e+01 6.530869e+01 2.347129e+01 3.293713e+01 3.385123e+01 2.093517e+01 2.914168e+00 2.204810e+00 2.232251e+00 2.979374e+00 4.441334e+00 4.874258e+00 3.327493e+00 5.418232e+00 3.504966e+00 3.562526e+00 3.618439e+00 2.059428e+00 3.261704e+00
<GCONST> 1.032056e+02
<STATE> 3
<MEAN> 25
 6.471568e+00 -4.807290e+00 -2.590470e+00 -3.320774e+00 -1.411104e+00 -4.117633e+00 5.302339e+00 1.205781e+01 -2.558546e+00 -4.025967e+00 -8.165877e+00 1.103135e+00 5.259935e-01 -7.905494e-02 -9.667430e-02 -4.776443e-01 -6.617339e-03 -1.307238e-01 2.026683e-02 6.939907e-01 -8.526786e-01 -1.542451e-01 -9.116130e-01 8.429344e-02 5.909236e-01
<VARIANCE> 25
 6.719631e+00 1.760724e+01 2.506129e+01 1.505014e+01 3.549046e+01 2.215706e+01 3.159465e+01 1.665762e+01 1.945833e+01 2.097909e+01 2.181472e+01 1.766821e+01 1.068712e+00 1.180494e+00 1.320031e+00 1.272452e+00 1.542910e+00 1.656797e+00 1.579964e+00 2.288346e+00 1.236331e+00 1.429401e+00 1.075876e+00 1.122134e+00 4.575224e-01
<GCONST> 8.450303e+01
<STATE> 4
<MEAN> 25
 6.512525e+00 -4.962447e+00 -3.209607e+00 -4.848014e+00 -8.322385e-01 -5.364675e+00 2.991001e+00 1.242280e+01 -4.221460e+00 -2.930592e+00 -1.029607e+01 6.195418e-01 -7.331738e-02 3.168399e-01 1.170639e-01 1.512621e-01 -1.890151e-01 -1.718730e-01 -3.069829e-01 -2.817000e-01 9.725410e-02 4.003545e-01 7.362071e-02 -5.683916e-02 -1.629280e-01
<VARIANCE> 25
 4.663774e+00 1.029856e+01 1.939183e+01 1.337635e+01 2.525288e+01 1.813906e+01 2.292442e+01 1.641213e+01 1.638405e+01 2.171453e+01 1.860549e+01 1.859434e+01 1.278996e-01 4.225356e-01 5.212441e-01 6.709051e-01 7.543064e-01 6.948403e-01 7.879513e-01 9.929796e-01 8.827941e-01 8.880702e-01 8.212408e-01 6.222610e-01 2.117529e-01
<GCONST> 7.182784e+01
<TRANSP> 5
 0.000000e+00 1.000000e+00 0.000000e+00 0.000000e+00 0.000000e+00
 0.000000e+00 6.703524e-01 3.296476e-01 0.000000e+00 0.000000e+00
 0.000000e+00 0.000000e+00 6.799287e-01 3.200713e-01 0.000000e+00
 0.000000e+00 0.000000e+00 0.000000e+00 9.240807e-01 7.591928e-02
 0.000000e+00 0.000000e+00 0.000000e+00 0.000000e+00 0.000000e+00
<ENDHMM>
~h "ah"
<BEGINHMM>
<NUMSTATES> 5
<STATE> 2
<MEAN> 25
 -6.343445e-01 -3.797327e-01 6.005739e-01 3.978004e-01 -1.603249e-01 -9.536276e-01 -6.354180e-02 -1.931974e-01 1.963411e+00 1.124286e+00 5.657803e-01 2.582040e-01 6.768184e-01 -4.115437e-01 -4.883088e-01 -7.167501e-01 -1.508172e-01 -3.001381e-01 -4.239419e-01 1.050785e+00 -1.937685e-01 -1.400508e-01 -6.783868e-01 -2.152234e-01 6.316627e-01
<VARIANCE> 25
 2.456365e+01 3.440353e+01 2.689663e+01 2.402860e+01 3.609959e+01 5.550072e+01 4.625676e+01 4.368483e+01 2.920798e+01 3.267053e+01 2.676298e+01 2.043981e+01 3.453866e+00 1.659156e+00 2.703320e+00 3.871289e+00 4.029748e+00 4.864344e+00 4.623525e+00 4.934461e+00 3.441238e+00 3.372982e+00 3.873568e+00 2.562533e+00 3.196636e+00
<GCONST> 1.036427e+02
<STATE> 3
<MEAN> 25
 4.544486e+00 -1.985524e+00 -2.470814e+00 -3.838352e+00 -1.192201e+00 -3.371565e+00 -2.631343e+00 6.679202e+00 -2.388170e-01 -5.325375e-01 -4.797009e+00 -1.085653e+00 1.463826e+00 -2.116093e-01 -5.666510e-01 -7.005978e-01 -4.418230e-01 -2.507025e-01 -9.572909e-01 1.229727e+00 -6.612122e-01 -2.108231e-01 -1.111015e+00 -3.972357e-01 1.310821e+00
<VARIANCE> 25
 1.749820e+01 4.132439e+01 4.292782e+01 3.180885e+01 5.545458e+01 4.801002e+01 4.045332e+01 4.007469e+01 2.264040e+01 3.347559e+01 3.839744e+01 2.010910e+01 2.001398e+00 1.590536e+00 2.137462e+00 2.754843e+00 3.397761e+00 3.423753e+00 3.457819e+00 4.704978e+00 2.044107e+00 2.765666e+00 3.392602e+00 1.645373e+00 2.877315e+00
<GCONST> 1.009900e+02
<STATE> 4
<MEAN> 25
 5.252467e+00 -3.635064e-01 -1.842994e+00 -2.859989e+00 -2.584614e+00 -3.070379e+00 -4.224985e+00 6.846503e+00 -1.927574e+00 -9.075329e-01 -4.603827e+00 -1.963966e+00 -6.482085e-02 1.700088e-01 1.052579e-01 1.225451e-01 3.847958e-02 4.738249e-02 7.199322e-02 -3.035264e-01 -2.356995e-02 2.090422e-01 -4.055955e-03 3.807755e-02 -2.532352e-01
<VARIANCE> 25
 9.652978e+00 2.443112e+01 4.218216e+01 2.224881e+01 5.171674e+01 4.265671e+01 3.832745e+01 3.959026e+01 2.248647e+01 3.144663e+01 4.724841e+01 2.079028e+01 2.211909e-01 4.927217e-01 5.458536e-01 7.481836e-01 9.742182e-01 9.503385e-01 9.733091e-01 1.428265e+00 9.827562e-01 9.553954e-01 1.070744e+00 7.773837e-01 3.225036e-01
<GCONST> 8.249131e+01
<TRANSP> 5
 0.000000e+00 1.000000e+00 0.000000e+00 0.000000e+00 0.000000e+00
 0.000000e+00 5.642246e-01 4.357754e-01 0.000000e+00 0.000000e+00
 0.000000e+00 0.000000e+00 4.615869e-01 5.384131e-01 0.000000e+00
 0.000000e+00 0.000000e+00 0.000000e+00 8.780990e-01 1.219011e-01
 0.000000e+00 0.000000e+00 0.000000e+00 0.000000e+00 0.000000e+00
<ENDHMM>
~h "ao"
<BEGINHMM>
<NUMSTATES> 5
<STATE> 2
<MEAN> 25
 6.667129e+00 2.079699e+00 -3.529921e+00 -5.255660e+00 -2.237818e+00 -4.344974e-01 -5.018173e-01 2.066270e+00 -1.390020e+00 1.314147e+00 -1.894666e+00 1.432540e-01 1.564432e+00 4.363320e-01 -1.099164e+00 -1.657910e+00 -7.595951e-01 7.970182e-01 4.199318e-02 6.522602e-01 -7.557967e-01 6.838948e-02 -2.660558e-01 -7.141604e-02 6.453042e-01
<VARIANCE> 25
 2.190294e+01 2.367802e+01 2.873104e+01 5.030250e+01 3.214845e+01 4.355614e+01 4.529590e+01 2.692135e+01 3.213047e+01 2.835307e+01 3.118754e+01 1.797689e+01 3.145512e+00 1.528244e+00 1.869225e+00 3.570989e+00 2.789956e+00 2.993557e+00 2.709220e+00 2.176385e+00 3.485108e+00 2.611371e+00 2.236053e+00 1.736515e+00 1.440914e+00
<GCONST> 9.826384e+01
<STATE> 3
<MEAN> 25
 1.137107e+01 3.808031e+00 -7.377690e+00 -8.957822e+00 -6.800264e+00 3.014632e+00 1.957488e+00 3.031195e+00 -5.564627e+00 -1.734894e+00 1.828750e+00 2.091661e+00 5.704511e-02 -2.361105e-01 -3.924477e-01 2.287056e-02 1.221147e-01 1.625729e-01 -1.868327e-01 1.963610e-01 -3.556339e-01 7.250011e-02 2.930155e-01 1.000495e-01 1.177361e-01
<VARIANCE> 25
 3.914887e+00 1.084436e+01 9.723799e+00 1.743231e+01 1.932611e+01 1.560261e+01 2.161244e+01 1.914903e+01 1.743666e+01 1.982404e+01 2.099222e+01 1.727344e+01 9.962665e-02 3.175552e-01 3.914416e-01 6.920277e-01 7.413752e-01 6.577325e-01 1.121316e+00 5.471200e-01 8.087251e-01 8.089232e-01 7.638399e-01 7.067553e-01 1.117720e-01
<GCONST> 6.910309e+01
<STATE> 4
<MEAN> 25
 9.594214e+00 1.526813e+00 -8.971865e+00 -1.028373e+01 -8.253592e-01 2.602198e+00 -2.134583e+00 4.056240e+00 -6.937096e+00 3.720985e+00 -1.903868e+00 -4.516728e-01 -2.138012e-01 -1.361422e-01 2.033250e-01 5.937338e-01 2.153448e-01 -4.884290e-01 -5.318586e-01 -1.689939e-03 4.076335e-01 2.440458e-01 -4.970553e-02 -1.949353e-01 -9.530680e-02
<VARIANCE> 25
 5.209805e+00 1.930514e+01 1.365405e+01 4.631932e+01 2.573226e+01 2.568282e+01 3.320996e+01 2.024656e+01 2.105007e+01 1.937923e+01 3.764397e+01 2.006637e+01 1.817852e-01 4.945157e-01 5.133494e-01 1.007060e+00 9.075314e-01 8.978975e-01 1.171195e+00 9.908259e-01 1.287659e+00 9.621111e-01 7.449347e-01 7.853525e-01 1.699613e-01
<GCONST> 7.743132e+01
<TRANSP> 5
 0.000000e+00 1.000000e+00 0.000000e+00 0.000000e+00 0.000000e+00
 0.000000e+00 7.536222e-01 2.463778e-01 0.000000e+00 0.000000e+00
 0.000000e+00 0.000000e+00 8.633865e-01 1.366135e-01 0.000000e+00
 0.000000e+00 0.000000e+00 0.000000e+00 8.788579e-01 1.211421e-01
 0.000000e+00 0.000000e+00 0.000000e+00 0.000000e+00 0.000000e+00
<ENDHMM>
~h "aw"
<BEGINHMM>
<NUMSTATES> 5
<STATE> 2
<MEAN> 25
 4.376842e+00 -3.961713e+00 -5.541624e+00 -2.285413e+00 3.732951e+00 6.419821e-02 1.105906e+00 6.270872e+00 1.380381e+00 -1.451539e+00 -6.584168e+00 -1.063047e+00 1.963283e+00 -7.409753e-01 -1.472085e+00 -9.587539e-01 1.268780e+00 7.468878e-01 -4.270844e-01 1.136366e+00 -7.907978e-01 -1.098427e+00 -1.959017e+00 -4.186863e-01 1.393446e+00
<VARIANCE> 25
 2.956955e+01 4.399792e+01 2.754383e+01 2.325934e+01 5.232874e+01 2.778333e+01 4.274022e+01 3.862368e+01 2.902784e+01 3.548146e+01 3.783686e+01 2.087843e+01 2.567155e+00 1.610608e+00 1.508892e+00 2.149347e+00 3.080740e+00 2.298396e+00 2.271540e+00 3.656859e+00 2.259015e+00 4.097071e+00 3.323149e+00 1.281124e+00 1.661572e+00
<GCONST> 9.873256e+01
<STATE> 3
<MEAN> 25
 8.820714e+00 -5.820910e+00 -8.960179e+00 -5.608516e+00 9.060015e+00 2.067687e+00 -1.062626e+00 5.573265e+00 -3.477026e+00 -2.419811e+00 -9.814620e+00 -8.718332e-01 1.377587e-01 -1.209458e-02 -3.601008e-02 -5.543166e-01 1.974812e-01 4.934969e-01 -2.343417e-02 -2.673805e-01 -6.555547e-01 2.240881e-01 2.366376e-01 -1.351924e-01 7.338272e-02
<VARIANCE> 25
 2.616096e+00 1.534834e+01 9.066633e+00 1.687166e+01 2.376240e+01 1.544257e+01 1.649758e+01 1.714351e+01 1.722476e+01 1.613637e+01 2.252216e+01 1.380929e+01 2.404450e-01 4.933976e-01 4.290011e-01 7.716906e-01 1.250821e+00 8.629761e-01 8.482946e-01 8.263776e-01 9.087972e-01 9.513192e-01 1.242711e+00 6.934983e-01 1.681792e-01
<GCONST> 7.199426e+01
<STATE> 4
<MEAN> 25
 9.783598e+00 -1.360186e+00 -7.563781e+00 -7.588608e+00 1.958031e+00 4.395049e+00 -1.137777e+00 2.003372e+00 -4.066595e+00 2.829235e-01 -2.595247e+00 -2.087873e+00 -1.488762e-01 4.033922e-01 3.718162e-01 4.479331e-01 -4.959235e-01 -4.687890e-01 -3.424700e-01 -2.571281e-01 2.952600e-01 2.657079e-01 3.506442e-01 -1.213152e-02 -2.823174e-01
<VARIANCE> 25
 3.059447e+00 1.368312e+01 7.619832e+00 1.465774e+01 2.125515e+01 2.645722e+01 2.772323e+01 1.721170e+01 1.712881e+01 2.588500e+01 1.387505e+01 1.679997e+01 1.912085e-01 3.053219e-01 3.295914e-01 7.343009e-01 1.038833e+00 8.114910e-01 1.211759e+00 9.700146e-01 9.369944e-01 8.765661e-01 8.326668e-01 8.368551e-01 1.056280e-01
<GCONST> 7.136836e+01
<TRANSP> 5
 0.000000e+00 1.000000e+00 0.000000e+00 0.000000e+00 0.000000e+00
 0.000000e+00 6.881486e-01 3.118514e-01 0.000000e+00 0.000000e+00
 0.000000e+00 0.000000e+00 8.822955e-01 1.177045e-01 0.000000e+00
 0.000000e+00 0.000000e+00 0.000000e+00 9.222404e-01 7.775956e-02
 0.000000e+00 0.000000e+00 0.000000e+00 0.000000e+00 0.000000e+00
<ENDHMM>
~h "ay"
<BEGINHMM>
<NUMSTATES> 5
<STATE> 2
<MEAN> 25
 7.126949e+00 -1.573261e+00 -7.409857e+00 -5.830253e+00 3.029971e+00 2.756144e+00 1.315953e+00 2.926802e+00 -1.122312e+00 -1.228243e+00 -5.521119e+00 -2.736697e-01 9.347765e-01 -8.920820e-01 -1.185450e+00 -9.033763e-01 1.100579e+00 7.353565e-01 -3.199248e-01 8.172848e-01 -7.157722e-01 -2.686734e-01 -9.909505e-01 -3.555702e-01 9.667424e-01
<VARIANCE> 25
 2.307724e+01 2.619079e+01 2.027238e+01 3.752275e+01 2.828747e+01 2.719144e+01 2.514395e+01 3.417706e+01 2.418306e+01 2.713774e+01 3.751411e+01 1.795936e+01 2.288169e+00 1.256413e+00 1.486181e+00 2.322035e+00 2.146969e+00 2.395214e+00 1.680163e+00 2.845413e+00 2.008159e+00 1.918462e+00 2.365972e+00 1.419484e+00 1.452004e+00
<GCONST> 9.381627e+01
<STATE> 3
<MEAN> 25
 8.709448e+00 -5.188777e+00 -8.872437e+00 -6.058171e+00 7.608675e+00 2.441969e+00 -6.827400e-01 6.613399e+00 -3.054606e+00 -2.769727e+00 -9.126461e+00 -1.426987e+00 -1.940184e-01 -1.867503e-01 4.449179e-01 3.141581e-01 -1.925017e-01 -6.019273e-01 -1.522324e-02 6.754075e-01 -1.092357e-02 -2.515142e-01 -2.624839e-01 1.852143e-02 7.572385e-02
<VARIANCE> 25
 5.063810e+00 1.113918e+01 1.112726e+01 1.932552e+01 2.008320e+01 2.435318e+01 2.274477e+01 2.352797e+01 1.551875e+01 2.314061e+01 1.955108e+01 1.860033e+01 1.313035e-01 3.522795e-01 5.381153e-01 5.301163e-01 1.346243e+00 1.133398e+00 7.527016e-01 1.034902e+00 8.132935e-01 7.670134e-01 8.700849e-01 6.718532e-01 7.315657e-02
<GCONST> 7.182615e+01
<STATE> 4
<MEAN> 25
 3.908639e+00 -5.130219e-01 4.045983e+00 -3.581260e+00 -4.135865e+00 -5.134247e+00 -1.900311e+00 6.087531e+00 -4.274441e+00 9.561345e-02 -3.041081e+00 -1.590660e+00 -3.850814e-01 7.241802e-01 1.020507e+00 2.116764e-01 -7.999244e-01 -8.366832e-02 -3.858820e-01 -1.135853e+00 -1.736645e-01 5.943324e-01 1.017739e+00 -1.088611e-02 -4.580320e-01
<VARIANCE> 25
 6.526653e+00 1.580108e+01 2.547420e+01 1.665982e+01 2.195127e+01 1.791578e+01 2.901281e+01 5.166342e+01 1.445028e+01 2.752612e+01 2.840407e+01 1.407239e+01 2.232163e-01 5.629796e-01 1.424113e+00 8.450193e-01 1.913864e+00 1.125442e+00 1.647282e+00 1.796229e+00 1.031863e+00 1.599383e+00 1.422838e+00 9.095026e-01 1.504832e-01
<GCONST> 8.072517e+01
<TRANSP> 5
 0.000000e+00 1.000000e+00 0.000000e+00 0.000000e+00 0.000000e+00
 0.000000e+00 7.654458e-01 2.345543e-01 0.000000e+00 0.000000e+00
 0.000000e+00 0.000000e+00 9.144336e-01 8.556638e-02 0.000000e+00
 0.000000e+00 0.000000e+00 0.000000e+00 9.040999e-01 9.590014e-02
 0.000000e+00 0.000000e+00 0.000000e+00 0.000000e+00 0.000000e+00
<ENDHMM>
~h "ch"
<BEGINHMM>
<NUMSTATES> 5
<STATE> 2
<MEAN> 25
 -2.064737e+00 -2.674595e+00 9.078606e-01 3.002818e+00 4.418437e+00 3.828353e+00 3.978872e+00 1.273015e+00 3.133773e+00 2.496155e+00 -2.421397e-01 8.556572e-01 -1.141742e+00 -4.670489e-01 -6.621046e-01 -3.947524e-01 9.693324e-01 1.575989e-01 8.516906e-01 2.679104e-01 6.825840e-01 2.060716e-01 6.032755e-01 4.895197e-01 -7.785188e-02
<VARIANCE> 25
 8.647222e+00 2.200640e+01 1.557914e+01 1.911043e+01 2.392575e+01 2.824831e+01 2.634361e+01 3.367119e+01 2.932014e+01 2.154647e+01 1.781693e+01 1.681856e+01 1.548903e+00 1.767534e+00 1.182211e+00 3.703895e+00 3.074216e+00 5.329067e+00 3.074421e+00 3.873699e+00 3.057130e+00 2.567010e+00 1.896695e+00 2.089198e+00 1.912035e+00
<GCONST> 9.418938e+01
<STATE> 3
<MEAN> 25
 -1.492257e+01 -9.907434e-01 -8.000988e-01 -7.089430e+00 7.578711e+00 4.178795e-01 2.108956e+00 1.564670e+00 6.421669e+00 -1.424223e+00 4.455088e+00 2.389237e+00 -1.689479e+00 -2.932191e-02 4.703023e-01 -7.412766e-01 -5.846247e-01 2.015212e-01 -1.436163e-01 -3.851980e-01 8.862965e-01 -4.269832e-01 2.199615e-01 3.334000e-01 1.454951e+00
<VARIANCE> 25
 1.683380e+01 1.358730e+01 9.825775e+00 1.448150e+01 2.178752e+01 1.790473e+01 1.312280e+01 1.922735e+01 2.191590e+01 1.019088e+01 9.583147e+00 1.551459e+01 1.476521e+00 1.242965e+00 1.215989e+00 2.877956e+00 2.474578e+00 2.371999e+00 2.141197e+00 2.178779e+00 2.034847e+00 1.903457e+00 1.839100e+00 1.861186e+00 7.295497e-01
<GCONST> 8.568391e+01
<STATE> 4
<MEAN> 25
 -1.246949e+01 -3.959790e+00 4.710734e+00 -3.982060e+00 -5.005739e-01 2.171453e+00 2.880593e+00 -2.789669e+00 7.292118e+00 -1.186438e+00 2.716345e+00 3.577866e+00 1.988489e+00 8.821497e-02 8.607873e-01 6.312939e-01 -9.095562e-01 -3.770040e-01 -3.362337e-01 -7.907129e-02 -5.401672e-01 -1.817644e-01 -4.649829e-01 -2.303351e-01 -6.907407e-01
<VARIANCE> 25
 3.432209e+01 1.029992e+01 1.394195e+01 1.328920e+01 2.166475e+01 2.150113e+01 2.385606e+01 1.590981e+01 2.257083e+01 1.938372e+01 1.447428e+01 1.509138e+01 3.111625e+00 1.174923e+00 1.763832e+00 1.020237e+00 1.833292e+00 1.883440e+00 1.719896e+00 1.996529e+00 2.007469e+00 2.245743e+00 1.837328e+00 1.449574e+00 7.959582e-01
<GCONST> 8.720112e+01
<TRANSP> 5
 0.000000e+00 1.000000e+00 0.000000e+00 0.000000e+00 0.000000e+00
 0.000000e+00 8.250871e-01 1.749128e-01 0.000000e+00 0.000000e+00
 0.000000e+00 0.000000e+00 8.459596e-01 1.540404e-01 0.000000e+00
 0.000000e+00 0.000000e+00 0.000000e+00 8.701347e-01 1.298653e-01
 0.000000e+00 0.000000e+00 0.000000e+00 0.000000e+00 0.000000e+00
<ENDHMM>
~h "dh"
<BEGINHMM>
<NUMSTATES> 5
<STATE> 2
<MEAN> 25
 -3.564995e+00 -3.087363e+00 5.830214e-01 3.653291e+00 2.326277e+00 3.585047e+00 4.323708e+00 -1.711873e+00 3.358078e+00 2.491007e+00 2.741638e+00 2.092437e+00 -9.008821e-02 -1.155148e-01 -4.841846e-02 1.124038e-01 3.009372e-01 3.669156e-01 2.224057e-01 4.093287e-02 1.809090e-01 5.632490e-03 -8.131039e-02 -2.772065e-02 -2.273146e-01
<VARIANCE> 25
 1.107892e+01 1.214588e+01 1.571722e+01 1.191179e+01 1.983093e+01 3.155424e+01 3.598189e+01 2.682698e+01 1.929095e+01 2.473646e+01 1.815473e+01 1.687346e+01 1.163325e+00 1.182810e+00 1.274393e+00 8.660631e-01 1.731068e+00 2.715472e+00 3.057522e+00 1.821742e+00 2.111168e+00 1.980283e+00 1.799641e+00 1.582858e+00 5.613408e-01
<GCONST> 8.686801e+01
<STATE> 3
<MEAN> 25
 4.396417e-01 2.933866e+00 2.648366e+00 4.485965e+00 8.651929e-01 -2.019622e+00 -1.281319e+00 -3.695004e+00 1.476588e+00 -1.664952e+00 -1.556370e+00 -2.306848e-01 5.458709e-01 5.641086e-01 -3.557838e-02 -5.818453e-02 -6.897700e-01 -9.649099e-01 -7.109095e-01 2.849368e-01 -6.507188e-02 -3.309784e-01 -1.067327e-01 -6.371390e-02 6.879764e-01
<VARIANCE> 25
 1.661785e+01 1.189349e+01 1.637378e+01 1.267535e+01 2.259384e+01 3.271659e+01 3.452717e+01 2.004195e+01 1.535923e+01 1.666710e+01 1.543707e+01 1.274706e+01 2.584229e+00 1.311262e+00 1.622559e+00 1.366911e+00 3.600219e+00 4.733190e+00 5.462926e+00 3.089078e+00 1.694990e+00 1.609800e+00 2.093504e+00 1.522510e+00 1.085531e+00
<GCONST> 9.046457e+01
<STATE> 4
<MEAN> 25
 4.271624e+00 2.654267e+00 -7.428415e-01 8.196058e-01 -8.073600e+00 -1.039228e+01 -8.614308e+00 7.349703e+00 7.725999e-01 -1.622941e+00 -1.738204e+00 -2.542831e-01 -3.910801e-02 -1.789611e-01 3.083413e-02 -2.337607e-01 9.321112e-03 1.162525e-02 1.631173e-02 4.148394e-01 -1.412324e-01 2.905706e-01 -1.635897e-01 -1.156460e-01 3.039884e-02
<VARIANCE> 25
 3.542783e+00 6.010106e+00 1.084792e+01 1.215138e+01 1.827003e+01 2.000965e+01 2.125582e+01 3.111933e+01 1.333903e+01 2.171477e+01 1.980028e+01 1.258393e+01 2.121338e-01 2.090701e-01 3.747164e-01 4.067861e-01 9.380352e-01 6.748372e-01 9.250891e-01 1.120877e+00 6.582533e-01 7.285652e-01 6.870382e-01 5.596538e-01 2.443670e-01
<GCONST> 6.895203e+01
<TRANSP> 5
 0.000000e+00 1.000000e+00 0.000000e+00 0.000000e+00 0.000000e+00
 0.000000e+00 7.569715e-01 2.430285e-01 0.000000e+00 0.000000e+00
 0.000000e+00 0.000000e+00 9.050665e-01 9.493342e-02 0.000000e+00
 0.000000e+00 0.000000e+00 0.000000e+00 8.958041e-01 1.041959e-01
 0.000000e+00 0.000000e+00 0.000000e+00 0.000000e+00 0.000000e+00
<ENDHMM>
~h "eh"
<BEGINHMM>
<NUMSTATES> 5
<STATE> 2
<MEAN> 25
 4.287413e+00 -1.520896e+00 -1.498033e+00 -2.610603e+00 -2.338740e+00 -4.183026e+00 1.201011e-01 5.293134e+00 1.092298e-01 -7.146583e-01 -3.386007e+00 -3.147149e-01 1.221465e+00 -5.577565e-01 6.841359e-02 -8.610338e-01 -7.902609e-01 -1.063369e+00 6.113611e-02 2.430649e+00 -6.979953e-01 -4.955736e-01 -1.328873e+00 -4.135274e-01 1.277852e+00
<VARIANCE> 25
 2.630622e+01 2.356819e+01 4.910882e+01 2.677483e+01 3.613672e+01 4.150860e+01 3.654142e+01 4.513327e+01 2.615099e+01 2.687711e+01 3.638382e+01 2.248799e+01 2.866376e+00 1.935329e+00 2.064978e+00 2.770443e+00 4.855782e+00 3.198466e+00 3.358197e+00 3.543856e+00 2.507710e+00 2.708219e+00 2.686724e+00 2.673963e+00 1.872776e+00
<GCONST> 1.007335e+02
<STATE> 3
<MEAN> 25
 6.509463e+00 -3.827933e+00 -2.908386e+00 -4.423763e+00 -1.318021e+00 -5.608238e+00 2.541276e+00 1.129565e+01 -3.162299e+00 -3.532681e+00 -9.035300e+00 -8.838924e-01 -1.541567e-01 -5.191987e-03 3.520756e-01 -1.073078e-01 -1.540432e-01 -1.475123e-02 1.668794e-01 1.213127e-01 -4.374081e-01 1.210584e-01 -4.634698e-02 -1.666448e-02 3.666092e-02
<VARIANCE> 25
 6.041011e+00 1.105371e+01 2.490741e+01 1.175247e+01 2.556123e+01 1.858506e+01 2.843389e+01 1.951868e+01 2.246469e+01 1.669991e+01 2.699100e+01 2.024418e+01 2.628262e-01 4.917586e-01 9.050498e-01 6.992023e-01 1.141378e+00 1.089815e+00 1.215554e+00 1.148833e+00 9.899110e-01 1.183649e+00 1.031771e+00 7.254662e-01 1.740275e-01
<GCONST> 7.670943e+01
<STATE> 4
<MEAN> 25
 3.785362e+00 6.608602e-01 5.110075e+00 -5.473261e+00 -7.375947e+00 -5.537144e+00 4.301334e-01 7.181509e+00 -4.752545e+00 1.366100e+00 -3.795552e+00 -7.053253e-01 1.443114e-02 1.394789e-01 -3.593810e-02 2.685982e-01 8.247745e-02 9.170382e-02 -2.824857e-01 -3.573756e-01 5.662562e-02 2.672471e-01 -6.825330e-02 1.683317e-02 -2.549427e-01
<VARIANCE> 25
 6.263058e+00 2.021576e+01 2.605203e+01 1.569642e+01 2.833562e+01 2.418637e+01 3.521285e+01 4.428355e+01 1.381943e+01 1.825243e+01 4.635782e+01 1.629728e+01 1.872921e-01 5.031818e-01 6.829121e-01 8.122771e-01 7.737041e-01 9.696384e-01 1.091924e+00 1.629794e+00 8.548947e-01 1.084405e+00 1.087266e+00 7.779661e-01 2.222257e-01
<GCONST> 7.843187e+01
<TRANSP> 5
 0.000000e+00 1.000000e+00 0.000000e+00 0.000000e+00 0.000000e+00
 0.000000e+00 6.271071e-01 3.728929e-01 0.000000e+00 0.000000e+00
 0.000000e+00 0.000000e+00 8.386833e-01 1.613166e-01 0.000000e+00
 0.000000e+00 0.000000e+00 0.000000e+00 8.549684e-01 1.450315e-01
 0.000000e+00 0.000000e+00 0.000000e+00 0.000000e+00 0.000000e+00
<ENDHMM>
~h "er"
<BEGINHMM>
<NUMSTATES> 5
<STATE> 2
<MEAN> 25
 7.707763e+00 -6.358845e-03 -4.778377e-01 1.050299e-01 -5.037958e+00 -6.275531e+00 -6.516524e+00 3.053526e+00 1.854025e+00 -1.856580e+00 -1.765504e-01 1.198118e+00 1.246706e+00 -9.484549e-01 -4.802642e-01 4.490928e-01 -6.044926e-01 -1.143432e+00 -1.002968e+00 1.390869e+00 4.879785e-01 -3.485188e-01 -2.586309e-01 1.909720e-01 3.474623e-01
<VARIANCE> 25
 1.346758e+01 1.848505e+01 5.555949e+01 2.188276e+01 2.226995e+01 3.174439e+01 3.069661e+01 3.369538e+01 2.579879e+01 1.936467e+01 2.804850e+01 1.687680e+01 1.912527e+00 9.788799e-01 1.670947e+00 1.433272e+00 2.044159e+00 1.880730e+00 2.601364e+00 2.104657e+00 1.855421e+00 1.369560e+00 1.550929e+00 1.597124e+00 5.510067e-01
<GCONST> 9.023438e+01
<STATE> 3
<MEAN> 25
 9.579752e+00 -3.695297e+00 -4.640673e-01 3.449545e+00 -5.444091e+00 -1.297404e+01 -7.560280e+00 8.806529e+00 2.589525e+00 -4.146601e+00 -6.607732e-01 3.820223e+00 -9.468763e-02 -4.357160e-02 2.416336e-01 1.135150e-01 -1.141649e-01 -2.328687e-01 1.123242e-01 3.298457e-02 -7.778046e-02 -2.331897e-02 3.931288e-02 1.114576e-01 -1.313649e-01
<VARIANCE> 25
 3.954346e+00 6.161468e+00 2.558345e+01 1.256585e+01 1.184470e+01 1.851901e+01 2.515997e+01 1.626127e+01 1.984834e+01 1.120089e+01 2.097250e+01 1.202467e+01 1.076624e-01 2.122943e-01 5.878472e-01 4.410224e-01 5.610879e-01 7.737167e-01 7.446554e-01 8.118538e-01 7.415431e-01 7.089754e-01 6.566185e-01 5.625457e-01 6.616941e-02
<GCONST> 6.643140e+01
<STATE> 4
<MEAN> 25
 4.974932e+00 -3.116489e+00 2.320083e+00 2.939401e+00 -4.749752e+00 -8.591933e+00 -4.408770e+00 4.099787e+00 2.675284e+00 -1.636749e+00 -5.544065e-01 2.946815e+00 -1.007455e+00 1.804689e-01 1.597234e-01 -2.618184e-03 8.450997e-01 1.395626e+00 6.420600e-01 -1.048025e+00 -5.260319e-03 5.284864e-01 1.306662e-01 -2.162883e-01 -8.105596e-01
<VARIANCE> 25
 1.518469e+01 1.198111e+01 2.505418e+01 1.906405e+01 2.069972e+01 2.835876e+01 3.164948e+01 2.771599e+01 2.238369e+01 1.690026e+01 2.019875e+01 1.519456e+01 8.303442e-01 8.459635e-01 1.100378e+00 1.295626e+00 1.643541e+00 1.993144e+00 2.051141e+00 1.757372e+00 1.450849e+00 1.262298e+00 1.672545e+00 1.445161e+00 5.180182e-01
<GCONST> 8.543353e+01
<TRANSP> 5
 0.000000e+00 1.000000e+00 0.000000e+00 0.000000e+00 0.000000e+00
 0.000000e+00 7.815567e-01 2.184434e-01 0.000000e+00 0.000000e+00
 0.000000e+00 0.000000e+00 9.289156e-01 7.108448e-02 0.000000e+00
 0.000000e+00 0.000000e+00 0.000000e+00 8.162037e-01 1.837963e-01
 0.000000e+00 0.000000e+00 0.000000e+00 0.000000e+00 0.000000e+00
<ENDHMM>
~h "ey"
<BEGINHMM>
<NUMSTATES> 5
<STATE> 2
<MEAN> 25
 4.261542e+00 5.203989e-01 2.181568e+00 -2.246830e-01 -5.257971e+00 -6.752608e+00 -3.018553e+00 4.882473e+00 -1.387793e+00 -3.831807e-01 1.675334e+00 -2.257997e-01 -3.968476e-02 -4.634267e-02 1.358815e+00 -6.895627e-01 -1.826175e+00 -7.685550e-01 3.702935e-02 1.589133e+00 -7.972120e-01 4.134491e-02 5.808781e-01 -4.718794e-01 9.112072e-01
<VARIANCE> 25
 1.932010e+01 1.514177e+01 3.489524e+01 2.867235e+01 3.025488e+01 4.375900e+01 4.485624e+01 5.945366e+01 2.655587e+01 3.176805e+01 3.013090e+01 1.435627e+01 1.895149e+00 1.250291e+00 1.910549e+00 4.029590e+00 3.082924e+00 4.633480e+00 4.163463e+00 5.515698e+00 2.915451e+00 2.765193e+00 2.700210e+00 1.739734e+00 1.697962e+00
<GCONST> 9.927875e+01
<STATE> 3
<MEAN> 25
 3.183881e+00 2.895349e+00 9.353972e+00 -4.414572e+00 -1.112231e+01 -5.909824e+00 -2.087325e+00 4.182458e+00 -4.416715e+00 2.508675e+00 2.704985e+00 -1.713412e+00 -3.211593e-01 4.245560e-01 6.506626e-01 -2.828243e-01 -1.720118e-01 5.314625e-01 -3.524661e-01 -8.012007e-01 -2.009679e-01 3.618622e-01 1.217232e-01 -2.917203e-01 -1.552518e-01
<VARIANCE> 25
 3.522263e+00 6.590849e+00 1.299749e+01 1.662623e+01 1.395684e+01 2.032054e+01 2.407681e+01 1.871947e+01 1.783401e+01 2.036589e+01 2.260748e+01 1.167495e+01 1.659939e-01 3.846194e-01 5.776131e-01 6.395090e-01 6.852769e-01 1.056938e+00 8.963252e-01 1.352311e+00 9.153667e-01 9.916179e-01 8.462076e-01 7.934195e-01 1.244424e-01
<GCONST> 7.124000e+01
<STATE> 4
<MEAN> 25
 9.974018e-01 7.431771e+00 1.104735e+01 -3.803919e+00 -8.663908e+00 -1.912241e+00 -7.912025e+00 -3.376129e+00 -5.081516e+00 -1.010443e+00 4.640184e+00 -4.781694e+00 -5.672627e-02 6.794111e-02 -2.608004e-01 4.113367e-01 3.437524e-01 1.560186e-01 4.176581e-02 -3.883116e-01 6.474371e-02 -1.922203e-01 -3.723752e-02 2.079525e-03 -3.226490e-01
<VARIANCE> 25
 3.439865e+00 8.832745e+00 9.210996e+00 1.929366e+01 2.945635e+01 1.659581e+01 1.943279e+01 1.726280e+01 1.592941e+01 2.760172e+01 2.003358e+01 1.747393e+01 1.701373e-01 4.635035e-01 4.534469e-01 7.709580e-01 1.234816e+00 8.423356e-01 1.226197e+00 1.016287e+00 1.028089e+00 1.003523e+00 9.651017e-01 1.040580e+00 2.023216e-01
<GCONST> 7.359865e+01
<TRANSP> 5
 0.000000e+00 1.000000e+00 0.000000e+00 0.000000e+00 0.000000e+00
 0.000000e+00 6.987919e-01 3.012080e-01 0.000000e+00 0.000000e+00
 0.000000e+00 0.000000e+00 8.719860e-01 1.280140e-01 0.000000e+00
 0.000000e+00 0.000000e+00 0.000000e+00 9.317996e-01 6.820041e-02
 0.000000e+00 0.000000e+00 0.000000e+00 0.000000e+00 0.000000e+00
<ENDHMM>
~h "hh"
<BEGINHMM>
<NUMSTATES> 5
<STATE> 2
<MEAN> 25
 -1.365826e+00 -1.224595e+00 1.340639e+00 1.084011e+00 1.209139e+00 2.126478e+00 3.596262e+00 2.345074e+00 5.144755e-01 7.657085e-01 -6.671484e-01 -4.512560e-02 -4.993063e-01 -7.623150e-01 -2.709149e-01 -3.053671e-01 1.012710e+00 6.537043e-01 1.461445e+00 8.799118e-01 2.892571e-01 -4.455869e-01 -4.581095e-02 3.584541e-01 1.982152e-01
<VARIANCE> 25
 1.489581e+01 2.560101e+01 2.330348e+01 2.201274e+01 3.618247e+01 3.364337e+01 4.575758e+01 4.781180e+01 2.800892e+01 3.220184e+01 3.427533e+01 2.218189e+01 1.017915e+00 2.028886e+00 1.947226e+00 2.457087e+00 2.584376e+00 3.243428e+00 4.450206e+00 4.275776e+00 2.969706e+00 3.420184e+00 2.917010e+00 2.338609e+00 1.311671e+00
<GCONST> 9.823635e+01
<STATE> 3
<MEAN> 25
 -3.354360e+00 -7.141462e+00 -2.970201e+00 -1.197963e+00 5.950658e+00 4.457107e+00 8.936295e+00 5.412557e+00 1.071002e+00 -2.966390e+00 -8.802146e-01 2.954049e+00 -8.618087e-04 -5.538857e-02 -1.183374e-01 4.433211e-02 1.615048e-01 -3.669853e-02 -2.059843e-01 -1.240526e-01 -3.749131e-01 -3.508266e-01 -1.988613e-01 5.488761e-02 2.081522e-01
<VARIANCE> 25
 1.090492e+01 3.340086e+01 3.728425e+01 2.139797e+01 3.508072e+01 2.027848e+01 4.625875e+01 5.273579e+01 2.657849e+01 3.030418e+01 2.627934e+01 2.195943e+01 5.704324e-01 9.733522e-01 1.128436e+00 9.283392e-01 1.423706e+00 1.344803e+00 1.709923e+00 2.025739e+00 1.589444e+00 1.620976e+00 1.717703e+00 1.549327e+00 2.497386e-01
<GCONST> 8.783060e+01
<STATE> 4
<MEAN> 25
 -2.027607e+00 1.727202e+00 2.092541e+00 -3.259732e-02 3.591048e+00 2.577046e+00 4.541923e-01 -1.953249e+00 -3.201121e-01 -2.801110e+00 9.473721e-01 -1.086254e+00 6.542309e-01 7.991091e-01 5.466654e-01 3.131533e-01 -3.022175e-01 -3.213053e-01 -6.452131e-01 -2.098386e-01 -4.379833e-01 -1.727233e-01 -1.174139e-01 -3.449485e-01 2.275006e-01
<VARIANCE> 25
 3.646775e+01 4.806831e+01 3.995084e+01 2.389161e+01 4.579105e+01 2.294431e+01 3.910197e+01 4.598089e+01 2.153070e+01 2.733628e+01 3.030760e+01 2.613184e+01 1.515103e+00 1.436208e+00 1.352842e+00 1.631313e+00 1.782559e+00 1.455177e+00 2.218268e+00 1.652647e+00 2.143197e+00 1.625782e+00 1.824347e+00 1.930238e+00 3.972473e-01
<GCONST> 9.318629e+01
<TRANSP> 5
 0.000000e+00 1.000000e+00 0.000000e+00 0.000000e+00 0.000000e+00
 0.000000e+00 7.251191e-01 2.748809e-01 0.000000e+00 0.000000e+00
 0.000000e+00 0.000000e+00 7.252059e-01 2.747941e-01 0.000000e+00
 0.000000e+00 0.000000e+00 0.000000e+00 7.756406e-01 2.243594e-01
 0.000000e+00 0.000000e+00 0.000000e+00 0.000000e+00 0.000000e+00
<ENDHMM>
~h "ih"
<BEGINHMM>
<NUMSTATES> 5
<STATE> 2
<MEAN> 25
 -9.096044e-01 1.803609e+00 3.459934e+00 4.474267e-02 -1.034686e+00 -1.653992e+00 -2.071177e+00 -1.840081e+00 -5.736619e-01 1.242717e-01 1.041108e+00 -8.730562e-01 1.014911e+00 1.674409e+00 2.206323e+00 -8.041092e-01 -2.462687e+00 -1.468063e+00 -2.072972e+00 2.335637e-01 -1.778651e+00 -6.992564e-01 4.824971e-01 -1.531636e+00 1.390404e+00
<VARIANCE> 25
 2.926056e+01 3.168042e+01 2.975751e+01 3.256932e+01 3.135890e+01 4.624782e+01 4.493690e+01 4.081386e+01 2.604921e+01 2.612763e+01 2.071322e+01 2.462497e+01 2.542227e+00 2.619057e+00 2.359341e+00 4.138250e+00 3.264116e+00 2.820767e+00 4.661875e+00 4.411373e+00 3.714097e+00 2.878001e+00 2.519074e+00 2.636123e+00 1.613372e+00
<GCONST> 1.013655e+02
<STATE> 3
<MEAN> 25
 2.735528e+00 5.214828e+00 8.325341e+00 -5.540497e-01 -9.301188e+00 -5.760777e+00 -5.709776e+00 4.031502e-01 -6.378400e+00 -1.179577e+00 4.509593e+00 -3.928666e+00 5.223164e-02 8.028266e-01 1.366680e+00 -8.191292e-01 -1.382154e+00 6.346619e-01 -5.461941e-01 -1.555706e-01 -1.022418e+00 3.360764e-02 8.903615e-01 -8.936598e-01 3.843115e-01
<VARIANCE> 25
 9.141510e+00 1.622749e+01 1.599283e+01 2.765487e+01 1.943433e+01 4.201325e+01 2.509120e+01 4.861341e+01 2.284640e+01 2.833877e+01 2.123125e+01 2.180756e+01 1.126391e+00 9.310008e-01 1.016833e+00 1.293362e+00 2.204631e+00 2.093729e+00 2.783572e+00 2.719428e+00 2.009766e+00 2.124459e+00 1.711520e+00 1.515487e+00 6.445286e-01
<GCONST> 8.930113e+01
<STATE> 4
<MEAN> 25
 9.760864e-01 7.836435e+00 1.011577e+01 -2.774364e+00 -9.946762e+00 -1.488930e+00 -6.551536e+00 -3.335179e+00 -5.427240e+00 -1.677080e+00 5.350362e+00 -5.506331e+00 6.039092e-02 -8.637655e-02 -2.148271e-01 2.833776e-01 -1.146384e-04 -1.521667e-01 2.230732e-01 -7.458801e-02 7.315907e-02 9.192261e-02 -1.185398e-01 2.308910e-01 -5.904701e-02
<VARIANCE> 25
 4.785854e+00 1.247957e+01 1.064186e+01 1.763422e+01 2.489231e+01 2.577953e+01 2.626597e+01 2.538568e+01 1.584187e+01 2.745450e+01 1.930464e+01 1.890221e+01 1.992629e-01 4.563711e-01 5.502385e-01 9.341050e-01 1.393642e+00 1.045349e+00 9.908525e-01 1.249056e+00 9.420772e-01 1.002138e+00 9.759035e-01 1.097286e+00 2.359389e-01
<GCONST> 7.630579e+01
<TRANSP> 5
 0.000000e+00 1.000000e+00 0.000000e+00 0.000000e+00 0.000000e+00
 0.000000e+00 6.098859e-01 3.901141e-01 0.000000e+00 0.000000e+00
 0.000000e+00 0.000000e+00 5.627194e-01 4.372806e-01 0.000000e+00
 0.000000e+00 0.000000e+00 0.000000e+00 8.870934e-01 1.129066e-01
 0.000000e+00 0.000000e+00 0.000000e+00 0.000000e+00 0.000000e+00
<ENDHMM>
~h "iy"
<BEGINHMM>
<NUMSTATES> 5
<STATE> 2
<MEAN> 25
 5.201051e-01 5.195175e+00 6.399504e+00 3.148033e+00 -2.397135e+00 -4.090768e+00 -4.066909e+00 -4.579668e+00 -2.617727e+00 -3.220961e+00 1.894115e+00 -1.489349e+00 2.476047e-01 1.262922e+00 1.554782e+00 -5.830079e-01 -1.633053e+00 -2.348305e-02 -1.332966e+00 -2.903727e-01 -1.165407e+00 -7.139661e-01 1.221265e+00 -1.274044e+00 5.593318e-01
<VARIANCE> 25
 1.978908e+01 1.715986e+01 2.081232e+01 2.420067e+01 4.721265e+01 3.609064e+01 3.398825e+01 3.548775e+01 3.140235e+01 1.964968e+01 2.174951e+01 1.838996e+01 2.168370e+00 1.788541e+00 1.670473e+00 2.364410e+00 3.328579e+00 3.537332e+00 4.243103e+00 3.364500e+00 3.246509e+00 2.984626e+00 2.299791e+00 2.277089e+00 8.158304e-01
<GCONST> 9.652552e+01
<STATE> 3
<MEAN> 25
 -8.227703e-01 6.852587e+00 9.878325e+00 1.236088e+00 -1.980322e+00 -2.136962e+00 -6.575413e+00 -6.787034e+00 -3.602332e+00 -4.534147e+00 3.607483e+00 -4.490509e+00 -9.936177e-02 6.171569e-01 2.354564e-01 -5.450462e-01 -2.622313e-01 3.507482e-01 -5.382234e-01 3.530630e-02 -1.892291e-01 -2.090686e-01 4.245581e-01 -7.054362e-01 -2.696281e-02
<VARIANCE> 25
 9.508665e+00 1.582197e+01 1.065975e+01 1.295092e+01 5.301239e+01 1.724823e+01 1.745020e+01 2.218272e+01 1.839567e+01 2.147027e+01 1.598327e+01 1.686269e+01 4.334980e-01 6.010273e-01 5.803904e-01 8.141361e-01 1.517828e+00 1.472258e+00 1.171148e+00 1.513994e+00 1.272061e+00 1.181201e+00 1.360133e+00 1.370402e+00 2.053995e-01
<GCONST> 7.896970e+01
<STATE> 4
<MEAN> 25
 -7.481010e-01 9.803601e+00 9.539694e+00 -1.448201e+00 -4.361194e+00 -9.642897e-01 -8.544460e+00 -5.750871e+00 -4.121203e+00 -6.047431e+00 6.550057e+00 -8.054696e+00 2.300925e-02 -2.383780e-01 -1.536533e-01 1.037837e-01 -2.252291e-02 -8.307939e-02 1.648339e-01 -2.878412e-02 6.347088e-03 2.161949e-01 -1.271011e-01 2.051353e-01 -1.550549e-01
<VARIANCE> 25
 3.385304e+00 1.155646e+01 9.484620e+00 1.085362e+01 2.916139e+01 1.357678e+01 1.893391e+01 1.568047e+01 1.670485e+01 2.457606e+01 1.692418e+01 1.898628e+01 1.771728e-01 5.445719e-01 4.205578e-01 6.812539e-01 1.350855e+00 8.902716e-01 1.055049e+00 9.866647e-01 9.836084e-01 1.109688e+00 1.007353e+00 1.220697e+00 1.912926e-01
<GCONST> 7.298894e+01
<TRANSP> 5
 0.000000e+00 1.000000e+00 0.000000e+00 0.000000e+00 0.000000e+00
 0.000000e+00 6.123850e-01 3.876150e-01 0.000000e+00 0.000000e+00
 0.000000e+00 0.000000e+00 7.913736e-01 2.086264e-01 0.000000e+00
 0.000000e+00 0.000000e+00 0.000000e+00 9.387959e-01 6.120407e-02
 0.000000e+00 0.000000e+00 0.000000e+00 0.000000e+00 0.000000e+00
<ENDHMM>
~h "jh"
<BEGINHMM>
<NUMSTATES> 5
<STATE> 2
<MEAN> 25
 7.274179e-01 2.953285e+00 5.416389e+00 4.476058e+00 2.615497e+00 2.074015e+00 2.203675e-01 -4.153612e+00 -1.393971e+00 -1.471252e+00 -5.267652e-02 -9.488995e-01 -8.016999e-01 -7.106680e-01 -4.897536e-01 1.587995e-01 1.472873e+00 1.081139e+00 1.019543e+00 4.840478e-01 6.020350e-01 3.702130e-01 -2.403373e-01 2.265465e-01 -5.571655e-01
<VARIANCE> 25
 8.072371e+00 1.285809e+01 8.008862e+00 1.200735e+01 2.242897e+01 3.227485e+01 2.920742e+01 1.927465e+01 2.217243e+01 1.633734e+01 1.756913e+01 1.354066e+01 1.440535e+00 1.402129e+00 1.019497e+00 2.777370e+00 2.113766e+00 2.450245e+00 2.645137e+00 2.606544e+00 1.593308e+00 1.726074e+00 1.950278e+00 1.843579e+00 1.226341e+00
<GCONST> 8.725202e+01
<STATE> 3
<MEAN> 25
 -9.249674e+00 2.082902e+00 -4.424775e-01 -3.016441e+00 8.312552e+00 1.467499e+00 2.652742e+00 1.093645e+00 2.814239e+00 -3.261431e-01 1.630323e+00 1.258035e+00 -2.263009e+00 4.571576e-01 -2.691917e-01 -1.570535e+00 5.554259e-04 -8.053315e-01 -4.700624e-01 6.872036e-03 6.284717e-01 -3.871078e-01 3.408996e-01 2.769723e-01 1.703282e+00
<VARIANCE> 25
 3.221182e+01 1.862708e+01 2.467591e+01 3.333758e+01 2.217277e+01 3.075534e+01 1.772919e+01 2.423329e+01 1.847573e+01 2.655191e+01 1.456326e+01 1.629180e+01 2.250063e+00 1.506467e+00 3.330881e+00 3.582549e+00 3.046898e+00 3.230430e+00 2.023808e+00 3.773753e+00 1.593970e+00 2.096979e+00 1.359459e+00 1.592345e+00 1.444317e+00
<GCONST> 9.367548e+01
<STATE> 4
<MEAN> 25
 -1.118055e+01 -2.724810e+00 5.541716e+00 -2.246137e+00 1.304685e-01 2.566175e+00 2.679719e+00 -4.701327e+00 5.109426e+00 1.960368e-01 6.974903e-01 2.146318e+00 1.044079e+00 -2.651355e-01 6.281962e-01 5.830835e-01 -8.644627e-01 -2.534811e-01 -1.640595e-01 -3.368492e-01 -2.527332e-01 2.354373e-01 -1.404348e-01 8.512951e-02 -3.453256e-01
<VARIANCE> 25
 3.189927e+01 4.243608e+01 3.271698e+01 2.523930e+01 3.146756e+01 3.945617e+01 2.967779e+01 2.059329e+01 1.846935e+01 2.853849e+01 1.205740e+01 1.180204e+01 3.077646e+00 9.404840e-01 2.154231e+00 1.258583e+00 3.904481e+00 3.358225e+00 3.312148e+00 2.629683e+00 1.670422e+00 1.653671e+00 1.190234e+00 1.299651e+00 1.292346e+00
<GCONST> 9.314562e+01
<TRANSP> 5
 0.000000e+00 1.000000e+00 0.000000e+00 0.000000e+00 0.000000e+00
 0.000000e+00 8.081560e-01 1.918441e-01 0.000000e+00 0.000000e+00
 0.000000e+00 0.000000e+00 7.899047e-01 2.100953e-01 0.000000e+00
 0.000000e+00 0.000000e+00 0.000000e+00 8.610551e-01 1.389449e-01
 0.000000e+00 0.000000e+00 0.000000e+00 0.000000e+00 0.000000e+00
<ENDHMM>
~h "ng"
<BEGINHMM>
<NUMSTATES> 5
<STATE> 2
<MEAN> 25
 1.055470e+00 7.235275e+00 9.965927e+00 -4.307722e+00 -7.033032e+00 1.314756e+00 -7.041947e+00 -3.601825e+00 -4.880031e+00 -2.577821e+00 5.419561e+00 -6.203088e+00 -4.475662e-02 -4.618403e-02 -7.971928e-02 -2.080051e-02 4.332144e-01 4.483302e-01 9.721068e-02 -9.669374e-02 2.152640e-03 -1.153409e-01 7.674541e-02 -1.774359e-01 -1.965033e-01
<VARIANCE> 25
 4.346151e+00 6.470419e+00 9.896127e+00 1.314733e+01 1.697197e+01 1.549748e+01 2.102627e+01 1.536664e+01 1.452198e+01 2.338612e+01 1.709308e+01 1.807483e+01 6.870766e-02 1.826811e-01 2.606387e-01 4.924878e-01 6.567004e-01 7.410262e-01 7.390631e-01 7.063294e-01 7.847192e-01 6.025125e-01 6.827604e-01 6.278529e-01 6.781811e-02
<GCONST> 6.497487e+01
<STATE> 3
<MEAN> 25
 3.289286e+00 3.762635e+00 5.397248e+00 1.082455e+00 -3.118711e+00 2.369908e+00 -1.850240e+00 -5.008257e+00 -5.510995e+00 -1.709151e+00 2.477276e+00 -5.114278e+00 2.904567e-01 -3.273990e-01 -5.130264e-01 7.210152e-01 1.558602e-01 -1.876707e-01 4.882423e-01 -3.559623e-01 1.452183e-01 -6.600112e-02 -5.048929e-01 4.426270e-01 -3.859483e-01
<VARIANCE> 25
 3.171754e+00 5.185053e+00 1.003580e+01 1.348436e+01 1.063030e+01 1.167138e+01 1.298694e+01 1.285151e+01 1.168306e+01 1.719180e+01 1.454568e+01 1.209436e+01 1.806739e-01 2.787392e-01 5.437635e-01 6.786107e-01 8.370893e-01 7.557749e-01 9.864618e-01 8.169957e-01 9.771717e-01 1.062252e+00 9.525346e-01 9.653779e-01 8.430266e-02
<GCONST> 6.688654e+01
<STATE> 4
<MEAN> 25
 1.855102e+00 1.392826e+00 3.919051e+00 3.692836e+00 8.217033e-01 2.582045e+00 1.013382e+00 -5.698049e+00 -2.905142e+00 -8.621031e-01 -3.063253e-01 -1.121196e+00 -6.247938e-01 -5.340479e-01 -1.993707e-01 1.774918e-01 7.231396e-01 3.580145e-01 4.463235e-01 3.463781e-01 5.524257e-01 3.191263e-01 -4.793783e-02 4.511757e-01 -4.464329e-01
<VARIANCE> 25
 1.059729e+01 1.110228e+01 9.095994e+00 9.895106e+00 1.542849e+01 1.978933e+01 1.969527e+01 1.466475e+01 1.587193e+01 1.422576e+01 1.362974e+01 1.339391e+01 8.167314e-01 8.507921e-01 7.510291e-01 1.063810e+00 1.392074e+00 2.023944e+00 2.066080e+00 1.649572e+00 1.778365e+00 1.819463e+00 1.701232e+00 1.322473e+00 3.473089e-01
<GCONST> 7.982946e+01
<TRANSP> 5
 0.000000e+00 1.000000e+00 0.000000e+00 0.000000e+00 0.000000e+00
 0.000000e+00 8.882686e-01 1.117313e-01 0.000000e+00 0.000000e+00
 0.000000e+00 0.000000e+00 8.706090e-01 1.293910e-01 0.000000e+00
 0.000000e+00 0.000000e+00 0.000000e+00 8.700394e-01 1.299606e-01
 0.000000e+00 0.000000e+00 0.000000e+00 0.000000e+00 0.000000e+00
<ENDHMM>
~h "ow"
<BEGINHMM>
<NUMSTATES> 5
<STATE> 2
<MEAN> 25
 9.019070e+00 8.709856e-01 -7.287796e+00 -7.231493e+00 6.181368e-01 1.486741e+00 -3.439085e+00 2.685687e+00 -4.198650e+00 1.414028e+00 -3.009772e+00 -4.963828e-01 8.283899e-01 1.669129e-01 -8.614991e-01 -1.121960e+00 -5.025386e-01 7.804465e-01 -2.063125e-01 4.653179e-01 -7.253370e-01 6.172566e-02 1.710132e-01 1.374473e-01 3.796276e-01
<VARIANCE> 25
 8.975004e+00 1.510677e+01 1.896614e+01 4.538836e+01 3.166388e+01 2.963246e+01 2.367198e+01 3.868287e+01 2.539084e+01 2.590652e+01 4.144715e+01 1.732263e+01 1.554962e+00 8.301917e-01 1.338156e+00 2.130172e+00 1.927684e+00 1.846823e+00 1.923386e+00 2.919855e+00 1.958413e+00 1.571183e+00 2.253186e+00 1.019470e+00 8.011826e-01
<GCONST> 9.037565e+01
<STATE> 3
<MEAN> 25
 1.032491e+01 4.191144e+00 -7.343941e+00 -8.898616e+00 -5.941533e+00 2.846131e+00 -2.732781e+00 1.079453e+00 -8.002960e+00 -8.657645e-02 1.782601e+00 1.494535e+00 -6.850462e-02 1.971547e-01 2.588629e-01 -2.121669e-03 -3.781822e-01 -8.167462e-02 1.429790e-01 -5.748627e-02 -1.023973e-01 -6.549707e-02 -8.086422e-03 7.101312e-03 -2.041958e-01
<VARIANCE> 25
 2.975632e+00 8.651847e+00 1.033494e+01 1.958251e+01 1.621676e+01 1.749178e+01 1.960916e+01 1.640557e+01 1.254309e+01 2.138506e+01 2.853001e+01 1.312689e+01 6.107705e-02 1.720123e-01 2.841361e-01 5.241473e-01 5.705034e-01 5.772333e-01 7.203796e-01 6.616319e-01 7.560211e-01 7.162341e-01 6.963832e-01 6.731144e-01 6.735311e-02
<GCONST> 6.506340e+01
<STATE> 4
<MEAN> 25
 8.029193e+00 5.276167e+00 -9.749789e-01 -3.471106e+00 -6.667023e+00 2.939945e-03 -3.248980e+00 -3.045872e+00 -4.577138e+00 -5.549678e-01 1.172873e+00 4.766007e-01 -3.603433e-01 -1.728013e-01 4.571774e-01 6.870509e-01 4.413044e-01 -1.848759e-01 -1.184002e-01 -5.526658e-01 3.525862e-01 1.532476e-01 -3.607402e-02 -1.819734e-01 -3.042534e-01
<VARIANCE> 25
 3.731581e+00 5.420886e+00 1.173046e+01 1.859997e+01 2.010975e+01 1.423202e+01 1.912280e+01 2.111436e+01 2.037409e+01 1.999648e+01 1.615994e+01 1.540198e+01 1.889352e-01 2.876157e-01 4.779027e-01 7.606872e-01 1.037585e+00 1.172737e+00 1.167391e+00 1.039941e+00 1.242110e+00 1.013873e+00 1.041111e+00 9.518613e-01 1.208909e-01
<GCONST> 7.209823e+01
<TRANSP> 5
 0.000000e+00 1.000000e+00 0.000000e+00 0.000000e+00 0.000000e+00
 0.000000e+00 8.071306e-01 1.928694e-01 0.000000e+00 0.000000e+00
 0.000000e+00 0.000000e+00 9.117118e-01 8.828825e-02 0.000000e+00
 0.000000e+00 0.000000e+00 0.000000e+00 8.641685e-01 1.358316e-01
 0.000000e+00 0.000000e+00 0.000000e+00 0.000000e+00 0.000000e+00
<ENDHMM>
~h "oy"
<BEGINHMM>
<NUMSTATES> 5
<STATE> 2
<MEAN> 25
 -3.873021e-01 4.282744e+00 1.571319e-01 7.157831e+00 1.331911e+00 2.725437e+00 -3.075820e-01 -3.989866e+00 -1.248847e+00 -3.805706e-01 -5.883846e-01 6.538092e-01 6.551480e-01 3.715699e-01 -4.654401e-01 -1.331213e-01 -5.850213e-01 -1.666347e-01 -2.156570e-01 3.330873e-01 -2.894499e-01 -5.412470e-01 -1.209341e-01 2.829857e-01 5.054060e-01
<VARIANCE> 25
 2.262786e+01 6.729134e+00 1.258211e+01 2.117602e+01 5.893525e+00 1.802315e+01 2.658458e+01 8.612972e+00 1.454471e+01 1.647766e+01 5.520716e+00 7.756387e+00 5.566433e+00 1.379903e+00 1.108529e+00 4.140452e+00 2.201288e+00 4.304509e+00 3.432587e+00 1.174883e+00 9.919920e-01 8.996971e-01 9.075573e-01 4.613169e-01 2.817906e-01
<GCONST> 8.084787e+01
<STATE> 3
<MEAN> 25
 8.210608e+00 4.472752e+00 -2.281943e+00 -3.157454e+00 -5.251421e+00 5.732381e-01 -2.061645e+00 -6.907790e-01 -2.762008e+00 -3.566466e+00 2.498500e+00 2.157355e+00 1.906298e+00 -3.535236e-01 -1.120488e+00 -1.484331e+00 -1.271240e+00 1.184772e-01 -2.950567e-01 9.333722e-01 -6.707776e-01 6.321096e-01 5.584206e-01 -1.050618e-01 3.932340e-01
<VARIANCE> 25
 1.264486e+01 8.285272e+00 1.461101e+01 2.970131e+01 6.945201e+00 7.169711e+01 2.793045e+01 2.870305e+01 5.607631e+00 2.797507e+01 2.546996e+01 4.322239e+00 3.254851e+00 2.382526e+00 5.220179e-01 4.187470e+00 1.908976e+00 2.332489e+00 2.658832e+00 1.399122e+00 1.954570e+00 1.792696e+00 1.475007e+00 1.472437e+00 3.548169e-01
<GCONST> 8.595647e+01
<STATE> 4
<MEAN> 25
 8.484696e+00 3.769848e-01 -4.684531e+00 -5.205928e+00 -3.887715e+00 -3.099156e+00 -3.696290e+00 6.372256e+00 -6.557187e+00 3.311213e+00 -6.333746e-01 -1.851331e+00 -3.130863e-01 4.439385e-02 3.800591e-01 2.835787e-01 6.633821e-02 -1.649210e-01 -8.604921e-02 3.142252e-03 -6.693349e-02 1.762009e-02 -1.421634e-01 -9.305499e-02 -7.093649e-02
<VARIANCE> 25
 1.345692e+01 1.038386e+01 4.688493e+01 3.636345e+01 3.102672e+01 5.843038e+01 4.252816e+01 3.708176e+01 2.777030e+01 1.534153e+01 4.376204e+01 2.078929e+01 2.696874e-01 7.004953e-01 1.549658e+00 1.584348e+00 1.614645e+00 3.042013e+00 2.045211e+00 2.992757e+00 1.631679e+00 1.380921e+00 1.872047e+00 1.697059e+00 1.432678e-01
<GCONST> 8.872198e+01
<TRANSP> 5
 0.000000e+00 1.000000e+00 0.000000e+00 0.000000e+00 0.000000e+00
 0.000000e+00 7.603278e-01 2.396722e-01 0.000000e+00 0.000000e+00
 0.000000e+00 0.000000e+00 7.880947e-01 2.119053e-01 0.000000e+00
 0.000000e+00 0.000000e+00 0.000000e+00 9.526328e-01 4.736720e-02
 0.000000e+00 0.000000e+00 0.000000e+00 0.000000e+00 0.000000e+00
<ENDHMM>
~h "sh"
<BEGINHMM>
<NUMSTATES> 5
<STATE> 2
<MEAN> 25
 -6.606693e+00 2.480968e+00 4.588882e+00 7.336262e-01 1.743233e+00 -1.845931e+00 2.455582e-01 -1.535355e+00 2.155070e+00 -9.891099e-01 2.108747e+00 2.158731e+00 -2.930375e+00 -5.704805e-01 3.097751e-01 -4.493860e-01 1.295913e+00 1.055250e+00 1.760267e+00 -2.827638e-01 1.636533e+00 -1.773265e-01 3.959328e-01 7.853127e-01 6.923445e-01
<VARIANCE> 25
 6.756786e+01 2.335190e+01 2.492654e+01 3.017522e+01 4.770783e+01 3.873707e+01 5.842195e+01 5.211430e+01 3.925105e+01 2.798948e+01 2.219020e+01 1.462519e+01 2.971705e+00 2.179468e+00 3.608983e+00 4.222406e+00 4.538801e+00 3.787091e+00 4.697105e+00 4.555005e+00 3.193887e+00 3.071754e+00 1.808260e+00 1.503844e+00 7.629463e-01
<GCONST> 1.017737e+02
<STATE> 3
<MEAN> 25
 -1.730559e+01 -3.864918e+00 4.103929e+00 -4.895585e+00 3.022873e+00 2.763335e+00 5.089616e+00 -1.981149e+00 9.023094e+00 -2.030038e-01 3.002003e+00 4.228728e+00 -8.331394e-02 -2.710734e-01 -3.694667e-02 1.913067e-02 -3.015648e-01 -1.059087e-01 8.681320e-02 -2.324181e-01 -4.115899e-02 -1.046982e-02 -9.109625e-02 -3.661695e-02 -8.980914e-02
<VARIANCE> 25
 8.589591e+00 1.204699e+01 8.480364e+00 1.215222e+01 2.220196e+01 1.791969e+01 2.060238e+01 2.248065e+01 1.602128e+01 1.562341e+01 1.479772e+01 1.731969e+01 4.695553e-01 5.280748e-01 4.619454e-01 8.841760e-01 1.131331e+00 1.296271e+00 1.456922e+00 1.423633e+00 1.319081e+00 1.239659e+00 1.347802e+00 1.157251e+00 2.024314e-01
<GCONST> 7.657619e+01
<STATE> 4
<MEAN> 25
 -1.125796e+01 -2.261748e+00 5.845433e+00 -8.246585e-01 -2.329917e-01 -2.994027e-01 4.563703e+00 -4.237681e+00 5.322276e+00 -1.633139e-01 1.177825e+00 2.520312e+00 2.868579e+00 1.148928e+00 1.491280e+00 5.249865e-01 -9.839342e-01 -7.617121e-01 -1.241074e+00 -4.203896e-01 -1.074656e+00 -1.648343e-01 -4.168982e-01 -4.135927e-01 -4.028859e-01
<VARIANCE> 25
 3.846615e+01 3.836954e+01 2.606407e+01 2.094457e+01 3.284718e+01 4.283685e+01 3.347097e+01 2.518836e+01 1.738433e+01 1.653634e+01 1.637260e+01 1.595348e+01 3.683345e+00 2.233639e+00 1.957959e+00 1.206109e+00 1.670828e+00 2.992226e+00 2.261468e+00 2.459681e+00 2.111366e+00 1.371658e+00 1.807266e+00 1.794808e+00 8.091570e-01
<GCONST> 9.307960e+01
<TRANSP> 5
 0.000000e+00 1.000000e+00 0.000000e+00 0.000000e+00 0.000000e+00
 0.000000e+00 8.033508e-01 1.966492e-01 0.000000e+00 0.000000e+00
 0.000000e+00 0.000000e+00 9.114597e-01 8.854038e-02 0.000000e+00
 0.000000e+00 0.000000e+00 0.000000e+00 7.795922e-01 2.204079e-01
 0.000000e+00 0.000000e+00 0.000000e+00 0.000000e+00 0.000000e+00
<ENDHMM>
~h "sp"
<BEGINHMM>
<NUMSTATES> 3
<STATE> 2
~s "silst"
<TRANSP> 3
 0.000000e+00 3.191547e-01 6.808453e-01
 0.000000e+00 8.606727e-01 1.393273e-01
 0.000000e+00 0.000000e+00 0.000000e+00
<ENDHMM>
~h "th"
<BEGINHMM>
<NUMSTATES> 5
<STATE> 2
<MEAN> 25
 -3.217699e+00 5.565790e-01 -4.522220e+00 3.752114e+00 9.048672e-01 1.222987e+00 2.669960e+00 -3.215766e+00 2.915795e+00 -1.301524e-01 -9.519656e-01 1.588428e+00 -1.104388e+00 -5.961112e-01 -5.386751e-01 7.115173e-02 1.865959e-01 6.144994e-01 6.231709e-01 5.010602e-02 5.172707e-01 2.483754e-01 6.933467e-01 3.386267e-01 -6.470138e-01
<VARIANCE> 25
 2.041482e+01 1.784781e+01 2.487479e+01 1.521417e+01 1.354097e+01 2.605406e+01 2.253875e+01 2.783968e+01 1.955941e+01 1.743775e+01 2.869361e+01 1.880272e+01 2.366963e+00 1.863888e+00 2.475705e+00 2.229981e+00 2.370558e+00 2.492012e+00 2.774589e+00 2.930706e+00 2.458155e+00 1.815300e+00 2.439157e+00 1.717533e+00 8.359410e-01
<GCONST> 9.202528e+01
<STATE> 3
<MEAN> 25
 -5.145339e+00 -3.696080e+00 -1.973167e+00 3.089059e+00 3.768525e+00 4.724261e+00 3.819819e+00 -1.241980e-01 5.337339e+00 3.479777e+00 1.934887e+00 3.287271e+00 -1.323049e-01 1.725747e-02 -5.939730e-02 9.364674e-02 2.498723e-01 1.157978e-01 3.296228e-01 3.395658e-01 1.956724e-01 2.257887e-02 -9.706945e-02 -1.184061e-01 -5.433227e-02
<VARIANCE> 25
 5.663605e+00 1.520365e+01 1.354402e+01 1.098710e+01 1.493270e+01 2.149865e+01 1.932404e+01 1.776525e+01 1.847724e+01 2.064956e+01 1.390983e+01 1.168313e+01 1.920321e-01 3.274938e-01 4.415168e-01 6.039107e-01 8.368152e-01 1.383218e+00 9.882001e-01 9.144105e-01 1.129813e+00 1.945890e+00 9.446240e-01 1.015287e+00 1.007113e-01
<GCONST> 7.245745e+01
<STATE> 4
<MEAN> 25
 -6.850898e+00 -2.317788e-01 -6.543709e+00 2.527204e+00 1.685300e+00 1.156681e-01 4.498133e+00 -1.326430e+00 4.980254e+00 -2.568531e-01 4.995615e-01 2.729621e+00 5.956666e-01 3.771194e-01 3.446692e-02 -4.452300e-01 -3.320146e-01 -9.272943e-01 -2.904931e-01 -1.001355e-01 -9.808064e-03 -3.186259e-01 -3.715142e-01 -5.114345e-02 8.121345e-01
<VARIANCE> 25
 1.583384e+01 1.807936e+01 1.977928e+01 1.889918e+01 1.528337e+01 2.641105e+01 1.716670e+01 2.872411e+01 2.403485e+01 2.123969e+01 1.790070e+01 1.663518e+01 2.532732e+00 1.115055e+00 3.160829e+00 2.211243e+00 1.934240e+00 2.825770e+00 2.086935e+00 2.720212e+00 2.504153e+00 2.745183e+00 2.737895e+00 1.737731e+00 2.033259e+00
<GCONST> 9.227529e+01
<TRANSP> 5
 0.000000e+00 1.000000e+00 0.000000e+00 0.000000e+00 0.000000e+00
 0.000000e+00 8.342105e-01 1.657896e-01 0.000000e+00 0.000000e+00
 0.000000e+00 0.000000e+00 7.876034e-01 2.123967e-01 0.000000e+00
 0.000000e+00 0.000000e+00 0.000000e+00 8.553125e-01 1.446875e-01
 0.000000e+00 0.000000e+00 0.000000e+00 0.000000e+00 0.000000e+00
<ENDHMM>
~h "uh"
<BEGINHMM>
<NUMSTATES> 5
<STATE> 2
<MEAN> 25
 4.476629e+00 5.964530e+00 3.063996e+00 4.704144e+00 -1.983702e+00 -3.494832e+00 -7.047558e+00 -1.570187e+00 -3.256790e+00 -1.494548e+00 1.731716e+00 -2.589440e-02 9.446379e-01 7.017411e-01 -5.628839e-01 -6.173386e-01 -1.174159e+00 5.694149e-01 -7.548702e-01 3.752764e-01 -1.030176e+00 4.490404e-02 1.016366e+00 -4.165318e-01 4.149210e-01
<VARIANCE> 25
 1.133179e+01 1.528337e+01 3.170114e+01 2.073908e+01 3.356137e+01 3.961233e+01 4.104089e+01 2.578531e+01 2.044758e+01 1.551183e+01 1.962027e+01 1.599718e+01 1.905635e+00 1.337782e+00 1.276098e+00 1.995149e+00 3.142875e+00 1.222045e+00 2.169846e+00 1.686740e+00 1.825738e+00 1.560265e+00 1.712409e+00 1.319924e+00 3.070070e-01
<GCONST> 8.844991e+01
<STATE> 3
<MEAN> 25
 7.694188e+00 7.654955e+00 -3.497089e+00 1.690194e-01 -6.101812e+00 1.793372e+00 -9.917380e+00 -3.018511e+00 -8.414113e+00 -9.160097e-01 7.621478e+00 -1.243672e+00 -5.499352e-02 -6.360558e-02 -2.311965e-01 -2.070147e-01 3.618296e-02 1.174801e-01 -1.680010e-01 -1.623344e-01 -5.896459e-02 2.813793e-01 4.471410e-01 -1.924185e-01 4.860637e-02
<VARIANCE> 25
 3.605120e+00 8.650770e+00 1.051936e+01 3.006002e+01 8.053720e+00 3.844060e+01 2.141812e+01 2.074590e+01 1.689464e+01 2.321121e+01 3.460334e+01 1.439750e+01 8.932327e-02 1.788373e-01 3.705058e-01 5.328247e-01 5.542681e-01 6.277708e-01 7.887425e-01 8.161485e-01 7.337908e-01 8.637629e-01 7.031010e-01 9.344066e-01 6.840780e-02
<GCONST> 6.834409e+01
<STATE> 4
<MEAN> 25
 5.190361e+00 4.886400e+00 -2.187394e+00 1.946999e+00 -4.044511e+00 -4.241594e+00 -1.430527e+01 1.077832e+00 -3.227293e+00 1.820361e+00 7.152706e+00 -6.130926e+00 -4.923394e-01 -5.836577e-01 1.126355e+00 5.664914e-01 4.123042e-01 -1.431470e+00 7.992880e-02 5.623298e-01 1.093448e+00 -1.637672e-01 -1.093745e+00 2.616844e-01 -2.076641e-01
<VARIANCE> 25
 5.970960e+00 9.451026e+00 1.228400e+01 1.723426e+01 1.131289e+01 4.267870e+01 2.815226e+01 3.457487e+01 2.028112e+01 1.492395e+01 3.350362e+01 1.761805e+01 1.489855e-01 2.998864e-01 1.029648e+00 5.724604e-01 1.258769e+00 1.442746e+00 4.622907e+00 2.967992e+00 2.125328e+00 1.526800e+00 1.662868e+00 2.901663e+00 7.996239e-01
<GCONST> 8.259483e+01
<TRANSP> 5
 0.000000e+00 1.000000e+00 0.000000e+00 0.000000e+00 0.000000e+00
 0.000000e+00 7.835634e-01 2.164366e-01 0.000000e+00 0.000000e+00
 0.000000e+00 0.000000e+00 9.002104e-01 9.978964e-02 0.000000e+00
 0.000000e+00 0.000000e+00 0.000000e+00 7.755463e-01 2.244537e-01
 0.000000e+00 0.000000e+00 0.000000e+00 0.000000e+00 0.000000e+00
<ENDHMM>
~h "uw"
<BEGINHMM>
<NUMSTATES> 5
<STATE> 2
<MEAN> 25
 1.208111e+00 5.428598e+00 3.485418e+00 6.066310e+00 -1.375238e+00 -8.928491e+00 -6.588340e+00 -7.772015e-02 -3.429500e+00 -4.086030e+00 7.288544e-01 -1.092610e+00 2.235702e+00 5.025054e-01 9.650925e-01 8.765632e-01 -1.164272e+00 -4.257182e-01 -2.669106e+00 -5.201421e-01 -7.145844e-01 -2.253329e-01 4.618872e-01 -1.359645e+00 -9.388082e-02
<VARIANCE> 25
 2.319960e+01 8.938293e+00 1.871824e+01 1.510425e+01 2.675817e+01 2.857286e+01 4.082229e+01 2.382336e+01 2.113674e+01 2.173858e+01 2.167974e+01 1.875366e+01 2.172276e+00 1.022532e+00 2.288661e+00 2.643848e+00 2.053598e+00 2.017951e+00 3.198216e+00 2.732162e+00 2.381414e+00 1.741271e+00 2.237042e+00 2.394552e+00 2.532037e-01
<GCONST> 9.049767e+01
<STATE> 3
<MEAN> 25
 5.088635e+00 6.376054e+00 1.330002e+00 6.182426e+00 -3.697986e+00 -4.997180e+00 -1.235561e+01 -3.379859e+00 -3.578788e+00 -2.594407e+00 3.332149e+00 -5.534777e+00 1.252392e-01 1.759937e-02 -2.489900e-01 -2.521722e-01 -2.497190e-02 4.372530e-01 -7.094480e-02 -3.710145e-01 4.297606e-02 2.369505e-01 1.386825e-01 -6.831341e-02 -1.041774e-01
<VARIANCE> 25
 3.344974e+00 3.536925e+00 1.002515e+01 1.334069e+01 1.345492e+01 2.848419e+01 3.000827e+01 3.287746e+01 1.730660e+01 2.247377e+01 1.533005e+01 2.251368e+01 5.556948e-02 1.547562e-01 2.945127e-01 4.038542e-01 5.225239e-01 7.334584e-01 8.456193e-01 8.645885e-01 8.141859e-01 8.000705e-01 8.003891e-01 9.468796e-01 4.846170e-02
<GCONST> 6.607364e+01
<STATE> 4
<MEAN> 25
 5.508223e+00 4.020857e+00 7.464170e-01 1.828714e+00 -4.073891e+00 -2.044312e+00 -7.521205e+00 -4.707598e+00 -3.859463e+00 -1.412969e+00 3.063722e+00 -2.480637e+00 -3.565030e-01 -3.681459e-01 1.504820e-01 -3.370441e-02 2.848942e-01 8.932017e-02 5.496734e-01 7.726641e-02 2.085120e-01 1.257581e-01 -1.795010e-01 4.268544e-01 -3.234406e-01
<VARIANCE> 25
 1.020263e+01 1.320581e+01 2.043187e+01 1.764040e+01 2.254540e+01 2.823455e+01 4.522807e+01 2.792654e+01 2.362635e+01 2.402873e+01 2.559305e+01 2.899279e+01 5.188208e-01 6.089072e-01 7.304689e-01 9.189933e-01 1.404093e+00 1.976307e+00 2.453043e+00 2.150440e+00 1.547162e+00 1.493447e+00 1.315929e+00 1.724838e+00 3.943345e-01
<GCONST> 8.514530e+01
<TRANSP> 5
 0.000000e+00 1.000000e+00 0.000000e+00 0.000000e+00 0.000000e+00
 0.000000e+00 6.616756e-01 3.383244e-01 0.000000e+00 0.000000e+00
 0.000000e+00 0.000000e+00 9.150311e-01 8.496895e-02 0.000000e+00
 0.000000e+00 0.000000e+00 0.000000e+00 8.900353e-01 1.099647e-01
 0.000000e+00 0.000000e+00 0.000000e+00 0.000000e+00 0.000000e+00
<ENDHMM>
~h "zh"
<BEGINHMM>
<NUMSTATES> 5
<STATE> 2
<MEAN> 25
 -1.065759e+01 -1.595976e+00 9.208611e+00 5.379211e+00 -3.628844e+00 -4.064735e+00 3.214635e+00 -1.594717e+00 3.690299e+00 -4.196895e+00 5.796383e+00 2.603748e+00 -1.273680e+00 -3.856654e-01 2.013010e-01 -2.223970e-01 8.781367e-02 3.068945e-02 1.320772e+00 -6.244670e-01 7.533512e-01 -9.826089e-02 -4.109554e-01 9.141210e-02 1.870291e-02
<VARIANCE> 25
 8.808953e+01 3.703509e+01 7.342602e+00 2.705242e+01 7.049353e+00 1.820140e+01 6.719303e+01 2.288989e+01 3.431747e+01 1.036398e+01 1.295485e+01 1.039689e+01 4.210591e+00 1.341694e+00 1.200955e+00 1.989021e+00 1.223847e+00 2.154840e+00 7.637168e+00 4.121511e+00 3.098403e+00 2.814745e+00 1.675497e+00 2.179418e+00 2.998418e-01
<GCONST> 9.157598e+01
<STATE> 3
<MEAN> 25
 -6.429084e+00 4.153969e+00 1.338243e+01 1.652563e+00 -1.306184e+00 -1.236273e+00 2.186469e+00 -5.648000e+00 2.463798e+00 -2.952546e+00 3.221648e+00 2.578767e-01 9.977245e-01 3.657846e-01 7.987547e-01 -1.802707e-01 -7.656356e-01 -6.073552e-02 2.157087e-01 8.816688e-02 1.661201e-01 3.407446e-01 2.635851e-01 1.062363e-01 5.804658e-02
<VARIANCE> 25
 3.883530e+01 2.991960e+01 1.391203e+01 4.582522e+00 5.778012e+01 4.578620e+01 1.999619e+01 2.622958e+01 1.006194e+01 1.284120e+01 1.011188e+01 1.051629e+01 8.076960e+00 1.896601e+00 1.318397e+00 1.109491e+00 2.939890e+00 6.624708e+00 2.460021e+00 4.020700e+00 1.552618e+00 6.240816e-01 2.112131e+00 1.170684e+00 3.815635e-01
<GCONST> 8.911137e+01
<STATE> 4
<MEAN> 25
 2.464038e-01 8.786323e+00 6.500003e+00 5.125299e-01 -5.380872e+00 -2.633706e+00 -9.537934e-01 -4.454974e+00 3.018418e+00 -1.558305e+00 6.275136e-01 8.950378e-01 5.642965e-01 -8.363002e-01 -4.067737e-01 -4.188179e-01 2.556621e-01 -1.244521e-01 -1.130556e-01 1.036821e+00 -5.279213e-02 6.019443e-02 -3.529011e-01 1.912786e-02 1.577000e-01
<VARIANCE> 25
 6.035352e+01 4.280012e+01 4.155643e+01 3.984758e+01 3.046040e+01 1.751451e+01 2.129738e+01 4.119790e+01 9.677993e+00 7.110092e+00 4.741494e+00 5.021431e+00 3.174636e+00 7.193913e-01 2.263916e+00 1.157243e+00 2.253233e+00 1.226354e+00 1.932012e+00 3.520164e+00 8.316878e-01 8.912014e-01 9.149430e-01 7.661507e-01 2.367112e-01
<GCONST> 8.430045e+01
<TRANSP> 5
 0.000000e+00 1.000000e+00 0.000000e+00 0.000000e+00 0.000000e+00
