~o
<STREAMINFO> 1 25
<VECSIZE> 25<NULLD><MFCC_D_N_Z_0><DIAGC>
~s "silst"
<MEAN> 25
 -7.443824e+00 -7.862581e+00 -1.239396e+00 4.107127e-01 4.109512e+00 4.524142e+00 3.151892e+00 -2.371066e+00 4.122740e+00 1.939382e+00 1.430496e+00 1.563738e+00 -2.686251e-02 -2.314039e-02 -1.104646e-02 -1.455769e-02 -5.781570e-03 3.825094e-02 -1.582314e-02 -1.826449e-02 -3.024478e-02 -1.762702e-02 -2.953059e-02 -3.524439e-02 -4.426748e-02
<VARIANCE> 25
 1.230980e+01 7.886387e+00 6.618143e+00 9.337952e+00 1.545029e+01 1.328091e+01 1.835555e+01 1.567124e+01 1.833068e+01 1.660359e+01 1.563366e+01 1.300936e+01 1.145686e-01 2.404882e-01 4.033350e-01 6.053995e-01 7.910021e-01 9.893270e-01 1.161629e+00 1.294958e+00 1.367842e+00 1.366757e+00 1.270414e+00 1.190944e+00 3.995533e-02
<GCONST> 6.964673e+01
~h "b"
<BEGINHMM>
<NUMSTATES> 5
<STATE> 2
<MEAN> 25
 1.128267e+00 -7.784712e-01 3.188721e+00 3.531937e+00 1.984394e+00 2.098323e+00 4.756715e-01 -4.511239e+00 -2.837523e-01 7.443010e-01 -1.566605e+00 -9.536764e-01 5.008043e-01 7.390510e-01 9.178652e-01 7.281289e-01 4.199630e-01 2.297545e-01 1.213757e-01 -8.631123e-01 -3.611028e-01 -9.099518e-01 -8.649686e-01 -6.536692e-01 -1.835869e-01
<VARIANCE> 25
 1.783615e+01 1.408130e+01 1.304537e+01 9.582847e+00 1.548085e+01 2.450941e+01 2.393749e+01 2.497712e+01 2.515688e+01 2.126518e+01 1.807409e+01 1.851493e+01 1.926023e+00 1.907215e+00 1.263962e+00 1.179172e+00 1.592711e+00 2.608442e+00 3.029248e+00 2.553233e+00 2.825171e+00 2.155943e+00 1.693712e+00 1.914422e+00 1.091788e+00
<GCONST> 8.896971e+01
<STATE> 3
<MEAN> 25
 3.421964e+00 2.204669e+00 5.255276e+00 5.608669e+00 3.533939e+00 2.497020e+00 8.568472e-01 -6.132709e+00 -2.071844e+00 -2.314883e+00 -4.030589e+00 -2.848469e+00 -2.028672e-01 4.839639e-02 8.985452e-02 2.252749e-01 2.878350e-01 3.265570e-01 3.053609e-01 3.722941e-02 2.019297e-02 -6.204345e-02 1.090145e-02 -5.367367e-02 -9.476846e-02
<VARIANCE> 25
 4.923212e+00 6.599188e+00 7.595956e+00 6.569935e+00 1.379413e+01 1.311037e+01 1.305476e+01 1.406789e+01 1.350242e+01 1.029803e+01 9.507576e+00 1.131460e+01 3.884668e-01 2.763822e-01 3.707733e-01 4.819064e-01 7.668389e-01 9.050394e-01 9.110257e-01 7.649866e-01 1.141211e+00 8.437521e-01 9.614444e-01 8.834059e-01 1.484158e-01
<GCONST> 6.657278e+01
<STATE> 4
<MEAN> 25
 2.034003e+00 1.729532e+00 3.412750e+00 5.098088e+00 3.596644e+00 2.021932e+00 6.069651e-01 -4.795425e+00 -1.184070e+00 -9.790272e-01 -1.980064e+00 -1.877773e+00 8.042442e-01 -2.130297e-01 -1.902258e+00 -1.634119e+00 -1.338069e+00 -1.954513e+00 -1.654488e+00 1.597373e+00 3.469004e-01 8.004205e-01 1.142572e+00 4.767978e-01 2.144573e+00
<VARIANCE> 25
 1.193855e+01 1.107538e+01 2.414734e+01 1.849161e+01 1.588168e+01 2.927317e+01 3.828014e+01 2.166215e+01 1.529334e+01 1.796116e+01 1.713211e+01 1.171304e+01 2.256900e+00 1.419260e+00 3.118960e+00 2.551771e+00 2.289181e+00 2.527629e+00 4.926385e+00 3.990391e+00 2.087568e+00 2.893228e+00 2.447320e+00 1.522481e+00 9.699718e-01
<GCONST> 9.176815e+01
<TRANSP> 5
 0.000000e+00 1.000000e+00 0.000000e+00 0.000000e+00 0.000000e+00
 0.000000e+00 7.148038e-01 2.851962e-01 0.000000e+00 0.000000e+00
 0.000000e+00 0.000000e+00 8.385572e-01 1.614429e-01 0.000000e+00
 0.000000e+00 0.000000e+00 0.000000e+00 5.985841e-01 4.014158e-01
 0.000000e+00 0.000000e+00 0.000000e+00 0.000000e+00 0.000000e+00
<ENDHMM>
~h "d"
<BEGINHMM>
<NUMSTATES> 5
<STATE> 2
<MEAN> 25
 2.510903e+00 2.091970e+00 5.717617e+00 2.431605e+00 -2.630301e+00 -3.073031e+00 -2.649303e+00 -2.471796e+00 -2.292375e+00 -7.666976e-01 -4.990413e-01 -7.399819e-01 -3.671585e-01 -5.980858e-01 8.755699e-02 7.479475e-01 1.510918e+00 1.414054e+00 1.283314e+00 -9.494983e-01 4.663051e-01 -1.763353e-01 -2.226468e-01 1.842164e-01 -1.231737e+00
<VARIANCE> 25
 8.312765e+00 1.278560e+01 1.833076e+01 1.685733e+01 3.257587e+01 3.320425e+01 2.637167e+01 3.520097e+01 1.923232e+01 2.039103e+01 2.478417e+01 1.630907e+01 8.428807e-01 1.416931e+00 1.268372e+00 1.449641e+00 2.557967e+00 2.669158e+00 2.949152e+00 2.859108e+00 2.001527e+00 1.993193e+00 2.163655e+00 1.821355e+00 1.130110e+00
<GCONST> 8.985658e+01
<STATE> 3
<MEAN> 25
 -4.380018e-02 -1.648289e+00 3.710593e+00 4.130441e+00 2.995751e+00 3.423341e+00 3.073423e+00 -2.904609e+00 3.741020e-01 5.405053e-02 -1.270374e+00 1.344136e-01 -6.074487e-01 -4.198294e-01 -5.158012e-01 -2.483993e-01 3.897033e-01 5.147663e-01 7.438549e-01 5.065212e-01 5.575041e-01 3.914075e-01 3.378232e-01 2.582990e-01 -2.464138e-01
<VARIANCE> 25
 1.150306e+01 1.398074e+01 1.166505e+01 1.037480e+01 1.312371e+01 1.412969e+01 1.927227e+01 1.941704e+01 1.741685e+01 2.057538e+01 2.068441e+01 1.716786e+01 9.105700e-01 1.135032e+00 1.073326e+00 1.111847e+00 1.268552e+00 1.635325e+00 1.608475e+00 1.583395e+00 1.680120e+00 1.603996e+00 1.397033e+00 1.393066e+00 6.366571e-01
<GCONST> 8.180470e+01
<STATE> 4
<MEAN> 25
 -3.321089e+00 -2.105591e+00 4.067435e-01 1.143739e+00 3.024901e+00 1.908324e+00 4.758286e+00 -6.789176e-01 2.914176e+00 1.536345e+00 1.309006e+00 2.633326e+00 -3.005260e-01 3.395688e-01 -3.493939e-01 -6.003081e-01 -5.554785e-01 -8.398589e-01 -3.858386e-01 1.110406e-01 2.551109e-01 -9.245983e-02 2.534254e-01 3.020762e-01 7.896542e-01
<VARIANCE> 25
 1.347175e+01 2.279181e+01 1.594603e+01 2.271901e+01 2.089036e+01 3.489210e+01 2.394173e+01 2.678248e+01 2.421798e+01 2.775433e+01 2.024180e+01 1.566030e+01 2.105494e+00 2.053678e+00 2.043332e+00 2.965226e+00 2.843476e+00 5.532445e+00 3.288658e+00 2.957875e+00 2.579129e+00 2.493302e+00 2.132683e+00 1.746065e+00 2.969079e+00
<GCONST> 9.545101e+01
<TRANSP> 5
 0.000000e+00 1.000000e+00 0.000000e+00 0.000000e+00 0.000000e+00
 0.000000e+00 7.014679e-01 2.985320e-01 0.000000e+00 0.000000e+00
 0.000000e+00 0.000000e+00 7.330024e-01 2.669976e-01 0.000000e+00
 0.000000e+00 0.000000e+00 0.000000e+00 6.958058e-01 3.041941e-01
 0.000000e+00 0.000000e+00 0.000000e+00 0.000000e+00 0.000000e+00
<ENDHMM>
~h "f"
<BEGINHMM>
<NUMSTATES> 5
<STATE> 2
<MEAN> 25
 -2.261338e+00 -1.653318e+00 -1.430562e+00 3.459478e+00 1.036200e+00 1.962690e+00 2.030983e+00 1.944931e-02 1.986465e+00 1.788253e+00 -3.210155e-01 1.619488e+00 -1.731585e+00 -2.981189e-01 -1.095980e+00 6.829608e-01 2.285371e-01 1.248775e+00 7.144668e-01 8.314676e-02 7.212301e-01 8.978108e-02 2.161835e-01 4.696210e-01 -5.170195e-01
<VARIANCE> 25
 2.399724e+01 7.872207e+00 2.423733e+01 1.969044e+01 1.654984e+01 2.593903e+01 2.278166e+01 2.080793e+01 2.821580e+01 2.014621e+01 2.087967e+01 1.866469e+01 2.115087e+00 1.156258e+00 1.553948e+00 1.818660e+00 2.487133e+00 2.113692e+00 3.330117e+00 2.589937e+00 3.228818e+00 2.721862e+00 2.014614e+00 1.995986e+00 6.779072e-01
<GCONST> 9.081160e+01
<STATE> 3
<MEAN> 25
 -9.202519e+00 -1.010449e-01 -7.947016e+00 6.662661e+00 -8.788645e-01 6.065164e+00 1.646572e+00 8.657494e-01 2.898016e+00 2.381012e+00 3.857004e-01 2.030215e+00 -1.684830e-01 9.533282e-02 -1.126283e-01 1.046539e-01 6.272677e-02 -5.698818e-02 -2.362208e-02 -4.052717e-03 3.676752e-02 -2.909166e-02 1.258943e-02 2.983205e-03 1.210945e-01
<VARIANCE> 25
 5.337120e+00 8.945096e+00 1.246971e+01 1.454093e+01 1.537850e+01 1.884683e+01 2.732102e+01 1.825162e+01 1.794584e+01 1.680456e+01 1.590984e+01 1.442542e+01 4.324079e-01 5.438335e-01 7.526272e-01 9.069300e-01 1.215001e+00 1.483604e+00 1.713835e+00 1.514718e+00 1.504878e+00 1.578890e+00 1.590344e+00 1.110530e+00 2.334409e-01
<GCONST> 7.773235e+01
<STATE> 4
<MEAN> 25
 -6.260875e+00 -1.867581e+00 -5.244361e+00 3.492187e+00 1.649078e+00 2.428533e+00 3.366945e+00 -3.050007e-01 3.123550e+00 1.805403e+00 -3.637469e-01 2.052882e+00 2.072649e+00 8.002749e-02 1.000051e+00 -9.422116e-01 -2.385311e-01 -8.437412e-01 -8.836979e-02 -5.355424e-01 -4.783915e-01 -2.301522e-01 -8.447147e-02 -3.127217e-01 1.316396e-01
<VARIANCE> 25
 2.344575e+01 1.228049e+01 1.744109e+01 1.524520e+01 1.990529e+01 2.492368e+01 2.914044e+01 1.602814e+01 2.034284e+01 1.833657e+01 1.691631e+01 1.622004e+01 4.364738e+00 2.207576e+00 1.803562e+00 2.358960e+00 2.660410e+00 3.606532e+00 2.933355e+00 2.416562e+00 2.492001e+00 1.814186e+00 1.707003e+00 2.139588e+00 1.191720e+00
<GCONST> 9.199477e+01
<TRANSP> 5
 0.000000e+00 1.000000e+00 0.000000e+00 0.000000e+00 0.000000e+00
 0.000000e+00 8.134063e-01 1.865937e-01 0.000000e+00 0.000000e+00
 0.000000e+00 0.000000e+00 8.896694e-01 1.103306e-01 0.000000e+00
 0.000000e+00 0.000000e+00 0.000000e+00 7.489631e-01 2.510369e-01
 0.000000e+00 0.000000e+00 0.000000e+00 0.000000e+00 0.000000e+00
<ENDHMM>
~h "g"
<BEGINHMM>
<NUMSTATES> 5
<STATE> 2
<MEAN> 25
 1.931210e+00 1.553885e+00 5.191836e+00 3.601426e+00 1.537799e+00 1.448006e+00 5.632837e-01 -5.363601e+00 -2.977883e+00 -1.715678e+00 -1.794191e+00 -2.480129e+00 -9.624031e-02 -1.952852e-01 6.769631e-03 3.191671e-01 7.589902e-01 4.817051e-01 6.194773e-01 -1.335897e-01 2.952200e-01 -1.709662e-01 -3.784304e-01 2.072899e-01 -3.168115e-01
<VARIANCE> 25
 1.131140e+01 1.285993e+01 1.082444e+01 1.223928e+01 2.250805e+01 1.977072e+01 1.936304e+01 1.992991e+01 1.806936e+01 1.691675e+01 1.597556e+01 1.267038e+01 1.293180e+00 1.374231e+00 9.380609e-01 9.915786e-01 2.402527e+00 1.952817e+00 2.224833e+00 2.292693e+00 2.336376e+00 1.626381e+00 1.621607e+00 1.551143e+00 7.529311e-01
<GCONST> 8.455121e+01
<STATE> 3
<MEAN> 25
 -1.175461e+00 -9.433289e-01 9.794856e-01 4.318326e+00 4.896430e+00 1.118378e+00 2.057182e+00 -7.968047e-01 2.967829e-01 1.048688e-01 -1.288357e+00 2.152748e-02 -4.291526e-01 4.012960e-02 -4.219166e-01 -3.316424e-01 -7.732590e-01 -1.837643e+00 -1.090905e+00 1.469162e+00 3.112795e-02 2.574654e-01 6.974085e-01 5.746790e-01 1.339428e+00
<VARIANCE> 25
 1.546969e+01 2.220951e+01 3.654885e+01 2.401464e+01 2.764908e+01 4.300163e+01 4.232784e+01 4.218697e+01 3.566447e+01 3.755702e+01 1.816280e+01 1.460129e+01 2.072767e+00 3.105199e+00 5.127803e+00 3.467885e+00 3.125673e+00 3.717028e+00 5.602632e+00 5.173849e+00 4.485007e+00 3.008146e+00 2.149728e+00 1.492705e+00 1.847683e+00
<GCONST> 1.008541e+02
<STATE> 4
<MEAN> 25
 2.588191e+00 1.690601e+00 4.588448e+00 3.758692e+00 -3.501499e+00 -7.880378e+00 -5.126734e+00 3.661080e+00 -3.021150e+00 -1.757285e+00 2.687633e+00 -4.496741e-01 1.130694e+00 -2.797145e-02 -2.069324e-01 -6.376177e-01 -1.390157e+00 -6.491141e-01 -1.104499e+00 1.115973e+00 1.169139e-01 -3.290514e-01 7.388466e-01 -4.257709e-01 6.567764e-01
<VARIANCE> 25
 1.790721e+01 1.726950e+01 3.652366e+01 3.332154e+01 4.279317e+01 4.231211e+01 5.070413e+01 4.525278e+01 3.940804e+01 2.633002e+01 2.748372e+01 1.521997e+01 1.767336e+00 1.487977e+00 2.755368e+00 1.840163e+00 4.240687e+00 2.948470e+00 2.740621e+00 4.302344e+00 2.940097e+00 2.442202e+00 4.185895e+00 2.216675e+00 5.773451e-01
<GCONST> 9.823924e+01
<TRANSP> 5
 0.000000e+00 1.000000e+00 0.000000e+00 0.000000e+00 0.000000e+00
 0.000000e+00 8.690070e-01 1.309930e-01 0.000000e+00 0.000000e+00
 0.000000e+00 0.000000e+00 6.952964e-01 3.047036e-01 0.000000e+00
 0.000000e+00 0.000000e+00 0.000000e+00 6.216633e-01 3.783368e-01
 0.000000e+00 0.000000e+00 0.000000e+00 0.000000e+00 0.000000e+00
<ENDHMM>
~h "k"
<BEGINHMM>
<NUMSTATES> 5
<STATE> 2
<MEAN> 25
 -1.318247e+00 -1.374765e-01 2.371852e+00 1.397740e+00 1.620884e+00 -7.120723e-02 1.412941e+00 -3.528666e+00 -9.688109e-01 1.192814e+00 3.989879e-01 6.689444e-01 -1.033551e+00 -1.392260e+00 -8.379062e-01 4.329001e-01 7.582524e-01 1.338997e+00 1.575780e+00 1.265558e-01 1.371940e+00 3.385514e-01 3.027765e-01 6.222396e-01 -1.157034e+00
<VARIANCE> 25
 2.343728e+01 2.794608e+01 2.512529e+01 1.775695e+01 2.507153e+01 3.403649e+01 3.464149e+01 3.769080e+01 3.200344e+01 2.393054e+01 2.102605e+01 1.584016e+01 1.467811e+00 1.747268e+00 1.789470e+00 1.944409e+00 2.771178e+00 2.996635e+00 3.354455e+00 3.423172e+00 2.903759e+00 2.728172e+00 2.410775e+00 1.708219e+00 8.380784e-01
<GCONST> 9.495985e+01
<STATE> 3
<MEAN> 25
 -3.806710e+00 -5.560477e+00 -9.569322e-01 2.080652e+00 2.139061e+00 4.368618e+00 5.439421e+00 3.779671e-01 3.670651e+00 3.731703e+00 2.354923e+00 2.490361e+00 -1.067423e-01 3.346387e-02 -2.043279e-01 -1.916530e-01 -1.570774e-01 -2.139501e-01 -2.908100e-02 3.643808e-01 -1.071268e-02 1.332985e-02 -7.013500e-02 6.495730e-02 3.721841e-01
<VARIANCE> 25
 6.449126e+00 7.844177e+00 1.273419e+01 1.735852e+01 1.645080e+01 2.624676e+01 2.595402e+01 2.603074e+01 2.028975e+01 1.894418e+01 1.688177e+01 1.303957e+01 9.566462e-01 1.128684e+00 1.173165e+00 1.447840e+00 1.932146e+00 2.963435e+00 2.323596e+00 2.844476e+00 2.289574e+00 2.022182e+00 1.346810e+00 1.402829e+00 2.309144e+00
<GCONST> 8.644402e+01
<STATE> 4
<MEAN> 25
 -3.079743e+00 -3.308897e+00 -3.874933e+00 -3.519633e-01 1.794687e+00 -2.085770e+00 2.013775e+00 4.401225e+00 1.267810e+00 1.598593e+00 -4.833435e-01 2.373696e+00 7.776046e-01 5.485467e-01 2.627662e-01 8.648379e-02 1.266357e-02 -4.990503e-01 -5.109297e-01 1.880132e-01 -3.449529e-01 -4.912366e-01 -3.438623e-01 -2.359648e-01 7.117629e-01
<VARIANCE> 25
 2.641755e+01 2.343998e+01 4.006614e+01 4.036369e+01 4.220053e+01 4.585612e+01 4.165224e+01 5.299195e+01 4.230345e+01 3.604703e+01 2.477394e+01 2.602703e+01 3.439432e+00 2.060469e+00 4.397488e+00 4.012847e+00 3.510314e+00 4.074400e+00 4.002861e+00 5.682083e+00 3.634638e+00 3.827281e+00 2.558074e+00 2.243628e+00 3.670475e+00
<GCONST> 1.051238e+02
<TRANSP> 5
 0.000000e+00 1.000000e+00 0.000000e+00 0.000000e+00 0.000000e+00
 0.000000e+00 7.398995e-01 2.601005e-01 0.000000e+00 0.000000e+00
 0.000000e+00 0.000000e+00 8.333576e-01 1.666424e-01 0.000000e+00
 0.000000e+00 0.000000e+00 0.000000e+00 7.577007e-01 2.422993e-01
 0.000000e+00 0.000000e+00 0.000000e+00 0.000000e+00 0.000000e+00
<ENDHMM>
~h "l"
<BEGINHMM>
<NUMSTATES> 5
<STATE> 2
<MEAN> 25
 4.294170e+00 2.275633e+00 -2.848091e+00 -3.720307e+00 -1.357638e+00 -1.467670e+00 -1.758518e+00 2.791240e-01 5.209433e-01 2.724644e+00 -1.919273e+00 -5.518777e-01 8.427536e-01 5.525137e-01 -4.518573e-01 -1.110959e+00 1.399797e-01 3.596919e-01 -2.689760e-01 -4.440761e-01 -3.375667e-01 3.664147e-01 -3.563807e-01 2.007992e-01 2.021333e-01
<VARIANCE> 25
 2.305273e+01 2.011262e+01 2.272415e+01 4.669700e+01 2.719464e+01 3.338292e+01 4.153209e+01 4.088888e+01 3.429307e+01 2.370401e+01 2.879147e+01 2.369766e+01 2.304914e+00 1.415932e+00 1.536485e+00 3.123541e+00 2.747497e+00 2.767795e+00 2.834352e+00 2.419360e+00 3.561869e+00 1.994797e+00 2.486199e+00 1.828811e+00 1.169192e+00
<GCONST> 9.686451e+01
<STATE> 3
<MEAN> 25
 8.009489e+00 5.413114e+00 -5.519417e+00 -1.135920e+01 -3.154137e+00 2.189013e+00 -2.685133e+00 2.852253e-01 -5.024916e+00 4.220728e+00 -2.608751e+00 8.258945e-01 -4.282313e-02 1.321705e-01 1.654501e-01 2.673181e-02 -4.427451e-02 -8.847273e-02 -5.252741e-02 -1.287806e-01 -3.450204e-02 2.201802e-01 2.515876e-02 5.388018e-02 -1.555180e-01
<VARIANCE> 25
 4.077988e+00 9.668229e+00 1.595376e+01 2.403553e+01 2.110124e+01 2.089981e+01 2.807857e+01 1.958810e+01 2.482789e+01 2.721349e+01 2.340340e+01 1.554057e+01 1.087588e-01 2.659825e-01 3.818860e-01 8.017449e-01 6.855764e-01 7.160136e-01 8.908644e-01 8.844717e-01 8.190581e-01 8.726975e-01 7.578924e-01 7.496098e-01 1.322107e-01
<GCONST> 7.178065e+01
<STATE> 4
<MEAN> 25
 5.404334e+00 3.201138e+00 -3.014742e+00 -5.372351e+00 -8.283721e-01 5.402029e-01 -2.209977e+00 -2.009132e+00 -9.064833e-01 4.987374e+00 -1.892444e+00 -7.825148e-01 -8.706252e-01 -6.364004e-01 4.478237e-01 1.454050e+00 5.994239e-01 -1.175033e-01 4.479130e-01 -4.216551e-02 8.617408e-01 -5.908820e-01 2.554078e-01 -4.151300e-02 -4.796540e-01
<VARIANCE> 25
 1.260208e+01 1.712384e+01 1.924689e+01 3.627424e+01 1.901107e+01 2.966743e+01 4.280369e+01 2.990864e+01 3.082407e+01 2.334345e+01 2.829190e+01 1.513608e+01 6.628746e-01 7.599134e-01 1.063606e+00 1.962119e+00 1.567295e+00 2.548640e+00 2.621790e+00 2.784823e+00 1.817604e+00 2.439065e+00 1.999745e+00 1.307963e+00 7.750612e-01
<GCONST> 8.961656e+01
<TRANSP> 5
 0.000000e+00 1.000000e+00 0.000000e+00 0.000000e+00 0.000000e+00
 0.000000e+00 7.632453e-01 2.367548e-01 0.000000e+00 0.000000e+00
 0.000000e+00 0.000000e+00 8.847761e-01 1.152239e-01 0.000000e+00
 0.000000e+00 0.000000e+00 0.000000e+00 7.290398e-01 2.709602e-01
 0.000000e+00 0.000000e+00 0.000000e+00 0.000000e+00 0.000000e+00
<ENDHMM>
~h "m"
<BEGINHMM>
<NUMSTATES> 5
<STATE> 2
<MEAN> 25
 3.824097e+00 -9.108353e-01 2.032037e+00 1.539819e+00 -8.626150e-01 1.116176e-01 -1.544749e-01 -1.387698e+00 -2.009430e+00 -1.104320e+00 -9.773473e-01 -1.377795e+00 2.189986e-01 3.360806e-01 4.874837e-01 1.285306e+00 1.772303e-01 -7.702540e-02 -1.578371e-01 -1.374918e+00 -4.599380e-01 -5.013300e-01 1.102796e-01 1.590484e-02 -4.978122e-01
<VARIANCE> 25
 1.706177e+01 1.316528e+01 2.143061e+01 2.349594e+01 1.662754e+01 2.275795e+01 1.967417e+01 2.917896e+01 2.700909e+01 2.075347e+01 2.134682e+01 1.470089e+01 1.410890e+00 1.144971e+00 1.588844e+00 1.608135e+00 1.866957e+00 1.869611e+00 1.891614e+00 2.537069e+00 3.413204e+00 2.097655e+00 2.209224e+00 1.458918e+00 1.130344e+00
<GCONST> 8.944692e+01
<STATE> 3
<MEAN> 25
 5.156078e+00 2.305105e+00 3.671049e+00 4.812403e+00 -1.272272e+00 -1.658215e-01 -1.591451e+00 -6.368604e+00 -5.441853e+00 -2.252667e+00 -2.458126e-01 -1.773865e+00 -1.792102e-02 1.637302e-01 1.099727e-01 1.992234e-01 -8.025999e-03 -3.552635e-02 -9.341238e-03 -1.663198e-01 -1.982073e-01 -6.575809e-02 1.257557e-01 -1.028560e-01 -4.879544e-02
<VARIANCE> 25
 2.291189e+00 5.574445e+00 7.279647e+00 1.038362e+01 1.318075e+01 1.177047e+01 1.021298e+01 1.213173e+01 1.121291e+01 9.772903e+00 1.096686e+01 1.111197e+01 1.228499e-01 1.763697e-01 3.692851e-01 4.568491e-01 4.918431e-01 5.582521e-01 7.292267e-01 7.699863e-01 9.349427e-01 7.555368e-01 7.586240e-01 6.650311e-01 9.561501e-02
<GCONST> 6.132246e+01
<STATE> 4
<MEAN> 25
 2.228388e+00 -2.527460e-01 4.082448e+00 6.613598e+00 1.841478e+00 1.249322e+00 3.480743e-01 -5.197365e+00 -3.917984e+00 -2.652500e+00 -4.046528e-01 -1.552080e+00 -3.913192e-01 -2.541837e-01 -2.452122e-01 -2.322602e-01 3.291666e-01 3.308865e-01 3.405820e-01 4.060617e-01 5.350621e-01 1.887401e-01 -2.161823e-02 1.397816e-01 -1.645298e-01
<VARIANCE> 25
 8.290379e+00 1.055704e+01 5.671972e+00 8.499395e+00 1.784592e+01 2.161937e+01 1.496950e+01 1.925882e+01 1.581540e+01 1.286682e+01 9.671795e+00 1.258004e+01 5.742466e-01 4.313720e-01 6.972305e-01 6.685147e-01 9.525589e-01 1.236600e+00 9.978092e-01 1.429015e+00 1.421034e+00 1.149787e+00 9.667921e-01 9.387729e-01 3.745254e-01
<GCONST> 7.380231e+01
<TRANSP> 5
 0.000000e+00 1.000000e+00 0.000000e+00 0.000000e+00 0.000000e+00
 0.000000e+00 7.675162e-01 2.324838e-01 0.000000e+00 0.000000e+00
 0.000000e+00 0.000000e+00 8.456354e-01 1.543647e-01 0.000000e+00
 0.000000e+00 0.000000e+00 0.000000e+00 7.423128e-01 2.576872e-01
 0.000000e+00 0.000000e+00 0.000000e+00 0.000000e+00 0.000000e+00
<ENDHMM>
~h "n"
<BEGINHMM>
<NUMSTATES> 5
<STATE> 2
<MEAN> 25
 3.864372e+00 1.637922e+00 3.222094e+00 -2.913177e-02 -1.648594e+00 -1.767184e-01 -6.159428e-01 -5.366433e-02 -3.314923e+00 -1.224752e+00 -2.975992e+00 -1.011866e+00 2.600930e-01 1.548788e-01 1.385907e-01 9.945928e-01 2.691135e-01 4.601008e-01 3.711405e-02 -1.708167e+00 1.269576e-01 -3.681236e-01 4.069744e-01 7.657740e-02 -8.028789e-01
<VARIANCE> 25
 5.889306e+00 9.551753e+00 1.946291e+01 2.010490e+01 2.083459e+01 2.070196e+01 2.018514e+01 4.355487e+01 1.812418e+01 1.778318e+01 2.860003e+01 1.749085e+01 5.738295e-01 7.191595e-01 8.990472e-01 1.279292e+00 1.355793e+00 1.652600e+00 1.624805e+00 2.769957e+00 1.704624e+00 1.732830e+00 2.230259e+00 1.182920e+00 5.947727e-01
<GCONST> 8.388204e+01
<STATE> 3
<MEAN> 25
 4.948139e+00 2.098523e+00 3.031965e+00 3.473846e+00 -1.008056e+00 1.493760e+00 -1.895328e+00 -6.410462e+00 -2.721718e+00 -3.004892e+00 -1.606072e+00 -8.434988e-01 -5.879655e-02 4.333030e-02 1.182998e-01 8.323826e-02 1.406383e-01 3.990434e-02 -3.311354e-02 -2.134370e-01 -6.263390e-02 3.574177e-02 -6.445601e-02 -6.742673e-03 -2.262893e-01
<VARIANCE> 25
 2.514371e+00 4.622114e+00 8.490480e+00 8.304979e+00 1.284485e+01 1.182528e+01 1.039208e+01 1.288046e+01 1.115616e+01 1.100888e+01 1.209781e+01 1.023921e+01 1.341616e-01 2.263272e-01 3.683489e-01 4.505509e-01 6.214834e-01 6.821350e-01 7.668440e-01 9.088428e-01 8.706923e-01 7.994452e-01 7.921607e-01 7.585487e-01 8.162852e-02
<GCONST> 6.231854e+01
<STATE> 4
<MEAN> 25
 1.589402e+00 6.720916e-01 3.719551e+00 3.640916e+00 2.364102e+00 2.375068e+00 4.844229e-01 -5.553008e+00 -1.379755e+00 -1.609118e+00 -2.311889e+00 -6.416290e-01 -8.203741e-01 -3.965105e-01 -2.998656e-01 -1.151225e-01 6.872354e-01 1.953012e-01 6.511916e-01 6.182948e-01 4.743610e-01 3.407246e-01 3.909447e-02 9.854686e-02 -2.273295e-01
<VARIANCE> 25
 1.089530e+01 8.952358e+00 8.387985e+00 1.236082e+01 1.831650e+01 1.992704e+01 1.913076e+01 1.787407e+01 1.702514e+01 1.446435e+01 1.306770e+01 1.193173e+01 8.502956e-01 7.287830e-01 7.515215e-01 1.086468e+00 1.582085e+00 2.120780e+00 1.758063e+00 1.754043e+00 1.523159e+00 1.533399e+00 1.622963e+00 1.360612e+00 5.744818e-01
<GCONST> 8.020033e+01
<TRANSP> 5
 0.000000e+00 1.000000e+00 0.000000e+00 0.000000e+00 0.000000e+00
 0.000000e+00 7.557817e-01 2.442184e-01 0.000000e+00 0.000000e+00
 0.000000e+00 0.000000e+00 8.714014e-01 1.285986e-01 0.000000e+00
 0.000000e+00 0.000000e+00 0.000000e+00 7.068751e-01 2.931249e-01
 0.000000e+00 0.000000e+00 0.000000e+00 0.000000e+00 0.000000e+00
<ENDHMM>
~h "p"
<BEGINHMM>
<NUMSTATES> 5
<STATE> 2
<MEAN> 25
 1.355008e+00 -1.461782e+00 1.453178e+00 1.882780e+00 6.423642e-01 -4.602920e-01 3.360358e-01 -2.903196e+00 -3.331616e-02 8.686965e-01 3.229682e-01 2.026788e-01 -1.275080e+00 -1.354162e+00 -2.923531e-01 2.735014e-01 7.870716e-01 1.179023e+00 1.360687e+00 -3.742528e-01 1.112678e+00 1.158060e-01 6.139621e-01 9.052495e-01 -1.502115e+00
<VARIANCE> 25
 2.002775e+01 1.360574e+01 2.819493e+01 1.763872e+01 3.244110e+01 4.043349e+01 3.411263e+01 3.137567e+01 3.033797e+01 2.231143e+01 1.963847e+01 1.841694e+01 1.176171e+00 9.402922e-01 2.008785e+00 2.361161e+00 3.091009e+00 2.813554e+00 2.835616e+00 4.061949e+00 2.375525e+00 2.487413e+00 1.928983e+00 1.603967e+00 6.458638e-01
<GCONST> 9.305984e+01
<STATE> 3
<MEAN> 25
 -3.773092e+00 -5.525001e+00 -7.896343e-01 1.608211e+00 2.854548e+00 4.544336e+00 5.253761e+00 -1.115033e+00 3.877223e+00 3.453922e+00 2.134214e+00 2.346434e+00 -1.813129e-01 -1.509690e-01 -5.059849e-02 4.403875e-02 9.836213e-02 3.315535e-01 1.440610e-01 1.369149e-01 7.992299e-02 1.418021e-01 -3.510408e-03 1.152333e-02 -1.954066e-01
<VARIANCE> 25
 5.385809e+00 6.202405e+00 1.040475e+01 1.300606e+01 1.577929e+01 2.362300e+01 2.935555e+01 1.844155e+01 1.735234e+01 1.884828e+01 1.887095e+01 1.487145e+01 2.115577e-01 3.683114e-01 4.853544e-01 6.457680e-01 8.777612e-01 1.121184e+00 1.306790e+00 1.350492e+00 1.556505e+00 1.510530e+00 1.343120e+00 1.170172e+00 1.181051e-01
<GCONST> 7.401617e+01
<STATE> 4
<MEAN> 25
 -3.044243e+00 -3.791993e+00 -1.461118e+00 2.410205e+00 2.976979e+00 2.805083e+00 4.245992e+00 -4.524825e-01 3.856591e+00 1.893941e+00 1.103001e+00 2.167416e+00 1.680177e+00 1.133415e+00 -4.709159e-01 -1.361988e-01 -6.139552e-01 -1.356184e+00 -1.031191e+00 3.583632e-01 -3.528046e-01 -7.954384e-01 -5.170465e-01 -4.505748e-01 2.151779e+00
<VARIANCE> 25
 1.427502e+01 1.101067e+01 1.267242e+01 1.743112e+01 1.355422e+01 2.753693e+01 2.646702e+01 1.903566e+01 1.729507e+01 1.647237e+01 1.998483e+01 1.357611e+01 3.976575e+00 1.711236e+00 2.274273e+00 3.109254e+00 2.154604e+00 3.742922e+00 5.318629e+00 3.124510e+00 2.761039e+00 2.252370e+00 2.469340e+00 2.063341e+00 1.921219e+00
<GCONST> 9.268230e+01
<TRANSP> 5
 0.000000e+00 1.000000e+00 0.000000e+00 0.000000e+00 0.000000e+00
 0.000000e+00 7.030382e-01 2.969619e-01 0.000000e+00 0.000000e+00
 0.000000e+00 0.000000e+00 8.703095e-01 1.296905e-01 0.000000e+00
 0.000000e+00 0.000000e+00 0.000000e+00 6.989389e-01 3.010611e-01
 0.000000e+00 0.000000e+00 0.000000e+00 0.000000e+00 0.000000e+00
<ENDHMM>
~h "r"
<BEGINHMM>
<NUMSTATES> 5
<STATE> 2
<MEAN> 25
 7.085584e+00 -2.004996e+00 -1.155193e+00 2.458975e+00 -3.383546e+00 -5.514630e+00 -6.128347e+00 1.968445e+00 1.042186e+00 -2.658207e-01 -4.418850e-02 1.227806e+00 1.611899e+00 -1.336799e-01 -2.657384e-01 3.136871e-01 -3.979664e-01 -1.417288e+00 -1.252952e+00 5.653447e-01 2.846036e-01 -5.329134e-01 -3.584177e-01 4.529355e-01 2.950785e-01
<VARIANCE> 25
 2.415924e+01 1.501484e+01 5.746951e+01 2.226359e+01 3.577934e+01 3.081850e+01 3.601976e+01 6.015778e+01 2.997955e+01 2.518277e+01 2.517239e+01 1.396210e+01 3.033555e+00 1.561707e+00 2.284877e+00 1.888692e+00 2.121705e+00 2.757724e+00 3.128047e+00 3.353674e+00 2.670439e+00 2.205091e+00 1.850681e+00 1.408766e+00 6.915498e-01
<GCONST> 9.566739e+01
<STATE> 3
<MEAN> 25
 1.061228e+01 -3.249238e+00 -3.679053e+00 2.937423e+00 -2.960818e+00 -9.335498e+00 -7.869499e+00 7.316463e+00 2.937518e+00 -2.353127e+00 -2.223329e+00 2.798521e+00 -6.683314e-02 -6.441864e-02 4.259952e-01 1.764481e-01 -1.974306e-01 -4.697609e-01 2.611797e-01 3.297107e-02 3.313794e-02 -2.873185e-01 7.266778e-02 2.168059e-01 -1.415084e-01
<VARIANCE> 25
 4.759357e+00 8.838485e+00 3.409779e+01 1.427857e+01 1.594646e+01 2.307430e+01 2.728213e+01 4.145205e+01 1.457104e+01 1.694623e+01 1.634822e+01 9.875171e+00 2.102021e-01 3.573850e-01 1.172949e+00 7.230961e-01 1.071863e+00 1.015098e+00 1.247256e+00 1.937819e+00 1.225918e+00 9.235651e-01 9.881922e-01 6.569695e-01 1.521006e-01
<GCONST> 7.542864e+01
<STATE> 4
<MEAN> 25
 6.090679e+00 -3.118068e+00 8.364603e-01 3.496952e+00 -3.421022e+00 -7.442137e+00 -3.482631e+00 3.371455e+00 2.051586e+00 -1.380278e+00 -6.318882e-02 2.754688e+00 -8.865259e-01 1.239254e-01 4.541544e-01 -1.431898e-01 2.911091e-01 1.217521e+00 9.306854e-01 -8.393078e-01 -3.844910e-01 3.411037e-01 3.930346e-01 -2.878079e-01 -5.867016e-01
<VARIANCE> 25
 1.852768e+01 1.142464e+01 2.763031e+01 1.806728e+01 2.269055e+01 3.322329e+01 3.008081e+01 4.020959e+01 2.254607e+01 2.193300e+01 1.958281e+01 1.260263e+01 9.027560e-01 6.889040e-01 1.309179e+00 1.259983e+00 1.934058e+00 1.700184e+00 2.093725e+00 2.439209e+00 1.932842e+00 1.461498e+00 1.312615e+00 1.380925e+00 6.010931e-01
<GCONST> 8.692104e+01
<TRANSP> 5
 0.000000e+00 1.000000e+00 0.000000e+00 0.000000e+00 0.000000e+00
 0.000000e+00 6.407516e-01 3.592484e-01 0.000000e+00 0.000000e+00
 0.000000e+00 0.000000e+00 8.256424e-01 1.743576e-01 0.000000e+00
 0.000000e+00 0.000000e+00 0.000000e+00 7.199148e-01 2.800852e-01
 0.000000e+00 0.000000e+00 0.000000e+00 0.000000e+00 0.000000e+00
<ENDHMM>
~h "s"
<BEGINHMM>
<NUMSTATES> 5
<STATE> 2
<MEAN> 25
 -6.431675e+00 5.615418e+00 -2.169673e+00 3.719557e+00 4.342340e+00 -2.969876e+00 4.113453e+00 -2.229082e+00 3.135442e+00 1.369051e+00 -4.551334e-01 1.999229e+00 -3.249989e+00 1.231972e+00 -1.744605e+00 3.080924e-01 1.892717e+00 5.519995e-03 1.835598e+00 -9.031903e-03 8.600807e-01 9.048458e-03 2.535980e-01 5.121625e-01 6.231251e-01
<VARIANCE> 25
 5.066775e+01 2.967615e+01 2.842258e+01 2.221770e+01 3.858804e+01 3.507322e+01 4.933321e+01 3.466799e+01 3.084063e+01 2.471386e+01 2.044332e+01 1.604663e+01 2.782281e+00 2.404214e+00 2.145045e+00 2.387817e+00 3.585370e+00 3.707139e+00 4.353438e+00 3.393072e+00 3.096642e+00 2.603312e+00 2.476824e+00 1.973597e+00 8.997712e-01
<GCONST> 9.917694e+01
<STATE> 3
<MEAN> 25
 -1.831882e+01 8.840405e+00 -1.010443e+01 2.986265e+00 7.969261e+00 -2.863836e+00 7.676962e+00 -1.786838e+00 4.335656e+00 1.329513e+00 6.148508e-01 3.030685e+00 -1.579718e-01 -7.099739e-02 -1.379268e-01 -1.486937e-01 -5.972110e-03 -5.151746e-02 -6.872191e-02 4.899721e-04 -3.604247e-02 -1.053584e-02 8.929067e-03 1.462198e-03 -7.577428e-02
<VARIANCE> 25
 6.263828e+00 8.200994e+00 9.719543e+00 1.523060e+01 1.797545e+01 2.095295e+01 1.839045e+01 2.363200e+01 1.868065e+01 1.828125e+01 1.463387e+01 1.401692e+01 8.841429e-01 6.168154e-01 1.036120e+00 1.049351e+00 1.165486e+00 1.463133e+00 1.430945e+00 1.744990e+00 1.561965e+00 1.509855e+00 1.486208e+00 1.381223e+00 2.794007e-01
<GCONST> 7.927429e+01
<STATE> 4
<MEAN> 25
 -1.104468e+01 3.513983e+00 -5.303396e+00 1.061579e+00 6.334256e+00 -2.075897e+00 6.429917e+00 -1.617858e+00 5.144546e+00 1.580623e+00 7.176459e-01 2.975354e+00 2.722234e+00 -1.417610e+00 1.406960e+00 -4.307893e-01 -9.906152e-01 4.012534e-01 -8.040574e-01 -3.514541e-01 1.298882e-03 -2.187860e-02 -2.277201e-01 -3.017957e-01 -8.425837e-01
<VARIANCE> 25
 2.728843e+01 2.061415e+01 2.244556e+01 2.374619e+01 2.232171e+01 3.520929e+01 2.738282e+01 2.460533e+01 2.107495e+01 2.144492e+01 1.845775e+01 1.440497e+01 3.271403e+00 1.676258e+00 1.883631e+00 2.126355e+00 2.366804e+00 3.531986e+00 2.946045e+00 2.939297e+00 2.160941e+00 2.220980e+00 2.462883e+00 1.742121e+00 1.418593e+00
<GCONST> 9.418029e+01
<TRANSP> 5
 0.000000e+00 1.000000e+00 0.000000e+00 0.000000e+00 0.000000e+00
 0.000000e+00 7.845559e-01 2.154441e-01 0.000000e+00 0.000000e+00
 0.000000e+00 0.000000e+00 8.970039e-01 1.029961e-01 0.000000e+00
 0.000000e+00 0.000000e+00 0.000000e+00 7.581097e-01 2.418903e-01
 0.000000e+00 0.000000e+00 0.000000e+00 0.000000e+00 0.000000e+00
<ENDHMM>
~h "t"
<BEGINHMM>
<NUMSTATES> 5
<STATE> 2
<MEAN> 25
 4.925902e-01 -1.456774e+00 6.955587e-01 2.163173e+00 1.354311e+00 1.306940e+00 2.611000e+00 -1.035733e+00 1.716528e+00 1.304720e+00 -1.380505e+00 4.006357e-01 -8.980169e-01 -1.256071e+00 -1.736580e-01 4.473905e-01 1.086487e+00 1.770004e+00 1.647421e+00 5.168751e-02 1.069762e+00 4.124576e-01 7.181261e-01 5.409129e-01 -1.382889e+00
<VARIANCE> 25
 1.801064e+01 1.774116e+01 2.334568e+01 1.842761e+01 3.294435e+01 3.661235e+01 3.899451e+01 3.761291e+01 2.613363e+01 2.168129e+01 2.730134e+01 1.897280e+01 9.608037e-01 1.347258e+00 1.736965e+00 2.330885e+00 2.852409e+00 2.828270e+00 2.749820e+00 3.926980e+00 2.178540e+00 2.484518e+00 2.639514e+00 1.794579e+00 8.744355e-01
<GCONST> 9.398727e+01
<STATE> 3
<MEAN> 25
 -3.582511e+00 -5.561323e+00 -8.112482e-01 2.253970e+00 3.444876e+00 6.521390e+00 7.101543e+00 7.162338e-01 4.719088e+00 4.131437e+00 1.909039e+00 2.341534e+00 -2.166633e-01 -7.380064e-02 -6.950456e-02 -5.118618e-02 4.884787e-02 4.120221e-02 -4.992653e-02 -1.217785e-02 -8.300155e-03 9.652676e-02 1.329155e-01 7.754207e-02 -1.081387e-01
<VARIANCE> 25
 5.392093e+00 6.601703e+00 1.131224e+01 1.523394e+01 1.489485e+01 1.914396e+01 2.376838e+01 2.228722e+01 1.826782e+01 1.769970e+01 1.701101e+01 1.342884e+01 3.729702e-01 6.345701e-01 7.344074e-01 1.029598e+00 1.137604e+00 1.677607e+00 1.664533e+00 1.658049e+00 1.674581e+00 1.595987e+00 1.292576e+00 1.203489e+00 3.785473e-01
<GCONST> 7.819832e+01
<STATE> 4
<MEAN> 25
 -7.004494e+00 -1.493896e+00 -3.337299e+00 -1.190127e+00 3.345910e+00 -5.542636e-02 4.784728e+00 9.162691e-01 3.867574e+00 1.403338e+00 1.534089e+00 3.111780e+00 3.745788e-01 1.152048e+00 2.232790e-02 -4.219199e-01 -7.273527e-01 -1.720402e+00 -1.004958e+00 6.949317e-02 -3.947978e-01 -8.432055e-01 -4.882870e-01 -1.309888e-01 1.556147e+00
<VARIANCE> 25
 2.292590e+01 2.235255e+01 2.385751e+01 3.351442e+01 2.355693e+01 4.655911e+01 3.044572e+01 2.683389e+01 2.424815e+01 2.285704e+01 1.676665e+01 1.641856e+01 4.722405e+00 2.530680e+00 3.984254e+00 5.581521e+00 2.946679e+00 4.744217e+00 4.288405e+00 3.704094e+00 2.934868e+00 2.493257e+00 2.214185e+00 2.077330e+00 3.499372e+00
<GCONST> 1.002657e+02
<TRANSP> 5
 0.000000e+00 1.000000e+00 0.000000e+00 0.000000e+00 0.000000e+00
 0.000000e+00 7.004300e-01 2.995700e-01 0.000000e+00 0.000000e+00
 0.000000e+00 0.000000e+00 8.436165e-01 1.563834e-01 0.000000e+00
 0.000000e+00 0.000000e+00 0.000000e+00 7.291736e-01 2.708265e-01
 0.000000e+00 0.000000e+00 0.000000e+00 0.000000e+00 0.000000e+00
<ENDHMM>
~h "v"
<BEGINHMM>
<NUMSTATES> 5
<STATE> 2
<MEAN> 25
 3.098700e+00 -1.451966e+00 -2.107807e+00 -6.387691e-01 5.811179e-01 -1.170585e+00 2.814820e-01 2.618769e-01 -8.507801e-01 1.827965e+00 -2.297705e+00 -1.932886e-01 4.187866e-01 7.895212e-02 -8.527479e-01 -7.126963e-01 8.031150e-01 1.220158e+00 1.372390e-01 -1.678188e-01 -2.413537e-01 -3.429418e-01 -5.241656e-01 8.785461e-02 3.687950e-01
<VARIANCE> 25
 3.273092e+01 1.717033e+01 5.381820e+01 8.379168e+01 2.802532e+01 5.467058e+01 4.761923e+01 3.358776e+01 2.430334e+01 2.110423e+01 2.081245e+01 1.770200e+01 5.389379e+00 1.422871e+00 2.891742e+00 7.383813e+00 2.784029e+00 3.197928e+00 3.866380e+00 4.152548e+00 3.970760e+00 2.482624e+00 3.135714e+00 1.972599e+00 3.670028e+00
<GCONST> 1.030249e+02
<STATE> 3
<MEAN> 25
 8.835181e+00 6.664819e-01 -8.128116e+00 -1.007965e+01 2.397929e-01 4.089056e+00 3.570630e+00 2.993030e+00 -5.900961e+00 1.013569e+00 -4.697340e+00 -7.675638e-01 -1.849079e-01 4.079889e-01 1.199868e-01 2.101142e-01 -3.183118e-01 1.445626e-01 1.596678e-01 -9.706726e-02 -7.309861e-02 1.432389e-01 1.489216e-01 6.331589e-03 -1.900332e-01
<VARIANCE> 25
 1.579794e+01 1.122586e+01 3.234184e+01 7.216252e+01 1.802450e+01 2.804670e+01 2.208627e+01 2.200559e+01 1.808241e+01 1.567446e+01 1.252970e+01 9.311453e+00 5.810197e-01 2.673680e-01 5.428132e-01 5.966609e-01 9.159430e-01 1.514849e+00 1.028425e+00 8.028959e-01 8.033642e-01 7.984690e-01 6.773072e-01 5.534276e-01 1.975028e-01
<GCONST> 7.579774e+01
<STATE> 4
<MEAN> 25
 -2.416744e+00 3.760089e-01 -4.395460e+00 3.372015e+00 -4.954971e-01 3.777492e+00 2.507898e+00 -5.868961e-01 1.338439e+00 1.368865e+00 -1.109917e+00 -1.302185e-01 -5.749775e-01 -3.230839e-01 1.415747e-01 3.927414e-01 2.225460e-01 1.160279e-01 1.068349e-01 -6.203963e-02 3.856668e-01 -6.936792e-02 1.673693e-01 1.178140e-01 -3.302025e-01
<VARIANCE> 25
 3.191090e+01 1.399761e+01 2.505228e+01 3.581865e+01 1.743191e+01 2.381719e+01 2.309654e+01 1.961098e+01 2.347183e+01 1.600343e+01 1.678802e+01 1.320458e+01 2.591080e+00 8.707889e-01 1.658036e+00 2.852262e+00 1.589017e+00 2.630779e+00 2.243037e+00 2.141999e+00 2.491480e+00 1.718149e+00 1.600257e+00 1.305409e+00 3.861268e-01
<GCONST> 8.892914e+01
<TRANSP> 5
 0.000000e+00 1.000000e+00 0.000000e+00 0.000000e+00 0.000000e+00
 0.000000e+00 6.528259e-01 3.471741e-01 0.000000e+00 0.000000e+00
 0.000000e+00 0.000000e+00 8.319716e-01 1.680284e-01 0.000000e+00
 0.000000e+00 0.000000e+00 0.000000e+00 8.922386e-01 1.077615e-01
 0.000000e+00 0.000000e+00 0.000000e+00 0.000000e+00 0.000000e+00
<ENDHMM>
~h "w"
<BEGINHMM>
<NUMSTATES> 5
<STATE> 2
<MEAN> 25
 8.324516e-01 -9.390755e-01 9.498163e-01 1.958637e-01 -1.478540e+00 4.702925e-01 3.959861e-01 -3.571903e+00 -2.535962e-01 1.189085e+00 8.894334e-01 1.130488e+00 1.469884e+00 1.019398e+00 -1.189762e-01 -7.491014e-01 -1.066512e+00 -6.226188e-01 -4.215233e-01 -2.584932e-01 -6.929184e-01 -6.526510e-01 -5.019560e-01 -1.376729e-01 4.415102e-01
<VARIANCE> 25
 2.441698e+01 1.734068e+01 1.679165e+01 2.295214e+01 3.403645e+01 3.693795e+01 3.807192e+01 1.935231e+01 2.578883e+01 2.428926e+01 1.861691e+01 1.530413e+01 3.488212e+00 2.737950e+00 1.255408e+00 2.490885e+00 4.866016e+00 4.320174e+00 3.325714e+00 2.185690e+00 3.267909e+00 2.850670e+00 1.979714e+00 1.846964e+00 1.545225e+00
<GCONST> 9.616993e+01
<STATE> 3
<MEAN> 25
 8.491549e+00 5.584314e+00 1.093530e+00 -3.412055e+00 -7.323499e+00 -1.879707e+00 -1.254973e+00 -3.776931e+00 -3.127467e+00 -1.822972e+00 -1.466366e+00 1.691442e-01 4.259188e-01 3.723284e-01 -2.461880e-01 -2.490468e-01 -2.842016e-01 1.677814e-01 1.706016e-01 2.181765e-01 -1.234866e-01 -6.639027e-02 1.244406e-01 2.209306e-01 2.507885e-01
<VARIANCE> 25
 4.430097e+00 5.169990e+00 1.001339e+01 1.312217e+01 1.760932e+01 1.441284e+01 1.144618e+01 1.550475e+01 1.824106e+01 1.310841e+01 9.493737e+00 1.049397e+01 4.867854e-01 4.034269e-01 9.523585e-01 1.181469e+00 8.929054e-01 9.397514e-01 9.318756e-01 1.122963e+00 1.252224e+00 9.292254e-01 8.954777e-01 9.159700e-01 2.010163e-01
<GCONST> 7.145939e+01
<STATE> 4
<MEAN> 25
 1.091540e+01 4.402820e+00 -5.345925e+00 -6.939636e+00 -6.453413e+00 1.975826e+00 2.137439e-01 -5.992470e-01 -5.835381e+00 -9.925053e-01 2.009164e+00 1.757273e+00 1.179221e-01 -6.878706e-01 -1.226325e+00 -1.073063e-01 8.582056e-01 3.450527e-01 -5.554708e-01 8.298557e-01 -1.233729e-01 6.209126e-01 3.574001e-01 -5.058450e-01 6.608682e-01
<VARIANCE> 25
 3.822041e+00 9.755188e+00 1.485240e+01 2.420764e+01 2.175330e+01 1.723560e+01 2.204498e+01 2.661970e+01 1.605446e+01 1.750375e+01 1.891634e+01 1.523032e+01 2.017834e-01 4.273593e-01 8.458968e-01 1.319021e+00 1.332454e+00 2.174712e+00 2.156573e+00 1.450443e+00 1.826692e+00 1.374653e+00 1.765560e+00 1.956912e+00 1.305354e-01
<GCONST> 7.904113e+01
<TRANSP> 5
 0.000000e+00 1.000000e+00 0.000000e+00 0.000000e+00 0.000000e+00
 0.000000e+00 8.029125e-01 1.970876e-01 0.000000e+00 0.000000e+00
 0.000000e+00 0.000000e+00 8.459419e-01 1.540581e-01 0.000000e+00
 0.000000e+00 0.000000e+00 0.000000e+00 7.663491e-01 2.336509e-01
 0.000000e+00 0.000000e+00 0.000000e+00 0.000000e+00 0.000000e+00
<ENDHMM>
~h "y"
<BEGINHMM>
<NUMSTATES> 5
<STATE> 2
<MEAN> 25
 -4.090339e+00 1.024248e+00 2.925425e+00 5.938552e-01 2.643770e+00 3.018650e+00 8.190711e-01 -3.295232e+00 -9.504002e-02 7.420766e-01 5.678972e-01 -1.394947e-01 1.137385e+00 1.815095e+00 1.591711e+00 -4.890669e-01 -1.126586e+00 -9.843524e-01 -2.093698e+00 -5.796972e-01 -2.201618e+00 -1.372567e+00 -1.419104e-02 -1.856324e+00 9.631516e-01
<VARIANCE> 25
 1.997935e+01 2.312285e+01 1.688013e+01 3.109293e+01 1.849386e+01 2.531481e+01 2.863029e+01 2.630672e+01 3.854580e+01 2.587889e+01 1.679828e+01 2.247744e+01 2.688764e+00 2.667297e+00 1.573411e+00 3.693524e+00 2.558495e+00 2.930505e+00 4.073408e+00 2.968473e+00 4.335338e+00 2.996393e+00 2.263272e+00 3.454387e+00 1.328802e+00
<GCONST> 9.709978e+01
<STATE> 3
<MEAN> 25
 -1.390200e+00 7.167283e+00 6.436822e+00 5.916755e-01 1.506733e-02 7.258208e-01 -3.761391e+00 -6.087010e+00 -4.053792e+00 -4.149193e+00 1.434382e+00 -5.660085e+00 4.003944e-01 6.033212e-01 6.269711e-01 -9.286328e-02 -9.908559e-01 -2.972622e-01 -5.564254e-01 2.430229e-02 -4.825694e-01 -3.062287e-01 6.237530e-01 -2.865209e-01 4.073315e-01
<VARIANCE> 25
 1.136566e+01 1.629327e+01 1.051949e+01 1.887239e+01 3.377018e+01 1.481612e+01 2.056263e+01 2.490060e+01 2.509235e+01 1.581337e+01 1.751306e+01 2.714355e+01 1.104155e+00 1.059391e+00 7.510912e-01 1.601189e+00 2.620421e+00 1.445658e+00 2.701949e+00 2.048328e+00 2.110157e+00 1.770484e+00 1.546879e+00 3.011452e+00 3.978905e-01
<GCONST> 8.637967e+01
<STATE> 4
<MEAN> 25
 1.879760e+00 7.582335e+00 7.990735e+00 3.699010e+00 -8.736114e+00 -3.148909e+00 -4.661561e+00 -3.207841e+00 -6.971056e+00 -4.026756e+00 5.549827e+00 -6.763422e+00 3.343079e-01 -3.635554e-01 -2.970100e-01 7.050050e-01 -4.399877e-01 -9.800813e-01 -1.126647e-03 7.555065e-01 -2.887750e-02 -2.092625e-01 4.961570e-02 4.476338e-01 1.397226e-01
<VARIANCE> 25
 3.419206e+00 7.505574e+00 6.184081e+00 3.049990e+01 2.652018e+01 3.022844e+01 2.283350e+01 2.565055e+01 2.104393e+01 2.121571e+01 2.273099e+01 1.854303e+01 2.389004e-01 4.745672e-01 5.072981e-01 1.022158e+00 1.608137e+00 1.613835e+00 1.936398e+00 2.633735e+00 2.044310e+00 1.448425e+00 1.466698e+00 1.321878e+00 1.095934e-01
<GCONST> 7.892209e+01
<TRANSP> 5
 0.000000e+00 1.000000e+00 0.000000e+00 0.000000e+00 0.000000e+00
 0.000000e+00 6.401260e-01 3.598740e-01 0.000000e+00 0.000000e+00
 0.000000e+00 0.000000e+00 7.946330e-01 2.053670e-01 0.000000e+00
 0.000000e+00 0.000000e+00 0.000000e+00 8.792211e-01 1.207789e-01
 0.000000e+00 0.000000e+00 0.000000e+00 0.000000e+00 0.000000e+00
<ENDHMM>
~h "z"
<BEGINHMM>
<NUMSTATES> 5
<STATE> 2
<MEAN> 25
 -4.896965e+00 7.996566e+00 -9.875187e-01 2.873257e+00 2.708337e+00 -4.656157e+00 1.923364e+00 -3.298808e+00 1.369125e+00 1.915240e-01 -1.866042e+00 1.689945e+00 -3.472106e+00 8.733997e-01 -1.689310e+00 6.368943e-01 2.252985e+00 4.540727e-01 2.373652e+00 -7.490902e-02 1.479455e+00 -2.361680e-01 4.783242e-01 5.277040e-01 2.293175e-01
<VARIANCE> 25
 5.299145e+01 1.907961e+01 2.610900e+01 2.646171e+01 4.307288e+01 2.781449e+01 4.063158e+01 3.870731e+01 2.460830e+01 2.580373e+01 2.466777e+01 1.490264e+01 2.298310e+00 1.320390e+00 2.100090e+00 3.291579e+00 3.150669e+00 3.061406e+00 3.509393e+00 4.486466e+00 2.382052e+00 2.917679e+00 3.011104e+00 1.925273e+00 4.553059e-01
<GCONST> 9.718911e+01
<STATE> 3
<MEAN> 25
 -1.805359e+01 9.209121e+00 -9.546937e+00 1.849649e+00 8.091849e+00 -2.980009e+00 8.274467e+00 -1.717538e+00 4.537962e+00 1.278376e+00 1.055845e+00 2.880525e+00 -2.765885e-01 -1.823074e-01 -1.672787e-01 -9.455994e-02 6.836959e-02 -6.958032e-02 3.175101e-02 -6.915729e-02 -3.451902e-02 8.825345e-02 1.298790e-01 7.374653e-02 -2.812957e-01
<VARIANCE> 25
 5.829293e+00 7.076855e+00 1.411084e+01 1.692235e+01 1.644546e+01 2.008215e+01 2.089706e+01 2.607507e+01 2.097500e+01 1.725188e+01 1.481692e+01 1.492333e+01 1.217230e+00 6.323902e-01 1.464893e+00 1.109945e+00 1.259879e+00 1.362659e+00 1.473071e+00 1.997056e+00 1.762300e+00 1.525188e+00 1.433064e+00 1.546552e+00 2.161455e-01
<GCONST> 8.062933e+01
<STATE> 4
<MEAN> 25
 -9.522413e+00 2.020580e+00 -3.244980e+00 2.894076e+00 5.917027e+00 -9.416716e-02 7.880687e+00 -3.065498e+00 5.558438e+00 2.194248e+00 2.040070e+00 2.700822e+00 1.599634e+00 -1.226276e+00 9.790565e-01 4.571509e-02 -4.911138e-01 7.197721e-01 -2.618339e-01 -1.789180e-01 1.140436e-02 1.308064e-01 4.781397e-02 -2.376358e-01 -8.961511e-01
<VARIANCE> 25
 2.219335e+01 2.074296e+01 1.585625e+01 1.941141e+01 2.183589e+01 3.571523e+01 2.620232e+01 2.515723e+01 2.185951e+01 2.055103e+01 2.092147e+01 1.472941e+01 2.426576e+00 1.815208e+00 1.676340e+00 1.577389e+00 2.220131e+00 3.254540e+00 2.616122e+00 2.717782e+00 2.206666e+00 2.135799e+00 2.178766e+00 1.539776e+00 1.263309e+00
<GCONST> 9.218530e+01
<TRANSP> 5
 0.000000e+00 1.000000e+00 0.000000e+00 0.000000e+00 0.000000e+00
 0.000000e+00 7.874931e-01 2.125069e-01 0.000000e+00 0.000000e+00
 0.000000e+00 0.000000e+00 8.842050e-01 1.157950e-01 0.000000e+00
 0.000000e+00 0.000000e+00 0.000000e+00 8.477281e-01 1.522719e-01
 0.000000e+00 0.000000e+00 0.000000e+00 0.000000e+00 0.000000e+00
<ENDHMM>
~h "aa"
<BEGINHMM>
<NUMSTATES> 5
<STATE> 2
<MEAN> 25
 3.617942e+00 -1.044785e+00 -4.332736e+00 -4.652056e+00 1.300246e+00 7.757545e-01 -1.048097e-01 1.773805e+00 -6.586770e-01 6.820252e-01 -2.004789e+00 -7.426673e-01 1.547438e+00 -4.547890e-01 -1.694083e+00 -1.989967e+00 3.795708e-01 5.052275e-01 -4.274826e-01 1.440874e+00 -7.107113e-01 -4.808702e-01 -1.393726e+00 -4.214781e-01 1.440373e+00
<VARIANCE> 25
 3.620716e+01 3.439952e+01 2.909019e+01 4.310136e+01 5.155637e+01 4.115084e+01 5.068830e+01 3.659229e+01 3.190340e+01 2.845711e+01 3.133715e+01 1.893575e+01 4.238644e+00 1.378270e+00 2.228411e+00 4.027256e+00 4.128022e+00 2.893627e+00 4.024433e+00 3.993852e+00 3.027124e+00 3.453808e+00 3.210661e+00 1.774944e+00 2.389940e+00
<GCONST> 1.027661e+02
<STATE> 3
<MEAN> 25
 8.763921e+00 -1.577725e-01 -8.296802e+00 -9.121425e+00 5.644568e-01 2.469845e+00 8.788841e-01 5.941504e+00 -3.517026e+00 -4.202721e-01 -6.100467e+00 -7.208508e-01 5.166031e-01 -5.814310e-01 -7.585414e-01 -5.257638e-01 6.486197e-01 1.101284e+00 7.891586e-02 2.181135e-01 -8.683448e-01 1.330335e-01 -2.643364e-01 2.978555e-02 2.277317e-01
<VARIANCE> 25
 9.414062e+00 2.015851e+01 1.266975e+01 2.529940e+01 3.909395e+01 2.907640e+01 3.894272e+01 2.782487e+01 2.509019e+01 2.267127e+01 2.511538e+01 1.592568e+01 6.538653e-01 5.550836e-01 8.057593e-01 8.650301e-01 1.646380e+00 1.353744e+00 1.397576e+00 1.383881e+00 1.271097e+00 1.675304e+00 1.286414e+00 1.157652e+00 4.275711e-01
<GCONST> 8.371280e+01
<STATE> 4
<MEAN> 25
 9.489382e+00 -1.864028e+00 -9.540173e+00 -8.596136e+00 2.230245e+00 4.422842e+00 -9.954298e-01 5.797184e+00 -5.367242e+00 8.688819e-01 -6.205439e+00 -1.735637e+00 -1.817112e-01 1.140018e-01 2.582636e-01 4.083358e-01 -5.860934e-02 -4.496751e-01 -3.727171e-01 2.286226e-02 2.359767e-01 2.999197e-01 -1.253024e-01 -9.181941e-02 -7.386845e-02
<VARIANCE> 25
 5.406052e+00 1.412796e+01 1.097488e+01 2.596999e+01 2.539231e+01 2.464847e+01 3.133273e+01 2.036136e+01 1.759653e+01 3.686519e+01 2.221766e+01 1.361785e+01 1.581639e-01 4.038494e-01 5.582646e-01 7.204328e-01 7.922066e-01 9.633188e-01 9.439747e-01 1.146128e+00 9.371596e-01 9.645791e-01 9.636153e-01 8.198311e-01 1.647785e-01
<GCONST> 7.502679e+01
<TRANSP> 5
 0.000000e+00 1.000000e+00 0.000000e+00 0.000000e+00 0.000000e+00
 0.000000e+00 6.260589e-01 3.739412e-01 0.000000e+00 0.000000e+00
 0.000000e+00 0.000000e+00 6.205477e-01 3.794524e-01 0.000000e+00
 0.000000e+00 0.000000e+00 0.000000e+00 9.193699e-01 8.063005e-02
 0.000000e+00 0.000000e+00 0.000000e+00 0.000000e+00 0.000000e+00
<ENDHMM>
~h "ae"
<BEGINHMM>
<NUMSTATES> 5
<STATE> 2
<MEAN> 25
 4.501928e-01 -3.518077e+00 -1.053720e+00 -2.135147e-01 8.401253e-01 -7.384832e-01 3.621823e+00 3.812391e+00 1.345223e+00 8.436814e-04 -1.502919e+00 1.191543e+00 1.326686e+00 -7.170697e-01 -9.004472e-01 -1.236379e+00 -7.476374e-01 -1.472428e+00 3.837998e-02 2.578554e+00 -6.233222e-01 -9.110784e-01 -1.568460e+00 3.651860e-02 1.936058e+00
<VARIANCE> 25
 2.802871e+01 3.339499e+01 2.535909e+01 2.764664e+01 3.491287e+01 4.639555e+01 3.794396e+01 6.360625e+01 2.466267e+01 3.300472e+01 3.294149e+01 2.104873e+01 2.888069e+00 2.137629e+00 2.244986e+00 2.971515e+00 4.413728e+00 4.995687e+00 3.520686e+00 5.401465e+00 3.519235e+00 3.557415e+00 3.769875e+00 2.026322e+00 3.252061e+00
<GCONST> 1.032601e+02
<STATE> 3
<MEAN> 25
 6.177436e+00 -5.000662e+00 -2.522012e+00 -3.202246e+00 -1.196275e+00 -3.930281e+00 5.561954e+00 1.199742e+01 -2.456624e+00 -4.057847e+00 -7.997665e+00 1.231116e+00 6.280982e-01 -6.674637e-02 -1.099691e-01 -4.574507e-01 -3.041099e-02 -1.749479e-01 -1.644257e-03 7.470845e-01 -8.418006e-01 -1.826258e-01 -9.750649e-01 1.025264e-01 6.310716e-01
<VARIANCE> 25
 8.786604e+00 1.834702e+01 2.516163e+01 1.512950e+01 3.658805e+01 2.290914e+01 3.331887e+01 1.697771e+01 1.926933e+01 2.188915e+01 2.196911e+01 1.819910e+01 1.133405e+00 1.304199e+00 1.348270e+00 1.310804e+00 1.562416e+00 1.722567e+00 1.627177e+00 2.392821e+00 1.310616e+00 1.457103e+00 1.113481e+00 1.182335e+00 5.140029e-01
<GCONST> 8.564243e+01
<STATE> 4
<MEAN> 25
 6.538425e+00 -4.905713e+00 -3.214611e+00 -4.790439e+00 -9.149674e-01 -5.402024e+00 2.959420e+00 1.240063e+01 -4.179604e+00 -2.858036e+00 -1.026294e+01 6.067887e-01 -7.685994e-02 3.098321e-01 1.314273e-01 1.610707e-01 -1.709783e-01 -1.620469e-01 -2.933452e-01 -3.036286e-01 9.278785e-02 3.906698e-01 8.112688e-02 -5.183451e-02 -1.762887e-01
<VARIANCE> 25
 4.650252e+00 1.040692e+01 1.938521e+01 1.357291e+01 2.541731e+01 1.821284e+01 2.302597e+01 1.635125e+01 1.640615e+01 2.196984e+01 1.900041e+01 1.863261e+01 1.344491e-01 4.280621e-01 5.486726e-01 7.186582e-01 7.795250e-01 7.081699e-01 8.131899e-01 1.073635e+00 9.184867e-01 9.025656e-01 8.558823e-01 6.348627e-01 2.565540e-01
<GCONST> 7.255061e+01
<TRANSP> 5
 0.000000e+00 1.000000e+00 0.000000e+00 0.000000e+00 0.000000e+00
 0.000000e+00 6.720645e-01 3.279355e-01 0.000000e+00 0.000000e+00
 0.000000e+00 0.000000e+00 6.722147e-01 3.277853e-01 0.000000e+00
 0.000000e+00 0.000000e+00 0.000000e+00 9.264103e-01 7.358974e-02
 0.000000e+00 0.000000e+00 0.000000e+00 0.000000e+00 0.000000e+00
<ENDHMM>
~h "ah"
<BEGINHMM>
<NUMSTATES> 5
<STATE> 2
<MEAN> 25
 -8.752047e-01 -2.568476e-01 5.603862e-01 7.872677e-01 1.984957e-01 -6.228548e-01 3.318638e-01 -5.940686e-01 2.018533e+00 1.028271e+00 7.373986e-01 3.644921e-01 6.156071e-01 -3.826758e-01 -4.895850e-01 -6.938636e-01 -1.799831e-01 -3.583540e-01 -4.420384e-01 1.071344e+00 -1.153145e-01 -1.537894e-01 -6.437721e-01 -1.558796e-01 7.030644e-01
<VARIANCE> 25
 2.312002e+01 3.417371e+01 2.626933e+01 2.522563e+01 3.478400e+01 5.371194e+01 4.449748e+01 4.165919e+01 2.899130e+01 3.307147e+01 2.594102e+01 2.017027e+01 3.340261e+00 1.618031e+00 2.670022e+00 3.510446e+00 4.010419e+00 4.936854e+00 4.522910e+00 4.746308e+00 3.376632e+00 3.343060e+00 3.906234e+00 2.530735e+00 3.113062e+00
<GCONST> 1.031265e+02
<STATE> 3
<MEAN> 25
 4.411726e+00 -1.613581e+00 -2.160236e+00 -3.355793e+00 -1.454316e+00 -3.743341e+00 -2.931788e+00 6.477349e+00 -1.059315e-01 -6.080391e-01 -4.431607e+00 -1.020013e+00 1.456028e+00 -2.073983e-01 -5.054997e-01 -6.687775e-01 -6.095423e-01 -3.621210e-01 -1.050284e+00 1.349509e+00 -6.199544e-01 -1.584319e-01 -1.066695e+00 -4.531161e-01 1.313276e+00
<VARIANCE> 25
 1.837117e+01 4.303085e+01 4.114920e+01 3.015335e+01 5.544713e+01 4.676342e+01 4.001595e+01 4.119692e+01 2.291614e+01 3.331046e+01 3.793683e+01 2.095152e+01 1.894928e+00 1.544483e+00 2.149624e+00 2.541366e+00 3.448153e+00 3.377798e+00 3.373024e+00 4.791839e+00 2.016927e+00 2.721407e+00 3.282830e+00 1.643512e+00 2.765321e+00
<GCONST> 1.007422e+02
<STATE> 4
<MEAN> 25
 5.311714e+00 -3.607137e-01 -2.205153e+00 -2.738942e+00 -2.669793e+00 -3.510721e+00 -4.667693e+00 6.941160e+00 -1.611021e+00 -6.796579e-01 -4.824048e+00 -1.960678e+00 -7.351674e-02 1.317342e-01 1.278418e-01 1.283786e-01 6.180378e-02 7.792990e-02 1.027383e-01 -3.201409e-01 -1.285568e-02 2.099260e-01 1.160631e-02 4.508969e-02 -2.815680e-01
<VARIANCE> 25
 9.547499e+00 2.382520e+01 3.843828e+01 2.162617e+01 5.135506e+01 4.364052e+01 3.871051e+01 3.880960e+01 2.256024e+01 3.189794e+01 4.666213e+01 2.055167e+01 2.595310e-01 5.299631e-01 5.762855e-01 8.178717e-01 1.022015e+00 9.998041e-01 1.040698e+00 1.559229e+00 1.034767e+00 9.882752e-01 1.135841e+00 8.065068e-01 3.866064e-01
<GCONST> 8.332504e+01
<TRANSP> 5
 0.000000e+00 1.000000e+00 0.000000e+00 0.000000e+00 0.000000e+00
 0.000000e+00 5.825500e-01 4.174500e-01 0.000000e+00 0.000000e+00
 0.000000e+00 0.000000e+00 4.349796e-01 5.650204e-01 0.000000e+00
 0.000000e+00 0.000000e+00 0.000000e+00 8.829736e-01 1.170265e-01
 0.000000e+00 0.000000e+00 0.000000e+00 0.000000e+00 0.000000e+00
<ENDHMM>
~h "ao"
<BEGINHMM>
<NUMSTATES> 5
<STATE> 2
<MEAN> 25
 6.578796e+00 2.084201e+00 -3.490440e+00 -5.280282e+00 -2.234589e+00 -3.328877e-01 -4.762549e-01 1.961192e+00 -1.310989e+00 1.380797e+00 -1.914609e+00 1.720341e-01 1.574930e+00 4.456107e-01 -1.120753e+00 -1.679435e+00 -7.786626e-01 8.055572e-01 6.402653e-02 6.758937e-01 -7.929815e-01 7.089445e-02 -2.516385e-01 -7.289845e-02 6.671847e-01
<VARIANCE> 25
 2.277835e+01 2.412891e+01 2.820592e+01 4.834997e+01 3.239639e+01 4.228159e+01 4.519942e+01 2.693773e+01 3.191805e+01 2.866242e+01 3.077888e+01 1.812296e+01 3.181000e+00 1.551768e+00 1.880807e+00 3.639817e+00 2.808337e+00 3.037051e+00 2.593482e+00 2.199956e+00 3.425619e+00 2.621241e+00 2.198665e+00 1.725190e+00 1.480648e+00
<GCONST> 9.826964e+01
<STATE> 3
<MEAN> 25
 1.138470e+01 3.889727e+00 -7.274411e+00 -9.027960e+00 -6.913949e+00 2.994648e+00 2.128742e+00 2.980103e+00 -5.405457e+00 -1.865199e+00 1.727805e+00 2.066287e+00 7.018983e-02 -2.233179e-01 -4.154510e-01 -1.220676e-02 1.000877e-01 1.989513e-01 -1.570624e-01 2.023927e-01 -3.885648e-01 4.738047e-02 3.076079e-01 1.161921e-01 1.250365e-01
<VARIANCE> 25
 3.875106e+00 1.092098e+01 9.837263e+00 1.736906e+01 1.974549e+01 1.565543e+01 2.040777e+01 1.915436e+01 1.752328e+01 1.968958e+01 2.032831e+01 1.698485e+01 1.059209e-01 3.209313e-01 4.026171e-01 6.840670e-01 7.650245e-01 6.648574e-01 1.135358e+00 5.468134e-01 8.069434e-01 8.167134e-01 7.843207e-01 7.112873e-01 1.177879e-01
<GCONST> 6.925996e+01
<STATE> 4
<MEAN> 25
 9.652798e+00 1.639346e+00 -8.976775e+00 -1.031039e+01 -1.051757e+00 2.700482e+00 -1.939485e+00 4.096446e+00 -7.051839e+00 3.602030e+00 -1.873134e+00 -3.128263e-01 -2.064363e-01 -1.340904e-01 1.843639e-01 5.616572e-01 2.227844e-01 -4.684504e-01 -5.225983e-01 5.241260e-03 3.842637e-01 2.585743e-01 -4.711031e-02 -1.891126e-01 -8.736990e-02
<VARIANCE> 25
 5.234635e+00 1.915249e+01 1.329571e+01 4.501014e+01 2.558772e+01 2.489245e+01 3.314718e+01 1.961505e+01 2.111938e+01 1.956756e+01 3.882331e+01 2.003425e+01 1.747100e-01 4.976377e-01 5.002647e-01 9.900091e-01 8.938944e-01 8.670468e-01 1.160915e+00 9.574305e-01 1.251208e+00 9.347544e-01 7.258221e-01 7.629040e-01 1.623453e-01
<GCONST> 7.701668e+01
<TRANSP> 5
 0.000000e+00 1.000000e+00 0.000000e+00 0.000000e+00 0.000000e+00
 0.000000e+00 7.471265e-01 2.528735e-01 0.000000e+00 0.000000e+00
 0.000000e+00 0.000000e+00 8.591247e-01 1.408753e-01 0.000000e+00
 0.000000e+00 0.000000e+00 0.000000e+00 8.870099e-01 1.129901e-01
 0.000000e+00 0.000000e+00 0.000000e+00 0.000000e+00 0.000000e+00
<ENDHMM>
~h "aw"
<BEGINHMM>
<NUMSTATES> 5
<STATE> 2
<MEAN> 25
 4.273434e+00 -4.095927e+00 -5.501367e+00 -2.092812e+00 3.898317e+00 5.593228e-02 1.041431e+00 6.396579e+00 1.410633e+00 -1.383365e+00 -6.439273e+00 -9.973295e-01 1.968923e+00 -7.238078e-01 -1.486147e+00 -9.178270e-01 1.269590e+00 6.935416e-01 -4.147134e-01 1.198928e+00 -7.520853e-01 -1.132446e+00 -1.995544e+00 -4.029952e-01 1.408985e+00
<VARIANCE> 25
 2.946922e+01 4.463750e+01 2.763076e+01 2.386367e+01 5.500354e+01 2.807033e+01 4.282170e+01 3.967098e+01 2.920854e+01 3.608446e+01 3.763663e+01 2.135581e+01 2.595837e+00 1.593845e+00 1.526655e+00 2.191779e+00 3.187802e+00 2.362551e+00 2.284505e+00 3.558753e+00 2.299323e+00 4.292798e+00 3.447285e+00 1.315127e+00 1.670527e+00
<GCONST> 9.910622e+01
<STATE> 3
<MEAN> 25
 8.649922e+00 -5.758750e+00 -8.906665e+00 -5.360854e+00 8.967031e+00 1.558882e+00 -1.057691e+00 5.754027e+00 -3.065052e+00 -2.860823e+00 -1.047784e+01 -7.057689e-01 1.555863e-01 -7.235587e-02 -3.184142e-02 -6.062590e-01 3.570297e-01 5.546579e-01 -2.467660e-02 -2.610533e-01 -8.087035e-01 2.107311e-01 1.323456e-01 -9.003883e-02 1.061317e-01
<VARIANCE> 25
 2.749293e+00 1.579473e+01 9.885141e+00 1.678436e+01 2.644959e+01 1.577637e+01 1.696864e+01 1.847191e+01 1.775509e+01 1.593422e+01 2.208049e+01 1.422010e+01 3.033207e-01 5.507997e-01 4.488851e-01 8.116302e-01 1.246111e+00 9.706823e-01 9.036605e-01 8.822372e-01 8.779414e-01 1.025665e+00 1.210243e+00 7.243891e-01 1.964645e-01
<GCONST> 7.330621e+01
<STATE> 4
<MEAN> 25
 9.770513e+00 -1.856689e+00 -7.773174e+00 -7.541372e+00 2.736876e+00 4.398263e+00 -1.073792e+00 2.312484e+00 -4.188929e+00 1.959301e-01 -3.077737e+00 -2.022916e+00 -1.119112e-01 3.856122e-01 3.162250e-01 3.515431e-01 -5.016307e-01 -3.808649e-01 -3.005235e-01 -2.638510e-01 2.587683e-01 2.562669e-01 3.902640e-01 -4.498094e-02 -2.541608e-01
<VARIANCE> 25
 2.892831e+00 1.577531e+01 7.593324e+00 1.450271e+01 2.539114e+01 2.438265e+01 2.627308e+01 1.724267e+01 1.665940e+01 2.457244e+01 1.564741e+01 1.623176e+01 1.856140e-01 3.036508e-01 3.486248e-01 7.633814e-01 1.001165e+00 8.297685e-01 1.159579e+00 9.268935e-01 9.135811e-01 8.381416e-01 8.646663e-01 8.059425e-01 1.081435e-01
<GCONST> 7.139986e+01
<TRANSP> 5
 0.000000e+00 1.000000e+00 0.000000e+00 0.000000e+00 0.000000e+00
 0.000000e+00 6.774439e-01 3.225561e-01 0.000000e+00 0.000000e+00
 0.000000e+00 0.000000e+00 8.586632e-01 1.413368e-01 0.000000e+00
 0.000000e+00 0.000000e+00 0.000000e+00 9.300538e-01 6.994621e-02
 0.000000e+00 0.000000e+00 0.000000e+00 0.000000e+00 0.000000e+00
<ENDHMM>
~h "ay"
<BEGINHMM>
<NUMSTATES> 5
<STATE> 2
<MEAN> 25
 7.265753e+00 -1.631195e+00 -7.556386e+00 -5.992737e+00 3.112922e+00 2.903230e+00 1.271649e+00 2.963512e+00 -1.162682e+00 -1.210956e+00 -5.507950e+00 -3.568934e-01 8.640187e-01 -9.169610e-01 -1.166710e+00 -8.509678e-01 1.144702e+00 7.474910e-01 -2.993048e-01 8.030678e-01 -6.831890e-01 -2.563582e-01 -9.688325e-01 -3.534513e-01 9.338444e-01
<VARIANCE> 25
 2.281925e+01 2.550097e+01 1.982390e+01 3.657315e+01 2.796957e+01 2.724478e+01 2.524590e+01 3.375343e+01 2.425670e+01 2.679487e+01 3.741917e+01 1.818116e+01 2.178876e+00 1.166160e+00 1.462670e+00 2.287804e+00 2.052525e+00 2.298160e+00 1.607982e+00 2.815659e+00 1.989048e+00 1.844424e+00 2.296825e+00 1.392176e+00 1.421389e+00
<GCONST> 9.329823e+01
<STATE> 3
<MEAN> 25
 8.765682e+00 -5.195621e+00 -9.001308e+00 -6.117775e+00 7.753813e+00 2.607096e+00 -7.147731e-01 6.438299e+00 -3.074144e+00 -2.693910e+00 -9.092157e+00 -1.426522e+00 -1.786764e-01 -2.065938e-01 4.046580e-01 3.136254e-01 -1.425913e-01 -5.812134e-01 -4.257942e-02 6.711493e-01 -5.459142e-03 -2.531659e-01 -2.988731e-01 1.530199e-02 7.850156e-02
<VARIANCE> 25
 4.915393e+00 1.118659e+01 1.069135e+01 1.948804e+01 1.987379e+01 2.370395e+01 2.275048e+01 2.238943e+01 1.554904e+01 2.290142e+01 1.930526e+01 1.855436e+01 1.258776e-01 3.313043e-01 4.849281e-01 5.384043e-01 1.226932e+00 1.108391e+00 7.165823e-01 1.041186e+00 8.197397e-01 7.626081e-01 8.213869e-01 6.677302e-01 7.213170e-02
<GCONST> 7.123254e+01
<STATE> 4
<MEAN> 25
 4.053535e+00 -7.703570e-01 3.575730e+00 -3.622394e+00 -3.810468e+00 -5.127905e+00 -1.790876e+00 6.508643e+00 -4.228132e+00 -1.419708e-01 -3.451606e+00 -1.524499e+00 -4.014507e-01 7.312669e-01 1.080167e+00 2.106354e-01 -8.731952e-01 -1.445949e-01 -3.456393e-01 -1.064705e+00 -1.761562e-01 5.870675e-01 1.025998e+00 -1.183283e-02 -4.376625e-01
<VARIANCE> 25
 6.822704e+00 1.660872e+01 2.794934e+01 1.651362e+01 2.445630e+01 1.747762e+01 2.911911e+01 5.135059e+01 1.455072e+01 2.856406e+01 3.011813e+01 1.446182e+01 2.174184e-01 5.430116e-01 1.368397e+00 8.324274e-01 1.906890e+00 1.186020e+00 1.676210e+00 1.937490e+00 1.016572e+00 1.588115e+00 1.404057e+00 9.005070e-01 1.535577e-01
<GCONST> 8.111353e+01
<TRANSP> 5
 0.000000e+00 1.000000e+00 0.000000e+00 0.000000e+00 0.000000e+00
 0.000000e+00 7.669011e-01 2.330989e-01 0.000000e+00 0.000000e+00
 0.000000e+00 0.000000e+00 9.105357e-01 8.946431e-02 0.000000e+00
 0.000000e+00 0.000000e+00 0.000000e+00 9.052795e-01 9.472051e-02
 0.000000e+00 0.000000e+00 0.000000e+00 0.000000e+00 0.000000e+00
<ENDHMM>
~h "ch"
<BEGINHMM>
<NUMSTATES> 5
<STATE> 2
<MEAN> 25
 -2.096883e+00 -2.657951e+00 1.010745e+00 2.975996e+00 4.352409e+00 3.670419e+00 3.801451e+00 1.143123e+00 3.099339e+00 2.305954e+00 -2.265501e-01 8.462005e-01 -1.154464e+00 -4.967037e-01 -6.988465e-01 -4.605320e-01 9.662593e-01 1.503800e-01 8.269702e-01 3.076402e-01 7.157869e-01 2.405856e-01 6.117398e-01 4.788336e-01 -8.281653e-02
<VARIANCE> 25
 8.600586e+00 2.177160e+01 1.563426e+01 1.934293e+01 2.475786e+01 2.970067e+01 2.683572e+01 3.306028e+01 2.865985e+01 2.236747e+01 1.734159e+01 1.667854e+01 1.583510e+00 1.759243e+00 1.187524e+00 3.784289e+00 3.008581e+00 5.256295e+00 3.095141e+00 3.855139e+00 3.024363e+00 2.528291e+00 1.839295e+00 2.101182e+00 1.941199e+00
<GCONST> 9.422668e+01
<STATE> 3
<MEAN> 25
 -1.494673e+01 -1.027249e+00 -7.460428e-01 -6.951768e+00 7.513966e+00 5.248366e-01 2.257543e+00 1.553045e+00 6.422886e+00 -1.364026e+00 4.489974e+00 2.404056e+00 -1.665857e+00 -2.138299e-02 4.721403e-01 -7.158372e-01 -5.829852e-01 2.087718e-01 -1.331860e-01 -4.021097e-01 8.664615e-01 -4.325619e-01 2.069616e-01 3.212382e-01 1.435207e+00
<VARIANCE> 25
 1.666862e+01 1.355544e+01 9.987758e+00 1.525231e+01 2.166579e+01 1.796768e+01 1.406430e+01 1.907789e+01 2.145765e+01 1.047128e+01 9.652156e+00 1.548985e+01 1.472516e+00 1.257160e+00 1.194038e+00 2.748680e+00 2.479670e+00 2.321257e+00 2.103676e+00 2.069147e+00 2.010628e+00 1.903900e+00 1.799493e+00 1.807806e+00 7.466475e-01
<GCONST> 8.562704e+01
<STATE> 4
<MEAN> 25
 -1.239531e+01 -3.959982e+00 4.773917e+00 -4.017838e+00 -5.874968e-01 2.021548e+00 2.867118e+00 -2.759776e+00 7.368935e+00 -1.234474e+00 2.661473e+00 3.565144e+00 2.050838e+00 9.283816e-02 8.864436e-01 6.447663e-01 -9.342719e-01 -3.881550e-01 -3.495799e-01 -5.859399e-02 -5.534991e-01 -2.069618e-01 -4.950755e-01 -2.241219e-01 -6.996225e-01
<VARIANCE> 25
 3.563528e+01 1.041036e+01 1.462018e+01 1.336338e+01 2.184959e+01 2.189101e+01 2.321899e+01 1.570634e+01 2.256932e+01 1.942189e+01 1.411584e+01 1.516231e+01 3.130302e+00 1.200528e+00 1.760957e+00 1.035950e+00 1.838779e+00 1.909146e+00 1.742641e+00 2.033455e+00 1.998749e+00 2.272752e+00 1.874458e+00 1.452316e+00 8.053778e-01
<GCONST> 8.740089e+01
<TRANSP> 5
 0.000000e+00 1.000000e+00 0.000000e+00 0.000000e+00 0.000000e+00
 0.000000e+00 8.288233e-01 1.711767e-01 0.000000e+00 0.000000e+00
 0.000000e+00 0.000000e+00 8.474484e-01 1.525516e-01 0.000000e+00
 0.000000e+00 0.000000e+00 0.000000e+00 8.684820e-01 1.315180e-01
 0.000000e+00 0.000000e+00 0.000000e+00 0.000000e+00 0.000000e+00
<ENDHMM>
~h "dh"
<BEGINHMM>
<NUMSTATES> 5
<STATE> 2
<MEAN> 25
 -3.261676e+00 -3.113617e+00 6.012225e-01 3.635003e+00 2.160618e+00 3.341902e+00 4.266752e+00 -1.566381e+00 3.198087e+00 2.535445e+00 2.477819e+00 2.033706e+00 -1.944134e-01 -2.145350e-01 -8.209843e-02 1.137777e-01 4.056412e-01 4.971057e-01 3.786597e-01 4.604589e-02 2.394001e-01 7.424349e-02 -9.815454e-03 2.921670e-02 -2.962739e-01
<VARIANCE> 25
 1.191933e+01 1.334961e+01 1.511957e+01 1.233892e+01 1.961113e+01 3.216697e+01 3.642718e+01 2.614946e+01 1.931140e+01 2.387815e+01 1.928025e+01 1.669023e+01 1.090863e+00 1.136688e+00 1.271021e+00 8.739935e-01 1.700029e+00 2.532439e+00 2.838951e+00 1.868946e+00 2.053367e+00 1.994814e+00 1.718820e+00 1.561768e+00 5.377928e-01
<GCONST> 8.668514e+01
<STATE> 3
<MEAN> 25
 -2.010065e-01 2.463650e+00 2.685207e+00 4.485749e+00 1.472989e+00 -1.326009e+00 -5.978429e-01 -3.981849e+00 1.563075e+00 -1.562984e+00 -1.363234e+00 -6.246591e-02 5.999542e-01 6.977999e-01 1.662922e-02 -2.970636e-02 -6.816701e-01 -1.052754e+00 -7.821442e-01 1.462138e-01 -1.127155e-01 -3.846512e-01 -1.583895e-01 -9.456748e-02 7.040976e-01
<VARIANCE> 25
 1.683632e+01 1.374547e+01 1.530351e+01 1.256802e+01 2.086699e+01 3.350297e+01 3.468016e+01 1.889414e+01 1.581274e+01 1.767114e+01 1.599453e+01 1.252700e+01 2.663021e+00 1.357215e+00 1.590409e+00 1.354568e+00 3.388553e+00 4.868495e+00 5.645004e+00 2.824766e+00 1.794091e+00 1.624330e+00 2.248180e+00 1.531138e+00 1.050024e+00
<GCONST> 9.059740e+01
<STATE> 4
<MEAN> 25
 4.071556e+00 2.986425e+00 9.390271e-02 1.491136e+00 -7.411932e+00 -9.617511e+00 -7.996712e+00 5.763531e+00 7.980845e-01 -1.837939e+00 -1.384564e+00 -4.114964e-01 -2.639568e-02 -1.515449e-01 1.667719e-04 -1.727591e-01 -3.437641e-02 -2.607844e-02 -3.623500e-03 4.110469e-01 -1.064335e-01 2.295709e-01 -8.284735e-02 -1.008423e-01 6.218558e-02
<VARIANCE> 25
 4.154421e+00 6.012256e+00 1.256991e+01 1.285653e+01 2.257619e+01 2.490642e+01 2.110169e+01 4.301629e+01 1.338653e+01 2.080143e+01 1.741786e+01 1.254035e+01 4.042251e-01 2.346302e-01 4.724762e-01 5.069228e-01 1.316749e+00 9.693630e-01 1.318398e+00 1.364452e+00 6.960738e-01 8.080033e-01 7.457367e-01 6.447011e-01 3.427694e-01
<GCONST> 7.307673e+01
<TRANSP> 5
 0.000000e+00 1.000000e+00 0.000000e+00 0.000000e+00 0.000000e+00
 0.000000e+00 7.673056e-01 2.326943e-01 0.000000e+00 0.000000e+00
 0.000000e+00 0.000000e+00 8.892422e-01 1.107578e-01 0.000000e+00
 0.000000e+00 0.000000e+00 0.000000e+00 9.002797e-01 9.972031e-02
 0.000000e+00 0.000000e+00 0.000000e+00 0.000000e+00 0.000000e+00
<ENDHMM>
~h "eh"
<BEGINHMM>
<NUMSTATES> 5
<STATE> 2
<MEAN> 25
 4.392519e+00 -1.638512e+00 -1.742020e+00 -2.441164e+00 -2.142056e+00 -4.222547e+00 7.446328e-02 5.431690e+00 1.596525e-01 -7.526223e-01 -3.611227e+00 -3.172097e-01 1.130315e+00 -5.725881e-01 6.530233e-02 -8.510647e-01 -7.528895e-01 -1.050119e+00 1.126793e-01 2.453619e+00 -6.933669e-01 -5.147524e-01 -1.314116e+00 -3.603807e-01 1.253194e+00
<VARIANCE> 25
 2.651034e+01 2.349002e+01 4.827179e+01 2.679273e+01 3.685175e+01 4.125486e+01 3.641389e+01 4.438380e+01 2.558482e+01 2.657808e+01 3.691106e+01 2.344638e+01 2.592584e+00 1.867900e+00 1.966058e+00 2.819352e+00 4.643339e+00 3.117791e+00 3.329689e+00 3.677344e+00 2.511176e+00 2.626930e+00 2.594716e+00 2.624650e+00 1.815808e+00
<GCONST> 1.004150e+02
<STATE> 3
<MEAN> 25
 6.501171e+00 -3.642411e+00 -2.848345e+00 -4.150295e+00 -1.463559e+00 -5.715976e+00 2.558324e+00 1.124540e+01 -2.598344e+00 -3.842759e+00 -8.480755e+00 -1.005162e+00 -1.740103e-01 -2.748566e-02 4.447383e-01 -1.859232e-01 -1.664126e-01 -1.060702e-02 2.950623e-01 1.761136e-01 -5.733164e-01 7.678033e-02 -4.103768e-02 4.019413e-03 5.937573e-02
<VARIANCE> 25
 6.256333e+00 1.133209e+01 2.607727e+01 1.200777e+01 2.728304e+01 1.928836e+01 3.000264e+01 1.983177e+01 2.197799e+01 1.667927e+01 2.806030e+01 2.098119e+01 2.837775e-01 4.951986e-01 9.373708e-01 7.306519e-01 1.232616e+00 1.132397e+00 1.237645e+00 1.148647e+00 9.342563e-01 1.173105e+00 1.043072e+00 7.227508e-01 1.810893e-01
<GCONST> 7.733608e+01
<STATE> 4
<MEAN> 25
 4.247994e+00 -1.961775e-01 3.918773e+00 -5.386003e+00 -6.556931e+00 -5.825886e+00 8.623732e-01 8.173512e+00 -4.869715e+00 9.814152e-01 -5.097218e+00 -5.263399e-01 1.508238e-02 1.432051e-01 -4.383590e-02 2.887461e-01 7.120903e-02 1.044617e-01 -3.583935e-01 -3.741910e-01 1.097287e-01 2.937537e-01 -4.947614e-02 -1.322717e-02 -2.533232e-01
<VARIANCE> 25
 6.539528e+00 2.202377e+01 3.043759e+01 1.523274e+01 3.037494e+01 2.232820e+01 3.255283e+01 3.958700e+01 1.430263e+01 1.927497e+01 4.664367e+01 1.609561e+01 1.893002e-01 4.999049e-01 6.850006e-01 8.059065e-01 8.195544e-01 9.574471e-01 1.056463e+00 1.618911e+00 8.812776e-01 1.083515e+00 1.085315e+00 7.817778e-01 2.472878e-01
<GCONST> 7.871182e+01
<TRANSP> 5
 0.000000e+00 1.000000e+00 0.000000e+00 0.000000e+00 0.000000e+00
 0.000000e+00 6.282945e-01 3.717056e-01 0.000000e+00 0.000000e+00
 0.000000e+00 0.000000e+00 8.086102e-01 1.913898e-01 0.000000e+00
 0.000000e+00 0.000000e+00 0.000000e+00 8.708391e-01 1.291609e-01
 0.000000e+00 0.000000e+00 0.000000e+00 0.000000e+00 0.000000e+00
<ENDHMM>
~h "er"
<BEGINHMM>
<NUMSTATES> 5
<STATE> 2
<MEAN> 25
 7.708928e+00 -4.092462e-03 -4.888374e-01 1.236103e-01 -5.028696e+00 -6.291530e+00 -6.571456e+00 3.044970e+00 1.823294e+00 -1.842944e+00 -1.616227e-01 1.196090e+00 1.238098e+00 -9.527821e-01 -4.793730e-01 4.540383e-01 -6.018007e-01 -1.145496e+00 -1.011631e+00 1.384042e+00 5.001775e-01 -3.415328e-01 -2.542171e-01 1.946101e-01 3.486777e-01
<VARIANCE> 25
 1.327140e+01 1.822443e+01 5.533161e+01 2.195075e+01 2.223925e+01 3.172971e+01 3.052792e+01 3.381846e+01 2.588745e+01 1.944776e+01 2.814211e+01 1.677734e+01 1.862561e+00 9.674357e-01 1.672491e+00 1.414070e+00 2.026786e+00 1.896578e+00 2.599587e+00 2.101088e+00 1.839207e+00 1.375048e+00 1.566051e+00 1.591905e+00 5.485245e-01
<GCONST> 9.014973e+01
<STATE> 3
<MEAN> 25
 9.582466e+00 -3.694526e+00 -4.689670e-01 3.445622e+00 -5.439141e+00 -1.296318e+01 -7.570354e+00 8.799100e+00 2.598613e+00 -4.143799e+00 -6.712306e-01 3.818636e+00 -9.309060e-02 -4.470554e-02 2.393007e-01 1.156397e-01 -1.132569e-01 -2.378381e-01 1.114448e-01 3.735627e-02 -7.854576e-02 -2.678911e-02 4.106235e-02 1.129273e-01 -1.307095e-01
<VARIANCE> 25
 3.952042e+00 6.167412e+00 2.560690e+01 1.262489e+01 1.184804e+01 1.856391e+01 2.513244e+01 1.633713e+01 1.978796e+01 1.121168e+01 2.092854e+01 1.201411e+01 1.080240e-01 2.129781e-01 5.884681e-01 4.406202e-01 5.620543e-01 7.728112e-01 7.439524e-01 8.104400e-01 7.409779e-01 7.092565e-01 6.545714e-01 5.647889e-01 6.584218e-02
<GCONST> 6.643869e+01
<STATE> 4
<MEAN> 25
 4.793225e+00 -3.224544e+00 2.277129e+00 3.020306e+00 -4.580734e+00 -8.356707e+00 -4.178097e+00 4.154809e+00 2.762028e+00 -1.577260e+00 -4.649973e-01 2.945852e+00 -9.868107e-01 1.847338e-01 1.668766e-01 6.580735e-03 8.341855e-01 1.381434e+00 6.320083e-01 -1.021140e+00 -9.647077e-04 5.090974e-01 1.125491e-01 -2.121698e-01 -7.959708e-01
<VARIANCE> 25
 1.632781e+01 1.186697e+01 2.486678e+01 1.899472e+01 2.150540e+01 3.026197e+01 3.296305e+01 2.713754e+01 2.243527e+01 1.698470e+01 2.035085e+01 1.504669e+01 8.153282e-01 8.093110e-01 1.065530e+00 1.318542e+00 1.616441e+00 1.972991e+00 2.027473e+00 1.754572e+00 1.432494e+00 1.251110e+00 1.670195e+00 1.426891e+00 5.051281e-01
<GCONST> 8.543497e+01
<TRANSP> 5
 0.000000e+00 1.000000e+00 0.000000e+00 0.000000e+00 0.000000e+00
 0.000000e+00 7.785736e-01 2.214264e-01 0.000000e+00 0.000000e+00
 0.000000e+00 0.000000e+00 9.289041e-01 7.109588e-02 0.000000e+00
 0.000000e+00 0.000000e+00 0.000000e+00 8.213764e-01 1.786235e-01
 0.000000e+00 0.000000e+00 0.000000e+00 0.000000e+00 0.000000e+00
<ENDHMM>
~h "ey"
<BEGINHMM>
<NUMSTATES> 5
<STATE> 2
<MEAN> 25
 4.040063e+00 5.443460e-01 2.134962e+00 -9.279153e-02 -5.065562e+00 -6.844410e+00 -2.745187e+00 4.725838e+00 -1.039116e+00 -6.157190e-01 1.655095e+00 4.647195e-02 4.836223e-02 -3.537390e-02 1.337273e+00 -7.767470e-01 -1.965181e+00 -8.512080e-01 4.892649e-03 1.714932e+00 -8.581812e-01 4.616864e-02 5.868080e-01 -3.460002e-01 9.835766e-01
<VARIANCE> 25
 1.965917e+01 1.528354e+01 3.304045e+01 2.831271e+01 3.036051e+01 4.454726e+01 4.599661e+01 5.933807e+01 2.591151e+01 3.215668e+01 2.804267e+01 1.540470e+01 2.011538e+00 1.220986e+00 1.972088e+00 3.967500e+00 3.310603e+00 4.624683e+00 4.245178e+00 5.407811e+00 2.897870e+00 2.853317e+00 2.684479e+00 1.887814e+00 1.793889e+00
<GCONST> 9.954622e+01
<STATE> 3
<MEAN> 25
 3.321497e+00 2.747462e+00 8.967495e+00 -4.356994e+00 -1.110461e+01 -6.164417e+00 -1.766773e+00 4.590166e+00 -4.313885e+00 2.438767e+00 2.593552e+00 -1.546410e+00 -3.373028e-01 4.157625e-01 7.059062e-01 -3.182502e-01 -2.424569e-01 5.494853e-01 -3.352141e-01 -7.859313e-01 -2.276784e-01 4.185619e-01 1.408925e-01 -3.327243e-01 -1.275181e-01
<VARIANCE> 25
 3.496216e+00 6.702808e+00 1.351230e+01 1.655386e+01 1.384852e+01 2.006357e+01 2.359003e+01 1.875096e+01 1.822976e+01 1.956702e+01 2.336571e+01 1.201846e+01 1.797691e-01 4.054483e-01 5.953695e-01 6.576223e-01 6.767290e-01 1.088964e+00 9.182742e-01 1.444683e+00 9.426343e-01 1.003757e+00 8.889329e-01 8.310415e-01 1.291843e-01
<GCONST> 7.176131e+01
<STATE> 4
<MEAN> 25
 1.060665e+00 7.263453e+00 1.106754e+01 -3.820392e+00 -8.771287e+00 -2.015894e+00 -7.762766e+00 -3.191437e+00 -5.090581e+00 -8.335488e-01 4.570828e+00 -4.672816e+00 -6.224135e-02 8.061790e-02 -2.441816e-01 3.988955e-01 3.593246e-01 1.643250e-01 3.275662e-02 -4.131895e-01 6.566554e-02 -1.860971e-01 -3.713524e-02 7.130817e-03 -3.293817e-01
<VARIANCE> 25
 3.502594e+00 9.239006e+00 9.189524e+00 1.925444e+01 2.901966e+01 1.706541e+01 1.993275e+01 1.783200e+01 1.609227e+01 2.814442e+01 1.999524e+01 1.743181e+01 1.720377e-01 4.646915e-01 4.605138e-01 7.878800e-01 1.231556e+00 8.422509e-01 1.231064e+00 1.022203e+00 1.031642e+00 1.007862e+00 9.586728e-01 1.045235e+00 2.080271e-01
<GCONST> 7.384466e+01
<TRANSP> 5
 0.000000e+00 1.000000e+00 0.000000e+00 0.000000e+00 0.000000e+00
 0.000000e+00 6.927891e-01 3.072109e-01 0.000000e+00 0.000000e+00
 0.000000e+00 0.000000e+00 8.629436e-01 1.370564e-01 0.000000e+00
 0.000000e+00 0.000000e+00 0.000000e+00 9.354755e-01 6.452446e-02
 0.000000e+00 0.000000e+00 0.000000e+00 0.000000e+00 0.000000e+00
<ENDHMM>
~h "hh"
<BEGINHMM>
<NUMSTATES> 5
<STATE> 2
<MEAN> 25
 -1.525954e+00 -1.805764e+00 1.263064e+00 1.316823e+00 1.696517e+00 2.598441e+00 4.430218e+00 2.370075e+00 1.066959e+00 1.122910e+00 -4.241170e-01 4.449197e-01 -5.200499e-01 -7.525114e-01 -2.837001e-01 -2.839923e-01 9.883952e-01 7.021800e-01 1.371702e+00 8.317457e-01 3.201701e-01 -3.963539e-01 4.275796e-02 3.302630e-01 1.368496e-01
<VARIANCE> 25
 1.375433e+01 2.361971e+01 2.088418e+01 2.029659e+01 3.479776e+01 3.341457e+01 4.438696e+01 4.558982e+01 2.669092e+01 3.195652e+01 3.404991e+01 2.064041e+01 9.751242e-01 1.829600e+00 1.755662e+00 2.378370e+00 2.521739e+00 3.036263e+00 4.350152e+00 3.997796e+00 2.730517e+00 3.245155e+00 2.792273e+00 2.257744e+00 1.207932e+00
<GCONST> 9.686625e+01
<STATE> 3
<MEAN> 25
 -3.669072e+00 -6.387551e+00 -2.519025e+00 -1.582052e+00 5.537838e+00 4.210579e+00 8.122431e+00 4.469266e+00 1.255043e+00 -2.679066e+00 -5.137644e-01 2.687227e+00 -1.014002e-02 -4.808307e-04 -1.209918e-01 1.328553e-02 1.143526e-01 -6.313270e-02 -2.422298e-01 -1.941226e-01 -4.343278e-01 -4.014196e-01 -1.647995e-01 3.038047e-02 2.320433e-01
<VARIANCE> 25
 1.185357e+01 3.588086e+01 3.726245e+01 2.192517e+01 3.571272e+01 2.039605e+01 4.924944e+01 5.418856e+01 2.535649e+01 2.884750e+01 2.299424e+01 2.275115e+01 5.052660e-01 1.000776e+00 1.089364e+00 9.532962e-01 1.340503e+00 1.385078e+00 1.687083e+00 2.022757e+00 1.652122e+00 1.724276e+00 1.608084e+00 1.479478e+00 2.716274e-01
<GCONST> 8.785294e+01
<STATE> 4
<MEAN> 25
 -1.866099e+00 1.403128e+00 1.731922e+00 9.680028e-02 3.615323e+00 2.566582e+00 5.343759e-01 -1.665617e+00 -5.131426e-01 -3.119768e+00 8.013918e-01 -1.034413e+00 6.727794e-01 7.754855e-01 5.421083e-01 2.895314e-01 -2.773286e-01 -3.197528e-01 -6.094618e-01 -1.705491e-01 -4.112180e-01 -1.312519e-01 -1.645367e-01 -3.457219e-01 2.383636e-01
<VARIANCE> 25
 3.644456e+01 5.470586e+01 4.394983e+01 2.323890e+01 4.771367e+01 2.322827e+01 4.201988e+01 4.997136e+01 2.182584e+01 2.794746e+01 3.356871e+01 2.762792e+01 1.559924e+00 1.469562e+00 1.412138e+00 1.685397e+00 1.877164e+00 1.451618e+00 2.235842e+00 1.700511e+00 2.167114e+00 1.586764e+00 1.845386e+00 2.010843e+00 4.144062e-01
<GCONST> 9.407972e+01
<TRANSP> 5
 0.000000e+00 1.000000e+00 0.000000e+00 0.000000e+00 0.000000e+00
 0.000000e+00 7.368609e-01 2.631391e-01 0.000000e+00 0.000000e+00
 0.000000e+00 0.000000e+00 7.240173e-01 2.759828e-01 0.000000e+00
 0.000000e+00 0.000000e+00 0.000000e+00 7.680918e-01 2.319082e-01
 0.000000e+00 0.000000e+00 0.000000e+00 0.000000e+00 0.000000e+00
<ENDHMM>
~h "ih"
<BEGINHMM>
<NUMSTATES> 5
<STATE> 2
<MEAN> 25
 -1.002236e+00 1.671494e+00 3.283579e+00 1.533373e-01 -8.005360e-01 -1.659075e+00 -1.883934e+00 -1.741687e+00 -4.072485e-01 9.414185e-02 9.190451e-01 -7.706261e-01 9.739898e-01 1.662103e+00 2.186063e+00 -7.914063e-01 -2.426088e+00 -1.473507e+00 -2.010165e+00 2.187982e-01 -1.779547e+00 -6.925495e-01 4.981263e-01 -1.471246e+00 1.389420e+00
<VARIANCE> 25
 2.921929e+01 3.093197e+01 2.919479e+01 3.255063e+01 3.042419e+01 4.696605e+01 4.396039e+01 4.093650e+01 2.602685e+01 2.567750e+01 2.019822e+01 2.413890e+01 2.596359e+00 2.622568e+00 2.368842e+00 4.152202e+00 3.308461e+00 2.910688e+00 4.772031e+00 4.437009e+00 3.663307e+00 2.849117e+00 2.495152e+00 2.708253e+00 1.635393e+00
<GCONST> 1.013343e+02
<STATE> 3
<MEAN> 25
 2.524638e+00 5.277988e+00 8.359116e+00 -5.792627e-01 -9.136366e+00 -5.525230e+00 -5.681701e+00 3.053165e-01 -6.250140e+00 -1.245152e+00 4.617492e+00 -4.022576e+00 1.108691e-01 8.728815e-01 1.406762e+00 -8.190228e-01 -1.480979e+00 5.924055e-01 -6.259141e-01 -1.862215e-01 -1.086624e+00 1.550790e-02 9.253383e-01 -9.622789e-01 4.230331e-01
<VARIANCE> 25
 8.842321e+00 1.614015e+01 1.589223e+01 2.817481e+01 2.064780e+01 4.252991e+01 2.605870e+01 4.809501e+01 2.342447e+01 2.872175e+01 2.016294e+01 2.189407e+01 1.226882e+00 9.969506e-01 1.040267e+00 1.367721e+00 2.238320e+00 2.163547e+00 2.958230e+00 2.793955e+00 1.985761e+00 2.185109e+00 1.749828e+00 1.527912e+00 7.072863e-01
<GCONST> 8.987321e+01
<STATE> 4
<MEAN> 25
 1.011969e+00 7.770359e+00 1.005679e+01 -2.658353e+00 -9.903610e+00 -1.558472e+00 -6.479238e+00 -3.361870e+00 -5.434710e+00 -1.629967e+00 5.319245e+00 -5.432651e+00 6.410421e-02 -9.908408e-02 -2.280720e-01 3.103880e-01 4.917546e-02 -1.525747e-01 2.269857e-01 -8.773102e-02 9.375088e-02 8.240530e-02 -1.396540e-01 2.606179e-01 -8.076254e-02
<VARIANCE> 25
 4.841166e+00 1.253007e+01 1.076292e+01 1.809982e+01 2.501231e+01 2.632405e+01 2.642486e+01 2.591188e+01 1.587624e+01 2.743911e+01 1.915805e+01 1.915517e+01 2.223277e-01 4.813746e-01 5.701053e-01 9.852378e-01 1.557304e+00 1.079885e+00 1.029834e+00 1.308975e+00 9.775941e-01 1.025649e+00 1.007648e+00 1.148150e+00 2.730588e-01
<GCONST> 7.718246e+01
<TRANSP> 5
 0.000000e+00 1.000000e+00 0.000000e+00 0.000000e+00 0.000000e+00
 0.000000e+00 6.075270e-01 3.924730e-01 0.000000e+00 0.000000e+00
 0.000000e+00 0.000000e+00 5.549155e-01 4.450845e-01 0.000000e+00
 0.000000e+00 0.000000e+00 0.000000e+00 8.901413e-01 1.098588e-01
 0.000000e+00 0.000000e+00 0.000000e+00 0.000000e+00 0.000000e+00
<ENDHMM>
~h "iy"
<BEGINHMM>
<NUMSTATES> 5
<STATE> 2
<MEAN> 25
 5.498106e-01 5.006158e+00 6.389136e+00 3.294086e+00 -2.110075e+00 -4.176371e+00 -4.007631e+00 -4.489321e+00 -2.504179e+00 -3.174035e+00 1.783885e+00 -1.300990e+00 2.465675e-01 1.247908e+00 1.513868e+00 -5.211045e-01 -1.611211e+00 -9.811983e-02 -1.239981e+00 -2.668581e-01 -1.168125e+00 -7.217644e-01 1.185766e+00 -1.190138e+00 5.537602e-01
<VARIANCE> 25
 2.030326e+01 1.684897e+01 2.095175e+01 2.399554e+01 4.741917e+01 3.748211e+01 3.386072e+01 3.572845e+01 3.145563e+01 1.970194e+01 2.125959e+01 1.789444e+01 2.157876e+00 1.811120e+00 1.722110e+00 2.397050e+00 3.349341e+00 3.484202e+00 4.446619e+00 3.491627e+00 3.348303e+00 3.020056e+00 2.331218e+00 2.320017e+00 8.245905e-01
<GCONST> 9.674297e+01
<STATE> 3
<MEAN> 25
 -6.823008e-01 6.711344e+00 9.944031e+00 1.339028e+00 -2.406976e+00 -2.301798e+00 -6.558364e+00 -6.641375e+00 -3.654095e+00 -4.514279e+00 3.750485e+00 -4.400250e+00 -9.815219e-02 6.654374e-01 3.040510e-01 -5.979255e-01 -3.106553e-01 4.080200e-01 -6.145735e-01 3.095620e-02 -2.280324e-01 -2.067341e-01 4.678773e-01 -7.943394e-01 -2.117981e-02
<VARIANCE> 25
 1.015379e+01 1.574777e+01 1.100269e+01 1.330768e+01 5.348376e+01 1.847591e+01 1.678962e+01 2.519209e+01 1.909698e+01 2.093863e+01 1.647843e+01 1.656335e+01 4.646491e-01 6.096078e-01 6.249940e-01 8.133398e-01 1.496248e+00 1.566437e+00 1.180165e+00 1.595388e+00 1.273473e+00 1.195481e+00 1.371996e+00 1.404073e+00 2.125164e-01
<GCONST> 7.962518e+01
<STATE> 4
<MEAN> 25
 -7.490212e-01 9.697153e+00 9.496989e+00 -1.328662e+00 -4.263318e+00 -1.057184e+00 -8.450858e+00 -5.779303e+00 -4.104265e+00 -5.956800e+00 6.425689e+00 -7.920598e+00 1.888677e-02 -2.382773e-01 -1.621821e-01 1.030064e-01 -1.457290e-02 -8.454331e-02 1.701696e-01 -2.721374e-02 1.497705e-02 2.084370e-01 -1.272538e-01 2.086058e-01 -1.565557e-01
<VARIANCE> 25
 3.537354e+00 1.211290e+01 9.556845e+00 1.120226e+01 3.063398e+01 1.426934e+01 1.934143e+01 1.589685e+01 1.672500e+01 2.472910e+01 1.727925e+01 1.946892e+01 1.858571e-01 5.675699e-01 4.293578e-01 7.004774e-01 1.399004e+00 9.220607e-01 1.082979e+00 1.007294e+00 1.009759e+00 1.125399e+00 1.028924e+00 1.241535e+00 1.973851e-01
<GCONST> 7.367084e+01
<TRANSP> 5
 0.000000e+00 1.000000e+00 0.000000e+00 0.000000e+00 0.000000e+00
 0.000000e+00 6.133217e-01 3.866783e-01 0.000000e+00 0.000000e+00
 0.000000e+00 0.000000e+00 7.747281e-01 2.252719e-01 0.000000e+00
 0.000000e+00 0.000000e+00 0.000000e+00 9.412456e-01 5.875445e-02
 0.000000e+00 0.000000e+00 0.000000e+00 0.000000e+00 0.000000e+00
<ENDHMM>
~h "jh"
<BEGINHMM>
<NUMSTATES> 5
<STATE> 2
<MEAN> 25
 7.688346e-01 2.962788e+00 5.428548e+00 4.490024e+00 2.615666e+00 2.027061e+00 1.969071e-01 -4.183714e+00 -1.429784e+00 -1.529349e+00 -9.931514e-02 -9.840204e-01 -8.226802e-01 -6.973517e-01 -4.855698e-01 1.528243e-01 1.471824e+00 1.057127e+00 1.021138e+00 4.840885e-01 5.969297e-01 3.521503e-01 -2.534072e-01 2.077824e-01 -5.343226e-01
<VARIANCE> 25
 8.191978e+00 1.263337e+01 8.017857e+00 1.182056e+01 2.225236e+01 3.169812e+01 2.883740e+01 1.900632e+01 2.191649e+01 1.627834e+01 1.757570e+01 1.359420e+01 1.498885e+00 1.407523e+00 1.040494e+00 2.828956e+00 2.138921e+00 2.526072e+00 2.694749e+00 2.635516e+00 1.607332e+00 1.724432e+00 1.907959e+00 1.845202e+00 1.273503e+00
<GCONST> 8.734970e+01
<STATE> 3
<MEAN> 25
 -9.277102e+00 2.235848e+00 1.039279e-02 -2.676221e+00 8.253083e+00 1.376940e+00 2.600266e+00 9.424987e-01 2.772794e+00 -4.800984e-01 1.593802e+00 1.304503e+00 -2.181245e+00 4.534343e-01 -2.188678e-01 -1.506834e+00 -4.600886e-02 -8.698265e-01 -4.544869e-01 -2.986275e-02 6.152430e-01 -3.494674e-01 3.567130e-01 3.181168e-01 1.701212e+00
<VARIANCE> 25
 3.058435e+01 1.857248e+01 2.920258e+01 3.210636e+01 2.206743e+01 3.107528e+01 1.831860e+01 2.522076e+01 1.759393e+01 2.747504e+01 1.402870e+01 1.628698e+01 2.442292e+00 1.477337e+00 3.410703e+00 3.731517e+00 3.129180e+00 3.240353e+00 1.976993e+00 3.712708e+00 1.529599e+00 2.111731e+00 1.340139e+00 1.642510e+00 1.424196e+00
<GCONST> 9.386263e+01
<STATE> 4
<MEAN> 25
 -1.110456e+01 -2.815782e+00 5.339244e+00 -2.456559e+00 4.688165e-02 2.583791e+00 2.665369e+00 -4.614046e+00 5.140613e+00 3.237735e-01 7.875990e-01 2.172513e+00 1.086057e+00 -2.863913e-01 6.052541e-01 5.431903e-01 -8.726609e-01 -2.202358e-01 -1.850397e-01 -2.819933e-01 -2.663384e-01 2.324992e-01 -1.439737e-01 6.845312e-02 -3.784814e-01
<VARIANCE> 25
 3.343442e+01 4.201176e+01 3.292729e+01 2.618959e+01 3.165259e+01 4.065154e+01 3.017042e+01 2.076954e+01 1.881796e+01 2.757394e+01 1.251576e+01 1.154175e+01 3.241143e+00 9.665177e-01 2.137661e+00 1.260164e+00 3.949942e+00 3.320248e+00 3.372896e+00 2.726716e+00 1.692329e+00 1.671704e+00 1.194295e+00 1.263553e+00 1.221864e+00
<GCONST> 9.335622e+01
<TRANSP> 5
 0.000000e+00 1.000000e+00 0.000000e+00 0.000000e+00 0.000000e+00
 0.000000e+00 8.091103e-01 1.908897e-01 0.000000e+00 0.000000e+00
 0.000000e+00 0.000000e+00 7.932490e-01 2.067511e-01 0.000000e+00
 0.000000e+00 0.000000e+00 0.000000e+00 8.609880e-01 1.390120e-01
 0.000000e+00 0.000000e+00 0.000000e+00 0.000000e+00 0.000000e+00
<ENDHMM>
~h "ng"
<BEGINHMM>
<NUMSTATES> 5
<STATE> 2
<MEAN> 25
 1.226088e+00 7.226271e+00 9.987287e+00 -4.243317e+00 -7.239488e+00 9.778725e-01 -7.020821e+00 -3.520588e+00 -4.949213e+00 -2.463972e+00 5.227159e+00 -6.021139e+00 -5.930887e-02 -3.155364e-02 -4.419988e-02 -5.456887e-02 4.219126e-01 4.670946e-01 6.566102e-02 -1.001498e-01 1.832009e-02 -1.283730e-01 8.785200e-02 -1.897800e-01 -1.917673e-01
<VARIANCE> 25
 5.284576e+00 6.581273e+00 9.918133e+00 1.312764e+01 1.737174e+01 1.775778e+01 2.109957e+01 1.569501e+01 1.453059e+01 2.346508e+01 1.803920e+01 1.838389e+01 6.919531e-02 1.821249e-01 2.707216e-01 5.070399e-01 6.698492e-01 7.375752e-01 7.276050e-01 7.031346e-01 7.955016e-01 5.980863e-01 6.717619e-01 6.081758e-01 6.670219e-02
<GCONST> 6.545461e+01
<STATE> 3
<MEAN> 25
 3.168789e+00 3.891814e+00 5.536150e+00 8.824410e-01 -3.174070e+00 2.469728e+00 -2.004341e+00 -4.950990e+00 -5.523851e+00 -1.707874e+00 2.665451e+00 -5.291581e+00 2.963541e-01 -3.365832e-01 -5.281423e-01 7.411425e-01 1.674855e-01 -1.831387e-01 5.148110e-01 -3.689015e-01 1.270984e-01 -6.530737e-02 -5.062781e-01 4.479673e-01 -3.893119e-01
<VARIANCE> 25
 3.208347e+00 5.438449e+00 1.015740e+01 1.383006e+01 1.075246e+01 1.163184e+01 1.330688e+01 1.275547e+01 1.174231e+01 1.755892e+01 1.466803e+01 1.198672e+01 1.734901e-01 2.744518e-01 5.308015e-01 6.657983e-01 8.419673e-01 7.482556e-01 9.660970e-01 8.024309e-01 9.791314e-01 1.064332e+00 9.499678e-01 9.585113e-01 8.410770e-02
<GCONST> 6.688310e+01
<STATE> 4
<MEAN> 25
 1.935011e+00 1.367684e+00 3.839567e+00 3.747018e+00 7.266353e-01 2.633779e+00 1.036372e+00 -5.674987e+00 -2.918609e+00 -9.644565e-01 -3.265125e-01 -1.143925e+00 -5.939765e-01 -5.099294e-01 -1.846732e-01 1.408461e-01 6.821145e-01 3.145991e-01 4.282233e-01 3.271760e-01 5.061634e-01 3.113720e-01 -7.809988e-02 4.300844e-01 -4.322906e-01
<VARIANCE> 25
 1.079310e+01 1.100779e+01 9.266793e+00 9.652846e+00 1.539716e+01 1.908076e+01 1.973699e+01 1.479723e+01 1.551782e+01 1.447833e+01 1.340890e+01 1.329225e+01 8.493064e-01 8.069435e-01 7.208724e-01 1.009328e+00 1.393066e+00 1.948285e+00 2.037942e+00 1.624153e+00 1.614949e+00 1.798985e+00 1.685325e+00 1.293803e+00 3.332749e-01
<GCONST> 7.942247e+01
<TRANSP> 5
 0.000000e+00 1.000000e+00 0.000000e+00 0.000000e+00 0.000000e+00
 0.000000e+00 8.907617e-01 1.092383e-01 0.000000e+00 0.000000e+00
 0.000000e+00 0.000000e+00 8.694147e-01 1.305853e-01 0.000000e+00
 0.000000e+00 0.000000e+00 0.000000e+00 8.748997e-01 1.251003e-01
 0.000000e+00 0.000000e+00 0.000000e+00 0.000000e+00 0.000000e+00
<ENDHMM>
~h "ow"
<BEGINHMM>
<NUMSTATES> 5
<STATE> 2
<MEAN> 25
 9.202257e+00 8.313580e-01 -7.214477e+00 -6.858002e+00 4.254974e-01 1.410580e+00 -3.689635e+00 2.569536e+00 -3.987225e+00 1.398072e+00 -2.636635e+00 -2.248583e-01 7.450095e-01 1.410255e-01 -8.424063e-01 -1.066831e+00 -4.898656e-01 7.927298e-01 -1.172191e-01 4.737417e-01 -7.453061e-01 1.922227e-02 2.407430e-01 1.681410e-01 3.509142e-01
<VARIANCE> 25
 8.901961e+00 1.441202e+01 1.793753e+01 4.337327e+01 3.034755e+01 2.897351e+01 2.431568e+01 3.978746e+01 2.490328e+01 2.653796e+01 4.397437e+01 1.829354e+01 1.290466e+00 7.474422e-01 1.304570e+00 1.951431e+00 1.778164e+00 1.673716e+00 1.862161e+00 2.828402e+00 1.821649e+00 1.504091e+00 2.132260e+00 9.930769e-01 7.621928e-01
<GCONST> 8.943253e+01
<STATE> 3
<MEAN> 25
 1.034506e+01 4.107450e+00 -7.443290e+00 -8.856760e+00 -5.884315e+00 2.781602e+00 -2.774251e+00 1.000789e+00 -7.975144e+00 -4.212573e-03 1.703963e+00 1.436823e+00 -7.000799e-02 1.939732e-01 2.540046e-01 3.794776e-03 -3.607860e-01 -9.331387e-02 1.234432e-01 -4.523744e-02 -8.729677e-02 -4.937799e-02 -2.549430e-02 -1.068514e-02 -1.985937e-01
<VARIANCE> 25
 2.944741e+00 9.075384e+00 1.063120e+01 2.114102e+01 1.687577e+01 1.761258e+01 1.933573e+01 1.695910e+01 1.300634e+01 2.103011e+01 2.788236e+01 1.300518e+01 6.254774e-02 1.757462e-01 2.849421e-01 5.214671e-01 5.787433e-01 5.683355e-01 7.180271e-01 6.562616e-01 7.300270e-01 7.197790e-01 6.803703e-01 6.676772e-01 6.770214e-02
<GCONST> 6.523281e+01
<STATE> 4
<MEAN> 25
 8.007990e+00 5.265304e+00 -1.000360e+00 -3.449492e+00 -6.655036e+00 -2.352435e-02 -3.266164e+00 -3.048236e+00 -4.598747e+00 -5.216374e-01 1.152111e+00 4.688202e-01 -3.697323e-01 -1.755122e-01 4.651650e-01 6.967508e-01 4.440863e-01 -2.019724e-01 -1.145342e-01 -5.455262e-01 3.708216e-01 1.560004e-01 -3.846270e-02 -1.839773e-01 -3.061920e-01
<VARIANCE> 25
 3.821747e+00 5.392030e+00 1.213914e+01 1.916340e+01 2.020141e+01 1.438435e+01 1.950425e+01 2.162418e+01 2.020778e+01 2.048623e+01 1.635776e+01 1.554270e+01 2.001362e-01 2.936546e-01 5.138130e-01 7.990431e-01 1.045537e+00 1.215886e+00 1.196927e+00 1.049452e+00 1.257628e+00 1.026228e+00 1.051101e+00 9.465953e-01 1.250457e-01
<GCONST> 7.261711e+01
<TRANSP> 5
 0.000000e+00 1.000000e+00 0.000000e+00 0.000000e+00 0.000000e+00
 0.000000e+00 8.114681e-01 1.885320e-01 0.000000e+00 0.000000e+00
 0.000000e+00 0.000000e+00 9.129593e-01 8.704069e-02 0.000000e+00
 0.000000e+00 0.000000e+00 0.000000e+00 8.655868e-01 1.344132e-01
 0.000000e+00 0.000000e+00 0.000000e+00 0.000000e+00 0.000000e+00
<ENDHMM>
~h "oy"
<BEGINHMM>
<NUMSTATES> 5
<STATE> 2
<MEAN> 25
 -7.712939e-01 4.288303e+00 4.024112e-01 7.417840e+00 1.218285e+00 2.649635e+00 1.062807e-01 -4.272418e+00 -1.296413e+00 -3.788043e-01 -5.028763e-01 6.301404e-01 3.704008e-01 2.224627e-01 -5.544652e-01 7.486462e-02 -5.060508e-01 -1.066020e-01 -2.102929e-01 3.892259e-01 -1.688053e-01 -5.859445e-01 -1.725247e-01 2.610778e-01 5.167683e-01
<VARIANCE> 25
 2.217198e+01 7.259289e+00 1.324405e+01 2.206734e+01 6.883520e+00 1.934527e+01 2.684190e+01 1.001826e+01 1.280258e+01 1.340254e+01 5.398795e+00 7.979758e+00 4.984230e+00 1.321028e+00 1.081551e+00 3.477761e+00 2.209971e+00 4.458356e+00 3.589515e+00 1.115533e+00 9.452668e-01 8.759059e-01 8.383705e-01 4.200317e-01 4.013764e-01
<GCONST> 8.083903e+01
<STATE> 3
<MEAN> 25
 7.810923e+00 4.302845e+00 -2.076588e+00 -2.436745e+00 -4.794388e+00 5.297676e-01 -2.060657e+00 -1.278495e+00 -2.583346e+00 -3.924678e+00 2.234962e+00 2.143951e+00 2.162877e+00 -2.508433e-01 -1.150522e+00 -1.719092e+00 -1.481891e+00 4.967098e-02 -2.799856e-01 9.518758e-01 -6.820482e-01 6.158051e-01 6.171865e-01 -3.411677e-02 4.229942e-01
<VARIANCE> 25
 1.461815e+01 8.503803e+00 1.495460e+01 3.120792e+01 9.726108e+00 6.902881e+01 2.390319e+01 2.658084e+01 6.470518e+00 2.864818e+01 2.224242e+01 4.136491e+00 3.312556e+00 2.477166e+00 5.196933e-01 4.449077e+00 1.715578e+00 2.224838e+00 2.622879e+00 1.469834e+00 1.740670e+00 1.652362e+00 1.402102e+00 1.056543e+00 3.817970e-01
<GCONST> 8.574157e+01
<STATE> 4
<MEAN> 25
 8.526605e+00 4.627197e-01 -4.683699e+00 -5.236921e+00 -3.911738e+00 -3.036808e+00 -3.661669e+00 6.278084e+00 -6.543455e+00 3.267533e+00 -5.591893e-01 -1.744552e+00 -3.015707e-01 2.371723e-02 3.563881e-01 2.758385e-01 7.108091e-02 -1.520799e-01 -8.999848e-02 1.316091e-02 -9.305236e-02 1.862107e-02 -1.290456e-01 -9.502435e-02 -6.226090e-02
<VARIANCE> 25
 1.320029e+01 1.082295e+01 4.629133e+01 3.641611e+01 3.052256e+01 5.886958e+01 4.314544e+01 3.695129e+01 2.726838e+01 1.536876e+01 4.440732e+01 2.043344e+01 2.811641e-01 7.132133e-01 1.557495e+00 1.583471e+00 1.589338e+00 3.044842e+00 2.058110e+00 2.946782e+00 1.659781e+00 1.420222e+00 1.872242e+00 1.787370e+00 1.465560e-01
<GCONST> 8.887561e+01
<TRANSP> 5
 0.000000e+00 1.000000e+00 0.000000e+00 0.000000e+00 0.000000e+00
 0.000000e+00 7.473139e-01 2.526862e-01 0.000000e+00 0.000000e+00
 0.000000e+00 0.000000e+00 7.811229e-01 2.188771e-01 0.000000e+00
 0.000000e+00 0.000000e+00 0.000000e+00 9.532930e-01 4.670700e-02
 0.000000e+00 0.000000e+00 0.000000e+00 0.000000e+00 0.000000e+00
<ENDHMM>
~h "sh"
<BEGINHMM>
<NUMSTATES> 5
<STATE> 2
<MEAN> 25
 -6.685654e+00 2.418395e+00 4.586018e+00 7.813774e-01 1.788485e+00 -1.875642e+00 3.868003e-01 -1.481607e+00 2.177179e+00 -1.007093e+00 2.077402e+00 2.217746e+00 -2.964552e+00 -5.692095e-01 3.047793e-01 -4.898859e-01 1.309839e+00 1.107437e+00 1.809352e+00 -2.540495e-01 1.640478e+00 -1.955951e-01 4.083336e-01 7.988125e-01 7.097461e-01
<VARIANCE> 25
 6.673396e+01 2.350212e+01 2.473286e+01 3.013692e+01 4.736342e+01 3.831602e+01 5.799164e+01 5.290173e+01 3.845958e+01 2.792076e+01 2.225951e+01 1.452779e+01 2.961541e+00 2.204262e+00 3.590105e+00 4.149141e+00 4.457580e+00 3.705300e+00 4.578233e+00 4.535003e+00 3.219245e+00 3.074726e+00 1.824023e+00 1.490986e+00 7.576966e-01
<GCONST> 1.016389e+02
<STATE> 3
<MEAN> 25
 -1.728148e+01 -3.852135e+00 4.087359e+00 -4.910689e+00 3.082299e+00 2.812830e+00 5.073514e+00 -1.948337e+00 9.033780e+00 -2.039200e-01 3.009983e+00 4.235226e+00 -9.351771e-02 -2.743782e-01 -3.800140e-02 1.028604e-02 -3.059168e-01 -1.013136e-01 8.433506e-02 -2.353721e-01 -3.243191e-02 -1.248045e-02 -8.869383e-02 -3.468791e-02 -8.609623e-02
<VARIANCE> 25
 8.720707e+00 1.206104e+01 8.486527e+00 1.206549e+01 2.221986e+01 1.772696e+01 2.059350e+01 2.255214e+01 1.598454e+01 1.571211e+01 1.480087e+01 1.730399e+01 4.771880e-01 5.321988e-01 4.649329e-01 8.939198e-01 1.144204e+00 1.295899e+00 1.462276e+00 1.425109e+00 1.326888e+00 1.248140e+00 1.352933e+00 1.158432e+00 2.047182e-01
<GCONST> 7.666730e+01
<STATE> 4
<MEAN> 25
 -1.121046e+01 -2.267524e+00 5.896488e+00 -8.538651e-01 -3.450895e-01 -3.657130e-01 4.552149e+00 -4.236964e+00 5.309658e+00 -1.854044e-01 1.172686e+00 2.495172e+00 2.869339e+00 1.135522e+00 1.476473e+00 5.091486e-01 -9.912865e-01 -7.714148e-01 -1.239355e+00 -3.980685e-01 -1.074110e+00 -1.624054e-01 -4.344439e-01 -4.217806e-01 -3.965976e-01
<VARIANCE> 25
 4.007917e+01 3.817617e+01 2.601278e+01 2.108208e+01 3.312893e+01 4.256919e+01 3.342762e+01 2.474992e+01 1.735151e+01 1.644660e+01 1.622617e+01 1.579976e+01 3.677063e+00 2.229165e+00 1.964639e+00 1.222680e+00 1.673036e+00 2.988055e+00 2.243610e+00 2.493797e+00 2.116918e+00 1.365674e+00 1.834186e+00 1.778427e+00 8.056340e-01
<GCONST> 9.309622e+01
<TRANSP> 5
 0.000000e+00 1.000000e+00 0.000000e+00 0.000000e+00 0.000000e+00
 0.000000e+00 8.001245e-01 1.998755e-01 0.000000e+00 0.000000e+00
 0.000000e+00 0.000000e+00 9.116959e-01 8.830409e-02 0.000000e+00
 0.000000e+00 0.000000e+00 0.000000e+00 7.825931e-01 2.174069e-01
 0.000000e+00 0.000000e+00 0.000000e+00 0.000000e+00 0.000000e+00
<ENDHMM>
~h "sp"
<BEGINHMM>
<NUMSTATES> 3
<STATE> 2
~s "silst"
<TRANSP> 3
 0.000000e+00 2.910624e-01 7.089376e-01
 0.000000e+00 8.600999e-01 1.399001e-01
 0.000000e+00 0.000000e+00 0.000000e+00
<ENDHMM>
~h "th"
<BEGINHMM>
<NUMSTATES> 5
<STATE> 2
<MEAN> 25
 -3.449526e+00 3.316857e-01 -4.525229e+00 3.827215e+00 8.427261e-01 1.405306e+00 2.814474e+00 -3.192464e+00 2.933422e+00 5.911410e-03 -7.073289e-01 1.618627e+00 -1.039950e+00 -6.371195e-01 -5.835980e-01 -3.285015e-02 1.632739e-01 6.222318e-01 5.593626e-01 1.302995e-01 5.199628e-01 2.828952e-01 6.374482e-01 3.221346e-01 -6.224179e-01
<VARIANCE> 25
 1.795010e+01 1.814901e+01 2.542991e+01 1.463731e+01 1.386119e+01 2.626286e+01 2.170069e+01 2.767512e+01 2.036300e+01 1.869223e+01 2.445889e+01 1.736959e+01 2.422033e+00 1.833573e+00 2.546766e+00 2.065005e+00 2.397179e+00 2.514554e+00 2.722692e+00 2.887710e+00 2.519481e+00 1.869213e+00 2.521005e+00 1.678726e+00 8.360398e-01
<GCONST> 9.176380e+01
<STATE> 3
<MEAN> 25
 -4.986500e+00 -3.920303e+00 -1.765415e+00 3.053617e+00 3.869274e+00 4.783979e+00 3.890724e+00 5.488148e-02 5.454392e+00 3.581224e+00 1.942464e+00 3.270495e+00 -1.172799e-01 2.183457e-02 -5.360811e-02 7.484341e-02 2.505792e-01 1.068626e-01 3.388595e-01 3.516494e-01 2.017567e-01 2.223219e-02 -8.791556e-02 -1.092083e-01 -4.953999e-02
<VARIANCE> 25
 5.311755e+00 1.413228e+01 1.290586e+01 1.116105e+01 1.435122e+01 2.219099e+01 1.960559e+01 1.805768e+01 1.877873e+01 2.134195e+01 1.444068e+01 1.317510e+01 1.988094e-01 3.426991e-01 4.687861e-01 5.899672e-01 8.374216e-01 1.377671e+00 1.004779e+00 9.156255e-01 1.141056e+00 1.984521e+00 9.448514e-01 1.026903e+00 1.041437e-01
<GCONST> 7.272327e+01
<STATE> 4
<MEAN> 25
 -6.922142e+00 -6.572363e-02 -6.570074e+00 2.523955e+00 1.729213e+00 2.580430e-01 4.545616e+00 -1.521271e+00 4.967837e+00 -2.470792e-01 5.120053e-01 2.627997e+00 5.200058e-01 3.616242e-01 1.010808e-02 -4.202915e-01 -3.019589e-01 -9.134071e-01 -2.694824e-01 -1.251519e-01 -7.888861e-04 -3.375592e-01 -3.404620e-01 9.098329e-03 7.921795e-01
<VARIANCE> 25
 1.620668e+01 1.772517e+01 1.937760e+01 1.800418e+01 1.499752e+01 2.581334e+01 1.630441e+01 2.833776e+01 2.352094e+01 2.081328e+01 1.798975e+01 1.664214e+01 2.531109e+00 1.087727e+00 3.035130e+00 2.243029e+00 1.855710e+00 2.768656e+00 2.086316e+00 2.742267e+00 2.446328e+00 2.787720e+00 2.679482e+00 1.677419e+00 1.978926e+00
<GCONST> 9.186857e+01
<TRANSP> 5
 0.000000e+00 1.000000e+00 0.000000e+00 0.000000e+00 0.000000e+00
 0.000000e+00 8.297087e-01 1.702913e-01 0.000000e+00 0.000000e+00
 0.000000e+00 0.000000e+00 7.820976e-01 2.179024e-01 0.000000e+00
 0.000000e+00 0.000000e+00 0.000000e+00 8.563229e-01 1.436770e-01
 0.000000e+00 0.000000e+00 0.000000e+00 0.000000e+00 0.000000e+00
<ENDHMM>
~h "uh"
<BEGINHMM>
<NUMSTATES> 5
<STATE> 2
<MEAN> 25
 4.489470e+00 6.240076e+00 2.914360e+00 4.595662e+00 -1.553612e+00 -2.986352e+00 -6.989081e+00 -2.148714e+00 -3.086544e+00 -1.518278e+00 1.678925e+00 -2.078562e-01 9.848776e-01 7.405986e-01 -5.432508e-01 -6.342882e-01 -1.275004e+00 5.904354e-01 -7.155100e-01 3.886054e-01 -1.082388e+00 1.389604e-02 1.075148e+00 -3.962331e-01 4.347751e-01
<VARIANCE> 25
 1.200530e+01 1.511746e+01 3.192627e+01 2.167188e+01 3.330163e+01 3.766558e+01 4.277885e+01 2.174868e+01 2.108030e+01 1.527989e+01 2.015645e+01 1.554499e+01 2.027948e+00 1.365923e+00 1.333127e+00 2.117626e+00 3.100532e+00 1.268236e+00 2.335751e+00 1.657319e+00 1.881235e+00 1.600176e+00 1.734027e+00 1.385117e+00 3.236051e-01
<GCONST> 8.880911e+01
<STATE> 3
<MEAN> 25
 7.567134e+00 7.460992e+00 -3.172156e+00 3.908316e-01 -6.132746e+00 1.357064e+00 -9.849896e+00 -2.693741e+00 -8.310225e+00 -8.793771e-01 7.393958e+00 -1.149059e+00 -5.357986e-02 -6.065793e-02 -2.538645e-01 -2.087202e-01 5.645979e-02 1.199440e-01 -2.002365e-01 -1.402577e-01 -6.372741e-02 2.825263e-01 4.436211e-01 -2.005310e-01 5.173968e-02
<VARIANCE> 25
 3.960846e+00 9.339642e+00 1.351874e+01 3.053395e+01 8.148385e+00 4.217045e+01 2.157210e+01 2.362759e+01 1.715599e+01 2.315307e+01 3.463775e+01 1.482460e+01 8.937136e-02 1.759981e-01 3.784347e-01 5.172738e-01 5.707932e-01 6.395506e-01 8.222772e-01 8.493204e-01 7.258456e-01 8.521960e-01 7.054098e-01 9.174699e-01 6.883076e-02
<GCONST> 6.913821e+01
<STATE> 4
<MEAN> 25
 5.156625e+00 4.890759e+00 -2.034293e+00 1.935736e+00 -4.049745e+00 -4.300372e+00 -1.419670e+01 9.770781e-01 -3.149830e+00 1.578972e+00 7.126539e+00 -5.908497e+00 -5.062760e-01 -6.144855e-01 1.151460e+00 5.913712e-01 4.555843e-01 -1.336316e+00 2.361379e-01 4.676963e-01 1.070266e+00 -1.371686e-01 -1.102635e+00 3.280806e-01 -2.837528e-01
<VARIANCE> 25
 5.940147e+00 9.455772e+00 1.273843e+01 1.682963e+01 1.139060e+01 4.458317e+01 2.883353e+01 3.396032e+01 2.071061e+01 1.545562e+01 3.313447e+01 1.915277e+01 1.711871e-01 3.220024e-01 9.892868e-01 5.801884e-01 1.322787e+00 1.697018e+00 5.450083e+00 3.168062e+00 2.156806e+00 1.520629e+00 1.616846e+00 3.023785e+00 9.222726e-01
<GCONST> 8.357938e+01
<TRANSP> 5
 0.000000e+00 1.000000e+00 0.000000e+00 0.000000e+00 0.000000e+00
 0.000000e+00 7.680897e-01 2.319103e-01 0.000000e+00 0.000000e+00
 0.000000e+00 0.000000e+00 9.042268e-01 9.577322e-02 0.000000e+00
 0.000000e+00 0.000000e+00 0.000000e+00 7.816715e-01 2.183285e-01
 0.000000e+00 0.000000e+00 0.000000e+00 0.000000e+00 0.000000e+00
<ENDHMM>
~h "uw"
<BEGINHMM>
<NUMSTATES> 5
<STATE> 2
<MEAN> 25
 1.274692e+00 5.466523e+00 3.554117e+00 6.096357e+00 -1.398786e+00 -8.931805e+00 -6.633592e+00 -1.444482e-01 -3.408886e+00 -4.089137e+00 6.540580e-01 -1.148582e+00 2.253640e+00 5.179000e-01 9.908420e-01 8.597717e-01 -1.207565e+00 -4.653841e-01 -2.689828e+00 -5.059879e-01 -7.464345e-01 -2.412301e-01 4.990965e-01 -1.357196e+00 -8.130184e-02
<VARIANCE> 25
 2.199222e+01 8.876350e+00 1.871096e+01 1.518034e+01 2.629943e+01 2.837016e+01 3.969928e+01 2.334390e+01 2.077583e+01 2.138984e+01 2.124163e+01 1.825871e+01 2.160717e+00 1.024648e+00 2.223716e+00 2.704917e+00 2.008072e+00 1.994283e+00 3.234424e+00 2.792779e+00 2.320001e+00 1.760750e+00 2.184888e+00 2.445329e+00 2.560885e-01
<GCONST> 9.027220e+01
<STATE> 3
<MEAN> 25
 5.034256e+00 6.325200e+00 1.441097e+00 6.345568e+00 -3.617306e+00 -5.211908e+00 -1.243601e+01 -3.182195e+00 -3.492548e+00 -2.645284e+00 3.231016e+00 -5.597915e+00 1.302235e-01 2.849561e-02 -2.660497e-01 -2.447279e-01 -2.256111e-02 4.655764e-01 -1.089687e-01 -3.990739e-01 3.908508e-02 2.565151e-01 1.594392e-01 -9.858997e-02 -1.017499e-01
<VARIANCE> 25
 3.383766e+00 3.506043e+00 1.008402e+01 1.316795e+01 1.307780e+01 2.826294e+01 3.011918e+01 3.294105e+01 1.713278e+01 2.281454e+01 1.493739e+01 2.244403e+01 5.931477e-02 1.527392e-01 2.913106e-01 4.003672e-01 5.253170e-01 7.305965e-01 8.477839e-01 8.465230e-01 8.374524e-01 7.816693e-01 8.030849e-01 9.382588e-01 4.782002e-02
<GCONST> 6.601566e+01
<STATE> 4
<MEAN> 25
 5.607817e+00 4.415688e+00 7.453808e-01 1.973821e+00 -4.170836e+00 -2.045553e+00 -7.955267e+00 -4.848204e+00 -3.990957e+00 -1.514496e+00 3.180106e+00 -2.712415e+00 -2.895893e-01 -3.378424e-01 1.382801e-01 -5.631532e-02 2.308425e-01 3.797175e-02 5.201135e-01 9.131893e-02 1.870621e-01 1.017202e-01 -1.941891e-01 4.491798e-01 -2.938125e-01
<VARIANCE> 25
 9.152902e+00 1.226331e+01 2.006315e+01 1.692422e+01 2.222908e+01 2.783524e+01 4.277616e+01 2.774644e+01 2.335000e+01 2.262196e+01 2.524971e+01 2.871331e+01 4.440871e-01 5.656571e-01 6.957317e-01 8.936273e-01 1.342352e+00 1.846666e+00 2.306770e+00 2.087844e+00 1.476179e+00 1.476613e+00 1.279969e+00 1.727374e+00 3.607531e-01
<GCONST> 8.403381e+01
<TRANSP> 5
 0.000000e+00 1.000000e+00 0.000000e+00 0.000000e+00 0.000000e+00
 0.000000e+00 6.482500e-01 3.517500e-01 0.000000e+00 0.000000e+00
 0.000000e+00 0.000000e+00 9.117578e-01 8.824223e-02 0.000000e+00
 0.000000e+00 0.000000e+00 0.000000e+00 8.925170e-01 1.074830e-01
 0.000000e+00 0.000000e+00 0.000000e+00 0.000000e+00 0.000000e+00
<ENDHMM>
~h "zh"
<BEGINHMM>
<NUMSTATES> 5
<STATE> 2
<MEAN> 25
 -1.070911e+01 -1.659973e+00 9.173798e+00 5.379571e+00 -3.684321e+00 -4.063085e+00 3.179519e+00 -1.813053e+00 3.717112e+00 -4.051426e+00 5.727882e+00 2.560138e+00 -1.190760e+00 -3.642418e-01 2.549161e-01 -1.917034e-01 5.929238e-02 2.203591e-02 1.293040e+00 -6.270148e-01 7.198840e-01 -7.217321e-02 -3.870636e-01 8.659547e-02 -5.800141e-03
<VARIANCE> 25
 8.728863e+01 3.667627e+01 7.249172e+00 2.664427e+01 7.053592e+00 1.796861e+01 6.686172e+01 2.492396e+01 3.371556e+01 1.162812e+01 1.300451e+01 1.031689e+01 4.479792e+00 1.341832e+00 1.326601e+00 1.997294e+00 1.244649e+00 2.152225e+00 7.529307e+00 4.064426e+00 3.088048e+00 2.828499e+00 1.680121e+00 2.156171e+00 3.241115e-01
<GCONST> 9.191512e+01
<STATE> 3
<MEAN> 25
 -5.584360e+00 4.217549e+00 1.377824e+01 1.402415e+00 -1.970370e+00 -1.468814e+00 2.266715e+00 -5.210548e+00 2.245185e+00 -2.903252e+00 3.083902e+00 2.654888e-01 9.816035e-01 2.979881e-01 6.679339e-01 -1.932414e-01 -6.988114e-01 -8.784808e-02 2.085309e-01 2.879116e-01 1.089232e-01 2.420462e-01 1.250188e-01 1.559147e-01 7.985930e-02
<VARIANCE> 25
 4.348919e+01 2.735643e+01 1.427911e+01 4.989494e+00 6.569402e+01 4.545165e+01 1.956971e+01 2.596140e+01 1.092757e+01 1.182673e+01 1.027194e+01 1.020265e+01 7.821960e+00 1.901119e+00 1.325803e+00 1.118545e+00 2.960324e+00 6.404056e+00 2.370380e+00 4.381431e+00 1.577020e+00 7.573164e-01 2.290711e+00 1.152058e+00 3.485893e-01
<GCONST> 8.951069e+01
<STATE> 4
<MEAN> 25
 4.794458e-02 9.002131e+00 6.020747e+00 5.867552e-01 -4.998624e+00 -2.509220e+00 -1.119930e+00 -4.543186e+00 3.145487e+00 -1.640414e+00 6.478832e-01 9.061341e-01 5.304503e-01 -8.446447e-01 -3.918262e-01 -4.333235e-01 2.625779e-01 -1.081833e-01 -1.047407e-01 9.551387e-01 -1.095707e-02 9.500220e-02 -2.918729e-01 -9.765791e-03 1.644267e-01
<VARIANCE> 25
 6.120381e+01 4.294074e+01 3.721496e+01 4.103359e+01 2.751680e+01 1.749181e+01 2.087020e+01 4.261594e+01 8.894102e+00 7.138343e+00 4.818052e+00 5.129139e+00 3.173093e+00 7.304101e-01 2.332583e+00 1.137506e+00 2.275067e+00 1.251845e+00 2.016664e+00 3.429214e+00 8.039980e-01 8.198687e-01 8.385652e-01 7.613499e-01 2.342248e-01
<GCONST> 8.395712e+01
<TRANSP> 5
 0.000000e+00 1.000000e+00 0.000000e+00 0.000000e+00 0.000000e+00
