~o
<STREAMINFO> 1 25
<VECSIZE> 25<NULLD><MFCC_D_N_Z_0><DIAGC>
~s "silst"
<MEAN> 25
 -8.744925e+00 -8.905162e+00 -1.495506e+00 -3.504682e-01 4.211743e+00 4.062281e+00 2.471587e+00 -3.196467e+00 3.951337e+00 1.235381e+00 1.153425e+00 1.004610e+00 -5.491838e-03 -8.385664e-03 -8.669371e-03 -2.224882e-02 -3.545830e-02 -2.612580e-02 -5.119339e-02 -3.958853e-02 -4.547209e-02 -4.120845e-02 -3.151082e-02 -2.660620e-02 -1.038318e-02
<VARIANCE> 25
 9.998248e+00 6.737709e+00 5.715462e+00 7.199006e+00 1.504440e+01 1.107132e+01 1.402767e+01 1.352850e+01 1.723083e+01 1.453635e+01 1.444842e+01 1.193427e+01 1.084794e-01 2.359698e-01 4.045103e-01 6.010762e-01 7.976341e-01 9.562047e-01 1.145921e+00 1.274913e+00 1.330385e+00 1.372528e+00 1.255809e+00 1.171220e+00 3.224382e-02
<GCONST> 6.749109e+01
~h "b"
<BEGINHMM>
<NUMSTATES> 5
<STATE> 2
<MEAN> 25
 2.461872e+00 2.436819e-01 3.396473e+00 3.780395e+00 1.813155e+00 1.315317e+00 -2.173630e-01 -4.223746e+00 -1.329470e+00 -6.638342e-01 -2.542516e+00 -1.733601e+00 3.005643e-01 4.834772e-01 5.599408e-01 4.843394e-01 4.752780e-01 3.010367e-01 1.746657e-01 -4.114521e-01 -3.409452e-01 -5.866789e-01 -6.707642e-01 -4.888515e-01 -9.843461e-02
<VARIANCE> 25
 1.386289e+01 1.392056e+01 1.514926e+01 1.199830e+01 1.682865e+01 1.960017e+01 1.744411e+01 3.636321e+01 2.085332e+01 1.633042e+01 1.668867e+01 1.554539e+01 1.442992e+00 1.439319e+00 1.086252e+00 8.785265e-01 1.239659e+00 1.942769e+00 1.983968e+00 1.997229e+00 2.146691e+00 1.884691e+00 1.560074e+00 1.490378e+00 7.136795e-01
<GCONST> 8.489651e+01
<STATE> 3
<MEAN> 25
 3.436557e+00 1.863747e+00 4.825961e+00 5.302686e+00 3.464584e+00 2.579716e+00 9.161773e-01 -5.568336e+00 -2.009783e+00 -2.058586e+00 -4.149384e+00 -3.000494e+00 -2.234889e-01 3.953506e-02 8.016361e-02 2.140986e-01 2.598239e-01 3.139678e-01 3.173707e-01 5.318409e-02 4.656017e-02 -7.007283e-02 2.566327e-02 -6.418046e-03 -8.822978e-02
<VARIANCE> 25
 5.880725e+00 7.711188e+00 1.052931e+01 9.235539e+00 1.335010e+01 1.352461e+01 1.394443e+01 2.235455e+01 1.368530e+01 1.177815e+01 1.052966e+01 1.169199e+01 4.607514e-01 3.551117e-01 5.090895e-01 5.764935e-01 8.590827e-01 9.939972e-01 9.867448e-01 8.656976e-01 1.103313e+00 9.406762e-01 1.020148e+00 8.845112e-01 2.522620e-01
<GCONST> 7.037780e+01
<STATE> 4
<MEAN> 25
 3.467593e+00 1.388612e+00 1.796130e+00 3.103808e+00 1.950775e+00 7.032486e-01 -9.221283e-01 3.342795e-02 -1.911481e+00 -3.948278e-01 -3.367793e+00 -3.001611e+00 1.191516e-01 -1.481177e-01 -1.032312e+00 -7.805513e-01 -7.496402e-01 -9.790820e-01 -6.446231e-01 9.525689e-01 1.603653e-01 4.415263e-01 6.979770e-01 3.743557e-01 1.195901e+00
<VARIANCE> 25
 1.447061e+01 9.803420e+00 3.296709e+01 2.982325e+01 2.624641e+01 3.632809e+01 4.364935e+01 8.390093e+01 1.399187e+01 1.948336e+01 2.698258e+01 1.357422e+01 1.453236e+00 8.303620e-01 2.748161e+00 2.186002e+00 1.885279e+00 2.248090e+00 4.182518e+00 3.273434e+00 1.531438e+00 2.281443e+00 2.378610e+00 1.432428e+00 1.458134e+00
<GCONST> 9.326579e+01
<TRANSP> 5
 0.000000e+00 1.000000e+00 0.000000e+00 0.000000e+00 0.000000e+00
 0.000000e+00 7.057077e-01 2.942924e-01 0.000000e+00 0.000000e+00
 0.000000e+00 0.000000e+00 8.041577e-01 1.958423e-01 0.000000e+00
 0.000000e+00 0.000000e+00 0.000000e+00 6.337385e-01 3.662615e-01
 0.000000e+00 0.000000e+00 0.000000e+00 0.000000e+00 0.000000e+00
<ENDHMM>
~h "d"
<BEGINHMM>
<NUMSTATES> 5
<STATE> 2
<MEAN> 25
 2.074811e+00 1.463038e+00 5.265729e+00 2.408003e+00 -1.946516e+00 -1.834921e+00 -1.564804e+00 -2.771156e+00 -1.900743e+00 -3.476510e-01 -4.489560e-01 -5.648445e-01 -4.027208e-01 -4.480244e-01 -2.093616e-02 5.512441e-01 1.180911e+00 1.090503e+00 1.044767e+00 -6.255957e-01 4.631313e-01 -5.024537e-02 -1.276430e-01 1.169018e-01 -9.369154e-01
<VARIANCE> 25
 9.646400e+00 1.550427e+01 1.707894e+01 1.669915e+01 3.518299e+01 3.220745e+01 3.091822e+01 2.776823e+01 2.008183e+01 2.115606e+01 2.240577e+01 1.650633e+01 9.632024e-01 1.423562e+00 1.211354e+00 1.408842e+00 2.594843e+00 2.664464e+00 2.986566e+00 2.820114e+00 1.913603e+00 1.997913e+00 1.869526e+00 1.734984e+00 1.117188e+00
<GCONST> 8.990383e+01
<STATE> 3
<MEAN> 25
 -6.621585e-01 -1.800271e+00 2.893277e+00 3.569846e+00 2.584907e+00 2.449029e+00 2.949888e+00 -2.575023e+00 8.517418e-01 6.589735e-01 -4.190296e-01 9.297245e-01 -5.532597e-01 -3.975495e-01 -3.984858e-01 -1.354930e-01 4.482820e-01 5.448579e-01 6.384109e-01 3.136394e-01 4.485305e-01 2.516209e-01 2.185798e-01 2.327572e-01 -2.687744e-01
<VARIANCE> 25
 1.404037e+01 1.724457e+01 1.540973e+01 1.380258e+01 1.623159e+01 2.034956e+01 2.108050e+01 2.187958e+01 2.022718e+01 2.319560e+01 2.022682e+01 1.673356e+01 9.868276e-01 1.261757e+00 1.182464e+00 1.441296e+00 1.749795e+00 2.487447e+00 2.147352e+00 1.783551e+00 1.835307e+00 1.805665e+00 1.583289e+00 1.406025e+00 9.967170e-01
<GCONST> 8.626665e+01
<STATE> 4
<MEAN> 25
 -2.255674e+00 -2.292786e+00 1.496887e+00 2.407693e+00 2.923191e+00 3.081632e+00 4.005166e+00 -9.932833e-01 2.524865e+00 1.781571e+00 1.119105e+00 1.957138e+00 -7.615489e-02 1.689628e-01 -2.294782e-01 -4.253049e-01 -3.417359e-01 -4.455787e-01 -3.149256e-01 1.999988e-01 8.492479e-02 -7.394398e-02 1.649832e-01 7.526201e-02 5.545306e-01
<VARIANCE> 25
 1.363899e+01 2.212966e+01 1.435683e+01 2.118251e+01 2.231343e+01 3.774296e+01 3.374068e+01 2.657031e+01 2.280230e+01 3.109153e+01 2.163719e+01 1.860603e+01 1.652575e+00 1.473628e+00 1.536112e+00 2.233769e+00 2.538458e+00 4.214594e+00 3.275146e+00 2.849379e+00 2.253669e+00 2.169177e+00 1.990746e+00 1.788658e+00 2.031581e+00
<GCONST> 9.376265e+01
<TRANSP> 5
 0.000000e+00 1.000000e+00 0.000000e+00 0.000000e+00 0.000000e+00
 0.000000e+00 7.154683e-01 2.845317e-01 0.000000e+00 0.000000e+00
 0.000000e+00 0.000000e+00 6.987862e-01 3.012138e-01 0.000000e+00
 0.000000e+00 0.000000e+00 0.000000e+00 7.997331e-01 2.002669e-01
 0.000000e+00 0.000000e+00 0.000000e+00 0.000000e+00 0.000000e+00
<ENDHMM>
~h "f"
<BEGINHMM>
<NUMSTATES> 5
<STATE> 2
<MEAN> 25
 -4.087783e+00 -1.710289e+00 -3.246184e+00 3.652488e+00 9.692299e-01 3.465663e+00 2.547059e+00 3.662390e-01 2.718457e+00 2.110283e+00 -3.670118e-01 1.852411e+00 -1.610874e+00 -1.262060e-01 -1.071804e+00 5.777854e-01 -1.754938e-02 1.124307e+00 5.404267e-01 2.235720e-01 6.337395e-01 2.797021e-01 2.328195e-01 2.431078e-01 -4.111276e-01
<VARIANCE> 25
 2.358163e+01 6.564876e+00 2.029846e+01 1.947345e+01 1.612885e+01 2.333941e+01 2.390919e+01 1.725639e+01 2.243975e+01 1.954122e+01 1.688362e+01 1.659675e+01 2.023916e+00 8.734716e-01 1.361037e+00 1.399847e+00 2.013068e+00 1.934567e+00 3.038471e+00 2.065330e+00 2.789121e+00 2.250309e+00 1.715800e+00 1.646562e+00 4.491377e-01
<GCONST> 8.712632e+01
<STATE> 3
<MEAN> 25
 -8.770524e+00 -4.018663e-01 -7.303917e+00 6.435532e+00 -3.206397e-01 6.223123e+00 2.045418e+00 7.122458e-01 3.016570e+00 2.635321e+00 5.596092e-01 2.044903e+00 -1.406912e-01 1.136908e-01 -1.204180e-01 1.253702e-01 9.479314e-03 -4.069234e-02 1.040283e-02 -6.298313e-02 -5.452661e-02 -1.002056e-01 3.050198e-02 -1.842606e-02 1.121273e-01
<VARIANCE> 25
 7.750772e+00 9.551662e+00 1.629408e+01 1.508702e+01 1.546322e+01 1.779680e+01 2.688439e+01 1.700817e+01 1.860531e+01 1.620812e+01 1.614379e+01 1.361439e+01 6.352437e-01 5.820152e-01 7.973812e-01 9.439071e-01 1.110545e+00 1.395240e+00 1.719386e+00 1.565667e+00 1.601083e+00 1.537130e+00 1.608400e+00 1.049274e+00 2.892768e-01
<GCONST> 7.893303e+01
<STATE> 4
<MEAN> 25
 -6.384575e+00 -8.294853e-01 -6.161608e+00 4.398778e+00 7.027674e-02 3.386806e+00 2.419880e+00 -9.639388e-02 2.599354e+00 1.504817e+00 -1.874516e-01 1.731491e+00 1.754738e+00 1.703868e-01 6.834158e-01 -9.850255e-01 -1.928265e-01 -9.448246e-01 -1.675949e-01 -3.359954e-01 -3.655385e-01 -1.721182e-01 -2.006633e-01 -2.010122e-01 3.970008e-01
<VARIANCE> 25
 3.333821e+01 1.333112e+01 2.073964e+01 2.249703e+01 2.312325e+01 2.279177e+01 2.742538e+01 1.550836e+01 2.100905e+01 1.829517e+01 1.654284e+01 1.619973e+01 4.182836e+00 1.763568e+00 1.541023e+00 2.332478e+00 2.727371e+00 2.410960e+00 2.353097e+00 2.289468e+00 2.496854e+00 1.852408e+00 1.584018e+00 1.782058e+00 6.042616e-01
<GCONST> 9.096242e+01
<TRANSP> 5
 0.000000e+00 1.000000e+00 0.000000e+00 0.000000e+00 0.000000e+00
 0.000000e+00 8.136925e-01 1.863075e-01 0.000000e+00 0.000000e+00
 0.000000e+00 0.000000e+00 8.620263e-01 1.379737e-01 0.000000e+00
 0.000000e+00 0.000000e+00 0.000000e+00 7.907330e-01 2.092670e-01
 0.000000e+00 0.000000e+00 0.000000e+00 0.000000e+00 0.000000e+00
<ENDHMM>
~h "g"
<BEGINHMM>
<NUMSTATES> 5
<STATE> 2
<MEAN> 25
 1.058003e+00 1.024528e+00 4.237821e+00 3.571391e+00 1.965922e+00 1.705882e+00 1.320318e+00 -4.827352e+00 -2.627854e+00 -6.843547e-01 -1.240106e+00 -1.956318e+00 1.228403e-02 -9.620143e-03 1.271573e-01 2.221903e-01 3.956257e-01 2.172335e-01 3.917553e-01 -1.952890e-01 1.714286e-01 -1.394202e-01 -2.499637e-01 6.302408e-02 -1.503509e-01
<VARIANCE> 25
 1.731359e+01 1.516425e+01 1.567237e+01 1.453926e+01 2.625360e+01 2.338200e+01 2.231548e+01 2.492974e+01 2.454581e+01 2.094083e+01 1.792744e+01 1.467959e+01 1.856005e+00 1.735589e+00 2.123662e+00 1.265897e+00 2.847861e+00 2.461252e+00 2.785243e+00 2.926152e+00 2.983134e+00 2.013864e+00 1.696287e+00 1.678108e+00 1.106495e+00
<GCONST> 9.064655e+01
<STATE> 3
<MEAN> 25
 -6.504655e-03 4.403372e-01 2.741743e+00 4.284727e+00 3.277350e+00 1.263860e+00 2.016623e+00 -2.849769e+00 -1.200340e+00 2.642573e-01 -6.929129e-01 -8.547386e-01 -1.662844e-01 -5.072946e-03 -2.078927e-01 -1.846857e-02 -5.369052e-01 -1.046636e+00 -6.641063e-01 1.049695e+00 -5.018014e-02 7.991727e-02 5.932511e-01 2.697056e-01 7.313605e-01
<VARIANCE> 25
 1.473128e+01 1.991588e+01 3.352380e+01 1.873990e+01 3.221314e+01 4.060598e+01 3.884428e+01 3.683857e+01 3.193663e+01 3.458654e+01 2.240936e+01 1.506927e+01 1.940374e+00 2.328588e+00 3.344407e+00 2.326855e+00 3.622866e+00 4.383702e+00 5.089001e+00 4.341092e+00 3.621051e+00 2.820160e+00 2.293287e+00 1.791511e+00 1.600309e+00
<GCONST> 9.897020e+01
<STATE> 4
<MEAN> 25
 2.274947e+00 2.255005e+00 5.817304e+00 1.311592e+00 -4.042363e+00 -4.722105e+00 -4.605350e+00 2.199581e+00 -3.738360e+00 4.604250e-01 2.275299e+00 -1.770559e+00 5.196707e-01 -1.508752e-01 -4.097588e-01 -3.187779e-01 -4.990607e-01 -4.294193e-01 -5.887438e-01 8.474165e-01 1.700027e-01 -1.934104e-01 3.468742e-01 3.492123e-02 3.667648e-01
<VARIANCE> 25
 1.215969e+01 1.332721e+01 4.733500e+01 3.396316e+01 5.323967e+01 3.645235e+01 4.379156e+01 4.715388e+01 2.591553e+01 2.085789e+01 2.644510e+01 1.540542e+01 1.407586e+00 1.574701e+00 1.785855e+00 1.866166e+00 4.063881e+00 3.585794e+00 3.030870e+00 4.479057e+00 2.506320e+00 2.224677e+00 3.453229e+00 1.703497e+00 1.167617e+00
<GCONST> 9.685591e+01
<TRANSP> 5
 0.000000e+00 1.000000e+00 0.000000e+00 0.000000e+00 0.000000e+00
 0.000000e+00 8.259009e-01 1.740991e-01 0.000000e+00 0.000000e+00
 0.000000e+00 0.000000e+00 7.177837e-01 2.822162e-01 0.000000e+00
 0.000000e+00 0.000000e+00 0.000000e+00 7.165896e-01 2.834104e-01
 0.000000e+00 0.000000e+00 0.000000e+00 0.000000e+00 0.000000e+00
<ENDHMM>
~h "k"
<BEGINHMM>
<NUMSTATES> 5
<STATE> 2
<MEAN> 25
 -2.880751e+00 -2.434265e+00 7.767767e-01 2.036013e+00 2.366340e+00 2.032842e+00 3.092731e+00 -2.488945e+00 1.176406e+00 2.073194e+00 1.110857e+00 1.614689e+00 -5.714204e-01 -9.586620e-01 -6.297620e-01 3.928528e-02 2.206507e-01 6.880361e-01 8.424104e-01 5.079576e-01 7.575661e-01 3.623153e-01 2.046992e-01 4.186683e-01 -4.102114e-01
<VARIANCE> 25
 1.767375e+01 2.405942e+01 2.047217e+01 1.886806e+01 2.267886e+01 3.375784e+01 3.227477e+01 3.176181e+01 3.127329e+01 2.288436e+01 1.861848e+01 1.407169e+01 1.539414e+00 2.134961e+00 1.756119e+00 2.031740e+00 2.819351e+00 4.136168e+00 4.253227e+00 3.291464e+00 3.271779e+00 2.407037e+00 1.991360e+00 1.684252e+00 2.632652e+00
<GCONST> 9.546981e+01
<STATE> 3
<MEAN> 25
 -3.965910e+00 -4.836171e+00 -1.549172e+00 1.281700e+00 1.595257e+00 2.418542e+00 4.519272e+00 1.389248e+00 3.373627e+00 3.650240e+00 1.871283e+00 2.592185e+00 -6.386846e-02 1.080103e-01 -2.289836e-01 -1.811544e-01 -6.171181e-02 -4.174089e-01 -8.760988e-02 5.023053e-01 -6.079787e-02 -7.381430e-02 -1.772482e-01 1.584308e-02 6.410099e-01
<VARIANCE> 25
 1.106434e+01 1.279864e+01 2.040182e+01 2.225076e+01 2.233818e+01 3.664232e+01 2.697645e+01 3.233651e+01 2.677591e+01 2.387123e+01 1.751102e+01 1.688526e+01 1.420685e+00 1.574122e+00 2.082728e+00 2.169941e+00 2.328909e+00 3.750369e+00 3.028534e+00 3.741996e+00 2.855965e+00 2.684865e+00 1.820855e+00 1.690537e+00 3.234772e+00
<GCONST> 9.388963e+01
<STATE> 4
<MEAN> 25
 -1.231470e+00 -3.275592e+00 -2.734045e+00 1.201572e-01 1.464942e+00 -1.715345e+00 2.096580e+00 4.482899e+00 5.142753e-01 1.314030e+00 -1.230530e+00 1.705713e+00 1.136867e+00 6.180187e-01 2.708019e-01 2.340841e-01 -1.023014e-01 -2.063943e-01 -5.561648e-01 -1.294842e-01 -4.955344e-01 -7.133018e-01 -4.283317e-01 -3.772369e-01 3.641127e-01
<VARIANCE> 25
 2.687274e+01 2.545029e+01 4.162182e+01 3.974955e+01 4.049465e+01 4.773714e+01 4.619883e+01 5.564763e+01 3.653054e+01 3.566566e+01 2.659792e+01 2.516291e+01 3.675593e+00 2.157186e+00 4.254946e+00 3.650079e+00 4.040156e+00 3.964699e+00 3.864386e+00 4.987407e+00 4.201552e+00 3.920477e+00 2.806566e+00 2.192045e+00 2.684773e+00
<GCONST> 1.051352e+02
<TRANSP> 5
 0.000000e+00 1.000000e+00 0.000000e+00 0.000000e+00 0.000000e+00
 0.000000e+00 7.844059e-01 2.155941e-01 0.000000e+00 0.000000e+00
 0.000000e+00 0.000000e+00 7.871773e-01 2.128227e-01 0.000000e+00
 0.000000e+00 0.000000e+00 0.000000e+00 7.227247e-01 2.772753e-01
 0.000000e+00 0.000000e+00 0.000000e+00 0.000000e+00 0.000000e+00
<ENDHMM>
~h "l"
<BEGINHMM>
<NUMSTATES> 5
<STATE> 2
<MEAN> 25
 5.875216e+00 3.038037e+00 -3.605548e+00 -5.676798e+00 -1.571267e+00 -7.990142e-01 -2.767239e+00 3.677970e-01 -1.074600e+00 2.971446e+00 -2.069352e+00 -8.452470e-01 7.305084e-01 5.057896e-01 -4.253368e-01 -1.247351e+00 -1.456908e-01 4.361294e-01 -2.815992e-01 -3.597785e-01 -5.072124e-01 5.712888e-01 -8.723536e-02 2.007078e-01 1.667711e-01
<VARIANCE> 25
 1.561720e+01 1.547100e+01 2.444020e+01 4.307020e+01 2.513072e+01 3.264995e+01 4.047489e+01 3.661614e+01 3.227478e+01 2.596838e+01 3.045079e+01 2.107786e+01 1.608662e+00 9.248528e-01 1.234676e+00 2.973568e+00 2.148138e+00 2.211583e+00 2.473419e+00 1.909534e+00 2.492635e+00 1.853068e+00 2.111394e+00 1.435990e+00 9.035662e-01
<GCONST> 9.294654e+01
<STATE> 3
<MEAN> 25
 7.895541e+00 5.362917e+00 -5.043942e+00 -1.040814e+01 -3.337735e+00 1.754561e+00 -3.059174e+00 -2.933877e-01 -4.147436e+00 3.855456e+00 -1.842613e+00 5.777043e-01 -3.705678e-02 1.156502e-01 1.080628e-01 -4.593751e-02 -2.632801e-02 -1.562331e-02 -2.211024e-02 -4.568382e-02 -5.805320e-02 1.675826e-01 -2.652417e-02 8.829337e-02 -1.208128e-01
<VARIANCE> 25
 5.148378e+00 9.157291e+00 1.725160e+01 2.718496e+01 1.986454e+01 2.343551e+01 2.889106e+01 2.020442e+01 2.519911e+01 2.791046e+01 2.145848e+01 1.495694e+01 1.807055e-01 3.048635e-01 4.939788e-01 8.349044e-01 7.792034e-01 8.376933e-01 9.354088e-01 1.014809e+00 9.401905e-01 9.174968e-01 8.118780e-01 8.657568e-01 1.701595e-01
<GCONST> 7.425597e+01
<STATE> 4
<MEAN> 25
 5.900761e+00 3.428143e+00 -3.895893e+00 -7.725842e+00 -6.334672e-01 1.801957e+00 -1.498451e+00 8.062017e-02 -2.355240e+00 5.457106e+00 -3.104904e+00 2.123314e-01 -5.466137e-01 -5.624022e-01 3.065280e-01 1.089000e+00 4.547229e-01 -7.643569e-02 2.630846e-01 -1.043617e-01 5.795412e-01 -3.573915e-01 1.589670e-01 -1.502921e-01 -3.433357e-01
<VARIANCE> 25
 1.293762e+01 1.931146e+01 1.690756e+01 4.496845e+01 2.159558e+01 3.077298e+01 4.160999e+01 3.061347e+01 3.627999e+01 2.290056e+01 3.260192e+01 1.890612e+01 6.184934e-01 6.993579e-01 1.031265e+00 1.995757e+00 1.530397e+00 2.053789e+00 2.131646e+00 2.166678e+00 1.778217e+00 2.048628e+00 1.794027e+00 1.192673e+00 6.338477e-01
<GCONST> 8.905322e+01
<TRANSP> 5
 0.000000e+00 1.000000e+00 0.000000e+00 0.000000e+00 0.000000e+00
 0.000000e+00 6.849009e-01 3.150991e-01 0.000000e+00 0.000000e+00
 0.000000e+00 0.000000e+00 8.637184e-01 1.362816e-01 0.000000e+00
 0.000000e+00 0.000000e+00 0.000000e+00 7.918611e-01 2.081389e-01
 0.000000e+00 0.000000e+00 0.000000e+00 0.000000e+00 0.000000e+00
<ENDHMM>
~h "m"
<BEGINHMM>
<NUMSTATES> 5
<STATE> 2
<MEAN> 25
 5.028246e+00 1.699957e-01 1.351057e+00 8.215492e-01 -1.187118e+00 2.599305e-01 -2.047072e+00 -6.478291e-01 -2.802978e+00 -9.902618e-01 -8.646592e-01 -1.905829e+00 8.769496e-02 2.472305e-01 3.449490e-01 7.407885e-01 9.158322e-02 -2.963848e-02 -1.031484e-03 -9.652248e-01 -5.046423e-01 -2.439781e-01 1.604490e-01 -3.307480e-04 -3.552458e-01
<VARIANCE> 25
 1.526556e+01 1.378191e+01 2.538956e+01 2.392802e+01 2.296532e+01 1.910807e+01 2.700256e+01 3.583737e+01 2.527199e+01 1.758967e+01 1.662736e+01 1.766698e+01 6.496432e-01 5.931998e-01 9.903701e-01 1.400218e+00 1.110417e+00 1.068717e+00 1.301164e+00 1.734946e+00 2.127635e+00 1.429726e+00 1.508903e+00 9.649308e-01 5.184897e-01
<GCONST> 8.363421e+01
<STATE> 3
<MEAN> 25
 5.078091e+00 1.676956e+00 3.167034e+00 4.331806e+00 -1.113774e+00 -3.560013e-01 -1.343512e+00 -5.671222e+00 -5.247817e+00 -2.645945e+00 -2.765180e-01 -1.233520e+00 3.351092e-02 1.867395e-01 8.807413e-02 3.330606e-01 -6.325282e-04 -5.707718e-02 1.170241e-02 -2.722195e-01 -2.608377e-01 -1.682622e-01 1.261132e-01 -1.016900e-02 -8.985117e-02
<VARIANCE> 25
 4.882449e+00 8.931351e+00 8.859976e+00 1.493588e+01 1.544520e+01 1.410126e+01 1.174331e+01 1.658810e+01 1.510802e+01 1.185314e+01 1.195941e+01 1.149313e+01 3.189343e-01 2.448727e-01 5.234892e-01 7.780822e-01 6.553497e-01 7.600083e-01 8.393286e-01 1.013274e+00 1.320356e+00 9.445235e-01 8.313985e-01 7.669784e-01 2.414875e-01
<GCONST> 6.941709e+01
<STATE> 4
<MEAN> 25
 3.087153e+00 7.534043e-01 3.783839e+00 5.317400e+00 6.322125e-01 1.126400e+00 -3.490316e-01 -5.652127e+00 -4.284423e+00 -2.392766e+00 -4.206545e-01 -1.688798e+00 -1.740260e-01 -8.532183e-02 -1.223305e-01 -1.023967e-01 1.430965e-01 1.801717e-01 1.928371e-01 2.101840e-01 2.671906e-01 8.414276e-02 3.144976e-02 9.486737e-03 -8.555006e-02
<VARIANCE> 25
 1.014858e+01 1.088695e+01 6.933812e+00 1.306222e+01 1.672627e+01 1.668547e+01 1.298666e+01 1.603605e+01 1.511618e+01 1.207726e+01 1.045300e+01 1.188370e+01 4.342622e-01 3.781586e-01 6.724029e-01 7.703252e-01 7.525602e-01 9.596840e-01 8.510558e-01 1.236185e+00 1.242082e+00 1.059209e+00 8.756652e-01 8.151291e-01 2.628545e-01
<GCONST> 7.201931e+01
<TRANSP> 5
 0.000000e+00 1.000000e+00 0.000000e+00 0.000000e+00 0.000000e+00
 0.000000e+00 7.375729e-01 2.624271e-01 0.000000e+00 0.000000e+00
 0.000000e+00 0.000000e+00 7.164938e-01 2.835062e-01 0.000000e+00
 0.000000e+00 0.000000e+00 0.000000e+00 8.655681e-01 1.344319e-01
 0.000000e+00 0.000000e+00 0.000000e+00 0.000000e+00 0.000000e+00
<ENDHMM>
~h "n"
<BEGINHMM>
<NUMSTATES> 5
<STATE> 2
<MEAN> 25
 4.264380e+00 5.479718e-01 2.687625e+00 -3.077088e-01 -1.676413e+00 -8.850271e-02 -5.850864e-01 1.492032e+00 -3.291786e+00 -2.096094e+00 -3.308665e+00 -7.983607e-01 1.106646e-01 2.477546e-01 1.939595e-01 6.766360e-01 1.335773e-01 3.391973e-01 5.597342e-03 -1.337704e+00 2.740940e-02 -1.850473e-01 3.527212e-01 3.012677e-02 -5.866475e-01
<VARIANCE> 25
 6.834212e+00 1.515587e+01 2.139525e+01 2.067963e+01 2.123991e+01 2.060563e+01 2.414473e+01 5.720630e+01 1.765915e+01 1.855672e+01 2.887058e+01 1.558512e+01 4.714422e-01 5.446210e-01 7.358944e-01 1.151590e+00 1.137406e+00 1.347869e+00 1.386012e+00 2.628895e+00 1.530127e+00 1.556690e+00 1.791249e+00 9.712532e-01 5.026304e-01
<GCONST> 8.282185e+01
<STATE> 3
<MEAN> 25
 4.834728e+00 2.098931e+00 2.863204e+00 2.890926e+00 -1.303872e+00 1.236159e+00 -1.709476e+00 -5.639688e+00 -2.751627e+00 -2.836625e+00 -1.557493e+00 -9.218118e-01 2.938967e-03 6.782375e-02 8.755052e-02 1.544992e-01 1.262101e-01 1.197998e-01 -6.821176e-02 -4.039970e-01 -5.653181e-02 -2.248327e-02 -1.137650e-02 8.652928e-03 -2.726507e-01
<VARIANCE> 25
 3.646024e+00 5.439761e+00 9.996274e+00 1.052747e+01 1.254054e+01 1.267753e+01 1.163440e+01 1.996163e+01 1.202728e+01 1.246486e+01 1.316064e+01 1.131615e+01 2.063977e-01 3.032514e-01 4.112534e-01 5.689040e-01 7.069107e-01 8.048858e-01 8.635129e-01 1.339703e+00 1.007822e+00 9.846671e-01 9.499496e-01 7.848024e-01 1.660007e-01
<GCONST> 6.738161e+01
<STATE> 4
<MEAN> 25
 2.364301e+00 8.699141e-01 3.378229e+00 3.467951e+00 1.655517e+00 2.457663e+00 -1.333425e-01 -5.391835e+00 -1.518390e+00 -1.854575e+00 -2.090037e+00 -6.853251e-01 -4.347277e-01 -2.127993e-01 -9.963050e-02 -4.374308e-02 4.211269e-01 1.157480e-01 3.410971e-01 3.232097e-01 2.425938e-01 2.066131e-01 -3.412446e-02 3.446418e-02 -1.911947e-01
<VARIANCE> 25
 1.178983e+01 1.018142e+01 9.386480e+00 1.127756e+01 1.667674e+01 1.696973e+01 1.859646e+01 1.861441e+01 1.645334e+01 1.535867e+01 1.341763e+01 1.202309e+01 6.544242e-01 5.231829e-01 6.900051e-01 8.163821e-01 1.222947e+00 1.390427e+00 1.439893e+00 1.622124e+00 1.281342e+00 1.255063e+00 1.328791e+00 1.071585e+00 3.633237e-01
<GCONST> 7.705425e+01
<TRANSP> 5
 0.000000e+00 1.000000e+00 0.000000e+00 0.000000e+00 0.000000e+00
 0.000000e+00 7.486950e-01 2.513050e-01 0.000000e+00 0.000000e+00
 0.000000e+00 0.000000e+00 8.234058e-01 1.765942e-01 0.000000e+00
 0.000000e+00 0.000000e+00 0.000000e+00 8.527347e-01 1.472653e-01
 0.000000e+00 0.000000e+00 0.000000e+00 0.000000e+00 0.000000e+00
<ENDHMM>
~h "p"
<BEGINHMM>
<NUMSTATES> 5
<STATE> 2
<MEAN> 25
 -1.491256e-01 -1.998092e+00 1.488088e+00 1.961845e+00 1.349568e+00 1.702859e-01 1.112536e+00 -3.058411e+00 8.729081e-01 1.004520e+00 1.079822e+00 9.744838e-01 -1.043766e+00 -1.200817e+00 -3.100671e-01 2.011115e-01 6.400355e-01 1.116856e+00 1.153839e+00 -2.493607e-01 9.732057e-01 1.462532e-01 4.926454e-01 7.654586e-01 -1.224717e+00
<VARIANCE> 25
 2.216310e+01 1.249657e+01 2.259484e+01 1.669619e+01 2.902141e+01 3.428121e+01 3.117531e+01 2.502723e+01 2.840813e+01 2.200930e+01 1.733865e+01 1.687822e+01 1.505946e+00 9.915870e-01 1.640437e+00 2.065037e+00 2.797315e+00 2.487267e+00 2.933288e+00 3.442289e+00 2.487369e+00 2.390470e+00 1.889296e+00 1.603064e+00 9.358799e-01
<GCONST> 9.188081e+01
<STATE> 3
<MEAN> 25
 -3.497694e+00 -5.165695e+00 -6.630036e-01 1.593367e+00 2.683468e+00 3.671127e+00 4.336970e+00 -1.675761e+00 3.604302e+00 2.884657e+00 2.053481e+00 2.482192e+00 -1.619871e-01 -2.349475e-01 -2.297716e-01 3.382417e-02 8.384759e-02 3.479095e-01 2.945732e-01 3.051056e-01 2.150143e-01 1.580764e-01 -2.312983e-02 2.095250e-02 -3.879663e-02
<VARIANCE> 25
 7.431787e+00 6.212908e+00 1.134175e+01 1.377316e+01 1.556415e+01 2.125617e+01 2.859925e+01 1.872380e+01 1.688141e+01 1.895508e+01 1.800968e+01 1.402827e+01 8.975576e-01 6.966267e-01 8.231453e-01 1.018379e+00 1.164667e+00 1.486732e+00 1.683110e+00 1.668421e+00 1.780087e+00 1.689458e+00 1.434799e+00 1.271990e+00 9.369146e-01
<GCONST> 8.078865e+01
<STATE> 4
<MEAN> 25
 -2.360302e+00 -4.757110e+00 -1.886548e+00 1.770524e+00 2.697709e+00 4.179821e+00 4.295163e+00 -6.657348e-01 3.537412e+00 2.094492e+00 9.563010e-01 1.540602e+00 9.495203e-01 6.524162e-01 -1.505228e-01 -1.729837e-01 -4.102593e-01 -7.144775e-01 -7.439389e-01 2.204436e-01 -3.499630e-01 -4.284180e-01 -2.739421e-01 -2.931427e-01 9.880482e-01
<VARIANCE> 25
 1.811971e+01 1.399359e+01 1.467862e+01 1.685485e+01 1.382716e+01 2.594881e+01 3.235741e+01 2.161937e+01 1.972370e+01 1.815035e+01 2.036215e+01 1.687521e+01 3.245481e+00 1.519546e+00 1.821111e+00 2.164282e+00 1.763574e+00 3.063344e+00 3.746730e+00 2.471292e+00 2.542504e+00 1.986681e+00 2.031651e+00 1.812491e+00 2.403913e+00
<GCONST> 9.182674e+01
<TRANSP> 5
 0.000000e+00 1.000000e+00 0.000000e+00 0.000000e+00 0.000000e+00
 0.000000e+00 6.958602e-01 3.041398e-01 0.000000e+00 0.000000e+00
 0.000000e+00 0.000000e+00 7.781072e-01 2.218928e-01 0.000000e+00
 0.000000e+00 0.000000e+00 0.000000e+00 8.416378e-01 1.583622e-01
 0.000000e+00 0.000000e+00 0.000000e+00 0.000000e+00 0.000000e+00
<ENDHMM>
~h "r"
<BEGINHMM>
<NUMSTATES> 5
<STATE> 2
<MEAN> 25
 6.711711e+00 -2.572192e+00 -3.447773e+00 2.090448e+00 -2.408195e+00 -4.914854e+00 -6.038537e+00 3.659433e+00 1.474828e+00 -1.257447e-01 -4.805952e-01 1.109750e+00 9.679923e-01 -2.470761e-01 7.869318e-03 5.096987e-01 -2.944701e-01 -1.301616e+00 -9.768883e-01 5.783846e-01 4.543054e-01 -4.595682e-01 -4.065486e-01 2.925096e-01 1.716571e-01
<VARIANCE> 25
 3.649485e+01 1.571966e+01 5.840527e+01 2.074488e+01 3.170087e+01 3.031883e+01 4.469366e+01 6.413240e+01 2.675551e+01 2.124446e+01 2.341799e+01 1.385541e+01 2.961766e+00 1.118873e+00 2.182123e+00 1.560286e+00 1.542201e+00 2.569175e+00 3.175906e+00 2.765079e+00 1.993013e+00 1.748697e+00 1.542321e+00 1.255996e+00 6.340420e-01
<GCONST> 9.377946e+01
<STATE> 3
<MEAN> 25
 9.827981e+00 -3.145428e+00 -2.696683e+00 3.510359e+00 -3.255429e+00 -9.609797e+00 -7.599256e+00 6.765705e+00 2.820374e+00 -2.505590e+00 -1.731919e+00 2.702467e+00 1.803399e-01 -5.019485e-02 4.608907e-01 1.799439e-01 -3.138755e-01 -6.004530e-01 1.097755e-01 6.828186e-02 -3.381591e-03 -3.200864e-01 9.232081e-02 2.719179e-01 -1.143108e-01
<VARIANCE> 25
 1.030771e+01 9.171951e+00 3.521077e+01 1.743332e+01 1.744740e+01 2.298891e+01 2.758451e+01 4.423540e+01 1.504784e+01 1.752451e+01 1.546148e+01 1.029118e+01 9.038350e-01 5.202376e-01 1.431981e+00 8.901464e-01 1.329992e+00 1.205189e+00 1.486328e+00 2.159856e+00 1.479949e+00 1.129718e+00 1.080208e+00 8.262001e-01 2.177027e-01
<GCONST> 8.066302e+01
<STATE> 4
<MEAN> 25
 6.650485e+00 -3.034612e+00 3.034713e-01 3.315340e+00 -3.398921e+00 -7.653523e+00 -4.246701e+00 3.963345e+00 2.428285e+00 -1.288025e+00 -2.955747e-01 2.819489e+00 -5.330896e-01 9.532145e-02 3.792064e-01 -1.885131e-01 1.310436e-01 7.513236e-01 7.110645e-01 -6.046841e-01 -3.507857e-01 1.690697e-01 2.999899e-01 -1.606771e-01 -4.057326e-01
<VARIANCE> 25
 2.319046e+01 1.150713e+01 2.697610e+01 1.717052e+01 2.416517e+01 3.774103e+01 3.770620e+01 3.732294e+01 2.333676e+01 2.290463e+01 1.843481e+01 1.199611e+01 1.006797e+00 6.772997e-01 1.263415e+00 1.149095e+00 1.807567e+00 1.811355e+00 1.925331e+00 2.392755e+00 1.764728e+00 1.372462e+00 1.310669e+00 1.172467e+00 5.173013e-01
<GCONST> 8.677571e+01
<TRANSP> 5
 0.000000e+00 1.000000e+00 0.000000e+00 0.000000e+00 0.000000e+00
 0.000000e+00 6.872365e-01 3.127635e-01 0.000000e+00 0.000000e+00
 0.000000e+00 0.000000e+00 7.467486e-01 2.532515e-01 0.000000e+00
 0.000000e+00 0.000000e+00 0.000000e+00 8.277938e-01 1.722062e-01
 0.000000e+00 0.000000e+00 0.000000e+00 0.000000e+00 0.000000e+00
<ENDHMM>
~h "s"
<BEGINHMM>
<NUMSTATES> 5
<STATE> 2
<MEAN> 25
 -8.748890e+00 6.138836e+00 -3.615956e+00 3.802430e+00 5.654704e+00 -2.812064e+00 5.370987e+00 -2.330483e+00 3.610385e+00 1.210765e+00 -1.716352e-01 2.315930e+00 -3.107191e+00 1.175779e+00 -1.759046e+00 1.416482e-01 1.589495e+00 -2.176558e-02 1.650275e+00 1.551933e-01 7.355685e-01 4.006018e-02 3.018857e-01 4.190304e-01 6.307545e-01
<VARIANCE> 25
 5.196479e+01 2.850584e+01 2.951489e+01 2.041033e+01 3.097138e+01 3.429358e+01 4.202396e+01 3.133477e+01 2.821389e+01 2.295687e+01 1.813308e+01 1.636564e+01 2.957180e+00 2.222454e+00 1.962090e+00 2.123955e+00 3.674241e+00 3.389063e+00 4.296947e+00 2.998315e+00 3.025502e+00 2.516938e+00 2.293247e+00 1.841645e+00 8.006268e-01
<GCONST> 9.760226e+01
<STATE> 3
<MEAN> 25
 -1.790465e+01 8.381283e+00 -9.793982e+00 2.978090e+00 7.920157e+00 -2.705453e+00 7.798615e+00 -1.695664e+00 4.590369e+00 1.448158e+00 6.974149e-01 3.042993e+00 1.400245e-01 -2.598587e-01 8.476262e-02 -1.539301e-01 -6.486703e-02 2.365098e-02 -1.057313e-01 -1.394699e-02 -9.781957e-03 -2.307106e-03 5.615835e-03 -1.990732e-02 -1.637542e-01
<VARIANCE> 25
 9.183484e+00 1.098957e+01 1.154662e+01 1.513195e+01 1.813813e+01 2.188647e+01 1.758559e+01 2.263929e+01 1.830406e+01 1.822271e+01 1.453123e+01 1.374553e+01 1.494185e+00 9.661413e-01 1.290694e+00 1.111282e+00 1.278559e+00 1.683608e+00 1.426864e+00 1.788360e+00 1.579043e+00 1.544316e+00 1.502547e+00 1.342873e+00 4.801731e-01
<GCONST> 8.209298e+01
<STATE> 4
<MEAN> 25
 -8.478207e+00 2.357032e+00 -4.096059e+00 4.954104e-01 5.229441e+00 -1.762406e+00 5.520787e+00 -2.127522e+00 4.798183e+00 1.877995e+00 5.071267e-01 2.396003e+00 2.512209e+00 -9.488388e-01 1.067326e+00 -5.217124e-01 -1.066042e+00 1.937628e-01 -9.376381e-01 -2.762283e-01 -2.111936e-01 -1.052796e-01 -3.753662e-01 -4.519484e-01 -4.600796e-01
<VARIANCE> 25
 3.502597e+01 2.231110e+01 2.242279e+01 2.431749e+01 2.432962e+01 3.822543e+01 3.209986e+01 2.493281e+01 2.056593e+01 2.200533e+01 2.218154e+01 1.534859e+01 4.307492e+00 2.053382e+00 2.192014e+00 2.221709e+00 2.687060e+00 3.668277e+00 3.362896e+00 2.835294e+00 2.148590e+00 2.311184e+00 2.607299e+00 1.890799e+00 1.502032e+00
<GCONST> 9.628558e+01
<TRANSP> 5
 0.000000e+00 1.000000e+00 0.000000e+00 0.000000e+00 0.000000e+00
 0.000000e+00 7.944150e-01 2.055850e-01 0.000000e+00 0.000000e+00
 0.000000e+00 0.000000e+00 9.004106e-01 9.958940e-02 0.000000e+00
 0.000000e+00 0.000000e+00 0.000000e+00 7.692946e-01 2.307054e-01
 0.000000e+00 0.000000e+00 0.000000e+00 0.000000e+00 0.000000e+00
<ENDHMM>
~h "t"
<BEGINHMM>
<NUMSTATES> 5
<STATE> 2
<MEAN> 25
 -1.118955e+00 -3.123499e+00 1.977629e-01 2.255271e+00 2.472324e+00 3.685078e+00 4.465940e+00 -8.738768e-01 2.905349e+00 2.186466e+00 -8.485976e-02 9.409204e-01 -7.383664e-01 -9.381752e-01 -3.111372e-01 1.118058e-01 6.619236e-01 1.191357e+00 1.162819e+00 3.205161e-01 7.904072e-01 4.246588e-01 5.832318e-01 4.629923e-01 -8.722270e-01
<VARIANCE> 25
 1.546104e+01 1.570448e+01 1.839265e+01 1.541348e+01 2.247377e+01 2.864799e+01 3.548646e+01 3.117874e+01 2.454080e+01 2.120051e+01 2.327967e+01 1.738868e+01 8.480675e-01 1.309394e+00 1.311555e+00 1.727262e+00 2.242016e+00 2.824824e+00 2.937047e+00 2.731138e+00 2.190670e+00 2.145969e+00 2.142543e+00 1.583665e+00 8.765082e-01
<GCONST> 9.030865e+01
<STATE> 3
<MEAN> 25
 -4.123563e+00 -5.309521e+00 -1.320412e+00 1.603958e+00 3.373481e+00 5.750821e+00 6.464169e+00 2.285997e-01 4.634978e+00 3.792628e+00 1.909187e+00 2.580150e+00 -1.964273e-01 2.732318e-02 -9.294647e-02 -8.631039e-02 3.229734e-05 -1.244545e-01 -8.313356e-02 1.791790e-04 -3.610412e-02 2.202004e-03 8.708173e-02 7.733937e-02 5.830846e-02
<VARIANCE> 25
 6.953041e+00 8.582913e+00 1.248648e+01 1.650526e+01 1.514264e+01 2.462894e+01 2.585679e+01 2.168106e+01 1.797956e+01 1.901085e+01 1.578063e+01 1.345578e+01 6.169046e-01 9.825628e-01 1.023976e+00 1.356307e+00 1.325096e+00 2.656628e+00 1.756282e+00 1.896134e+00 1.770309e+00 1.758529e+00 1.330477e+00 1.349159e+00 1.087637e+00
<GCONST> 8.290113e+01
<STATE> 4
<MEAN> 25
 -5.960284e+00 -1.593867e+00 -2.418085e+00 -7.176785e-01 3.058838e+00 2.845820e-01 4.305734e+00 9.450477e-01 3.390890e+00 1.433074e+00 1.255630e+00 2.797502e+00 7.145103e-01 1.068445e+00 2.149225e-01 -2.726053e-01 -8.150222e-01 -1.515588e+00 -1.168831e+00 1.570324e-02 -5.411866e-01 -8.523179e-01 -6.076278e-01 -2.887685e-01 1.331404e+00
<VARIANCE> 25
 2.595660e+01 2.256946e+01 2.390632e+01 3.343677e+01 2.366660e+01 4.859297e+01 3.301488e+01 2.789612e+01 2.439360e+01 2.365220e+01 1.820701e+01 1.728716e+01 4.539410e+00 2.540808e+00 3.576262e+00 5.337302e+00 3.066787e+00 4.799765e+00 4.346317e+00 3.644942e+00 2.875306e+00 2.550605e+00 2.305042e+00 2.108492e+00 3.500928e+00
<GCONST> 1.006591e+02
<TRANSP> 5
 0.000000e+00 1.000000e+00 0.000000e+00 0.000000e+00 0.000000e+00
 0.000000e+00 7.724727e-01 2.275273e-01 0.000000e+00 0.000000e+00
 0.000000e+00 0.000000e+00 8.411148e-01 1.588852e-01 0.000000e+00
 0.000000e+00 0.000000e+00 0.000000e+00 7.501081e-01 2.498919e-01
 0.000000e+00 0.000000e+00 0.000000e+00 0.000000e+00 0.000000e+00
<ENDHMM>
~h "v"
<BEGINHMM>
<NUMSTATES> 5
<STATE> 2
<MEAN> 25
 7.412920e-01 -1.850534e+00 -4.092691e+00 -1.665189e+00 2.680130e+00 1.810024e+00 2.799604e+00 1.063695e-01 -4.429984e-02 1.548253e+00 -2.224335e+00 1.632673e-01 1.070123e+00 2.311463e-01 -1.316128e+00 -1.561784e+00 3.836990e-01 7.833978e-01 1.022241e-01 3.454268e-01 -6.495293e-01 -2.657079e-01 -7.459919e-01 -2.269266e-01 1.061610e+00
<VARIANCE> 25
 5.204570e+01 2.675148e+01 4.948343e+01 9.367904e+01 2.329670e+01 3.925662e+01 3.504097e+01 2.480902e+01 2.646222e+01 1.819147e+01 2.201199e+01 1.509312e+01 6.546584e+00 1.379650e+00 2.726830e+00 7.355031e+00 2.674441e+00 3.070752e+00 3.152739e+00 2.986419e+00 3.718854e+00 2.491005e+00 3.295119e+00 1.583789e+00 3.258735e+00
<GCONST> 1.018028e+02
<STATE> 3
<MEAN> 25
 5.738566e+00 -7.947605e-01 -6.388826e+00 -4.499003e+00 1.869854e+00 3.171280e+00 1.617989e+00 1.099562e+00 -2.572816e+00 5.285606e-01 -3.956456e+00 -7.653015e-01 -2.243497e-01 4.123087e-01 -2.495997e-01 1.381976e-01 -1.207570e-01 6.510625e-01 4.259611e-01 -6.761657e-02 -4.779789e-02 -8.302557e-02 1.214966e-01 -5.037732e-02 -1.419037e-01
<VARIANCE> 25
 3.956270e+01 1.142013e+01 4.413186e+01 1.009400e+02 1.955352e+01 3.450414e+01 2.390612e+01 2.240863e+01 2.700904e+01 1.612465e+01 2.113848e+01 1.231337e+01 2.270471e+00 7.230123e-01 1.079017e+00 1.192515e+00 1.375206e+00 2.718980e+00 1.778783e+00 1.745419e+00 1.370466e+00 1.314721e+00 1.098389e+00 1.053197e+00 6.652702e-01
<GCONST> 8.842446e+01
<STATE> 4
<MEAN> 25
 1.680253e+00 5.412872e-01 -5.717792e+00 -1.894488e+00 -5.020597e-01 4.212614e+00 3.571772e+00 8.926582e-01 -1.129607e+00 1.764874e+00 -2.138275e+00 -7.865867e-02 -4.100283e-01 -1.101489e-01 1.685511e-01 3.343890e-01 2.054583e-02 2.543177e-03 2.548603e-02 -4.615724e-03 2.328719e-01 4.307793e-02 1.615338e-01 9.610857e-02 -2.624186e-01
<VARIANCE> 25
 5.453692e+01 1.346966e+01 2.762212e+01 8.702020e+01 1.688815e+01 2.846996e+01 2.463665e+01 1.847898e+01 3.715984e+01 1.620426e+01 1.890121e+01 1.274022e+01 1.892581e+00 7.606093e-01 1.220721e+00 2.146399e+00 1.374574e+00 2.075033e+00 1.882871e+00 1.727989e+00 2.137481e+00 1.379331e+00 1.265191e+00 1.103814e+00 2.910018e-01
<GCONST> 8.824802e+01
<TRANSP> 5
 0.000000e+00 1.000000e+00 0.000000e+00 0.000000e+00 0.000000e+00
 0.000000e+00 6.460280e-01 3.539720e-01 0.000000e+00 0.000000e+00
 0.000000e+00 0.000000e+00 5.927466e-01 4.072534e-01 0.000000e+00
 0.000000e+00 0.000000e+00 0.000000e+00 9.235013e-01 7.649872e-02
 0.000000e+00 0.000000e+00 0.000000e+00 0.000000e+00 0.000000e+00
<ENDHMM>
~h "w"
<BEGINHMM>
<NUMSTATES> 5
<STATE> 2
<MEAN> 25
 -3.157663e-02 -2.229743e+00 1.957140e-01 -9.098411e-03 -5.428920e-01 1.708921e+00 1.116387e+00 -2.941672e+00 6.891644e-01 1.653425e+00 7.780368e-01 1.199720e+00 8.770434e-01 7.021925e-01 -1.327538e-02 -4.603646e-01 -6.496272e-01 -2.745282e-01 -2.081365e-01 -2.102335e-01 -4.147621e-01 -4.248299e-01 -3.468679e-01 -7.037352e-02 2.068200e-01
<VARIANCE> 25
 2.494361e+01 2.173809e+01 1.432824e+01 1.861122e+01 3.044595e+01 3.456398e+01 3.603374e+01 1.898139e+01 2.552090e+01 2.163865e+01 1.825861e+01 1.566136e+01 3.069716e+00 2.265981e+00 1.094411e+00 1.887297e+00 3.735178e+00 3.448540e+00 2.712757e+00 1.844200e+00 2.639538e+00 2.485147e+00 1.873357e+00 1.677159e+00 1.140833e+00
<GCONST> 9.327333e+01
<STATE> 3
<MEAN> 25
 7.867339e+00 4.867568e+00 1.135738e+00 -3.051925e+00 -6.355554e+00 -1.392057e+00 -1.067690e+00 -3.938582e+00 -2.805441e+00 -1.703607e+00 -1.083136e+00 5.062040e-01 6.547703e-01 5.783963e-01 -1.376082e-01 -3.121085e-01 -4.460422e-01 8.812047e-03 2.395429e-02 9.067264e-02 -2.201323e-01 -1.139396e-01 5.414229e-02 1.393152e-01 3.270999e-01
<VARIANCE> 25
 8.517206e+00 7.432387e+00 1.048013e+01 1.340849e+01 1.844163e+01 1.468597e+01 1.173216e+01 1.592254e+01 1.829857e+01 1.403720e+01 1.086790e+01 1.085964e+01 9.283168e-01 6.548172e-01 9.317598e-01 1.229310e+00 1.263780e+00 1.280369e+00 1.104547e+00 1.161067e+00 1.387935e+00 1.166378e+00 1.000118e+00 1.028251e+00 3.139418e-01
<GCONST> 7.591037e+01
<STATE> 4
<MEAN> 25
 1.020906e+01 4.086550e+00 -4.019262e+00 -5.557697e+00 -5.992389e+00 5.937176e-01 -1.195576e+00 -9.124596e-01 -4.712099e+00 -1.039579e+00 6.646531e-01 4.618378e-01 1.083844e-01 -4.482175e-01 -8.465943e-01 3.404050e-02 5.155169e-01 1.505147e-02 -4.050048e-01 9.119262e-01 3.094081e-02 2.786610e-01 9.583090e-02 -3.387605e-01 5.364846e-01
<VARIANCE> 25
 4.772300e+00 1.296372e+01 2.398634e+01 2.181836e+01 3.004333e+01 2.659489e+01 2.346079e+01 2.852942e+01 1.775196e+01 1.734292e+01 1.966190e+01 1.828080e+01 3.341772e-01 6.024903e-01 1.305495e+00 1.546033e+00 1.616610e+00 2.392167e+00 1.991036e+00 2.063834e+00 1.857662e+00 1.490875e+00 1.897881e+00 1.888815e+00 1.905936e-01
<GCONST> 8.363899e+01
<TRANSP> 5
 0.000000e+00 1.000000e+00 0.000000e+00 0.000000e+00 0.000000e+00
 0.000000e+00 8.173380e-01 1.826620e-01 0.000000e+00 0.000000e+00
 0.000000e+00 0.000000e+00 7.866559e-01 2.133441e-01 0.000000e+00
 0.000000e+00 0.000000e+00 0.000000e+00 8.441398e-01 1.558602e-01
 0.000000e+00 0.000000e+00 0.000000e+00 0.000000e+00 0.000000e+00
<ENDHMM>
~h "y"
<BEGINHMM>
<NUMSTATES> 5
<STATE> 2
<MEAN> 25
 -4.086410e+00 4.399930e-01 2.547479e+00 9.244105e-01 2.501508e+00 3.461546e+00 1.420022e+00 -3.039958e+00 3.466231e-01 9.570728e-01 1.082024e+00 -6.524277e-02 8.289034e-01 1.525147e+00 1.376671e+00 -4.615332e-01 -9.436710e-01 -8.445461e-01 -1.716074e+00 -4.654410e-01 -1.760182e+00 -1.074502e+00 8.884309e-02 -1.528312e+00 8.848373e-01
<VARIANCE> 25
 1.819749e+01 2.472729e+01 1.728550e+01 2.915589e+01 1.911611e+01 2.748810e+01 3.048072e+01 2.716676e+01 3.451142e+01 2.769699e+01 1.671730e+01 2.459738e+01 2.387672e+00 2.778083e+00 1.788164e+00 3.357041e+00 2.422065e+00 2.616894e+00 4.298282e+00 2.829601e+00 4.813591e+00 3.038542e+00 2.338604e+00 3.946087e+00 1.271009e+00
<GCONST> 9.731792e+01
<STATE> 3
<MEAN> 25
 -9.337264e-01 6.979159e+00 6.406941e+00 4.813959e-01 -4.061073e-01 5.274148e-01 -3.151364e+00 -6.077641e+00 -3.773802e+00 -3.653459e+00 1.306637e+00 -5.335905e+00 6.294848e-01 7.705625e-01 7.771940e-01 -2.154178e-01 -1.150215e+00 -5.500628e-01 -7.814555e-01 9.327699e-02 -7.182275e-01 -3.624634e-01 6.958996e-01 -5.914235e-01 4.710024e-01
<VARIANCE> 25
 1.063679e+01 1.263824e+01 1.161578e+01 2.187961e+01 3.123578e+01 1.929661e+01 2.176077e+01 2.837967e+01 2.994224e+01 1.682774e+01 1.827557e+01 3.051887e+01 1.823159e+00 1.440942e+00 9.304714e-01 2.141364e+00 2.895157e+00 1.876005e+00 3.388223e+00 2.393753e+00 2.660459e+00 2.236183e+00 1.748935e+00 3.626483e+00 5.265849e-01
<GCONST> 9.018917e+01
<STATE> 4
<MEAN> 25
 2.052151e+00 7.410604e+00 7.538696e+00 3.882153e+00 -8.250823e+00 -3.762121e+00 -5.200125e+00 -2.359033e+00 -6.784794e+00 -4.601272e+00 5.205998e+00 -6.266479e+00 3.454296e-01 -3.160236e-01 -3.102838e-01 5.350943e-01 -3.086700e-01 -7.653785e-01 -1.784932e-01 6.621248e-01 1.177284e-01 -1.340427e-01 -4.066116e-02 3.920360e-01 1.427139e-01
<VARIANCE> 25
 4.403360e+00 8.791645e+00 7.991617e+00 3.377866e+01 2.704949e+01 3.718492e+01 2.322294e+01 3.100684e+01 2.071737e+01 2.396172e+01 2.114305e+01 1.981961e+01 2.755925e-01 5.315397e-01 7.393674e-01 1.128230e+00 1.954618e+00 1.760266e+00 2.058898e+00 2.495768e+00 2.334508e+00 1.496726e+00 1.596896e+00 1.374600e+00 1.280501e-01
<GCONST> 8.169192e+01
<TRANSP> 5
 0.000000e+00 1.000000e+00 0.000000e+00 0.000000e+00 0.000000e+00
 0.000000e+00 6.717914e-01 3.282085e-01 0.000000e+00 0.000000e+00
 0.000000e+00 0.000000e+00 7.063704e-01 2.936297e-01 0.000000e+00
 0.000000e+00 0.000000e+00 0.000000e+00 9.043678e-01 9.563225e-02
 0.000000e+00 0.000000e+00 0.000000e+00 0.000000e+00 0.000000e+00
<ENDHMM>
~h "z"
<BEGINHMM>
<NUMSTATES> 5
<STATE> 2
<MEAN> 25
 -6.654633e+00 8.182549e+00 -1.407268e+00 2.780499e+00 3.932697e+00 -4.393384e+00 2.683976e+00 -3.118569e+00 1.742647e+00 -2.850044e-02 -1.178456e+00 1.879517e+00 -3.463299e+00 8.208616e-01 -1.786481e+00 4.668708e-01 2.162832e+00 4.978660e-01 2.328974e+00 6.679820e-02 1.356938e+00 -1.176802e-01 4.670161e-01 4.465435e-01 2.706299e-01
<VARIANCE> 25
 5.812405e+01 1.898309e+01 2.870955e+01 2.690973e+01 4.075290e+01 2.725572e+01 3.989882e+01 4.009190e+01 2.408787e+01 2.167467e+01 2.288374e+01 1.511240e+01 2.461913e+00 1.284541e+00 1.919438e+00 3.179020e+00 3.371211e+00 2.903542e+00 3.706980e+00 3.915504e+00 2.494489e+00 2.766710e+00 2.993148e+00 1.992258e+00 4.199637e-01
<GCONST> 9.686296e+01
<STATE> 3
<MEAN> 25
 -1.783602e+01 9.259024e+00 -9.650201e+00 2.180107e+00 7.782071e+00 -3.095888e+00 8.224719e+00 -2.155166e+00 4.619439e+00 1.048289e+00 9.171854e-01 2.856640e+00 -3.460095e-01 -1.788856e-01 -1.893173e-01 -1.077667e-01 9.376705e-02 3.391951e-04 5.708808e-02 -2.397054e-02 -8.892328e-03 1.011794e-01 1.613503e-01 9.130342e-02 -2.970676e-01
<VARIANCE> 25
 7.053271e+00 7.421684e+00 1.385041e+01 1.648510e+01 1.689203e+01 1.830413e+01 1.989780e+01 2.400700e+01 2.014954e+01 1.675846e+01 1.414597e+01 1.465590e+01 1.284636e+00 6.624292e-01 1.541644e+00 1.041061e+00 1.288416e+00 1.372780e+00 1.498131e+00 1.993155e+00 1.797005e+00 1.515624e+00 1.403234e+00 1.517393e+00 2.267108e-01
<GCONST> 8.064442e+01
<STATE> 4
<MEAN> 25
 -9.624887e+00 1.628895e+00 -3.378893e+00 2.646203e+00 6.114507e+00 5.562913e-01 7.893227e+00 -2.513402e+00 5.516954e+00 2.616983e+00 2.096917e+00 2.776214e+00 1.342961e+00 -1.016449e+00 8.059782e-01 -2.328392e-02 -4.446619e-01 5.113914e-01 -2.824529e-01 -1.323926e-01 -5.396239e-02 8.695492e-02 -4.347341e-03 -1.968488e-01 -6.898503e-01
<VARIANCE> 25
 2.581904e+01 2.397018e+01 1.743208e+01 1.855424e+01 1.956055e+01 3.786930e+01 2.614787e+01 2.460555e+01 2.128128e+01 1.944141e+01 1.990099e+01 1.447006e+01 2.226103e+00 1.668673e+00 1.485736e+00 1.607445e+00 1.918473e+00 3.084410e+00 2.378310e+00 2.562842e+00 2.147663e+00 1.964814e+00 2.092276e+00 1.497382e+00 1.272739e+00
<GCONST> 9.150751e+01
<TRANSP> 5
 0.000000e+00 1.000000e+00 0.000000e+00 0.000000e+00 0.000000e+00
 0.000000e+00 7.826330e-01 2.173670e-01 0.000000e+00 0.000000e+00
 0.000000e+00 0.000000e+00 8.730684e-01 1.269316e-01 0.000000e+00
 0.000000e+00 0.000000e+00 0.000000e+00 8.868227e-01 1.131773e-01
 0.000000e+00 0.000000e+00 0.000000e+00 0.000000e+00 0.000000e+00
<ENDHMM>
~h "aa"
<BEGINHMM>
<NUMSTATES> 5
<STATE> 2
<MEAN> 25
 2.422358e+00 -1.182997e+00 -3.226005e+00 -3.176941e+00 9.646186e-01 1.538581e+00 1.669865e+00 1.556132e+00 -8.820248e-02 1.358107e+00 -1.394050e+00 3.625163e-02 1.334917e+00 -3.505589e-01 -1.488846e+00 -1.795593e+00 3.395320e-01 4.277605e-01 -3.534738e-01 1.149424e+00 -6.257474e-01 -3.698152e-01 -1.202780e+00 -2.803026e-01 1.218915e+00
<VARIANCE> 25
 3.740876e+01 3.118421e+01 2.626491e+01 4.521600e+01 5.126915e+01 4.199320e+01 4.371886e+01 3.787495e+01 3.067474e+01 2.766430e+01 3.066302e+01 1.739934e+01 3.909146e+00 1.421002e+00 2.424491e+00 3.972850e+00 3.827236e+00 3.069983e+00 3.511924e+00 3.645773e+00 3.134975e+00 3.326540e+00 3.263182e+00 1.571599e+00 2.428595e+00
<GCONST> 1.020582e+02
<STATE> 3
<MEAN> 25
 9.063968e+00 1.863982e-01 -7.639117e+00 -9.007835e+00 -6.330968e-01 2.280371e+00 6.403617e-01 4.656081e+00 -2.993176e+00 -8.371551e-01 -5.191437e+00 -3.159708e-01 7.727835e-01 -5.153865e-01 -9.719037e-01 -7.521504e-01 4.931178e-01 1.088189e+00 -2.996172e-02 4.499593e-01 -8.269913e-01 1.119825e-01 -4.158003e-01 -1.916776e-02 4.947527e-01
<VARIANCE> 25
 1.151203e+01 2.542326e+01 1.571455e+01 2.812359e+01 4.817311e+01 2.883743e+01 3.520192e+01 2.829092e+01 2.402121e+01 2.475771e+01 2.602122e+01 1.499965e+01 1.156855e+00 7.306130e-01 1.162891e+00 1.307991e+00 1.929029e+00 1.672260e+00 1.728873e+00 1.989258e+00 1.541830e+00 1.741286e+00 1.513667e+00 1.220985e+00 7.850606e-01
<GCONST> 8.822976e+01
<STATE> 4
<MEAN> 25
 9.323098e+00 -1.532588e+00 -9.349558e+00 -8.690437e+00 2.071372e+00 4.242294e+00 -7.443576e-01 5.542675e+00 -5.309812e+00 1.040030e+00 -6.252132e+00 -1.537652e+00 -1.916256e-01 8.052532e-02 2.423810e-01 4.337952e-01 2.698877e-02 -3.120332e-01 -2.688634e-01 -1.158344e-01 1.841277e-01 2.298883e-01 -4.655781e-02 -6.108867e-02 -1.146708e-01
<VARIANCE> 25
 6.238043e+00 1.545342e+01 1.154142e+01 2.691632e+01 2.706545e+01 2.564217e+01 3.394550e+01 1.998238e+01 1.845046e+01 3.697844e+01 2.293031e+01 1.346230e+01 2.592759e-01 5.026476e-01 7.081022e-01 9.858596e-01 9.201456e-01 1.141593e+00 1.146126e+00 1.496835e+00 1.109895e+00 1.169010e+00 1.055212e+00 8.993608e-01 2.699429e-01
<GCONST> 7.866433e+01
<TRANSP> 5
 0.000000e+00 1.000000e+00 0.000000e+00 0.000000e+00 0.000000e+00
 0.000000e+00 6.621363e-01 3.378637e-01 0.000000e+00 0.000000e+00
 0.000000e+00 0.000000e+00 4.806306e-01 5.193694e-01 0.000000e+00
 0.000000e+00 0.000000e+00 0.000000e+00 9.295149e-01 7.048514e-02
 0.000000e+00 0.000000e+00 0.000000e+00 0.000000e+00 0.000000e+00
<ENDHMM>
~h "ae"
<BEGINHMM>
<NUMSTATES> 5
<STATE> 2
<MEAN> 25
 4.821286e-01 -3.785748e+00 -1.165038e+00 4.622793e-02 1.084173e+00 -3.120678e-01 4.328207e+00 4.308891e+00 1.202949e+00 -2.745203e-01 -1.472273e+00 1.296650e+00 1.172300e+00 -6.475641e-01 -7.996001e-01 -1.090444e+00 -5.325046e-01 -1.253098e+00 1.797730e-01 2.361179e+00 -5.243537e-01 -8.164402e-01 -1.299577e+00 8.711057e-02 1.771760e+00
<VARIANCE> 25
 2.827591e+01 3.047968e+01 2.466113e+01 2.810376e+01 3.279489e+01 4.800100e+01 4.135669e+01 6.232640e+01 2.295708e+01 3.562422e+01 3.432777e+01 2.023250e+01 2.504284e+00 2.076309e+00 2.329380e+00 2.925068e+00 4.242990e+00 5.191247e+00 3.796394e+00 5.660313e+00 2.983898e+00 3.504431e+00 4.076838e+00 1.842948e+00 2.954665e+00
<GCONST> 1.028878e+02
<STATE> 3
<MEAN> 25
 5.461771e+00 -5.736230e+00 -2.662709e+00 -3.078991e+00 -5.673602e-01 -3.916131e+00 5.801133e+00 1.178482e+01 -2.377091e+00 -4.606668e+00 -7.007321e+00 1.251807e+00 6.446127e-01 -9.491254e-02 -1.412691e-02 -4.492611e-01 -6.435870e-02 -2.308625e-01 5.437678e-02 8.314793e-01 -8.044274e-01 -2.239291e-01 -1.009586e+00 9.134155e-02 6.893335e-01
<VARIANCE> 25
 1.689134e+01 1.967533e+01 2.406939e+01 1.527598e+01 3.807972e+01 2.629154e+01 3.849527e+01 1.961231e+01 1.942451e+01 2.414061e+01 2.552899e+01 1.963634e+01 1.358505e+00 1.328834e+00 1.294629e+00 1.367538e+00 1.497256e+00 1.789863e+00 1.723386e+00 2.613357e+00 1.399237e+00 1.547821e+00 1.465445e+00 1.174711e+00 7.286768e-01
<GCONST> 8.821561e+01
<STATE> 4
<MEAN> 25
 6.283193e+00 -4.826848e+00 -2.981427e+00 -4.256897e+00 -9.657233e-01 -5.234974e+00 3.245619e+00 1.193747e+01 -3.669448e+00 -2.630120e+00 -9.914789e+00 7.406492e-01 -1.206289e-01 2.823977e-01 1.394937e-01 2.094677e-01 -8.491953e-02 -3.448269e-02 -2.285078e-01 -3.948511e-01 1.210724e-01 3.205239e-01 1.294202e-01 -4.980170e-02 -2.569841e-01
<VARIANCE> 25
 6.131657e+00 1.139114e+01 1.884336e+01 1.604610e+01 2.578379e+01 2.031384e+01 2.498483e+01 1.866186e+01 1.998068e+01 2.277146e+01 2.050057e+01 1.841663e+01 2.572702e-01 4.973363e-01 6.450942e-01 9.505102e-01 9.207227e-01 9.926711e-01 1.015731e+00 1.435259e+00 1.153208e+00 1.037337e+00 1.046147e+00 7.146860e-01 4.435359e-01
<GCONST> 7.718184e+01
<TRANSP> 5
 0.000000e+00 1.000000e+00 0.000000e+00 0.000000e+00 0.000000e+00
 0.000000e+00 7.291699e-01 2.708301e-01 0.000000e+00 0.000000e+00
 0.000000e+00 0.000000e+00 5.644106e-01 4.355894e-01 0.000000e+00
 0.000000e+00 0.000000e+00 0.000000e+00 9.364570e-01 6.354303e-02
 0.000000e+00 0.000000e+00 0.000000e+00 0.000000e+00 0.000000e+00
<ENDHMM>
~h "ah"
<BEGINHMM>
<NUMSTATES> 5
<STATE> 2
<MEAN> 25
 -4.555135e-01 -1.506501e+00 3.410101e-01 7.877020e-01 4.674714e-01 -2.441000e-01 5.945629e-01 5.210320e-01 1.872683e+00 1.120410e+00 -5.153584e-02 5.183818e-01 4.522821e-01 -3.135787e-01 -4.874272e-01 -4.966885e-01 -3.622612e-02 -2.865902e-01 -3.173566e-01 8.870021e-01 1.485233e-02 -9.771936e-02 -5.746857e-01 -7.030992e-02 5.945938e-01
<VARIANCE> 25
 2.418097e+01 3.105985e+01 2.797606e+01 2.518626e+01 4.051148e+01 5.127166e+01 4.099403e+01 4.680563e+01 2.560441e+01 3.018623e+01 3.067712e+01 1.968864e+01 2.627774e+00 1.619081e+00 2.368745e+00 2.746847e+00 3.299002e+00 4.472097e+00 3.948274e+00 4.489664e+00 2.665734e+00 2.873133e+00 3.620142e+00 2.215868e+00 3.020021e+00
<GCONST> 1.014886e+02
<STATE> 3
<MEAN> 25
 3.065606e+00 -1.719276e+00 -1.788075e+00 -1.645563e+00 -4.032891e-01 -2.251042e+00 -1.348113e+00 4.659052e+00 9.267896e-01 -3.428459e-03 -3.723555e+00 -3.769633e-01 9.016259e-01 -2.462064e-02 -2.682438e-01 -4.196666e-01 -2.727290e-01 -1.745308e-01 -6.267264e-01 6.576871e-01 -4.154903e-01 -7.460003e-02 -6.565498e-01 -2.122158e-01 7.175701e-01
<VARIANCE> 25
 2.372091e+01 3.644490e+01 3.436570e+01 2.740979e+01 4.797341e+01 4.844308e+01 4.243194e+01 4.622820e+01 2.588256e+01 3.303591e+01 3.957111e+01 2.030927e+01 2.048285e+00 1.319256e+00 1.899167e+00 2.317126e+00 3.284554e+00 3.259337e+00 3.358472e+00 4.831281e+00 2.149306e+00 2.500745e+00 2.971229e+00 1.750687e+00 2.678547e+00
<GCONST> 1.002791e+02
<STATE> 4
<MEAN> 25
 5.018016e+00 -6.745791e-01 -2.990007e+00 -2.342191e+00 -2.103795e+00 -4.087463e+00 -4.729852e+00 6.443547e+00 -5.371168e-01 -5.262031e-02 -5.224702e+00 -1.872639e+00 -7.457936e-02 1.281141e-01 1.585756e-01 2.168561e-01 1.074082e-01 1.632453e-01 1.596388e-01 -4.482701e-01 -3.247872e-03 1.434999e-01 1.298049e-01 5.652225e-02 -3.324959e-01
<VARIANCE> 25
 1.142425e+01 2.364979e+01 3.108903e+01 2.342537e+01 4.667023e+01 4.290200e+01 3.828211e+01 4.037752e+01 2.530058e+01 3.523030e+01 4.531133e+01 2.097245e+01 7.039985e-01 7.301418e-01 7.907345e-01 1.328023e+00 1.392776e+00 1.432015e+00 1.668561e+00 2.388860e+00 1.416919e+00 1.330529e+00 1.521900e+00 1.005601e+00 7.845049e-01
<GCONST> 8.900495e+01
<TRANSP> 5
 0.000000e+00 1.000000e+00 0.000000e+00 0.000000e+00 0.000000e+00
 0.000000e+00 6.397308e-01 3.602692e-01 0.000000e+00 0.000000e+00
 0.000000e+00 0.000000e+00 4.126318e-01 5.873682e-01 0.000000e+00
 0.000000e+00 0.000000e+00 0.000000e+00 8.651627e-01 1.348373e-01
 0.000000e+00 0.000000e+00 0.000000e+00 0.000000e+00 0.000000e+00
<ENDHMM>
~h "ao"
<BEGINHMM>
<NUMSTATES> 5
<STATE> 2
<MEAN> 25
 6.619269e+00 2.308476e+00 -4.054771e+00 -5.603518e+00 -2.268187e+00 4.072452e-01 6.225505e-01 1.440216e+00 -1.079318e+00 1.536949e+00 -1.515761e+00 5.443003e-01 1.395797e+00 4.570702e-01 -9.327276e-01 -1.586481e+00 -7.918675e-01 6.471712e-01 3.045379e-01 5.923282e-01 -8.587289e-01 -1.445620e-01 -1.374878e-01 3.745235e-02 6.356753e-01
<VARIANCE> 25
 2.706987e+01 2.497333e+01 2.473668e+01 4.049820e+01 3.953027e+01 3.474600e+01 3.663804e+01 2.498481e+01 2.981915e+01 2.785649e+01 2.861880e+01 1.799338e+01 3.098203e+00 1.513842e+00 2.069280e+00 3.833755e+00 2.902375e+00 3.222494e+00 1.865186e+00 1.994879e+00 2.873129e+00 2.322397e+00 2.255208e+00 1.513428e+00 1.532821e+00
<GCONST> 9.710234e+01
<STATE> 3
<MEAN> 25
 1.130161e+01 4.074318e+00 -7.048061e+00 -8.706445e+00 -7.252404e+00 2.639488e+00 2.175061e+00 3.238891e+00 -4.951616e+00 -2.139447e+00 1.285209e+00 1.604905e+00 1.513295e-01 -2.302286e-01 -5.494987e-01 -1.881472e-01 9.260002e-02 3.553042e-01 -9.637216e-02 2.837164e-01 -5.263088e-01 -6.828288e-03 3.449809e-01 1.124256e-01 1.882025e-01
<VARIANCE> 25
 4.776266e+00 1.191552e+01 1.017242e+01 1.814813e+01 2.392999e+01 1.574515e+01 2.067272e+01 1.876162e+01 2.010511e+01 2.173136e+01 2.485400e+01 1.841389e+01 1.966878e-01 4.108168e-01 4.337117e-01 7.604913e-01 9.550775e-01 7.740759e-01 1.225598e+00 6.158714e-01 8.872769e-01 9.704552e-01 9.416488e-01 7.973858e-01 1.814637e-01
<GCONST> 7.295376e+01
<STATE> 4
<MEAN> 25
 9.799177e+00 2.097661e+00 -8.678500e+00 -1.029803e+01 -1.972570e+00 2.841670e+00 -1.028890e+00 3.797623e+00 -6.770959e+00 2.843400e+00 -1.292437e+00 4.735475e-01 -1.837716e-01 -1.362731e-01 1.171075e-01 5.070459e-01 2.451799e-01 -3.490433e-01 -4.646950e-01 -1.936777e-02 3.052895e-01 2.514247e-01 1.139326e-02 -1.276139e-01 -7.305212e-02
<VARIANCE> 25
 6.201524e+00 1.830848e+01 1.296025e+01 3.909275e+01 2.563375e+01 2.327007e+01 3.251965e+01 1.907917e+01 2.079969e+01 2.288341e+01 3.797609e+01 2.003197e+01 1.935537e-01 4.844222e-01 5.243490e-01 9.734427e-01 8.014285e-01 8.614777e-01 1.123308e+00 9.159578e-01 1.283316e+00 9.124271e-01 7.671279e-01 7.113217e-01 1.668228e-01
<GCONST> 7.690783e+01
<TRANSP> 5
 0.000000e+00 1.000000e+00 0.000000e+00 0.000000e+00 0.000000e+00
 0.000000e+00 7.380366e-01 2.619635e-01 0.000000e+00 0.000000e+00
 0.000000e+00 0.000000e+00 7.998596e-01 2.001404e-01 0.000000e+00
 0.000000e+00 0.000000e+00 0.000000e+00 9.174760e-01 8.252401e-02
 0.000000e+00 0.000000e+00 0.000000e+00 0.000000e+00 0.000000e+00
<ENDHMM>
~h "aw"
<BEGINHMM>
<NUMSTATES> 5
<STATE> 2
<MEAN> 25
 4.131333e+00 -5.037525e+00 -6.379442e+00 -1.934737e+00 5.668457e+00 8.010712e-01 1.032057e+00 6.517552e+00 1.534165e+00 -1.704182e+00 -7.172113e+00 -4.658974e-01 1.644341e+00 -5.849277e-01 -1.360213e+00 -1.002423e+00 1.116472e+00 5.234428e-01 -3.417851e-01 8.169348e-01 -7.507950e-01 -7.488160e-01 -1.446428e+00 -2.492880e-01 1.282753e+00
<VARIANCE> 25
 2.787047e+01 4.100461e+01 2.348438e+01 2.281773e+01 5.300550e+01 2.831085e+01 3.070089e+01 3.674844e+01 2.389516e+01 3.499924e+01 4.202966e+01 2.335018e+01 2.532659e+00 1.478958e+00 2.097873e+00 2.107236e+00 2.870840e+00 3.127741e+00 2.379953e+00 3.446447e+00 2.194442e+00 4.133597e+00 3.622948e+00 1.282015e+00 1.959845e+00
<GCONST> 9.875196e+01
<STATE> 3
<MEAN> 25
 8.700191e+00 -5.698948e+00 -9.233683e+00 -4.246548e+00 8.467366e+00 2.099785e+00 -3.781940e-01 5.225089e+00 -2.097483e+00 -3.170188e+00 -1.021455e+01 -2.803611e-01 3.612257e-01 -1.651351e-01 -6.173536e-02 -7.656388e-01 5.684630e-01 6.513989e-01 -2.170751e-01 -2.472562e-01 -1.070849e+00 1.594587e-01 6.992667e-02 -3.444523e-02 2.740072e-01
<VARIANCE> 25
 4.135792e+00 1.835575e+01 1.301989e+01 2.228912e+01 2.839170e+01 2.192732e+01 1.663771e+01 1.661508e+01 1.671560e+01 1.676636e+01 2.371816e+01 1.696161e+01 5.718390e-01 9.128700e-01 6.730024e-01 8.805837e-01 1.496327e+00 1.220309e+00 1.406857e+00 1.179198e+00 9.509680e-01 1.176257e+00 1.356889e+00 9.789815e-01 3.433775e-01
<GCONST> 7.889802e+01
<STATE> 4
<MEAN> 25
 9.502563e+00 -2.705374e+00 -7.963883e+00 -7.195551e+00 4.287970e+00 3.836545e+00 -1.186206e+00 2.984429e+00 -4.255323e+00 -3.140157e-01 -4.529129e+00 -1.699249e+00 -8.766420e-02 3.336534e-01 2.609096e-01 2.231875e-01 -4.010541e-01 -2.387480e-01 -2.422754e-01 -2.601179e-01 1.231179e-01 2.494930e-01 3.525136e-01 -5.692691e-02 -2.031544e-01
<VARIANCE> 25
 3.014273e+00 1.811088e+01 7.465450e+00 1.532333e+01 3.518384e+01 2.304550e+01 2.400621e+01 1.900266e+01 1.624301e+01 2.369900e+01 2.472837e+01 1.543600e+01 1.952491e-01 3.066542e-01 3.686361e-01 8.708704e-01 1.011184e+00 8.649935e-01 1.082235e+00 8.601963e-01 9.726371e-01 8.425564e-01 9.317256e-01 7.297068e-01 1.174215e-01
<GCONST> 7.252110e+01
<TRANSP> 5
 0.000000e+00 1.000000e+00 0.000000e+00 0.000000e+00 0.000000e+00
 0.000000e+00 7.137026e-01 2.862974e-01 0.000000e+00 0.000000e+00
 0.000000e+00 0.000000e+00 7.004057e-01 2.995943e-01 0.000000e+00
 0.000000e+00 0.000000e+00 0.000000e+00 9.446530e-01 5.534698e-02
 0.000000e+00 0.000000e+00 0.000000e+00 0.000000e+00 0.000000e+00
<ENDHMM>
~h "ay"
<BEGINHMM>
<NUMSTATES> 5
<STATE> 2
<MEAN> 25
 7.660325e+00 -2.624812e+00 -8.637182e+00 -6.576601e+00 4.473886e+00 4.006566e+00 8.886662e-01 3.183756e+00 -1.193179e+00 -1.204213e+00 -5.948401e+00 -1.048608e+00 4.190690e-01 -8.927258e-01 -6.984925e-01 -3.467828e-01 1.134103e+00 4.954006e-01 -2.989580e-01 6.446203e-01 -4.229308e-01 -3.143984e-01 -9.178575e-01 -2.542451e-01 5.964141e-01
<VARIANCE> 25
 2.335732e+01 1.723445e+01 1.757305e+01 3.288927e+01 2.507297e+01 2.520414e+01 2.423355e+01 2.651882e+01 2.392373e+01 2.475200e+01 3.432851e+01 2.088732e+01 1.307798e+00 8.008968e-01 1.420501e+00 1.954166e+00 1.603431e+00 1.888015e+00 1.421705e+00 2.128343e+00 1.794460e+00 1.507732e+00 1.918682e+00 1.122342e+00 1.163848e+00
<GCONST> 8.937380e+01
<STATE> 3
<MEAN> 25
 8.808668e+00 -5.580169e+00 -9.181814e+00 -5.946809e+00 8.411234e+00 3.340741e+00 -1.134016e+00 6.058938e+00 -2.744937e+00 -2.945782e+00 -8.952019e+00 -1.347886e+00 -1.166778e-01 -1.869294e-01 3.086175e-01 2.799285e-01 1.468006e-02 -5.910782e-01 -1.011852e-01 6.608109e-01 -6.910215e-02 -2.226456e-01 -3.765945e-01 2.722345e-02 1.138442e-01
<VARIANCE> 25
 5.813629e+00 1.101140e+01 1.016792e+01 2.137009e+01 1.913304e+01 1.726733e+01 2.279719e+01 1.940920e+01 1.489434e+01 2.266995e+01 1.782569e+01 1.661220e+01 1.849001e-01 3.531476e-01 4.534441e-01 6.677634e-01 1.032999e+00 1.183705e+00 6.707642e-01 1.264547e+00 8.601901e-01 7.843111e-01 8.519768e-01 6.946658e-01 1.210147e-01
<GCONST> 7.197574e+01
<STATE> 4
<MEAN> 25
 5.052330e+00 -2.505502e+00 7.616830e-02 -3.922397e+00 -7.511151e-01 -4.159983e+00 -3.479468e-01 8.266409e+00 -4.082369e+00 -1.367143e+00 -5.936401e+00 -1.149886e+00 -3.836500e-01 6.523268e-01 1.116673e+00 1.730565e-01 -1.047402e+00 -3.463440e-01 -2.023195e-01 -6.364567e-01 -1.186138e-01 4.683378e-01 8.578430e-01 5.330139e-03 -2.671140e-01
<VARIANCE> 25
 9.156084e+00 1.889782e+01 4.255872e+01 1.331220e+01 4.689155e+01 2.020462e+01 3.004066e+01 3.919996e+01 1.461744e+01 2.789738e+01 3.174929e+01 1.613204e+01 2.582106e-01 5.359650e-01 1.225744e+00 7.664797e-01 1.718940e+00 1.284800e+00 1.519318e+00 2.415789e+00 9.641166e-01 1.531036e+00 1.469571e+00 8.596595e-01 1.742015e-01
<GCONST> 8.254249e+01
<TRANSP> 5
 0.000000e+00 1.000000e+00 0.000000e+00 0.000000e+00 0.000000e+00
 0.000000e+00 7.887844e-01 2.112156e-01 0.000000e+00 0.000000e+00
 0.000000e+00 0.000000e+00 8.643213e-01 1.356787e-01 0.000000e+00
 0.000000e+00 0.000000e+00 0.000000e+00 9.127092e-01 8.729082e-02
 0.000000e+00 0.000000e+00 0.000000e+00 0.000000e+00 0.000000e+00
<ENDHMM>
~h "ch"
<BEGINHMM>
<NUMSTATES> 5
<STATE> 2
<MEAN> 25
 -3.196235e+00 -2.119713e+00 1.170007e+00 1.971094e+00 4.668135e+00 2.830053e+00 2.957798e+00 8.020706e-01 2.863923e+00 1.304695e+00 -2.974407e-01 1.124823e+00 -1.295183e+00 -3.549643e-01 -6.841761e-01 -5.919807e-01 9.095671e-01 3.892777e-01 6.670635e-01 5.874939e-01 1.006141e+00 3.188697e-01 8.360080e-01 4.091735e-01 -6.206632e-04
<VARIANCE> 25
 1.633891e+01 1.863355e+01 1.669760e+01 2.608187e+01 3.109633e+01 3.405737e+01 2.151598e+01 2.649104e+01 2.311308e+01 1.934163e+01 1.716915e+01 1.509793e+01 1.872963e+00 1.843953e+00 1.131114e+00 3.974681e+00 2.973501e+00 4.620025e+00 3.156124e+00 3.268929e+00 2.580582e+00 2.241246e+00 1.620930e+00 2.223558e+00 1.768210e+00
<GCONST> 9.401666e+01
<STATE> 3
<MEAN> 25
 -1.241648e+01 -2.137366e+00 -5.497450e-01 -4.789269e+00 6.743108e+00 1.826522e+00 3.110664e+00 1.805255e+00 6.183515e+00 -1.641532e-01 3.890159e+00 2.392295e+00 -1.454865e+00 -2.932438e-02 2.733157e-01 -7.313575e-01 -3.944607e-01 1.789027e-02 -1.392835e-01 -4.348052e-01 5.618575e-01 -4.781999e-01 2.478169e-01 2.380285e-01 1.198424e+00
<VARIANCE> 25
 3.675143e+01 1.717086e+01 9.988583e+00 2.899695e+01 2.230738e+01 1.959849e+01 1.901592e+01 2.017916e+01 2.070516e+01 1.749673e+01 1.276117e+01 1.489316e+01 1.515887e+00 1.166012e+00 1.133815e+00 2.252235e+00 2.504722e+00 2.509730e+00 1.935931e+00 1.927699e+00 2.300048e+00 2.031043e+00 1.608465e+00 1.625336e+00 9.566383e-01
<GCONST> 8.835346e+01
<STATE> 4
<MEAN> 25
 -1.220903e+01 -3.775559e+00 4.640715e+00 -4.358275e+00 -3.686941e-01 2.031605e+00 2.625082e+00 -2.203676e+00 7.587903e+00 -1.509703e+00 2.488769e+00 3.511277e+00 1.772823e+00 -8.176871e-03 7.816488e-01 5.776517e-01 -9.594564e-01 -2.544683e-01 -1.858386e-01 1.238015e-02 -4.086309e-01 -1.505297e-01 -5.581303e-01 -1.549054e-01 -4.847539e-01
<VARIANCE> 25
 4.396631e+01 1.153344e+01 1.733829e+01 1.462779e+01 2.461453e+01 2.244135e+01 2.191163e+01 1.906236e+01 2.213980e+01 1.831207e+01 1.504967e+01 1.565438e+01 4.133030e+00 1.249453e+00 2.084003e+00 1.166613e+00 1.887016e+00 2.233721e+00 1.998172e+00 2.604628e+00 2.073186e+00 2.400442e+00 1.929331e+00 1.454081e+00 1.245631e+00
<GCONST> 9.000169e+01
<TRANSP> 5
 0.000000e+00 1.000000e+00 0.000000e+00 0.000000e+00 0.000000e+00
 0.000000e+00 8.280576e-01 1.719424e-01 0.000000e+00 0.000000e+00
 0.000000e+00 0.000000e+00 8.499151e-01 1.500849e-01 0.000000e+00
 0.000000e+00 0.000000e+00 0.000000e+00 8.849485e-01 1.150515e-01
 0.000000e+00 0.000000e+00 0.000000e+00 0.000000e+00 0.000000e+00
<ENDHMM>
~h "dh"
<BEGINHMM>
<NUMSTATES> 5
<STATE> 2
<MEAN> 25
 -3.028065e+00 -2.854288e+00 5.975879e-01 3.187807e+00 2.089545e+00 2.455766e+00 2.739108e+00 -2.220004e+00 3.125437e+00 1.570364e+00 1.387161e+00 1.860300e+00 -1.208429e-01 -6.231409e-02 2.918378e-03 1.725153e-01 3.536521e-01 4.883884e-01 3.459398e-01 -5.407928e-02 1.939721e-01 1.149113e-01 1.442459e-01 1.110479e-01 -2.880413e-01
<VARIANCE> 25
 1.589072e+01 1.750978e+01 1.533310e+01 1.312901e+01 1.880833e+01 2.968081e+01 3.177180e+01 2.517000e+01 1.807867e+01 2.268227e+01 2.268527e+01 1.680019e+01 1.510668e+00 1.418179e+00 1.473968e+00 9.210835e-01 1.794223e+00 2.859114e+00 2.931382e+00 2.048365e+00 1.907548e+00 1.979056e+00 1.740497e+00 1.499836e+00 7.232184e-01
<GCONST> 8.830791e+01
<STATE> 3
<MEAN> 25
 -2.067274e+00 -4.147645e-01 2.338433e+00 4.565045e+00 3.263299e+00 2.270259e+00 2.250802e+00 -3.344306e+00 2.457359e+00 1.724851e-02 5.216402e-02 6.527587e-01 4.124330e-01 6.151420e-01 3.805982e-02 1.083266e-03 -3.594646e-01 -7.899747e-01 -5.367711e-01 -1.882430e-02 -1.680452e-01 -3.908909e-01 -3.423556e-01 -1.499498e-01 5.039669e-01
<VARIANCE> 25
 1.466321e+01 1.760793e+01 1.354514e+01 1.165145e+01 1.605952e+01 3.266783e+01 3.729073e+01 2.112910e+01 1.639700e+01 2.360072e+01 1.984759e+01 1.433880e+01 2.159045e+00 1.288987e+00 1.280980e+00 1.096931e+00 2.401448e+00 4.439555e+00 4.653775e+00 1.990294e+00 1.767317e+00 1.537223e+00 2.199456e+00 1.594545e+00 8.963172e-01
<GCONST> 8.920464e+01
<STATE> 4
<MEAN> 25
 3.277648e+00 3.061850e+00 8.904322e-01 2.363032e+00 -5.447522e+00 -7.964519e+00 -6.377271e+00 3.531259e+00 7.302946e-01 -1.610058e+00 -1.480984e+00 -3.045779e-01 9.822222e-02 -9.043053e-03 -7.270028e-02 -1.235046e-01 -2.040255e-01 -2.421622e-01 -1.734129e-01 3.929922e-01 -7.199692e-02 9.636165e-02 -7.507208e-02 -5.210251e-02 2.085364e-01
<VARIANCE> 25
 8.048302e+00 7.077106e+00 1.350028e+01 1.380393e+01 3.521877e+01 3.185295e+01 3.019846e+01 5.292589e+01 1.407967e+01 1.931323e+01 1.658833e+01 1.146909e+01 9.942541e-01 4.810219e-01 7.147499e-01 7.030542e-01 2.169827e+00 2.062557e+00 2.491901e+00 1.995579e+00 9.274597e-01 1.056251e+00 1.025539e+00 7.871181e-01 6.528160e-01
<GCONST> 8.148582e+01
<TRANSP> 5
 0.000000e+00 1.000000e+00 0.000000e+00 0.000000e+00 0.000000e+00
 0.000000e+00 7.727617e-01 2.272383e-01 0.000000e+00 0.000000e+00
 0.000000e+00 0.000000e+00 8.269136e-01 1.730864e-01 0.000000e+00
 0.000000e+00 0.000000e+00 0.000000e+00 9.322576e-01 6.774244e-02
 0.000000e+00 0.000000e+00 0.000000e+00 0.000000e+00 0.000000e+00
<ENDHMM>
~h "eh"
<BEGINHMM>
<NUMSTATES> 5
<STATE> 2
<MEAN> 25
 4.467147e+00 -3.232171e+00 -2.629323e+00 -2.085781e+00 -9.864743e-01 -3.589124e+00 1.164413e+00 7.363450e+00 6.352403e-01 -1.554108e+00 -4.945522e+00 -8.085664e-01 3.958751e-01 -4.211537e-01 2.724957e-01 -5.311398e-01 -3.791997e-01 -5.596749e-01 5.892047e-01 1.638978e+00 -7.481666e-01 -4.978144e-01 -8.517807e-01 -9.805411e-03 7.029290e-01
<VARIANCE> 25
 2.881526e+01 2.079342e+01 4.182058e+01 2.210296e+01 3.877533e+01 4.252097e+01 2.960540e+01 4.181614e+01 2.454935e+01 2.564293e+01 4.035018e+01 2.374801e+01 1.566166e+00 1.223171e+00 1.443017e+00 2.308466e+00 2.721419e+00 2.514842e+00 2.140741e+00 3.477662e+00 1.805855e+00 2.113835e+00 2.143067e+00 1.842893e+00 1.530659e+00
<GCONST> 9.593372e+01
<STATE> 3
<MEAN> 25
 5.556706e+00 -2.706333e+00 -7.883795e-01 -3.947799e+00 -3.007131e+00 -5.524608e+00 2.716108e+00 1.064456e+01 -2.577421e+00 -2.965552e+00 -6.475115e+00 -6.920548e-01 -4.733306e-02 1.465391e-01 5.160657e-01 -2.813532e-01 -3.772348e-01 1.415800e-02 4.254465e-01 2.210844e-01 -6.778862e-01 5.828810e-02 -1.327169e-01 4.876845e-03 1.602766e-01
<VARIANCE> 25
 9.017263e+00 1.720577e+01 2.873117e+01 1.593904e+01 3.242487e+01 2.455901e+01 2.969349e+01 3.008063e+01 1.859587e+01 2.041763e+01 3.659010e+01 2.067360e+01 5.886579e-01 7.128270e-01 1.217726e+00 9.688528e-01 1.371206e+00 1.395487e+00 1.281749e+00 1.436477e+00 1.038805e+00 1.107851e+00 1.154604e+00 8.270045e-01 4.661386e-01
<GCONST> 8.304816e+01
<STATE> 4
<MEAN> 25
 4.868638e+00 -1.510459e+00 1.696253e+00 -4.655442e+00 -4.581436e+00 -5.849014e+00 2.055026e+00 9.343353e+00 -4.323483e+00 -1.880426e-01 -6.867385e+00 -1.400059e-01 -2.374931e-02 1.494771e-01 3.460605e-02 3.332644e-01 8.571886e-02 1.370492e-01 -3.004278e-01 -5.246922e-01 1.005187e-01 2.508418e-01 7.667778e-02 -2.258074e-02 -2.927625e-01
<VARIANCE> 25
 7.453468e+00 1.994282e+01 2.740577e+01 1.793105e+01 3.055562e+01 2.175831e+01 3.047895e+01 3.451070e+01 1.846733e+01 2.242150e+01 3.843596e+01 1.617741e+01 2.731630e-01 5.032248e-01 7.163636e-01 9.877726e-01 1.030905e+00 1.107977e+00 1.136051e+00 1.877680e+00 1.050927e+00 1.116546e+00 1.202281e+00 8.337942e-01 3.658760e-01
<GCONST> 8.077943e+01
<TRANSP> 5
 0.000000e+00 1.000000e+00 0.000000e+00 0.000000e+00 0.000000e+00
 0.000000e+00 6.782483e-01 3.217516e-01 0.000000e+00 0.000000e+00
 0.000000e+00 0.000000e+00 5.626738e-01 4.373262e-01 0.000000e+00
 0.000000e+00 0.000000e+00 0.000000e+00 9.009722e-01 9.902781e-02
 0.000000e+00 0.000000e+00 0.000000e+00 0.000000e+00 0.000000e+00
<ENDHMM>
~h "er"
<BEGINHMM>
<NUMSTATES> 5
<STATE> 2
<MEAN> 25
 8.197984e+00 -5.740834e-01 -1.151362e+00 2.033113e-01 -4.825610e+00 -6.464828e+00 -6.950282e+00 3.897466e+00 1.743276e+00 -1.812707e+00 -3.554805e-01 1.437577e+00 1.183532e+00 -9.537165e-01 -4.790663e-01 4.463565e-01 -5.491140e-01 -1.165608e+00 -1.061920e+00 1.406069e+00 5.834358e-01 -3.371957e-01 -3.185042e-01 1.429747e-01 3.537400e-01
<VARIANCE> 25
 1.100834e+01 1.415127e+01 5.612514e+01 2.234414e+01 2.119057e+01 3.194481e+01 3.131961e+01 3.086956e+01 2.715338e+01 1.854795e+01 2.821177e+01 1.676328e+01 1.622710e+00 1.017528e+00 1.751217e+00 1.415286e+00 1.886864e+00 1.888893e+00 2.447997e+00 2.302355e+00 1.662165e+00 1.325328e+00 1.559225e+00 1.531925e+00 5.266984e-01
<GCONST> 8.933049e+01
<STATE> 3
<MEAN> 25
 9.609392e+00 -3.625382e+00 -6.686713e-01 3.249305e+00 -5.373143e+00 -1.267425e+01 -7.787884e+00 8.649132e+00 2.735471e+00 -4.031999e+00 -8.568135e-01 3.667641e+00 -6.557392e-02 -6.571952e-02 1.961471e-01 1.524217e-01 -9.567526e-02 -3.001886e-01 7.428280e-02 8.667140e-02 -6.368299e-02 -5.756184e-02 5.155161e-02 1.347945e-01 -1.150684e-01
<VARIANCE> 25
 4.116846e+00 6.406055e+00 2.653155e+01 1.371156e+01 1.195821e+01 1.949890e+01 2.469440e+01 1.730729e+01 1.937793e+01 1.165766e+01 2.095218e+01 1.239766e+01 1.242654e-01 2.436028e-01 6.346836e-01 4.729870e-01 5.782610e-01 7.954401e-01 7.588119e-01 8.556754e-01 7.828518e-01 7.210971e-01 6.680028e-01 6.005890e-01 7.008996e-02
<GCONST> 6.755278e+01
<STATE> 4
<MEAN> 25
 4.387429e+00 -3.644325e+00 2.054498e+00 3.290840e+00 -4.215796e+00 -8.085837e+00 -3.358278e+00 4.543308e+00 2.945654e+00 -1.225650e+00 1.904849e-01 3.134026e+00 -7.762496e-01 1.685011e-01 2.328589e-01 -5.756307e-02 5.971400e-01 1.191502e+00 5.618487e-01 -9.007561e-01 -5.445372e-02 4.506170e-01 2.944385e-02 -1.784733e-01 -6.569433e-01
<VARIANCE> 25
 2.124345e+01 1.095231e+01 2.174211e+01 1.480443e+01 2.360065e+01 4.280271e+01 3.438543e+01 2.664853e+01 2.376069e+01 2.075226e+01 1.980753e+01 1.452464e+01 6.830099e-01 5.930399e-01 8.469000e-01 1.051365e+00 1.398222e+00 1.662201e+00 1.651317e+00 1.533881e+00 1.367612e+00 1.185343e+00 1.462768e+00 1.238457e+00 4.274524e-01
<GCONST> 8.375182e+01
<TRANSP> 5
 0.000000e+00 1.000000e+00 0.000000e+00 0.000000e+00 0.000000e+00
 0.000000e+00 7.223988e-01 2.776012e-01 0.000000e+00 0.000000e+00
 0.000000e+00 0.000000e+00 9.281664e-01 7.183361e-02 0.000000e+00
 0.000000e+00 0.000000e+00 0.000000e+00 8.494660e-01 1.505340e-01
 0.000000e+00 0.000000e+00 0.000000e+00 0.000000e+00 0.000000e+00
<ENDHMM>
~h "ey"
<BEGINHMM>
<NUMSTATES> 5
<STATE> 2
<MEAN> 25
 3.791805e+00 5.737158e-01 3.065484e+00 -4.836706e-01 -5.689131e+00 -7.080956e+00 -2.364970e+00 4.866465e+00 -1.183339e+00 -4.650018e-01 1.918459e+00 2.720656e-01 4.907926e-02 1.564708e-01 1.301611e+00 -9.012084e-01 -1.743009e+00 -5.189697e-01 9.119886e-02 1.249817e+00 -7.402044e-01 2.253058e-01 5.291907e-01 -3.234197e-01 7.596177e-01
<VARIANCE> 25
 1.739625e+01 1.454552e+01 2.464589e+01 3.206953e+01 2.880174e+01 4.899161e+01 4.154149e+01 5.464029e+01 2.816394e+01 2.863523e+01 2.631908e+01 1.455590e+01 1.988498e+00 1.210084e+00 1.764048e+00 3.646742e+00 3.332028e+00 4.361137e+00 3.512967e+00 6.436746e+00 2.514498e+00 2.686033e+00 2.202444e+00 1.735926e+00 1.674908e+00
<GCONST> 9.807481e+01
<STATE> 3
<MEAN> 25
 3.571338e+00 2.422572e+00 7.546235e+00 -4.134313e+00 -1.049574e+01 -6.564741e+00 -7.670929e-01 5.578401e+00 -3.575052e+00 2.310425e+00 2.143196e+00 -1.003153e+00 -3.040033e-01 4.291058e-01 8.780079e-01 -4.735042e-01 -4.444349e-01 6.239217e-01 -2.907860e-01 -6.601341e-01 -3.802923e-01 5.398526e-01 1.700215e-01 -4.082417e-01 -6.359758e-02
<VARIANCE> 25
 2.841191e+00 7.264263e+00 1.161580e+01 1.553975e+01 1.523501e+01 2.050297e+01 2.602666e+01 1.962329e+01 2.084924e+01 1.882137e+01 2.479460e+01 1.385137e+01 2.896168e-01 4.314140e-01 6.369873e-01 7.846015e-01 9.310317e-01 1.307250e+00 1.090396e+00 2.108881e+00 1.053495e+00 9.963300e-01 9.521469e-01 9.693620e-01 2.233198e-01
<GCONST> 7.468603e+01
<STATE> 4
<MEAN> 25
 1.384714e+00 6.405779e+00 1.069389e+01 -3.482037e+00 -8.738452e+00 -2.375951e+00 -6.668979e+00 -2.462312e+00 -4.866631e+00 -1.456194e-01 4.137869e+00 -3.959219e+00 -9.897449e-02 4.463805e-02 -1.924993e-01 3.634915e-01 3.854866e-01 2.127934e-01 2.954748e-02 -4.372163e-01 1.139546e-01 -1.505510e-01 -6.801482e-02 3.348259e-02 -3.378240e-01
<VARIANCE> 25
 4.157135e+00 1.137043e+01 1.030483e+01 2.226047e+01 3.054138e+01 2.025614e+01 2.373589e+01 2.099506e+01 1.689668e+01 2.730376e+01 1.995434e+01 1.713893e+01 2.249066e-01 5.482795e-01 5.488117e-01 9.080390e-01 1.414071e+00 9.776865e-01 1.359587e+00 1.129491e+00 1.147157e+00 1.037080e+00 1.014084e+00 1.069485e+00 2.571310e-01
<GCONST> 7.670598e+01
<TRANSP> 5
 0.000000e+00 1.000000e+00 0.000000e+00 0.000000e+00 0.000000e+00
 0.000000e+00 7.029294e-01 2.970705e-01 0.000000e+00 0.000000e+00
 0.000000e+00 0.000000e+00 7.612233e-01 2.387767e-01 0.000000e+00
 0.000000e+00 0.000000e+00 0.000000e+00 9.498763e-01 5.012368e-02
 0.000000e+00 0.000000e+00 0.000000e+00 0.000000e+00 0.000000e+00
<ENDHMM>
~h "hh"
<BEGINHMM>
<NUMSTATES> 5
<STATE> 2
<MEAN> 25
 -2.990869e+00 -3.588795e+00 7.271400e-02 1.326505e+00 3.297895e+00 4.981183e+00 6.418372e+00 1.875487e+00 2.767853e+00 2.022763e+00 1.121257e+00 1.523381e+00 -4.075707e-01 -4.817154e-01 -1.864315e-01 -2.597241e-01 6.320806e-01 3.993798e-01 6.491021e-01 4.033746e-01 1.671647e-01 -2.035489e-01 1.693715e-01 1.912374e-01 2.103976e-02
<VARIANCE> 25
 1.242888e+01 2.076714e+01 1.824512e+01 1.932660e+01 2.836691e+01 2.656140e+01 3.319699e+01 3.243634e+01 2.158658e+01 2.949253e+01 2.987464e+01 1.673365e+01 8.650028e-01 1.499205e+00 1.356843e+00 1.773428e+00 1.987905e+00 2.269885e+00 3.114037e+00 2.565346e+00 2.397514e+00 2.477570e+00 2.149566e+00 1.634159e+00 7.166147e-01
<GCONST> 9.107047e+01
<STATE> 3
<MEAN> 25
 -4.128678e+00 -4.385749e+00 -6.324608e-01 -7.020455e-01 4.726743e+00 4.649208e+00 6.152908e+00 2.402413e+00 1.903369e+00 -4.422847e-01 9.393218e-01 1.949555e+00 2.669076e-02 1.916738e-01 2.020954e-02 -1.136853e-02 1.244385e-01 -1.197138e-01 -2.652348e-01 -6.300126e-02 -3.943459e-01 -4.437472e-01 -2.119466e-01 1.446254e-02 2.812072e-01
<VARIANCE> 25
 1.366845e+01 3.421096e+01 3.045436e+01 2.373716e+01 3.237530e+01 2.329265e+01 4.599042e+01 4.771576e+01 2.146862e+01 2.897792e+01 2.147930e+01 2.233034e+01 5.990163e-01 1.207718e+00 1.144171e+00 1.067536e+00 1.326473e+00 1.544752e+00 1.968904e+00 2.152281e+00 1.910720e+00 1.867131e+00 1.585302e+00 1.382241e+00 3.623966e-01
<GCONST> 8.868227e+01
<STATE> 4
<MEAN> 25
 -1.764775e+00 -4.671017e-01 4.527944e-01 -1.020483e-01 3.202578e+00 2.463077e+00 1.917326e+00 -3.026825e-01 -9.048250e-01 -3.004805e+00 2.748494e-01 -6.027291e-01 5.476505e-01 5.358061e-01 3.770596e-01 2.551783e-01 -2.285921e-01 -2.490278e-01 -5.170798e-01 -9.297203e-02 -3.438961e-01 -1.606756e-01 -3.267643e-01 -2.847855e-01 1.836098e-01
<VARIANCE> 25
 3.405190e+01 6.400267e+01 5.181620e+01 2.391056e+01 4.639668e+01 2.435874e+01 5.509580e+01 6.647549e+01 2.402002e+01 2.998130e+01 3.403017e+01 3.329046e+01 1.400381e+00 1.350467e+00 1.214352e+00 1.553196e+00 1.562801e+00 1.372892e+00 2.063997e+00 1.946668e+00 1.813799e+00 1.600341e+00 1.777781e+00 1.771688e+00 3.953722e-01
<GCONST> 9.431466e+01
<TRANSP> 5
 0.000000e+00 1.000000e+00 0.000000e+00 0.000000e+00 0.000000e+00
 0.000000e+00 7.731765e-01 2.268235e-01 0.000000e+00 0.000000e+00
 0.000000e+00 0.000000e+00 5.962045e-01 4.037955e-01 0.000000e+00
 0.000000e+00 0.000000e+00 0.000000e+00 7.355078e-01 2.644922e-01
 0.000000e+00 0.000000e+00 0.000000e+00 0.000000e+00 0.000000e+00
<ENDHMM>
~h "ih"
<BEGINHMM>
<NUMSTATES> 5
<STATE> 2
<MEAN> 25
 -1.276940e+00 3.085128e-01 2.828203e+00 5.934801e-01 -5.421185e-01 -8.361804e-01 -4.187013e-01 -8.957196e-01 -3.135356e-01 6.518456e-01 1.205415e+00 -8.573723e-02 5.152323e-01 1.106583e+00 1.512948e+00 -6.362917e-01 -1.690316e+00 -8.469301e-01 -1.206636e+00 1.183017e-01 -1.303486e+00 -4.333782e-01 4.996964e-01 -9.794760e-01 9.406216e-01
<VARIANCE> 25
 2.416070e+01 3.293919e+01 2.660691e+01 2.967963e+01 3.659127e+01 5.478592e+01 4.239502e+01 4.284361e+01 3.127819e+01 2.398950e+01 2.106124e+01 2.284689e+01 2.362860e+00 2.710531e+00 2.933069e+00 3.097689e+00 4.312849e+00 3.401223e+00 5.378839e+00 3.457733e+00 3.950270e+00 2.708518e+00 2.304795e+00 2.962345e+00 1.832368e+00
<GCONST> 1.017719e+02
<STATE> 3
<MEAN> 25
 1.622893e+00 4.809925e+00 7.858352e+00 -1.302737e+00 -7.869641e+00 -3.769399e+00 -5.143984e+00 -4.894937e-01 -5.058882e+00 -1.216007e+00 4.121272e+00 -4.163432e+00 2.174732e-01 8.513772e-01 1.167824e+00 -6.787633e-01 -1.296930e+00 4.292003e-01 -7.420908e-01 -2.721623e-01 -8.483158e-01 -3.781640e-02 7.448438e-01 -8.829446e-01 4.342440e-01
<VARIANCE> 25
 1.004550e+01 1.985334e+01 2.045451e+01 2.732484e+01 3.233922e+01 3.710313e+01 2.764291e+01 4.818917e+01 2.784051e+01 2.887696e+01 2.095282e+01 2.254431e+01 1.082083e+00 1.219271e+00 1.355427e+00 1.606010e+00 2.490546e+00 2.010030e+00 3.028408e+00 2.629246e+00 2.008277e+00 2.120650e+00 1.866695e+00 1.780828e+00 8.533815e-01
<GCONST> 9.193231e+01
<STATE> 4
<MEAN> 25
 1.026460e+00 7.478827e+00 9.812889e+00 -2.210641e+00 -9.555605e+00 -1.906689e+00 -6.406596e+00 -3.340432e+00 -5.281983e+00 -1.788069e+00 5.129978e+00 -5.128539e+00 2.127306e-02 -1.473873e-01 -2.511648e-01 3.666913e-01 2.596180e-01 -3.974803e-02 2.582319e-01 -1.485076e-01 1.868228e-01 5.988148e-02 -2.089787e-01 3.180600e-01 -1.755065e-01
<VARIANCE> 25
 5.557906e+00 1.472931e+01 1.177870e+01 2.076678e+01 2.633101e+01 2.757037e+01 2.819769e+01 2.793397e+01 1.696172e+01 2.736482e+01 1.899344e+01 2.125510e+01 3.653217e-01 6.327342e-01 7.390936e-01 1.213963e+00 2.268239e+00 1.404316e+00 1.331717e+00 1.485113e+00 1.258149e+00 1.174404e+00 1.204171e+00 1.337623e+00 4.563519e-01
<GCONST> 8.159911e+01
<TRANSP> 5
 0.000000e+00 1.000000e+00 0.000000e+00 0.000000e+00 0.000000e+00
 0.000000e+00 7.330865e-01 2.669135e-01 0.000000e+00 0.000000e+00
 0.000000e+00 0.000000e+00 4.893890e-01 5.106110e-01 0.000000e+00
 0.000000e+00 0.000000e+00 0.000000e+00 9.044927e-01 9.550729e-02
 0.000000e+00 0.000000e+00 0.000000e+00 0.000000e+00 0.000000e+00
<ENDHMM>
~h "iy"
<BEGINHMM>
<NUMSTATES> 5
<STATE> 2
<MEAN> 25
 2.789009e-01 4.163264e+00 6.812233e+00 3.287603e+00 -1.416118e+00 -3.353961e+00 -3.643872e+00 -4.575238e+00 -2.293404e+00 -2.762494e+00 1.858991e+00 -1.130782e+00 1.318078e-01 1.115750e+00 1.243034e+00 -4.544532e-01 -1.086137e+00 9.963840e-02 -9.875710e-01 -3.279620e-01 -8.234251e-01 -5.469879e-01 8.933185e-01 -9.613720e-01 4.092063e-01
<VARIANCE> 25
 2.115573e+01 1.753319e+01 2.184602e+01 2.144627e+01 5.363543e+01 3.889590e+01 3.199272e+01 3.409403e+01 3.006552e+01 2.036733e+01 1.868280e+01 1.696735e+01 1.956389e+00 1.679965e+00 1.694163e+00 2.229213e+00 3.452852e+00 3.369170e+00 3.848758e+00 3.041844e+00 2.974573e+00 2.731978e+00 2.293003e+00 2.437279e+00 7.058877e-01
<GCONST> 9.572681e+01
<STATE> 3
<MEAN> 25
 -1.773170e-01 6.623289e+00 9.896527e+00 1.248265e+00 -3.153674e+00 -2.053533e+00 -6.257381e+00 -5.736266e+00 -3.900308e+00 -3.885668e+00 3.853687e+00 -4.002717e+00 -4.359699e-02 7.670351e-01 4.779664e-01 -6.460153e-01 -4.925042e-01 3.875006e-01 -7.877256e-01 1.345813e-03 -3.222955e-01 -2.747798e-01 6.168533e-01 -9.557128e-01 5.016782e-02
<VARIANCE> 25
 9.953738e+00 1.515073e+01 1.299899e+01 1.585072e+01 5.130708e+01 2.007359e+01 1.791627e+01 2.441985e+01 2.107767e+01 1.985430e+01 1.640015e+01 1.714897e+01 6.117185e-01 6.198947e-01 8.365074e-01 9.407459e-01 1.741150e+00 1.855474e+00 1.413381e+00 1.747774e+00 1.442855e+00 1.372014e+00 1.493842e+00 1.450861e+00 2.466743e-01
<GCONST> 8.190965e+01
<STATE> 4
<MEAN> 25
 -7.175138e-01 8.979186e+00 9.326686e+00 -9.004904e-01 -3.984601e+00 -1.170765e+00 -7.888134e+00 -5.951685e+00 -3.945366e+00 -5.572751e+00 5.910438e+00 -7.246003e+00 -6.997958e-06 -2.310576e-01 -1.827154e-01 9.170367e-02 4.655857e-02 -3.612244e-02 1.936788e-01 1.186070e-02 4.471318e-02 1.852728e-01 -1.137873e-01 2.178678e-01 -1.776533e-01
<VARIANCE> 25
 4.667306e+00 1.628893e+01 1.070186e+01 1.297347e+01 3.465269e+01 1.572285e+01 2.171438e+01 1.755815e+01 1.681660e+01 2.585251e+01 1.889329e+01 2.175373e+01 2.439834e-01 7.157606e-01 5.180475e-01 7.725327e-01 1.563507e+00 1.006113e+00 1.268810e+00 1.167230e+00 1.141003e+00 1.192365e+00 1.154951e+00 1.433830e+00 2.603339e-01
<GCONST> 7.720004e+01
<TRANSP> 5
 0.000000e+00 1.000000e+00 0.000000e+00 0.000000e+00 0.000000e+00
 0.000000e+00 6.714821e-01 3.285179e-01 0.000000e+00 0.000000e+00
 0.000000e+00 0.000000e+00 6.579516e-01 3.420484e-01 0.000000e+00
 0.000000e+00 0.000000e+00 0.000000e+00 9.513081e-01 4.869192e-02
 0.000000e+00 0.000000e+00 0.000000e+00 0.000000e+00 0.000000e+00
<ENDHMM>
~h "jh"
<BEGINHMM>
<NUMSTATES> 5
<STATE> 2
<MEAN> 25
 5.756196e-01 3.414142e+00 5.404924e+00 3.795490e+00 2.934705e+00 1.546463e+00 4.532677e-01 -3.936008e+00 -1.568921e+00 -1.750725e+00 -5.820518e-01 -8.143203e-01 -9.944993e-01 -4.995842e-01 -3.887114e-01 -3.788207e-02 1.336996e+00 7.137528e-01 8.072211e-01 4.581997e-01 6.774952e-01 2.025046e-01 -1.622388e-01 1.191386e-01 -2.890238e-01
<VARIANCE> 25
 1.205194e+01 1.153184e+01 8.106037e+00 1.755838e+01 2.417277e+01 3.368964e+01 2.549826e+01 2.270470e+01 2.244277e+01 1.710185e+01 1.514144e+01 1.366159e+01 2.086792e+00 1.490298e+00 1.206014e+00 3.552228e+00 2.354425e+00 3.346424e+00 3.062283e+00 2.944635e+00 1.637411e+00 1.824942e+00 1.607279e+00 1.868724e+00 1.744485e+00
<GCONST> 8.978896e+01
<STATE> 3
<MEAN> 25
 -7.935327e+00 2.499500e+00 2.430035e+00 -3.180212e-01 7.467405e+00 9.330093e-01 2.202966e+00 -2.237679e-01 2.391926e+00 -1.086401e+00 1.130994e+00 8.432080e-01 -1.721282e+00 2.673775e-01 -3.115586e-01 -1.218575e+00 -1.609586e-01 -8.644034e-01 -1.802156e-01 1.670136e-01 5.779178e-01 -1.321802e-01 4.489987e-01 4.194896e-01 1.429026e+00
<VARIANCE> 25
 3.049409e+01 1.856454e+01 4.397557e+01 3.068039e+01 2.796017e+01 3.346778e+01 1.851817e+01 3.174410e+01 1.717329e+01 2.720023e+01 1.133989e+01 1.561973e+01 4.050889e+00 1.606512e+00 3.219948e+00 3.941884e+00 3.756018e+00 3.728920e+00 2.082435e+00 3.523183e+00 1.498200e+00 2.000479e+00 1.215683e+00 1.694430e+00 1.682692e+00
<GCONST> 9.542133e+01
<STATE> 4
<MEAN> 25
 -9.637608e+00 -2.496479e+00 4.297194e+00 -2.521161e+00 5.241255e-01 2.699821e+00 2.884506e+00 -3.249579e+00 4.427318e+00 7.848586e-01 1.685035e+00 2.212353e+00 8.429754e-01 -2.694198e-01 4.112252e-01 1.988893e-01 -8.545786e-01 -2.666036e-01 -2.978714e-01 -3.361642e-02 -2.847395e-01 2.727094e-02 -9.165426e-02 2.825576e-02 -1.173934e-01
<VARIANCE> 25
 4.543632e+01 3.676150e+01 3.396072e+01 2.976822e+01 4.128307e+01 5.862481e+01 3.275775e+01 2.471638e+01 1.994048e+01 2.697241e+01 1.608898e+01 1.143986e+01 4.024751e+00 1.238007e+00 2.318897e+00 1.739689e+00 3.599459e+00 2.858512e+00 3.096720e+00 3.710362e+00 1.812182e+00 1.855666e+00 1.280954e+00 1.285658e+00 1.476533e+00
<GCONST> 9.615201e+01
<TRANSP> 5
 0.000000e+00 1.000000e+00 0.000000e+00 0.000000e+00 0.000000e+00
 0.000000e+00 7.929579e-01 2.070421e-01 0.000000e+00 0.000000e+00
 0.000000e+00 0.000000e+00 7.545321e-01 2.454679e-01 0.000000e+00
 0.000000e+00 0.000000e+00 0.000000e+00 8.965230e-01 1.034770e-01
 0.000000e+00 0.000000e+00 0.000000e+00 0.000000e+00 0.000000e+00
<ENDHMM>
~h "ng"
<BEGINHMM>
<NUMSTATES> 5
<STATE> 2
<MEAN> 25
 1.629592e+00 6.658347e+00 9.709893e+00 -3.642966e+00 -7.719315e+00 2.597640e-01 -6.552115e+00 -3.083905e+00 -5.453833e+00 -1.797773e+00 4.841893e+00 -5.371861e+00 -7.428403e-02 1.205094e-03 -3.677465e-02 -7.033999e-02 4.231342e-01 4.931888e-01 6.912976e-02 -1.697330e-01 3.985318e-02 -1.196052e-01 7.106168e-02 -2.023019e-01 -2.030407e-01
<VARIANCE> 25
 5.149601e+00 7.193898e+00 1.402089e+01 1.737103e+01 1.970789e+01 2.167463e+01 2.205663e+01 1.737647e+01 1.465059e+01 2.333270e+01 1.719178e+01 1.873230e+01 7.818543e-02 1.972332e-01 3.314607e-01 5.320884e-01 6.958529e-01 7.629716e-01 7.379588e-01 7.915613e-01 7.850533e-01 6.361501e-01 7.216030e-01 6.361567e-01 7.353991e-02
<GCONST> 6.750851e+01
<STATE> 3
<MEAN> 25
 2.607139e+00 4.472095e+00 6.180305e+00 6.122164e-01 -3.062831e+00 2.247849e+00 -2.559093e+00 -4.759675e+00 -5.218560e+00 -2.010101e+00 3.406441e+00 -5.405051e+00 2.566978e-01 -2.862646e-01 -4.955229e-01 6.619966e-01 2.131703e-01 -1.100051e-01 4.594030e-01 -3.036652e-01 5.731589e-02 -4.878959e-02 -4.163423e-01 3.480000e-01 -3.444026e-01
<VARIANCE> 25
 4.414328e+00 7.680567e+00 1.013184e+01 1.552142e+01 1.242603e+01 1.321354e+01 1.622179e+01 1.286369e+01 1.280779e+01 1.887659e+01 1.623045e+01 1.481497e+01 1.865079e-01 2.951728e-01 5.210006e-01 7.127489e-01 9.439107e-01 7.454898e-01 1.003311e+00 8.294466e-01 8.787566e-01 9.428699e-01 1.010113e+00 9.533833e-01 1.376752e-01
<GCONST> 6.930684e+01
<STATE> 4
<MEAN> 25
 1.952638e+00 1.349225e+00 3.711054e+00 3.658979e+00 -1.808808e-01 2.854496e+00 1.041437e+00 -5.148889e+00 -2.938737e+00 -9.857543e-01 3.194475e-02 -1.415605e+00 -3.647850e-01 -3.664108e-01 -1.566025e-01 1.680779e-01 4.444773e-01 1.368024e-01 3.373614e-01 1.948301e-01 4.387233e-01 2.341749e-01 -1.798346e-01 3.203480e-01 -3.380879e-01
<VARIANCE> 25
 1.197458e+01 1.174489e+01 1.042472e+01 1.112852e+01 1.858820e+01 1.996070e+01 2.282012e+01 1.733970e+01 1.868140e+01 1.569515e+01 1.424882e+01 1.458152e+01 7.683895e-01 6.732678e-01 6.970073e-01 1.010278e+00 1.392220e+00 1.693467e+00 1.941392e+00 1.550674e+00 1.494665e+00 1.597833e+00 1.425334e+00 1.327640e+00 2.822605e-01
<GCONST> 7.975447e+01
<TRANSP> 5
 0.000000e+00 1.000000e+00 0.000000e+00 0.000000e+00 0.000000e+00
 0.000000e+00 9.026102e-01 9.738979e-02 0.000000e+00 0.000000e+00
 0.000000e+00 0.000000e+00 8.579537e-01 1.420463e-01 0.000000e+00
 0.000000e+00 0.000000e+00 0.000000e+00 9.052095e-01 9.479049e-02
 0.000000e+00 0.000000e+00 0.000000e+00 0.000000e+00 0.000000e+00
<ENDHMM>
~h "ow"
<BEGINHMM>
<NUMSTATES> 5
<STATE> 2
<MEAN> 25
 9.781899e+00 1.008121e+00 -7.328913e+00 -6.264723e+00 -6.826375e-01 1.537320e+00 -4.308631e+00 2.066080e+00 -4.360563e+00 1.482612e+00 -1.072304e+00 2.512086e-01 4.961689e-01 2.023254e-01 -6.113828e-01 -8.869720e-01 -5.843404e-01 8.211279e-01 2.002535e-01 1.962742e-01 -9.140420e-01 -1.133674e-01 4.657015e-01 3.099521e-01 1.367748e-01
<VARIANCE> 25
 6.568466e+00 1.244142e+01 1.533565e+01 3.410393e+01 2.718997e+01 2.184784e+01 2.368384e+01 3.934174e+01 1.981580e+01 2.591243e+01 4.926751e+01 1.927841e+01 7.317099e-01 5.141132e-01 1.002237e+00 1.393754e+00 1.324177e+00 1.284380e+00 1.379726e+00 1.702741e+00 1.263118e+00 1.259873e+00 1.615416e+00 1.002630e+00 4.835331e-01
<GCONST> 8.389323e+01
<STATE> 3
<MEAN> 25
 1.017253e+01 3.925698e+00 -7.551901e+00 -9.336702e+00 -5.272677e+00 2.962536e+00 -2.933107e+00 1.196694e+00 -8.120519e+00 3.751941e-01 1.230388e+00 1.423843e+00 -7.533410e-02 1.918386e-01 2.354425e-01 -2.457393e-02 -3.090662e-01 -8.835060e-02 8.643696e-02 -2.726227e-02 -8.546818e-02 -1.945858e-02 -4.371405e-02 -1.154095e-02 -1.792298e-01
<VARIANCE> 25
 3.054807e+00 1.017986e+01 1.178264e+01 2.376805e+01 2.199830e+01 1.761484e+01 1.875659e+01 1.837577e+01 1.441102e+01 2.159254e+01 3.049015e+01 1.338462e+01 7.435060e-02 1.804291e-01 3.521107e-01 6.079000e-01 5.952340e-01 6.279831e-01 7.446901e-01 7.683587e-01 6.918772e-01 7.482274e-01 7.270076e-01 6.646711e-01 8.996431e-02
<GCONST> 6.738390e+01
<STATE> 4
<MEAN> 25
 7.951000e+00 5.016770e+00 -1.276722e+00 -3.972853e+00 -6.560256e+00 3.163903e-01 -2.690340e+00 -2.431093e+00 -4.844300e+00 -5.361485e-01 7.429524e-01 4.809037e-01 -3.749651e-01 -1.441398e-01 4.917834e-01 6.815631e-01 3.740977e-01 -2.302482e-01 -7.929064e-02 -4.717650e-01 3.351532e-01 1.458514e-01 -3.263418e-02 -1.623610e-01 -2.993818e-01
<VARIANCE> 25
 4.782553e+00 6.763261e+00 1.348450e+01 2.385201e+01 2.078480e+01 1.571655e+01 1.922028e+01 2.505348e+01 2.076816e+01 1.940700e+01 1.571482e+01 1.482998e+01 1.999345e-01 3.110363e-01 6.008988e-01 9.586902e-01 1.043901e+00 1.185499e+00 1.157006e+00 1.245199e+00 1.266498e+00 9.842897e-01 1.009215e+00 8.877046e-01 1.372235e-01
<GCONST> 7.398649e+01
<TRANSP> 5
 0.000000e+00 1.000000e+00 0.000000e+00 0.000000e+00 0.000000e+00
 0.000000e+00 7.876254e-01 2.123746e-01 0.000000e+00 0.000000e+00
 0.000000e+00 0.000000e+00 9.130185e-01 8.698148e-02 0.000000e+00
 0.000000e+00 0.000000e+00 0.000000e+00 8.894177e-01 1.105823e-01
 0.000000e+00 0.000000e+00 0.000000e+00 0.000000e+00 0.000000e+00
<ENDHMM>
~h "oy"
<BEGINHMM>
<NUMSTATES> 5
<STATE> 2
<MEAN> 25
 -1.609814e+00 4.195863e+00 1.339412e+00 7.368519e+00 2.682776e+00 3.320508e+00 7.890582e-01 -3.756403e+00 -1.434058e+00 -7.865477e-01 -1.185629e+00 3.391702e-02 -1.132019e-01 1.718184e-01 -6.093364e-01 4.940265e-02 -6.163940e-01 -5.631873e-02 -1.237033e-01 3.128123e-01 4.239621e-02 -2.897799e-01 -1.307809e-01 1.990781e-01 6.044562e-01
<VARIANCE> 25
 2.513510e+01 8.466668e+00 2.213808e+01 3.257141e+01 1.407314e+01 1.612889e+01 2.889946e+01 1.220399e+01 1.344321e+01 1.387629e+01 5.523619e+00 6.624450e+00 4.908864e+00 1.631115e+00 1.264935e+00 3.868610e+00 2.279962e+00 3.712384e+00 3.861954e+00 1.456499e+00 1.339545e+00 9.541417e-01 1.137422e+00 5.001366e-01 5.718033e-01
<GCONST> 8.466057e+01
<STATE> 3
<MEAN> 25
 3.697092e+00 4.390114e+00 -1.285326e+00 -6.164001e-01 -2.225321e+00 -1.083006e+00 -1.858380e+00 -1.209182e+00 -2.621101e+00 -2.248255e+00 -6.007410e-01 2.167861e+00 2.866739e+00 -5.101358e-01 -1.336227e+00 -1.746376e+00 -2.091716e+00 -6.187314e-01 -3.133598e-02 8.949221e-01 -8.884137e-01 2.857695e-01 5.788958e-01 2.128130e-01 7.263808e-01
<VARIANCE> 25
 3.960735e+01 1.106493e+01 2.475036e+01 5.012620e+01 1.852223e+01 4.979087e+01 2.845201e+01 2.355400e+01 1.102264e+01 2.266613e+01 1.002179e+01 5.479281e+00 3.037519e+00 2.401013e+00 6.293331e-01 6.582957e+00 1.878157e+00 3.868727e+00 2.417991e+00 1.854360e+00 1.896522e+00 2.120619e+00 1.304705e+00 9.731684e-01 4.886305e-01
<GCONST> 8.982036e+01
<STATE> 4
<MEAN> 25
 8.825908e+00 8.473395e-01 -5.129381e+00 -5.551863e+00 -2.920158e+00 -3.258828e+00 -3.983639e+00 5.300570e+00 -6.626485e+00 3.511373e+00 -2.020133e+00 -5.486568e-01 -2.649164e-01 8.340904e-02 2.243102e-01 2.627693e-01 2.006180e-01 -2.375310e-02 -4.569991e-02 -2.141787e-01 3.518820e-03 -2.288816e-02 -4.003573e-02 3.348168e-03 -9.089875e-02
<VARIANCE> 25
 1.336719e+01 1.255983e+01 4.549392e+01 3.652764e+01 2.096757e+01 6.146027e+01 4.359327e+01 3.885816e+01 2.672036e+01 1.518776e+01 2.131926e+01 1.333188e+01 7.089081e-01 8.825019e-01 1.720913e+00 1.581683e+00 1.880592e+00 2.932537e+00 2.306222e+00 3.226257e+00 1.873107e+00 1.267388e+00 1.822781e+00 1.424373e+00 1.457828e-01
<GCONST> 8.887747e+01
<TRANSP> 5
 0.000000e+00 1.000000e+00 0.000000e+00 0.000000e+00 0.000000e+00
 0.000000e+00 7.183241e-01 2.816759e-01 0.000000e+00 0.000000e+00
 0.000000e+00 0.000000e+00 6.843416e-01 3.156584e-01 0.000000e+00
 0.000000e+00 0.000000e+00 0.000000e+00 9.499890e-01 5.001101e-02
 0.000000e+00 0.000000e+00 0.000000e+00 0.000000e+00 0.000000e+00
<ENDHMM>
~h "sh"
<BEGINHMM>
<NUMSTATES> 5
<STATE> 2
<MEAN> 25
 -7.560610e+00 1.667931e+00 3.730529e+00 7.435013e-01 2.807318e+00 -1.029457e+00 1.113263e+00 -1.628836e+00 2.879741e+00 -5.588490e-01 2.040699e+00 2.352709e+00 -2.861225e+00 -6.554837e-01 1.491144e-01 -6.223711e-01 1.276198e+00 1.324455e+00 1.935788e+00 -7.495955e-02 1.645281e+00 -8.421446e-02 4.721839e-01 7.973347e-01 6.485506e-01
<VARIANCE> 25
 5.379242e+01 2.788856e+01 2.681727e+01 2.922441e+01 3.831422e+01 3.767498e+01 4.372615e+01 4.628790e+01 3.867730e+01 2.944032e+01 1.923267e+01 1.467889e+01 3.576674e+00 2.088835e+00 3.315446e+00 3.637190e+00 3.833367e+00 3.162625e+00 3.999954e+00 4.056410e+00 3.251656e+00 2.816799e+00 1.890482e+00 1.613501e+00 7.269558e-01
<GCONST> 1.002863e+02
<STATE> 3
<MEAN> 25
 -1.669242e+01 -3.937787e+00 3.678840e+00 -4.869920e+00 3.381720e+00 3.169366e+00 4.681417e+00 -1.850532e+00 8.941031e+00 -2.207443e-01 3.095446e+00 4.161040e+00 -1.776374e-01 -2.928886e-01 -3.784742e-02 -8.711158e-02 -2.762964e-01 -7.711744e-02 9.469829e-02 -1.707583e-01 5.312428e-02 1.860969e-02 -7.270649e-02 -2.141263e-02 -4.584375e-02
<VARIANCE> 25
 1.301308e+01 1.254418e+01 9.539636e+00 1.298677e+01 2.200306e+01 1.876355e+01 2.002084e+01 2.432046e+01 1.680853e+01 1.578443e+01 1.534030e+01 1.711728e+01 6.679243e-01 6.661552e-01 5.071984e-01 9.911990e-01 1.226032e+00 1.337088e+00 1.488635e+00 1.647286e+00 1.417995e+00 1.278866e+00 1.339918e+00 1.173460e+00 3.048877e-01
<GCONST> 7.897791e+01
<STATE> 4
<MEAN> 25
 -1.249304e+01 -3.091011e+00 6.091035e+00 -1.190641e+00 -6.945593e-01 -4.035596e-01 5.158849e+00 -3.932881e+00 5.692297e+00 -3.449398e-01 1.435861e+00 2.416364e+00 2.522918e+00 9.511286e-01 1.211553e+00 4.662648e-01 -8.752887e-01 -6.338787e-01 -1.012048e+00 -3.550574e-01 -1.015291e+00 -1.720096e-01 -4.987993e-01 -3.588264e-01 -3.678595e-01
<VARIANCE> 25
 4.606018e+01 3.007022e+01 2.105532e+01 2.115260e+01 3.265969e+01 3.523808e+01 3.102910e+01 2.053957e+01 1.639598e+01 1.616522e+01 1.614819e+01 1.683839e+01 3.791088e+00 2.016607e+00 2.048680e+00 1.202697e+00 1.713810e+00 2.470232e+00 2.266428e+00 2.347671e+00 1.982558e+00 1.434898e+00 1.668301e+00 1.685103e+00 6.395573e-01
<GCONST> 9.165286e+01
<TRANSP> 5
 0.000000e+00 1.000000e+00 0.000000e+00 0.000000e+00 0.000000e+00
 0.000000e+00 7.883622e-01 2.116378e-01 0.000000e+00 0.000000e+00
 0.000000e+00 0.000000e+00 9.097804e-01 9.021962e-02 0.000000e+00
 0.000000e+00 0.000000e+00 0.000000e+00 8.158329e-01 1.841671e-01
 0.000000e+00 0.000000e+00 0.000000e+00 0.000000e+00 0.000000e+00
<ENDHMM>
~h "sp"
<BEGINHMM>
<NUMSTATES> 3
<STATE> 2
~s "silst"
<TRANSP> 3
 0.000000e+00 7.000000e-01 3.000000e-01
 0.000000e+00 9.000000e-01 9.999999e-02
 0.000000e+00 0.000000e+00 0.000000e+00
<ENDHMM>
~h "th"
<BEGINHMM>
<NUMSTATES> 5
<STATE> 2
<MEAN> 25
 -5.040518e+00 -7.024907e-01 -5.018046e+00 3.255638e+00 1.097817e+00 2.818257e+00 3.159935e+00 -2.515676e+00 3.707407e+00 1.114970e+00 5.180880e-01 1.493929e+00 -5.430880e-01 -5.469741e-01 -3.671852e-01 -2.244494e-01 7.968176e-02 5.027217e-01 4.178460e-01 1.499950e-01 3.566832e-01 3.491094e-01 3.003150e-01 3.070405e-01 -4.877779e-01
<VARIANCE> 25
 1.112191e+01 1.850356e+01 2.161716e+01 1.220596e+01 1.321401e+01 2.043168e+01 1.715264e+01 2.097301e+01 1.734112e+01 1.902638e+01 1.616278e+01 1.499878e+01 2.261579e+00 1.362643e+00 2.500772e+00 1.356970e+00 1.930060e+00 2.397904e+00 2.209091e+00 2.170475e+00 2.082115e+00 2.006868e+00 1.745845e+00 1.301240e+00 9.353816e-01
<GCONST> 8.725329e+01
<STATE> 3
<MEAN> 25
 -4.623730e+00 -4.078727e+00 -1.815594e+00 3.217909e+00 3.395648e+00 5.658048e+00 4.811685e+00 -3.830962e-01 4.422821e+00 3.589951e+00 1.230614e+00 2.491242e+00 -4.728511e-02 1.028591e-01 4.773198e-02 1.199715e-01 2.252928e-01 1.363207e-01 2.300405e-01 1.656190e-01 9.691617e-02 -3.922062e-02 -5.632872e-02 -7.303950e-02 -5.257558e-02
<VARIANCE> 25
 6.182469e+00 1.082707e+01 1.907524e+01 1.104200e+01 1.655697e+01 2.292056e+01 2.184339e+01 1.720202e+01 1.882259e+01 2.346145e+01 1.503339e+01 1.309970e+01 4.222153e-01 5.862577e-01 6.156450e-01 6.984655e-01 9.228495e-01 1.531562e+00 1.720587e+00 1.355071e+00 1.437783e+00 1.788356e+00 1.002545e+00 1.163109e+00 2.080881e-01
<GCONST> 7.722240e+01
<STATE> 4
<MEAN> 25
 -6.771536e+00 -3.223583e-01 -5.154776e+00 3.371567e+00 2.648881e+00 2.158998e+00 5.014864e+00 -1.417025e+00 4.824442e+00 3.553861e-01 5.508114e-01 2.762678e+00 1.656169e-01 2.727538e-01 -1.686024e-01 -3.389693e-01 -3.558771e-02 -7.611378e-01 -1.531728e-01 -9.925823e-02 6.094678e-02 -2.534475e-01 -1.955075e-02 1.343430e-01 6.588127e-01
<VARIANCE> 25
 1.605395e+01 1.726597e+01 2.221437e+01 1.506959e+01 1.365976e+01 2.882075e+01 1.819658e+01 2.704845e+01 2.529782e+01 2.667054e+01 2.070515e+01 1.566445e+01 1.652117e+00 7.524107e-01 2.057289e+00 2.050368e+00 1.509250e+00 2.517367e+00 1.999784e+00 2.409914e+00 2.442717e+00 2.648478e+00 2.498387e+00 1.443718e+00 1.281428e+00
<GCONST> 8.981789e+01
<TRANSP> 5
 0.000000e+00 1.000000e+00 0.000000e+00 0.000000e+00 0.000000e+00
 0.000000e+00 8.567340e-01 1.432660e-01 0.000000e+00 0.000000e+00
 0.000000e+00 0.000000e+00 8.310862e-01 1.689138e-01 0.000000e+00
 0.000000e+00 0.000000e+00 0.000000e+00 8.215561e-01 1.784439e-01
 0.000000e+00 0.000000e+00 0.000000e+00 0.000000e+00 0.000000e+00
<ENDHMM>
~h "uh"
<BEGINHMM>
<NUMSTATES> 5
<STATE> 2
<MEAN> 25
 4.660401e+00 6.319396e+00 3.390803e+00 4.168921e+00 -2.350396e+00 -2.522258e+00 -6.441080e+00 -2.835096e+00 -3.137203e+00 -9.286594e-01 1.011509e+00 1.237518e-01 9.986234e-01 7.010605e-01 -3.092455e-01 -4.817303e-01 -1.105004e+00 5.213836e-01 -7.145866e-01 2.920247e-01 -1.062144e+00 -1.403994e-01 7.935804e-01 -4.814112e-01 4.040644e-01
<VARIANCE> 25
 1.841525e+01 1.825169e+01 2.790129e+01 2.218874e+01 2.774836e+01 3.659019e+01 3.757073e+01 1.955212e+01 2.777327e+01 1.702623e+01 2.213542e+01 1.753565e+01 2.237642e+00 1.527845e+00 1.399750e+00 2.088502e+00 2.870813e+00 1.386725e+00 2.573588e+00 1.577397e+00 1.970659e+00 1.342709e+00 2.403562e+00 1.726419e+00 5.480633e-01
<GCONST> 9.071446e+01
<STATE> 3
<MEAN> 25
 7.301820e+00 7.069315e+00 -2.504376e+00 8.206722e-01 -6.142483e+00 3.297074e-01 -9.517565e+00 -2.393801e+00 -8.076840e+00 -7.222697e-01 6.518270e+00 -1.325061e+00 -4.992126e-02 -2.878137e-02 -3.108862e-01 -2.117917e-01 4.487631e-02 1.332959e-01 -2.551996e-01 -6.456111e-02 -3.098200e-02 2.429911e-01 4.461253e-01 -1.992838e-01 8.102394e-02
<VARIANCE> 25
 4.722488e+00 9.742746e+00 1.902644e+01 3.060196e+01 9.133997e+00 4.596745e+01 2.709395e+01 2.748771e+01 1.749343e+01 2.435888e+01 3.355927e+01 1.534750e+01 1.043134e-01 1.860264e-01 4.136015e-01 5.456937e-01 5.432962e-01 7.674100e-01 9.120498e-01 1.047731e+00 7.960236e-01 8.929943e-01 7.923833e-01 8.776619e-01 8.339232e-02
<GCONST> 7.155489e+01
<STATE> 4
<MEAN> 25
 4.833906e+00 4.959133e+00 -1.566156e+00 1.500322e+00 -3.931013e+00 -2.436390e+00 -1.261995e+01 -6.241004e-01 -3.268950e+00 8.285214e-01 7.967006e+00 -4.661040e+00 -5.763200e-01 -7.351575e-01 9.672508e-01 5.370233e-01 6.130097e-01 -9.611370e-01 4.530819e-01 2.818443e-01 1.042858e+00 -5.639390e-02 -9.804702e-01 2.704035e-01 -4.532403e-01
<VARIANCE> 25
 8.009584e+00 1.439410e+01 1.424407e+01 1.699535e+01 1.151501e+01 4.747158e+01 3.572032e+01 3.222027e+01 2.296376e+01 1.624431e+01 3.576130e+01 2.455376e+01 2.800367e-01 4.990017e-01 1.188442e+00 6.708813e-01 1.458542e+00 2.297536e+00 5.364015e+00 2.916302e+00 2.309144e+00 1.553304e+00 1.727320e+00 2.814838e+00 1.058877e+00
<GCONST> 8.691589e+01
<TRANSP> 5
 0.000000e+00 1.000000e+00 0.000000e+00 0.000000e+00 0.000000e+00
 0.000000e+00 7.553434e-01 2.446566e-01 0.000000e+00 0.000000e+00
 0.000000e+00 0.000000e+00 9.109436e-01 8.905638e-02 0.000000e+00
 0.000000e+00 0.000000e+00 0.000000e+00 8.137793e-01 1.862207e-01
 0.000000e+00 0.000000e+00 0.000000e+00 0.000000e+00 0.000000e+00
<ENDHMM>
~h "uw"
<BEGINHMM>
<NUMSTATES> 5
<STATE> 2
<MEAN> 25
 1.970432e+00 5.419043e+00 3.565035e+00 6.044023e+00 -1.629525e+00 -8.483434e+00 -6.771933e+00 -6.371928e-01 -3.247195e+00 -4.026259e+00 6.641864e-01 -1.173136e+00 2.159303e+00 5.473713e-01 8.912888e-01 7.752970e-01 -1.176853e+00 -4.313408e-01 -2.583936e+00 -5.985615e-01 -7.582552e-01 -1.710826e-01 5.873311e-01 -1.391801e+00 -6.283953e-02
<VARIANCE> 25
 1.958513e+01 8.652968e+00 1.613899e+01 1.407244e+01 2.293216e+01 3.273694e+01 4.198388e+01 2.337957e+01 1.986145e+01 2.022287e+01 1.805966e+01 1.747577e+01 2.245641e+00 9.478788e-01 1.975873e+00 2.270054e+00 2.163267e+00 2.134559e+00 3.640013e+00 2.408080e+00 2.447885e+00 1.862224e+00 2.016713e+00 2.442227e+00 2.444006e-01
<GCONST> 8.942475e+01
<STATE> 3
<MEAN> 25
 5.179939e+00 5.854621e+00 2.217900e+00 6.498792e+00 -3.272103e+00 -5.645394e+00 -1.128868e+01 -2.309410e+00 -4.183537e+00 -3.283344e+00 2.667056e+00 -3.927186e+00 1.526293e-01 9.819146e-02 -3.209268e-01 -1.518510e-01 -6.168544e-02 5.249162e-01 -3.583106e-01 -4.062571e-01 3.009509e-02 2.852958e-01 2.327677e-01 -2.719280e-01 -9.081194e-02
<VARIANCE> 25
 5.045725e+00 4.464854e+00 1.112470e+01 1.509727e+01 1.443647e+01 3.203967e+01 3.261861e+01 3.084509e+01 1.641695e+01 2.074536e+01 1.459653e+01 2.064072e+01 1.465726e-01 1.831373e-01 3.327394e-01 5.081632e-01 6.204497e-01 8.789092e-01 9.605769e-01 8.891268e-01 1.019069e+00 7.759265e-01 8.945751e-01 1.016767e+00 6.293835e-02
<GCONST> 6.952026e+01
<STATE> 4
<MEAN> 25
 5.142685e+00 5.240561e+00 7.910907e-01 3.590838e+00 -3.781096e+00 -2.778102e+00 -9.992739e+00 -5.044848e+00 -3.248233e+00 -1.286201e+00 3.477421e+00 -4.566309e+00 -1.815472e-01 -2.664576e-01 6.247840e-02 -1.468567e-01 1.311718e-01 1.126508e-01 5.027267e-01 7.499088e-03 1.148717e-01 1.087732e-01 -1.136558e-01 3.646768e-01 -2.325829e-01
<VARIANCE> 25
 6.878313e+00 1.030400e+01 1.505022e+01 1.533463e+01 1.926547e+01 2.707033e+01 4.299447e+01 2.941773e+01 2.096488e+01 2.176068e+01 2.275960e+01 2.989407e+01 3.727940e-01 4.501377e-01 5.459375e-01 7.210658e-01 1.053644e+00 1.467721e+00 1.869671e+00 1.859373e+00 1.230761e+00 1.246657e+00 1.086470e+00 1.431613e+00 2.787845e-01
<GCONST> 8.025163e+01
<TRANSP> 5
 0.000000e+00 1.000000e+00 0.000000e+00 0.000000e+00 0.000000e+00
 0.000000e+00 5.937499e-01 4.062501e-01 0.000000e+00 0.000000e+00
 0.000000e+00 0.000000e+00 8.643628e-01 1.356372e-01 0.000000e+00
 0.000000e+00 0.000000e+00 0.000000e+00 9.255436e-01 7.445638e-02
 0.000000e+00 0.000000e+00 0.000000e+00 0.000000e+00 0.000000e+00
<ENDHMM>
~h "zh"
<BEGINHMM>
<NUMSTATES> 5
<STATE> 2
<MEAN> 25
 -1.067727e+01 -1.690278e+00 9.165234e+00 5.328365e+00 -3.721614e+00 -4.077800e+00 3.080405e+00 -2.009852e+00 3.661641e+00 -3.901192e+00 5.623324e+00 2.494105e+00 -1.104260e+00 -3.264704e-01 3.159786e-01 -1.723579e-01 3.556825e-02 1.368517e-02 1.266695e+00 -6.099359e-01 6.921533e-01 -5.038131e-02 -3.428521e-01 7.984521e-02 -2.062595e-02
<VARIANCE> 25
 8.678006e+01 3.666708e+01 7.173483e+00 2.635408e+01 7.221588e+00 1.759466e+01 6.655856e+01 2.726241e+01 3.363561e+01 1.272327e+01 1.347943e+01 1.039996e+01 4.838988e+00 1.386920e+00 1.473851e+00 2.007389e+00 1.322904e+00 2.146475e+00 7.399922e+00 3.983963e+00 3.073314e+00 2.824343e+00 1.726374e+00 2.113415e+00 3.385805e-01
<GCONST> 9.239273e+01
<STATE> 3
<MEAN> 25
 -4.399734e+00 4.201302e+00 1.413930e+01 1.005393e+00 -2.868401e+00 -1.910863e+00 2.257982e+00 -4.528919e+00 2.093279e+00 -2.818477e+00 2.785160e+00 3.692802e-01 1.007530e+00 1.466554e-01 4.462897e-01 -2.142957e-01 -5.921676e-01 -7.108422e-02 1.798481e-01 5.111590e-01 8.317605e-03 1.799819e-01 -8.518673e-02 2.283545e-01 7.278415e-02
<VARIANCE> 25
 4.986032e+01 2.408570e+01 1.383752e+01 6.613441e+00 7.027999e+01 4.508340e+01 1.897323e+01 2.688522e+01 1.210759e+01 1.055329e+01 1.059535e+01 9.717529e+00 7.364100e+00 1.938075e+00 1.419465e+00 1.141275e+00 3.020887e+00 5.950879e+00 2.202064e+00 4.636434e+00 1.563730e+00 8.307834e-01 2.450729e+00 1.145439e+00 3.320640e-01
<GCONST> 8.987910e+01
<STATE> 4
<MEAN> 25
 -6.252855e-01 9.750765e+00 5.504484e+00 1.118750e+00 -4.599853e+00 -2.185283e+00 -1.179119e+00 -4.903164e+00 2.993314e+00 -1.832986e+00 6.354426e-01 9.427931e-01 4.272321e-01 -8.079267e-01 -3.189154e-01 -4.296113e-01 2.764399e-01 -1.114121e-01 -1.627265e-01 8.471756e-01 3.560368e-02 1.257146e-01 -1.974013e-01 -1.678574e-02 1.987449e-01
<VARIANCE> 25
 6.127512e+01 3.983304e+01 3.315672e+01 4.184832e+01 2.575985e+01 1.730446e+01 2.177306e+01 4.461191e+01 9.774313e+00 7.288818e+00 5.420830e+00 5.687500e+00 3.148314e+00 7.457353e-01 2.487343e+00 1.162635e+00 2.370139e+00 1.339882e+00 2.076550e+00 3.392024e+00 7.613114e-01 7.376170e-01 7.853515e-01 7.863081e-01 2.299050e-01
<GCONST> 8.414925e+01
<TRANSP> 5
 0.000000e+00 1.000000e+00 0.000000e+00 0.000000e+00 0.000000e+00
