~o
<STREAMINFO> 1 25
<VECSIZE> 25<NULLD><MFCC_D_N_Z_0><DIAGC>
~s "silst"
<MEAN> 25
 -7.657118e+00 -8.085508e+00 -1.396732e+00 1.593684e-01 4.066546e+00 4.379875e+00 2.919413e+00 -2.604530e+00 4.017906e+00 1.759706e+00 1.214225e+00 1.384420e+00 -2.049179e-02 -1.606968e-02 -9.139993e-03 -1.632367e-02 -1.509301e-02 2.203326e-02 -2.501644e-02 -2.267459e-02 -3.503920e-02 -2.573303e-02 -3.197589e-02 -3.004568e-02 -3.683280e-02
<VARIANCE> 25
 1.182513e+01 7.698385e+00 6.240304e+00 8.539676e+00 1.532407e+01 1.253276e+01 1.692354e+01 1.499479e+01 1.785724e+01 1.591792e+01 1.516055e+01 1.274467e+01 1.074223e-01 2.273217e-01 3.967348e-01 5.965284e-01 7.792107e-01 9.606727e-01 1.126871e+00 1.291716e+00 1.351567e+00 1.343294e+00 1.264991e+00 1.183163e+00 3.597942e-02
<GCONST> 6.874892e+01
~h "b"
<BEGINHMM>
<NUMSTATES> 5
<STATE> 2
<MEAN> 25
 1.349692e+00 -4.740766e-01 3.509671e+00 3.715582e+00 1.958633e+00 2.034197e+00 2.779044e-01 -4.926774e+00 -8.471862e-01 7.768577e-02 -1.775255e+00 -1.014376e+00 4.812043e-01 7.245962e-01 8.582277e-01 6.830670e-01 4.743303e-01 2.451967e-01 1.273060e-01 -6.971934e-01 -3.621012e-01 -8.328102e-01 -8.735994e-01 -6.636129e-01 -1.275015e-01
<VARIANCE> 25
 1.677388e+01 1.315290e+01 1.257083e+01 9.748288e+00 1.493298e+01 2.233367e+01 2.047275e+01 2.420852e+01 2.299189e+01 1.891261e+01 1.783621e+01 1.854157e+01 1.876260e+00 1.895020e+00 1.197508e+00 1.038418e+00 1.478662e+00 2.450656e+00 2.752506e+00 2.330115e+00 2.514048e+00 2.064489e+00 1.628254e+00 1.811960e+00 9.671690e-01
<GCONST> 8.737123e+01
<STATE> 3
<MEAN> 25
 3.444140e+00 2.220344e+00 5.250436e+00 5.598777e+00 3.575975e+00 2.543051e+00 8.168786e-01 -6.131135e+00 -2.108390e+00 -2.292160e+00 -4.034338e+00 -2.886338e+00 -2.128026e-01 4.000617e-02 8.497758e-02 2.212023e-01 2.828989e-01 3.245347e-01 3.054198e-01 3.738373e-02 4.657044e-02 -6.178635e-02 1.918693e-02 -4.127361e-02 -9.749689e-02
<VARIANCE> 25
 4.723894e+00 6.512444e+00 7.773534e+00 6.630303e+00 1.361524e+01 1.326252e+01 1.295029e+01 1.443201e+01 1.325312e+01 1.034568e+01 9.393793e+00 1.127815e+01 3.868767e-01 2.748435e-01 3.749413e-01 4.834667e-01 7.769299e-01 8.862047e-01 8.963190e-01 7.781153e-01 1.137940e+00 8.493780e-01 9.609658e-01 8.780640e-01 1.591001e-01
<GCONST> 6.660146e+01
<STATE> 4
<MEAN> 25
 2.417562e+00 1.806241e+00 2.943876e+00 4.536884e+00 2.990178e+00 1.230519e+00 -4.180266e-01 -3.561471e+00 -1.460953e+00 -6.949228e-01 -2.219737e+00 -2.461657e+00 5.478374e-01 -2.141450e-01 -1.734056e+00 -1.410923e+00 -1.167280e+00 -1.664219e+00 -1.308753e+00 1.486494e+00 3.153481e-01 6.490280e-01 9.788911e-01 4.535644e-01 1.902986e+00
<VARIANCE> 25
 1.246148e+01 1.039193e+01 2.830361e+01 2.263721e+01 1.984144e+01 4.138707e+01 5.167268e+01 4.684132e+01 1.351419e+01 1.958866e+01 1.928605e+01 1.293760e+01 2.124442e+00 1.215019e+00 3.093012e+00 2.600452e+00 2.063821e+00 2.464312e+00 5.274661e+00 3.537223e+00 1.901406e+00 3.043442e+00 2.577148e+00 1.616247e+00 1.111107e+00
<GCONST> 9.374740e+01
<TRANSP> 5
 0.000000e+00 1.000000e+00 0.000000e+00 0.000000e+00 0.000000e+00
 0.000000e+00 6.945772e-01 3.054228e-01 0.000000e+00 0.000000e+00
 0.000000e+00 0.000000e+00 8.373238e-01 1.626762e-01 0.000000e+00
 0.000000e+00 0.000000e+00 0.000000e+00 5.937449e-01 4.062550e-01
 0.000000e+00 0.000000e+00 0.000000e+00 0.000000e+00 0.000000e+00
<ENDHMM>
~h "d"
<BEGINHMM>
<NUMSTATES> 5
<STATE> 2
<MEAN> 25
 2.545574e+00 2.111929e+00 5.842546e+00 2.490185e+00 -2.315477e+00 -2.707165e+00 -2.294878e+00 -2.917320e+00 -2.327414e+00 -8.735093e-01 -6.214094e-01 -8.428479e-01 -3.857625e-01 -5.374848e-01 4.115414e-02 6.961297e-01 1.426006e+00 1.326504e+00 1.217516e+00 -8.307431e-01 4.631751e-01 -1.326405e-01 -1.853906e-01 1.397661e-01 -1.127856e+00
<VARIANCE> 25
 7.979364e+00 1.283547e+01 1.713010e+01 1.650740e+01 3.188911e+01 3.231953e+01 2.746901e+01 3.125624e+01 1.854708e+01 2.004507e+01 2.375962e+01 1.594493e+01 8.558880e-01 1.384437e+00 1.197116e+00 1.479507e+00 2.525470e+00 2.681032e+00 2.989514e+00 2.808518e+00 1.961088e+00 1.958261e+00 2.027447e+00 1.759667e+00 1.137134e+00
<GCONST> 8.929694e+01
<STATE> 3
<MEAN> 25
 -4.113921e-01 -1.941885e+00 3.261647e+00 4.016094e+00 2.963855e+00 3.254849e+00 3.209311e+00 -2.620150e+00 6.758045e-01 4.607230e-01 -7.924039e-01 5.913837e-01 -6.296641e-01 -4.505105e-01 -5.245682e-01 -2.487953e-01 3.867246e-01 5.506759e-01 7.457956e-01 4.995528e-01 5.653422e-01 4.053623e-01 3.339853e-01 2.931686e-01 -2.588727e-01
<VARIANCE> 25
 1.156449e+01 1.473155e+01 1.276852e+01 1.127179e+01 1.351194e+01 1.582912e+01 1.889991e+01 2.017087e+01 1.782176e+01 2.089247e+01 2.122786e+01 1.681449e+01 9.169836e-01 1.158356e+00 1.123363e+00 1.168444e+00 1.319636e+00 1.789008e+00 1.663443e+00 1.582724e+00 1.718299e+00 1.660979e+00 1.452818e+00 1.327445e+00 7.038191e-01
<GCONST> 8.267399e+01
<STATE> 4
<MEAN> 25
 -2.998415e+00 -2.473000e+00 6.774535e-01 1.732101e+00 3.066658e+00 2.689642e+00 4.943568e+00 -5.129735e-01 3.058706e+00 2.048039e+00 1.340268e+00 2.475804e+00 -1.793939e-01 2.969701e-01 -2.768963e-01 -5.169574e-01 -4.865192e-01 -7.174873e-01 -4.301994e-01 6.990595e-02 1.620932e-01 -1.102266e-01 1.853828e-01 1.644222e-01 6.951226e-01
<VARIANCE> 25
 1.300799e+01 2.212803e+01 1.429756e+01 2.167220e+01 1.994384e+01 3.643475e+01 2.728640e+01 2.655854e+01 2.319830e+01 3.042937e+01 2.092054e+01 1.699234e+01 1.927221e+00 1.779619e+00 1.801246e+00 2.642992e+00 2.680536e+00 4.979504e+00 3.249976e+00 2.958988e+00 2.451657e+00 2.441504e+00 2.073038e+00 1.835508e+00 2.603526e+00
<GCONST> 9.468291e+01
<TRANSP> 5
 0.000000e+00 1.000000e+00 0.000000e+00 0.000000e+00 0.000000e+00
 0.000000e+00 7.212687e-01 2.787313e-01 0.000000e+00 0.000000e+00
 0.000000e+00 0.000000e+00 7.290298e-01 2.709702e-01 0.000000e+00
 0.000000e+00 0.000000e+00 0.000000e+00 7.393185e-01 2.606816e-01
 0.000000e+00 0.000000e+00 0.000000e+00 0.000000e+00 0.000000e+00
<ENDHMM>
~h "f"
<BEGINHMM>
<NUMSTATES> 5
<STATE> 2
<MEAN> 25
 -2.778599e+00 -1.751308e+00 -1.810956e+00 3.644820e+00 1.162168e+00 2.447066e+00 2.319971e+00 4.729417e-02 2.252705e+00 1.846246e+00 -2.153291e-01 1.770041e+00 -1.712522e+00 -2.476807e-01 -1.147668e+00 6.393938e-01 1.449860e-01 1.237540e+00 6.503175e-01 1.660946e-01 7.033442e-01 1.777083e-01 2.165728e-01 4.124586e-01 -4.739968e-01
<VARIANCE> 25
 2.279485e+01 7.388734e+00 2.319388e+01 1.849264e+01 1.589387e+01 2.386252e+01 2.203547e+01 2.028480e+01 2.608511e+01 1.994318e+01 1.982119e+01 1.799508e+01 2.136868e+00 1.104354e+00 1.437024e+00 1.749509e+00 2.327679e+00 2.064854e+00 3.304231e+00 2.374385e+00 3.149752e+00 2.686781e+00 1.892174e+00 1.983459e+00 6.136426e-01
<GCONST> 8.968683e+01
<STATE> 3
<MEAN> 25
 -9.167769e+00 -1.324965e-01 -7.882668e+00 6.662837e+00 -8.469260e-01 6.063369e+00 1.660961e+00 8.555937e-01 2.914560e+00 2.417717e+00 4.833270e-01 2.036570e+00 -1.563952e-01 9.262880e-02 -9.490846e-02 1.150219e-01 6.352468e-02 -5.656933e-02 -1.224157e-02 -1.518949e-02 4.907772e-03 -6.272427e-02 1.702264e-02 -2.487311e-03 1.167342e-01
<VARIANCE> 25
 5.490565e+00 9.120718e+00 1.318166e+01 1.426907e+01 1.506138e+01 1.874917e+01 2.726567e+01 1.813906e+01 1.797286e+01 1.679927e+01 1.609314e+01 1.422545e+01 4.343306e-01 5.480174e-01 7.408319e-01 8.748623e-01 1.165141e+00 1.426475e+00 1.667205e+00 1.510545e+00 1.501828e+00 1.553746e+00 1.596992e+00 1.104769e+00 2.345371e-01
<GCONST> 7.761560e+01
<STATE> 4
<MEAN> 25
 -6.062335e+00 -1.537941e+00 -5.449229e+00 3.549624e+00 1.234002e+00 2.550818e+00 3.084897e+00 -2.842621e-01 2.880194e+00 1.835252e+00 -4.291414e-01 1.910719e+00 2.073043e+00 1.610431e-01 9.213172e-01 -1.036075e+00 -2.690522e-01 -9.869785e-01 -1.064223e-01 -5.312678e-01 -4.739916e-01 -1.981194e-01 -1.242891e-01 -3.010635e-01 2.704226e-01
<VARIANCE> 25
 2.854740e+01 1.210522e+01 1.815274e+01 1.793496e+01 2.089126e+01 2.474681e+01 2.925704e+01 1.625789e+01 2.205536e+01 1.709484e+01 1.670045e+01 1.666000e+01 4.479067e+00 2.153829e+00 1.813490e+00 2.363710e+00 2.720518e+00 3.094193e+00 2.925625e+00 2.357566e+00 2.680423e+00 1.787687e+00 1.693458e+00 2.095713e+00 9.951922e-01
<GCONST> 9.216359e+01
<TRANSP> 5
 0.000000e+00 1.000000e+00 0.000000e+00 0.000000e+00 0.000000e+00
 0.000000e+00 8.127598e-01 1.872402e-01 0.000000e+00 0.000000e+00
 0.000000e+00 0.000000e+00 8.866184e-01 1.133815e-01 0.000000e+00
 0.000000e+00 0.000000e+00 0.000000e+00 7.478024e-01 2.521976e-01
 0.000000e+00 0.000000e+00 0.000000e+00 0.000000e+00 0.000000e+00
<ENDHMM>
~h "g"
<BEGINHMM>
<NUMSTATES> 5
<STATE> 2
<MEAN> 25
 1.802266e+00 1.379639e+00 5.009574e+00 3.583352e+00 1.695533e+00 1.466187e+00 6.666148e-01 -5.326524e+00 -2.840441e+00 -1.700103e+00 -1.860431e+00 -2.479659e+00 -5.693064e-02 -1.796794e-01 5.105273e-02 3.246624e-01 6.939719e-01 4.716637e-01 5.994428e-01 -1.474136e-01 2.461365e-01 -1.667005e-01 -3.630611e-01 1.589938e-01 -3.008555e-01
<VARIANCE> 25
 1.253172e+01 1.314601e+01 1.165766e+01 1.229556e+01 2.224224e+01 1.960700e+01 1.935058e+01 2.012705e+01 1.832331e+01 1.769196e+01 1.594486e+01 1.279962e+01 1.386352e+00 1.445311e+00 1.073848e+00 1.002630e+00 2.411646e+00 2.019195e+00 2.267605e+00 2.265685e+00 2.438795e+00 1.720180e+00 1.622970e+00 1.572633e+00 7.857289e-01
<GCONST> 8.527730e+01
<STATE> 3
<MEAN> 25
 -1.246633e+00 -9.971611e-01 1.392692e+00 4.465703e+00 4.633610e+00 1.430545e+00 2.285161e+00 -1.209665e+00 3.877082e-01 6.791064e-01 -7.128414e-01 1.291419e-01 -2.952468e-01 5.942590e-02 -3.189258e-01 -2.424844e-01 -8.102309e-01 -1.671216e+00 -1.080664e+00 1.323737e+00 -4.866383e-02 2.063267e-01 7.123515e-01 4.402745e-01 1.209950e+00
<VARIANCE> 25
 1.481445e+01 2.307241e+01 3.622934e+01 2.208177e+01 2.686843e+01 4.435034e+01 4.195817e+01 3.856172e+01 3.572946e+01 4.368715e+01 2.232929e+01 1.488449e+01 2.059513e+00 2.885707e+00 4.979449e+00 3.118007e+00 3.129358e+00 3.681131e+00 5.410483e+00 5.266226e+00 4.433373e+00 3.166952e+00 2.255098e+00 1.710262e+00 1.759042e+00
<GCONST> 1.009720e+02
<STATE> 4
<MEAN> 25
 2.533928e+00 2.175272e+00 5.662535e+00 2.324620e+00 -4.259064e+00 -6.696291e+00 -5.416793e+00 3.346776e+00 -3.676431e+00 -6.341294e-01 2.780089e+00 -1.038630e+00 9.332884e-01 -5.579735e-02 -3.115199e-01 -5.793623e-01 -1.073688e+00 -5.787352e-01 -7.972932e-01 1.047632e+00 5.722743e-02 -2.327505e-01 5.914629e-01 -2.781709e-01 5.644089e-01
<VARIANCE> 25
 1.363638e+01 1.534936e+01 4.516668e+01 3.343407e+01 4.550322e+01 3.945622e+01 4.565847e+01 4.551671e+01 3.193309e+01 2.250693e+01 2.601469e+01 1.523339e+01 1.651770e+00 1.339435e+00 2.209200e+00 1.645012e+00 4.035387e+00 2.917051e+00 2.711982e+00 4.181807e+00 2.569113e+00 2.070429e+00 4.005040e+00 2.073982e+00 6.603401e-01
<GCONST> 9.665443e+01
<TRANSP> 5
 0.000000e+00 1.000000e+00 0.000000e+00 0.000000e+00 0.000000e+00
 0.000000e+00 8.690470e-01 1.309530e-01 0.000000e+00 0.000000e+00
 0.000000e+00 0.000000e+00 7.102479e-01 2.897520e-01 0.000000e+00
 0.000000e+00 0.000000e+00 0.000000e+00 6.564214e-01 3.435787e-01
 0.000000e+00 0.000000e+00 0.000000e+00 0.000000e+00 0.000000e+00
<ENDHMM>
~h "k"
<BEGINHMM>
<NUMSTATES> 5
<STATE> 2
<MEAN> 25
 -2.086567e+00 -1.118434e+00 1.840530e+00 1.666868e+00 2.005071e+00 7.421731e-01 1.964556e+00 -3.486895e+00 -2.289604e-01 1.403865e+00 6.920927e-01 1.181802e+00 -8.294094e-01 -1.322943e+00 -7.653689e-01 3.035610e-01 5.166903e-01 1.165473e+00 1.321902e+00 3.403901e-01 1.128026e+00 4.127617e-01 2.977103e-01 5.286537e-01 -9.679905e-01
<VARIANCE> 25
 2.109605e+01 2.679926e+01 2.198439e+01 1.720557e+01 2.303709e+01 3.241634e+01 3.279620e+01 3.375113e+01 2.999427e+01 2.302308e+01 2.021526e+01 1.394340e+01 1.584885e+00 1.820956e+00 1.695965e+00 1.891411e+00 2.719864e+00 3.201354e+00 3.544113e+00 3.163974e+00 3.042513e+00 2.476098e+00 2.152194e+00 1.598847e+00 1.105696e+00
<GCONST> 9.418634e+01
<STATE> 3
<MEAN> 25
 -3.946208e+00 -5.366751e+00 -1.185632e+00 1.973226e+00 1.699341e+00 3.530210e+00 5.139290e+00 8.062079e-01 3.619672e+00 3.785835e+00 2.205527e+00 2.479258e+00 -1.081605e-01 1.309958e-01 -2.266266e-01 -2.054881e-01 -1.659874e-01 -3.956990e-01 -7.792735e-02 4.046194e-01 -5.985750e-02 -3.064762e-02 -1.382722e-01 6.153270e-02 6.092155e-01
<VARIANCE> 25
 8.184299e+00 9.797791e+00 1.504560e+01 1.894549e+01 1.942901e+01 3.002951e+01 2.413757e+01 2.682370e+01 2.214659e+01 2.036711e+01 1.707772e+01 1.436205e+01 1.111323e+00 1.262708e+00 1.477883e+00 1.732338e+00 2.187500e+00 3.228302e+00 2.448901e+00 3.315813e+00 2.479814e+00 2.279700e+00 1.546054e+00 1.501560e+00 3.022369e+00
<GCONST> 8.944836e+01
<STATE> 4
<MEAN> 25
 -2.036536e+00 -3.199029e+00 -3.607390e+00 -3.493367e-01 1.790315e+00 -2.183556e+00 1.788547e+00 4.839120e+00 7.682396e-01 1.220120e+00 -1.047688e+00 2.285048e+00 9.692660e-01 5.457004e-01 3.272267e-01 1.683902e-01 6.076614e-02 -2.837327e-01 -5.295721e-01 -3.323525e-03 -4.139027e-01 -6.272366e-01 -3.855996e-01 -3.257131e-01 4.749304e-01
<VARIANCE> 25
 2.770892e+01 2.381306e+01 4.357695e+01 4.116493e+01 4.065679e+01 4.699733e+01 4.388137e+01 5.588727e+01 4.189800e+01 3.751127e+01 2.609349e+01 2.715946e+01 3.590123e+00 2.059637e+00 4.503064e+00 3.920835e+00 3.601774e+00 4.031382e+00 4.134400e+00 5.639128e+00 3.842107e+00 3.922712e+00 2.589341e+00 2.273685e+00 3.095904e+00
<GCONST> 1.055265e+02
<TRANSP> 5
 0.000000e+00 1.000000e+00 0.000000e+00 0.000000e+00 0.000000e+00
 0.000000e+00 7.508879e-01 2.491121e-01 0.000000e+00 0.000000e+00
 0.000000e+00 0.000000e+00 8.231683e-01 1.768317e-01 0.000000e+00
 0.000000e+00 0.000000e+00 0.000000e+00 7.327354e-01 2.672646e-01
 0.000000e+00 0.000000e+00 0.000000e+00 0.000000e+00 0.000000e+00
<ENDHMM>
~h "l"
<BEGINHMM>
<NUMSTATES> 5
<STATE> 2
<MEAN> 25
 4.707952e+00 2.592463e+00 -2.848118e+00 -4.198416e+00 -1.372815e+00 -1.501459e+00 -2.074603e+00 3.232271e-01 1.891294e-01 2.799346e+00 -2.040807e+00 -5.960084e-01 8.868762e-01 5.871491e-01 -4.744385e-01 -1.211756e+00 4.816961e-02 3.834247e-01 -3.155842e-01 -4.729804e-01 -3.580958e-01 4.447328e-01 -3.212103e-01 1.994381e-01 2.102317e-01
<VARIANCE> 25
 2.094055e+01 1.843218e+01 2.285083e+01 4.772992e+01 2.606074e+01 3.387732e+01 4.318193e+01 4.166351e+01 3.307388e+01 2.425831e+01 2.910732e+01 2.373145e+01 1.964861e+00 1.287824e+00 1.412944e+00 3.072344e+00 2.537176e+00 2.766500e+00 2.754590e+00 2.311517e+00 3.342919e+00 1.944290e+00 2.509941e+00 1.738404e+00 1.057809e+00
<GCONST> 9.599824e+01
<STATE> 3
<MEAN> 25
 7.985029e+00 5.404343e+00 -5.330420e+00 -1.109054e+01 -3.235709e+00 2.095038e+00 -2.776888e+00 5.118668e-02 -4.756897e+00 4.107825e+00 -2.399644e+00 8.140656e-01 -4.237527e-02 1.283144e-01 1.563154e-01 2.026251e-02 -3.625372e-02 -7.311093e-02 -4.435349e-02 -1.060686e-01 -4.150884e-02 1.985575e-01 6.720463e-03 6.112569e-02 -1.531820e-01
<VARIANCE> 25
 4.232408e+00 9.230884e+00 1.627767e+01 2.517387e+01 2.019302e+01 2.126771e+01 2.809873e+01 1.917940e+01 2.459036e+01 2.718081e+01 2.305829e+01 1.525439e+01 1.163677e-01 2.636722e-01 3.895496e-01 7.885180e-01 6.907826e-01 7.285443e-01 8.928447e-01 8.815688e-01 8.270878e-01 8.699645e-01 7.687432e-01 7.678434e-01 1.335565e-01
<GCONST> 7.188772e+01
<STATE> 4
<MEAN> 25
 5.467481e+00 3.105888e+00 -3.310374e+00 -6.026497e+00 -9.879779e-01 6.835529e-01 -2.098338e+00 -1.338673e+00 -1.050408e+00 5.219760e+00 -2.198660e+00 -5.295064e-01 -8.105733e-01 -6.840633e-01 4.040301e-01 1.442629e+00 6.449140e-01 -7.546076e-02 3.998604e-01 -7.735014e-02 8.460352e-01 -5.320637e-01 2.302329e-01 -1.084421e-01 -4.633256e-01
<VARIANCE> 25
 1.328670e+01 1.761704e+01 1.877806e+01 3.716035e+01 1.944669e+01 2.750191e+01 4.431544e+01 2.976251e+01 3.308921e+01 2.329755e+01 2.981528e+01 1.545662e+01 6.403874e-01 7.528663e-01 1.116209e+00 1.910224e+00 1.664987e+00 2.382702e+00 2.589036e+00 2.580673e+00 1.863646e+00 2.322269e+00 2.030723e+00 1.251620e+00 7.339358e-01
<GCONST> 8.959119e+01
<TRANSP> 5
 0.000000e+00 1.000000e+00 0.000000e+00 0.000000e+00 0.000000e+00
 0.000000e+00 7.354242e-01 2.645758e-01 0.000000e+00 0.000000e+00
 0.000000e+00 0.000000e+00 8.828534e-01 1.171466e-01 0.000000e+00
 0.000000e+00 0.000000e+00 0.000000e+00 7.213630e-01 2.786370e-01
 0.000000e+00 0.000000e+00 0.000000e+00 0.000000e+00 0.000000e+00
<ENDHMM>
~h "m"
<BEGINHMM>
<NUMSTATES> 5
<STATE> 2
<MEAN> 25
 4.498055e+00 -6.865343e-01 1.588243e+00 9.512300e-01 -1.200744e+00 7.281448e-02 -5.688682e-01 -1.033503e+00 -2.444175e+00 -1.352899e+00 -5.209176e-01 -1.516503e+00 1.924078e-01 3.119205e-01 4.697559e-01 1.154161e+00 1.610456e-01 -7.296911e-02 -4.802221e-02 -1.241187e+00 -5.178839e-01 -3.869030e-01 1.686088e-01 4.250241e-02 -4.454441e-01
<VARIANCE> 25
 1.730468e+01 1.311282e+01 2.653652e+01 2.358826e+01 1.768682e+01 2.058134e+01 2.220746e+01 2.709523e+01 2.728306e+01 1.886002e+01 2.026789e+01 1.717502e+01 1.189940e+00 1.001783e+00 1.476840e+00 1.546008e+00 1.583382e+00 1.780540e+00 1.651122e+00 2.205894e+00 3.038661e+00 1.892273e+00 2.006619e+00 1.308653e+00 9.350119e-01
<GCONST> 8.818134e+01
<STATE> 3
<MEAN> 25
 5.301888e+00 2.328170e+00 3.445552e+00 4.525851e+00 -1.576965e+00 -3.368721e-01 -1.532778e+00 -6.192313e+00 -5.603653e+00 -2.434004e+00 -2.380779e-02 -1.623806e+00 -6.537661e-04 1.833831e-01 1.039844e-01 2.335093e-01 -1.758129e-02 -6.084858e-02 -3.048771e-02 -2.019278e-01 -2.516352e-01 -8.024658e-02 1.411172e-01 -8.162107e-02 -4.631566e-02
<VARIANCE> 25
 2.506633e+00 6.627501e+00 7.400391e+00 1.313400e+01 1.351878e+01 1.221031e+01 1.030185e+01 1.251654e+01 1.186752e+01 1.033650e+01 1.117674e+01 1.127857e+01 1.860429e-01 1.815719e-01 3.998940e-01 5.940239e-01 5.361943e-01 6.267862e-01 7.715901e-01 8.036291e-01 9.985585e-01 7.935110e-01 7.675368e-01 7.053430e-01 1.281279e-01
<GCONST> 6.365110e+01
<STATE> 4
<MEAN> 25
 2.565268e+00 2.438799e-01 4.100979e+00 6.393749e+00 1.614186e+00 1.075200e+00 1.808462e-02 -5.547685e+00 -4.151978e+00 -2.664182e+00 -5.398481e-01 -1.587411e+00 -3.135204e-01 -2.011634e-01 -1.906163e-01 -1.887297e-01 2.675711e-01 3.117833e-01 2.803712e-01 3.210812e-01 4.351137e-01 1.319057e-01 -3.420995e-02 1.041956e-01 -1.425529e-01
<VARIANCE> 25
 7.940132e+00 1.022015e+01 5.764803e+00 8.464735e+00 1.670206e+01 1.898939e+01 1.334761e+01 1.773602e+01 1.447473e+01 1.195878e+01 1.007805e+01 1.223882e+01 5.061738e-01 3.813528e-01 6.524841e-01 6.375812e-01 8.822008e-01 1.111082e+00 9.228405e-01 1.270187e+00 1.310999e+00 1.060671e+00 9.184645e-01 9.027370e-01 3.190511e-01
<GCONST> 7.204292e+01
<TRANSP> 5
 0.000000e+00 1.000000e+00 0.000000e+00 0.000000e+00 0.000000e+00
 0.000000e+00 7.409351e-01 2.590649e-01 0.000000e+00 0.000000e+00
 0.000000e+00 0.000000e+00 8.356487e-01 1.643513e-01 0.000000e+00
 0.000000e+00 0.000000e+00 0.000000e+00 7.751877e-01 2.248122e-01
 0.000000e+00 0.000000e+00 0.000000e+00 0.000000e+00 0.000000e+00
<ENDHMM>
~h "n"
<BEGINHMM>
<NUMSTATES> 5
<STATE> 2
<MEAN> 25
 3.934351e+00 1.040232e+00 3.362586e+00 -5.299948e-01 -2.006078e+00 -3.185201e-01 -3.296690e-01 1.344646e+00 -3.579625e+00 -1.491818e+00 -3.323159e+00 -9.873846e-01 1.958677e-01 2.088571e-01 1.683007e-01 8.909220e-01 2.169262e-01 4.170845e-01 2.621645e-02 -1.587918e+00 8.354337e-02 -2.947063e-01 4.284402e-01 4.207347e-02 -7.285741e-01
<VARIANCE> 25
 6.020990e+00 1.232368e+01 2.085549e+01 2.132333e+01 2.110062e+01 2.125832e+01 2.328263e+01 5.209559e+01 1.841698e+01 1.802790e+01 2.868731e+01 1.708312e+01 5.325993e-01 6.363482e-01 8.544381e-01 1.274370e+00 1.253114e+00 1.530130e+00 1.512496e+00 2.882912e+00 1.648515e+00 1.669708e+00 2.086932e+00 1.086472e+00 5.904586e-01
<GCONST> 8.398868e+01
<STATE> 3
<MEAN> 25
 4.945400e+00 2.150341e+00 3.045606e+00 3.306396e+00 -1.155059e+00 1.370398e+00 -1.876832e+00 -6.247140e+00 -2.780294e+00 -2.925465e+00 -1.517986e+00 -8.597000e-01 -3.717593e-02 4.910779e-02 1.123231e-01 9.577505e-02 1.290957e-01 5.957750e-02 -4.817187e-02 -2.588691e-01 -6.429633e-02 1.877279e-02 -5.768473e-02 5.484670e-03 -2.343565e-01
<VARIANCE> 25
 2.541324e+00 4.606380e+00 8.663414e+00 8.817430e+00 1.214763e+01 1.198174e+01 1.022142e+01 1.450668e+01 1.111216e+01 1.139978e+01 1.203937e+01 1.055965e+01 1.445470e-01 2.384144e-01 3.730959e-01 4.735693e-01 6.288550e-01 7.059351e-01 7.722691e-01 9.719838e-01 9.079772e-01 8.418428e-01 8.160460e-01 7.661269e-01 9.759841e-02
<GCONST> 6.314388e+01
<STATE> 4
<MEAN> 25
 1.752176e+00 7.274431e-01 3.730489e+00 3.635614e+00 2.398998e+00 2.478367e+00 2.305681e-01 -5.455729e+00 -1.377170e+00 -1.720933e+00 -2.401781e+00 -6.605285e-01 -7.084885e-01 -3.521952e-01 -2.223596e-01 -6.648438e-02 6.374133e-01 1.722851e-01 5.600915e-01 5.148789e-01 3.973458e-01 2.871518e-01 -4.981009e-03 6.631611e-02 -2.387480e-01
<VARIANCE> 25
 1.045859e+01 8.823374e+00 8.262767e+00 1.217656e+01 1.758343e+01 1.882640e+01 1.881505e+01 1.790163e+01 1.685058e+01 1.444377e+01 1.313098e+01 1.129964e+01 7.657850e-01 6.629323e-01 6.970676e-01 9.924265e-01 1.496888e+00 1.838712e+00 1.628243e+00 1.693645e+00 1.458447e+00 1.464914e+00 1.583065e+00 1.251763e+00 4.809546e-01
<GCONST> 7.889075e+01
<TRANSP> 5
 0.000000e+00 1.000000e+00 0.000000e+00 0.000000e+00 0.000000e+00
 0.000000e+00 7.548328e-01 2.451672e-01 0.000000e+00 0.000000e+00
 0.000000e+00 0.000000e+00 8.726016e-01 1.273985e-01 0.000000e+00
 0.000000e+00 0.000000e+00 0.000000e+00 7.388658e-01 2.611341e-01
 0.000000e+00 0.000000e+00 0.000000e+00 0.000000e+00 0.000000e+00
<ENDHMM>
~h "p"
<BEGINHMM>
<NUMSTATES> 5
<STATE> 2
<MEAN> 25
 1.020115e+00 -1.440324e+00 1.653029e+00 2.123914e+00 9.186647e-01 -2.312495e-01 5.798732e-01 -3.306162e+00 -1.588798e-02 5.765100e-01 4.891316e-01 3.772066e-01 -1.294388e+00 -1.383586e+00 -3.103613e-01 2.496546e-01 8.041211e-01 1.222787e+00 1.371063e+00 -3.288207e-01 1.096923e+00 8.899865e-02 5.776089e-01 9.381382e-01 -1.470450e+00
<VARIANCE> 25
 1.933910e+01 1.292498e+01 2.630358e+01 1.681942e+01 3.130798e+01 3.821743e+01 3.268714e+01 2.880297e+01 2.926990e+01 2.242253e+01 1.893741e+01 1.796621e+01 1.215337e+00 8.909389e-01 1.918246e+00 2.277180e+00 3.079935e+00 2.666032e+00 2.985764e+00 3.831662e+00 2.404119e+00 2.579811e+00 1.952748e+00 1.604383e+00 7.066488e-01
<GCONST> 9.252755e+01
<STATE> 3
<MEAN> 25
 -3.777895e+00 -5.438539e+00 -6.745224e-01 1.569966e+00 2.807213e+00 4.439964e+00 5.170178e+00 -1.198524e+00 3.880129e+00 3.429347e+00 2.140949e+00 2.441697e+00 -1.779204e-01 -1.589867e-01 -8.813697e-02 4.582236e-02 9.370665e-02 3.294947e-01 1.647522e-01 1.679779e-01 1.034380e-01 1.529356e-01 -9.137197e-03 9.583577e-03 -1.596507e-01
<VARIANCE> 25
 5.515909e+00 5.946764e+00 9.838197e+00 1.306341e+01 1.574467e+01 2.281032e+01 2.921377e+01 1.849594e+01 1.683655e+01 1.854950e+01 1.871019e+01 1.475097e+01 2.711735e-01 4.129634e-01 5.196937e-01 6.942741e-01 9.236771e-01 1.125385e+00 1.363261e+00 1.402524e+00 1.573500e+00 1.525753e+00 1.341569e+00 1.136977e+00 2.427702e-01
<GCONST> 7.519421e+01
<STATE> 4
<MEAN> 25
 -2.857257e+00 -4.012404e+00 -1.818174e+00 2.292979e+00 3.161643e+00 3.190309e+00 4.378809e+00 -3.585879e-01 3.844877e+00 1.833985e+00 8.875749e-01 1.942489e+00 1.626574e+00 1.059415e+00 -4.383158e-01 -1.630594e-01 -5.896159e-01 -1.310818e+00 -1.054108e+00 3.355941e-01 -3.460282e-01 -7.592686e-01 -5.089787e-01 -4.560068e-01 1.980324e+00
<VARIANCE> 25
 1.559510e+01 1.189219e+01 1.368916e+01 1.775133e+01 1.331975e+01 2.776102e+01 2.652858e+01 1.970684e+01 1.795583e+01 1.633422e+01 2.031577e+01 1.394070e+01 4.005301e+00 1.690903e+00 2.303510e+00 2.883844e+00 2.063101e+00 3.640050e+00 4.770497e+00 3.019790e+00 2.707891e+00 2.198952e+00 2.468363e+00 2.015605e+00 2.289215e+00
<GCONST> 9.286941e+01
<TRANSP> 5
 0.000000e+00 1.000000e+00 0.000000e+00 0.000000e+00 0.000000e+00
 0.000000e+00 6.856560e-01 3.143440e-01 0.000000e+00 0.000000e+00
 0.000000e+00 0.000000e+00 8.696493e-01 1.303507e-01 0.000000e+00
 0.000000e+00 0.000000e+00 0.000000e+00 6.904828e-01 3.095172e-01
 0.000000e+00 0.000000e+00 0.000000e+00 0.000000e+00 0.000000e+00
<ENDHMM>
~h "r"
<BEGINHMM>
<NUMSTATES> 5
<STATE> 2
<MEAN> 25
 7.022861e+00 -2.212104e+00 -2.179718e+00 2.298085e+00 -2.967183e+00 -5.152609e+00 -6.317463e+00 2.329026e+00 1.189512e+00 1.362673e-01 -9.118289e-02 1.138349e+00 1.434343e+00 -1.779471e-01 -2.169798e-01 4.207252e-01 -3.599606e-01 -1.435761e+00 -1.259447e+00 6.034974e-01 3.707240e-01 -5.211052e-01 -4.267415e-01 3.905825e-01 2.946374e-01
<VARIANCE> 25
 2.768824e+01 1.472557e+01 6.223389e+01 2.116387e+01 3.494247e+01 3.001359e+01 3.910273e+01 6.114362e+01 3.149929e+01 2.470083e+01 2.460824e+01 1.413348e+01 3.185014e+00 1.422064e+00 2.338666e+00 1.776808e+00 1.816435e+00 2.753869e+00 3.191370e+00 3.165522e+00 2.499141e+00 2.108967e+00 1.755172e+00 1.430639e+00 7.192880e-01
<GCONST> 9.549490e+01
<STATE> 3
<MEAN> 25
 1.047137e+01 -3.193562e+00 -3.330947e+00 3.155405e+00 -3.142534e+00 -9.586022e+00 -7.993094e+00 7.295274e+00 2.996067e+00 -2.428878e+00 -2.166931e+00 2.805980e+00 1.072884e-06 -6.689531e-02 4.296546e-01 1.891001e-01 -2.465696e-01 -5.239959e-01 2.536381e-01 6.049277e-02 1.401393e-02 -3.335102e-01 9.498659e-02 2.582903e-01 -1.345423e-01
<VARIANCE> 25
 5.628983e+00 8.789426e+00 3.320309e+01 1.489240e+01 1.659246e+01 2.217313e+01 2.560643e+01 4.030087e+01 1.399951e+01 1.660471e+01 1.549979e+01 9.679594e+00 3.244018e-01 3.835173e-01 1.257072e+00 7.409042e-01 1.154377e+00 9.995521e-01 1.229593e+00 1.999737e+00 1.265805e+00 9.523000e-01 1.018680e+00 6.911608e-01 1.639968e-01
<GCONST> 7.627412e+01
<STATE> 4
<MEAN> 25
 6.159225e+00 -3.169314e+00 5.908501e-01 3.394015e+00 -3.331914e+00 -7.402076e+00 -3.631487e+00 3.338573e+00 2.189576e+00 -1.369453e+00 -9.625338e-02 2.811059e+00 -7.950173e-01 1.194667e-01 4.335489e-01 -1.662351e-01 2.832295e-01 1.111725e+00 8.736855e-01 -8.179206e-01 -3.599011e-01 2.989585e-01 3.702621e-01 -2.469662e-01 -5.536492e-01
<VARIANCE> 25
 2.041086e+01 1.151596e+01 2.682288e+01 1.788539e+01 2.287341e+01 3.396302e+01 3.140600e+01 4.027359e+01 2.238384e+01 2.205974e+01 1.885752e+01 1.231827e+01 9.649482e-01 6.714470e-01 1.283693e+00 1.271247e+00 1.927044e+00 1.677499e+00 2.160845e+00 2.434787e+00 1.864710e+00 1.390794e+00 1.334187e+00 1.298964e+00 5.630780e-01
<GCONST> 8.684592e+01
<TRANSP> 5
 0.000000e+00 1.000000e+00 0.000000e+00 0.000000e+00 0.000000e+00
 0.000000e+00 6.392660e-01 3.607340e-01 0.000000e+00 0.000000e+00
 0.000000e+00 0.000000e+00 8.136767e-01 1.863233e-01 0.000000e+00
 0.000000e+00 0.000000e+00 0.000000e+00 7.480916e-01 2.519084e-01
 0.000000e+00 0.000000e+00 0.000000e+00 0.000000e+00 0.000000e+00
<ENDHMM>
~h "s"
<BEGINHMM>
<NUMSTATES> 5
<STATE> 2
<MEAN> 25
 -6.903924e+00 5.746460e+00 -2.420422e+00 3.771431e+00 4.727801e+00 -2.822143e+00 4.456509e+00 -2.328635e+00 3.244235e+00 1.309921e+00 -3.895600e-01 2.090658e+00 -3.287853e+00 1.246500e+00 -1.794638e+00 2.514088e-01 1.840759e+00 -1.894798e-02 1.806521e+00 5.294088e-02 8.501102e-01 -7.166211e-03 2.737314e-01 4.801597e-01 6.673909e-01
<VARIANCE> 25
 5.031971e+01 2.829010e+01 2.819506e+01 2.218017e+01 3.591362e+01 3.530182e+01 4.800586e+01 3.313310e+01 3.067715e+01 2.389845e+01 1.989046e+01 1.582305e+01 2.702553e+00 2.360328e+00 2.068512e+00 2.385649e+00 3.669532e+00 3.699748e+00 4.372276e+00 3.343441e+00 3.118780e+00 2.629436e+00 2.452030e+00 1.945979e+00 8.350801e-01
<GCONST> 9.873869e+01
<STATE> 3
<MEAN> 25
 -1.826375e+01 8.770844e+00 -1.007425e+01 3.003885e+00 7.969714e+00 -2.840397e+00 7.698226e+00 -1.758350e+00 4.385119e+00 1.344551e+00 6.157187e-01 3.034107e+00 -5.832858e-02 -1.283704e-01 -6.973100e-02 -1.525631e-01 -2.899428e-02 -3.139569e-02 -8.184750e-02 -2.071756e-03 -2.408304e-02 -1.398998e-02 6.633994e-03 -3.378177e-03 -1.006201e-01
<VARIANCE> 25
 6.476160e+00 8.433975e+00 9.749233e+00 1.530463e+01 1.798011e+01 2.125036e+01 1.807543e+01 2.346938e+01 1.850271e+01 1.822239e+01 1.450379e+01 1.396109e+01 1.069619e+00 7.104818e-01 1.114307e+00 1.094111e+00 1.181705e+00 1.518308e+00 1.427109e+00 1.763493e+00 1.567801e+00 1.515472e+00 1.485073e+00 1.372224e+00 3.282585e-01
<GCONST> 7.997432e+01
<STATE> 4
<MEAN> 25
 -9.898949e+00 2.965547e+00 -4.741884e+00 7.297232e-01 5.808705e+00 -1.941035e+00 5.971564e+00 -1.778878e+00 5.149612e+00 1.576915e+00 5.842573e-01 2.779394e+00 2.752095e+00 -1.315677e+00 1.328752e+00 -4.710082e-01 -1.046523e+00 3.611310e-01 -8.708844e-01 -3.365000e-01 -7.114908e-02 -1.950310e-02 -2.831860e-01 -3.754672e-01 -7.681226e-01
<VARIANCE> 25
 3.008205e+01 2.056345e+01 2.167010e+01 2.417960e+01 2.309696e+01 3.724001e+01 3.016072e+01 2.505907e+01 2.074767e+01 2.195745e+01 1.983045e+01 1.468343e+01 3.647348e+00 1.855629e+00 2.042370e+00 2.125909e+00 2.470741e+00 3.583527e+00 3.091124e+00 3.014856e+00 2.205792e+00 2.292917e+00 2.573515e+00 1.812343e+00 1.497302e+00
<GCONST> 9.517410e+01
<TRANSP> 5
 0.000000e+00 1.000000e+00 0.000000e+00 0.000000e+00 0.000000e+00
 0.000000e+00 7.844697e-01 2.155304e-01 0.000000e+00 0.000000e+00
 0.000000e+00 0.000000e+00 8.998515e-01 1.001485e-01 0.000000e+00
 0.000000e+00 0.000000e+00 0.000000e+00 7.535322e-01 2.464679e-01
 0.000000e+00 0.000000e+00 0.000000e+00 0.000000e+00 0.000000e+00
<ENDHMM>
~h "t"
<BEGINHMM>
<NUMSTATES> 5
<STATE> 2
<MEAN> 25
 -2.214587e-02 -2.056691e+00 6.354758e-01 2.331258e+00 1.966342e+00 2.267106e+00 3.345939e+00 -1.154246e+00 2.059747e+00 1.434908e+00 -1.087156e+00 5.704777e-01 -9.109693e-01 -1.222555e+00 -3.051355e-01 2.738993e-01 9.566104e-01 1.644949e+00 1.564349e+00 2.791227e-01 1.072224e+00 4.866146e-01 7.426131e-01 5.381796e-01 -1.219884e+00
<VARIANCE> 25
 1.698416e+01 1.696225e+01 2.094080e+01 1.695448e+01 2.752750e+01 3.286421e+01 3.755614e+01 3.545512e+01 2.579866e+01 2.105819e+01 2.501801e+01 1.835122e+01 9.016030e-01 1.270433e+00 1.563044e+00 2.117826e+00 2.649583e+00 2.847191e+00 2.754893e+00 3.445317e+00 2.180961e+00 2.411480e+00 2.452970e+00 1.767081e+00 8.488393e-01
<GCONST> 9.247768e+01
<STATE> 3
<MEAN> 25
 -3.795326e+00 -5.515962e+00 -9.667163e-01 2.102458e+00 3.497226e+00 6.467187e+00 7.118150e+00 6.837737e-01 4.784930e+00 4.132744e+00 2.048791e+00 2.448990e+00 -1.897646e-01 -1.238046e-02 -4.939815e-02 -6.141403e-02 2.827902e-02 -4.381481e-02 -9.878714e-02 -4.003704e-02 -5.404939e-02 2.831278e-02 9.500119e-02 4.830617e-02 -4.419688e-02
<VARIANCE> 25
 5.567736e+00 6.975593e+00 1.131575e+01 1.530142e+01 1.470901e+01 2.016573e+01 2.447573e+01 2.161348e+01 1.788301e+01 1.763093e+01 1.629835e+01 1.325150e+01 4.199272e-01 7.230526e-01 7.930174e-01 1.107035e+00 1.188666e+00 1.975272e+00 1.649339e+00 1.671181e+00 1.623901e+00 1.597943e+00 1.252376e+00 1.246734e+00 5.359524e-01
<GCONST> 7.917328e+01
<STATE> 4
<MEAN> 25
 -6.859736e+00 -1.237303e+00 -3.199083e+00 -1.206635e+00 3.197911e+00 -4.613014e-01 4.467016e+00 8.954347e-01 3.662918e+00 1.189483e+00 1.342618e+00 2.923409e+00 5.415485e-01 1.161346e+00 1.027323e-01 -3.707346e-01 -8.116714e-01 -1.697478e+00 -1.099335e+00 3.423014e-02 -4.454056e-01 -8.671628e-01 -5.544564e-01 -1.862291e-01 1.514228e+00
<VARIANCE> 25
 2.508233e+01 2.251025e+01 2.544792e+01 3.417300e+01 2.395042e+01 4.591399e+01 3.173210e+01 2.809848e+01 2.469267e+01 2.258993e+01 1.707939e+01 1.693047e+01 4.909591e+00 2.618618e+00 4.058156e+00 5.714539e+00 2.992268e+00 4.775093e+00 4.458767e+00 3.785268e+00 3.007217e+00 2.562114e+00 2.227418e+00 2.097308e+00 3.586116e+00
<GCONST> 1.008814e+02
<TRANSP> 5
 0.000000e+00 1.000000e+00 0.000000e+00 0.000000e+00 0.000000e+00
 0.000000e+00 7.207509e-01 2.792492e-01 0.000000e+00 0.000000e+00
 0.000000e+00 0.000000e+00 8.484722e-01 1.515278e-01 0.000000e+00
 0.000000e+00 0.000000e+00 0.000000e+00 7.315060e-01 2.684940e-01
 0.000000e+00 0.000000e+00 0.000000e+00 0.000000e+00 0.000000e+00
<ENDHMM>
~h "v"
<BEGINHMM>
<NUMSTATES> 5
<STATE> 2
<MEAN> 25
 1.965085e+00 -2.235716e+00 -2.890000e+00 -1.445982e+00 1.894533e+00 8.210118e-01 1.830072e+00 -3.200583e-03 -3.573578e-01 1.884534e+00 -1.939392e+00 1.148366e-01 9.278271e-01 1.859426e-01 -1.292980e+00 -1.551070e+00 6.690012e-01 1.100320e+00 7.596552e-02 1.882394e-01 -6.011782e-01 -2.510047e-01 -7.592459e-01 -1.080620e-01 9.764960e-01
<VARIANCE> 25
 3.428448e+01 1.824153e+01 5.083609e+01 9.365663e+01 2.455663e+01 5.012392e+01 4.204845e+01 2.652945e+01 2.497528e+01 1.996297e+01 2.316586e+01 1.705209e+01 6.409878e+00 1.262342e+00 3.183538e+00 8.348023e+00 2.903700e+00 2.966633e+00 3.325869e+00 3.676210e+00 4.517421e+00 2.755107e+00 3.662469e+00 1.869383e+00 4.036611e+00
<GCONST> 1.030452e+02
<STATE> 3
<MEAN> 25
 7.614186e+00 1.432765e-01 -6.889862e+00 -7.413918e+00 1.606663e+00 3.548993e+00 2.702145e+00 1.671181e+00 -4.755440e+00 7.564522e-01 -4.349833e+00 -5.918128e-01 -3.086010e-01 4.464104e-01 -2.481496e-02 1.826120e-01 -1.929078e-01 5.492935e-01 4.512504e-01 -1.231235e-01 -8.967879e-02 -4.106051e-02 1.673806e-01 -4.933089e-02 -2.091553e-01
<VARIANCE> 25
 2.454634e+01 8.616167e+00 4.721938e+01 1.069302e+02 1.575509e+01 3.713530e+01 2.180733e+01 2.018018e+01 2.182612e+01 1.349996e+01 1.436537e+01 1.017033e+01 1.210382e+00 4.379959e-01 7.527254e-01 7.560214e-01 1.152138e+00 2.011960e+00 1.329726e+00 1.073302e+00 9.584083e-01 9.642132e-01 7.782779e-01 7.899224e-01 3.680851e-01
<GCONST> 8.139010e+01
<STATE> 4
<MEAN> 25
 -1.100645e-01 8.091288e-01 -5.502419e+00 1.303915e-01 -9.802504e-01 4.082819e+00 3.350709e+00 3.882560e-01 -2.034420e-01 1.764605e+00 -1.571988e+00 -6.663213e-02 -4.797887e-01 -2.189740e-01 1.915701e-01 4.043227e-01 9.197530e-02 1.341467e-02 1.271440e-02 -4.151612e-02 3.279410e-01 1.963923e-02 1.704138e-01 1.319387e-01 -3.101944e-01
<VARIANCE> 25
 5.117828e+01 1.313458e+01 2.333883e+01 7.385931e+01 1.714545e+01 2.447852e+01 2.327930e+01 1.963540e+01 3.455655e+01 1.576562e+01 1.777505e+01 1.276332e+01 2.235742e+00 8.170894e-01 1.462850e+00 2.529723e+00 1.492055e+00 2.233677e+00 1.977267e+00 1.894536e+00 2.307397e+00 1.534735e+00 1.443185e+00 1.167832e+00 3.244085e-01
<GCONST> 8.889528e+01
<TRANSP> 5
 0.000000e+00 1.000000e+00 0.000000e+00 0.000000e+00 0.000000e+00
 0.000000e+00 5.904918e-01 4.095082e-01 0.000000e+00 0.000000e+00
 0.000000e+00 0.000000e+00 7.743579e-01 2.256421e-01 0.000000e+00
 0.000000e+00 0.000000e+00 0.000000e+00 9.028065e-01 9.719348e-02
 0.000000e+00 0.000000e+00 0.000000e+00 0.000000e+00 0.000000e+00
<ENDHMM>
~h "w"
<BEGINHMM>
<NUMSTATES> 5
<STATE> 2
<MEAN> 25
 1.938353e-01 -1.628866e+00 6.645946e-01 2.539398e-01 -8.195827e-01 9.161054e-01 8.081253e-01 -3.440125e+00 3.752241e-01 1.573008e+00 9.789103e-01 1.100751e+00 1.282172e+00 9.135685e-01 -6.360392e-02 -6.522673e-01 -9.246293e-01 -4.982302e-01 -3.632974e-01 -2.480385e-01 -6.093986e-01 -5.999504e-01 -4.747077e-01 -1.152323e-01 3.583660e-01
<VARIANCE> 25
 2.279078e+01 1.820836e+01 1.626380e+01 2.058538e+01 3.197814e+01 3.562259e+01 3.843950e+01 1.904681e+01 2.551638e+01 2.343818e+01 1.848711e+01 1.615609e+01 3.556595e+00 2.659723e+00 1.248187e+00 2.416383e+00 4.730302e+00 4.209821e+00 3.253785e+00 2.082600e+00 3.171463e+00 2.853084e+00 2.007772e+00 1.760838e+00 1.493033e+00
<GCONST> 9.563782e+01
<STATE> 3
<MEAN> 25
 8.266645e+00 5.381032e+00 1.213458e+00 -3.257790e+00 -7.072768e+00 -1.827956e+00 -1.356859e+00 -3.977959e+00 -3.080002e+00 -1.820170e+00 -1.432512e+00 2.097475e-01 5.063989e-01 4.538246e-01 -1.959474e-01 -2.638466e-01 -3.542033e-01 9.017564e-02 1.246185e-01 1.794084e-01 -1.301116e-01 -9.792672e-02 8.705517e-02 1.841666e-01 2.723769e-01
<VARIANCE> 25
 5.078598e+00 5.525406e+00 9.912614e+00 1.269154e+01 1.725229e+01 1.446295e+01 1.152701e+01 1.495091e+01 1.812209e+01 1.319521e+01 9.762897e+00 1.063851e+01 6.442850e-01 4.928861e-01 9.381092e-01 1.179775e+00 9.842815e-01 1.027439e+00 9.594913e-01 1.109564e+00 1.290107e+00 9.751328e-01 9.077125e-01 9.501115e-01 2.353356e-01
<GCONST> 7.256810e+01
<STATE> 4
<MEAN> 25
 1.079766e+01 4.234110e+00 -5.059991e+00 -6.526498e+00 -6.166337e+00 1.673679e+00 -2.225296e-01 -6.222513e-01 -5.410298e+00 -8.992052e-01 1.630604e+00 1.458600e+00 1.156600e-01 -6.336730e-01 -1.128500e+00 -2.599478e-02 7.709980e-01 2.114999e-01 -5.376111e-01 8.887881e-01 -2.994820e-02 5.180547e-01 2.762496e-01 -4.722080e-01 6.277404e-01
<VARIANCE> 25
 3.920873e+00 1.084255e+01 1.606974e+01 2.329994e+01 2.444937e+01 2.033522e+01 2.279820e+01 2.635756e+01 1.636730e+01 1.773215e+01 1.815210e+01 1.642228e+01 2.293048e-01 4.725416e-01 1.000827e+00 1.453194e+00 1.381501e+00 2.408727e+00 2.217651e+00 1.695125e+00 1.874117e+00 1.442657e+00 1.893626e+00 1.977380e+00 1.487891e-01
<GCONST> 8.068600e+01
<TRANSP> 5
 0.000000e+00 1.000000e+00 0.000000e+00 0.000000e+00 0.000000e+00
 0.000000e+00 8.042786e-01 1.957214e-01 0.000000e+00 0.000000e+00
 0.000000e+00 0.000000e+00 8.435129e-01 1.564871e-01 0.000000e+00
 0.000000e+00 0.000000e+00 0.000000e+00 7.855843e-01 2.144157e-01
 0.000000e+00 0.000000e+00 0.000000e+00 0.000000e+00 0.000000e+00
<ENDHMM>
~h "y"
<BEGINHMM>
<NUMSTATES> 5
<STATE> 2
<MEAN> 25
 -4.385003e+00 7.731701e-01 2.580419e+00 6.323144e-01 2.863428e+00 3.173395e+00 1.233214e+00 -3.018667e+00 2.893013e-01 9.133371e-01 6.725146e-01 9.311567e-02 9.625357e-01 1.770726e+00 1.537782e+00 -4.775278e-01 -9.938000e-01 -8.648633e-01 -1.990287e+00 -5.546247e-01 -2.046661e+00 -1.368184e+00 -2.792683e-02 -1.767898e+00 9.589083e-01
<VARIANCE> 25
 1.927050e+01 2.267907e+01 1.654329e+01 3.158142e+01 1.783247e+01 2.550310e+01 2.787140e+01 2.646576e+01 3.763256e+01 2.562558e+01 1.590719e+01 2.199585e+01 2.538713e+00 2.657303e+00 1.707166e+00 3.675724e+00 2.482336e+00 2.802234e+00 4.157212e+00 3.054390e+00 4.701943e+00 2.838137e+00 2.208585e+00 3.598457e+00 1.351002e+00
<GCONST> 9.692926e+01
<STATE> 3
<MEAN> 25
 -1.203297e+00 7.303919e+00 6.523924e+00 5.578343e-01 -1.116684e-01 5.354651e-01 -3.583985e+00 -6.269629e+00 -3.882308e+00 -4.221069e+00 1.405691e+00 -5.671310e+00 5.359766e-01 6.771195e-01 6.914056e-01 -1.750499e-01 -1.111711e+00 -4.154704e-01 -6.554994e-01 6.040203e-02 -5.921160e-01 -3.453312e-01 6.736041e-01 -4.204859e-01 4.468324e-01
<VARIANCE> 25
 1.128358e+01 1.388531e+01 1.073109e+01 2.018605e+01 3.251781e+01 1.623012e+01 2.083703e+01 2.577795e+01 2.711101e+01 1.595052e+01 1.741893e+01 2.806343e+01 1.515427e+00 1.189838e+00 7.990404e-01 1.793371e+00 2.795550e+00 1.691128e+00 3.006179e+00 2.183214e+00 2.284993e+00 1.924392e+00 1.638502e+00 3.237586e+00 4.609333e-01
<GCONST> 8.795486e+01
<STATE> 4
<MEAN> 25
 1.880672e+00 7.597794e+00 7.878365e+00 3.632640e+00 -8.580993e+00 -3.178893e+00 -4.799090e+00 -2.981829e+00 -6.962027e+00 -4.099299e+00 5.454403e+00 -6.625871e+00 3.370237e-01 -3.535377e-01 -2.852586e-01 6.798953e-01 -4.094247e-01 -9.266522e-01 -5.190417e-02 7.242565e-01 2.794404e-02 -2.048577e-01 2.567772e-02 4.599782e-01 1.426159e-01
<VARIANCE> 25
 3.641667e+00 7.744239e+00 6.681794e+00 3.131426e+01 2.654701e+01 3.217328e+01 2.250113e+01 2.687874e+01 2.069522e+01 2.157526e+01 2.212958e+01 1.902311e+01 2.571128e-01 5.032185e-01 6.306364e-01 1.021453e+00 1.705852e+00 1.644961e+00 2.005586e+00 2.582094e+00 2.182476e+00 1.446583e+00 1.519850e+00 1.328090e+00 1.132550e-01
<GCONST> 7.979420e+01
<TRANSP> 5
 0.000000e+00 1.000000e+00 0.000000e+00 0.000000e+00 0.000000e+00
 0.000000e+00 6.366537e-01 3.633463e-01 0.000000e+00 0.000000e+00
 0.000000e+00 0.000000e+00 7.727003e-01 2.272997e-01 0.000000e+00
 0.000000e+00 0.000000e+00 0.000000e+00 8.870607e-01 1.129393e-01
 0.000000e+00 0.000000e+00 0.000000e+00 0.000000e+00 0.000000e+00
<ENDHMM>
~h "z"
<BEGINHMM>
<NUMSTATES> 5
<STATE> 2
<MEAN> 25
 -5.424519e+00 8.049087e+00 -9.892499e-01 2.895821e+00 3.104764e+00 -4.507419e+00 2.080907e+00 -3.187381e+00 1.414168e+00 9.579719e-02 -1.570853e+00 1.756432e+00 -3.484376e+00 8.648047e-01 -1.711025e+00 5.623716e-01 2.252827e+00 4.758478e-01 2.382491e+00 -6.508000e-03 1.437313e+00 -2.028022e-01 4.703253e-01 4.801707e-01 2.502486e-01
<VARIANCE> 25
 5.516504e+01 1.908970e+01 2.622212e+01 2.642783e+01 4.256585e+01 2.834994e+01 4.005527e+01 3.982985e+01 2.450789e+01 2.451605e+01 2.454857e+01 1.522249e+01 2.308446e+00 1.319338e+00 2.065469e+00 3.312066e+00 3.166133e+00 3.011720e+00 3.533144e+00 4.288312e+00 2.470030e+00 2.907788e+00 3.028288e+00 1.997965e+00 4.412252e-01
<GCONST> 9.720302e+01
<STATE> 3
<MEAN> 25
 -1.801189e+01 9.226272e+00 -9.628199e+00 1.943382e+00 8.023892e+00 -3.009643e+00 8.332663e+00 -1.898754e+00 4.605034e+00 1.254470e+00 9.962358e-01 2.872883e+00 -2.798046e-01 -1.855821e-01 -1.691630e-01 -8.299753e-02 6.025067e-02 -5.244443e-02 3.570602e-02 -6.692441e-02 -3.120967e-02 8.694927e-02 1.351079e-01 8.579273e-02 -2.872990e-01
<VARIANCE> 25
 5.838542e+00 7.052115e+00 1.354527e+01 1.662467e+01 1.642876e+01 1.960374e+01 2.032724e+01 2.436683e+01 2.060944e+01 1.713726e+01 1.429633e+01 1.468480e+01 1.192850e+00 6.272109e-01 1.462048e+00 1.073198e+00 1.239291e+00 1.346080e+00 1.443970e+00 1.967639e+00 1.751849e+00 1.519051e+00 1.410462e+00 1.518072e+00 2.100698e-01
<GCONST> 8.017153e+01
<STATE> 4
<MEAN> 25
 -9.377282e+00 1.759061e+00 -3.213390e+00 2.982320e+00 5.907043e+00 2.389998e-01 8.041986e+00 -2.895164e+00 5.641381e+00 2.364699e+00 2.143562e+00 2.722741e+00 1.546126e+00 -1.176322e+00 9.361753e-01 1.400130e-02 -4.825715e-01 6.676394e-01 -2.742735e-01 -1.705959e-01 -8.951481e-03 1.074715e-01 2.331967e-02 -2.331351e-01 -8.372485e-01
<VARIANCE> 25
 2.232429e+01 2.132830e+01 1.569024e+01 1.924086e+01 2.086218e+01 3.678707e+01 2.587289e+01 2.467222e+01 2.177995e+01 2.032154e+01 2.052965e+01 1.452299e+01 2.378888e+00 1.789957e+00 1.624133e+00 1.616815e+00 2.150042e+00 3.217684e+00 2.543695e+00 2.647197e+00 2.226605e+00 2.099831e+00 2.177511e+00 1.515560e+00 1.286756e+00
<GCONST> 9.195891e+01
<TRANSP> 5
 0.000000e+00 1.000000e+00 0.000000e+00 0.000000e+00 0.000000e+00
 0.000000e+00 7.862693e-01 2.137307e-01 0.000000e+00 0.000000e+00
 0.000000e+00 0.000000e+00 8.837559e-01 1.162441e-01 0.000000e+00
 0.000000e+00 0.000000e+00 0.000000e+00 8.571650e-01 1.428350e-01
 0.000000e+00 0.000000e+00 0.000000e+00 0.000000e+00 0.000000e+00
<ENDHMM>
~h "aa"
<BEGINHMM>
<NUMSTATES> 5
<STATE> 2
<MEAN> 25
 3.223586e+00 -1.130375e+00 -3.941519e+00 -4.283054e+00 1.229555e+00 8.627021e-01 4.101628e-01 1.489110e+00 -4.591158e-01 6.157175e-01 -1.880330e+00 -5.044455e-01 1.564365e+00 -4.251882e-01 -1.699311e+00 -2.029501e+00 4.044727e-01 4.556830e-01 -4.714046e-01 1.337112e+00 -7.298426e-01 -4.778794e-01 -1.366115e+00 -3.779551e-01 1.458268e+00
<VARIANCE> 25
 3.665416e+01 3.453633e+01 2.920611e+01 4.374737e+01 5.349529e+01 3.996717e+01 4.277379e+01 3.790794e+01 3.141890e+01 2.719119e+01 3.043580e+01 1.845086e+01 4.254464e+00 1.452861e+00 2.328402e+00 4.014880e+00 4.244285e+00 2.955623e+00 4.012488e+00 3.871813e+00 3.161266e+00 3.441696e+00 3.334972e+00 1.767649e+00 2.493785e+00
<GCONST> 1.027870e+02
<STATE> 3
<MEAN> 25
 8.897404e+00 6.413261e-02 -8.156290e+00 -9.143145e+00 5.792636e-02 2.451600e+00 9.945606e-01 5.675756e+00 -3.250621e+00 -5.317332e-01 -5.777936e+00 -4.969847e-01 6.447533e-01 -6.017776e-01 -9.006517e-01 -6.643298e-01 6.164995e-01 1.204343e+00 8.508735e-02 3.633923e-01 -9.151053e-01 1.597863e-01 -3.163465e-01 -7.573009e-03 3.522395e-01
<VARIANCE> 25
 1.008334e+01 2.234477e+01 1.287612e+01 2.487465e+01 4.259413e+01 2.758750e+01 3.690317e+01 2.636765e+01 2.455067e+01 2.364421e+01 2.558929e+01 1.596158e+01 8.336926e-01 6.187145e-01 9.385529e-01 9.679686e-01 1.814910e+00 1.472455e+00 1.453759e+00 1.589761e+00 1.342646e+00 1.681624e+00 1.383112e+00 1.221660e+00 5.317418e-01
<GCONST> 8.522944e+01
<STATE> 4
<MEAN> 25
 9.458200e+00 -1.773181e+00 -9.511426e+00 -8.658002e+00 2.199894e+00 4.375099e+00 -8.893185e-01 5.756042e+00 -5.355031e+00 9.238656e-01 -6.238686e+00 -1.666876e+00 -1.821324e-01 9.896196e-02 2.575946e-01 4.146259e-01 -2.583050e-02 -3.975253e-01 -3.463866e-01 -2.474988e-02 2.140288e-01 2.823739e-01 -9.853605e-02 -8.189260e-02 -8.696139e-02
<VARIANCE> 25
 5.474659e+00 1.457489e+01 1.097717e+01 2.620636e+01 2.595577e+01 2.446209e+01 3.193109e+01 2.014993e+01 1.810310e+01 3.680789e+01 2.261391e+01 1.356215e+01 1.818559e-01 4.248082e-01 6.039926e-01 8.046263e-01 8.261529e-01 1.012788e+00 9.741825e-01 1.234931e+00 9.900198e-01 1.009029e+00 9.903946e-01 8.449754e-01 1.928806e-01
<GCONST> 7.603564e+01
<TRANSP> 5
 0.000000e+00 1.000000e+00 0.000000e+00 0.000000e+00 0.000000e+00
 0.000000e+00 6.091203e-01 3.908797e-01 0.000000e+00 0.000000e+00
 0.000000e+00 0.000000e+00 5.769887e-01 4.230113e-01 0.000000e+00
 0.000000e+00 0.000000e+00 0.000000e+00 9.235623e-01 7.643759e-02
 0.000000e+00 0.000000e+00 0.000000e+00 0.000000e+00 0.000000e+00
<ENDHMM>
~h "ae"
<BEGINHMM>
<NUMSTATES> 5
<STATE> 2
<MEAN> 25
 3.648417e-01 -3.575886e+00 -1.040152e+00 2.611315e-02 9.403541e-01 -5.632399e-01 3.866455e+00 3.857074e+00 1.527130e+00 -2.813593e-02 -1.387104e+00 1.234926e+00 1.329158e+00 -7.185333e-01 -8.955442e-01 -1.250888e+00 -7.104671e-01 -1.465736e+00 1.018749e-01 2.617430e+00 -6.132600e-01 -8.770804e-01 -1.479729e+00 4.490957e-02 1.986122e+00
<VARIANCE> 25
 2.815530e+01 3.219259e+01 2.444928e+01 2.921262e+01 3.337178e+01 4.694829e+01 3.858174e+01 6.357216e+01 2.456217e+01 3.328091e+01 3.256712e+01 1.995300e+01 2.733372e+00 2.151992e+00 2.268248e+00 2.979873e+00 4.567602e+00 5.210092e+00 3.789202e+00 5.415111e+00 3.426113e+00 3.531369e+00 3.980951e+00 2.036034e+00 3.138841e+00
<GCONST> 1.032754e+02
<STATE> 3
<MEAN> 25
 5.827604e+00 -5.470635e+00 -2.570360e+00 -3.083081e+00 -6.424307e-01 -3.799541e+00 6.014633e+00 1.197525e+01 -2.230115e+00 -4.341383e+00 -7.544659e+00 1.463175e+00 6.908551e-01 -6.216999e-02 -8.411335e-02 -4.639113e-01 -2.238134e-02 -2.145620e-01 -3.962898e-02 7.887403e-01 -8.524432e-01 -2.077603e-01 -1.020027e+00 8.743659e-02 6.709083e-01
<VARIANCE> 25
 1.163804e+01 1.925734e+01 2.361181e+01 1.480306e+01 4.114031e+01 2.520489e+01 3.841455e+01 1.740551e+01 1.977314e+01 2.184723e+01 2.363130e+01 1.964071e+01 1.238632e+00 1.401193e+00 1.306221e+00 1.328176e+00 1.587029e+00 1.786867e+00 1.683195e+00 2.498833e+00 1.357596e+00 1.491915e+00 1.246792e+00 1.195888e+00 5.764296e-01
<GCONST> 8.700896e+01
<STATE> 4
<MEAN> 25
 6.553489e+00 -4.794263e+00 -3.109718e+00 -4.616594e+00 -9.898872e-01 -5.436255e+00 2.986505e+00 1.233423e+01 -4.077827e+00 -2.817932e+00 -1.016334e+01 6.116965e-01 -8.635996e-02 3.070342e-01 1.441222e-01 1.718448e-01 -1.509057e-01 -1.335088e-01 -2.746167e-01 -3.342233e-01 8.080805e-02 3.724281e-01 8.812444e-02 -4.700169e-02 -1.951042e-01
<VARIANCE> 25
 4.673396e+00 1.071424e+01 1.965594e+01 1.436936e+01 2.561307e+01 1.872026e+01 2.316167e+01 1.630145e+01 1.667802e+01 2.193105e+01 1.940757e+01 1.843838e+01 1.577107e-01 4.373991e-01 5.964476e-01 7.892364e-01 8.170270e-01 7.554187e-01 8.551236e-01 1.188784e+00 9.650577e-01 9.406244e-01 9.114459e-01 6.518579e-01 3.132103e-01
<GCONST> 7.372063e+01
<TRANSP> 5
 0.000000e+00 1.000000e+00 0.000000e+00 0.000000e+00 0.000000e+00
 0.000000e+00 6.845977e-01 3.154022e-01 0.000000e+00 0.000000e+00
 0.000000e+00 0.000000e+00 6.515448e-01 3.484552e-01 0.000000e+00
 0.000000e+00 0.000000e+00 0.000000e+00 9.301581e-01 6.984190e-02
 0.000000e+00 0.000000e+00 0.000000e+00 0.000000e+00 0.000000e+00
<ENDHMM>
~h "ah"
<BEGINHMM>
<NUMSTATES> 5
<STATE> 2
<MEAN> 25
 -9.004710e-01 -6.055134e-01 4.537387e-01 8.546628e-01 4.660124e-01 -5.388957e-01 5.412406e-01 -3.180404e-01 2.050302e+00 9.247494e-01 6.237204e-01 5.724516e-01 6.027085e-01 -3.455137e-01 -5.169117e-01 -6.654725e-01 -1.900556e-01 -4.118772e-01 -4.367586e-01 1.091399e+00 -6.904901e-02 -1.316569e-01 -6.228240e-01 -1.360342e-01 7.538016e-01
<VARIANCE> 25
 2.171867e+01 3.492722e+01 2.638624e+01 2.547945e+01 3.643171e+01 5.232298e+01 4.385119e+01 4.285305e+01 2.794595e+01 3.233652e+01 2.652156e+01 2.041967e+01 3.079512e+00 1.669821e+00 2.554971e+00 3.278718e+00 3.810878e+00 5.087504e+00 4.492183e+00 4.735451e+00 3.253348e+00 3.336030e+00 3.944915e+00 2.487502e+00 3.250177e+00
<GCONST> 1.029134e+02
<STATE> 3
<MEAN> 25
 4.267105e+00 -1.392959e+00 -1.944831e+00 -2.897431e+00 -1.412946e+00 -3.640603e+00 -2.731128e+00 6.101434e+00 1.262676e-01 -5.226926e-01 -4.274092e+00 -9.665875e-01 1.375708e+00 -1.482047e-01 -4.435086e-01 -6.062486e-01 -6.220912e-01 -3.691983e-01 -1.042418e+00 1.272037e+00 -6.059016e-01 -1.304198e-01 -9.786189e-01 -4.579582e-01 1.214378e+00
<VARIANCE> 25
 1.827096e+01 4.212970e+01 3.932651e+01 2.861240e+01 5.344061e+01 4.659334e+01 4.081538e+01 4.316751e+01 2.392913e+01 3.337402e+01 3.791355e+01 2.014012e+01 1.890866e+00 1.506264e+00 2.046897e+00 2.359865e+00 3.489811e+00 3.303783e+00 3.419713e+00 4.915921e+00 2.086864e+00 2.714263e+00 3.118042e+00 1.687875e+00 2.723890e+00
<GCONST> 1.005193e+02
<STATE> 4
<MEAN> 25
 5.302316e+00 -4.509822e-01 -2.678728e+00 -2.568254e+00 -2.521802e+00 -3.759421e+00 -4.882679e+00 6.771790e+00 -1.168636e+00 -3.239641e-01 -4.975347e+00 -2.051508e+00 -9.439121e-02 9.732534e-02 1.396059e-01 1.758763e-01 9.364005e-02 1.173929e-01 1.460897e-01 -3.756897e-01 9.991514e-03 1.784082e-01 5.205844e-02 5.889228e-02 -3.279768e-01
<VARIANCE> 25
 9.718896e+00 2.286109e+01 3.399040e+01 2.234005e+01 5.039724e+01 4.328844e+01 3.641635e+01 3.967458e+01 2.350622e+01 3.320945e+01 4.579529e+01 2.041224e+01 3.890674e-01 6.014214e-01 6.460595e-01 1.026016e+00 1.127439e+00 1.171150e+00 1.217128e+00 1.883242e+00 1.129089e+00 1.096962e+00 1.243251e+00 8.577788e-01 5.323205e-01
<GCONST> 8.533841e+01
<TRANSP> 5
 0.000000e+00 1.000000e+00 0.000000e+00 0.000000e+00 0.000000e+00
 0.000000e+00 6.026625e-01 3.973375e-01 0.000000e+00 0.000000e+00
 0.000000e+00 0.000000e+00 3.927978e-01 6.072022e-01 0.000000e+00
 0.000000e+00 0.000000e+00 0.000000e+00 8.847376e-01 1.152624e-01
 0.000000e+00 0.000000e+00 0.000000e+00 0.000000e+00 0.000000e+00
<ENDHMM>
~h "ao"
<BEGINHMM>
<NUMSTATES> 5
<STATE> 2
<MEAN> 25
 6.387000e+00 2.124935e+00 -3.497200e+00 -5.238398e+00 -1.848569e+00 -1.627176e-01 -1.783918e-01 1.699793e+00 -1.099842e+00 1.662210e+00 -2.089961e+00 2.732542e-01 1.591955e+00 5.058358e-01 -1.074037e+00 -1.691943e+00 -8.231760e-01 7.412565e-01 1.323075e-01 6.604706e-01 -8.464161e-01 6.454155e-02 -2.558102e-01 -6.309171e-02 6.827061e-01
<VARIANCE> 25
 2.415320e+01 2.531838e+01 2.591051e+01 4.622232e+01 3.480445e+01 3.967917e+01 4.293353e+01 2.603414e+01 3.124572e+01 2.833773e+01 3.068454e+01 1.854667e+01 3.139529e+00 1.590257e+00 1.994052e+00 3.662771e+00 2.823865e+00 3.238525e+00 2.205732e+00 2.207764e+00 3.151888e+00 2.578764e+00 2.219997e+00 1.659221e+00 1.486910e+00
<GCONST> 9.801923e+01
<STATE> 3
<MEAN> 25
 1.138215e+01 4.045537e+00 -7.224549e+00 -9.103833e+00 -7.293873e+00 2.852096e+00 2.241285e+00 2.988043e+00 -5.184321e+00 -2.072495e+00 1.540309e+00 1.876797e+00 9.564677e-02 -2.169611e-01 -4.753712e-01 -9.426016e-02 7.575496e-02 2.712145e-01 -1.237034e-01 2.453550e-01 -4.676925e-01 2.592894e-02 3.398387e-01 1.383819e-01 1.518241e-01
<VARIANCE> 25
 4.012453e+00 1.126601e+01 9.981124e+00 1.749410e+01 2.056116e+01 1.592284e+01 1.941644e+01 1.957041e+01 1.815987e+01 1.929571e+01 2.130710e+01 1.750076e+01 1.209636e-01 3.447805e-01 4.118304e-01 6.811375e-01 8.216894e-01 6.618922e-01 1.167759e+00 5.610140e-01 7.982668e-01 8.784661e-01 8.279732e-01 7.331463e-01 1.259342e-01
<GCONST> 7.002608e+01
<STATE> 4
<MEAN> 25
 9.764669e+00 1.866563e+00 -8.835363e+00 -1.029389e+01 -1.351363e+00 2.817293e+00 -1.580586e+00 4.048086e+00 -7.118739e+00 3.379699e+00 -1.676975e+00 5.064383e-02 -1.909679e-01 -1.318700e-01 1.596788e-01 5.226888e-01 2.344472e-01 -4.281246e-01 -4.986985e-01 -1.289361e-02 3.516016e-01 2.649528e-01 -3.763382e-02 -1.567468e-01 -8.113111e-02
<VARIANCE> 25
 5.234203e+00 1.890990e+01 1.329120e+01 4.253947e+01 2.477464e+01 2.397919e+01 3.302350e+01 1.874369e+01 2.046040e+01 2.088404e+01 3.977403e+01 2.009295e+01 1.653934e-01 4.837721e-01 4.875014e-01 9.667133e-01 8.523566e-01 8.387760e-01 1.132363e+00 9.044163e-01 1.222601e+00 8.995007e-01 7.081237e-01 7.336627e-01 1.532229e-01
<GCONST> 7.641025e+01
<TRANSP> 5
 0.000000e+00 1.000000e+00 0.000000e+00 0.000000e+00 0.000000e+00
 0.000000e+00 7.422215e-01 2.577785e-01 0.000000e+00 0.000000e+00
 0.000000e+00 0.000000e+00 8.484738e-01 1.515262e-01 0.000000e+00
 0.000000e+00 0.000000e+00 0.000000e+00 8.983174e-01 1.016826e-01
 0.000000e+00 0.000000e+00 0.000000e+00 0.000000e+00 0.000000e+00
<ENDHMM>
~h "aw"
<BEGINHMM>
<NUMSTATES> 5
<STATE> 2
<MEAN> 25
 3.599224e+00 -5.252336e+00 -6.223439e+00 -1.694132e+00 5.288444e+00 8.581822e-01 1.292354e+00 6.878471e+00 1.870982e+00 -1.585011e+00 -6.434017e+00 -3.659509e-01 1.728074e+00 -6.561555e-01 -1.401699e+00 -8.294724e-01 1.191092e+00 5.286123e-01 -4.114709e-01 1.110078e+00 -6.407585e-01 -9.431596e-01 -1.781531e+00 -3.446929e-01 1.332136e+00
<VARIANCE> 25
 2.840042e+01 4.668406e+01 3.305704e+01 2.250317e+01 6.094214e+01 3.033717e+01 3.787073e+01 3.939555e+01 2.642639e+01 3.604984e+01 3.821832e+01 2.470435e+01 2.519767e+00 1.565102e+00 1.918743e+00 2.177708e+00 2.932120e+00 2.650515e+00 2.328818e+00 3.720803e+00 2.147849e+00 4.381796e+00 3.680715e+00 1.396643e+00 1.794474e+00
<GCONST> 9.976395e+01
<STATE> 3
<MEAN> 25
 8.532949e+00 -5.608295e+00 -9.065870e+00 -4.781999e+00 8.918158e+00 1.500355e+00 -6.583428e-01 5.832129e+00 -2.325163e+00 -2.952906e+00 -1.057832e+01 -3.174918e-01 2.065742e-01 -1.192871e-01 -3.262260e-02 -6.993191e-01 5.023264e-01 6.233587e-01 -1.048282e-01 -2.828861e-01 -9.795855e-01 2.419676e-01 9.391329e-02 -6.770700e-02 1.652598e-01
<VARIANCE> 25
 3.294071e+00 1.636164e+01 1.143823e+01 1.956828e+01 2.879499e+01 1.856965e+01 1.748679e+01 1.971660e+01 1.689331e+01 1.524439e+01 2.178009e+01 1.569444e+01 4.033036e-01 7.105945e-01 5.426147e-01 8.340980e-01 1.341541e+00 1.147111e+00 1.143679e+00 9.819555e-01 8.682369e-01 1.012649e+00 1.178755e+00 8.074777e-01 2.393928e-01
<GCONST> 7.575180e+01
<STATE> 4
<MEAN> 25
 9.677026e+00 -2.368955e+00 -7.890112e+00 -7.445269e+00 3.567855e+00 4.171695e+00 -1.169666e+00 2.626875e+00 -4.363158e+00 -8.847238e-02 -3.849115e+00 -1.914076e+00 -8.581763e-02 3.601334e-01 2.794916e-01 2.798581e-01 -4.796833e-01 -3.107756e-01 -2.599455e-01 -2.552806e-01 2.016501e-01 2.390020e-01 3.890302e-01 -5.216606e-02 -2.276576e-01
<VARIANCE> 25
 2.829609e+00 1.749472e+01 7.198657e+00 1.441908e+01 3.049466e+01 2.319025e+01 2.505438e+01 1.719288e+01 1.620783e+01 2.456487e+01 2.078911e+01 1.549003e+01 1.817464e-01 2.965040e-01 3.526497e-01 7.902167e-01 9.828548e-01 8.327111e-01 1.098808e+00 8.785067e-01 9.178145e-01 8.548084e-01 9.126624e-01 7.636397e-01 1.091984e-01
<GCONST> 7.162715e+01
<TRANSP> 5
 0.000000e+00 1.000000e+00 0.000000e+00 0.000000e+00 0.000000e+00
 0.000000e+00 7.215626e-01 2.784375e-01 0.000000e+00 0.000000e+00
 0.000000e+00 0.000000e+00 8.152458e-01 1.847542e-01 0.000000e+00
 0.000000e+00 0.000000e+00 0.000000e+00 9.375392e-01 6.246086e-02
 0.000000e+00 0.000000e+00 0.000000e+00 0.000000e+00 0.000000e+00
<ENDHMM>
~h "ay"
<BEGINHMM>
<NUMSTATES> 5
<STATE> 2
<MEAN> 25
 7.425524e+00 -1.863627e+00 -7.975536e+00 -6.382861e+00 3.405813e+00 3.410650e+00 1.331537e+00 3.165229e+00 -1.198326e+00 -1.205610e+00 -5.579752e+00 -5.194362e-01 6.997571e-01 -9.811053e-01 -1.083304e+00 -7.075453e-01 1.290317e+00 7.543023e-01 -3.161651e-01 7.390748e-01 -6.266250e-01 -3.044229e-01 -9.933651e-01 -3.397412e-01 8.438408e-01
<VARIANCE> 25
 2.279675e+01 2.260796e+01 1.859226e+01 3.595555e+01 2.700653e+01 2.745441e+01 2.517799e+01 3.154327e+01 2.447310e+01 2.556967e+01 3.759655e+01 1.903331e+01 1.831680e+00 1.031826e+00 1.452491e+00 2.190216e+00 1.770722e+00 2.090326e+00 1.543314e+00 2.730221e+00 1.907091e+00 1.640077e+00 2.119803e+00 1.301664e+00 1.360369e+00
<GCONST> 9.199879e+01
<STATE> 3
<MEAN> 25
 8.819691e+00 -5.261046e+00 -9.188796e+00 -6.192589e+00 8.025318e+00 2.869004e+00 -8.532765e-01 6.169358e+00 -3.112546e+00 -2.652951e+00 -9.048032e+00 -1.435543e+00 -1.503693e-01 -2.160269e-01 3.467221e-01 3.092876e-01 -7.660240e-02 -5.513995e-01 -7.395070e-02 6.605341e-01 -1.197976e-02 -2.528897e-01 -3.380748e-01 1.374336e-02 8.093016e-02
<VARIANCE> 25
 4.758276e+00 1.104735e+01 1.029279e+01 1.972619e+01 1.952051e+01 2.203727e+01 2.291899e+01 2.031409e+01 1.571842e+01 2.260452e+01 1.854012e+01 1.825439e+01 1.251779e-01 3.115466e-01 4.197955e-01 5.588031e-01 1.063865e+00 1.079891e+00 6.617517e-01 1.039137e+00 8.259357e-01 7.541576e-01 7.817902e-01 6.697739e-01 7.536377e-02
<GCONST> 7.049152e+01
<STATE> 4
<MEAN> 25
 4.408513e+00 -1.262059e+00 2.682496e+00 -3.797882e+00 -3.208605e+00 -5.024975e+00 -1.459077e+00 7.420804e+00 -4.184274e+00 -4.881192e-01 -4.188074e+00 -1.396285e+00 -4.199804e-01 7.519839e-01 1.176614e+00 2.001299e-01 -9.933955e-01 -2.535251e-01 -3.241338e-01 -9.631097e-01 -1.562851e-01 5.793649e-01 1.039628e+00 -1.125992e-02 -3.977928e-01
<VARIANCE> 25
 7.206691e+00 1.817479e+01 3.165381e+01 1.484653e+01 2.896054e+01 1.659995e+01 2.920006e+01 4.738049e+01 1.415936e+01 2.923997e+01 3.257561e+01 1.455628e+01 2.095768e-01 4.894055e-01 1.269875e+00 8.116712e-01 1.861914e+00 1.249493e+00 1.663972e+00 2.154670e+00 1.002057e+00 1.561962e+00 1.345868e+00 8.764486e-01 1.564814e-01
<GCONST> 8.120238e+01
<TRANSP> 5
 0.000000e+00 1.000000e+00 0.000000e+00 0.000000e+00 0.000000e+00
 0.000000e+00 7.599854e-01 2.400146e-01 0.000000e+00 0.000000e+00
 0.000000e+00 0.000000e+00 9.029431e-01 9.705684e-02 0.000000e+00
 0.000000e+00 0.000000e+00 0.000000e+00 9.047751e-01 9.522488e-02
 0.000000e+00 0.000000e+00 0.000000e+00 0.000000e+00 0.000000e+00
<ENDHMM>
~h "ch"
<BEGINHMM>
<NUMSTATES> 5
<STATE> 2
<MEAN> 25
 -2.282759e+00 -2.581543e+00 1.274224e+00 2.774731e+00 4.252762e+00 3.268565e+00 3.453413e+00 1.064782e+00 2.834107e+00 2.060969e+00 -2.337895e-01 1.061882e+00 -1.221205e+00 -4.616686e-01 -7.320604e-01 -5.497715e-01 9.507475e-01 2.958669e-01 7.783470e-01 3.940384e-01 8.008355e-01 2.989267e-01 7.194043e-01 4.226267e-01 -6.031416e-02
<VARIANCE> 25
 9.353428e+00 2.059042e+01 1.553977e+01 2.049210e+01 2.771716e+01 3.222547e+01 2.505864e+01 2.974255e+01 2.746769e+01 2.374987e+01 1.663455e+01 1.631771e+01 1.655232e+00 1.763484e+00 1.147109e+00 3.962737e+00 2.983216e+00 5.202025e+00 3.128683e+00 3.754472e+00 2.990082e+00 2.454772e+00 1.806096e+00 2.274876e+00 1.935868e+00
<GCONST> 9.432188e+01
<STATE> 3
<MEAN> 25
 -1.466876e+01 -1.153173e+00 -7.937277e-01 -6.591945e+00 7.378481e+00 8.109818e-01 2.649127e+00 1.677502e+00 6.433406e+00 -1.149874e+00 4.485691e+00 2.278946e+00 -1.660624e+00 -3.699604e-04 4.666285e-01 -7.009640e-01 -5.511504e-01 1.750130e-01 -1.600824e-01 -4.436164e-01 8.227357e-01 -5.074994e-01 1.820537e-01 2.988757e-01 1.399027e+00
<VARIANCE> 25
 1.872112e+01 1.375630e+01 1.038088e+01 1.700108e+01 2.145456e+01 1.817925e+01 1.668405e+01 1.902168e+01 2.065117e+01 1.156166e+01 9.757000e+00 1.537415e+01 1.440830e+00 1.264130e+00 1.134149e+00 2.376528e+00 2.453974e+00 2.329186e+00 2.071445e+00 1.858381e+00 1.949165e+00 1.880802e+00 1.670485e+00 1.706344e+00 7.719411e-01
<GCONST> 8.565374e+01
<STATE> 4
<MEAN> 25
 -1.256809e+01 -3.736858e+00 4.910779e+00 -4.179319e+00 -6.483919e-01 1.806325e+00 2.813920e+00 -2.635926e+00 7.584594e+00 -1.284389e+00 2.705506e+00 3.600346e+00 2.148634e+00 6.276920e-02 9.253699e-01 6.693653e-01 -1.019089e+00 -4.179432e-01 -3.229513e-01 -1.231400e-02 -5.282646e-01 -2.242945e-01 -5.642263e-01 -2.257906e-01 -6.905135e-01
<VARIANCE> 25
 3.909216e+01 1.041924e+01 1.627817e+01 1.411589e+01 2.309315e+01 2.258112e+01 2.344395e+01 1.595812e+01 2.298297e+01 1.971605e+01 1.419776e+01 1.554340e+01 3.303849e+00 1.286492e+00 1.816436e+00 1.098191e+00 1.762969e+00 1.985236e+00 1.895082e+00 2.342925e+00 2.093853e+00 2.447931e+00 1.913679e+00 1.493075e+00 9.128703e-01
<GCONST> 8.856167e+01
<TRANSP> 5
 0.000000e+00 1.000000e+00 0.000000e+00 0.000000e+00 0.000000e+00
 0.000000e+00 8.357794e-01 1.642206e-01 0.000000e+00 0.000000e+00
 0.000000e+00 0.000000e+00 8.479333e-01 1.520668e-01 0.000000e+00
 0.000000e+00 0.000000e+00 0.000000e+00 8.635101e-01 1.364899e-01
 0.000000e+00 0.000000e+00 0.000000e+00 0.000000e+00 0.000000e+00
<ENDHMM>
~h "dh"
<BEGINHMM>
<NUMSTATES> 5
<STATE> 2
<MEAN> 25
 -2.861757e+00 -2.784816e+00 5.773548e-01 3.520866e+00 1.873020e+00 2.894024e+00 3.553753e+00 -1.794626e+00 2.964525e+00 2.320804e+00 2.211166e+00 1.983449e+00 -2.362403e-01 -2.317593e-01 -1.088020e-01 1.369473e-01 4.708995e-01 6.073019e-01 5.150720e-01 1.508950e-02 2.779061e-01 1.445348e-01 8.779730e-02 9.956714e-02 -3.311525e-01
<VARIANCE> 25
 1.426167e+01 1.525429e+01 1.475435e+01 1.251013e+01 1.914799e+01 3.180724e+01 3.626075e+01 2.409758e+01 1.874256e+01 2.391470e+01 2.078758e+01 1.699987e+01 1.186324e+00 1.219022e+00 1.352057e+00 9.412769e-01 1.687259e+00 2.451388e+00 2.740549e+00 2.073770e+00 2.023360e+00 1.998966e+00 1.656032e+00 1.581326e+00 5.934560e-01
<GCONST> 8.731062e+01
<STATE> 3
<MEAN> 25
 -1.109932e+00 1.514417e+00 2.724202e+00 4.556811e+00 2.463705e+00 1.618600e-02 3.935496e-01 -4.164147e+00 1.854444e+00 -1.399596e+00 -9.965281e-01 -7.701874e-03 6.171523e-01 7.605549e-01 6.374615e-02 -8.962105e-03 -6.353661e-01 -1.116694e+00 -8.014138e-01 5.796446e-02 -1.611742e-01 -4.533941e-01 -2.832839e-01 -1.394616e-01 7.079833e-01
<VARIANCE> 25
 1.720449e+01 1.563881e+01 1.498065e+01 1.257379e+01 1.934210e+01 3.266793e+01 3.563285e+01 1.899991e+01 1.571068e+01 1.939451e+01 1.692558e+01 1.313917e+01 2.659573e+00 1.397370e+00 1.581618e+00 1.311711e+00 3.088081e+00 4.915812e+00 5.609392e+00 2.411613e+00 1.814583e+00 1.589707e+00 2.408032e+00 1.567711e+00 1.012257e+00
<GCONST> 9.063766e+01
<STATE> 4
<MEAN> 25
 3.783347e+00 3.229278e+00 6.681735e-01 2.034226e+00 -6.478794e+00 -8.951457e+00 -7.375900e+00 4.287371e+00 7.295119e-01 -1.822920e+00 -1.313173e+00 -4.049888e-01 1.525760e-02 -7.936066e-02 -2.884723e-02 -1.369211e-01 -1.078074e-01 -9.842846e-02 -8.401214e-02 4.168285e-01 -7.907092e-02 1.691380e-01 -4.065273e-02 -7.682532e-02 1.231574e-01
<VARIANCE> 25
 5.334414e+00 6.348304e+00 1.322287e+01 1.309426e+01 2.813917e+01 2.788698e+01 2.363149e+01 4.982253e+01 1.337316e+01 1.951733e+01 1.627049e+01 1.209134e+01 6.659204e-01 3.266851e-01 5.967724e-01 6.000304e-01 1.729745e+00 1.442957e+00 1.845656e+00 1.778824e+00 7.889410e-01 9.356083e-01 8.362533e-01 7.031725e-01 4.534146e-01
<GCONST> 7.713175e+01
<TRANSP> 5
 0.000000e+00 1.000000e+00 0.000000e+00 0.000000e+00 0.000000e+00
 0.000000e+00 7.701628e-01 2.298373e-01 0.000000e+00 0.000000e+00
 0.000000e+00 0.000000e+00 8.656750e-01 1.343250e-01 0.000000e+00
 0.000000e+00 0.000000e+00 0.000000e+00 9.122181e-01 8.778185e-02
 0.000000e+00 0.000000e+00 0.000000e+00 0.000000e+00 0.000000e+00
<ENDHMM>
~h "eh"
<BEGINHMM>
<NUMSTATES> 5
<STATE> 2
<MEAN> 25
 4.573159e+00 -2.215784e+00 -2.489575e+00 -2.093654e+00 -1.578840e+00 -4.035400e+00 2.065358e-01 5.867178e+00 4.501119e-01 -1.080356e+00 -4.255673e+00 -7.303944e-01 8.409532e-01 -5.468796e-01 1.380209e-01 -7.456779e-01 -6.060842e-01 -9.293286e-01 3.071841e-01 2.274598e+00 -6.970108e-01 -6.024528e-01 -1.186690e+00 -2.150192e-01 1.103136e+00
<VARIANCE> 25
 2.813095e+01 2.273469e+01 4.630934e+01 2.411569e+01 3.775790e+01 4.195250e+01 3.458796e+01 4.383209e+01 2.503432e+01 2.625230e+01 3.862637e+01 2.389721e+01 2.256318e+00 1.661948e+00 1.703978e+00 2.745665e+00 4.137497e+00 2.989470e+00 3.105430e+00 3.745235e+00 2.303465e+00 2.461614e+00 2.444638e+00 2.399430e+00 1.717505e+00
<GCONST> 9.931196e+01
<STATE> 3
<MEAN> 25
 6.300370e+00 -3.324244e+00 -2.254044e+00 -3.864156e+00 -2.000048e+00 -5.670724e+00 2.696898e+00 1.112839e+01 -2.373677e+00 -3.913080e+00 -7.589998e+00 -1.022742e+00 -1.742862e-01 2.999704e-02 5.757400e-01 -2.745865e-01 -3.196337e-01 -5.606391e-03 4.308560e-01 2.225919e-01 -7.106466e-01 7.594336e-02 -3.073798e-02 2.446463e-02 9.440683e-02
<VARIANCE> 25
 7.262908e+00 1.325087e+01 2.797433e+01 1.296547e+01 3.107730e+01 2.201396e+01 3.079255e+01 2.125820e+01 1.992987e+01 1.771228e+01 3.196245e+01 2.146100e+01 3.603417e-01 5.477448e-01 1.081358e+00 7.970935e-01 1.251123e+00 1.230205e+00 1.214428e+00 1.145805e+00 8.875916e-01 1.071710e+00 1.058791e+00 7.172358e-01 2.227900e-01
<GCONST> 7.898045e+01
<STATE> 4
<MEAN> 25
 4.654780e+00 -9.520428e-01 2.619079e+00 -5.231444e+00 -5.603119e+00 -6.036761e+00 1.463371e+00 8.998635e+00 -4.745003e+00 3.474974e-01 -6.238240e+00 -3.284073e-01 5.782865e-03 1.229695e-01 -2.777816e-02 2.917708e-01 1.003087e-01 1.163444e-01 -3.628958e-01 -4.197417e-01 1.094701e-01 2.941518e-01 -2.447264e-02 -3.133016e-02 -2.547813e-01
<VARIANCE> 25
 6.854523e+00 2.171646e+01 3.106731e+01 1.519734e+01 3.216516e+01 2.032267e+01 3.036103e+01 3.617813e+01 1.542545e+01 2.131871e+01 4.332877e+01 1.582500e+01 2.035013e-01 4.888160e-01 6.904532e-01 8.356287e-01 9.063706e-01 1.001766e+00 1.059006e+00 1.668569e+00 9.406075e-01 1.090915e+00 1.103171e+00 7.866392e-01 2.892707e-01
<GCONST> 7.917594e+01
<TRANSP> 5
 0.000000e+00 1.000000e+00 0.000000e+00 0.000000e+00 0.000000e+00
 0.000000e+00 6.464671e-01 3.535329e-01 0.000000e+00 0.000000e+00
 0.000000e+00 0.000000e+00 7.376859e-01 2.623140e-01 0.000000e+00
 0.000000e+00 0.000000e+00 0.000000e+00 8.875520e-01 1.124480e-01
 0.000000e+00 0.000000e+00 0.000000e+00 0.000000e+00 0.000000e+00
<ENDHMM>
~h "er"
<BEGINHMM>
<NUMSTATES> 5
<STATE> 2
<MEAN> 25
 7.831264e+00 -9.400725e-02 -6.453903e-01 1.653517e-01 -5.040956e+00 -6.292254e+00 -6.710743e+00 3.259293e+00 1.763832e+00 -1.895240e+00 -1.109081e-01 1.224482e+00 1.215130e+00 -9.660306e-01 -4.917909e-01 4.482242e-01 -5.804880e-01 -1.152185e+00 -1.055881e+00 1.405522e+00 5.424187e-01 -3.265007e-01 -2.851920e-01 1.750338e-01 3.702387e-01
<VARIANCE> 25
 1.254263e+01 1.718390e+01 5.567136e+01 2.169448e+01 2.200742e+01 3.204085e+01 3.062470e+01 3.278539e+01 2.613200e+01 1.937376e+01 2.842933e+01 1.660556e+01 1.798197e+00 9.805651e-01 1.715532e+00 1.442174e+00 1.994680e+00 1.927941e+00 2.595490e+00 2.183618e+00 1.815496e+00 1.386976e+00 1.590407e+00 1.582107e+00 5.649959e-01
<GCONST> 9.010100e+01
<STATE> 3
<MEAN> 25
 9.593011e+00 -3.690606e+00 -5.091271e-01 3.419256e+00 -5.427113e+00 -1.292089e+01 -7.611110e+00 8.772745e+00 2.642303e+00 -4.132374e+00 -7.196760e-01 3.804060e+00 -8.757087e-02 -4.920213e-02 2.304266e-01 1.218137e-01 -1.088972e-01 -2.527620e-01 1.076026e-01 5.109129e-02 -7.760818e-02 -3.636586e-02 4.406217e-02 1.174775e-01 -1.283256e-01
<VARIANCE> 25
 3.946100e+00 6.196996e+00 2.568274e+01 1.282109e+01 1.185487e+01 1.874123e+01 2.505301e+01 1.645474e+01 1.965660e+01 1.126033e+01 2.089451e+01 1.199472e+01 1.101991e-01 2.182828e-01 5.952591e-01 4.432727e-01 5.654193e-01 7.742918e-01 7.424503e-01 8.098229e-01 7.436831e-01 7.097403e-01 6.529965e-01 5.725427e-01 6.584352e-02
<GCONST> 6.655154e+01
<STATE> 4
<MEAN> 25
 4.614708e+00 -3.329894e+00 2.154980e+00 3.044323e+00 -4.416759e+00 -8.203096e+00 -3.919750e+00 4.309742e+00 2.913970e+00 -1.411360e+00 -2.561617e-01 2.974416e+00 -9.282224e-01 1.763552e-01 1.942977e-01 -2.249327e-02 7.686347e-01 1.340359e+00 6.193900e-01 -9.839299e-01 -1.466335e-02 4.841735e-01 6.953302e-02 -1.961403e-01 -7.655043e-01
<VARIANCE> 25
 1.758300e+01 1.137661e+01 2.391659e+01 1.786531e+01 2.240683e+01 3.251987e+01 3.294223e+01 2.640382e+01 2.354406e+01 1.781988e+01 2.039974e+01 1.521530e+01 7.579849e-01 7.438830e-01 1.000327e+00 1.249800e+00 1.565462e+00 1.885106e+00 1.904586e+00 1.718838e+00 1.411254e+00 1.222062e+00 1.641969e+00 1.373853e+00 4.740089e-01
<GCONST> 8.496978e+01
<TRANSP> 5
 0.000000e+00 1.000000e+00 0.000000e+00 0.000000e+00 0.000000e+00
 0.000000e+00 7.696007e-01 2.303992e-01 0.000000e+00 0.000000e+00
 0.000000e+00 0.000000e+00 9.290107e-01 7.098932e-02 0.000000e+00
 0.000000e+00 0.000000e+00 0.000000e+00 8.264647e-01 1.735353e-01
 0.000000e+00 0.000000e+00 0.000000e+00 0.000000e+00 0.000000e+00
<ENDHMM>
~h "ey"
<BEGINHMM>
<NUMSTATES> 5
<STATE> 2
<MEAN> 25
 3.920578e+00 5.257023e-01 2.230700e+00 2.292347e-01 -5.018003e+00 -6.870131e+00 -2.618599e+00 4.529422e+00 -7.567114e-01 -8.767812e-01 1.968111e+00 3.812876e-01 1.160788e-01 -2.341518e-02 1.321358e+00 -9.026169e-01 -2.046047e+00 -8.826688e-01 2.773417e-02 1.755255e+00 -8.276367e-01 2.960552e-02 6.128653e-01 -3.171993e-01 1.029444e+00
<VARIANCE> 25
 2.051372e+01 1.522163e+01 2.990434e+01 2.789072e+01 2.977641e+01 4.698063e+01 4.705367e+01 6.071226e+01 2.689436e+01 3.147304e+01 2.562530e+01 1.589797e+01 2.219388e+00 1.209446e+00 1.964717e+00 3.983747e+00 3.557621e+00 4.577435e+00 4.204851e+00 5.515871e+00 2.850663e+00 2.861481e+00 2.615885e+00 1.903691e+00 1.730922e+00
<GCONST> 9.960075e+01
<STATE> 3
<MEAN> 25
 3.500746e+00 2.578202e+00 8.313375e+00 -4.321373e+00 -1.097534e+01 -6.393170e+00 -1.299063e+00 5.147739e+00 -3.978621e+00 2.283485e+00 2.464559e+00 -1.341970e+00 -3.460952e-01 4.129990e-01 8.115224e-01 -3.782876e-01 -3.163199e-01 5.727540e-01 -3.119038e-01 -7.302625e-01 -3.079658e-01 5.060247e-01 1.642592e-01 -3.882883e-01 -1.057929e-01
<VARIANCE> 25
 3.107899e+00 6.586714e+00 1.339890e+01 1.532153e+01 1.418646e+01 1.913682e+01 2.364120e+01 1.827576e+01 1.963087e+01 1.868285e+01 2.354477e+01 1.290297e+01 2.055925e-01 4.330879e-01 5.737702e-01 6.909867e-01 7.346014e-01 1.145576e+00 9.934437e-01 1.714372e+00 1.010078e+00 9.856267e-01 9.233231e-01 8.798564e-01 1.545961e-01
<GCONST> 7.252086e+01
<STATE> 4
<MEAN> 25
 1.158082e+00 6.966626e+00 1.103501e+01 -3.761212e+00 -8.886091e+00 -2.202815e+00 -7.436635e+00 -2.871122e+00 -5.057746e+00 -5.473285e-01 4.435034e+00 -4.451529e+00 -7.380141e-02 7.900547e-02 -2.296561e-01 3.913775e-01 3.740869e-01 1.735021e-01 2.390254e-02 -4.356006e-01 7.885356e-02 -1.740079e-01 -5.771012e-02 2.680059e-02 -3.320287e-01
<VARIANCE> 25
 3.705674e+00 1.010613e+01 9.444624e+00 2.015803e+01 2.918878e+01 1.835051e+01 2.118709e+01 1.874069e+01 1.636126e+01 2.876852e+01 1.979176e+01 1.762743e+01 1.825783e-01 4.842246e-01 4.734032e-01 8.239989e-01 1.313379e+00 8.596627e-01 1.263030e+00 1.048905e+00 1.039342e+00 1.027815e+00 9.649089e-01 1.086301e+00 2.178935e-01
<GCONST> 7.472022e+01
<TRANSP> 5
 0.000000e+00 1.000000e+00 0.000000e+00 0.000000e+00 0.000000e+00
 0.000000e+00 6.852380e-01 3.147620e-01 0.000000e+00 0.000000e+00
 0.000000e+00 0.000000e+00 8.425790e-01 1.574210e-01 0.000000e+00
 0.000000e+00 0.000000e+00 0.000000e+00 9.412439e-01 5.875603e-02
 0.000000e+00 0.000000e+00 0.000000e+00 0.000000e+00 0.000000e+00
<ENDHMM>
~h "hh"
<BEGINHMM>
<NUMSTATES> 5
<STATE> 2
<MEAN> 25
 -2.104474e+00 -2.550129e+00 9.148016e-01 1.576831e+00 2.333692e+00 3.732025e+00 5.592175e+00 2.136939e+00 1.948815e+00 1.622252e+00 3.185351e-01 9.610667e-01 -5.290854e-01 -6.993239e-01 -2.591672e-01 -2.734130e-01 8.851097e-01 6.349103e-01 1.162992e+00 7.032375e-01 3.007001e-01 -3.129020e-01 1.019293e-01 2.789621e-01 6.346194e-02
<VARIANCE> 25
 1.269022e+01 2.163503e+01 1.845173e+01 1.890079e+01 3.231056e+01 3.113252e+01 4.067187e+01 3.993484e+01 2.510609e+01 3.132837e+01 3.411551e+01 1.852893e+01 9.073923e-01 1.668454e+00 1.517235e+00 2.151235e+00 2.333753e+00 2.644922e+00 3.911994e+00 3.468949e+00 2.552530e+00 2.871285e+00 2.568275e+00 2.028348e+00 8.996442e-01
<GCONST> 9.440181e+01
<STATE> 3
<MEAN> 25
 -4.155049e+00 -5.402819e+00 -1.546946e+00 -1.708041e+00 5.042159e+00 4.247708e+00 7.267079e+00 3.321217e+00 1.383718e+00 -1.816471e+00 1.935602e-01 2.125129e+00 -9.644834e-03 1.289657e-01 -6.549144e-02 -1.970968e-02 9.477710e-02 -1.061549e-01 -2.553196e-01 -1.895487e-01 -4.699974e-01 -5.005092e-01 -1.377012e-01 1.864564e-03 2.898500e-01
<VARIANCE> 25
 1.287021e+01 3.598911e+01 3.396852e+01 2.310003e+01 3.411255e+01 2.146395e+01 4.989585e+01 5.304099e+01 2.355337e+01 2.824514e+01 2.032396e+01 2.303299e+01 5.050102e-01 1.091890e+00 1.124165e+00 1.010523e+00 1.326647e+00 1.519005e+00 1.832172e+00 2.113498e+00 1.851213e+00 1.791359e+00 1.531014e+00 1.412748e+00 2.968295e-01
<GCONST> 8.821877e+01
<STATE> 4
<MEAN> 25
 -1.839211e+00 8.200241e-01 1.235106e+00 2.373842e-02 3.474894e+00 2.481212e+00 1.025055e+00 -1.157684e+00 -7.242652e-01 -3.417793e+00 6.208107e-01 -9.090165e-01 6.305548e-01 6.579191e-01 4.633054e-01 2.653032e-01 -2.462869e-01 -3.224508e-01 -5.331712e-01 -1.213647e-01 -3.474284e-01 -1.503154e-01 -2.308968e-01 -2.787643e-01 2.244082e-01
<VARIANCE> 25
 3.592545e+01 6.216016e+01 4.950219e+01 2.345462e+01 4.668179e+01 2.360371e+01 4.834636e+01 5.689140e+01 2.263765e+01 2.858951e+01 3.411514e+01 3.047341e+01 1.557385e+00 1.477162e+00 1.411317e+00 1.661764e+00 1.832504e+00 1.446626e+00 2.243226e+00 1.785259e+00 2.093808e+00 1.574614e+00 1.766089e+00 2.048548e+00 4.173105e-01
<GCONST> 9.471162e+01
<TRANSP> 5
 0.000000e+00 1.000000e+00 0.000000e+00 0.000000e+00 0.000000e+00
 0.000000e+00 7.487808e-01 2.512193e-01 0.000000e+00 0.000000e+00
 0.000000e+00 0.000000e+00 6.736118e-01 3.263883e-01 0.000000e+00
 0.000000e+00 0.000000e+00 0.000000e+00 7.671928e-01 2.328072e-01
 0.000000e+00 0.000000e+00 0.000000e+00 0.000000e+00 0.000000e+00
<ENDHMM>
~h "ih"
<BEGINHMM>
<NUMSTATES> 5
<STATE> 2
<MEAN> 25
 -1.255453e+00 1.447281e+00 3.067200e+00 1.728374e-01 -6.042482e-01 -1.609206e+00 -1.525829e+00 -1.590479e+00 -3.459204e-01 1.632872e-01 8.991529e-01 -4.552414e-01 8.376226e-01 1.555656e+00 2.058527e+00 -7.404841e-01 -2.230249e+00 -1.359826e+00 -1.787067e+00 1.443852e-01 -1.706074e+00 -6.432679e-01 5.349888e-01 -1.311708e+00 1.292184e+00
<VARIANCE> 25
 2.764329e+01 3.005080e+01 2.821164e+01 3.224376e+01 3.067386e+01 4.803769e+01 4.216980e+01 4.009579e+01 2.769239e+01 2.460122e+01 1.892545e+01 2.384966e+01 2.676118e+00 2.673936e+00 2.512418e+00 3.879055e+00 3.764127e+00 3.253558e+00 5.291763e+00 4.130565e+00 3.848694e+00 2.851046e+00 2.347836e+00 2.968146e+00 1.751355e+00
<GCONST> 1.015787e+02
<STATE> 3
<MEAN> 25
 2.195341e+00 5.340175e+00 8.424499e+00 -8.190320e-01 -8.777376e+00 -5.060206e+00 -5.617372e+00 -8.921850e-02 -5.994330e+00 -1.284944e+00 4.547443e+00 -4.134131e+00 1.814995e-01 9.253064e-01 1.395315e+00 -7.985400e-01 -1.525016e+00 5.473780e-01 -7.244779e-01 -2.189904e-01 -1.066567e+00 -3.758815e-02 9.319265e-01 -1.005325e+00 4.577946e-01
<VARIANCE> 25
 9.310398e+00 1.634697e+01 1.610265e+01 2.883215e+01 2.314303e+01 4.256479e+01 2.666129e+01 4.730771e+01 2.446044e+01 2.878200e+01 2.009389e+01 2.162187e+01 1.238187e+00 1.080461e+00 1.093063e+00 1.482369e+00 2.276637e+00 2.118542e+00 3.078787e+00 2.756506e+00 1.950283e+00 2.205887e+00 1.779147e+00 1.589329e+00 7.715357e-01
<GCONST> 9.050087e+01
<STATE> 4
<MEAN> 25
 1.001784e+00 7.675577e+00 9.993804e+00 -2.487300e+00 -9.800333e+00 -1.686834e+00 -6.408804e+00 -3.343787e+00 -5.386896e+00 -1.672712e+00 5.244895e+00 -5.300230e+00 5.594999e-02 -1.234397e-01 -2.376597e-01 3.413264e-01 1.307988e-01 -1.210382e-01 2.412600e-01 -1.220763e-01 1.362187e-01 6.569955e-02 -1.766302e-01 2.916156e-01 -1.213299e-01
<VARIANCE> 25
 5.062401e+00 1.339602e+01 1.117159e+01 1.942811e+01 2.502353e+01 2.707566e+01 2.757408e+01 2.642740e+01 1.652209e+01 2.698119e+01 1.893337e+01 1.976013e+01 2.623157e-01 5.391763e-01 6.255671e-01 1.109156e+00 1.879429e+00 1.197684e+00 1.173089e+00 1.401937e+00 1.089447e+00 1.077940e+00 1.072989e+00 1.225712e+00 3.753634e-01
<GCONST> 7.912025e+01
<TRANSP> 5
 0.000000e+00 1.000000e+00 0.000000e+00 0.000000e+00 0.000000e+00
 0.000000e+00 6.315818e-01 3.684182e-01 0.000000e+00 0.000000e+00
 0.000000e+00 0.000000e+00 5.555525e-01 4.444475e-01 0.000000e+00
 0.000000e+00 0.000000e+00 0.000000e+00 8.959895e-01 1.040105e-01
 0.000000e+00 0.000000e+00 0.000000e+00 0.000000e+00 0.000000e+00
<ENDHMM>
~h "iy"
<BEGINHMM>
<NUMSTATES> 5
<STATE> 2
<MEAN> 25
 4.944726e-01 4.582815e+00 6.584594e+00 3.690283e+00 -1.905451e+00 -4.081093e+00 -3.862387e+00 -4.417233e+00 -2.355542e+00 -3.077474e+00 1.747620e+00 -1.160444e+00 2.132108e-01 1.207048e+00 1.401246e+00 -4.188960e-01 -1.413678e+00 -7.191183e-02 -1.102391e+00 -3.009749e-01 -1.048735e+00 -6.865258e-01 1.079312e+00 -1.070436e+00 4.829372e-01
<VARIANCE> 25
 2.059850e+01 1.693814e+01 2.143944e+01 2.254037e+01 4.948202e+01 3.970361e+01 3.489818e+01 3.457876e+01 3.114741e+01 1.965254e+01 2.046144e+01 1.679210e+01 2.131369e+00 1.795777e+00 1.862595e+00 2.425536e+00 3.580013e+00 3.540624e+00 4.621789e+00 3.529758e+00 3.305757e+00 3.017924e+00 2.390271e+00 2.341202e+00 7.995474e-01
<GCONST> 9.689787e+01
<STATE> 3
<MEAN> 25
 -4.157637e-01 6.649327e+00 9.986230e+00 1.343464e+00 -2.835395e+00 -2.197519e+00 -6.461626e+00 -6.274540e+00 -3.760449e+00 -4.298799e+00 3.851557e+00 -4.220671e+00 -8.325289e-02 7.124203e-01 3.887900e-01 -6.594830e-01 -4.024333e-01 4.432607e-01 -7.327482e-01 2.215573e-02 -2.688604e-01 -2.259104e-01 5.365645e-01 -9.137768e-01 1.113298e-02
<VARIANCE> 25
 1.051372e+01 1.554596e+01 1.147778e+01 1.410795e+01 5.398587e+01 1.912839e+01 1.681515e+01 2.511596e+01 1.994831e+01 2.058446e+01 1.641932e+01 1.665729e+01 5.210422e-01 5.897480e-01 6.997125e-01 8.372065e-01 1.496964e+00 1.731302e+00 1.224620e+00 1.638608e+00 1.325103e+00 1.265788e+00 1.388865e+00 1.389242e+00 2.159180e-01
<GCONST> 8.032084e+01
<STATE> 4
<MEAN> 25
 -7.691651e-01 9.507085e+00 9.451613e+00 -1.160846e+00 -4.134693e+00 -1.160097e+00 -8.309241e+00 -5.914617e+00 -4.042419e+00 -5.867447e+00 6.243884e+00 -7.709038e+00 9.235120e-03 -2.355884e-01 -1.688490e-01 1.007914e-01 9.945147e-03 -7.022111e-02 1.829624e-01 -1.018692e-02 2.004627e-02 2.038771e-01 -1.226474e-01 2.100274e-01 -1.660775e-01
<VARIANCE> 25
 3.836073e+00 1.314084e+01 9.683884e+00 1.164299e+01 3.176442e+01 1.474447e+01 1.967243e+01 1.663355e+01 1.650371e+01 2.489030e+01 1.790807e+01 2.007224e+01 2.016468e-01 6.282184e-01 4.407499e-01 7.130519e-01 1.459228e+00 9.405379e-01 1.137355e+00 1.061363e+00 1.045830e+00 1.148015e+00 1.069775e+00 1.298036e+00 2.118171e-01
<GCONST> 7.467517e+01
<TRANSP> 5
 0.000000e+00 1.000000e+00 0.000000e+00 0.000000e+00 0.000000e+00
 0.000000e+00 6.322250e-01 3.677751e-01 0.000000e+00 0.000000e+00
 0.000000e+00 0.000000e+00 7.344326e-01 2.655674e-01 0.000000e+00
 0.000000e+00 0.000000e+00 0.000000e+00 9.445373e-01 5.546267e-02
 0.000000e+00 0.000000e+00 0.000000e+00 0.000000e+00 0.000000e+00
<ENDHMM>
~h "jh"
<BEGINHMM>
<NUMSTATES> 5
<STATE> 2
<MEAN> 25
 8.235961e-01 3.018378e+00 5.395543e+00 4.558031e+00 2.678730e+00 2.058197e+00 2.535553e-01 -4.193222e+00 -1.420437e+00 -1.637447e+00 -2.483418e-01 -1.049468e+00 -7.996824e-01 -6.622063e-01 -4.441154e-01 1.125901e-01 1.425252e+00 9.910743e-01 9.822909e-01 4.657178e-01 5.879420e-01 2.845055e-01 -2.645194e-01 1.610171e-01 -4.833075e-01
<VARIANCE> 25
 8.597618e+00 1.197849e+01 7.970864e+00 1.201851e+01 2.168485e+01 3.067883e+01 2.818688e+01 1.854660e+01 2.160314e+01 1.627656e+01 1.723098e+01 1.402419e+01 1.751411e+00 1.460002e+00 1.086287e+00 2.887753e+00 2.242033e+00 2.725530e+00 2.892418e+00 2.697798e+00 1.670507e+00 1.776906e+00 1.825281e+00 1.837527e+00 1.336439e+00
<GCONST> 8.778801e+01
<STATE> 3
<MEAN> 25
 -9.002365e+00 2.494527e+00 9.955795e-01 -1.799016e+00 8.087189e+00 1.061205e+00 2.571369e+00 4.865595e-01 2.747766e+00 -7.268722e-01 1.444835e+00 1.176296e+00 -2.004598e+00 4.526306e-01 -2.490650e-01 -1.455343e+00 -1.219346e-01 -9.068964e-01 -4.090058e-01 -1.350302e-02 6.194001e-01 -2.431556e-01 3.809860e-01 3.463440e-01 1.639388e+00
<VARIANCE> 25
 2.819843e+01 1.863094e+01 3.978272e+01 3.133253e+01 2.205813e+01 3.184594e+01 1.866061e+01 2.809453e+01 1.633892e+01 2.919399e+01 1.300208e+01 1.636541e+01 3.001539e+00 1.453673e+00 3.336437e+00 3.763299e+00 3.307063e+00 3.355992e+00 1.912395e+00 3.541650e+00 1.410345e+00 2.108130e+00 1.323225e+00 1.698215e+00 1.493354e+00
<GCONST> 9.430697e+01
<STATE> 4
<MEAN> 25
 -1.083643e+01 -2.911394e+00 4.879932e+00 -2.843875e+00 -4.632759e-02 2.582925e+00 2.625314e+00 -4.280066e+00 5.008825e+00 5.028840e-01 9.980631e-01 2.266581e+00 1.103629e+00 -3.349906e-01 6.138764e-01 4.988049e-01 -9.026238e-01 -2.247392e-01 -2.544615e-01 -1.907517e-01 -3.223351e-01 1.495001e-01 -1.213792e-01 5.972933e-02 -3.591889e-01
<VARIANCE> 25
 3.802075e+01 3.965126e+01 3.162291e+01 2.739338e+01 3.418325e+01 4.656448e+01 3.079478e+01 2.175859e+01 1.978509e+01 2.632510e+01 1.353521e+01 1.101613e+01 3.634249e+00 1.050108e+00 2.168333e+00 1.303803e+00 4.059838e+00 3.149477e+00 3.445941e+00 3.170440e+00 1.748361e+00 1.778659e+00 1.224504e+00 1.228238e+00 1.212510e+00
<GCONST> 9.422275e+01
<TRANSP> 5
 0.000000e+00 1.000000e+00 0.000000e+00 0.000000e+00 0.000000e+00
 0.000000e+00 8.099387e-01 1.900614e-01 0.000000e+00 0.000000e+00
 0.000000e+00 0.000000e+00 7.970129e-01 2.029871e-01 0.000000e+00
 0.000000e+00 0.000000e+00 0.000000e+00 8.658304e-01 1.341695e-01
 0.000000e+00 0.000000e+00 0.000000e+00 0.000000e+00 0.000000e+00
<ENDHMM>
~h "ng"
<BEGINHMM>
<NUMSTATES> 5
<STATE> 2
<MEAN> 25
 1.344792e+00 7.129169e+00 1.008983e+01 -4.191748e+00 -7.418387e+00 6.515549e-01 -6.934517e+00 -3.348691e+00 -5.104555e+00 -2.195801e+00 5.051433e+00 -5.847648e+00 -7.285674e-02 -8.301852e-03 -2.303270e-02 -8.735157e-02 4.304272e-01 4.836764e-01 3.989904e-02 -1.199536e-01 2.982336e-02 -1.291039e-01 8.247367e-02 -2.012591e-01 -1.928722e-01
<VARIANCE> 25
 5.483638e+00 6.910981e+00 1.039183e+01 1.317207e+01 1.759669e+01 1.925282e+01 2.180233e+01 1.649523e+01 1.495941e+01 2.410162e+01 1.839570e+01 1.841737e+01 6.761135e-02 1.858296e-01 2.779151e-01 5.130562e-01 6.778017e-01 7.402943e-01 7.138965e-01 7.269383e-01 7.989630e-01 6.071784e-01 6.786581e-01 5.994875e-01 6.712829e-02
<GCONST> 6.593031e+01
<STATE> 3
<MEAN> 25
 2.999275e+00 4.090648e+00 5.800545e+00 6.466856e-01 -3.196769e+00 2.433988e+00 -2.222876e+00 -4.918063e+00 -5.481386e+00 -1.686134e+00 2.928607e+00 -5.423728e+00 3.065647e-01 -3.501676e-01 -5.635219e-01 7.626657e-01 1.964235e-01 -1.724974e-01 5.303317e-01 -3.768501e-01 1.065277e-01 -6.661505e-02 -4.997116e-01 4.445211e-01 -3.927112e-01
<VARIANCE> 25
 3.456073e+00 5.715078e+00 9.938152e+00 1.435312e+01 1.087430e+01 1.232758e+01 1.346391e+01 1.277459e+01 1.182881e+01 1.848276e+01 1.471252e+01 1.248188e+01 1.758054e-01 2.677964e-01 5.178321e-01 6.571679e-01 8.260198e-01 7.487440e-01 9.583156e-01 8.013071e-01 9.768464e-01 1.035725e+00 9.447023e-01 9.572917e-01 8.838229e-02
<GCONST> 6.714323e+01
<STATE> 4
<MEAN> 25
 1.896531e+00 1.301564e+00 3.697334e+00 3.789796e+00 5.985317e-01 2.794257e+00 1.228522e+00 -5.563963e+00 -2.901421e+00 -9.781218e-01 -2.863185e-01 -1.232987e+00 -5.452536e-01 -4.622467e-01 -1.608625e-01 1.240262e-01 6.140059e-01 2.844098e-01 4.274987e-01 2.924542e-01 4.972100e-01 3.003380e-01 -1.099642e-01 4.116184e-01 -4.132056e-01
<VARIANCE> 25
 1.151049e+01 1.090550e+01 9.374758e+00 9.604857e+00 1.607254e+01 1.954482e+01 2.120674e+01 1.510563e+01 1.632979e+01 1.510392e+01 1.380118e+01 1.322345e+01 8.314751e-01 7.680779e-01 7.035456e-01 9.760094e-01 1.390300e+00 1.890611e+00 2.000658e+00 1.568639e+00 1.585897e+00 1.783109e+00 1.656473e+00 1.276076e+00 3.134113e-01
<GCONST> 7.942719e+01
<TRANSP> 5
 0.000000e+00 1.000000e+00 0.000000e+00 0.000000e+00 0.000000e+00
 0.000000e+00 8.934810e-01 1.065191e-01 0.000000e+00 0.000000e+00
 0.000000e+00 0.000000e+00 8.671875e-01 1.328126e-01 0.000000e+00
 0.000000e+00 0.000000e+00 0.000000e+00 8.837019e-01 1.162982e-01
 0.000000e+00 0.000000e+00 0.000000e+00 0.000000e+00 0.000000e+00
<ENDHMM>
~h "ow"
<BEGINHMM>
<NUMSTATES> 5
<STATE> 2
<MEAN> 25
 9.473235e+00 8.510972e-01 -7.154988e+00 -6.371016e+00 9.456158e-02 1.346516e+00 -3.973208e+00 2.493721e+00 -3.792714e+00 1.329455e+00 -2.037133e+00 1.085653e-01 6.436422e-01 1.215644e-01 -7.836896e-01 -9.918703e-01 -4.982135e-01 8.415678e-01 -1.295547e-02 4.060306e-01 -7.762335e-01 -1.709200e-02 3.144463e-01 2.074053e-01 2.864447e-01
<VARIANCE> 25
 8.138474e+00 1.357448e+01 1.627564e+01 3.946608e+01 2.975886e+01 2.795775e+01 2.398756e+01 4.050845e+01 2.290244e+01 2.787177e+01 4.748950e+01 1.975787e+01 1.020939e+00 6.377685e-01 1.258790e+00 1.706457e+00 1.610291e+00 1.478615e+00 1.686997e+00 2.618633e+00 1.553064e+00 1.428542e+00 1.967842e+00 1.040579e+00 6.913039e-01
<GCONST> 8.785567e+01
<STATE> 3
<MEAN> 25
 1.029657e+01 4.135176e+00 -7.543145e+00 -9.087353e+00 -5.870129e+00 2.845675e+00 -2.834613e+00 1.085454e+00 -8.163610e+00 1.171601e-01 1.598237e+00 1.401378e+00 -7.885841e-02 1.938906e-01 2.524793e-01 -4.703615e-03 -3.389229e-01 -1.054815e-01 1.096973e-01 -2.851519e-02 -8.090626e-02 -3.385878e-02 -5.282677e-02 -1.785380e-02 -1.915425e-01
<VARIANCE> 25
 2.882942e+00 9.375796e+00 1.088141e+01 2.198472e+01 1.857525e+01 1.737189e+01 1.887975e+01 1.649479e+01 1.321364e+01 2.074165e+01 2.804795e+01 1.300045e+01 6.635076e-02 1.787166e-01 2.922819e-01 5.324629e-01 5.739078e-01 5.579759e-01 7.157372e-01 6.661258e-01 6.826198e-01 7.144692e-01 6.637807e-01 6.592336e-01 7.051621e-02
<GCONST> 6.538048e+01
<STATE> 4
<MEAN> 25
 7.933656e+00 5.249953e+00 -9.372770e-01 -3.545777e+00 -6.711662e+00 1.737791e-02 -3.069774e+00 -2.947464e+00 -4.786206e+00 -6.399595e-01 1.025709e+00 5.007466e-01 -3.648220e-01 -1.662655e-01 4.778629e-01 6.921907e-01 4.399347e-01 -2.144750e-01 -1.052017e-01 -5.239508e-01 3.849693e-01 1.637682e-01 -4.254049e-02 -1.801690e-01 -3.057206e-01
<VARIANCE> 25
 4.070666e+00 5.390682e+00 1.217539e+01 2.072157e+01 1.971801e+01 1.447442e+01 1.941635e+01 2.264210e+01 1.949130e+01 1.952498e+01 1.543333e+01 1.504811e+01 2.009121e-01 3.045560e-01 5.796093e-01 9.741904e-01 1.035330e+00 1.185086e+00 1.189777e+00 1.232695e+00 1.280141e+00 1.000130e+00 1.021366e+00 9.064944e-01 1.410969e-01
<GCONST> 7.312921e+01
<TRANSP> 5
 0.000000e+00 1.000000e+00 0.000000e+00 0.000000e+00 0.000000e+00
 0.000000e+00 8.126363e-01 1.873638e-01 0.000000e+00 0.000000e+00
 0.000000e+00 0.000000e+00 9.136734e-01 8.632656e-02 0.000000e+00
 0.000000e+00 0.000000e+00 0.000000e+00 8.700588e-01 1.299412e-01
 0.000000e+00 0.000000e+00 0.000000e+00 0.000000e+00 0.000000e+00
<ENDHMM>
~h "oy"
<BEGINHMM>
<NUMSTATES> 5
<STATE> 2
<MEAN> 25
 -1.256745e+00 4.273543e+00 8.006097e-01 7.650476e+00 1.643746e+00 3.250412e+00 4.915348e-01 -4.298402e+00 -1.380758e+00 -7.773707e-01 -4.713076e-01 4.995608e-01 5.138209e-02 1.039382e-01 -6.505159e-01 1.853863e-01 -4.983309e-01 -5.257417e-03 -1.418569e-01 3.526479e-01 -2.743203e-03 -5.907691e-01 -2.183919e-01 2.446130e-01 5.740376e-01
<VARIANCE> 25
 2.365918e+01 8.216339e+00 1.683801e+01 2.789559e+01 8.630541e+00 1.559712e+01 2.834808e+01 1.141742e+01 1.280193e+01 1.377391e+01 5.729293e+00 7.793007e+00 4.024936e+00 1.219296e+00 1.015948e+00 2.900248e+00 2.257009e+00 4.105148e+00 3.814869e+00 1.096388e+00 9.532694e-01 8.752409e-01 8.565271e-01 4.148009e-01 4.973346e-01
<GCONST> 8.143636e+01
<STATE> 3
<MEAN> 25
 6.773548e+00 4.371755e+00 -1.544171e+00 -1.437280e+00 -4.247218e+00 -1.657210e-01 -2.027504e+00 -1.481834e+00 -2.449967e+00 -3.959482e+00 1.747076e+00 2.041787e+00 2.469931e+00 -2.452031e-01 -1.191484e+00 -1.762186e+00 -1.733513e+00 -1.441159e-01 -2.582942e-01 1.013560e+00 -6.535332e-01 5.030071e-01 5.383067e-01 6.351157e-02 4.382240e-01
<VARIANCE> 25
 2.404879e+01 9.605610e+00 1.660547e+01 3.221122e+01 1.262893e+01 6.740043e+01 2.292581e+01 2.537024e+01 7.134054e+00 2.810147e+01 1.792789e+01 3.829886e+00 3.191522e+00 2.586432e+00 5.363364e-01 5.076635e+00 1.532704e+00 2.840589e+00 2.586104e+00 1.464540e+00 1.712754e+00 1.566364e+00 1.252361e+00 9.196435e-01 4.263324e-01
<GCONST> 8.650453e+01
<STATE> 4
<MEAN> 25
 8.561416e+00 6.069121e-01 -4.635419e+00 -5.265701e+00 -3.887017e+00 -2.937024e+00 -3.679421e+00 6.001156e+00 -6.572698e+00 3.216889e+00 -4.486892e-01 -1.526129e+00 -3.027201e-01 1.341298e-02 3.359450e-01 2.889505e-01 8.983474e-02 -1.674584e-01 -6.304201e-02 -1.157506e-02 -9.815634e-02 2.182392e-02 -8.230948e-02 -9.636486e-02 -5.829906e-02
<VARIANCE> 25
 1.309778e+01 1.135257e+01 4.636172e+01 3.653708e+01 2.943152e+01 5.949324e+01 4.306599e+01 3.724521e+01 2.665736e+01 1.570071e+01 4.484257e+01 2.014481e+01 3.014850e-01 7.362409e-01 1.534789e+00 1.575372e+00 1.612913e+00 3.011221e+00 2.026875e+00 3.014102e+00 1.731911e+00 1.497296e+00 1.893603e+00 1.808664e+00 1.483544e-01
<GCONST> 8.911832e+01
<TRANSP> 5
 0.000000e+00 1.000000e+00 0.000000e+00 0.000000e+00 0.000000e+00
 0.000000e+00 7.352347e-01 2.647653e-01 0.000000e+00 0.000000e+00
 0.000000e+00 0.000000e+00 7.758654e-01 2.241346e-01 0.000000e+00
 0.000000e+00 0.000000e+00 0.000000e+00 9.540311e-01 4.596883e-02
 0.000000e+00 0.000000e+00 0.000000e+00 0.000000e+00 0.000000e+00
<ENDHMM>
~h "sh"
<BEGINHMM>
<NUMSTATES> 5
<STATE> 2
<MEAN> 25
 -6.960063e+00 2.318746e+00 4.636000e+00 9.650452e-01 1.966739e+00 -1.818386e+00 6.691523e-01 -1.628260e+00 2.199874e+00 -9.360334e-01 2.127749e+00 2.277264e+00 -3.009967e+00 -5.677204e-01 2.580714e-01 -5.623671e-01 1.409372e+00 1.183794e+00 1.921230e+00 -2.051296e-01 1.653362e+00 -1.677499e-01 4.150734e-01 8.181621e-01 7.526442e-01
<VARIANCE> 25
 6.193929e+01 2.478526e+01 2.458354e+01 2.906305e+01 4.647977e+01 3.773640e+01 5.515587e+01 5.187326e+01 3.872797e+01 2.774253e+01 2.142248e+01 1.452525e+01 3.014255e+00 2.255237e+00 3.481906e+00 3.981861e+00 4.267963e+00 3.610151e+00 4.340950e+00 4.596238e+00 3.232649e+00 2.967581e+00 1.830902e+00 1.512987e+00 7.173098e-01
<GCONST> 1.012252e+02
<STATE> 3
<MEAN> 25
 -1.720918e+01 -3.828345e+00 4.051806e+00 -4.939935e+00 3.203635e+00 2.894876e+00 5.048569e+00 -1.886221e+00 9.031963e+00 -1.879771e-01 3.048933e+00 4.242658e+00 -1.196209e-01 -2.840566e-01 -4.330207e-02 -1.086237e-02 -3.120340e-01 -8.525018e-02 8.067244e-02 -2.312224e-01 -1.808144e-03 -1.748287e-02 -8.823673e-02 -3.712313e-02 -7.549919e-02
<VARIANCE> 25
 9.129864e+00 1.203033e+01 8.453420e+00 1.197522e+01 2.250538e+01 1.747361e+01 2.052891e+01 2.288752e+01 1.588130e+01 1.590853e+01 1.479736e+01 1.729829e+01 5.007471e-01 5.393134e-01 4.706117e-01 9.111626e-01 1.167886e+00 1.290662e+00 1.462316e+00 1.422357e+00 1.356322e+00 1.263801e+00 1.352758e+00 1.163183e+00 2.133563e-01
<GCONST> 7.690150e+01
<STATE> 4
<MEAN> 25
 -1.147136e+01 -2.422446e+00 6.019620e+00 -7.845464e-01 -7.494808e-01 -7.507457e-01 4.679996e+00 -4.457599e+00 5.232549e+00 -3.326153e-01 1.207348e+00 2.408844e+00 2.923781e+00 1.119124e+00 1.494481e+00 5.089216e-01 -1.020387e+00 -7.204639e-01 -1.215706e+00 -3.681370e-01 -1.090915e+00 -1.938252e-01 -5.197781e-01 -4.561222e-01 -4.170017e-01
<VARIANCE> 25
 4.275014e+01 3.750850e+01 2.540367e+01 2.136390e+01 3.221510e+01 3.622262e+01 3.281852e+01 2.170832e+01 1.687127e+01 1.580009e+01 1.633141e+01 1.587413e+01 3.525264e+00 2.176764e+00 1.932423e+00 1.231697e+00 1.707381e+00 2.587818e+00 2.242273e+00 2.549983e+00 2.129805e+00 1.399286e+00 1.797652e+00 1.749216e+00 7.070640e-01
<GCONST> 9.242300e+01
<TRANSP> 5
 0.000000e+00 1.000000e+00 0.000000e+00 0.000000e+00 0.000000e+00
 0.000000e+00 7.935615e-01 2.064386e-01 0.000000e+00 0.000000e+00
 0.000000e+00 0.000000e+00 9.121051e-01 8.789489e-02 0.000000e+00
 0.000000e+00 0.000000e+00 0.000000e+00 7.804322e-01 2.195678e-01
 0.000000e+00 0.000000e+00 0.000000e+00 0.000000e+00 0.000000e+00
<ENDHMM>
~h "sp"
<BEGINHMM>
<NUMSTATES> 3
<STATE> 2
~s "silst"
<TRANSP> 3
 0.000000e+00 2.544138e-01 7.455862e-01
 0.000000e+00 8.537923e-01 1.462077e-01
 0.000000e+00 0.000000e+00 0.000000e+00
<ENDHMM>
~h "th"
<BEGINHMM>
<NUMSTATES> 5
<STATE> 2
<MEAN> 25
 -4.315367e+00 -3.607285e-02 -4.891226e+00 3.630348e+00 6.280880e-01 2.096554e+00 2.975607e+00 -2.901821e+00 3.157675e+00 4.564280e-01 -2.041636e-01 1.394748e+00 -7.806813e-01 -5.968685e-01 -4.720236e-01 -1.156062e-01 8.511575e-02 5.429292e-01 4.274127e-01 1.036204e-01 4.058341e-01 2.749477e-01 4.355521e-01 3.347363e-01 -5.694176e-01
<VARIANCE> 25
 1.500117e+01 1.719478e+01 2.396154e+01 1.362597e+01 1.330141e+01 2.439529e+01 1.947050e+01 2.506285e+01 1.804052e+01 1.819801e+01 1.887375e+01 1.593546e+01 2.437534e+00 1.639593e+00 2.516901e+00 1.682920e+00 2.127748e+00 2.533802e+00 2.381937e+00 2.630240e+00 2.399848e+00 2.036416e+00 2.171935e+00 1.610511e+00 8.718207e-01
<GCONST> 8.981125e+01
<STATE> 3
<MEAN> 25
 -4.607249e+00 -4.183594e+00 -1.214435e+00 3.230647e+00 3.812080e+00 5.503871e+00 4.481308e+00 1.495335e-02 5.096913e+00 3.995932e+00 1.910864e+00 3.133125e+00 -8.120461e-02 2.798186e-02 -4.835080e-02 5.577758e-02 2.498319e-01 1.381503e-01 3.050588e-01 3.132614e-01 2.012079e-01 1.751052e-02 -6.705152e-02 -5.905439e-02 -4.595724e-02
<VARIANCE> 25
 5.251820e+00 1.097713e+01 1.528290e+01 1.110403e+01 1.411407e+01 2.392070e+01 2.224885e+01 1.704688e+01 1.916740e+01 2.382331e+01 1.439723e+01 1.313793e+01 2.452913e-01 3.860106e-01 5.363986e-01 6.047556e-01 8.159084e-01 1.311290e+00 1.209475e+00 9.667496e-01 1.192838e+00 1.907183e+00 8.836572e-01 1.027106e+00 1.284190e-01
<GCONST> 7.367542e+01
<STATE> 4
<MEAN> 25
 -7.111001e+00 7.165885e-02 -6.325125e+00 2.907264e+00 1.908414e+00 5.697374e-01 4.530846e+00 -1.630558e+00 4.917912e+00 -2.602366e-01 3.489585e-01 2.673336e+00 3.865316e-01 3.489793e-01 -7.734855e-02 -4.459920e-01 -2.202496e-01 -9.264040e-01 -2.218629e-01 -1.435724e-01 4.555083e-02 -3.239082e-01 -2.370227e-01 1.031737e-01 8.011953e-01
<VARIANCE> 25
 1.735459e+01 1.729060e+01 1.956805e+01 1.793595e+01 1.526410e+01 2.518678e+01 1.679090e+01 2.854262e+01 2.437183e+01 2.151371e+01 1.967900e+01 1.717147e+01 2.297878e+00 9.829725e-01 2.802763e+00 2.376037e+00 1.886266e+00 2.684819e+00 2.109404e+00 2.781514e+00 2.458040e+00 2.757804e+00 2.717500e+00 1.489560e+00 1.707315e+00
<GCONST> 9.167001e+01
<TRANSP> 5
 0.000000e+00 1.000000e+00 0.000000e+00 0.000000e+00 0.000000e+00
 0.000000e+00 8.530439e-01 1.469561e-01 0.000000e+00 0.000000e+00
 0.000000e+00 0.000000e+00 8.004221e-01 1.995779e-01 0.000000e+00
 0.000000e+00 0.000000e+00 0.000000e+00 8.337695e-01 1.662305e-01
 0.000000e+00 0.000000e+00 0.000000e+00 0.000000e+00 0.000000e+00
<ENDHMM>
~h "uh"
<BEGINHMM>
<NUMSTATES> 5
<STATE> 2
<MEAN> 25
 4.369363e+00 6.315617e+00 2.963027e+00 4.495022e+00 -1.436993e+00 -2.727224e+00 -6.753835e+00 -2.513726e+00 -2.788368e+00 -1.360719e+00 1.528822e+00 -3.344614e-01 1.018735e+00 7.479005e-01 -4.664348e-01 -5.956315e-01 -1.293790e+00 5.895480e-01 -7.432124e-01 4.331991e-01 -1.093268e+00 -3.607529e-02 1.049677e+00 -3.948878e-01 4.509829e-01
<VARIANCE> 25
 1.439869e+01 1.653143e+01 3.136978e+01 2.245537e+01 3.211212e+01 3.569695e+01 4.280243e+01 2.099055e+01 2.321772e+01 1.495470e+01 2.046034e+01 1.564856e+01 2.211398e+00 1.511552e+00 1.412038e+00 2.275192e+00 3.100578e+00 1.281971e+00 2.597052e+00 1.519903e+00 1.843912e+00 1.577711e+00 1.820420e+00 1.511319e+00 4.131781e-01
<GCONST> 8.976340e+01
<STATE> 3
<MEAN> 25
 7.474451e+00 7.305266e+00 -2.941101e+00 5.565065e-01 -6.162670e+00 1.006444e+00 -9.788260e+00 -2.515646e+00 -8.225077e+00 -8.131315e-01 7.152658e+00 -1.151231e+00 -4.741708e-02 -4.843779e-02 -2.794361e-01 -2.163486e-01 5.063856e-02 1.297366e-01 -2.210696e-01 -1.204526e-01 -6.638158e-02 2.764752e-01 4.511892e-01 -1.995311e-01 5.913447e-02
<VARIANCE> 25
 4.237034e+00 9.738834e+00 1.565788e+01 3.083554e+01 8.319322e+00 4.426894e+01 2.263242e+01 2.477496e+01 1.767340e+01 2.359440e+01 3.417347e+01 1.506108e+01 9.033182e-02 1.741792e-01 3.810429e-01 4.990197e-01 5.559565e-01 6.693237e-01 8.352987e-01 9.058809e-01 7.225910e-01 8.493565e-01 7.344011e-01 9.024302e-01 6.839948e-02
<GCONST> 6.970007e+01
<STATE> 4
<MEAN> 25
 5.121164e+00 4.947582e+00 -1.797279e+00 1.916368e+00 -3.939164e+00 -3.988556e+00 -1.374138e+01 5.722576e-01 -3.182163e+00 1.363249e+00 7.308436e+00 -5.503691e+00 -5.442847e-01 -6.806600e-01 1.140151e+00 6.035830e-01 5.386724e-01 -1.198504e+00 3.770016e-01 3.714428e-01 1.116933e+00 -9.799789e-02 -1.123414e+00 3.530803e-01 -3.812914e-01
<VARIANCE> 25
 5.933908e+00 9.563813e+00 1.341720e+01 1.647600e+01 1.149942e+01 4.542243e+01 3.101132e+01 3.434080e+01 2.066572e+01 1.533435e+01 3.335095e+01 2.095350e+01 2.178346e-01 4.055603e-01 9.588594e-01 5.833983e-01 1.410551e+00 1.982532e+00 5.686527e+00 3.136243e+00 2.185623e+00 1.515491e+00 1.546571e+00 3.009125e+00 1.036917e+00
<GCONST> 8.459464e+01
<TRANSP> 5
 0.000000e+00 1.000000e+00 0.000000e+00 0.000000e+00 0.000000e+00
 0.000000e+00 7.678595e-01 2.321405e-01 0.000000e+00 0.000000e+00
 0.000000e+00 0.000000e+00 9.073654e-01 9.263456e-02 0.000000e+00
 0.000000e+00 0.000000e+00 0.000000e+00 7.938143e-01 2.061857e-01
 0.000000e+00 0.000000e+00 0.000000e+00 0.000000e+00 0.000000e+00
<ENDHMM>
~h "uw"
<BEGINHMM>
<NUMSTATES> 5
<STATE> 2
<MEAN> 25
 1.296748e+00 5.563202e+00 3.673994e+00 6.091480e+00 -1.377789e+00 -8.919077e+00 -6.733366e+00 -3.013762e-01 -3.296885e+00 -4.037843e+00 5.043086e-01 -1.185826e+00 2.302974e+00 5.523887e-01 1.044378e+00 8.803363e-01 -1.260093e+00 -5.178972e-01 -2.776634e+00 -5.215927e-01 -7.812071e-01 -2.476194e-01 5.354617e-01 -1.404937e+00 -6.964345e-02
<VARIANCE> 25
 2.038932e+01 8.774838e+00 1.811347e+01 1.436579e+01 2.494025e+01 2.822607e+01 3.807877e+01 2.274216e+01 1.988350e+01 2.117007e+01 2.046779e+01 1.804741e+01 2.219487e+00 1.036578e+00 2.133395e+00 2.615662e+00 1.986967e+00 2.012187e+00 3.239977e+00 2.811434e+00 2.338721e+00 1.820917e+00 2.186929e+00 2.438222e+00 2.515256e-01
<GCONST> 8.986030e+01
<STATE> 3
<MEAN> 25
 5.001146e+00 6.235799e+00 1.676924e+00 6.549021e+00 -3.514043e+00 -5.517327e+00 -1.235092e+01 -2.741557e+00 -3.550538e+00 -2.907244e+00 3.032317e+00 -5.301390e+00 1.370749e-01 5.052076e-02 -2.894375e-01 -2.284050e-01 -2.476459e-02 5.040929e-01 -1.857852e-01 -4.265690e-01 4.495615e-02 2.807927e-01 1.885871e-01 -1.646663e-01 -9.597327e-02
<VARIANCE> 25
 3.637003e+00 3.669822e+00 1.012641e+01 1.322599e+01 1.378736e+01 2.870031e+01 3.071193e+01 3.160540e+01 1.737491e+01 2.231396e+01 1.440881e+01 2.314009e+01 6.903049e-02 1.537798e-01 2.947660e-01 4.072808e-01 5.486842e-01 7.361784e-01 8.656232e-01 8.169239e-01 8.782620e-01 7.609894e-01 8.257101e-01 9.040756e-01 4.778480e-02
<GCONST> 6.640920e+01
<STATE> 4
<MEAN> 25
 5.522653e+00 4.773104e+00 6.672002e-01 2.385566e+00 -4.165792e+00 -2.038696e+00 -8.641445e+00 -5.186931e+00 -3.843757e+00 -1.328127e+00 3.475453e+00 -3.464974e+00 -2.452301e-01 -3.285614e-01 1.334813e-01 -9.427537e-02 1.919544e-01 2.563622e-02 5.316806e-01 7.996841e-02 1.410121e-01 8.275777e-02 -1.868564e-01 4.817220e-01 -2.847794e-01
<VARIANCE> 25
 8.151720e+00 1.161394e+01 1.904227e+01 1.545402e+01 2.084901e+01 2.690020e+01 4.217664e+01 2.875759e+01 2.203524e+01 2.264095e+01 2.520877e+01 2.876363e+01 4.189390e-01 5.199501e-01 6.463002e-01 8.468937e-01 1.256992e+00 1.702343e+00 2.168186e+00 1.985623e+00 1.431741e+00 1.436099e+00 1.210050e+00 1.644241e+00 3.308989e-01
<GCONST> 8.280744e+01
<TRANSP> 5
 0.000000e+00 1.000000e+00 0.000000e+00 0.000000e+00 0.000000e+00
 0.000000e+00 6.151597e-01 3.848403e-01 0.000000e+00 0.000000e+00
 0.000000e+00 0.000000e+00 9.057152e-01 9.428480e-02 0.000000e+00
 0.000000e+00 0.000000e+00 0.000000e+00 8.966800e-01 1.033200e-01
 0.000000e+00 0.000000e+00 0.000000e+00 0.000000e+00 0.000000e+00
<ENDHMM>
~h "zh"
<BEGINHMM>
<NUMSTATES> 5
<STATE> 2
<MEAN> 25
 -1.074170e+01 -1.702889e+00 9.152761e+00 5.379202e+00 -3.716830e+00 -4.068777e+00 3.147513e+00 -1.959731e+00 3.730077e+00 -3.944151e+00 5.683743e+00 2.535957e+00 -1.135500e+00 -3.488304e-01 2.924839e-01 -1.724884e-01 4.031696e-02 1.749760e-02 1.275760e+00 -6.253422e-01 6.996374e-01 -5.504121e-02 -3.685597e-01 8.437054e-02 -2.135157e-02
<VARIANCE> 25
 8.677437e+01 3.647170e+01 7.184764e+00 2.637252e+01 7.045095e+00 1.777567e+01 6.656922e+01 2.628956e+01 3.332129e+01 1.252582e+01 1.302498e+01 1.024185e+01 4.661853e+00 1.344946e+00 1.414076e+00 1.999921e+00 1.263190e+00 2.148927e+00 7.456201e+00 4.018428e+00 3.076382e+00 2.837033e+00 1.687170e+00 2.138066e+00 3.388261e-01
<GCONST> 9.211709e+01
<STATE> 3
<MEAN> 25
 -4.979013e+00 4.272581e+00 1.402220e+01 1.198897e+00 -2.400012e+00 -1.705606e+00 2.289553e+00 -4.885870e+00 2.183657e+00 -2.902521e+00 2.944648e+00 2.910745e-01 9.970780e-01 2.282567e-01 5.644032e-01 -2.148631e-01 -6.540607e-01 -9.151946e-02 2.005590e-01 4.208757e-01 6.525528e-02 2.037288e-01 1.414051e-02 1.913933e-01 7.920347e-02
<VARIANCE> 25
 4.598566e+01 2.546993e+01 1.412593e+01 5.477582e+00 6.901853e+01 4.569557e+01 1.922106e+01 2.582646e+01 1.167271e+01 1.087415e+01 1.046218e+01 9.940225e+00 7.690635e+00 1.935421e+00 1.333015e+00 1.142113e+00 2.998483e+00 6.207562e+00 2.296703e+00 4.544578e+00 1.580678e+00 8.180387e-01 2.412634e+00 1.143700e+00 3.349658e-01
<GCONST> 8.968142e+01
<STATE> 4
<MEAN> 25
 -1.715620e-01 9.212385e+00 5.708756e+00 7.273394e-01 -4.785528e+00 -2.357043e+00 -1.175071e+00 -4.591048e+00 3.120981e+00 -1.724513e+00 6.810133e-01 9.064748e-01 4.799103e-01 -8.382252e-01 -3.751257e-01 -4.328653e-01 2.805570e-01 -1.022285e-01 -1.062926e-01 9.065025e-01 1.239437e-02 1.010561e-01 -2.399904e-01 -1.977186e-02 1.832438e-01
<VARIANCE> 25
 6.144299e+01 4.281168e+01 3.452403e+01 4.173827e+01 2.628816e+01 1.711709e+01 2.091950e+01 4.432040e+01 8.696459e+00 7.082291e+00 4.919968e+00 5.306853e+00 3.104488e+00 7.372129e-01 2.401004e+00 1.122746e+00 2.295015e+00 1.282486e+00 2.083361e+00 3.394164e+00 7.853385e-01 7.736716e-01 7.731795e-01 7.635632e-01 2.253617e-01
<GCONST> 8.375898e+01
<TRANSP> 5
 0.000000e+00 1.000000e+00 0.000000e+00 0.000000e+00 0.000000e+00
