~o
<STREAMINFO> 1 25
<VECSIZE> 25<NULLD><MFCC_D_N_Z_0><DIAGC>
~h "b"
<BEGINHMM>
<NUMSTATES> 5
<STATE> 2
<MEAN> 25
 1.263172e+00 4.721404e-01 5.639208e-01 4.424754e-01 -3.596460e-01 -4.347341e-01 -9.161978e-01 2.601334e-01 -5.403306e-01 -2.679008e-01 -2.471868e-01 -5.383218e-01 -9.920265e-03 -8.080306e-03 -9.927038e-03 2.006768e-03 3.625052e-03 1.679347e-02 6.023344e-03 -1.148438e-03 6.583561e-03 3.499484e-03 6.132108e-03 5.243038e-03 -1.791739e-02
<VARIANCE> 25
 4.816118e+01 3.293520e+01 4.200061e+01 3.069980e+01 3.598205e+01 4.303871e+01 4.992318e+01 5.764149e+01 3.163273e+01 2.758826e+01 3.619604e+01 2.338341e+01 1.235008e+00 9.802152e-01 1.364309e+00 1.403419e+00 1.750507e+00 2.086525e+00 2.219022e+00 2.329153e+00 1.732634e+00 1.599013e+00 1.680000e+00 1.346027e+00 9.152101e-01
<GCONST> 9.482537e+01
<STATE> 3
<MEAN> 25
 1.222827e+00 4.411816e-01 5.187571e-01 4.493625e-01 -3.466807e-01 -3.583159e-01 -8.874007e-01 2.572694e-01 -5.090725e-01 -2.514282e-01 -2.189259e-01 -5.153481e-01 -6.778095e-03 -6.990318e-03 -1.095459e-02 9.939426e-04 2.304412e-03 1.927579e-02 6.645681e-03 -1.096920e-03 6.298060e-03 4.153955e-03 6.569708e-03 5.138446e-03 -1.851128e-02
<VARIANCE> 25
 4.836070e+01 3.291262e+01 4.209008e+01 3.053464e+01 3.602664e+01 4.304579e+01 5.038265e+01 5.711360e+01 3.187053e+01 2.774506e+01 3.603531e+01 2.365340e+01 1.235374e+00 9.869189e-01 1.363278e+00 1.405584e+00 1.750707e+00 2.083644e+00 2.234231e+00 2.323312e+00 1.746368e+00 1.602877e+00 1.678878e+00 1.352326e+00 9.151761e-01
<GCONST> 9.487234e+01
<STATE> 4
<MEAN> 25
 1.248181e+00 4.639071e-01 4.249572e-01 4.561577e-01 -3.986357e-01 -3.254953e-01 -8.924994e-01 2.676404e-01 -4.853765e-01 -2.486770e-01 -2.035530e-01 -4.927481e-01 -3.587916e-03 -5.372487e-03 -1.279459e-02 -1.590324e-03 1.367214e-04 1.962497e-02 7.239451e-03 -1.438085e-03 5.902714e-03 5.867837e-03 8.457839e-03 5.731284e-03 -1.731959e-02
<VARIANCE> 25
 4.782397e+01 3.249580e+01 4.245297e+01 3.069162e+01 3.679408e+01 4.353662e+01 5.182756e+01 5.615346e+01 3.205825e+01 2.824962e+01 3.610848e+01 2.426529e+01 1.243733e+00 9.875174e-01 1.355227e+00 1.401855e+00 1.747620e+00 2.084509e+00 2.279989e+00 2.313783e+00 1.761138e+00 1.608087e+00 1.669420e+00 1.361490e+00 9.144598e-01
<GCONST> 9.498293e+01
<TRANSP> 5
 0.000000e+00 1.000000e+00 0.000000e+00 0.000000e+00 0.000000e+00
 0.000000e+00 7.702462e-01 2.297538e-01 0.000000e+00 0.000000e+00
 0.000000e+00 0.000000e+00 7.702452e-01 2.297548e-01 0.000000e+00
 0.000000e+00 0.000000e+00 0.000000e+00 8.995192e-01 1.004808e-01
 0.000000e+00 0.000000e+00 0.000000e+00 0.000000e+00 0.000000e+00
<ENDHMM>
~h "d"
<BEGINHMM>
<NUMSTATES> 5
<STATE> 2
<MEAN> 25
 6.656039e-01 2.595980e-01 7.545831e-01 1.670476e-01 -3.446425e-01 -2.236181e-01 -5.406670e-01 -4.689291e-02 -3.965861e-01 -3.451866e-01 6.924266e-02 -2.836030e-01 5.376808e-03 -1.009304e-03 -1.008612e-02 8.366143e-03 -2.572983e-03 1.070215e-03 4.389627e-03 5.387192e-03 -1.990285e-03 4.259579e-03 -3.419285e-03 8.176005e-04 -2.229217e-02
<VARIANCE> 25
 4.834806e+01 3.790941e+01 4.134094e+01 3.288703e+01 4.246938e+01 4.627058e+01 5.111953e+01 4.897330e+01 3.278312e+01 2.974299e+01 3.437727e+01 2.503468e+01 1.396217e+00 1.099797e+00 1.306821e+00 1.471439e+00 1.994772e+00 2.187085e+00 2.288843e+00 2.283363e+00 1.798530e+00 1.657583e+00 1.679196e+00 1.405973e+00 9.809312e-01
<GCONST> 9.586603e+01
<STATE> 3
<MEAN> 25
 6.813736e-01 2.474347e-01 7.084019e-01 2.041748e-01 -3.517217e-01 -2.165516e-01 -5.152882e-01 -2.122595e-02 -4.008014e-01 -3.242366e-01 5.308003e-02 -2.778751e-01 2.639920e-03 -1.735609e-03 -9.969189e-03 8.575110e-03 -2.379481e-03 3.676984e-04 5.534975e-03 6.031197e-03 -1.186457e-03 4.033580e-03 -3.070939e-03 1.877165e-03 -2.157917e-02
<VARIANCE> 25
 4.815474e+01 3.773136e+01 4.126535e+01 3.297269e+01 4.244595e+01 4.653593e+01 5.109649e+01 4.893901e+01 3.263091e+01 2.963616e+01 3.435518e+01 2.497505e+01 1.397608e+00 1.097710e+00 1.307016e+00 1.467685e+00 1.987418e+00 2.186888e+00 2.287823e+00 2.277371e+00 1.800599e+00 1.655919e+00 1.679840e+00 1.400513e+00 9.813287e-01
<GCONST> 9.583768e+01
<STATE> 4
<MEAN> 25
 7.335842e-01 2.143913e-01 6.946175e-01 2.737097e-01 -3.952809e-01 -2.754517e-01 -4.848664e-01 6.554195e-02 -4.278159e-01 -3.113811e-01 7.562011e-03 -2.699291e-01 -2.481605e-03 -4.018201e-03 -1.002723e-02 8.345324e-03 -9.021414e-04 3.248930e-04 6.732435e-03 5.773220e-03 1.948018e-03 4.474469e-03 -2.657926e-03 3.420508e-03 -1.952803e-02
<VARIANCE> 25
 4.711529e+01 3.741414e+01 4.121843e+01 3.342857e+01 4.278765e+01 4.762374e+01 5.213884e+01 4.888176e+01 3.277374e+01 2.996976e+01 3.468700e+01 2.515850e+01 1.383365e+00 1.080658e+00 1.290804e+00 1.466189e+00 1.969130e+00 2.186572e+00 2.296596e+00 2.261796e+00 1.802772e+00 1.652821e+00 1.672906e+00 1.387817e+00 9.809783e-01
<GCONST> 9.583658e+01
<TRANSP> 5
 0.000000e+00 1.000000e+00 0.000000e+00 0.000000e+00 0.000000e+00
 0.000000e+00 7.713615e-01 2.286385e-01 0.000000e+00 0.000000e+00
 0.000000e+00 0.000000e+00 7.713618e-01 2.286383e-01 0.000000e+00
 0.000000e+00 0.000000e+00 0.000000e+00 9.012336e-01 9.876650e-02
 0.000000e+00 0.000000e+00 0.000000e+00 0.000000e+00 0.000000e+00
<ENDHMM>
~h "f"
<BEGINHMM>
<NUMSTATES> 5
<STATE> 2
<MEAN> 25
 3.406304e-01 -3.977253e-01 -1.245022e+00 5.364050e-02 -2.958218e-01 3.328797e-01 -1.293369e-02 5.368229e-01 1.611019e-01 1.168974e-01 5.852101e-02 3.333860e-01 -1.087009e-03 3.860556e-03 9.789367e-03 1.248500e-02 1.429477e-02 9.306962e-04 9.640602e-03 -5.812727e-03 -1.112379e-03 -6.042023e-03 -2.343437e-03 -4.144744e-04 -2.589707e-02
<VARIANCE> 25
 6.234250e+01 3.601998e+01 4.547107e+01 3.994836e+01 4.547062e+01 4.559915e+01 4.897668e+01 4.087842e+01 3.459628e+01 2.771422e+01 2.951095e+01 2.258012e+01 1.774944e+00 1.040228e+00 1.271681e+00 1.506912e+00 1.877092e+00 2.009376e+00 2.174018e+00 1.860263e+00 1.800068e+00 1.611047e+00 1.503968e+00 1.270384e+00 7.876932e-01
<GCONST> 9.523666e+01
<STATE> 3
<MEAN> 25
 3.394006e-01 -3.717642e-01 -1.198725e+00 1.127384e-01 -2.345274e-01 3.314296e-01 2.242359e-02 5.141877e-01 1.534245e-01 8.985107e-02 4.379583e-02 3.290935e-01 -2.888765e-03 3.975973e-03 1.162214e-02 1.371314e-02 1.359978e-02 8.507603e-04 8.234793e-03 -5.576218e-03 -1.323472e-03 -5.557395e-03 -3.601296e-03 -4.534051e-05 -2.731352e-02
<VARIANCE> 25
 6.096529e+01 3.603274e+01 4.553752e+01 3.940862e+01 4.539684e+01 4.597071e+01 4.940793e+01 4.109587e+01 3.435540e+01 2.794444e+01 2.941667e+01 2.270611e+01 1.767644e+00 1.053485e+00 1.279752e+00 1.495976e+00 1.872913e+00 2.028846e+00 2.194202e+00 1.864747e+00 1.795381e+00 1.603005e+00 1.502343e+00 1.281817e+00 8.007544e-01
<GCONST> 9.527011e+01
<STATE> 4
<MEAN> 25
 4.134175e-01 -1.934971e-01 -1.106848e+00 1.888001e-01 -2.649571e-01 2.954970e-01 -4.367639e-02 4.834567e-01 7.976515e-02 4.840078e-02 2.244595e-02 2.769356e-01 -4.063383e-03 1.820732e-03 1.085826e-02 1.476157e-02 1.156851e-02 1.415489e-03 6.615138e-03 -2.716118e-03 -7.469300e-04 -2.635707e-03 -4.598093e-03 1.159134e-03 -2.736825e-02
<VARIANCE> 25
 5.790884e+01 3.564707e+01 4.579455e+01 3.941366e+01 4.570284e+01 4.710892e+01 5.073762e+01 4.167124e+01 3.465063e+01 2.865281e+01 2.916933e+01 2.338679e+01 1.726092e+00 1.050365e+00 1.276769e+00 1.483203e+00 1.868655e+00 2.050766e+00 2.209006e+00 1.881860e+00 1.796569e+00 1.580293e+00 1.497664e+00 1.297257e+00 8.009175e-01
<GCONST> 9.532213e+01
<TRANSP> 5
 0.000000e+00 1.000000e+00 0.000000e+00 0.000000e+00 0.000000e+00
 0.000000e+00 7.753647e-01 2.246353e-01 0.000000e+00 0.000000e+00
 0.000000e+00 0.000000e+00 7.753642e-01 2.246358e-01 0.000000e+00
 0.000000e+00 0.000000e+00 0.000000e+00 9.060361e-01 9.396388e-02
 0.000000e+00 0.000000e+00 0.000000e+00 0.000000e+00 0.000000e+00
<ENDHMM>
~h "g"
<BEGINHMM>
<NUMSTATES> 5
<STATE> 2
<MEAN> 25
 -1.189130e-01 9.333835e-01 8.238776e-01 -6.151934e-02 -6.751002e-01 -5.442488e-01 -1.022740e+00 -4.772303e-01 -4.884754e-01 -4.184271e-01 7.211004e-01 -3.466722e-01 2.629679e-03 -2.001864e-04 -1.048408e-02 1.435273e-03 -8.875087e-03 -1.035650e-02 5.200168e-03 7.970156e-03 1.072171e-03 3.279022e-03 -6.156916e-03 4.122167e-03 -4.697681e-03
<VARIANCE> 25
 5.417614e+01 3.829730e+01 4.486128e+01 3.026412e+01 4.888515e+01 4.644928e+01 5.080564e+01 4.989796e+01 3.342458e+01 3.030465e+01 3.482354e+01 2.809172e+01 1.375142e+00 9.888396e-01 1.359225e+00 1.438433e+00 2.065095e+00 2.200766e+00 2.265314e+00 2.339231e+00 1.833608e+00 1.673611e+00 1.652714e+00 1.470951e+00 9.040647e-01
<GCONST> 9.623833e+01
<STATE> 3
<MEAN> 25
 -9.934323e-02 9.356962e-01 7.659574e-01 -5.406268e-02 -7.061671e-01 -5.824738e-01 -9.962909e-01 -4.366743e-01 -4.869792e-01 -4.020905e-01 6.866680e-01 -3.321916e-01 3.125547e-03 -1.755676e-03 -1.434483e-02 1.701144e-03 -5.432298e-03 -7.051573e-03 6.458365e-03 9.730442e-03 1.979471e-03 4.624008e-03 -9.593240e-03 3.104717e-03 -4.855773e-03
<VARIANCE> 25
 5.475060e+01 3.791434e+01 4.504156e+01 3.033160e+01 4.856195e+01 4.592500e+01 5.065613e+01 5.045491e+01 3.371492e+01 3.008135e+01 3.465839e+01 2.783372e+01 1.394039e+00 9.872494e-01 1.366157e+00 1.437471e+00 2.069531e+00 2.185572e+00 2.272260e+00 2.351199e+00 1.840375e+00 1.661258e+00 1.660843e+00 1.470460e+00 8.938737e-01
<GCONST> 9.623187e+01
<STATE> 4
<MEAN> 25
 2.945404e-02 1.095545e+00 7.100090e-01 -2.509605e-02 -8.509080e-01 -6.486140e-01 -1.062809e+00 -4.363767e-01 -5.994174e-01 -4.551265e-01 6.296052e-01 -3.814003e-01 5.322389e-03 -8.512756e-04 -1.927206e-02 1.709202e-03 -9.736619e-04 -4.843695e-03 5.855050e-03 1.129611e-02 -3.303514e-03 4.595014e-03 -1.319038e-02 3.007497e-03 -4.730229e-03
<VARIANCE> 25
 5.466531e+01 3.728896e+01 4.564046e+01 3.094406e+01 4.859199e+01 4.587554e+01 5.078621e+01 5.089812e+01 3.406783e+01 2.978181e+01 3.461722e+01 2.748841e+01 1.424796e+00 9.919202e-01 1.373241e+00 1.446612e+00 2.094733e+00 2.195389e+00 2.308932e+00 2.356321e+00 1.857319e+00 1.642599e+00 1.664731e+00 1.464885e+00 8.683753e-01
<GCONST> 9.628475e+01
<TRANSP> 5
 0.000000e+00 1.000000e+00 0.000000e+00 0.000000e+00 0.000000e+00
 0.000000e+00 7.744804e-01 2.255196e-01 0.000000e+00 0.000000e+00
 0.000000e+00 0.000000e+00 7.744809e-01 2.255192e-01 0.000000e+00
 0.000000e+00 0.000000e+00 0.000000e+00 9.043658e-01 9.563420e-02
 0.000000e+00 0.000000e+00 0.000000e+00 0.000000e+00 0.000000e+00
<ENDHMM>
~h "k"
<BEGINHMM>
<NUMSTATES> 5
<STATE> 2
<MEAN> 25
 4.920325e-01 3.701017e-01 -1.471125e-01 -1.237142e-01 -4.792341e-01 -5.787943e-01 3.636569e-02 5.315921e-01 -3.549630e-01 2.359291e-01 -1.013670e-01 1.672405e-02 7.254016e-04 2.685095e-03 -2.094007e-03 7.188835e-03 2.865748e-03 2.856446e-03 2.843910e-03 -9.149531e-03 -1.182581e-02 -5.879696e-04 1.219280e-03 -1.252396e-03 -9.328005e-03
<VARIANCE> 25
 5.786546e+01 3.828720e+01 4.796806e+01 3.347686e+01 4.661473e+01 4.578653e+01 5.423565e+01 4.858562e+01 3.600496e+01 2.715322e+01 3.191064e+01 2.265219e+01 1.847143e+00 1.291781e+00 1.642264e+00 1.670712e+00 2.212031e+00 2.351023e+00 2.481800e+00 2.482455e+00 2.124421e+00 1.801303e+00 1.661344e+00 1.457635e+00 1.180761e+00
<GCONST> 9.778107e+01
<STATE> 3
<MEAN> 25
 4.958865e-01 3.767248e-01 -1.584629e-01 -9.598400e-02 -4.614272e-01 -5.581431e-01 5.338381e-02 4.920699e-01 -4.020185e-01 2.325728e-01 -9.758616e-02 1.156881e-02 1.291256e-03 1.337526e-03 -2.734991e-03 6.247607e-03 4.249950e-03 5.606691e-03 3.166649e-03 -9.387637e-03 -1.023885e-02 -1.534314e-03 8.517453e-04 -1.051141e-03 -9.428648e-03
<VARIANCE> 25
 5.748381e+01 3.816943e+01 4.798637e+01 3.363493e+01 4.622658e+01 4.572979e+01 5.428033e+01 4.862019e+01 3.572750e+01 2.723600e+01 3.223951e+01 2.263315e+01 1.839667e+00 1.289325e+00 1.643336e+00 1.678431e+00 2.206361e+00 2.352097e+00 2.475464e+00 2.478430e+00 2.121624e+00 1.800047e+00 1.675817e+00 1.461551e+00 1.182527e+00
<GCONST> 9.777697e+01
<STATE> 4
<MEAN> 25
 5.562840e-01 4.225710e-01 -1.903028e-01 -9.470489e-02 -4.423548e-01 -5.540784e-01 3.065420e-02 4.425161e-01 -4.985987e-01 1.977880e-01 -1.412683e-01 -1.331659e-03 1.087346e-03 -1.629402e-03 -2.032850e-03 4.214191e-03 7.308405e-03 1.042314e-02 4.974185e-03 -8.927149e-03 -8.109000e-03 -2.454882e-03 -1.598353e-03 -1.970205e-03 -1.023921e-02
<VARIANCE> 25
 5.674867e+01 3.804736e+01 4.833677e+01 3.416149e+01 4.618795e+01 4.639031e+01 5.505204e+01 4.877675e+01 3.557344e+01 2.752200e+01 3.319041e+01 2.269963e+01 1.832095e+00 1.275687e+00 1.622740e+00 1.687260e+00 2.185651e+00 2.366238e+00 2.478139e+00 2.456963e+00 2.114195e+00 1.793156e+00 1.698608e+00 1.457418e+00 1.178291e+00
<GCONST> 9.781922e+01
<TRANSP> 5
 0.000000e+00 1.000000e+00 0.000000e+00 0.000000e+00 0.000000e+00
 0.000000e+00 7.706838e-01 2.293162e-01 0.000000e+00 0.000000e+00
 0.000000e+00 0.000000e+00 7.706841e-01 2.293160e-01 0.000000e+00
 0.000000e+00 0.000000e+00 0.000000e+00 9.003620e-01 9.963808e-02
 0.000000e+00 0.000000e+00 0.000000e+00 0.000000e+00 0.000000e+00
<ENDHMM>
~h "l"
<BEGINHMM>
<NUMSTATES> 5
<STATE> 2
<MEAN> 25
 1.418432e+00 1.359950e+00 -3.805706e-01 -1.213798e+00 -6.876431e-01 2.117054e-01 -8.469586e-01 -1.126164e-01 -8.358418e-01 3.962840e-01 -1.580979e-01 -4.436729e-01 -1.100357e-02 6.975351e-03 6.812778e-03 1.095135e-02 3.169395e-03 -4.464514e-03 4.531533e-03 -1.908212e-03 -1.687217e-03 3.227393e-03 7.017100e-03 3.401496e-04 -1.822763e-02
<VARIANCE> 25
 5.363052e+01 3.555981e+01 4.709415e+01 4.654980e+01 4.511338e+01 4.260693e+01 5.117632e+01 4.128316e+01 3.403143e+01 2.929160e+01 3.426958e+01 2.338441e+01 1.506608e+00 1.036682e+00 1.312486e+00 1.731051e+00 1.986747e+00 2.063275e+00 2.271809e+00 2.079368e+00 1.828640e+00 1.646014e+00 1.653308e+00 1.366885e+00 8.456290e-01
<GCONST> 9.598032e+01
<STATE> 3
<MEAN> 25
 1.365417e+00 1.382063e+00 -3.545572e-01 -1.166878e+00 -6.710117e-01 1.973273e-01 -8.197268e-01 -1.217544e-01 -8.410523e-01 4.109956e-01 -1.258995e-01 -4.406261e-01 -1.366055e-02 4.252112e-03 5.414113e-03 1.094864e-02 4.340313e-03 -3.889908e-03 6.952717e-03 -2.864474e-03 -1.105572e-03 3.347387e-03 7.179563e-03 1.038551e-03 -1.924162e-02
<VARIANCE> 25
 5.375411e+01 3.542797e+01 4.709990e+01 4.653763e+01 4.536551e+01 4.262364e+01 5.143752e+01 4.120249e+01 3.396930e+01 2.922113e+01 3.445622e+01 2.350071e+01 1.500749e+00 1.037398e+00 1.315037e+00 1.726547e+00 1.990682e+00 2.068169e+00 2.280057e+00 2.085718e+00 1.829142e+00 1.651470e+00 1.653958e+00 1.364927e+00 8.464075e-01
<GCONST> 9.600463e+01
<STATE> 4
<MEAN> 25
 1.320256e+00 1.435400e+00 -3.446522e-01 -1.158657e+00 -6.930416e-01 1.792571e-01 -7.930887e-01 -1.624214e-01 -8.964514e-01 4.464191e-01 -9.301570e-02 -4.282598e-01 -1.683221e-02 -3.031984e-03 2.186323e-03 1.109347e-02 6.439759e-03 -1.507204e-03 1.161684e-02 -2.352545e-03 1.409383e-03 2.731560e-03 6.143901e-03 1.833704e-03 -1.944297e-02
<VARIANCE> 25
 5.319796e+01 3.516520e+01 4.687013e+01 4.769730e+01 4.610714e+01 4.285992e+01 5.276884e+01 4.068785e+01 3.446574e+01 2.939177e+01 3.513604e+01 2.362414e+01 1.496044e+00 1.038075e+00 1.301890e+00 1.739462e+00 1.986625e+00 2.075107e+00 2.306648e+00 2.069583e+00 1.829893e+00 1.654550e+00 1.659982e+00 1.353337e+00 8.503927e-01
<GCONST> 9.608848e+01
<TRANSP> 5
 0.000000e+00 1.000000e+00 0.000000e+00 0.000000e+00 0.000000e+00
 0.000000e+00 7.724575e-01 2.275425e-01 0.000000e+00 0.000000e+00
 0.000000e+00 0.000000e+00 7.724585e-01 2.275415e-01 0.000000e+00
 0.000000e+00 0.000000e+00 0.000000e+00 9.026513e-01 9.734874e-02
 0.000000e+00 0.000000e+00 0.000000e+00 0.000000e+00 0.000000e+00
<ENDHMM>
~h "m"
<BEGINHMM>
<NUMSTATES> 5
<STATE> 2
<MEAN> 25
 1.147091e+00 2.387701e-01 5.528571e-01 6.129845e-01 -8.044855e-03 3.500529e-01 -5.263390e-02 4.373889e-02 -7.083965e-01 -2.198314e-01 -2.774000e-01 -1.756800e-01 1.343839e-03 5.675793e-03 7.914612e-03 -5.316942e-04 -1.281019e-02 7.082206e-03 6.699178e-05 -1.172798e-04 -5.431349e-03 1.437450e-02 4.773550e-03 -7.173129e-03 -2.232696e-02
<VARIANCE> 25
 4.619264e+01 2.884259e+01 3.808188e+01 3.604613e+01 3.907956e+01 4.628062e+01 5.220180e+01 4.385128e+01 3.531486e+01 2.694374e+01 3.141486e+01 2.218591e+01 1.323818e+00 8.713709e-01 1.252889e+00 1.525596e+00 1.620810e+00 1.851472e+00 2.013828e+00 2.145253e+00 1.770633e+00 1.483484e+00 1.544427e+00 1.239232e+00 7.827842e-01
<GCONST> 9.373002e+01
<STATE> 3
<MEAN> 25
 1.147762e+00 2.578204e-01 5.901883e-01 6.159059e-01 -5.448560e-02 3.937063e-01 -4.830794e-02 3.823907e-02 -7.307509e-01 -1.569042e-01 -2.497959e-01 -2.068665e-01 -1.499726e-03 4.582483e-03 8.405643e-03 6.313029e-04 -1.058951e-02 8.318553e-03 1.600296e-03 -1.503965e-03 -5.320301e-03 1.412091e-02 8.069205e-03 -7.238759e-03 -2.206899e-02
<VARIANCE> 25
 4.605537e+01 2.886441e+01 3.815670e+01 3.611283e+01 3.880419e+01 4.638135e+01 5.276617e+01 4.415745e+01 3.508676e+01 2.696221e+01 3.123892e+01 2.235172e+01 1.310518e+00 8.726321e-01 1.251501e+00 1.531546e+00 1.624630e+00 1.841057e+00 2.001037e+00 2.155122e+00 1.774224e+00 1.491004e+00 1.540957e+00 1.249176e+00 7.862821e-01
<GCONST> 9.374681e+01
<STATE> 4
<MEAN> 25
 1.218505e+00 2.963821e-01 6.765452e-01 6.058141e-01 -1.388790e-01 4.820956e-01 -9.242551e-02 1.068534e-02 -8.489686e-01 -4.255527e-02 -1.892294e-01 -3.060361e-01 -5.393399e-03 1.472687e-03 8.451875e-03 3.684775e-03 -5.506972e-03 1.153772e-02 4.293283e-03 -5.022174e-03 -3.821264e-03 1.186001e-02 1.158649e-02 -6.417655e-03 -2.063371e-02
<VARIANCE> 25
 4.542052e+01 2.870826e+01 3.847453e+01 3.710913e+01 3.836183e+01 4.651740e+01 5.459312e+01 4.435069e+01 3.493589e+01 2.689444e+01 3.117878e+01 2.299773e+01 1.274021e+00 8.676541e-01 1.237733e+00 1.540267e+00 1.619850e+00 1.827896e+00 1.987442e+00 2.149774e+00 1.778299e+00 1.491452e+00 1.527470e+00 1.262430e+00 7.790619e-01
<GCONST> 9.374900e+01
<TRANSP> 5
 0.000000e+00 1.000000e+00 0.000000e+00 0.000000e+00 0.000000e+00
 0.000000e+00 7.744644e-01 2.255355e-01 0.000000e+00 0.000000e+00
 0.000000e+00 0.000000e+00 7.744648e-01 2.255352e-01 0.000000e+00
 0.000000e+00 0.000000e+00 0.000000e+00 9.042704e-01 9.572965e-02
 0.000000e+00 0.000000e+00 0.000000e+00 0.000000e+00 0.000000e+00
<ENDHMM>
~h "n"
<BEGINHMM>
<NUMSTATES> 5
<STATE> 2
<MEAN> 25
 4.837074e-01 3.259175e-01 4.540218e-01 9.669937e-03 -6.395075e-02 2.754084e-02 -1.354128e-01 -1.144651e-01 -3.378406e-01 -5.477957e-01 -3.540836e-01 -2.026656e-01 5.430068e-03 2.368943e-03 -5.006199e-03 1.063394e-03 2.033514e-03 1.111877e-03 -1.124837e-03 -4.822432e-04 -3.990140e-03 7.632926e-03 -2.584371e-03 1.463371e-03 -1.209171e-02
<VARIANCE> 25
 5.316903e+01 3.525426e+01 4.042899e+01 3.298291e+01 4.192475e+01 4.426272e+01 4.769984e+01 4.656183e+01 3.108496e+01 2.795946e+01 3.464361e+01 2.288066e+01 1.505362e+00 1.040687e+00 1.264184e+00 1.494221e+00 1.894989e+00 2.104800e+00 2.147579e+00 2.277766e+00 1.741801e+00 1.677034e+00 1.642740e+00 1.359739e+00 9.361965e-01
<GCONST> 9.521873e+01
<STATE> 3
<MEAN> 25
 5.121419e-01 3.358278e-01 4.301201e-01 1.457655e-02 -5.623059e-02 3.009492e-02 -1.416163e-01 -1.138960e-01 -3.568709e-01 -5.132292e-01 -3.649628e-01 -1.948954e-01 7.815288e-03 1.767854e-03 -5.149039e-03 1.134822e-03 1.314473e-03 1.199785e-03 -2.051910e-03 -3.360584e-05 -4.983235e-03 8.075087e-03 -2.702221e-03 1.503454e-03 -1.177513e-02
<VARIANCE> 25
 5.277973e+01 3.485973e+01 4.041663e+01 3.296866e+01 4.196085e+01 4.438177e+01 4.763101e+01 4.636234e+01 3.092240e+01 2.787887e+01 3.477818e+01 2.284123e+01 1.509287e+00 1.041629e+00 1.269772e+00 1.493988e+00 1.898204e+00 2.103229e+00 2.145847e+00 2.274507e+00 1.736694e+00 1.671822e+00 1.642943e+00 1.359620e+00 9.343927e-01
<GCONST> 9.518977e+01
<STATE> 4
<MEAN> 25
 6.470238e-01 3.709743e-01 3.895843e-01 2.822830e-02 -8.935043e-02 -3.156913e-02 -2.183134e-01 -1.087538e-01 -4.347514e-01 -4.934237e-01 -4.215068e-01 -1.967466e-01 9.417018e-03 1.732805e-04 -6.769112e-03 7.724878e-04 1.254776e-04 6.304427e-04 -2.318565e-03 1.513346e-03 -4.948515e-03 8.848361e-03 -3.102656e-03 2.135625e-03 -1.076906e-02
<VARIANCE> 25
 5.158308e+01 3.385764e+01 4.050574e+01 3.355405e+01 4.195677e+01 4.498423e+01 4.846620e+01 4.595220e+01 3.086208e+01 2.787852e+01 3.536081e+01 2.294987e+01 1.496504e+00 1.029461e+00 1.262670e+00 1.492744e+00 1.883362e+00 2.094347e+00 2.151700e+00 2.258873e+00 1.721146e+00 1.648709e+00 1.637495e+00 1.354085e+00 9.209751e-01
<GCONST> 9.511100e+01
<TRANSP> 5
 0.000000e+00 1.000000e+00 0.000000e+00 0.000000e+00 0.000000e+00
 0.000000e+00 7.723637e-01 2.276363e-01 0.000000e+00 0.000000e+00
 0.000000e+00 0.000000e+00 7.723628e-01 2.276371e-01 0.000000e+00
 0.000000e+00 0.000000e+00 0.000000e+00 9.023942e-01 9.760581e-02
 0.000000e+00 0.000000e+00 0.000000e+00 0.000000e+00 0.000000e+00
<ENDHMM>
~h "p"
<BEGINHMM>
<NUMSTATES> 5
<STATE> 2
<MEAN> 25
 3.223375e-01 6.398484e-01 -7.770971e-01 -4.142209e-01 -1.393131e-01 -1.823217e-01 2.746600e-02 1.071537e-01 -1.913993e-01 3.504542e-01 -1.084766e-01 2.154232e-01 1.842914e-03 -1.529586e-02 -7.513047e-03 -1.707152e-03 3.176879e-03 1.759291e-02 1.789373e-02 -6.577803e-05 3.238095e-03 1.284248e-02 4.934822e-04 5.602018e-03 -2.306416e-02
<VARIANCE> 25
 5.794024e+01 3.814186e+01 4.360991e+01 3.677079e+01 4.536010e+01 4.230378e+01 5.170496e+01 4.214235e+01 3.503416e+01 2.770425e+01 2.958058e+01 2.334677e+01 1.839671e+00 1.254340e+00 1.455400e+00 1.606794e+00 2.065947e+00 2.163980e+00 2.441859e+00 2.244284e+00 1.930044e+00 1.706834e+00 1.668371e+00 1.419694e+00 1.155090e+00
<GCONST> 9.677229e+01
<STATE> 3
<MEAN> 25
 3.352365e-01 5.645736e-01 -8.105308e-01 -4.169780e-01 -1.233634e-01 -9.742036e-02 1.080741e-01 1.077630e-01 -1.755420e-01 4.085191e-01 -1.046986e-01 2.395338e-01 3.894866e-03 -1.787245e-02 -5.926827e-03 -1.139262e-03 2.699701e-03 1.849215e-02 1.716124e-02 -4.011572e-04 2.759051e-03 1.282544e-02 1.003875e-03 4.359806e-03 -2.295191e-02
<VARIANCE> 25
 5.756304e+01 3.792770e+01 4.334193e+01 3.684856e+01 4.494641e+01 4.222742e+01 5.127314e+01 4.193510e+01 3.505138e+01 2.760032e+01 2.952445e+01 2.311189e+01 1.834429e+00 1.253879e+00 1.453268e+00 1.608563e+00 2.055840e+00 2.163219e+00 2.439751e+00 2.235004e+00 1.941866e+00 1.709704e+00 1.674742e+00 1.416061e+00 1.152066e+00
<GCONST> 9.670910e+01
<STATE> 4
<MEAN> 25
 4.630702e-01 4.347017e-01 -9.005865e-01 -4.460282e-01 -1.397271e-01 1.153236e-01 2.200532e-01 1.136853e-01 -1.962807e-01 5.382951e-01 -7.963572e-02 2.293649e-01 7.431509e-03 -1.973435e-02 -4.142046e-03 1.145626e-03 5.080686e-04 1.819627e-02 1.428902e-02 -8.692573e-04 1.754469e-03 1.126651e-02 6.100149e-04 3.364251e-03 -2.122341e-02
<VARIANCE> 25
 5.642841e+01 3.718219e+01 4.259615e+01 3.796198e+01 4.418762e+01 4.259526e+01 5.159484e+01 4.126669e+01 3.522129e+01 2.747551e+01 2.980786e+01 2.262373e+01 1.792439e+00 1.234424e+00 1.419511e+00 1.608689e+00 2.003602e+00 2.168164e+00 2.470508e+00 2.189907e+00 1.967029e+00 1.711132e+00 1.685109e+00 1.396663e+00 1.137577e+00
<GCONST> 9.655197e+01
<TRANSP> 5
 0.000000e+00 1.000000e+00 0.000000e+00 0.000000e+00 0.000000e+00
 0.000000e+00 7.709639e-01 2.290360e-01 0.000000e+00 0.000000e+00
 0.000000e+00 0.000000e+00 7.709628e-01 2.290372e-01 0.000000e+00
 0.000000e+00 0.000000e+00 0.000000e+00 9.009131e-01 9.908691e-02
 0.000000e+00 0.000000e+00 0.000000e+00 0.000000e+00 0.000000e+00
<ENDHMM>
~h "r"
<BEGINHMM>
<NUMSTATES> 5
<STATE> 2
<MEAN> 25
 1.202454e+00 4.255813e-02 -3.218685e-01 2.612165e-01 -7.231871e-01 -9.767603e-01 -6.346126e-01 7.598566e-01 -6.769420e-02 4.027570e-02 -1.136168e-01 2.960838e-01 -3.460248e-03 1.077634e-02 5.896088e-03 2.579820e-03 2.440874e-03 -2.422057e-03 8.842222e-03 1.432468e-03 -4.767127e-03 6.012464e-03 -3.237621e-03 1.344045e-03 -1.446777e-02
<VARIANCE> 25
 6.353006e+01 3.480715e+01 4.563697e+01 3.330446e+01 4.282759e+01 4.934873e+01 5.233443e+01 4.794448e+01 3.516396e+01 2.618027e+01 2.979534e+01 2.244879e+01 1.740541e+00 1.061761e+00 1.407052e+00 1.511443e+00 1.886273e+00 2.310412e+00 2.337278e+00 2.206746e+00 1.837795e+00 1.531972e+00 1.546013e+00 1.340747e+00 9.030231e-01
<GCONST> 9.593232e+01
<STATE> 3
<MEAN> 25
 1.176358e+00 8.581616e-02 -2.988814e-01 2.731235e-01 -7.022488e-01 -9.769204e-01 -5.914319e-01 7.584953e-01 -8.410917e-02 6.500083e-02 -1.264877e-01 3.009604e-01 -4.652957e-03 9.252426e-03 4.519138e-03 2.277934e-03 4.724531e-03 -2.458067e-04 9.780004e-03 -3.195318e-04 -3.691498e-03 5.260497e-03 -3.586588e-03 8.921652e-04 -1.560508e-02
<VARIANCE> 25
 6.360799e+01 3.455805e+01 4.549968e+01 3.325104e+01 4.310908e+01 4.968982e+01 5.279212e+01 4.796059e+01 3.515362e+01 2.617585e+01 2.981578e+01 2.240099e+01 1.749630e+00 1.060726e+00 1.407955e+00 1.509229e+00 1.887714e+00 2.308853e+00 2.340341e+00 2.214844e+00 1.849342e+00 1.534566e+00 1.551887e+00 1.345193e+00 9.006798e-01
<GCONST> 9.596326e+01
<STATE> 4
<MEAN> 25
 1.123882e+00 1.773795e-01 -3.185280e-01 2.839611e-01 -6.450700e-01 -9.625037e-01 -5.194210e-01 7.382430e-01 -7.656691e-02 1.139296e-01 -1.575511e-01 3.217072e-01 -9.866233e-03 5.406697e-03 3.334158e-03 1.999368e-03 9.863421e-03 5.578114e-03 1.157613e-02 -5.193287e-03 -1.265218e-03 4.447392e-03 -2.583535e-03 -3.878340e-04 -1.840061e-02
<VARIANCE> 25
 6.393897e+01 3.411806e+01 4.566571e+01 3.325055e+01 4.382393e+01 5.047617e+01 5.432345e+01 4.787249e+01 3.539418e+01 2.638820e+01 3.008719e+01 2.251488e+01 1.744307e+00 1.055691e+00 1.393415e+00 1.494722e+00 1.872918e+00 2.287606e+00 2.350209e+00 2.207548e+00 1.855464e+00 1.535524e+00 1.562181e+00 1.345555e+00 8.851987e-01
<GCONST> 9.599662e+01
<TRANSP> 5
 0.000000e+00 1.000000e+00 0.000000e+00 0.000000e+00 0.000000e+00
 0.000000e+00 7.725809e-01 2.274191e-01 0.000000e+00 0.000000e+00
 0.000000e+00 0.000000e+00 7.725807e-01 2.274193e-01 0.000000e+00
 0.000000e+00 0.000000e+00 0.000000e+00 9.022750e-01 9.772503e-02
 0.000000e+00 0.000000e+00 0.000000e+00 0.000000e+00 0.000000e+00
<ENDHMM>
~h "s"
<BEGINHMM>
<NUMSTATES> 5
<STATE> 2
<MEAN> 25
 -1.154589e+00 1.280187e+00 -1.273301e+00 6.693017e-02 3.406872e-01 -9.108365e-01 8.884484e-01 1.596495e-01 4.588957e-01 4.900512e-01 -2.784684e-01 4.696114e-01 1.862904e-02 -5.668113e-03 1.144995e-02 -4.021361e-03 -9.598617e-03 1.056913e-02 -9.826676e-03 -4.134639e-03 -9.443496e-03 2.444486e-03 4.771687e-04 -7.028738e-04 -1.909092e-02
<VARIANCE> 25
 7.828118e+01 3.578085e+01 4.780860e+01 3.528173e+01 4.885166e+01 4.570270e+01 5.327778e+01 4.504172e+01 3.589192e+01 2.606943e+01 3.123253e+01 2.250199e+01 2.314989e+00 1.216423e+00 1.570226e+00 1.587043e+00 2.149397e+00 2.247957e+00 2.465110e+00 2.319748e+00 1.900451e+00 1.687509e+00 1.687654e+00 1.414328e+00 1.009849e+00
<GCONST> 9.751807e+01
<STATE> 3
<MEAN> 25
 -1.074455e+00 1.250348e+00 -1.224095e+00 4.768500e-02 3.031400e-01 -8.590666e-01 8.483015e-01 1.455733e-01 4.172685e-01 5.014024e-01 -2.772155e-01 4.670943e-01 1.877427e-02 -7.710261e-03 1.175227e-02 -3.771823e-03 -9.059149e-03 1.235845e-02 -1.076816e-02 -3.384875e-03 -1.011149e-02 1.841205e-03 4.761461e-04 -1.506764e-03 -2.008167e-02
<VARIANCE> 25
 7.703429e+01 3.562936e+01 4.779845e+01 3.552388e+01 4.834671e+01 4.570971e+01 5.312144e+01 4.478356e+01 3.578912e+01 2.602758e+01 3.112145e+01 2.249288e+01 2.299503e+00 1.208730e+00 1.564789e+00 1.585992e+00 2.133524e+00 2.237550e+00 2.450893e+00 2.313009e+00 1.899958e+00 1.683990e+00 1.681673e+00 1.407005e+00 1.004698e+00
<GCONST> 9.742288e+01
<STATE> 4
<MEAN> 25
 -8.877706e-01 1.250684e+00 -1.168104e+00 -1.824767e-02 2.215991e-01 -7.830372e-01 7.702282e-01 1.579116e-01 3.051249e-01 5.311364e-01 -3.056315e-01 4.299172e-01 1.699369e-02 -1.169252e-02 1.087732e-02 -3.628899e-03 -5.069990e-03 1.541770e-02 -8.609474e-03 -2.319833e-03 -9.499099e-03 1.300842e-03 1.576943e-04 -2.100556e-03 -2.069878e-02
<VARIANCE> 25
 7.548731e+01 3.532958e+01 4.814620e+01 3.698887e+01 4.818226e+01 4.582609e+01 5.361179e+01 4.434525e+01 3.604878e+01 2.621838e+01 3.144052e+01 2.248510e+01 2.254389e+00 1.186509e+00 1.529798e+00 1.587739e+00 2.094753e+00 2.216837e+00 2.438586e+00 2.274756e+00 1.888020e+00 1.670618e+00 1.675804e+00 1.385894e+00 9.869885e-01
<GCONST> 9.730478e+01
<TRANSP> 5
 0.000000e+00 1.000000e+00 0.000000e+00 0.000000e+00 0.000000e+00
 0.000000e+00 7.717041e-01 2.282959e-01 0.000000e+00 0.000000e+00
 0.000000e+00 0.000000e+00 7.717041e-01 2.282960e-01 0.000000e+00
 0.000000e+00 0.000000e+00 0.000000e+00 9.017684e-01 9.823166e-02
 0.000000e+00 0.000000e+00 0.000000e+00 0.000000e+00 0.000000e+00
<ENDHMM>
~h "t"
<BEGINHMM>
<NUMSTATES> 5
<STATE> 2
<MEAN> 25
 1.823148e-01 4.109264e-02 -3.512285e-01 -1.610284e-03 6.541178e-02 -3.982296e-02 -4.315254e-02 1.342759e-01 4.690687e-02 3.885502e-02 -1.618077e-01 -4.098516e-02 9.801611e-03 -5.644544e-03 -2.306120e-03 -3.760354e-03 -5.666545e-03 5.444822e-03 -3.225915e-03 2.699063e-03 -3.839880e-03 6.109966e-03 -1.174978e-03 1.908141e-03 -1.466024e-02
<VARIANCE> 25
 5.410839e+01 3.582135e+01 4.043053e+01 3.306052e+01 4.097331e+01 4.486979e+01 5.463664e+01 4.768724e+01 3.394238e+01 2.745944e+01 3.476558e+01 2.341994e+01 1.554873e+00 1.156134e+00 1.378131e+00 1.561296e+00 1.942255e+00 2.302659e+00 2.391102e+00 2.302813e+00 1.825406e+00 1.660794e+00 1.654727e+00 1.398280e+00 1.078982e+00
<GCONST> 9.621655e+01
<STATE> 3
<MEAN> 25
 2.248270e-01 1.813139e-02 -3.549088e-01 -1.509467e-02 3.743548e-02 -1.688189e-02 -5.578669e-02 1.458198e-01 2.953519e-02 6.399540e-02 -1.654775e-01 -3.297574e-02 8.983989e-03 -4.483257e-03 -8.768257e-04 -3.140185e-03 -6.362863e-03 4.956343e-03 -3.318253e-03 3.043663e-03 -4.058740e-03 5.381371e-03 -7.240018e-04 1.822213e-03 -1.440984e-02
<VARIANCE> 25
 5.357751e+01 3.554659e+01 4.028170e+01 3.322537e+01 4.082807e+01 4.506252e+01 5.438816e+01 4.772462e+01 3.387365e+01 2.743536e+01 3.459969e+01 2.323715e+01 1.552494e+00 1.150919e+00 1.371406e+00 1.564753e+00 1.943458e+00 2.301279e+00 2.393166e+00 2.305617e+00 1.826779e+00 1.654333e+00 1.650062e+00 1.397300e+00 1.074139e+00
<GCONST> 9.616392e+01
<STATE> 4
<MEAN> 25
 3.449597e-01 3.634457e-02 -3.434089e-01 -2.140834e-02 -3.027505e-02 -2.957064e-02 -9.809214e-02 1.823685e-01 -2.053231e-02 7.564905e-02 -1.773956e-01 -2.455625e-02 7.607959e-03 -1.206262e-03 2.366350e-03 -2.120490e-03 -8.646857e-03 3.354976e-03 -3.022753e-03 1.999886e-03 -5.034836e-03 3.112895e-03 4.616389e-04 1.332031e-03 -1.340711e-02
<VARIANCE> 25
 5.229948e+01 3.498276e+01 4.037771e+01 3.431312e+01 4.118644e+01 4.625822e+01 5.538350e+01 4.752473e+01 3.405423e+01 2.781393e+01 3.472572e+01 2.310170e+01 1.535230e+00 1.132390e+00 1.346464e+00 1.576754e+00 1.936355e+00 2.311452e+00 2.417340e+00 2.284737e+00 1.830255e+00 1.646479e+00 1.641636e+00 1.388524e+00 1.062315e+00
<GCONST> 9.616225e+01
<TRANSP> 5
 0.000000e+00 1.000000e+00 0.000000e+00 0.000000e+00 0.000000e+00
 0.000000e+00 7.711914e-01 2.288086e-01 0.000000e+00 0.000000e+00
 0.000000e+00 0.000000e+00 7.711909e-01 2.288091e-01 0.000000e+00
 0.000000e+00 0.000000e+00 0.000000e+00 9.011331e-01 9.886696e-02
 0.000000e+00 0.000000e+00 0.000000e+00 0.000000e+00 0.000000e+00
<ENDHMM>
~h "v"
<BEGINHMM>
<NUMSTATES> 5
<STATE> 2
<MEAN> 25
 1.374152e+00 1.584324e-01 -6.452934e-01 -5.264314e-01 -4.197960e-01 -1.791055e-01 5.695916e-01 6.248726e-01 -9.323689e-01 6.092216e-02 -1.094145e+00 -5.098216e-03 1.218039e-02 3.193549e-03 -1.258883e-03 1.202635e-02 -4.059372e-03 -6.312837e-03 3.049005e-04 2.878404e-03 6.033498e-03 9.505979e-04 -4.993736e-03 6.755997e-03 -1.229787e-02
<VARIANCE> 25
 5.217699e+01 3.283614e+01 4.768558e+01 4.674502e+01 4.184494e+01 4.775380e+01 5.044115e+01 4.586572e+01 3.605514e+01 2.916079e+01 3.463140e+01 2.118403e+01 1.747983e+00 1.003521e+00 1.399570e+00 1.831412e+00 1.905288e+00 2.399995e+00 2.323144e+00 2.294352e+00 1.865464e+00 1.727476e+00 1.688030e+00 1.373673e+00 9.125844e-01
<GCONST> 9.662132e+01
<STATE> 3
<MEAN> 25
 1.423328e+00 1.713366e-01 -6.498702e-01 -4.689912e-01 -4.358931e-01 -2.052252e-01 5.639293e-01 6.337110e-01 -9.014949e-01 6.465005e-02 -1.107269e+00 2.505112e-02 8.794252e-03 2.739079e-03 -1.510359e-03 1.280520e-02 -2.412589e-03 -5.182765e-03 6.118463e-05 1.795066e-03 8.000735e-03 8.719800e-04 -2.836715e-03 7.132061e-03 -1.269571e-02
<VARIANCE> 25
 5.179578e+01 3.236864e+01 4.724421e+01 4.684856e+01 4.183897e+01 4.845853e+01 5.030616e+01 4.536324e+01 3.574369e+01 2.923587e+01 3.441127e+01 2.113789e+01 1.740645e+00 1.001030e+00 1.396473e+00 1.823491e+00 1.912634e+00 2.426615e+00 2.324964e+00 2.289742e+00 1.862419e+00 1.724629e+00 1.683196e+00 1.377731e+00 9.136410e-01
<GCONST> 9.657707e+01
<STATE> 4
<MEAN> 25
 1.516940e+00 1.987472e-01 -7.031978e-01 -3.994381e-01 -4.605258e-01 -1.967158e-01 5.609575e-01 6.384990e-01 -8.708348e-01 6.709579e-02 -1.141978e+00 5.538513e-02 3.808109e-03 2.540708e-03 3.904598e-04 1.381967e-02 5.961186e-04 -1.806941e-03 -2.641814e-03 -1.610606e-03 9.759223e-03 8.810342e-04 1.942507e-03 5.379543e-03 -1.363937e-02
<VARIANCE> 25
 5.106684e+01 3.163319e+01 4.658153e+01 4.753027e+01 4.200095e+01 4.954705e+01 5.071514e+01 4.487744e+01 3.573660e+01 2.938052e+01 3.453122e+01 2.117706e+01 1.708957e+00 9.908639e-01 1.373707e+00 1.808149e+00 1.918641e+00 2.444521e+00 2.334426e+00 2.278127e+00 1.852702e+00 1.707224e+00 1.681773e+00 1.377456e+00 9.071761e-01
<GCONST> 9.650619e+01
<TRANSP> 5
 0.000000e+00 1.000000e+00 0.000000e+00 0.000000e+00 0.000000e+00
 0.000000e+00 7.738262e-01 2.261738e-01 0.000000e+00 0.000000e+00
 0.000000e+00 0.000000e+00 7.738264e-01 2.261735e-01 0.000000e+00
 0.000000e+00 0.000000e+00 0.000000e+00 9.040655e-01 9.593441e-02
 0.000000e+00 0.000000e+00 0.000000e+00 0.000000e+00 0.000000e+00
<ENDHMM>
~h "w"
<BEGINHMM>
<NUMSTATES> 5
<STATE> 2
<MEAN> 25
 9.120705e-01 -1.065804e-01 -3.898362e-01 -6.694507e-01 -3.761740e-01 3.468937e-03 -1.789801e-01 -3.571561e-01 -6.080862e-01 6.042625e-02 1.808083e-01 -2.746684e-01 2.824764e-02 2.560900e-02 -6.480145e-03 2.788896e-03 -8.831640e-03 2.266234e-03 -8.397496e-03 4.461163e-03 -1.503601e-02 -4.515200e-03 -1.948575e-03 -7.923366e-03 -1.002715e-02
<VARIANCE> 25
 6.332786e+01 3.794965e+01 4.246714e+01 3.448193e+01 4.704462e+01 4.226365e+01 4.912923e+01 4.485619e+01 3.718789e+01 2.530589e+01 3.115915e+01 2.293537e+01 1.483743e+00 1.028833e+00 1.328929e+00 1.490642e+00 1.951749e+00 2.087016e+00 2.162799e+00 2.174886e+00 1.905407e+00 1.642672e+00 1.586063e+00 1.377509e+00 7.508766e-01
<GCONST> 9.542788e+01
<STATE> 3
<MEAN> 25
 1.024771e+00 7.996018e-03 -4.174794e-01 -6.581156e-01 -4.166124e-01 1.725879e-02 -2.115294e-01 -3.408486e-01 -6.638781e-01 5.000597e-02 1.744220e-01 -3.092225e-01 2.649784e-02 2.605934e-02 -7.964746e-03 2.417029e-03 -9.620037e-03 2.227457e-03 -7.566249e-03 4.723924e-03 -1.215250e-02 -2.897461e-03 -2.561970e-03 -7.800316e-03 -9.395559e-03
<VARIANCE> 25
 6.208451e+01 3.728090e+01 4.252722e+01 3.491190e+01 4.673520e+01 4.237921e+01 4.941806e+01 4.478859e+01 3.707348e+01 2.552402e+01 3.121056e+01 2.306322e+01 1.489229e+00 1.034953e+00 1.330271e+00 1.495687e+00 1.951765e+00 2.085069e+00 2.172753e+00 2.179865e+00 1.912674e+00 1.643224e+00 1.590306e+00 1.379964e+00 7.592722e-01
<GCONST> 9.545695e+01
<STATE> 4
<MEAN> 25
 1.189844e+00 2.418915e-01 -4.731145e-01 -6.977747e-01 -5.044325e-01 2.364364e-02 -2.068210e-01 -2.928618e-01 -7.835497e-01 3.740427e-02 1.419800e-01 -3.777245e-01 1.898850e-02 2.342350e-02 -9.200565e-03 2.060510e-03 -8.949778e-03 8.081562e-04 -4.861876e-03 6.569372e-03 -8.674005e-03 -1.394273e-03 -3.633900e-03 -7.333358e-03 -9.311046e-03
<VARIANCE> 25
 6.034004e+01 3.645729e+01 4.249113e+01 3.610486e+01 4.653197e+01 4.281254e+01 5.039613e+01 4.485545e+01 3.736904e+01 2.637473e+01 3.192588e+01 2.357239e+01 1.495926e+00 1.045757e+00 1.325011e+00 1.510839e+00 1.980055e+00 2.098547e+00 2.210207e+00 2.184907e+00 1.926409e+00 1.652656e+00 1.601678e+00 1.379803e+00 7.699022e-01
<GCONST> 9.564598e+01
<TRANSP> 5
 0.000000e+00 1.000000e+00 0.000000e+00 0.000000e+00 0.000000e+00
 0.000000e+00 7.714425e-01 2.285576e-01 0.000000e+00 0.000000e+00
 0.000000e+00 0.000000e+00 7.714424e-01 2.285577e-01 0.000000e+00
 0.000000e+00 0.000000e+00 0.000000e+00 9.010230e-01 9.897707e-02
 0.000000e+00 0.000000e+00 0.000000e+00 0.000000e+00 0.000000e+00
<ENDHMM>
~h "y"
<BEGINHMM>
<NUMSTATES> 5
<STATE> 2
<MEAN> 25
 7.402686e-02 5.357309e-01 8.526036e-01 6.591443e-01 -6.856931e-01 -3.243335e-01 -5.145612e-01 -3.719931e-01 -4.019686e-01 -6.557842e-01 5.803636e-01 -5.411136e-01 1.922878e-02 9.479079e-03 2.615680e-02 2.561534e-02 -4.395996e-03 -5.915139e-03 -2.973760e-03 3.122961e-03 -1.586335e-02 -1.753338e-02 -6.230996e-03 -8.993865e-03 6.724652e-04
<VARIANCE> 25
 5.666087e+01 4.301056e+01 4.445424e+01 2.787605e+01 4.888730e+01 4.668873e+01 5.567059e+01 4.452714e+01 3.430464e+01 2.850130e+01 3.300755e+01 2.753494e+01 1.518515e+00 1.133448e+00 1.435189e+00 1.445075e+00 1.937196e+00 2.051279e+00 2.470340e+00 2.346075e+00 1.929596e+00 1.648623e+00 1.714587e+00 1.538841e+00 8.464198e-01
<GCONST> 9.648364e+01
<STATE> 3
<MEAN> 25
 1.559298e-01 5.888317e-01 9.705962e-01 7.795375e-01 -7.075571e-01 -3.584616e-01 -5.342254e-01 -3.594078e-01 -4.736908e-01 -7.253003e-01 5.502239e-01 -5.779026e-01 1.869646e-02 1.050804e-02 2.893961e-02 2.866861e-02 -4.273778e-03 -4.680007e-03 -2.438027e-03 1.889037e-03 -1.606381e-02 -1.481601e-02 -8.320905e-03 -7.454725e-03 -2.019283e-03
<VARIANCE> 25
 5.541821e+01 4.182261e+01 4.503936e+01 2.760221e+01 4.883614e+01 4.710315e+01 5.562387e+01 4.471769e+01 3.402106e+01 2.865076e+01 3.288235e+01 2.726397e+01 1.501489e+00 1.131150e+00 1.437931e+00 1.435143e+00 1.945684e+00 2.051210e+00 2.465365e+00 2.331180e+00 1.906500e+00 1.641535e+00 1.716071e+00 1.523985e+00 8.323948e-01
<GCONST> 9.636689e+01
<STATE> 4
<MEAN> 25
 4.086308e-01 8.388975e-01 1.144896e+00 1.034359e+00 -8.647020e-01 -5.885944e-01 -8.076497e-01 -3.903043e-01 -7.145935e-01 -9.323885e-01 4.696174e-01 -7.470813e-01 1.511671e-02 1.465840e-02 3.097877e-02 3.266218e-02 -4.884783e-03 -6.960608e-03 -5.471159e-03 -1.167933e-03 -1.765219e-02 -1.465528e-02 -6.334075e-03 -6.011365e-03 -6.022002e-03
<VARIANCE> 25
 5.168640e+01 3.919818e+01 4.652945e+01 2.773467e+01 4.950319e+01 4.915773e+01 5.639006e+01 4.466003e+01 3.373232e+01 2.935474e+01 3.261878e+01 2.757210e+01 1.462183e+00 1.135158e+00 1.433279e+00 1.405862e+00 1.964851e+00 2.083246e+00 2.442051e+00 2.256346e+00 1.855617e+00 1.609171e+00 1.688219e+00 1.500175e+00 8.141348e-01
<GCONST> 9.619236e+01
<TRANSP> 5
 0.000000e+00 1.000000e+00 0.000000e+00 0.000000e+00 0.000000e+00
 0.000000e+00 7.747886e-01 2.252114e-01 0.000000e+00 0.000000e+00
 0.000000e+00 0.000000e+00 7.747891e-01 2.252109e-01 0.000000e+00
 0.000000e+00 0.000000e+00 0.000000e+00 9.054275e-01 9.457251e-02
 0.000000e+00 0.000000e+00 0.000000e+00 0.000000e+00 0.000000e+00
<ENDHMM>
~h "z"
<BEGINHMM>
<NUMSTATES> 5
<STATE> 2
<MEAN> 25
 -3.914625e-01 1.687662e+00 -4.055567e-01 -7.072352e-01 3.530011e-02 -7.977481e-01 1.645883e-01 -1.735213e-01 -1.914023e-01 2.622981e-02 -1.698801e-01 -1.935522e-02 2.213981e-02 -1.103754e-02 -1.120401e-02 3.771666e-03 -2.855070e-03 1.196256e-02 9.272426e-03 7.278898e-03 3.754654e-03 1.711806e-03 -9.673666e-03 3.268861e-03 -1.844927e-02
<VARIANCE> 25
 7.751698e+01 4.156070e+01 4.963724e+01 3.605477e+01 5.035658e+01 4.199603e+01 5.608508e+01 4.763033e+01 3.537258e+01 3.063617e+01 3.339197e+01 2.504370e+01 1.942948e+00 1.159842e+00 1.448127e+00 1.579334e+00 2.090016e+00 2.084844e+00 2.305494e+00 2.270428e+00 1.854355e+00 1.670990e+00 1.585515e+00 1.425010e+00 9.105334e-01
<GCONST> 9.739766e+01
<STATE> 3
<MEAN> 25
 -2.974882e-01 1.637148e+00 -4.506246e-01 -6.870912e-01 2.432776e-02 -7.523349e-01 2.034861e-01 -1.462207e-01 -1.734993e-01 3.438539e-02 -2.151366e-01 -3.528599e-03 2.231200e-02 -1.278175e-02 -9.743241e-03 5.294710e-03 -4.314872e-03 1.213682e-02 7.520576e-03 7.338146e-03 3.564277e-03 1.911612e-03 -1.015775e-02 3.724274e-03 -1.828798e-02
<VARIANCE> 25
 7.598502e+01 4.118800e+01 4.949054e+01 3.636052e+01 4.957990e+01 4.211089e+01 5.611784e+01 4.750450e+01 3.508126e+01 3.096754e+01 3.337622e+01 2.488624e+01 1.938539e+00 1.157120e+00 1.452770e+00 1.577676e+00 2.087674e+00 2.081744e+00 2.303209e+00 2.263232e+00 1.848128e+00 1.678990e+00 1.590153e+00 1.422660e+00 9.096910e-01
<GCONST> 9.734755e+01
<STATE> 4
<MEAN> 25
 -1.993377e-01 1.600134e+00 -5.705287e-01 -6.557391e-01 2.677156e-02 -7.857680e-01 2.455776e-01 -1.007619e-01 -1.341379e-01 2.178193e-02 -3.413264e-01 4.165191e-02 1.907199e-02 -1.370838e-02 -7.520439e-03 7.241440e-03 -4.886757e-03 1.014526e-02 3.481602e-03 4.929973e-03 3.285825e-03 2.761995e-03 -8.976712e-03 2.926888e-03 -1.664642e-02
<VARIANCE> 25
 7.459586e+01 4.061899e+01 4.964262e+01 3.705043e+01 4.905992e+01 4.287101e+01 5.748415e+01 4.731644e+01 3.491321e+01 3.165911e+01 3.393531e+01 2.462121e+01 1.942594e+00 1.145194e+00 1.445552e+00 1.577323e+00 2.072574e+00 2.087714e+00 2.317210e+00 2.232787e+00 1.828642e+00 1.691766e+00 1.605475e+00 1.408890e+00 9.022681e-01
<GCONST> 9.735095e+01
<TRANSP> 5
 0.000000e+00 1.000000e+00 0.000000e+00 0.000000e+00 0.000000e+00
 0.000000e+00 7.738812e-01 2.261188e-01 0.000000e+00 0.000000e+00
 0.000000e+00 0.000000e+00 7.738814e-01 2.261186e-01 0.000000e+00
 0.000000e+00 0.000000e+00 0.000000e+00 9.038940e-01 9.610604e-02
 0.000000e+00 0.000000e+00 0.000000e+00 0.000000e+00 0.000000e+00
<ENDHMM>
~h "aa"
<BEGINHMM>
<NUMSTATES> 5
<STATE> 2
<MEAN> 25
 1.216855e+00 8.648745e-01 -1.106103e+00 -1.047790e+00 -1.399835e-01 -3.349731e-01 -3.908639e-01 -1.290169e-02 -6.663465e-01 -3.956156e-03 -8.109068e-01 -2.987196e-01 2.766767e-02 1.630513e-02 -2.394523e-02 -1.080979e-02 -1.189810e-02 -1.528735e-03 -2.648857e-04 1.408332e-02 -1.255258e-02 7.579073e-03 -1.095131e-02 -4.102734e-03 -9.035822e-03
<VARIANCE> 25
 6.536163e+01 3.500347e+01 4.693254e+01 4.140485e+01 4.271236e+01 4.564802e+01 5.272382e+01 4.472277e+01 3.536264e+01 2.966369e+01 3.297629e+01 2.209799e+01 1.819736e+00 1.090130e+00 1.418278e+00 1.688096e+00 1.955000e+00 2.298980e+00 2.409047e+00 2.292418e+00 1.870869e+00 1.720342e+00 1.658193e+00 1.358452e+00 9.557808e-01
<GCONST> 9.684777e+01
<STATE> 3
<MEAN> 25
 1.322893e+00 9.230678e-01 -1.219091e+00 -1.096875e+00 -1.810725e-01 -3.384399e-01 -3.805998e-01 5.569475e-02 -7.107102e-01 3.853141e-02 -8.620673e-01 -3.096301e-01 2.328161e-02 1.167162e-02 -2.555045e-02 -1.009797e-02 -8.155640e-03 3.358836e-04 3.646450e-03 1.615744e-02 -9.349570e-03 9.908416e-03 -1.104142e-02 -2.029729e-03 -1.000897e-02
<VARIANCE> 25
 6.532635e+01 3.447707e+01 4.685431e+01 4.170378e+01 4.289883e+01 4.595793e+01 5.293499e+01 4.445180e+01 3.503915e+01 2.968749e+01 3.289439e+01 2.191372e+01 1.827541e+00 1.089021e+00 1.423629e+00 1.701389e+00 1.957870e+00 2.308918e+00 2.417007e+00 2.300923e+00 1.864660e+00 1.726809e+00 1.658822e+00 1.355184e+00 9.586971e-01
<GCONST> 9.685650e+01
<STATE> 4
<MEAN> 25
 1.496823e+00 9.639793e-01 -1.527317e+00 -1.236230e+00 -2.262210e-01 -3.855206e-01 -2.924238e-01 2.491859e-01 -7.626901e-01 1.831250e-01 -1.058707e+00 -2.784171e-01 9.589734e-03 3.395750e-03 -2.578430e-02 -6.910485e-03 1.158521e-03 2.668018e-03 1.132554e-02 1.679308e-02 -2.110528e-03 1.358346e-02 -9.207280e-03 1.721650e-03 -1.063725e-02
<VARIANCE> 25
 6.573802e+01 3.354656e+01 4.660556e+01 4.314468e+01 4.367464e+01 4.716783e+01 5.439245e+01 4.353852e+01 3.515297e+01 2.960175e+01 3.312664e+01 2.123590e+01 1.829952e+00 1.076488e+00 1.408109e+00 1.726222e+00 1.938838e+00 2.323348e+00 2.448997e+00 2.283403e+00 1.848398e+00 1.725177e+00 1.660198e+00 1.327962e+00 9.620594e-01
<GCONST> 9.685989e+01
<TRANSP> 5
 0.000000e+00 1.000000e+00 0.000000e+00 0.000000e+00 0.000000e+00
 0.000000e+00 7.730553e-01 2.269448e-01 0.000000e+00 0.000000e+00
 0.000000e+00 0.000000e+00 7.730534e-01 2.269466e-01 0.000000e+00
 0.000000e+00 0.000000e+00 0.000000e+00 9.031395e-01 9.686044e-02
 0.000000e+00 0.000000e+00 0.000000e+00 0.000000e+00 0.000000e+00
<ENDHMM>
~h "ae"
<BEGINHMM>
<NUMSTATES> 5
<STATE> 2
<MEAN> 25
 3.423124e-01 -4.581900e-01 3.211646e-03 -4.563364e-01 -1.261256e-01 -4.562221e-01 9.919065e-01 1.495590e+00 -1.460304e-01 -5.230665e-01 -9.541766e-01 2.635294e-02 5.788489e-03 -6.782857e-03 -9.986326e-04 -1.419195e-03 -5.708020e-04 5.383088e-03 1.122253e-02 1.146257e-02 4.386416e-03 2.298788e-03 -4.267820e-03 8.708793e-03 -1.355313e-02
<VARIANCE> 25
 5.614143e+01 4.084372e+01 3.944132e+01 3.015699e+01 3.932795e+01 4.044210e+01 5.166920e+01 5.698437e+01 3.617753e+01 2.794805e+01 4.060877e+01 2.318225e+01 1.667611e+00 1.095617e+00 1.273583e+00 1.516176e+00 1.924723e+00 2.202737e+00 2.246952e+00 2.380216e+00 1.912766e+00 1.648100e+00 1.769638e+00 1.365119e+00 1.012779e+00
<GCONST> 9.631628e+01
<STATE> 3
<MEAN> 25
 3.753065e-01 -4.958872e-01 -1.045562e-02 -4.670498e-01 -1.250263e-01 -4.309414e-01 1.048199e+00 1.553623e+00 -1.218678e-01 -5.083375e-01 -9.822105e-01 6.945174e-02 6.655680e-03 -7.612619e-03 -3.363644e-03 -2.422397e-03 1.874608e-04 6.616860e-03 1.048799e-02 9.926574e-03 4.484706e-03 3.284081e-03 -5.983359e-03 9.888469e-03 -1.499129e-02
<VARIANCE> 25
 5.577319e+01 4.035778e+01 3.932116e+01 3.027090e+01 3.904185e+01 4.075669e+01 5.174035e+01 5.657449e+01 3.630865e+01 2.802802e+01 4.046138e+01 2.319031e+01 1.663009e+00 1.092649e+00 1.273952e+00 1.515226e+00 1.910281e+00 2.206092e+00 2.256590e+00 2.378019e+00 1.920670e+00 1.653348e+00 1.766522e+00 1.365122e+00 1.013326e+00
<GCONST> 9.629384e+01
<STATE> 4
<MEAN> 25
 4.501234e-01 -5.961265e-01 -3.931248e-02 -5.225034e-01 -1.312511e-01 -4.433223e-01 1.169201e+00 1.717544e+00 -6.843550e-02 -4.855855e-01 -1.141961e+00 1.569361e-01 9.552991e-03 -8.596641e-03 -6.878786e-03 -2.570735e-03 2.280152e-04 6.491320e-03 9.908071e-03 7.361598e-03 3.540839e-03 3.761622e-03 -9.360183e-03 1.025637e-02 -1.509681e-02
<VARIANCE> 25
 5.442959e+01 3.909800e+01 3.924960e+01 3.087045e+01 3.870757e+01 4.171014e+01 5.214283e+01 5.616753e+01 3.655287e+01 2.845827e+01 4.096900e+01 2.333949e+01 1.625985e+00 1.073164e+00 1.250828e+00 1.509949e+00 1.868384e+00 2.219322e+00 2.276537e+00 2.363311e+00 1.916258e+00 1.655623e+00 1.755577e+00 1.349981e+00 1.017339e+00
<GCONST> 9.622115e+01
<TRANSP> 5
 0.000000e+00 1.000000e+00 0.000000e+00 0.000000e+00 0.000000e+00
 0.000000e+00 7.717960e-01 2.282039e-01 0.000000e+00 0.000000e+00
 0.000000e+00 0.000000e+00 7.717959e-01 2.282041e-01 0.000000e+00
 0.000000e+00 0.000000e+00 0.000000e+00 9.016976e-01 9.830235e-02
 0.000000e+00 0.000000e+00 0.000000e+00 0.000000e+00 0.000000e+00
<ENDHMM>
~h "ah"
<BEGINHMM>
<NUMSTATES> 5
<STATE> 2
<MEAN> 25
 4.552637e-01 2.417907e-01 -3.603943e-01 -1.392231e-01 -8.995285e-02 -2.111329e-01 -7.175858e-02 3.922606e-01 -3.152089e-02 -2.791545e-02 -5.304528e-01 2.904031e-02 -8.488875e-04 5.031844e-03 -6.966836e-03 1.255838e-03 1.263257e-03 -4.441684e-03 4.038167e-03 4.953055e-04 2.233154e-03 4.044412e-03 -5.829330e-03 1.804292e-03 -8.961759e-03
<VARIANCE> 25
 5.945792e+01 3.556240e+01 4.271049e+01 3.563417e+01 4.385146e+01 4.489262e+01 4.907316e+01 4.698180e+01 3.425576e+01 2.710787e+01 3.386060e+01 2.184672e+01 1.676417e+00 1.088667e+00 1.347956e+00 1.582424e+00 1.970320e+00 2.197764e+00 2.287812e+00 2.350247e+00 1.813529e+00 1.661952e+00 1.711560e+00 1.349026e+00 1.013134e+00
<GCONST> 9.615939e+01
<STATE> 3
<MEAN> 25
 4.553010e-01 2.659382e-01 -3.900077e-01 -1.328827e-01 -8.989821e-02 -2.326813e-01 -5.832794e-02 3.943330e-01 -2.396129e-02 -9.801130e-03 -5.555130e-01 3.578485e-02 -1.043328e-04 5.175422e-03 -6.164697e-03 9.964379e-04 -4.392280e-04 -5.048149e-03 2.488343e-03 1.912296e-05 1.556361e-03 4.263863e-03 -5.053059e-03 1.472875e-03 -1.025756e-02
<VARIANCE> 25
 5.933061e+01 3.517778e+01 4.273268e+01 3.557682e+01 4.374618e+01 4.491476e+01 4.917893e+01 4.701627e+01 3.406915e+01 2.714794e+01 3.391109e+01 2.185408e+01 1.679747e+00 1.090308e+00 1.349356e+00 1.580086e+00 1.974458e+00 2.201086e+00 2.286743e+00 2.353009e+00 1.810466e+00 1.663934e+00 1.716941e+00 1.349330e+00 1.014661e+00
<GCONST> 9.615582e+01
<STATE> 4
<MEAN> 25
 5.641576e-01 3.289090e-01 -4.675894e-01 -1.323066e-01 -1.623429e-01 -3.300252e-01 -1.003436e-01 4.422299e-01 -6.386544e-02 1.793147e-02 -6.338006e-01 2.369956e-02 1.498418e-03 5.457565e-03 -4.560541e-03 1.867505e-03 -3.028488e-03 -4.669704e-03 1.736988e-04 3.188004e-04 6.127777e-05 4.817175e-03 -2.966095e-03 5.131346e-04 -1.270055e-02
<VARIANCE> 25
 5.818558e+01 3.429614e+01 4.288151e+01 3.625878e+01 4.365746e+01 4.559031e+01 5.032317e+01 4.709801e+01 3.387333e+01 2.752681e+01 3.424708e+01 2.194751e+01 1.674669e+00 1.081193e+00 1.338011e+00 1.580426e+00 1.965120e+00 2.207010e+00 2.301452e+00 2.344301e+00 1.805407e+00 1.662810e+00 1.726899e+00 1.338243e+00 1.014749e+00
<GCONST> 9.616843e+01
<TRANSP> 5
 0.000000e+00 1.000000e+00 0.000000e+00 0.000000e+00 0.000000e+00
 0.000000e+00 7.718654e-01 2.281346e-01 0.000000e+00 0.000000e+00
 0.000000e+00 0.000000e+00 7.718671e-01 2.281329e-01 0.000000e+00
 0.000000e+00 0.000000e+00 0.000000e+00 9.018078e-01 9.819216e-02
 0.000000e+00 0.000000e+00 0.000000e+00 0.000000e+00 0.000000e+00
<ENDHMM>
~h "ao"
<BEGINHMM>
<NUMSTATES> 5
<STATE> 2
<MEAN> 25
 1.557435e+00 3.948063e-01 -1.700887e+00 -9.805767e-01 -2.444817e-01 6.661976e-02 1.374857e-01 1.123045e+00 -3.477400e-01 2.829129e-01 -2.237782e-01 4.050016e-01 -7.099613e-03 3.822371e-03 9.637566e-04 2.099255e-03 8.519177e-03 1.130634e-02 1.020807e-02 3.855672e-03 -6.382009e-03 9.080802e-03 -6.331202e-03 2.760869e-03 -2.024742e-02
<VARIANCE> 25
 6.783391e+01 3.589408e+01 4.536227e+01 4.414225e+01 4.362646e+01 4.563917e+01 5.144118e+01 4.399652e+01 3.636643e+01 2.687060e+01 3.019652e+01 2.201231e+01 1.709003e+00 1.064079e+00 1.342273e+00 1.624609e+00 1.863660e+00 2.128670e+00 2.206026e+00 1.950098e+00 1.809702e+00 1.550548e+00 1.516128e+00 1.314042e+00 9.222088e-01
<GCONST> 9.590646e+01
<STATE> 3
<MEAN> 25
 1.521695e+00 3.985177e-01 -1.697121e+00 -9.630134e-01 -2.023373e-01 1.172975e-01 1.820216e-01 1.140377e+00 -3.708089e-01 3.244208e-01 -2.507475e-01 4.171188e-01 -7.967765e-03 1.808875e-03 3.895462e-03 4.402568e-03 8.179395e-03 1.010127e-02 6.425298e-03 2.473474e-03 -6.428274e-03 8.723170e-03 -6.011834e-03 9.593534e-04 -2.070032e-02
<VARIANCE> 25
 6.774165e+01 3.570998e+01 4.532994e+01 4.456726e+01 4.310725e+01 4.578659e+01 5.176025e+01 4.380962e+01 3.650673e+01 2.680916e+01 3.032567e+01 2.187465e+01 1.695986e+00 1.066975e+00 1.345626e+00 1.625982e+00 1.849600e+00 2.124368e+00 2.197565e+00 1.948146e+00 1.820372e+00 1.548760e+00 1.522953e+00 1.311470e+00 9.219568e-01
<GCONST> 9.589252e+01
<STATE> 4
<MEAN> 25
 1.482533e+00 4.242046e-01 -1.711128e+00 -9.720551e-01 -9.612849e-02 1.555086e-01 2.685598e-01 1.144656e+00 -4.554326e-01 4.197006e-01 -3.235790e-01 4.288626e-01 -8.945772e-03 -4.806999e-03 6.637949e-03 6.763336e-03 8.531998e-03 1.008056e-02 4.487783e-03 1.528974e-03 -3.061007e-03 8.237180e-03 -5.188070e-03 -4.324166e-04 -2.165918e-02
<VARIANCE> 25
 6.687015e+01 3.522163e+01 4.467348e+01 4.581614e+01 4.236429e+01 4.644506e+01 5.242179e+01 4.341674e+01 3.681207e+01 2.679481e+01 3.100628e+01 2.172190e+01 1.663461e+00 1.057669e+00 1.336126e+00 1.623577e+00 1.814364e+00 2.136565e+00 2.196659e+00 1.955298e+00 1.834498e+00 1.556351e+00 1.544952e+00 1.296737e+00 9.151365e-01
<GCONST> 9.586371e+01
<TRANSP> 5
 0.000000e+00 1.000000e+00 0.000000e+00 0.000000e+00 0.000000e+00
 0.000000e+00 7.753958e-01 2.246042e-01 0.000000e+00 0.000000e+00
 0.000000e+00 0.000000e+00 7.753958e-01 2.246042e-01 0.000000e+00
 0.000000e+00 0.000000e+00 0.000000e+00 9.056475e-01 9.435249e-02
 0.000000e+00 0.000000e+00 0.000000e+00 0.000000e+00 0.000000e+00
<ENDHMM>
~h "aw"
<BEGINHMM>
<NUMSTATES> 5
<STATE> 2
<MEAN> 25
 1.306946e+00 4.862038e-01 -1.478689e+00 -1.187298e+00 8.641730e-01 2.008176e-01 -4.003072e-01 1.162727e-01 -7.492226e-01 -2.860959e-01 -8.056504e-01 -2.976568e-01 1.948826e-02 -1.921252e-02 2.633688e-03 -4.746207e-03 4.776575e-03 3.446063e-03 1.547064e-02 3.184553e-03 -5.482213e-03 -1.938499e-03 -3.006575e-02 4.511771e-03 -1.257326e-02
<VARIANCE> 25
 6.300669e+01 3.917265e+01 4.398949e+01 4.040067e+01 3.937029e+01 4.669346e+01 4.711334e+01 4.458987e+01 3.344257e+01 2.909277e+01 3.436757e+01 2.323112e+01 1.729728e+00 1.054938e+00 1.300443e+00 1.565531e+00 1.956241e+00 2.100636e+00 2.301890e+00 2.220198e+00 1.739476e+00 1.672439e+00 1.642086e+00 1.336643e+00 9.770941e-01
<GCONST> 9.615835e+01
<STATE> 3
<MEAN> 25
 1.392525e+00 3.951433e-01 -1.460925e+00 -1.193959e+00 8.839746e-01 2.107546e-01 -3.437084e-01 1.274395e-01 -7.657567e-01 -3.018884e-01 -9.348548e-01 -2.784142e-01 2.102655e-02 -2.229458e-02 5.057070e-03 -3.652620e-03 3.893009e-03 4.449822e-03 1.354688e-02 4.807735e-03 -4.386312e-03 -2.261841e-03 -3.080972e-02 3.045660e-03 -1.115729e-02
<VARIANCE> 25
 6.160201e+01 3.863733e+01 4.330737e+01 4.071449e+01 3.902329e+01 4.645209e+01 4.644798e+01 4.474725e+01 3.314530e+01 2.894151e+01 3.441182e+01 2.295540e+01 1.728722e+00 1.052285e+00 1.291971e+00 1.575121e+00 1.953017e+00 2.114987e+00 2.284510e+00 2.227156e+00 1.727967e+00 1.672466e+00 1.649251e+00 1.334215e+00 9.789720e-01
<GCONST> 9.605963e+01
<STATE> 4
<MEAN> 25
 1.602926e+00 1.207848e-01 -1.511437e+00 -1.166512e+00 9.739973e-01 1.626077e-01 -3.027961e-01 1.759850e-01 -7.009169e-01 -3.344237e-01 -1.223566e+00 -2.446198e-01 1.906272e-02 -2.709731e-02 6.140652e-03 2.686944e-03 4.087796e-03 4.578848e-03 9.546974e-03 7.726099e-03 1.342396e-03 -1.454480e-03 -2.784375e-02 2.324664e-03 -9.490244e-03
<VARIANCE> 25
 5.884008e+01 3.777912e+01 4.326406e+01 4.137554e+01 3.934254e+01 4.681115e+01 4.612904e+01 4.472745e+01 3.276741e+01 2.899792e+01 3.465380e+01 2.276295e+01 1.710657e+00 1.033393e+00 1.267897e+00 1.582392e+00 1.934615e+00 2.141995e+00 2.283317e+00 2.216340e+00 1.708998e+00 1.670411e+00 1.668271e+00 1.325174e+00 9.717708e-01
<GCONST> 9.594402e+01
<TRANSP> 5
 0.000000e+00 1.000000e+00 0.000000e+00 0.000000e+00 0.000000e+00
 0.000000e+00 7.723880e-01 2.276119e-01 0.000000e+00 0.000000e+00
 0.000000e+00 0.000000e+00 7.723874e-01 2.276126e-01 0.000000e+00
 0.000000e+00 0.000000e+00 0.000000e+00 9.027352e-01 9.726480e-02
 0.000000e+00 0.000000e+00 0.000000e+00 0.000000e+00 0.000000e+00
<ENDHMM>
~h "ay"
<BEGINHMM>
<NUMSTATES> 5
<STATE> 2
<MEAN> 25
 7.379413e-01 -2.210566e-01 -5.058109e-01 -1.013154e-01 6.847317e-01 4.455229e-01 4.170931e-01 6.725399e-01 -3.648863e-02 1.654300e-01 -8.249091e-01 -1.750617e-02 -6.551479e-03 -1.435052e-03 -7.567325e-03 7.134183e-04 8.482978e-03 8.966955e-03 1.794293e-02 8.935790e-03 -1.671328e-03 5.482024e-03 1.160120e-03 3.177412e-03 -1.586309e-02
<VARIANCE> 25
 5.542369e+01 3.184241e+01 4.146792e+01 3.680570e+01 4.343801e+01 4.309627e+01 4.553351e+01 4.584182e+01 3.147337e+01 2.678498e+01 3.452634e+01 2.222963e+01 1.463044e+00 1.017455e+00 1.369976e+00 1.500726e+00 1.932891e+00 1.966667e+00 2.064920e+00 2.248523e+00 1.728309e+00 1.641366e+00 1.758131e+00 1.340832e+00 8.679416e-01
<GCONST> 9.505972e+01
<STATE> 3
<MEAN> 25
 7.150482e-01 -2.256955e-01 -5.402638e-01 -1.053302e-01 7.187758e-01 4.805587e-01 5.003614e-01 7.135076e-01 -4.431088e-02 1.935272e-01 -8.181057e-01 -4.127400e-03 -4.634921e-03 -6.354300e-04 -7.183933e-03 -4.938197e-04 5.929458e-03 4.397043e-03 1.681841e-02 9.355471e-03 -2.394715e-03 4.252829e-03 1.063292e-03 2.048048e-03 -1.269203e-02
<VARIANCE> 25
 5.508487e+01 3.153913e+01 4.137567e+01 3.685427e+01 4.334737e+01 4.313547e+01 4.584925e+01 4.610405e+01 3.162674e+01 2.673780e+01 3.477501e+01 2.212424e+01 1.465641e+00 1.011782e+00 1.371003e+00 1.495865e+00 1.926624e+00 1.964574e+00 2.071392e+00 2.252805e+00 1.727443e+00 1.643494e+00 1.761272e+00 1.331284e+00 8.723798e-01
<GCONST> 9.505502e+01
<STATE> 4
<MEAN> 25
 6.922575e-01 -2.171189e-01 -6.148168e-01 -1.436639e-01 7.942976e-01 5.219812e-01 6.501522e-01 8.159782e-01 -8.905352e-02 2.195973e-01 -8.745019e-01 3.110093e-02 -3.189621e-03 5.772439e-04 -2.749519e-03 -2.138907e-03 1.969518e-03 1.455968e-03 1.543571e-02 5.420253e-03 -3.808981e-03 3.178032e-03 2.038694e-03 1.823253e-04 -1.206286e-02
<VARIANCE> 25
 5.419713e+01 3.105274e+01 4.150312e+01 3.775603e+01 4.362277e+01 4.360619e+01 4.660010e+01 4.615851e+01 3.220121e+01 2.670549e+01 3.585843e+01 2.215277e+01 1.442619e+00 9.959770e-01 1.357086e+00 1.495162e+00 1.899984e+00 1.957865e+00 2.076732e+00 2.250769e+00 1.725657e+00 1.647019e+00 1.763417e+00 1.309638e+00 8.680567e-01
<GCONST> 9.505692e+01
<TRANSP> 5
 0.000000e+00 1.000000e+00 0.000000e+00 0.000000e+00 0.000000e+00
 0.000000e+00 7.736201e-01 2.263799e-01 0.000000e+00 0.000000e+00
 0.000000e+00 0.000000e+00 7.736199e-01 2.263801e-01 0.000000e+00
 0.000000e+00 0.000000e+00 0.000000e+00 9.038584e-01 9.614164e-02
 0.000000e+00 0.000000e+00 0.000000e+00 0.000000e+00 0.000000e+00
<ENDHMM>
~h "ch"
<BEGINHMM>
<NUMSTATES> 5
<STATE> 2
<MEAN> 25
 -4.584015e-01 -5.668292e-01 1.843718e+00 -3.061936e-01 -1.190482e-01 -8.678305e-02 4.186437e-01 7.963001e-01 1.046587e+00 -3.037632e-01 2.227798e-02 4.346692e-01 -1.078835e-04 -1.810902e-03 -2.393391e-02 -1.764325e-04 2.204490e-02 1.698845e-02 9.665081e-03 1.091205e-03 -3.476287e-04 6.687528e-03 7.068770e-03 -2.977695e-03 -1.955093e-02
<VARIANCE> 25
 5.885864e+01 3.204896e+01 3.309747e+01 2.683716e+01 3.728653e+01 5.251392e+01 5.006133e+01 4.818611e+01 3.518958e+01 2.811140e+01 3.380970e+01 2.747879e+01 1.810177e+00 1.039741e+00 1.219280e+00 1.421358e+00 1.754455e+00 2.200849e+00 2.115585e+00 2.083149e+00 1.768467e+00 1.628225e+00 1.581158e+00 1.409103e+00 8.884636e-01
<GCONST> 9.513461e+01
<STATE> 3
<MEAN> 25
 -4.649426e-01 -5.749936e-01 1.741867e+00 -3.035636e-01 -1.575439e-02 -1.067821e-02 4.562004e-01 7.929974e-01 1.046103e+00 -2.735308e-01 5.598402e-02 4.192073e-01 -1.535723e-03 -2.370301e-03 -2.635260e-02 -9.011470e-04 2.358664e-02 1.253743e-02 7.241938e-03 -5.221962e-04 -1.371039e-03 7.797080e-03 3.849966e-03 -3.783635e-03 -1.652066e-02
<VARIANCE> 25
 5.898732e+01 3.241678e+01 3.328503e+01 2.688265e+01 3.739842e+01 5.195189e+01 5.019809e+01 4.752641e+01 3.486794e+01 2.837184e+01 3.344349e+01 2.734867e+01 1.827423e+00 1.039433e+00 1.216728e+00 1.408331e+00 1.735277e+00 2.182741e+00 2.106238e+00 2.073683e+00 1.760501e+00 1.627734e+00 1.564317e+00 1.405917e+00 8.804368e-01
<GCONST> 9.506393e+01
<STATE> 4
<MEAN> 25
 -6.294858e-01 -6.197907e-01 1.677208e+00 -3.339078e-01 9.880958e-02 -4.116353e-02 4.676834e-01 8.073378e-01 1.187454e+00 -1.050836e-01 1.229397e-01 4.458441e-01 -3.356381e-03 -2.617090e-03 -2.478866e-02 2.953052e-04 2.320216e-02 1.078727e-02 -1.142572e-04 -6.319124e-03 -3.558907e-03 7.138904e-03 3.347319e-03 -5.531112e-03 -1.491386e-02
<VARIANCE> 25
 5.982266e+01 3.325212e+01 3.312317e+01 2.699632e+01 3.806945e+01 5.264655e+01 5.233909e+01 4.699635e+01 3.539832e+01 2.929700e+01 3.315210e+01 2.753035e+01 1.871407e+00 1.040262e+00 1.213447e+00 1.396585e+00 1.725881e+00 2.170678e+00 2.117981e+00 2.052541e+00 1.773105e+00 1.651034e+00 1.551544e+00 1.391850e+00 8.724954e-01
<GCONST> 9.520134e+01
<TRANSP> 5
 0.000000e+00 1.000000e+00 0.000000e+00 0.000000e+00 0.000000e+00
 0.000000e+00 7.726778e-01 2.273222e-01 0.000000e+00 0.000000e+00
 0.000000e+00 0.000000e+00 7.726779e-01 2.273220e-01 0.000000e+00
 0.000000e+00 0.000000e+00 0.000000e+00 9.027090e-01 9.729102e-02
 0.000000e+00 0.000000e+00 0.000000e+00 0.000000e+00 0.000000e+00
<ENDHMM>
~h "dh"
<BEGINHMM>
<NUMSTATES> 5
<STATE> 2
<MEAN> 25
 -1.021378e+00 -1.330581e+00 2.047105e-01 5.357435e-01 3.458301e-01 -1.781829e-01 4.578749e-02 2.373158e-01 9.897489e-01 -1.883011e-02 9.802396e-02 1.604321e-01 8.022723e-03 1.920187e-02 1.651287e-02 1.426052e-02 -1.116689e-02 -1.251349e-02 -2.441000e-03 1.046922e-02 5.564670e-03 1.452833e-03 -9.220827e-04 8.420354e-03 4.223314e-03
<VARIANCE> 25
 6.162657e+01 3.975153e+01 3.437517e+01 2.788875e+01 4.630411e+01 4.731363e+01 4.599019e+01 4.639392e+01 3.369518e+01 2.399195e+01 3.295536e+01 2.168306e+01 1.257568e+00 8.985891e-01 1.179801e+00 1.259228e+00 1.889759e+00 2.112168e+00 2.211938e+00 2.246881e+00 1.631052e+00 1.534100e+00 1.608454e+00 1.294724e+00 8.369457e-01
<GCONST> 9.421902e+01
<STATE> 3
<MEAN> 25
 -9.702776e-01 -1.222896e+00 2.828243e-01 5.956941e-01 2.831001e-01 -2.407781e-01 2.520254e-02 2.795665e-01 1.009240e+00 -9.145248e-03 9.939467e-02 1.957829e-01 1.120584e-02 2.616289e-02 1.752260e-02 1.303377e-02 -1.424255e-02 -1.426703e-02 -5.103422e-03 8.179531e-03 4.245853e-03 2.160028e-03 8.463059e-04 8.021613e-03 5.699790e-03
<VARIANCE> 25
 6.070627e+01 3.891116e+01 3.445044e+01 2.787067e+01 4.642678e+01 4.774147e+01 4.630857e+01 4.673210e+01 3.372626e+01 2.419237e+01 3.295554e+01 2.172720e+01 1.273575e+00 9.098355e-01 1.186458e+00 1.259704e+00 1.906132e+00 2.130985e+00 2.227950e+00 2.269610e+00 1.641955e+00 1.528554e+00 1.602649e+00 1.300933e+00 8.426128e-01
<GCONST> 9.429807e+01
<STATE> 4
<MEAN> 25
 -7.289801e-01 -9.477263e-01 4.332764e-01 6.431513e-01 1.392832e-02 -4.987550e-01 -8.425808e-02 3.869257e-01 9.924087e-01 -1.794533e-02 7.771486e-03 2.287002e-01 1.948386e-02 3.677867e-02 1.511387e-02 5.396500e-03 -2.648729e-02 -2.302195e-02 -1.091545e-02 9.111144e-03 -2.017719e-03 1.219200e-03 -2.959284e-03 6.235089e-03 5.966983e-03
<VARIANCE> 25
 5.774843e+01 3.677101e+01 3.477256e+01 2.851664e+01 4.637743e+01 4.907812e+01 4.793227e+01 4.765465e+01 3.350607e+01 2.503264e+01 3.333858e+01 2.188483e+01 1.301845e+00 9.271665e-01 1.177376e+00 1.267848e+00 1.919302e+00 2.168731e+00 2.284900e+00 2.283571e+00 1.651213e+00 1.514249e+00 1.585133e+00 1.292262e+00 8.578712e-01
<GCONST> 9.444257e+01
<TRANSP> 5
 0.000000e+00 1.000000e+00 0.000000e+00 0.000000e+00 0.000000e+00
 0.000000e+00 7.727067e-01 2.272932e-01 0.000000e+00 0.000000e+00
 0.000000e+00 0.000000e+00 7.727065e-01 2.272935e-01 0.000000e+00
 0.000000e+00 0.000000e+00 0.000000e+00 9.027144e-01 9.728555e-02
 0.000000e+00 0.000000e+00 0.000000e+00 0.000000e+00 0.000000e+00
<ENDHMM>
~h "eh"
<BEGINHMM>
<NUMSTATES> 5
<STATE> 2
<MEAN> 25
 -5.159115e-01 -6.189583e-01 1.811052e-01 -1.760850e-01 -5.846802e-02 -4.751261e-01 8.929662e-01 8.574412e-01 4.457008e-01 3.662996e-03 -4.553824e-01 2.379704e-01 2.191215e-02 3.013071e-02 2.277926e-02 4.846575e-03 -2.918553e-02 -1.435459e-02 -6.214242e-03 -7.986686e-04 -1.067071e-02 1.861120e-03 3.335074e-03 -2.792666e-03 -1.309595e-02
<VARIANCE> 25
 6.022992e+01 3.609583e+01 3.887875e+01 3.217509e+01 4.396351e+01 4.587350e+01 4.774980e+01 4.998433e+01 3.517226e+01 2.666053e+01 3.387856e+01 2.231254e+01 1.618093e+00 1.020872e+00 1.266475e+00 1.470063e+00 1.864447e+00 2.149379e+00 2.092817e+00 2.325387e+00 1.776049e+00 1.616686e+00 1.581976e+00 1.321992e+00 9.104289e-01
<GCONST> 9.541396e+01
<STATE> 3
<MEAN> 25
 -4.137542e-01 -4.971430e-01 2.772009e-01 -1.528504e-01 -1.844567e-01 -5.303495e-01 8.714016e-01 8.547406e-01 4.002769e-01 1.590406e-02 -4.378217e-01 2.313773e-01 2.292965e-02 2.825779e-02 2.166979e-02 5.594006e-03 -2.773729e-02 -1.258135e-02 -4.643257e-03 -9.380074e-04 -1.090111e-02 1.699452e-03 3.233335e-03 -1.873971e-03 -1.583195e-02
<VARIANCE> 25
 5.904149e+01 3.534009e+01 3.913710e+01 3.209377e+01 4.363420e+01 4.640375e+01 4.787349e+01 4.987533e+01 3.500423e+01 2.687754e+01 3.401878e+01 2.242862e+01 1.624097e+00 1.022811e+00 1.272283e+00 1.474738e+00 1.877192e+00 2.160198e+00 2.105367e+00 2.327928e+00 1.780694e+00 1.615848e+00 1.581280e+00 1.320420e+00 9.151241e-01
<GCONST> 9.543182e+01
<STATE> 4
<MEAN> 25
 -7.972481e-02 -3.199530e-01 4.014905e-01 -1.192255e-01 -4.170206e-01 -6.196052e-01 7.992337e-01 8.951520e-01 2.703099e-01 2.589854e-02 -4.595686e-01 2.377164e-01 2.601138e-02 2.124704e-02 1.757266e-02 7.512342e-03 -2.236100e-02 -7.603861e-03 -3.254341e-03 -5.342355e-04 -1.126951e-02 3.734277e-03 2.835667e-03 1.828585e-03 -2.202342e-02
<VARIANCE> 25
 5.680330e+01 3.376147e+01 3.935717e+01 3.243114e+01 4.307314e+01 4.791433e+01 4.880521e+01 4.943655e+01 3.490916e+01 2.743301e+01 3.495992e+01 2.263318e+01 1.610237e+00 1.010502e+00 1.255717e+00 1.480258e+00 1.892434e+00 2.166795e+00 2.117551e+00 2.297995e+00 1.782351e+00 1.612646e+00 1.586305e+00 1.319645e+00 9.139272e-01
<GCONST> 9.542133e+01
<TRANSP> 5
 0.000000e+00 1.000000e+00 0.000000e+00 0.000000e+00 0.000000e+00
 0.000000e+00 7.712833e-01 2.287167e-01 0.000000e+00 0.000000e+00
 0.000000e+00 0.000000e+00 7.712830e-01 2.287170e-01 0.000000e+00
 0.000000e+00 0.000000e+00 0.000000e+00 9.009576e-01 9.904240e-02
 0.000000e+00 0.000000e+00 0.000000e+00 0.000000e+00 0.000000e+00
<ENDHMM>
~h "er"
<BEGINHMM>
<NUMSTATES> 5
<STATE> 2
<MEAN> 25
 1.513006e+00 -3.059696e-01 3.811392e-01 4.981234e-01 -1.044109e+00 -1.813428e+00 -1.456275e+00 1.133779e+00 3.806152e-01 -5.577593e-01 -8.887243e-02 3.057915e-01 9.976313e-04 -5.351567e-03 -3.917148e-03 2.275256e-03 6.083932e-03 1.131504e-02 1.206365e-02 -3.415042e-03 5.052926e-03 1.051301e-02 1.000078e-03 2.889118e-03 -2.150557e-02
<VARIANCE> 25
 5.450157e+01 3.268103e+01 4.137638e+01 3.218146e+01 4.084770e+01 5.657008e+01 5.132787e+01 4.835325e+01 3.203335e+01 2.698612e+01 3.039428e+01 2.447165e+01 1.590292e+00 9.714962e-01 1.301402e+00 1.467475e+00 1.876274e+00 2.138202e+00 2.246948e+00 2.185718e+00 1.690480e+00 1.563714e+00 1.553467e+00 1.357153e+00 8.502724e-01
<GCONST> 9.518053e+01
<STATE> 3
<MEAN> 25
 1.513452e+00 -3.312096e-01 3.614629e-01 5.092154e-01 -1.012874e+00 -1.757429e+00 -1.399868e+00 1.116507e+00 4.025758e-01 -5.147393e-01 -8.495508e-02 3.174303e-01 2.911761e-04 -5.034412e-03 -4.749182e-03 1.539653e-03 7.593309e-03 1.416068e-02 1.315825e-02 -5.581248e-03 4.417360e-03 9.690934e-03 2.187123e-04 2.281172e-03 -2.176857e-02
<VARIANCE> 25
 5.442982e+01 3.256300e+01 4.116204e+01 3.201591e+01 4.078564e+01 5.697276e+01 5.121879e+01 4.831646e+01 3.194440e+01 2.696417e+01 3.015806e+01 2.440587e+01 1.588663e+00 9.730083e-01 1.298855e+00 1.461898e+00 1.869169e+00 2.130461e+00 2.239838e+00 2.172129e+00 1.693371e+00 1.561948e+00 1.546229e+00 1.355806e+00 8.488227e-01
<GCONST> 9.512499e+01
<STATE> 4
<MEAN> 25
 1.528502e+00 -3.686367e-01 3.832043e-01 5.524570e-01 -1.004690e+00 -1.711282e+00 -1.350159e+00 1.092280e+00 4.206556e-01 -4.994136e-01 -8.498227e-02 3.275242e-01 -3.979971e-03 -4.864173e-03 -5.323041e-03 1.172566e-03 1.024204e-02 1.905676e-02 1.490454e-02 -8.046105e-03 3.708705e-03 8.875361e-03 1.461320e-04 9.012070e-04 -2.154506e-02
<VARIANCE> 25
 5.341139e+01 3.263235e+01 4.081620e+01 3.179765e+01 4.070989e+01 5.845516e+01 5.168791e+01 4.841133e+01 3.204982e+01 2.716492e+01 3.022162e+01 2.464761e+01 1.563841e+00 9.720585e-01 1.277957e+00 1.448976e+00 1.843024e+00 2.126763e+00 2.244481e+00 2.135487e+00 1.685514e+00 1.549251e+00 1.541253e+00 1.348186e+00 8.428230e-01
<GCONST> 9.504917e+01
<TRANSP> 5
 0.000000e+00 1.000000e+00 0.000000e+00 0.000000e+00 0.000000e+00
 0.000000e+00 7.733974e-01 2.266026e-01 0.000000e+00 0.000000e+00
 0.000000e+00 0.000000e+00 7.733983e-01 2.266017e-01 0.000000e+00
 0.000000e+00 0.000000e+00 0.000000e+00 9.036760e-01 9.632405e-02
 0.000000e+00 0.000000e+00 0.000000e+00 0.000000e+00 0.000000e+00
<ENDHMM>
~h "ey"
<BEGINHMM>
<NUMSTATES> 5
<STATE> 2
<MEAN> 25
 5.564673e-01 5.480430e-01 1.903124e+00 2.393451e-01 -1.392629e+00 -7.293490e-01 -1.401119e+00 -3.237593e-01 -3.133321e-01 -2.479961e-01 8.890290e-01 -3.899992e-01 2.559077e-02 2.100069e-02 4.878541e-03 -5.347744e-03 -2.216242e-02 -1.918091e-02 -1.252256e-02 1.163759e-03 -9.004864e-03 3.426978e-03 -6.632905e-03 4.542096e-03 7.762332e-03
<VARIANCE> 25
 4.617314e+01 4.026382e+01 4.342463e+01 3.179611e+01 5.028435e+01 4.814600e+01 4.930006e+01 4.739312e+01 3.468365e+01 2.935433e+01 2.975944e+01 2.418745e+01 1.359670e+00 1.069191e+00 1.224575e+00 1.458260e+00 1.962564e+00 2.040275e+00 2.185139e+00 2.219638e+00 1.719707e+00 1.570097e+00 1.443131e+00 1.354690e+00 8.649114e-01
<GCONST> 9.519705e+01
<STATE> 3
<MEAN> 25
 6.742383e-01 6.521136e-01 1.933762e+00 2.043623e-01 -1.501929e+00 -8.232332e-01 -1.457147e+00 -3.144635e-01 -3.652666e-01 -2.324186e-01 8.586550e-01 -3.719123e-01 2.555940e-02 2.220756e-02 5.828507e-03 -9.263818e-03 -2.333409e-02 -2.086303e-02 -1.239257e-02 3.457701e-03 -1.128267e-02 3.368014e-03 -7.868518e-03 5.339630e-03 9.603745e-03
<VARIANCE> 25
 4.539339e+01 3.951670e+01 4.389790e+01 3.245129e+01 5.089773e+01 4.796323e+01 4.898550e+01 4.735841e+01 3.458654e+01 2.950530e+01 2.960880e+01 2.410663e+01 1.376147e+00 1.071103e+00 1.227815e+00 1.467282e+00 1.983645e+00 2.045081e+00 2.192113e+00 2.222350e+00 1.729963e+00 1.573235e+00 1.436442e+00 1.358558e+00 8.747583e-01
<GCONST> 9.524520e+01
<STATE> 4
<MEAN> 25
 8.885261e-01 8.815125e-01 2.081158e+00 1.112139e-01 -1.800219e+00 -1.096343e+00 -1.565170e+00 -2.858650e-01 -5.052770e-01 -2.398582e-01 8.014262e-01 -3.377703e-01 2.280243e-02 2.110093e-02 5.923930e-03 -1.408887e-02 -2.175320e-02 -1.727326e-02 -1.007878e-02 4.812311e-03 -1.594534e-02 4.236375e-03 -7.408071e-03 4.899917e-03 7.195703e-03
<VARIANCE> 25
 4.317902e+01 3.844076e+01 4.528587e+01 3.360229e+01 5.300126e+01 4.810167e+01 4.920360e+01 4.701978e+01 3.441925e+01 3.041544e+01 3.000790e+01 2.423624e+01 1.386856e+00 1.061067e+00 1.226246e+00 1.473591e+00 2.022367e+00 2.048033e+00 2.211596e+00 2.209776e+00 1.740138e+00 1.587475e+00 1.436767e+00 1.365394e+00 8.921095e-01
<GCONST> 9.538353e+01
<TRANSP> 5
 0.000000e+00 1.000000e+00 0.000000e+00 0.000000e+00 0.000000e+00
 0.000000e+00 7.746553e-01 2.253447e-01 0.000000e+00 0.000000e+00
 0.000000e+00 0.000000e+00 7.746545e-01 2.253454e-01 0.000000e+00
 0.000000e+00 0.000000e+00 0.000000e+00 9.046072e-01 9.539279e-02
 0.000000e+00 0.000000e+00 0.000000e+00 0.000000e+00 0.000000e+00
<ENDHMM>
~h "hh"
<BEGINHMM>
<NUMSTATES> 5
<STATE> 2
<MEAN> 25
 -1.775245e+00 -1.241826e+00 2.096859e-01 -4.817718e-01 1.170076e+00 6.945693e-01 7.375806e-01 -1.202911e-01 5.507066e-01 -3.933311e-01 3.811377e-01 3.355331e-02 2.342222e-02 2.690907e-02 7.143973e-03 1.792561e-02 -4.199089e-03 -1.384165e-02 -6.812925e-03 7.672493e-03 -1.330642e-02 -1.718212e-02 -2.580657e-03 -6.148858e-03 -4.395119e-03
<VARIANCE> 25
 6.262396e+01 5.673473e+01 3.832333e+01 2.813831e+01 4.671544e+01 3.595121e+01 4.981961e+01 4.819160e+01 3.750669e+01 2.875008e+01 3.684533e+01 2.642395e+01 1.084793e+00 9.516926e-01 1.070545e+00 1.235039e+00 1.639990e+00 1.686353e+00 1.978891e+00 1.863603e+00 1.700154e+00 1.564427e+00 1.523215e+00 1.333135e+00 6.160044e-01
<GCONST> 9.401518e+01
<STATE> 3
<MEAN> 25
 -1.663795e+00 -1.108387e+00 2.536233e-01 -3.991989e-01 1.143742e+00 6.320826e-01 7.068520e-01 -7.875157e-02 4.892380e-01 -4.667501e-01 3.625475e-01 -1.023098e-03 2.487111e-02 2.850320e-02 9.865301e-03 1.820370e-02 -5.790721e-03 -1.270297e-02 -6.950903e-03 9.253123e-03 -1.334026e-02 -1.562504e-02 -4.205874e-03 -7.251982e-03 -5.353583e-03
<VARIANCE> 25
 6.183394e+01 5.630796e+01 3.864937e+01 2.838125e+01 4.668047e+01 3.626398e+01 5.055690e+01 4.883336e+01 3.749061e+01 2.926426e+01 3.743993e+01 2.668716e+01 1.096196e+00 9.603157e-01 1.072639e+00 1.240120e+00 1.649753e+00 1.703210e+00 1.975700e+00 1.871987e+00 1.706029e+00 1.572459e+00 1.528767e+00 1.340718e+00 6.206193e-01
<GCONST> 9.416070e+01
<STATE> 4
<MEAN> 25
 -1.368991e+00 -6.909076e-01 4.250217e-01 -2.971901e-01 9.951711e-01 4.239776e-01 5.169518e-01 -3.016390e-02 2.806329e-01 -6.676999e-01 3.074145e-01 -1.488727e-01 3.211536e-02 3.619474e-02 1.352331e-02 1.205859e-02 -1.313241e-02 -1.725027e-02 -1.329409e-02 5.905037e-03 -1.973894e-02 -1.790036e-02 -7.569166e-03 -1.323636e-02 -7.447454e-03
<VARIANCE> 25
 5.928260e+01 5.537743e+01 4.011294e+01 2.922449e+01 4.659340e+01 3.716513e+01 5.288660e+01 5.090094e+01 3.746960e+01 3.059311e+01 3.868580e+01 2.791278e+01 1.121254e+00 9.928267e-01 1.078234e+00 1.261010e+00 1.669742e+00 1.736841e+00 1.998905e+00 1.896513e+00 1.718686e+00 1.592494e+00 1.539704e+00 1.367358e+00 6.388065e-01
<GCONST> 9.460886e+01
<TRANSP> 5
 0.000000e+00 1.000000e+00 0.000000e+00 0.000000e+00 0.000000e+00
 0.000000e+00 7.758653e-01 2.241347e-01 0.000000e+00 0.000000e+00
 0.000000e+00 0.000000e+00 7.758646e-01 2.241353e-01 0.000000e+00
 0.000000e+00 0.000000e+00 0.000000e+00 9.058740e-01 9.412607e-02
 0.000000e+00 0.000000e+00 0.000000e+00 0.000000e+00 0.000000e+00
<ENDHMM>
~h "ih"
<BEGINHMM>
<NUMSTATES> 5
<STATE> 2
<MEAN> 25
 2.298394e-02 9.080368e-01 8.998094e-01 3.290133e-01 -7.686025e-01 -1.933688e-01 -4.783542e-01 -7.580009e-01 -3.979370e-01 -2.143090e-01 4.713887e-01 -4.000414e-01 8.511622e-03 1.104969e-02 5.802547e-03 3.649869e-03 -1.073037e-02 1.679846e-03 -7.352938e-03 -6.767236e-03 -4.031355e-03 -2.657310e-03 4.512476e-03 -6.985758e-03 -1.689420e-02
<VARIANCE> 25
 5.316115e+01 3.870565e+01 4.590839e+01 3.142670e+01 4.828804e+01 4.325284e+01 4.862984e+01 4.275254e+01 3.373219e+01 2.618149e+01 3.150894e+01 2.542173e+01 1.549264e+00 1.108871e+00 1.422356e+00 1.506990e+00 2.141343e+00 2.149622e+00 2.195872e+00 2.140052e+00 1.875388e+00 1.609326e+00 1.617569e+00 1.434419e+00 9.129537e-01
<GCONST> 9.583677e+01
<STATE> 3
<MEAN> 25
 5.416157e-02 9.497675e-01 9.225876e-01 3.428990e-01 -8.124526e-01 -1.831271e-01 -5.065056e-01 -7.835612e-01 -4.153068e-01 -2.262464e-01 4.913971e-01 -4.294064e-01 6.475019e-03 8.574320e-03 3.810695e-03 2.634155e-03 -9.283873e-03 2.825442e-03 -5.354493e-03 -4.892539e-03 -3.315467e-03 -2.186371e-03 4.303083e-03 -6.260443e-03 -1.755985e-02
<VARIANCE> 25
 5.255765e+01 3.852795e+01 4.592250e+01 3.153739e+01 4.832630e+01 4.332420e+01 4.871465e+01 4.277928e+01 3.353225e+01 2.640002e+01 3.135607e+01 2.542085e+01 1.543031e+00 1.107806e+00 1.416998e+00 1.506160e+00 2.145223e+00 2.144185e+00 2.191514e+00 2.139310e+00 1.871231e+00 1.611218e+00 1.614009e+00 1.435606e+00 9.140736e-01
<GCONST> 9.581328e+01
<STATE> 4
<MEAN> 25
 1.253250e-01 1.080029e+00 9.826791e-01 3.273730e-01 -9.339820e-01 -1.723109e-01 -6.070879e-01 -8.522333e-01 -5.007814e-01 -2.698391e-01 5.193487e-01 -4.951259e-01 4.105799e-03 5.174357e-03 1.845028e-03 1.795671e-03 -7.293187e-03 3.584709e-03 -3.441419e-03 -3.830064e-03 -3.530298e-03 -1.704671e-03 2.389272e-03 -3.827997e-03 -1.719906e-02
<VARIANCE> 25
 5.112963e+01 3.808280e+01 4.622498e+01 3.251799e+01 4.908230e+01 4.372257e+01 4.999983e+01 4.233901e+01 3.351900e+01 2.694960e+01 3.121957e+01 2.562160e+01 1.528117e+00 1.103751e+00 1.395997e+00 1.509531e+00 2.151498e+00 2.134443e+00 2.208323e+00 2.119305e+00 1.867818e+00 1.611048e+00 1.601177e+00 1.439126e+00 9.087223e-01
<GCONST> 9.583260e+01
<TRANSP> 5
 0.000000e+00 1.000000e+00 0.000000e+00 0.000000e+00 0.000000e+00
 0.000000e+00 7.718993e-01 2.281006e-01 0.000000e+00 0.000000e+00
 0.000000e+00 0.000000e+00 7.718994e-01 2.281006e-01 0.000000e+00
 0.000000e+00 0.000000e+00 0.000000e+00 9.019136e-01 9.808640e-02
 0.000000e+00 0.000000e+00 0.000000e+00 0.000000e+00 0.000000e+00
<ENDHMM>
~h "iy"
<BEGINHMM>
<NUMSTATES> 5
<STATE> 2
<MEAN> 25
 -1.267866e+00 4.617273e-01 1.520706e+00 3.702796e-01 1.625693e-01 3.573143e-02 -9.451044e-01 -1.182798e+00 3.704737e-02 -6.234348e-01 1.029819e+00 -5.882584e-01 1.847821e-02 3.589182e-02 1.327999e-02 4.689302e-04 -9.975371e-03 -2.244873e-03 -1.824340e-02 -1.321153e-02 -2.315292e-02 -1.401942e-02 2.506555e-03 -1.304340e-02 -8.131261e-03
<VARIANCE> 25
 5.311527e+01 4.840873e+01 4.254046e+01 2.823155e+01 4.423249e+01 4.179663e+01 5.321593e+01 4.394191e+01 3.604953e+01 2.907878e+01 3.314680e+01 2.867156e+01 1.242369e+00 1.037796e+00 1.233035e+00 1.328936e+00 1.915452e+00 1.941328e+00 2.214336e+00 2.090729e+00 1.808255e+00 1.585129e+00 1.526429e+00 1.436702e+00 7.641093e-01
<GCONST> 9.514425e+01
<STATE> 3
<MEAN> 25
 -1.172221e+00 6.360686e-01 1.584250e+00 3.675000e-01 1.072822e-01 2.296177e-02 -1.034039e+00 -1.245082e+00 -7.790872e-02 -6.910211e-01 1.043244e+00 -6.573080e-01 2.335116e-02 3.878235e-02 1.301183e-02 -1.345346e-03 -1.245311e-02 -3.534114e-03 -1.938109e-02 -1.248559e-02 -2.594597e-02 -1.530249e-02 1.402168e-03 -1.523510e-02 -8.821209e-03
<VARIANCE> 25
 5.210863e+01 4.790084e+01 4.322309e+01 2.833607e+01 4.389072e+01 4.157841e+01 5.401612e+01 4.440171e+01 3.560596e+01 2.957290e+01 3.306172e+01 2.902135e+01 1.252240e+00 1.051829e+00 1.235993e+00 1.328346e+00 1.913198e+00 1.929149e+00 2.212422e+00 2.089364e+00 1.805069e+00 1.580750e+00 1.525456e+00 1.441948e+00 7.650917e-01
<GCONST> 9.517464e+01
<STATE> 4
<MEAN> 25
 -9.013978e-01 1.108256e+00 1.765331e+00 3.235268e-01 -9.714685e-02 -5.707713e-02 -1.276123e+00 -1.318007e+00 -3.674054e-01 -8.634073e-01 1.094501e+00 -8.683065e-01 2.965340e-02 3.862499e-02 8.843048e-03 -4.316991e-03 -1.718276e-02 -2.082000e-03 -1.619270e-02 -6.048722e-03 -2.699683e-02 -1.248015e-02 1.127884e-03 -1.681091e-02 -1.395578e-02
<VARIANCE> 25
 4.917436e+01 4.741228e+01 4.469041e+01 2.904403e+01 4.361235e+01 4.162682e+01 5.674702e+01 4.551530e+01 3.503767e+01 3.135485e+01 3.351381e+01 3.032889e+01 1.263173e+00 1.080443e+00 1.226496e+00 1.333711e+00 1.900590e+00 1.909699e+00 2.232908e+00 2.078737e+00 1.794604e+00 1.578674e+00 1.524728e+00 1.459137e+00 7.715737e-01
<GCONST> 9.536535e+01
<TRANSP> 5
 0.000000e+00 1.000000e+00 0.000000e+00 0.000000e+00 0.000000e+00
 0.000000e+00 7.741579e-01 2.258421e-01 0.000000e+00 0.000000e+00
 0.000000e+00 0.000000e+00 7.741572e-01 2.258428e-01 0.000000e+00
 0.000000e+00 0.000000e+00 0.000000e+00 9.040579e-01 9.594209e-02
 0.000000e+00 0.000000e+00 0.000000e+00 0.000000e+00 0.000000e+00
<ENDHMM>
~h "jh"
<BEGINHMM>
<NUMSTATES> 5
<STATE> 2
<MEAN> 25
 -1.866772e-01 6.600354e-01 1.586754e+00 -4.805182e-01 -6.166778e-01 -8.474017e-01 -6.216339e-01 -5.705868e-03 4.962052e-03 -5.684512e-01 9.874952e-03 1.162072e-02 -6.608632e-03 -1.926731e-02 4.120570e-03 -1.417735e-02 -4.814502e-03 2.743713e-02 -3.684510e-03 3.301168e-03 1.845755e-03 2.382481e-02 -5.708827e-03 1.224979e-03 -5.188008e-02
<VARIANCE> 25
 4.985179e+01 3.284648e+01 3.785780e+01 2.994864e+01 3.828256e+01 4.744218e+01 4.313741e+01 4.486521e+01 3.543468e+01 2.571422e+01 2.592956e+01 2.272986e+01 1.889143e+00 1.028536e+00 1.399186e+00 1.579169e+00 2.156070e+00 2.344755e+00 2.021940e+00 2.437280e+00 1.728294e+00 1.555654e+00 1.409552e+00 1.306490e+00 1.124513e+00
<GCONST> 9.503696e+01
<STATE> 3
<MEAN> 25
 -2.256701e-01 5.639194e-01 1.582241e+00 -5.372150e-01 -6.260619e-01 -7.166401e-01 -6.248035e-01 -5.957022e-03 1.685043e-02 -4.641907e-01 -1.706039e-02 2.383375e-02 -1.160045e-02 -2.055384e-02 -3.243439e-03 -1.398304e-02 -8.309963e-04 3.296925e-02 -2.646949e-03 -2.980849e-03 3.439500e-04 2.537508e-02 -5.080048e-03 2.873881e-03 -5.169056e-02
<VARIANCE> 25
 4.969843e+01 3.312607e+01 3.758689e+01 2.926178e+01 3.758641e+01 4.715073e+01 4.343034e+01 4.425664e+01 3.531664e+01 2.543616e+01 2.558643e+01 2.263381e+01 1.907182e+00 1.035037e+00 1.392213e+00 1.575445e+00 2.166606e+00 2.329156e+00 2.037254e+00 2.435523e+00 1.731462e+00 1.559854e+00 1.413185e+00 1.311591e+00 1.124673e+00
<GCONST> 9.497342e+01
<STATE> 4
<MEAN> 25
 -2.034640e-01 5.232983e-01 1.493951e+00 -6.220388e-01 -6.702408e-01 -5.267897e-01 -6.839744e-01 -1.038226e-01 1.220789e-03 -3.926886e-01 -7.718369e-02 6.997417e-02 -1.563670e-02 -2.590478e-02 -1.614750e-02 -1.104441e-02 6.172563e-03 3.627130e-02 5.173217e-03 -1.046277e-02 6.259013e-03 2.767149e-02 -4.852930e-03 7.501625e-03 -4.657666e-02
<VARIANCE> 25
 5.082360e+01 3.331189e+01 3.738600e+01 2.933613e+01 3.725198e+01 4.759405e+01 4.365059e+01 4.324619e+01 3.549078e+01 2.508249e+01 2.505138e+01 2.223325e+01 1.936685e+00 1.035320e+00 1.375244e+00 1.565540e+00 2.184061e+00 2.325552e+00 2.033582e+00 2.414914e+00 1.736300e+00 1.564031e+00 1.407095e+00 1.317217e+00 1.105018e+00
<GCONST> 9.491390e+01
<TRANSP> 5
 0.000000e+00 1.000000e+00 0.000000e+00 0.000000e+00 0.000000e+00
 0.000000e+00 7.664047e-01 2.335953e-01 0.000000e+00 0.000000e+00
 0.000000e+00 0.000000e+00 7.664047e-01 2.335952e-01 0.000000e+00
 0.000000e+00 0.000000e+00 0.000000e+00 8.957945e-01 1.042055e-01
 0.000000e+00 0.000000e+00 0.000000e+00 0.000000e+00 0.000000e+00
<ENDHMM>
~h "ng"
<BEGINHMM>
<NUMSTATES> 5
<STATE> 2
<MEAN> 25
 1.482989e+00 1.481081e+00 5.638617e-01 -2.297934e-01 -1.330829e+00 5.786499e-02 -5.773527e-01 -5.021995e-01 -1.422838e+00 -7.602340e-01 6.056093e-02 -8.103920e-01 5.115203e-03 -9.772733e-03 -1.711679e-02 1.701018e-03 4.139197e-03 6.426211e-04 6.071687e-03 9.895776e-03 8.171495e-03 3.536470e-03 -5.644878e-03 -2.021003e-03 -9.444899e-03
<VARIANCE> 25
 4.673413e+01 3.114080e+01 4.595665e+01 3.874446e+01 4.567347e+01 4.376803e+01 4.785025e+01 4.528645e+01 3.200381e+01 2.451838e+01 3.411810e+01 2.425732e+01 1.578967e+00 1.013566e+00 1.315736e+00 1.566932e+00 1.969491e+00 2.063594e+00 2.076966e+00 2.075206e+00 1.737756e+00 1.571681e+00 1.660689e+00 1.336843e+00 8.163730e-01
<GCONST> 9.503630e+01
<STATE> 3
<MEAN> 25
 1.498825e+00 1.426594e+00 4.917721e-01 -2.218875e-01 -1.309237e+00 6.218025e-02 -5.485443e-01 -4.596410e-01 -1.383381e+00 -7.374007e-01 3.499378e-02 -8.171068e-01 7.462567e-04 -1.434468e-02 -1.712599e-02 1.435917e-03 5.914011e-03 2.784429e-03 6.788734e-03 9.198349e-03 1.025127e-02 6.892994e-03 -5.749901e-03 -8.210411e-04 -1.229063e-02
<VARIANCE> 25
 4.653172e+01 3.118261e+01 4.596546e+01 3.865540e+01 4.517375e+01 4.379815e+01 4.812042e+01 4.565276e+01 3.191374e+01 2.445567e+01 3.390561e+01 2.417369e+01 1.572952e+00 1.010277e+00 1.305063e+00 1.559250e+00 1.950232e+00 2.057997e+00 2.079563e+00 2.068412e+00 1.728897e+00 1.573151e+00 1.652347e+00 1.335811e+00 8.160288e-01
<GCONST> 9.497437e+01
<STATE> 4
<MEAN> 25
 1.490015e+00 1.296885e+00 3.576206e-01 -2.863738e-01 -1.325046e+00 8.417434e-02 -5.013380e-01 -4.116312e-01 -1.345046e+00 -6.517180e-01 -4.868546e-02 -8.276076e-01 -4.787477e-03 -2.054106e-02 -1.551620e-02 2.078150e-03 9.606085e-03 4.745503e-03 7.392182e-03 8.797666e-03 1.392806e-02 1.108281e-02 -6.659449e-03 1.742224e-03 -1.525473e-02
<VARIANCE> 25
 4.599846e+01 3.132604e+01 4.582153e+01 3.916335e+01 4.473330e+01 4.390628e+01 4.922129e+01 4.587221e+01 3.210651e+01 2.442255e+01 3.373696e+01 2.400065e+01 1.548126e+00 1.010358e+00 1.279465e+00 1.560246e+00 1.925087e+00 2.060935e+00 2.103690e+00 2.059235e+00 1.722414e+00 1.583843e+00 1.643246e+00 1.334799e+00 8.175292e-01
<GCONST> 9.494904e+01
<TRANSP> 5
 0.000000e+00 1.000000e+00 0.000000e+00 0.000000e+00 0.000000e+00
 0.000000e+00 7.741733e-01 2.258268e-01 0.000000e+00 0.000000e+00
 0.000000e+00 0.000000e+00 7.741733e-01 2.258268e-01 0.000000e+00
 0.000000e+00 0.000000e+00 0.000000e+00 9.039093e-01 9.609070e-02
 0.000000e+00 0.000000e+00 0.000000e+00 0.000000e+00 0.000000e+00
<ENDHMM>
~h "ow"
<BEGINHMM>
<NUMSTATES> 5
<STATE> 2
<MEAN> 25
 1.381121e+00 1.087243e+00 -6.049077e-01 -7.841649e-01 -2.047256e-01 1.558392e-01 -3.824252e-01 -2.995018e-01 -1.439127e+00 -1.121365e-01 1.417387e-01 1.650232e-01 -7.323140e-03 6.043833e-03 3.086685e-03 1.008929e-03 4.350502e-03 2.458482e-03 1.044039e-02 -5.320162e-03 -2.072735e-03 1.254355e-03 -7.315462e-03 -4.759885e-05 -1.438787e-02
<VARIANCE> 25
 6.565200e+01 3.453563e+01 4.364901e+01 4.010353e+01 4.624281e+01 4.114734e+01 5.266925e+01 4.834598e+01 3.762086e+01 2.977455e+01 3.396582e+01 2.269163e+01 1.452218e+00 9.305510e-01 1.211188e+00 1.521659e+00 1.769733e+00 1.989333e+00 2.125796e+00 2.153814e+00 1.798608e+00 1.618544e+00 1.558775e+00 1.308077e+00 7.326269e-01
<GCONST> 9.536539e+01
<STATE> 3
<MEAN> 25
 1.353122e+00 1.100812e+00 -5.909637e-01 -7.707739e-01 -1.888772e-01 1.701937e-01 -3.349031e-01 -3.191738e-01 -1.442565e+00 -1.001384e-01 1.104757e-01 1.640920e-01 -4.930095e-03 4.191127e-04 4.096166e-03 3.355280e-03 7.536635e-04 4.248752e-03 1.076191e-02 -5.420788e-03 1.089700e-03 1.584797e-03 -6.353232e-03 4.507579e-04 -1.636491e-02
<VARIANCE> 25
 6.513783e+01 3.487625e+01 4.364481e+01 4.004350e+01 4.604383e+01 4.147932e+01 5.376520e+01 4.795433e+01 3.740218e+01 3.000790e+01 3.384378e+01 2.275394e+01 1.453483e+00 9.319175e-01 1.209875e+00 1.518770e+00 1.760617e+00 2.002712e+00 2.134334e+00 2.163190e+00 1.797889e+00 1.628221e+00 1.561014e+00 1.301908e+00 7.299328e-01
<GCONST> 9.539088e+01
<STATE> 4
<MEAN> 25
 1.393906e+00 1.129699e+00 -5.923803e-01 -7.798247e-01 -2.239673e-01 2.482818e-01 -2.684888e-01 -3.344098e-01 -1.460378e+00 -7.386997e-02 7.298663e-02 1.225173e-01 -8.792584e-04 -8.310724e-03 5.478890e-03 8.278230e-03 -3.788174e-03 6.283940e-03 1.210289e-02 -1.555173e-03 5.814678e-03 5.827766e-03 -3.166321e-03 1.964206e-03 -1.835971e-02
<VARIANCE> 25
 6.259185e+01 3.496072e+01 4.291951e+01 4.084100e+01 4.606612e+01 4.235064e+01 5.579120e+01 4.676071e+01 3.741917e+01 3.025710e+01 3.351659e+01 2.291596e+01 1.442632e+00 9.246079e-01 1.199417e+00 1.524755e+00 1.751011e+00 2.028599e+00 2.165672e+00 2.157763e+00 1.795456e+00 1.634183e+00 1.547109e+00 1.297364e+00 7.264941e-01
<GCONST> 9.538000e+01
<TRANSP> 5
 0.000000e+00 1.000000e+00 0.000000e+00 0.000000e+00 0.000000e+00
 0.000000e+00 7.767783e-01 2.232217e-01 0.000000e+00 0.000000e+00
 0.000000e+00 0.000000e+00 7.767776e-01 2.232224e-01 0.000000e+00
 0.000000e+00 0.000000e+00 0.000000e+00 9.071743e-01 9.282570e-02
 0.000000e+00 0.000000e+00 0.000000e+00 0.000000e+00 0.000000e+00
<ENDHMM>
~h "oy"
<BEGINHMM>
<NUMSTATES> 5
<STATE> 2
<MEAN> 25
 7.729505e-01 2.545062e+00 -1.116789e+00 -1.648515e+00 5.028481e-02 -3.067974e-04 -1.439761e-01 -8.546087e-01 -2.071302e+00 7.222155e-01 -1.541730e-01 1.531502e-02 4.285924e-02 -1.024754e-02 -1.190563e-02 1.037429e-02 -7.005573e-03 -1.265331e-02 -1.092715e-03 1.484539e-02 -1.236911e-02 8.367804e-03 -1.365107e-03 1.574454e-02 1.912266e-03
<VARIANCE> 25
 5.682173e+01 2.910328e+01 4.547024e+01 4.574548e+01 3.647143e+01 3.990519e+01 5.615951e+01 3.396125e+01 3.567709e+01 2.990577e+01 2.805087e+01 2.478723e+01 2.286827e+00 1.328628e+00 1.504652e+00 2.203758e+00 2.247904e+00 2.380120e+00 2.927441e+00 1.936588e+00 1.818159e+00 1.738286e+00 1.648970e+00 1.437312e+00 1.115293e+00
<GCONST> 9.719622e+01
<STATE> 3
<MEAN> 25
 9.463862e-01 2.487227e+00 -1.190178e+00 -1.599606e+00 3.044016e-02 -5.489752e-02 -1.299101e-01 -7.840650e-01 -2.105506e+00 7.629375e-01 -1.645758e-01 7.840166e-02 3.801208e-02 -1.411941e-02 -1.637779e-02 1.141537e-02 -3.872491e-03 -1.310278e-02 3.136696e-03 1.751738e-02 -5.798632e-03 9.092017e-03 -1.205407e-03 1.356581e-02 2.929328e-03
<VARIANCE> 25
 5.828838e+01 2.797764e+01 4.551947e+01 4.591511e+01 3.655782e+01 4.031352e+01 5.603908e+01 3.452514e+01 3.561353e+01 2.895883e+01 2.759291e+01 2.347448e+01 2.344077e+00 1.322426e+00 1.553999e+00 2.219278e+00 2.243700e+00 2.429993e+00 2.961914e+00 1.982995e+00 1.843706e+00 1.706663e+00 1.657887e+00 1.420725e+00 1.101102e+00
<GCONST> 9.719923e+01
<STATE> 4
<MEAN> 25
 1.144705e+00 2.319518e+00 -1.621334e+00 -1.598195e+00 7.742693e-02 -1.447642e-01 6.448123e-02 -5.820732e-01 -2.124530e+00 9.266138e-01 -2.707395e-01 1.678101e-01 2.477361e-02 -1.994350e-02 -2.472585e-02 8.506061e-03 3.834827e-03 -1.420319e-02 1.337942e-02 2.190117e-02 4.741057e-03 1.013452e-02 -4.252956e-03 9.049954e-03 3.545412e-03
<VARIANCE> 25
 6.341430e+01 2.631909e+01 4.610173e+01 4.790165e+01 3.736650e+01 4.227868e+01 5.766945e+01 3.665007e+01 3.599690e+01 2.721350e+01 2.692067e+01 2.123222e+01 2.513347e+00 1.320537e+00 1.658191e+00 2.287136e+00 2.248421e+00 2.577220e+00 3.053081e+00 2.108980e+00 1.884172e+00 1.626387e+00 1.683240e+00 1.410339e+00 1.065712e+00
<GCONST> 9.752369e+01
<TRANSP> 5
 0.000000e+00 1.000000e+00 0.000000e+00 0.000000e+00 0.000000e+00
 0.000000e+00 7.733460e-01 2.266539e-01 0.000000e+00 0.000000e+00
 0.000000e+00 0.000000e+00 7.733461e-01 2.266539e-01 0.000000e+00
 0.000000e+00 0.000000e+00 0.000000e+00 9.025805e-01 9.741952e-02
 0.000000e+00 0.000000e+00 0.000000e+00 0.000000e+00 0.000000e+00
<ENDHMM>
~h "sh"
<BEGINHMM>
<NUMSTATES> 5
<STATE> 2
<MEAN> 25
 -2.319557e+00 -1.520065e+00 7.930564e-01 -2.820503e-01 8.458095e-01 4.651361e-01 1.007672e+00 1.041258e-01 1.637116e+00 1.671823e-01 1.675116e-01 9.312879e-01 -7.666796e-03 -7.851347e-03 5.413969e-03 -4.953272e-03 1.470215e-02 1.898836e-02 2.216192e-02 9.322464e-03 7.471460e-03 -6.431106e-03 -9.584856e-03 9.262813e-03 5.929400e-03
<VARIANCE> 25
 8.115392e+01 3.803207e+01 3.789972e+01 2.915544e+01 4.180325e+01 4.480011e+01 4.732219e+01 4.598556e+01 3.806832e+01 2.525716e+01 2.965175e+01 2.122990e+01 2.133701e+00 9.842963e-01 1.301487e+00 1.489508e+00 1.742222e+00 2.054930e+00 2.267383e+00 2.205528e+00 1.940229e+00 1.562886e+00 1.413407e+00 1.338670e+00 7.440509e-01
<GCONST> 9.526356e+01
<STATE> 3
<MEAN> 25
 -2.340916e+00 -1.531730e+00 8.293889e-01 -3.188333e-01 8.851205e-01 5.187624e-01 1.093219e+00 1.501965e-01 1.653278e+00 1.461960e-01 1.303577e-01 9.588273e-01 -2.115182e-03 -4.868030e-04 9.707601e-03 -9.069611e-03 6.779044e-03 9.646629e-03 1.741553e-02 1.087472e-02 2.841656e-03 -6.117991e-03 -8.712664e-03 3.612014e-03 8.815714e-03
<VARIANCE> 25
 8.231602e+01 3.721636e+01 3.849029e+01 2.943305e+01 4.170420e+01 4.487267e+01 4.776155e+01 4.611968e+01 3.825352e+01 2.529482e+01 2.993883e+01 2.119292e+01 2.154788e+00 9.963714e-01 1.332035e+00 1.496162e+00 1.752336e+00 2.069829e+00 2.265375e+00 2.220512e+00 1.935785e+00 1.555825e+00 1.427199e+00 1.357698e+00 7.499526e-01
<GCONST> 9.540015e+01
<STATE> 4
<MEAN> 25
 -2.269773e+00 -1.289016e+00 9.698483e-01 -4.283088e-01 8.569590e-01 5.120496e-01 1.124934e+00 1.706611e-01 1.541812e+00 8.574609e-02 6.552073e-02 1.014013e+00 1.099180e-02 1.718596e-02 1.738038e-02 -1.267908e-02 -1.035824e-02 -5.320532e-03 1.785661e-03 2.339522e-03 -1.333907e-02 -8.024010e-03 -1.161641e-02 -5.957256e-03 8.174407e-03
<VARIANCE> 25
 8.337170e+01 3.624791e+01 4.006930e+01 3.066402e+01 4.199123e+01 4.609299e+01 5.026252e+01 4.618264e+01 3.844719e+01 2.626158e+01 3.038917e+01 2.156476e+01 2.173933e+00 1.015166e+00 1.370038e+00 1.469428e+00 1.766014e+00 2.098604e+00 2.276968e+00 2.202956e+00 1.939567e+00 1.532906e+00 1.457803e+00 1.347821e+00 7.581233e-01
<GCONST> 9.569692e+01
<TRANSP> 5
 0.000000e+00 1.000000e+00 0.000000e+00 0.000000e+00 0.000000e+00
 0.000000e+00 7.717587e-01 2.282413e-01 0.000000e+00 0.000000e+00
 0.000000e+00 0.000000e+00 7.717588e-01 2.282413e-01 0.000000e+00
 0.000000e+00 0.000000e+00 0.000000e+00 9.013699e-01 9.863010e-02
 0.000000e+00 0.000000e+00 0.000000e+00 0.000000e+00 0.000000e+00
<ENDHMM>
~h "th"
<BEGINHMM>
<NUMSTATES> 5
<STATE> 2
<MEAN> 25
 -1.450565e+00 -2.130765e+00 -1.288953e-01 5.387568e-01 9.653256e-01 1.386049e+00 1.352855e+00 -5.503124e-01 7.970201e-01 4.143051e-01 3.292756e-01 5.248852e-01 3.828460e-02 4.193883e-02 7.881721e-03 -5.328660e-03 -9.874645e-03 -7.967825e-03 -7.744131e-03 1.021162e-02 -2.659814e-02 -1.087895e-02 -1.240330e-02 -6.739723e-03 -1.104997e-03
<VARIANCE> 25
 6.389048e+01 3.858826e+01 3.428613e+01 2.440047e+01 4.172677e+01 4.166720e+01 4.166988e+01 3.773718e+01 3.558826e+01 2.379595e+01 3.254383e+01 2.104613e+01 1.285748e+00 8.397087e-01 1.169036e+00 1.252434e+00 1.668007e+00 1.873462e+00 1.902167e+00 1.813745e+00 1.665788e+00 1.514182e+00 1.708514e+00 1.399377e+00 7.159817e-01
<GCONST> 9.287695e+01
<STATE> 3
<MEAN> 25
 -1.276816e+00 -1.932395e+00 -1.062494e-01 5.107903e-01 9.112490e-01 1.341589e+00 1.308301e+00 -5.065123e-01 6.663119e-01 3.657195e-01 2.851881e-01 5.112525e-01 3.887049e-02 4.454167e-02 7.977834e-03 -3.893720e-03 -1.290904e-02 -1.121707e-02 -9.628044e-03 1.107627e-02 -2.751743e-02 -1.086582e-02 -9.649863e-03 -3.616787e-03 -3.442075e-04
<VARIANCE> 25
 6.394414e+01 3.818684e+01 3.465723e+01 2.477702e+01 4.266577e+01 4.208480e+01 4.192198e+01 3.773740e+01 3.610736e+01 2.454403e+01 3.286634e+01 2.094802e+01 1.310314e+00 8.533649e-01 1.162769e+00 1.258972e+00 1.688670e+00 1.884414e+00 1.885605e+00 1.819191e+00 1.692342e+00 1.518243e+00 1.726910e+00 1.400504e+00 7.203115e-01
<GCONST> 9.306559e+01
<STATE> 4
<MEAN> 25
 -1.050313e+00 -1.505829e+00 -1.163636e-01 5.157531e-01 7.246694e-01 1.199230e+00 1.215121e+00 -4.228547e-01 5.119133e-01 3.356434e-01 2.890206e-01 5.409261e-01 3.935151e-02 4.674271e-02 -7.263372e-04 -2.833285e-03 -1.813000e-02 -1.449755e-02 -9.321817e-03 9.504361e-03 -2.498936e-02 -1.091871e-02 -7.248407e-03 -5.880016e-03 -3.781383e-03
<VARIANCE> 25
 6.449921e+01 3.704268e+01 3.593568e+01 2.573702e+01 4.429473e+01 4.380101e+01 4.436619e+01 3.774952e+01 3.725049e+01 2.610962e+01 3.366201e+01 2.105735e+01 1.357315e+00 8.678653e-01 1.165807e+00 1.280792e+00 1.700055e+00 1.896386e+00 1.857759e+00 1.835023e+00 1.746049e+00 1.564531e+00 1.740829e+00 1.394962e+00 7.415152e-01
<GCONST> 9.354772e+01
<TRANSP> 5
 0.000000e+00 1.000000e+00 0.000000e+00 0.000000e+00 0.000000e+00
 0.000000e+00 7.744473e-01 2.255527e-01 0.000000e+00 0.000000e+00
 0.000000e+00 0.000000e+00 7.744476e-01 2.255524e-01 0.000000e+00
 0.000000e+00 0.000000e+00 0.000000e+00 9.047431e-01 9.525686e-02
 0.000000e+00 0.000000e+00 0.000000e+00 0.000000e+00 0.000000e+00
<ENDHMM>
~h "uh"
<BEGINHMM>
<NUMSTATES> 5
<STATE> 2
<MEAN> 25
 1.111391e+00 1.633473e+00 1.385284e+00 -2.952618e-01 -1.833917e+00 -9.583099e-01 -2.466739e+00 -4.971338e-01 -1.220852e+00 -4.178189e-01 1.205683e+00 -6.192861e-01 1.134012e-02 1.618113e-02 1.937556e-03 2.629961e-02 -2.200528e-02 6.104808e-03 -1.368635e-02 1.624399e-03 -1.100576e-02 1.047772e-03 2.678142e-02 3.954121e-03 -3.511712e-02
<VARIANCE> 25
 4.316519e+01 3.667665e+01 4.450605e+01 3.088326e+01 4.485722e+01 4.431384e+01 5.920045e+01 4.563454e+01 3.692484e+01 3.101819e+01 4.052831e+01 2.743312e+01 1.441270e+00 1.171944e+00 1.505308e+00 1.362645e+00 1.898926e+00 1.996507e+00 2.517091e+00 2.285667e+00 1.886948e+00 1.652795e+00 1.791900e+00 1.523410e+00 9.442313e-01
<GCONST> 9.650286e+01
<STATE> 3
<MEAN> 25
 1.139469e+00 1.688059e+00 1.387092e+00 -1.669925e-01 -1.886866e+00 -8.986130e-01 -2.518644e+00 -5.149657e-01 -1.250353e+00 -4.203925e-01 1.330574e+00 -6.006560e-01 6.119854e-03 1.095789e-02 -7.868394e-04 2.941416e-02 -1.266347e-02 1.271734e-02 -1.154611e-02 -3.535294e-03 -5.325945e-03 -1.237141e-03 2.714048e-02 5.033930e-03 -3.845630e-02
<VARIANCE> 25
 4.293341e+01 3.712618e+01 4.444757e+01 3.090827e+01 4.395348e+01 4.488728e+01 6.022721e+01 4.580854e+01 3.673549e+01 3.066035e+01 4.068363e+01 2.770213e+01 1.432868e+00 1.186482e+00 1.519215e+00 1.371403e+00 1.895998e+00 2.007956e+00 2.574871e+00 2.298536e+00 1.906328e+00 1.663566e+00 1.801991e+00 1.537484e+00 9.590491e-01
<GCONST> 9.662117e+01
<STATE> 4
<MEAN> 25
 1.146912e+00 1.806345e+00 1.355843e+00 9.555013e-03 -1.814372e+00 -5.605204e-01 -2.609174e+00 -7.171004e-01 -1.315720e+00 -4.350081e-01 1.614571e+00 -6.140602e-01 1.499865e-03 -1.362661e-03 -9.387294e-03 2.820279e-02 8.225685e-03 2.223306e-02 -4.444525e-03 -6.216059e-03 2.416454e-03 -8.064534e-03 1.804717e-02 7.780711e-03 -3.477746e-02
<VARIANCE> 25
 4.251362e+01 3.859310e+01 4.424802e+01 3.242293e+01 4.231298e+01 4.518158e+01 6.241642e+01 4.471074e+01 3.685699e+01 3.030624e+01 4.136964e+01 2.848479e+01 1.446168e+00 1.214969e+00 1.532978e+00 1.433897e+00 1.907336e+00 2.033482e+00 2.694533e+00 2.296493e+00 1.959450e+00 1.688392e+00 1.825426e+00 1.584197e+00 9.963566e-01
<GCONST> 9.698264e+01
<TRANSP> 5
 0.000000e+00 1.000000e+00 0.000000e+00 0.000000e+00 0.000000e+00
 0.000000e+00 7.760223e-01 2.239777e-01 0.000000e+00 0.000000e+00
 0.000000e+00 0.000000e+00 7.760224e-01 2.239776e-01 0.000000e+00
 0.000000e+00 0.000000e+00 0.000000e+00 9.058858e-01 9.411427e-02
 0.000000e+00 0.000000e+00 0.000000e+00 0.000000e+00 0.000000e+00
<ENDHMM>
~h "uw"
<BEGINHMM>
<NUMSTATES> 5
<STATE> 2
<MEAN> 25
 -4.257276e-02 7.384555e-01 2.120844e-01 1.161655e+00 -9.027161e-02 -1.590135e-01 -1.264300e+00 -1.171633e+00 -5.757743e-01 -1.829426e-01 8.682876e-01 -5.473322e-01 1.181853e-04 2.422260e-03 1.072104e-03 9.182912e-03 -1.172732e-02 -4.352871e-03 -4.899495e-03 1.769761e-03 1.811762e-03 -3.377220e-03 -6.269081e-03 -4.413095e-03 -1.402584e-02
<VARIANCE> 25
 5.038580e+01 3.739555e+01 3.453309e+01 3.259705e+01 4.322715e+01 4.245770e+01 6.140404e+01 4.043386e+01 3.366202e+01 2.856524e+01 3.003146e+01 2.673843e+01 1.385338e+00 1.021424e+00 1.214679e+00 1.483605e+00 1.811285e+00 2.083198e+00 2.457848e+00 2.059754e+00 1.740511e+00 1.597097e+00 1.515032e+00 1.483822e+00 8.206155e-01
<GCONST> 9.492399e+01
<STATE> 3
<MEAN> 25
 -3.785728e-02 7.553338e-01 2.187666e-01 1.201793e+00 -1.515483e-01 -1.891811e-01 -1.289440e+00 -1.163788e+00 -5.721144e-01 -2.014212e-01 8.433425e-01 -5.689781e-01 4.134642e-03 4.378769e-03 1.705087e-03 8.223884e-03 -1.471788e-02 -8.407665e-03 -8.203013e-03 1.680622e-03 -3.391323e-04 -5.520666e-03 -5.947439e-03 -5.362555e-03 -1.185044e-02
<VARIANCE> 25
 4.955574e+01 3.690973e+01 3.445513e+01 3.262860e+01 4.301233e+01 4.301042e+01 6.135813e+01 4.057666e+01 3.337038e+01 2.864494e+01 2.989125e+01 2.667865e+01 1.382614e+00 1.021195e+00 1.215799e+00 1.482608e+00 1.820989e+00 2.085091e+00 2.447706e+00 2.068537e+00 1.736344e+00 1.589775e+00 1.509318e+00 1.484530e+00 8.221943e-01
<GCONST> 9.488697e+01
<STATE> 4
<MEAN> 25
 1.010269e-01 9.226902e-01 2.089800e-01 1.282577e+00 -3.642071e-01 -3.526351e-01 -1.427569e+00 -1.169912e+00 -6.530765e-01 -2.640620e-01 8.598763e-01 -6.736942e-01 6.642904e-03 4.247419e-03 1.763867e-03 6.722261e-03 -1.650107e-02 -1.117127e-02 -6.557388e-03 3.986416e-03 -8.431561e-04 -4.694987e-03 -3.048092e-03 -3.962374e-03 -9.504093e-03
<VARIANCE> 25
 4.775616e+01 3.557987e+01 3.423201e+01 3.339396e+01 4.313583e+01 4.454715e+01 6.296559e+01 4.082056e+01 3.305392e+01 2.917416e+01 2.989175e+01 2.709292e+01 1.371776e+00 1.012952e+00 1.202133e+00 1.471705e+00 1.834839e+00 2.095616e+00 2.442353e+00 2.054826e+00 1.726974e+00 1.573649e+00 1.502321e+00 1.487446e+00 8.202717e-01
<GCONST> 9.487247e+01
<TRANSP> 5
 0.000000e+00 1.000000e+00 0.000000e+00 0.000000e+00 0.000000e+00
 0.000000e+00 7.742426e-01 2.257574e-01 0.000000e+00 0.000000e+00
 0.000000e+00 0.000000e+00 7.742428e-01 2.257572e-01 0.000000e+00
 0.000000e+00 0.000000e+00 0.000000e+00 9.043664e-01 9.563354e-02
 0.000000e+00 0.000000e+00 0.000000e+00 0.000000e+00 0.000000e+00
<ENDHMM>
~h "zh"
<BEGINHMM>
<NUMSTATES> 5
<STATE> 2
<MEAN> 25
 -5.081375e-01 2.011125e+00 6.041035e+00 5.668307e-01 -2.471890e+00 -2.230514e+00 -1.760019e+00 -9.498661e-01 2.347643e-02 -1.233798e+00 8.411550e-01 -4.941680e-01 1.008559e-01 7.795985e-02 5.732719e-02 -1.367352e-02 -4.384081e-02 -2.949821e-02 -1.450791e-02 3.063557e-03 -1.132109e-02 -1.407587e-02 -4.630310e-02 8.011372e-03 -2.118911e-02
<VARIANCE> 25
 5.274860e+01 4.008643e+01 3.316439e+01 3.583832e+01 2.598271e+01 3.249429e+01 4.259535e+01 4.039242e+01 2.506085e+01 2.299687e+01 2.986322e+01 2.033328e+01 2.288012e+00 1.310744e+00 1.291132e+00 1.842848e+00 1.620094e+00 2.414674e+00 2.530015e+00 2.587686e+00 1.308786e+00 1.199840e+00 1.625534e+00 1.311562e+00 8.985715e-01
<GCONST> 9.394797e+01
<STATE> 3
<MEAN> 25
 -1.315197e-01 2.283412e+00 6.226698e+00 5.111363e-01 -2.623860e+00 -2.305952e+00 -1.802689e+00 -9.600136e-01 1.430797e-02 -1.248123e+00 6.996304e-01 -4.357492e-01 9.048217e-02 6.414407e-02 4.126252e-02 -1.188997e-02 -3.562912e-02 -1.467458e-02 -1.156336e-02 -3.813750e-03 -1.151796e-03 -2.869938e-03 -3.004335e-02 1.371950e-02 -3.304433e-02
<VARIANCE> 25
 5.177380e+01 3.983955e+01 3.351497e+01 3.551805e+01 2.667198e+01 3.326657e+01 4.145780e+01 4.098378e+01 2.469896e+01 2.248940e+01 2.942640e+01 2.013224e+01 2.237786e+00 1.339883e+00 1.289523e+00 1.796811e+00 1.681668e+00 2.480402e+00 2.425270e+00 2.540981e+00 1.279434e+00 1.161087e+00 1.633099e+00 1.271447e+00 9.079934e-01
<GCONST> 9.380569e+01
<STATE> 4
<MEAN> 25
 5.107256e-01 2.744967e+00 6.147529e+00 3.274319e-01 -2.790038e+00 -2.368973e+00 -2.004217e+00 -9.463838e-01 1.555575e-01 -1.056677e+00 7.174414e-01 -3.402857e-01 7.198789e-02 3.165133e-02 4.255330e-03 -1.370299e-02 -2.431586e-02 3.866239e-03 -3.178326e-03 -2.765385e-03 1.329236e-02 9.258872e-03 -1.097260e-02 1.989035e-02 -4.082607e-02
<VARIANCE> 25
 5.074704e+01 4.204664e+01 3.477423e+01 3.657766e+01 2.784753e+01 3.409988e+01 4.085834e+01 4.170288e+01 2.417022e+01 2.240886e+01 2.800134e+01 2.041952e+01 2.110725e+00 1.340642e+00 1.288665e+00 1.800037e+00 1.790816e+00 2.501438e+00 2.273214e+00 2.415714e+00 1.226881e+00 1.118679e+00 1.609420e+00 1.228492e+00 9.500634e-01
<GCONST> 9.373232e+01
<TRANSP> 5
 0.000000e+00 1.000000e+00 0.000000e+00 0.000000e+00 0.000000e+00
 0.000000e+00 7.583431e-01 2.416569e-01 0.000000e+00 0.000000e+00
 0.000000e+00 0.000000e+00 7.583430e-01 2.416570e-01 0.000000e+00
 0.000000e+00 0.000000e+00 0.000000e+00 8.856646e-01 1.143355e-01
 0.000000e+00 0.000000e+00 0.000000e+00 0.000000e+00 0.000000e+00
<ENDHMM>
~h "sil"
<BEGINHMM>
<NUMSTATES> 5
<STATE> 2
<MEAN> 25
 -8.140290e+00 -7.657431e+00 -3.172294e-01 1.551217e+00 5.367389e+00 5.680688e+00 4.640805e+00 -1.885466e+00 4.844945e+00 2.602199e+00 2.727711e+00 2.149461e+00 -3.052594e-02 -8.551737e-02 -8.467763e-02 -1.143760e-01 -1.082256e-01 -7.854763e-02 -1.342840e-01 -1.180634e-01 -1.350617e-01 -1.367291e-01 -1.361466e-01 -1.136631e-01 -2.367011e-02
<VARIANCE> 25
