~o
<STREAMINFO> 1 25
<VECSIZE> 25<NULLD><MFCC_D_N_Z_0><DIAGC>
~h "b"
<BEGINHMM>
<NUMSTATES> 5
<STATE> 2
<MEAN> 25
 3.873343e+00 9.886436e-01 1.816523e+00 2.557747e+00 1.213748e-01 -5.213874e-01 -1.886404e+00 -9.464475e-01 -1.691138e+00 -3.318102e-01 -2.910969e+00 -2.136240e+00 9.769686e-02 5.399387e-02 1.728963e-01 1.226466e-01 2.391176e-01 1.699901e-01 1.480080e-01 7.235168e-03 -1.394677e-01 -1.724204e-01 -3.249195e-01 -2.427950e-01 -1.974878e-02
<VARIANCE> 25
 1.445048e+01 1.527786e+01 2.511822e+01 1.970263e+01 2.883568e+01 3.363968e+01 2.911110e+01 8.407790e+01 1.836195e+01 1.965083e+01 2.367341e+01 1.581892e+01 8.641002e-01 8.754387e-01 1.334899e+00 1.161669e+00 1.338180e+00 1.660489e+00 1.687918e+00 2.806639e+00 1.533868e+00 1.602352e+00 1.720143e+00 1.285166e+00 7.969420e-01
<GCONST> 8.802166e+01
<STATE> 3
<MEAN> 25
 4.003078e+00 8.625786e-01 2.060314e+00 2.730493e+00 1.065475e+00 2.404294e-01 -1.138089e+00 -7.634802e-01 -1.893737e+00 -5.701048e-01 -3.526529e+00 -2.665034e+00 -1.896255e-02 6.218920e-04 4.625772e-02 5.922280e-02 1.901323e-01 1.370875e-01 1.863452e-01 1.157321e-01 -2.968659e-02 -6.532648e-02 -1.147228e-01 -6.259787e-02 3.243705e-02
<VARIANCE> 25
 1.270048e+01 1.276423e+01 2.730243e+01 2.094494e+01 2.631674e+01 3.133568e+01 2.815505e+01 8.569946e+01 1.745279e+01 1.938590e+01 2.167640e+01 1.530658e+01 7.779342e-01 7.109081e-01 1.416655e+00 1.144673e+00 1.296803e+00 1.627850e+00 1.728589e+00 2.539368e+00 1.336025e+00 1.495215e+00 1.610793e+00 1.175266e+00 8.782173e-01
<GCONST> 8.683396e+01
<STATE> 4
<MEAN> 25
 3.945375e+00 4.939697e-01 1.332789e+00 1.755635e+00 4.594364e-01 -1.006928e+00 -2.205138e+00 1.775584e+00 -1.864772e+00 -5.028337e-01 -3.275718e+00 -2.968055e+00 -5.936604e-02 -2.155636e-02 -9.955932e-02 -6.910038e-02 2.932823e-03 -8.555324e-02 -4.125394e-02 1.235762e-01 7.931329e-02 3.379350e-02 1.215051e-01 1.110574e-01 1.397584e-01
<VARIANCE> 25
 1.196641e+01 1.183755e+01 3.333207e+01 2.812610e+01 3.560982e+01 3.811890e+01 3.939933e+01 8.628236e+01 1.766439e+01 2.170157e+01 2.855408e+01 1.529684e+01 8.122575e-01 7.390357e-01 1.641803e+00 1.245247e+00 1.680265e+00 1.985647e+00 2.427434e+00 2.824345e+00 1.427136e+00 1.523747e+00 1.699865e+00 1.116250e+00 1.139800e+00
<GCONST> 8.999962e+01
<TRANSP> 5
 0.000000e+00 1.000000e+00 0.000000e+00 0.000000e+00 0.000000e+00
 0.000000e+00 7.509326e-01 2.490674e-01 0.000000e+00 0.000000e+00
 0.000000e+00 0.000000e+00 7.321513e-01 2.678487e-01 0.000000e+00
 0.000000e+00 0.000000e+00 0.000000e+00 8.642440e-01 1.357559e-01
 0.000000e+00 0.000000e+00 0.000000e+00 0.000000e+00 0.000000e+00
<ENDHMM>
~h "d"
<BEGINHMM>
<NUMSTATES> 5
<STATE> 2
<MEAN> 25
 9.757357e-01 2.519915e-01 3.298447e+00 1.867773e+00 -6.179438e-01 -5.822340e-01 -2.165852e-01 -1.535952e+00 -6.466632e-01 -1.712873e-01 -2.638696e-01 2.041733e-01 -2.235348e-01 -1.716192e-01 4.498674e-02 1.617783e-01 3.904817e-01 3.244206e-01 2.935184e-01 -1.975029e-01 2.079528e-01 3.799096e-02 2.377406e-02 1.125232e-01 -3.649290e-01
<VARIANCE> 25
 1.942621e+01 2.265673e+01 2.219674e+01 2.148449e+01 3.615990e+01 3.772314e+01 3.932750e+01 4.142287e+01 2.487047e+01 2.623037e+01 2.464632e+01 1.879048e+01 1.093275e+00 1.444405e+00 1.369388e+00 1.568802e+00 2.640942e+00 2.811520e+00 2.912472e+00 2.640136e+00 1.942240e+00 1.983599e+00 1.843918e+00 1.577067e+00 1.295998e+00
<GCONST> 9.337557e+01
<STATE> 3
<MEAN> 25
 3.703717e-01 -1.962193e-01 3.180422e+00 2.168992e+00 2.775135e-01 2.425609e-01 5.415025e-01 -1.697903e+00 -3.693447e-02 -1.009600e-01 -1.834990e-01 4.665481e-01 -2.000072e-01 -1.648590e-01 -4.726213e-02 2.646196e-02 2.077420e-01 2.214887e-01 2.335070e-01 8.238785e-03 1.824322e-01 3.995649e-02 7.471457e-02 9.262534e-02 -1.424711e-01
<VARIANCE> 25
 1.886959e+01 2.336484e+01 2.086225e+01 2.105285e+01 3.424427e+01 3.739903e+01 3.726919e+01 3.736604e+01 2.405743e+01 2.713448e+01 2.374632e+01 1.842575e+01 1.187511e+00 1.415510e+00 1.362089e+00 1.708010e+00 2.569118e+00 3.099939e+00 2.894938e+00 2.564784e+00 1.926524e+00 1.984165e+00 1.862217e+00 1.551121e+00 1.518127e+00
<GCONST> 9.333984e+01
<STATE> 4
<MEAN> 25
 3.924310e-03 -1.391596e-01 3.340885e+00 2.264216e+00 6.674236e-02 1.398731e-01 4.630773e-01 -1.335451e+00 1.928300e-01 -3.030017e-01 9.348176e-02 4.196768e-01 -1.120965e-01 -9.836181e-02 -1.162489e-01 -8.765957e-02 1.946481e-02 4.209687e-02 5.140763e-02 1.136566e-01 1.172578e-01 1.664474e-02 1.132871e-01 4.508386e-02 8.902808e-02
<VARIANCE> 25
 1.764005e+01 2.652030e+01 2.104001e+01 2.150691e+01 3.735975e+01 4.859454e+01 4.297512e+01 4.065450e+01 2.474296e+01 3.058941e+01 2.700239e+01 2.044783e+01 1.268693e+00 1.405915e+00 1.344622e+00 1.722295e+00 2.643997e+00 3.244282e+00 3.000235e+00 2.662149e+00 1.954164e+00 1.980369e+00 1.934952e+00 1.590151e+00 1.673901e+00
<GCONST> 9.476041e+01
<TRANSP> 5
 0.000000e+00 1.000000e+00 0.000000e+00 0.000000e+00 0.000000e+00
 0.000000e+00 6.552317e-01 3.447684e-01 0.000000e+00 0.000000e+00
 0.000000e+00 0.000000e+00 6.548149e-01 3.451851e-01 0.000000e+00
 0.000000e+00 0.000000e+00 0.000000e+00 7.970750e-01 2.029251e-01
 0.000000e+00 0.000000e+00 0.000000e+00 0.000000e+00 0.000000e+00
<ENDHMM>
~h "f"
<BEGINHMM>
<NUMSTATES> 5
<STATE> 2
<MEAN> 25
 -4.793549e+00 -1.279901e+00 -5.166947e+00 3.669651e+00 1.278858e-01 3.873615e+00 1.736793e+00 9.355047e-01 2.384122e+00 1.875309e+00 -2.813992e-01 1.578349e+00 -8.595220e-01 3.943195e-02 -6.190884e-01 3.349319e-01 -6.898414e-02 5.721657e-01 2.011975e-01 5.943020e-02 2.227985e-01 1.040095e-01 1.235179e-01 7.927701e-02 -1.711823e-01
<VARIANCE> 25
 3.821882e+01 1.004126e+01 2.352190e+01 3.094107e+01 2.225183e+01 2.714449e+01 2.835115e+01 1.781601e+01 2.395335e+01 2.226287e+01 1.779239e+01 1.539153e+01 2.250665e+00 8.574781e-01 1.388882e+00 1.374943e+00 1.669054e+00 1.907948e+00 2.333556e+00 1.749987e+00 2.365847e+00 1.839118e+00 1.521644e+00 1.207023e+00 4.867742e-01
<GCONST> 8.823503e+01
<STATE> 3
<MEAN> 25
 -6.595481e+00 -6.992694e-01 -6.718575e+00 4.778740e+00 -3.532070e-01 4.836502e+00 1.864911e+00 7.482304e-01 2.448491e+00 1.875896e+00 -3.282312e-02 1.704413e+00 -1.145138e-01 9.931729e-02 -2.376174e-01 5.602058e-02 -6.826071e-02 5.829797e-02 2.571077e-02 -3.119968e-02 -4.005920e-02 -1.966854e-02 4.457990e-02 2.861823e-02 4.631465e-02
<VARIANCE> 25
 3.493966e+01 1.125718e+01 2.000524e+01 2.659006e+01 2.156922e+01 2.333730e+01 2.889454e+01 1.756874e+01 2.105191e+01 2.052581e+01 1.678834e+01 1.481644e+01 2.403779e+00 8.280495e-01 1.283335e+00 1.501263e+00 1.509623e+00 1.957191e+00 1.945461e+00 1.648052e+00 2.012304e+00 1.745546e+00 1.561156e+00 1.182703e+00 4.593350e-01
<GCONST> 8.691846e+01
<STATE> 4
<MEAN> 25
 -5.373911e+00 -4.202166e-01 -6.323003e+00 4.738335e+00 -9.424814e-01 3.866443e+00 1.626959e+00 5.766357e-01 2.207789e+00 1.416313e+00 4.730548e-01 1.896975e+00 6.177493e-01 5.248681e-02 2.114736e-01 -3.733080e-01 4.445708e-03 -3.687268e-01 -5.320057e-02 -7.922539e-02 -1.582783e-01 -4.139018e-02 -1.583869e-02 -1.258753e-02 1.598981e-01
<VARIANCE> 25
 4.908544e+01 1.247980e+01 2.294045e+01 2.658246e+01 3.273492e+01 3.204198e+01 3.379209e+01 1.866566e+01 2.079201e+01 2.223506e+01 1.798176e+01 1.572893e+01 3.072147e+00 1.168941e+00 1.306319e+00 1.863217e+00 1.866729e+00 2.134064e+00 2.039570e+00 1.944624e+00 2.090812e+00 1.859075e+00 1.620847e+00 1.388883e+00 5.317702e-01
<GCONST> 9.042679e+01
<TRANSP> 5
 0.000000e+00 1.000000e+00 0.000000e+00 0.000000e+00 0.000000e+00
 0.000000e+00 7.871835e-01 2.128165e-01 0.000000e+00 0.000000e+00
 0.000000e+00 0.000000e+00 7.736856e-01 2.263144e-01 0.000000e+00
 0.000000e+00 0.000000e+00 0.000000e+00 8.575931e-01 1.424069e-01
 0.000000e+00 0.000000e+00 0.000000e+00 0.000000e+00 0.000000e+00
<ENDHMM>
~h "g"
<BEGINHMM>
<NUMSTATES> 5
<STATE> 2
<MEAN> 25
 5.846314e-01 1.962184e+00 3.883638e+00 1.556935e+00 -6.810824e-01 4.452549e-01 -1.082065e+00 -3.180559e+00 -1.672883e+00 -3.373072e-01 5.820042e-01 -2.081936e+00 1.875031e-01 3.895004e-03 1.822702e-01 5.670016e-02 -7.585489e-02 -1.659485e-01 -1.909236e-01 5.033866e-02 -2.281122e-01 1.127646e-01 8.671979e-02 -7.063038e-02 6.009428e-02
<VARIANCE> 25
 2.060594e+01 2.806028e+01 3.523074e+01 2.339924e+01 5.593867e+01 4.078066e+01 4.452746e+01 3.469674e+01 2.824270e+01 2.670841e+01 2.701132e+01 2.004473e+01 1.398797e+00 1.241127e+00 2.383550e+00 1.480704e+00 2.969499e+00 2.667881e+00 3.009237e+00 3.083565e+00 2.449127e+00 2.001656e+00 2.124807e+00 1.778351e+00 9.685092e-01
<GCONST> 9.601398e+01
<STATE> 3
<MEAN> 25
 8.616299e-01 1.877275e+00 3.772644e+00 1.759427e+00 -8.473185e-01 -2.569930e-01 -1.358623e+00 -2.536225e+00 -1.968857e+00 9.279406e-02 8.666553e-01 -1.862745e+00 1.147041e-01 -4.540449e-03 -5.386698e-02 1.682629e-02 -1.495059e-01 -3.276572e-01 -2.182429e-01 3.354614e-01 -1.258500e-01 5.207060e-02 1.724694e-01 7.813308e-02 2.136450e-01
<VARIANCE> 25
 1.931835e+01 2.655323e+01 3.846972e+01 2.597719e+01 5.644000e+01 4.413266e+01 4.470083e+01 4.046985e+01 2.811103e+01 2.701715e+01 2.905686e+01 1.881259e+01 1.352702e+00 1.225787e+00 2.011071e+00 1.567076e+00 2.955151e+00 3.112582e+00 2.731109e+00 3.286451e+00 2.307013e+00 2.053039e+00 2.205251e+00 1.675142e+00 9.915326e-01
<GCONST> 9.627216e+01
<STATE> 4
<MEAN> 25
 1.411817e+00 2.687660e+00 4.344683e+00 6.878367e-01 -3.046697e+00 -1.876408e+00 -3.136826e+00 -1.039959e+00 -2.891286e+00 1.056132e-01 1.622971e+00 -1.595611e+00 1.572174e-01 -1.291864e-01 -2.566704e-01 -6.923771e-02 -1.307792e-01 -1.811462e-01 -1.642235e-01 4.256541e-01 -1.738070e-02 -1.101177e-01 9.203174e-02 1.486725e-01 1.975646e-01
<VARIANCE> 25
 1.811926e+01 2.582092e+01 4.290582e+01 3.292023e+01 5.701443e+01 4.199197e+01 4.424524e+01 5.187518e+01 2.401480e+01 2.901760e+01 3.569144e+01 1.926312e+01 1.204745e+00 1.183834e+00 1.735623e+00 1.577584e+00 3.292173e+00 3.350907e+00 2.467041e+00 3.465508e+00 2.087070e+00 1.982104e+00 2.379467e+00 1.563050e+00 9.976144e-01
<GCONST> 9.658724e+01
<TRANSP> 5
 0.000000e+00 1.000000e+00 0.000000e+00 0.000000e+00 0.000000e+00
 0.000000e+00 6.991941e-01 3.008059e-01 0.000000e+00 0.000000e+00
 0.000000e+00 0.000000e+00 6.885192e-01 3.114808e-01 0.000000e+00
 0.000000e+00 0.000000e+00 0.000000e+00 8.287427e-01 1.712573e-01
 0.000000e+00 0.000000e+00 0.000000e+00 0.000000e+00 0.000000e+00
<ENDHMM>
~h "k"
<BEGINHMM>
<NUMSTATES> 5
<STATE> 2
<MEAN> 25
 -2.365003e+00 -2.461747e+00 -5.891699e-01 9.676106e-01 1.427571e+00 2.555863e-01 2.565926e+00 1.171539e-01 1.176227e+00 2.351629e+00 6.859313e-01 1.568722e+00 -1.473825e-01 -2.966392e-01 -2.722929e-01 -1.187179e-01 -7.190351e-03 -2.687957e-02 1.979224e-01 3.938608e-01 1.144589e-01 1.389625e-01 -2.600782e-02 1.541540e-01 2.134507e-01
<VARIANCE> 25
 2.640092e+01 2.709780e+01 3.134075e+01 2.629995e+01 3.201174e+01 4.554152e+01 3.882124e+01 4.719475e+01 3.699398e+01 2.596666e+01 2.250302e+01 1.829279e+01 2.213612e+00 2.535377e+00 2.773706e+00 2.784062e+00 3.315490e+00 5.082283e+00 4.533061e+00 4.623125e+00 3.782056e+00 2.761693e+00 2.315192e+00 1.936965e+00 4.091742e+00
<GCONST> 1.018116e+02
<STATE> 3
<MEAN> 25
 -2.481050e+00 -3.072649e+00 -1.203990e+00 6.014943e-01 1.071870e+00 1.847043e-01 2.925585e+00 1.495384e+00 1.310182e+00 2.484563e+00 6.338247e-01 1.762291e+00 1.427219e-01 7.547025e-03 -7.600772e-02 -3.492994e-02 -7.307306e-02 -1.073556e-01 -4.055210e-03 3.247516e-01 -4.147302e-02 -1.133694e-01 -1.083366e-01 -1.639238e-02 3.399211e-01
<VARIANCE> 25
 2.398128e+01 2.250678e+01 3.293659e+01 2.651164e+01 3.287383e+01 4.362108e+01 3.888399e+01 5.083417e+01 3.480071e+01 2.833871e+01 2.325167e+01 1.974879e+01 2.373538e+00 2.366884e+00 2.981576e+00 2.676063e+00 3.163526e+00 4.456553e+00 3.977452e+00 4.531227e+00 3.625518e+00 3.022379e+00 2.318696e+00 1.956174e+00 3.653261e+00
<GCONST> 1.014330e+02
<STATE> 4
<MEAN> 25
 -1.153123e+00 -2.602348e+00 -1.095586e+00 6.243585e-01 9.680897e-01 -4.515460e-01 2.206107e+00 2.470072e+00 6.134610e-01 1.628313e+00 -3.337145e-01 1.407551e+00 6.143826e-01 2.410141e-01 1.701692e-03 -7.111254e-03 -5.837357e-02 -9.720427e-02 -3.049211e-01 1.873947e-01 -2.219035e-01 -3.040199e-01 -2.734578e-01 -1.508233e-01 3.742441e-01
<VARIANCE> 25
 3.165503e+01 2.890809e+01 3.777504e+01 3.048384e+01 3.856252e+01 4.542110e+01 5.019016e+01 5.254967e+01 3.533590e+01 3.060305e+01 2.650339e+01 2.102589e+01 3.044244e+00 2.345888e+00 3.244621e+00 2.800541e+00 3.743228e+00 3.885530e+00 3.836688e+00 4.318672e+00 3.844660e+00 3.379399e+00 2.587057e+00 1.994454e+00 2.787986e+00
<GCONST> 1.033577e+02
<TRANSP> 5
 0.000000e+00 1.000000e+00 0.000000e+00 0.000000e+00 0.000000e+00
 0.000000e+00 7.280897e-01 2.719103e-01 0.000000e+00 0.000000e+00
 0.000000e+00 0.000000e+00 7.285775e-01 2.714225e-01 0.000000e+00
 0.000000e+00 0.000000e+00 0.000000e+00 8.203424e-01 1.796576e-01
 0.000000e+00 0.000000e+00 0.000000e+00 0.000000e+00 0.000000e+00
<ENDHMM>
~h "l"
<BEGINHMM>
<NUMSTATES> 5
<STATE> 2
<MEAN> 25
 6.711886e+00 3.753288e+00 -4.211329e+00 -7.779380e+00 -2.217408e+00 8.526334e-01 -2.722763e+00 6.158760e-01 -2.937188e+00 2.991102e+00 -1.999209e+00 -6.710516e-01 2.619873e-01 2.592222e-01 -1.255413e-01 -5.908455e-01 -1.104435e-01 1.751868e-01 -1.797562e-01 -6.604703e-02 -2.556219e-01 2.865913e-01 -1.367387e-02 1.002158e-01 4.321904e-02
<VARIANCE> 25
 1.437683e+01 1.527978e+01 3.018684e+01 4.824856e+01 2.898745e+01 3.182089e+01 3.562501e+01 2.947123e+01 3.210958e+01 2.858515e+01 2.899291e+01 1.929591e+01 1.073026e+00 6.913475e-01 1.070127e+00 2.449162e+00 1.571338e+00 1.670277e+00 1.851523e+00 1.659596e+00 1.854611e+00 1.507835e+00 1.571079e+00 1.180019e+00 6.201717e-01
<GCONST> 8.947556e+01
<STATE> 3
<MEAN> 25
 6.875966e+00 4.273443e+00 -4.127562e+00 -8.461149e+00 -2.332574e+00 1.103956e+00 -2.831896e+00 3.825263e-01 -3.249806e+00 3.527061e+00 -2.027329e+00 -1.995301e-01 -5.127613e-03 4.091101e-02 2.717399e-02 -8.358014e-02 5.118346e-03 6.260327e-02 -4.166758e-02 -1.743013e-02 -6.198368e-02 7.359878e-02 -9.387615e-03 6.306396e-02 -5.383644e-02
<VARIANCE> 25
 1.198975e+01 1.415467e+01 2.740386e+01 4.430453e+01 2.646095e+01 2.998867e+01 3.381210e+01 2.578575e+01 3.111849e+01 2.732727e+01 2.641149e+01 1.842999e+01 6.274995e-01 6.173144e-01 9.202491e-01 1.873157e+00 1.405178e+00 1.481888e+00 1.501638e+00 1.599302e+00 1.500918e+00 1.395376e+00 1.321879e+00 1.127286e+00 4.601445e-01
<GCONST> 8.613100e+01
<STATE> 4
<MEAN> 25
 6.135363e+00 3.570778e+00 -4.083222e+00 -8.613906e+00 -1.826517e+00 1.722555e+00 -2.091698e+00 4.336682e-01 -3.310728e+00 4.028486e+00 -2.511822e+00 1.325703e-01 -2.517953e-01 -2.337048e-01 1.677803e-01 4.102760e-01 1.797472e-01 2.566041e-03 1.218613e-01 -4.100361e-02 1.884454e-01 -1.067885e-01 5.757673e-02 -4.392474e-02 -1.601171e-01
<VARIANCE> 25
 1.337258e+01 1.841119e+01 2.363571e+01 4.708475e+01 2.959833e+01 3.034468e+01 3.635462e+01 2.699820e+01 3.506641e+01 2.553736e+01 3.074137e+01 1.796122e+01 6.927116e-01 7.409786e-01 9.535633e-01 2.109383e+00 1.583581e+00 1.737525e+00 1.837831e+00 1.650330e+00 1.683034e+00 1.663929e+00 1.567273e+00 1.096728e+00 5.961984e-01
<GCONST> 8.847633e+01
<TRANSP> 5
 0.000000e+00 1.000000e+00 0.000000e+00 0.000000e+00 0.000000e+00
 0.000000e+00 7.636780e-01 2.363219e-01 0.000000e+00 0.000000e+00
 0.000000e+00 0.000000e+00 7.460567e-01 2.539432e-01 0.000000e+00
 0.000000e+00 0.000000e+00 0.000000e+00 8.974748e-01 1.025253e-01
 0.000000e+00 0.000000e+00 0.000000e+00 0.000000e+00 0.000000e+00
<ENDHMM>
~h "m"
<BEGINHMM>
<NUMSTATES> 5
<STATE> 2
<MEAN> 25
 4.325403e+00 2.777033e-01 1.873746e+00 1.938491e+00 -8.104076e-01 -1.578345e-01 -1.714210e+00 -1.752154e+00 -3.243790e+00 -1.821058e+00 -1.330807e+00 -1.253019e+00 3.316645e-02 1.125121e-01 1.707117e-01 2.964563e-01 1.005119e-01 8.141107e-02 -3.443420e-02 -3.969726e-01 -2.813403e-01 -1.496502e-01 7.818964e-02 -2.887341e-02 -1.953563e-01
<VARIANCE> 25
 1.292708e+01 1.451327e+01 2.173077e+01 2.471858e+01 2.282813e+01 2.246719e+01 2.404755e+01 4.675497e+01 2.342538e+01 1.721900e+01 2.088030e+01 1.540718e+01 5.458408e-01 5.708211e-01 9.761415e-01 1.270982e+00 9.868304e-01 1.049486e+00 1.249284e+00 1.863030e+00 1.797724e+00 1.288673e+00 1.350274e+00 9.374123e-01 4.071146e-01
<GCONST> 8.261259e+01
<STATE> 3
<MEAN> 25
 4.273852e+00 4.848247e-01 2.230008e+00 2.545885e+00 -5.473706e-01 1.592866e-02 -1.528316e+00 -2.474545e+00 -3.603215e+00 -2.298892e+00 -1.198634e+00 -1.324825e+00 1.118428e-02 6.896838e-02 5.758118e-02 1.225239e-01 4.072730e-02 3.523427e-02 5.821257e-02 -1.159466e-01 -7.956950e-02 -9.261458e-02 6.154235e-02 -2.060983e-03 -1.030592e-01
<VARIANCE> 25
 1.188006e+01 1.256126e+01 1.657442e+01 2.398806e+01 2.086441e+01 2.128529e+01 2.094584e+01 4.382471e+01 2.234935e+01 1.657060e+01 1.668262e+01 1.441675e+01 5.053475e-01 4.945397e-01 8.413056e-01 1.307501e+00 8.861610e-01 1.064265e+00 1.102659e+00 1.887195e+00 1.724650e+00 1.212615e+00 1.079642e+00 9.265334e-01 4.062682e-01
<GCONST> 8.047353e+01
<STATE> 4
<MEAN> 25
 3.526719e+00 4.836767e-01 2.807919e+00 2.730920e+00 -2.203740e-01 9.156338e-01 -7.991627e-01 -2.929631e+00 -3.433943e+00 -2.111345e+00 -1.053288e+00 -1.539936e+00 -1.138175e-01 -3.867406e-02 -3.928497e-02 1.386983e-03 6.879901e-02 1.445253e-01 1.430266e-01 3.575231e-02 1.108904e-01 7.451403e-02 6.550574e-02 3.182406e-02 -1.137420e-01
<VARIANCE> 25
 1.317732e+01 1.154881e+01 1.449077e+01 2.816397e+01 2.014089e+01 2.199866e+01 2.266307e+01 3.645800e+01 1.966555e+01 1.689553e+01 1.508926e+01 1.383731e+01 4.961271e-01 4.737261e-01 8.541186e-01 1.204896e+00 8.579160e-01 1.106491e+00 1.085348e+00 1.943609e+00 1.432835e+00 1.179377e+00 1.038558e+00 9.134843e-01 4.006293e-01
<GCONST> 7.977377e+01
<TRANSP> 5
 0.000000e+00 1.000000e+00 0.000000e+00 0.000000e+00 0.000000e+00
 0.000000e+00 7.660317e-01 2.339682e-01 0.000000e+00 0.000000e+00
 0.000000e+00 0.000000e+00 7.661154e-01 2.338846e-01 0.000000e+00
 0.000000e+00 0.000000e+00 0.000000e+00 9.199711e-01 8.002888e-02
 0.000000e+00 0.000000e+00 0.000000e+00 0.000000e+00 0.000000e+00
<ENDHMM>
~h "n"
<BEGINHMM>
<NUMSTATES> 5
<STATE> 2
<MEAN> 25
 3.591365e+00 4.250250e-01 1.979989e+00 9.337378e-01 -6.053226e-01 9.351203e-01 -8.740410e-01 -1.535590e+00 -2.089309e+00 -2.080312e+00 -2.559027e+00 -8.472525e-01 3.717350e-02 1.608299e-01 1.389169e-01 3.164049e-01 1.067591e-01 1.708947e-01 -5.743775e-02 -6.171703e-01 -4.706611e-03 -9.829624e-02 1.023313e-01 -1.538137e-02 -3.171031e-01
<VARIANCE> 25
 1.440373e+01 1.768792e+01 2.090481e+01 2.026535e+01 2.261266e+01 2.353371e+01 2.315788e+01 5.110437e+01 1.875150e+01 2.002067e+01 2.709689e+01 1.561211e+01 6.787892e-01 7.139786e-01 7.765152e-01 1.132249e+00 1.242059e+00 1.463539e+00 1.435514e+00 2.698418e+00 1.520504e+00 1.500196e+00 1.678018e+00 1.075126e+00 5.682868e-01
<GCONST> 8.481316e+01
<STATE> 3
<MEAN> 25
 3.547582e+00 7.938658e-01 2.234038e+00 1.685013e+00 -1.875074e-01 1.411582e+00 -8.690896e-01 -3.053654e+00 -2.072587e+00 -2.119860e+00 -2.320194e+00 -8.250542e-01 -3.336783e-02 5.494902e-02 4.387300e-02 1.500689e-01 1.447545e-01 1.187802e-01 1.864268e-02 -2.974798e-01 1.632058e-02 -2.991295e-03 3.081338e-02 -9.282494e-04 -2.404741e-01
<VARIANCE> 25
 1.288438e+01 1.423918e+01 1.652301e+01 1.815904e+01 2.077827e+01 2.035789e+01 2.112503e+01 4.316752e+01 1.725313e+01 1.851131e+01 2.296828e+01 1.447156e+01 6.659946e-01 6.468984e-01 7.315604e-01 1.015431e+00 1.183566e+00 1.362010e+00 1.312864e+00 2.535302e+00 1.412816e+00 1.432854e+00 1.520450e+00 1.025138e+00 5.010307e-01
<GCONST> 8.229719e+01
<STATE> 4
<MEAN> 25
 2.957168e+00 6.938239e-01 2.403777e+00 2.111195e+00 6.711679e-01 1.739567e+00 -5.023161e-01 -3.405390e+00 -1.776099e+00 -1.908957e+00 -2.542448e+00 -7.523234e-01 -2.086121e-01 -5.637807e-02 -6.502464e-02 -1.472761e-03 2.316093e-01 8.106630e-02 1.569469e-01 5.538723e-02 1.199930e-01 1.045190e-01 3.120203e-02 3.386565e-02 -1.397995e-01
<VARIANCE> 25
 1.374443e+01 1.322731e+01 1.502169e+01 1.836170e+01 2.123824e+01 2.096689e+01 2.182439e+01 3.795501e+01 1.765648e+01 1.822636e+01 2.189692e+01 1.418373e+01 7.908493e-01 6.615469e-01 8.450142e-01 1.067291e+00 1.297263e+00 1.478449e+00 1.446157e+00 2.297329e+00 1.380102e+00 1.372275e+00 1.504741e+00 1.077991e+00 5.585099e-01
<GCONST> 8.274087e+01
<TRANSP> 5
 0.000000e+00 1.000000e+00 0.000000e+00 0.000000e+00 0.000000e+00
 0.000000e+00 7.054607e-01 2.945394e-01 0.000000e+00 0.000000e+00
 0.000000e+00 0.000000e+00 7.087755e-01 2.912245e-01 0.000000e+00
 0.000000e+00 0.000000e+00 0.000000e+00 8.593477e-01 1.406523e-01
 0.000000e+00 0.000000e+00 0.000000e+00 0.000000e+00 0.000000e+00
<ENDHMM>
~h "p"
<BEGINHMM>
<NUMSTATES> 5
<STATE> 2
<MEAN> 25
 -8.787022e-01 -2.364658e+00 -3.139113e-01 7.272534e-01 1.923953e+00 1.113468e+00 2.179128e+00 -1.438718e+00 1.204771e+00 1.518613e+00 5.511003e-01 7.918389e-01 7.298437e-02 -4.315419e-01 -2.245477e-01 7.991208e-02 1.302927e-01 3.338966e-01 3.732464e-01 -9.501116e-02 3.955786e-01 3.497058e-02 1.517618e-01 1.575166e-01 -1.907182e-01
<VARIANCE> 25
 3.141321e+01 1.894329e+01 2.831028e+01 2.435692e+01 3.390164e+01 3.657281e+01 3.525678e+01 2.876336e+01 2.903871e+01 2.069689e+01 2.031637e+01 1.784465e+01 2.971106e+00 1.906793e+00 1.860643e+00 2.366388e+00 2.798323e+00 3.051615e+00 2.996152e+00 3.320449e+00 2.522142e+00 2.083658e+00 1.875208e+00 1.951517e+00 2.956142e+00
<GCONST> 9.690714e+01
<STATE> 3
<MEAN> 25
 -1.003917e+00 -3.269020e+00 -1.305974e+00 7.663516e-01 2.168697e+00 2.172413e+00 3.150402e+00 -1.289673e+00 2.156496e+00 1.660898e+00 8.649915e-01 1.164349e+00 2.647710e-01 -5.914377e-02 -2.826211e-01 -1.476058e-02 -6.744660e-02 1.275052e-01 9.142504e-02 1.976519e-01 1.372062e-01 -3.189641e-02 1.426781e-02 3.354532e-03 2.552804e-01
<VARIANCE> 25
 3.063615e+01 1.661614e+01 2.366914e+01 2.449208e+01 2.348647e+01 3.097372e+01 3.302747e+01 2.597061e+01 2.440000e+01 2.021546e+01 2.009444e+01 1.772092e+01 3.244576e+00 1.875995e+00 1.869666e+00 2.225092e+00 2.284104e+00 3.182214e+00 3.280138e+00 2.883891e+00 2.605813e+00 2.098993e+00 1.845786e+00 1.810719e+00 2.797078e+00
<GCONST> 9.535877e+01
<STATE> 4
<MEAN> 25
 -3.722399e-01 -3.542798e+00 -2.087727e+00 6.969932e-01 1.937524e+00 3.158816e+00 3.210083e+00 -7.505630e-01 2.204075e+00 1.738729e+00 7.001306e-01 9.414771e-01 5.663772e-01 3.450350e-01 -5.321879e-02 -1.087372e-01 -3.236394e-01 -3.316177e-01 -4.495216e-01 2.611400e-01 -2.489529e-01 -2.039735e-01 -1.499888e-01 -1.614611e-01 5.581344e-01
<VARIANCE> 25
 3.440540e+01 2.014164e+01 2.442961e+01 2.591710e+01 2.392256e+01 3.192273e+01 3.987862e+01 2.666479e+01 2.813285e+01 2.069067e+01 2.193057e+01 1.800506e+01 2.856416e+00 1.801426e+00 1.958489e+00 2.126599e+00 2.094707e+00 3.020423e+00 3.851041e+00 2.614329e+00 2.905647e+00 2.155759e+00 1.947607e+00 1.695346e+00 2.297560e+00
<GCONST> 9.597124e+01
<TRANSP> 5
 0.000000e+00 1.000000e+00 0.000000e+00 0.000000e+00 0.000000e+00
 0.000000e+00 6.466204e-01 3.533796e-01 0.000000e+00 0.000000e+00
 0.000000e+00 0.000000e+00 6.659433e-01 3.340568e-01 0.000000e+00
 0.000000e+00 0.000000e+00 0.000000e+00 8.357964e-01 1.642036e-01
 0.000000e+00 0.000000e+00 0.000000e+00 0.000000e+00 0.000000e+00
<ENDHMM>
~h "r"
<BEGINHMM>
<NUMSTATES> 5
<STATE> 2
<MEAN> 25
 6.057563e+00 -2.184243e+00 -2.856338e+00 1.880455e+00 -2.788588e+00 -5.727191e+00 -4.996011e+00 5.163944e+00 1.372942e+00 -8.501830e-01 -7.426612e-01 1.289835e+00 4.526647e-01 -1.688640e-01 1.861765e-01 3.290589e-01 -2.455620e-01 -7.207764e-01 -3.674660e-01 2.502890e-01 2.116490e-01 -1.455847e-01 -1.487779e-01 1.397210e-01 2.547039e-02
<VARIANCE> 25
 4.753862e+01 1.884172e+01 4.492197e+01 2.392109e+01 3.031995e+01 3.915182e+01 4.481696e+01 5.481751e+01 2.625368e+01 1.997245e+01 2.329114e+01 1.510166e+01 2.225389e+00 8.353653e-01 1.798056e+00 1.567772e+00 1.823007e+00 2.437510e+00 2.844469e+00 2.371921e+00 1.755073e+00 1.429087e+00 1.361635e+00 1.173211e+00 6.332006e-01
<GCONST> 9.272308e+01
<STATE> 3
<MEAN> 25
 6.934682e+00 -2.492715e+00 -1.823601e+00 2.674872e+00 -3.219083e+00 -7.319191e+00 -5.471690e+00 5.239127e+00 1.917747e+00 -1.203249e+00 -9.751382e-01 1.761561e+00 2.454802e-01 -5.766062e-02 3.169066e-01 1.100259e-01 -1.628087e-01 -2.979363e-01 -2.432481e-02 -3.800297e-02 -1.373558e-02 -1.385748e-01 -3.587349e-03 8.604652e-02 -1.326176e-01
<VARIANCE> 25
 3.536927e+01 1.656311e+01 3.880624e+01 2.193792e+01 2.601139e+01 3.654427e+01 4.118260e+01 4.808685e+01 2.347496e+01 2.063879e+01 1.985001e+01 1.415128e+01 2.179278e+00 7.468916e-01 1.598925e+00 1.350628e+00 1.711774e+00 2.494732e+00 2.545350e+00 2.464046e+00 1.751979e+00 1.449409e+00 1.290976e+00 1.106370e+00 5.129364e-01
<GCONST> 9.050156e+01
<STATE> 4
<MEAN> 25
 6.421792e+00 -2.073824e+00 -7.802990e-01 2.387440e+00 -3.443022e+00 -6.959363e+00 -5.097434e+00 4.355938e+00 1.872578e+00 -5.849758e-01 -9.073850e-01 1.661752e+00 -1.635921e-01 1.502610e-02 2.408137e-01 -1.134328e-01 1.737929e-02 2.870544e-01 2.925444e-01 -2.392289e-01 -1.805561e-01 -5.836156e-03 1.301088e-01 -4.358678e-02 -1.910909e-01
<VARIANCE> 25
 2.772939e+01 1.643039e+01 3.430824e+01 2.119387e+01 2.703769e+01 3.897700e+01 4.253419e+01 4.326371e+01 2.680957e+01 2.324973e+01 2.034539e+01 1.539846e+01 1.731048e+00 8.252969e-01 1.433023e+00 1.295156e+00 1.733183e+00 2.395496e+00 2.478874e+00 2.478108e+00 1.895307e+00 1.464602e+00 1.348257e+00 1.211057e+00 6.443664e-01
<GCONST> 9.060340e+01
<TRANSP> 5
 0.000000e+00 1.000000e+00 0.000000e+00 0.000000e+00 0.000000e+00
 0.000000e+00 7.421360e-01 2.578639e-01 0.000000e+00 0.000000e+00
 0.000000e+00 0.000000e+00 7.347546e-01 2.652454e-01 0.000000e+00
 0.000000e+00 0.000000e+00 0.000000e+00 8.679700e-01 1.320300e-01
 0.000000e+00 0.000000e+00 0.000000e+00 0.000000e+00 0.000000e+00
<ENDHMM>
~h "s"
<BEGINHMM>
<NUMSTATES> 5
<STATE> 2
<MEAN> 25
 -1.198740e+01 6.561759e+00 -6.008986e+00 3.018567e+00 6.087081e+00 -2.809215e+00 6.210401e+00 -1.704871e+00 4.000342e+00 1.561537e+00 1.610691e-01 2.557938e+00 -1.477752e+00 4.783996e-01 -8.074536e-01 2.056133e-02 7.181295e-01 -4.229448e-02 6.788193e-01 -4.852361e-02 3.258713e-01 -3.052745e-02 1.524025e-01 1.695557e-01 1.971124e-01
<VARIANCE> 25
 6.589896e+01 2.626926e+01 3.468996e+01 1.897581e+01 3.323581e+01 3.107941e+01 3.743587e+01 2.822646e+01 2.588834e+01 2.128560e+01 1.799075e+01 1.580445e+01 4.711560e+00 2.164203e+00 2.525995e+00 1.760222e+00 3.360918e+00 2.782380e+00 3.905928e+00 2.641198e+00 2.460876e+00 2.119943e+00 1.949078e+00 1.696291e+00 9.638106e-01
<GCONST> 9.695233e+01
<STATE> 3
<MEAN> 25
 -1.451904e+01 6.505588e+00 -7.513726e+00 2.396953e+00 6.831979e+00 -2.451539e+00 6.903226e+00 -1.718990e+00 4.456132e+00 1.536819e+00 6.267159e-01 2.816622e+00 2.953123e-01 -2.679144e-01 9.094585e-02 -2.022548e-01 -1.266968e-01 4.618262e-02 -1.099828e-01 1.930894e-03 3.450668e-02 3.067652e-03 -1.343773e-02 -3.953352e-02 -1.232292e-01
<VARIANCE> 25
 3.944379e+01 2.435657e+01 2.630563e+01 1.956908e+01 2.499810e+01 2.819273e+01 2.663815e+01 2.531645e+01 2.165384e+01 2.024674e+01 1.649959e+01 1.461510e+01 4.499280e+00 1.786453e+00 2.345346e+00 1.533357e+00 2.322608e+00 2.510592e+00 2.662402e+00 2.331224e+00 1.984132e+00 1.861499e+00 1.804733e+00 1.580727e+00 1.048218e+00
<GCONST> 9.305338e+01
<STATE> 4
<MEAN> 25
 -9.693915e+00 4.118545e+00 -5.346390e+00 1.306496e+00 4.962080e+00 -1.859222e+00 5.426487e+00 -1.924040e+00 4.128426e+00 1.537587e+00 2.534862e-01 2.211346e+00 1.370813e+00 -4.479095e-01 5.065782e-01 -3.438159e-01 -5.670629e-01 1.885834e-02 -4.826843e-01 5.981633e-03 -2.028529e-01 -5.845897e-02 -2.051582e-01 -2.314377e-01 -8.357809e-02
<VARIANCE> 25
 7.026770e+01 2.776634e+01 3.228211e+01 2.631017e+01 3.148446e+01 3.382992e+01 3.443217e+01 2.709451e+01 2.349964e+01 2.069122e+01 2.169751e+01 1.525480e+01 4.233179e+00 1.763252e+00 2.114729e+00 1.987747e+00 2.434265e+00 2.850919e+00 2.925215e+00 2.551721e+00 2.171259e+00 1.975239e+00 2.145677e+00 1.665334e+00 1.272982e+00
<GCONST> 9.642978e+01
<TRANSP> 5
 0.000000e+00 1.000000e+00 0.000000e+00 0.000000e+00 0.000000e+00
 0.000000e+00 8.874437e-01 1.125563e-01 0.000000e+00 0.000000e+00
 0.000000e+00 0.000000e+00 8.374420e-01 1.625580e-01 0.000000e+00
 0.000000e+00 0.000000e+00 0.000000e+00 8.681350e-01 1.318650e-01
 0.000000e+00 0.000000e+00 0.000000e+00 0.000000e+00 0.000000e+00
<ENDHMM>
~h "t"
<BEGINHMM>
<NUMSTATES> 5
<STATE> 2
<MEAN> 25
 -1.833514e+00 -2.791186e+00 -6.122135e-01 1.130276e+00 2.315970e+00 2.789324e+00 3.704405e+00 -3.965340e-01 2.651215e+00 2.307529e+00 1.993264e-01 1.221433e+00 -4.222159e-01 -3.251944e-01 -1.566750e-01 -3.128089e-02 2.496706e-01 2.908833e-01 3.922632e-01 8.680165e-02 2.962386e-01 1.124725e-01 2.549669e-01 2.708910e-01 -2.954903e-01
<VARIANCE> 25
 2.357078e+01 1.945352e+01 2.361897e+01 2.042365e+01 2.648492e+01 3.865729e+01 4.062533e+01 3.414869e+01 2.616412e+01 2.289998e+01 2.387469e+01 1.832325e+01 1.234531e+00 1.868184e+00 1.632579e+00 2.160403e+00 2.266114e+00 3.921036e+00 3.130406e+00 2.777740e+00 2.284289e+00 2.165554e+00 1.981318e+00 1.655939e+00 1.898015e+00
<GCONST> 9.476766e+01
<STATE> 3
<MEAN> 25
 -3.012502e+00 -3.314075e+00 -1.216350e+00 7.597421e-01 2.631112e+00 3.040473e+00 4.357894e+00 5.452504e-02 3.132010e+00 2.396082e+00 7.847081e-01 1.855169e+00 -2.174830e-01 4.861895e-02 -1.173965e-01 -1.250633e-01 -1.022297e-02 -1.223106e-01 2.846491e-03 1.059623e-01 3.468757e-02 -8.715475e-02 7.877898e-02 1.325457e-01 1.561731e-01
<VARIANCE> 25
 2.229794e+01 1.889073e+01 2.101167e+01 2.219055e+01 2.342651e+01 4.023423e+01 3.647643e+01 2.977378e+01 2.477933e+01 2.348061e+01 2.099834e+01 1.760911e+01 1.550192e+00 1.906564e+00 1.682768e+00 2.317101e+00 2.083901e+00 4.043192e+00 3.086203e+00 2.641242e+00 2.341975e+00 2.179697e+00 1.869086e+00 1.650417e+00 2.349411e+00
<GCONST> 9.453749e+01
<STATE> 4
<MEAN> 25
 -3.211887e+00 -2.620663e+00 -1.083320e+00 6.787227e-01 2.365808e+00 2.279411e+00 3.876340e+00 5.507680e-01 2.775058e+00 1.927588e+00 8.284233e-01 1.954361e+00 2.518477e-01 3.940504e-01 1.067792e-01 -5.052014e-02 -3.098795e-01 -4.978315e-01 -4.906367e-01 3.498180e-02 -2.223853e-01 -3.191954e-01 -1.373328e-01 -9.306964e-02 4.704945e-01
<VARIANCE> 25
 2.599646e+01 2.247515e+01 2.092598e+01 2.717406e+01 2.535660e+01 4.988817e+01 4.042646e+01 2.896556e+01 2.592435e+01 2.589086e+01 2.150995e+01 1.775012e+01 2.524761e+00 1.929919e+00 2.063144e+00 3.068269e+00 2.605044e+00 4.212340e+00 3.811010e+00 2.913058e+00 2.500166e+00 2.325495e+00 1.981478e+00 1.811227e+00 2.505751e+00
<GCONST> 9.751120e+01
<TRANSP> 5
 0.000000e+00 1.000000e+00 0.000000e+00 0.000000e+00 0.000000e+00
 0.000000e+00 6.978784e-01 3.021215e-01 0.000000e+00 0.000000e+00
 0.000000e+00 0.000000e+00 6.984287e-01 3.015713e-01 0.000000e+00
 0.000000e+00 0.000000e+00 0.000000e+00 8.008313e-01 1.991687e-01
 0.000000e+00 0.000000e+00 0.000000e+00 0.000000e+00 0.000000e+00
<ENDHMM>
~h "v"
<BEGINHMM>
<NUMSTATES> 5
<STATE> 2
<MEAN> 25
 3.312743e+00 -1.274776e+00 -4.699448e+00 -3.460493e+00 1.501723e+00 1.862896e+00 2.785245e+00 1.988286e+00 -2.104616e+00 1.395060e+00 -3.162940e+00 -3.070031e-01 4.020652e-01 2.346293e-01 -4.961343e-01 -5.670137e-01 2.533218e-02 2.654861e-01 5.284247e-02 1.123770e-01 -3.145447e-01 -9.888973e-02 -2.482595e-01 -4.865618e-02 4.011974e-01
<VARIANCE> 25
 4.829145e+01 2.079117e+01 4.856148e+01 8.965932e+01 2.896249e+01 4.886652e+01 3.097123e+01 3.615269e+01 3.127137e+01 2.020359e+01 2.630243e+01 1.414849e+01 3.650608e+00 9.537992e-01 2.407259e+00 4.897332e+00 2.073443e+00 2.622548e+00 2.214823e+00 2.695534e+00 2.730221e+00 1.896550e+00 2.249520e+00 1.322635e+00 2.189472e+00
<GCONST> 9.859461e+01
<STATE> 3
<MEAN> 25
 4.078133e+00 -1.613142e-01 -5.139364e+00 -3.719846e+00 6.350691e-01 2.129604e+00 2.574608e+00 1.934338e+00 -2.515626e+00 1.067081e+00 -3.477270e+00 -3.986450e-01 4.856253e-02 1.602445e-01 -1.255838e-01 -1.967204e-02 -1.398548e-01 7.438734e-02 -1.877738e-02 -3.543221e-03 -1.269920e-02 -5.882131e-02 -2.741420e-02 1.411838e-02 1.874737e-02
<VARIANCE> 25
 4.845956e+01 1.549285e+01 4.192337e+01 9.430305e+01 2.723107e+01 5.057834e+01 2.881229e+01 3.113998e+01 3.197361e+01 1.972247e+01 2.482747e+01 1.324025e+01 2.647584e+00 8.805420e-01 1.603368e+00 2.724056e+00 1.688106e+00 2.762742e+00 2.205249e+00 2.470371e+00 1.969820e+00 1.651915e+00 1.682805e+00 1.141160e+00 1.252309e+00
<GCONST> 9.473251e+01
<STATE> 4
<MEAN> 25
 3.422719e+00 4.533621e-01 -4.925782e+00 -2.979762e+00 -8.460987e-01 2.557212e+00 2.834782e+00 1.720922e+00 -2.060495e+00 1.446946e+00 -3.268168e+00 -3.671988e-02 -2.679558e-01 -4.553860e-02 1.405112e-01 3.685094e-01 -8.237791e-02 -5.702205e-02 -6.386797e-02 -7.432006e-02 2.008071e-01 2.037649e-02 1.641550e-01 4.667355e-02 -1.933962e-01
<VARIANCE> 25
 4.651735e+01 1.343221e+01 3.589626e+01 8.275270e+01 2.276915e+01 4.960378e+01 2.929326e+01 2.629921e+01 3.586960e+01 2.056192e+01 2.645445e+01 1.379230e+01 2.227830e+00 8.709437e-01 1.304952e+00 2.473422e+00 1.661903e+00 2.517175e+00 2.094584e+00 2.204344e+00 2.223247e+00 1.774757e+00 1.511346e+00 1.137058e+00 5.893407e-01
<GCONST> 9.274094e+01
<TRANSP> 5
 0.000000e+00 1.000000e+00 0.000000e+00 0.000000e+00 0.000000e+00
 0.000000e+00 7.500687e-01 2.499314e-01 0.000000e+00 0.000000e+00
 0.000000e+00 0.000000e+00 7.430869e-01 2.569132e-01 0.000000e+00
 0.000000e+00 0.000000e+00 0.000000e+00 9.110542e-01 8.894579e-02
 0.000000e+00 0.000000e+00 0.000000e+00 0.000000e+00 0.000000e+00
<ENDHMM>
~h "w"
<BEGINHMM>
<NUMSTATES> 5
<STATE> 2
<MEAN> 25
 2.956159e+00 2.625124e-01 -3.554286e-01 -1.468370e+00 -2.829148e+00 7.162406e-01 5.298647e-01 -2.643254e+00 -9.782988e-01 3.647184e-01 3.626048e-01 8.007138e-01 5.579218e-01 3.836533e-01 -6.030739e-02 -2.470988e-01 -3.093423e-01 1.473029e-02 -9.357487e-03 -4.003598e-02 -2.407821e-01 -1.440268e-01 -7.060692e-02 6.887598e-03 8.009481e-02
<VARIANCE> 25
 4.219133e+01 2.906626e+01 1.691238e+01 2.234746e+01 3.876221e+01 3.111873e+01 2.927017e+01 2.093830e+01 3.135195e+01 2.091751e+01 1.874448e+01 1.497070e+01 1.731255e+00 1.464781e+00 1.107593e+00 1.424396e+00 2.290988e+00 2.265209e+00 1.946929e+00 1.642696e+00 2.147543e+00 1.825686e+00 1.501798e+00 1.449784e+00 6.985644e-01
<GCONST> 9.061110e+01
<STATE> 3
<MEAN> 25
 5.223038e+00 1.834997e+00 -7.097270e-01 -2.465756e+00 -3.914031e+00 6.830671e-01 2.916618e-01 -2.450712e+00 -2.047177e+00 -2.000701e-01 2.102343e-01 7.051796e-01 5.264429e-01 3.161465e-01 -2.099822e-01 -2.183288e-01 -1.976491e-01 9.628963e-03 -1.070512e-01 1.540192e-01 -2.463221e-01 -8.591205e-02 1.055279e-03 -4.676297e-02 2.735988e-01
<VARIANCE> 25
 3.681353e+01 2.495636e+01 1.948366e+01 2.345074e+01 3.770413e+01 2.803766e+01 2.578805e+01 2.316603e+01 2.790407e+01 2.015246e+01 1.786538e+01 1.485998e+01 1.419464e+00 1.264186e+00 1.173569e+00 1.398122e+00 2.279840e+00 2.038719e+00 1.771481e+00 1.723086e+00 1.860710e+00 1.624111e+00 1.482463e+00 1.448515e+00 5.233859e-01
<GCONST> 8.911892e+01
<STATE> 4
<MEAN> 25
 8.002491e+00 2.485009e+00 -2.938835e+00 -3.937002e+00 -4.386701e+00 3.113520e-01 -1.035710e+00 -2.893583e-01 -3.660881e+00 -3.957019e-01 3.503522e-01 -1.139241e-01 2.238742e-01 -8.040394e-02 -3.567244e-01 -1.646538e-02 8.650675e-02 -1.817239e-01 -2.840776e-01 5.549762e-01 -1.110960e-01 1.912786e-02 -2.826645e-02 -1.986437e-01 4.342698e-01
<VARIANCE> 25
 2.208560e+01 2.109262e+01 3.192210e+01 2.800404e+01 3.882486e+01 3.304612e+01 2.968191e+01 3.720743e+01 2.522075e+01 2.099536e+01 2.140184e+01 1.825520e+01 1.032006e+00 1.164898e+00 1.498940e+00 1.596034e+00 2.528878e+00 2.422768e+00 2.024619e+00 2.305918e+00 1.997555e+00 1.753336e+00 1.890795e+00 1.628486e+00 3.744627e-01
<GCONST> 9.109613e+01
<TRANSP> 5
 0.000000e+00 1.000000e+00 0.000000e+00 0.000000e+00 0.000000e+00
 0.000000e+00 7.189192e-01 2.810808e-01 0.000000e+00 0.000000e+00
 0.000000e+00 0.000000e+00 7.241042e-01 2.758958e-01 0.000000e+00
 0.000000e+00 0.000000e+00 0.000000e+00 8.652636e-01 1.347364e-01
 0.000000e+00 0.000000e+00 0.000000e+00 0.000000e+00 0.000000e+00
<ENDHMM>
~h "y"
<BEGINHMM>
<NUMSTATES> 5
<STATE> 2
<MEAN> 25
 -2.059790e+00 2.084817e+00 3.041444e+00 1.407344e+00 -4.540461e-02 1.842523e+00 1.182064e-01 -3.082384e+00 -8.857569e-01 -3.243317e-01 1.936394e+00 -1.801115e+00 4.850513e-01 7.877842e-01 9.151170e-01 -1.637356e-01 -5.528404e-01 -5.733173e-01 -8.817100e-01 -5.083888e-02 -8.665677e-01 -5.974818e-01 2.288118e-01 -8.182046e-01 4.997154e-01
<VARIANCE> 25
 2.300706e+01 3.313475e+01 2.594695e+01 2.205512e+01 3.620712e+01 3.171686e+01 4.363722e+01 2.536363e+01 3.902551e+01 3.008067e+01 2.314873e+01 3.233364e+01 1.700071e+00 2.554780e+00 1.664210e+00 2.386045e+00 2.338035e+00 2.170487e+00 3.930535e+00 2.832393e+00 3.925495e+00 2.304236e+00 2.019743e+00 3.319931e+00 9.869725e-01
<GCONST> 9.764820e+01
<STATE> 3
<MEAN> 25
 -5.236714e-01 4.785933e+00 5.717947e+00 1.115035e+00 -2.194167e+00 1.471649e-01 -2.695005e+00 -3.539755e+00 -3.391687e+00 -2.139380e+00 2.652587e+00 -3.900255e+00 5.029424e-01 5.963295e-01 6.756967e-01 1.810379e-02 -6.905364e-01 -4.958684e-01 -7.291465e-01 1.414424e-03 -6.450371e-01 -4.788224e-01 2.507281e-01 -4.768315e-01 4.349851e-01
<VARIANCE> 25
 1.905540e+01 2.685777e+01 1.846908e+01 2.417770e+01 4.099189e+01 3.137162e+01 3.463197e+01 2.991285e+01 3.356149e+01 2.619026e+01 2.523275e+01 3.275251e+01 1.602785e+00 1.999539e+00 1.456144e+00 2.119209e+00 2.485119e+00 1.985513e+00 3.405941e+00 2.666348e+00 3.397412e+00 2.077145e+00 1.651344e+00 3.263788e+00 6.589612e-01
<GCONST> 9.519993e+01
<STATE> 4
<MEAN> 25
 2.133886e+00 5.936669e+00 6.731248e+00 3.342963e+00 -6.768505e+00 -3.288789e+00 -4.947821e+00 -2.307194e+00 -5.240621e+00 -4.281147e+00 3.837558e+00 -5.107442e+00 3.236081e-01 -1.903142e-01 -2.374473e-01 2.506791e-01 -1.980438e-01 -4.385523e-01 -1.716667e-01 3.476318e-01 2.914019e-02 -5.114527e-02 -4.276839e-02 2.065340e-01 1.134422e-01
<VARIANCE> 25
 1.167119e+01 1.507981e+01 1.322208e+01 2.862522e+01 3.922550e+01 4.652980e+01 2.835903e+01 3.933431e+01 2.629806e+01 2.318900e+01 2.466290e+01 2.745507e+01 6.120516e-01 8.366476e-01 1.072945e+00 1.424990e+00 2.231753e+00 2.468859e+00 2.502276e+00 2.647507e+00 2.252649e+00 1.734747e+00 1.728352e+00 1.840116e+00 3.018801e-01
<GCONST> 8.918594e+01
<TRANSP> 5
 0.000000e+00 1.000000e+00 0.000000e+00 0.000000e+00 0.000000e+00
 0.000000e+00 6.699373e-01 3.300626e-01 0.000000e+00 0.000000e+00
 0.000000e+00 0.000000e+00 6.627425e-01 3.372575e-01 0.000000e+00
 0.000000e+00 0.000000e+00 0.000000e+00 8.968764e-01 1.031236e-01
 0.000000e+00 0.000000e+00 0.000000e+00 0.000000e+00 0.000000e+00
<ENDHMM>
~h "z"
<BEGINHMM>
<NUMSTATES> 5
<STATE> 2
<MEAN> 25
 -1.075008e+01 8.205776e+00 -4.401101e+00 2.101220e+00 5.004782e+00 -3.784431e+00 4.663350e+00 -2.287907e+00 2.705426e+00 5.985698e-01 -1.401798e-01 2.077394e+00 -1.967971e+00 3.663543e-01 -1.040985e+00 1.944896e-01 1.106561e+00 2.121538e-01 1.105029e+00 -4.236491e-02 6.176615e-01 6.984772e-03 2.717296e-01 2.648253e-01 -1.306303e-02
<VARIANCE> 25
 7.570592e+01 1.761604e+01 4.296037e+01 2.256777e+01 4.376070e+01 2.491365e+01 4.181029e+01 3.418138e+01 2.653281e+01 2.002878e+01 2.072890e+01 1.624121e+01 4.482701e+00 1.383209e+00 2.461952e+00 2.191565e+00 3.664449e+00 2.415393e+00 3.890989e+00 2.923436e+00 2.444828e+00 2.020490e+00 2.231100e+00 1.744516e+00 5.096423e-01
<GCONST> 9.677741e+01
<STATE> 3
<MEAN> 25
 -1.442283e+01 7.857472e+00 -6.899658e+00 2.240227e+00 6.755043e+00 -2.662823e+00 6.934766e+00 -2.363049e+00 3.969782e+00 1.123279e+00 6.789389e-01 2.587921e+00 -3.678677e-01 -3.114750e-01 -1.823435e-01 -3.208847e-02 2.209094e-01 2.339295e-01 3.096618e-01 -2.246588e-02 2.123593e-01 1.148737e-01 1.845381e-01 8.461104e-02 -3.667655e-01
<VARIANCE> 25
 3.885497e+01 1.842414e+01 3.080362e+01 1.923909e+01 2.576756e+01 2.353142e+01 2.990184e+01 2.799417e+01 2.385394e+01 1.897904e+01 1.784835e+01 1.599163e+01 4.383246e+00 1.480450e+00 2.579221e+00 1.503400e+00 2.505812e+00 2.178315e+00 2.795403e+00 2.514191e+00 2.226736e+00 1.778819e+00 1.741155e+00 1.656843e+00 6.328613e-01
<GCONST> 9.266251e+01
<STATE> 4
<MEAN> 25
 -1.174302e+01 4.575113e+00 -5.243234e+00 1.877932e+00 6.382320e+00 -1.374935e+00 7.207091e+00 -2.645988e+00 4.448790e+00 1.788157e+00 1.139966e+00 2.516463e+00 9.664223e-01 -6.833166e-01 5.310802e-01 -4.168605e-02 -2.775519e-01 2.528729e-01 -1.914269e-01 -4.360350e-02 -2.121927e-02 3.991287e-03 -6.069758e-03 -1.033275e-01 -4.612053e-01
<VARIANCE> 25
 4.671054e+01 2.754826e+01 2.745532e+01 1.993008e+01 2.358931e+01 3.294624e+01 2.861172e+01 2.744693e+01 2.397888e+01 2.162284e+01 2.019526e+01 1.583019e+01 2.894825e+00 1.710639e+00 1.819174e+00 1.553048e+00 2.064301e+00 2.735197e+00 2.553301e+00 2.641119e+00 2.251462e+00 2.099816e+00 1.940574e+00 1.594684e+00 1.077329e+00
<GCONST> 9.378720e+01
<TRANSP> 5
 0.000000e+00 1.000000e+00 0.000000e+00 0.000000e+00 0.000000e+00
 0.000000e+00 8.289231e-01 1.710769e-01 0.000000e+00 0.000000e+00
 0.000000e+00 0.000000e+00 7.861187e-01 2.138812e-01 0.000000e+00
 0.000000e+00 0.000000e+00 0.000000e+00 8.767281e-01 1.232719e-01
 0.000000e+00 0.000000e+00 0.000000e+00 0.000000e+00 0.000000e+00
<ENDHMM>
~h "aa"
<BEGINHMM>
<NUMSTATES> 5
<STATE> 2
<MEAN> 25
 5.081615e+00 -6.310260e-02 -4.184710e+00 -4.354317e+00 3.019160e-01 1.533543e+00 8.248990e-01 1.955749e+00 -1.507318e+00 2.086367e-01 -2.560068e+00 -3.699330e-01 8.701817e-01 -1.002437e-01 -8.651839e-01 -1.085191e+00 3.865215e-02 1.244096e-01 -3.598630e-01 5.350125e-01 -4.743162e-01 -6.497306e-02 -6.034067e-01 -2.015740e-01 7.093512e-01
<VARIANCE> 25
 3.695181e+01 2.807478e+01 3.257275e+01 4.434267e+01 4.827319e+01 3.558014e+01 3.467534e+01 3.618003e+01 3.190043e+01 2.695988e+01 2.990563e+01 1.586592e+01 2.505654e+00 1.268268e+00 1.967867e+00 2.970823e+00 2.930554e+00 3.058150e+00 2.724511e+00 2.928823e+00 2.381959e+00 2.443218e+00 2.358860e+00 1.338024e+00 1.666830e+00
<GCONST> 9.828263e+01
<STATE> 3
<MEAN> 25
 7.429397e+00 -3.610381e-01 -6.526764e+00 -7.004332e+00 3.568888e-01 2.423479e+00 1.409907e-01 3.328963e+00 -3.021720e+00 4.113893e-02 -4.004989e+00 -7.693717e-01 5.616754e-01 -1.266272e-01 -5.848065e-01 -6.083319e-01 8.716901e-02 2.928362e-01 -1.693603e-01 3.593083e-01 -3.932804e-01 1.497863e-02 -3.854201e-01 -9.753262e-02 4.319867e-01
<VARIANCE> 25
 2.481665e+01 2.621920e+01 2.714130e+01 3.498034e+01 4.664929e+01 3.410194e+01 3.641743e+01 2.896589e+01 2.819006e+01 2.832559e+01 2.831386e+01 1.541793e+01 1.905169e+00 9.156241e-01 1.730304e+00 2.623750e+00 2.102298e+00 2.249581e+00 2.316418e+00 2.375931e+00 1.914702e+00 1.965928e+00 1.929788e+00 1.176952e+00 1.349993e+00
<GCONST> 9.415003e+01
<STATE> 4
<MEAN> 25
 8.570653e+00 -8.990772e-01 -8.536966e+00 -8.547039e+00 1.486217e+00 3.722888e+00 -5.646397e-01 4.435705e+00 -4.661210e+00 1.447525e+00 -5.830773e+00 -1.397418e+00 -2.087126e-01 6.073717e-02 1.361988e-01 3.894039e-01 1.084133e-01 -1.525503e-01 -7.503387e-02 -9.433162e-02 1.845501e-01 1.161899e-01 -1.555169e-02 -3.878980e-02 -6.484283e-02
<VARIANCE> 25
 1.237976e+01 1.887276e+01 1.758484e+01 3.079388e+01 3.355103e+01 3.048302e+01 3.841656e+01 2.388825e+01 2.412273e+01 3.645559e+01 2.469771e+01 1.330629e+01 9.873795e-01 6.654131e-01 1.095574e+00 1.728492e+00 1.280989e+00 1.581488e+00 2.054861e+00 1.978277e+00 1.513267e+00 1.595284e+00 1.472248e+00 1.012257e+00 6.422062e-01
<GCONST> 8.718571e+01
<TRANSP> 5
 0.000000e+00 1.000000e+00 0.000000e+00 0.000000e+00 0.000000e+00
 0.000000e+00 6.620210e-01 3.379791e-01 0.000000e+00 0.000000e+00
 0.000000e+00 0.000000e+00 6.913993e-01 3.086007e-01 0.000000e+00
 0.000000e+00 0.000000e+00 0.000000e+00 9.236722e-01 7.632781e-02
 0.000000e+00 0.000000e+00 0.000000e+00 0.000000e+00 0.000000e+00
<ENDHMM>
~h "ae"
<BEGINHMM>
<NUMSTATES> 5
<STATE> 2
<MEAN> 25
 2.572434e+00 -3.964705e+00 -1.822450e+00 -6.252415e-01 4.805559e-01 -1.128380e+00 4.143864e+00 5.907913e+00 -5.794092e-02 -1.399658e+00 -3.876011e+00 3.587968e-01 5.092092e-01 -3.288575e-01 -3.512396e-01 -5.198368e-01 -1.527239e-01 -4.422096e-01 1.634845e-01 1.237213e+00 -3.360400e-01 -2.469342e-01 -7.125795e-01 8.849265e-02 7.393500e-01
<VARIANCE> 25
 3.473669e+01 2.400811e+01 2.641367e+01 2.403954e+01 3.224444e+01 4.070715e+01 3.494324e+01 6.475439e+01 2.799221e+01 3.117657e+01 3.853715e+01 1.744062e+01 1.960276e+00 1.436631e+00 1.833391e+00 2.073944e+00 2.738605e+00 3.377844e+00 2.435865e+00 4.545448e+00 2.093182e+00 2.361823e+00 2.566475e+00 1.377886e+00 2.163470e+00
<GCONST> 9.794583e+01
<STATE> 3
<MEAN> 25
 4.024397e+00 -4.815048e+00 -2.392372e+00 -2.077578e+00 2.673602e-02 -2.298912e+00 4.511471e+00 9.005732e+00 -1.483146e+00 -2.189576e+00 -6.085454e+00 6.286997e-01 3.306706e-01 -1.452253e-01 -1.036496e-01 -3.517734e-01 -1.061031e-01 -2.788096e-01 4.002240e-02 6.539384e-01 -3.751775e-01 -1.685595e-01 -5.527731e-01 6.101808e-02 4.959719e-01
<VARIANCE> 25
 2.580960e+01 1.816012e+01 2.243482e+01 2.171121e+01 2.985833e+01 3.768869e+01 3.091568e+01 4.996155e+01 2.815884e+01 3.026662e+01 3.703835e+01 1.724856e+01 1.402723e+00 1.166957e+00 1.294791e+00 1.603293e+00 1.906797e+00 2.341603e+00 1.845775e+00 3.707868e+00 1.758368e+00 2.056848e+00 2.263633e+00 1.189714e+00 1.653509e+00
<GCONST> 9.328326e+01
<STATE> 4
<MEAN> 25
 4.259572e+00 -4.863826e+00 -2.557014e+00 -2.753066e+00 -2.550781e-01 -3.165876e+00 3.952508e+00 9.518146e+00 -1.647013e+00 -1.636937e+00 -7.998324e+00 1.040682e+00 -1.104513e-01 1.429468e-01 3.640291e-02 1.260834e-01 -1.722161e-02 4.320452e-02 -7.826914e-02 -2.214915e-01 1.508705e-01 1.632667e-01 1.241269e-01 -2.066310e-02 -1.748221e-01
<VARIANCE> 25
 1.808928e+01 1.444263e+01 1.827392e+01 2.383243e+01 2.565456e+01 3.660015e+01 3.308955e+01 3.923555e+01 3.067300e+01 2.724082e+01 3.642009e+01 1.938818e+01 8.239462e-01 8.345148e-01 8.555886e-01 1.347201e+00 1.355604e+00 1.998283e+00 1.826649e+00 2.414701e+00 1.666203e+00 1.588503e+00 1.742288e+00 9.417627e-01 1.066216e+00
<GCONST> 8.867117e+01
<TRANSP> 5
 0.000000e+00 1.000000e+00 0.000000e+00 0.000000e+00 0.000000e+00
 0.000000e+00 7.329976e-01 2.670024e-01 0.000000e+00 0.000000e+00
 0.000000e+00 0.000000e+00 7.453092e-01 2.546908e-01 0.000000e+00
 0.000000e+00 0.000000e+00 0.000000e+00 9.468654e-01 5.313468e-02
 0.000000e+00 0.000000e+00 0.000000e+00 0.000000e+00 0.000000e+00
<ENDHMM>
~h "ah"
<BEGINHMM>
<NUMSTATES> 5
<STATE> 2
<MEAN> 25
 1.318300e+00 -1.019419e+00 -5.055103e-01 1.386331e-01 1.901583e-01 -7.892408e-01 -1.177885e-01 2.017876e+00 8.787701e-01 4.110967e-01 -2.046861e+00 3.907569e-02 2.403516e-01 -1.052755e-02 -1.861638e-01 -1.331030e-01 1.728854e-02 -1.030923e-01 -1.046889e-01 2.511480e-01 -5.113080e-02 -4.119631e-02 -3.010642e-01 -5.361481e-02 2.190159e-01
<VARIANCE> 25
 3.221106e+01 2.615071e+01 3.343886e+01 2.853639e+01 4.011169e+01 4.731352e+01 4.200824e+01 4.900565e+01 2.820179e+01 2.717817e+01 3.544969e+01 1.830314e+01 2.005170e+00 1.466944e+00 1.613664e+00 1.912036e+00 2.423985e+00 3.381993e+00 3.023436e+00 3.343535e+00 1.995235e+00 2.079866e+00 2.540339e+00 1.512485e+00 1.922980e+00
<GCONST> 9.788517e+01
<STATE> 3
<MEAN> 25
 1.918593e+00 -9.996395e-01 -1.086724e+00 -1.817983e-01 2.382820e-01 -9.946390e-01 -3.813773e-01 2.665416e+00 7.541561e-01 2.562019e-01 -2.768672e+00 -3.691680e-02 2.431557e-01 5.791622e-02 -1.301733e-01 -1.022779e-01 -5.244002e-02 -6.513745e-02 -1.224978e-01 1.050165e-01 -8.836196e-02 -3.373491e-02 -1.879058e-01 -2.527878e-02 1.977756e-01
<VARIANCE> 25
 3.068932e+01 2.734078e+01 3.275467e+01 3.003782e+01 4.026489e+01 4.670414e+01 4.159375e+01 4.723784e+01 2.782740e+01 2.847677e+01 3.773337e+01 1.866044e+01 1.917163e+00 1.236504e+00 1.526112e+00 1.974042e+00 2.470520e+00 2.951009e+00 2.865123e+00 3.372222e+00 1.893208e+00 2.037465e+00 2.431910e+00 1.428563e+00 1.934698e+00
<GCONST> 9.740122e+01
<STATE> 4
<MEAN> 25
 3.149506e+00 -4.308990e-01 -1.837090e+00 -5.806725e-01 -9.437227e-01 -2.731895e+00 -2.321764e+00 3.895800e+00 3.963106e-01 1.012408e-01 -3.816894e+00 -5.052376e-01 9.562297e-02 1.149428e-01 1.383686e-02 2.179924e-02 -6.163657e-02 8.298686e-03 -6.953602e-02 -1.807859e-01 -6.280415e-02 2.958738e-02 -1.161464e-03 -2.891145e-03 -6.675303e-03
<VARIANCE> 25
 2.355730e+01 2.479505e+01 3.006839e+01 2.952213e+01 4.123991e+01 5.089154e+01 4.626847e+01 4.584375e+01 2.534295e+01 3.071345e+01 4.093498e+01 1.926331e+01 1.625899e+00 1.014539e+00 1.313907e+00 2.008960e+00 2.083894e+00 2.363683e+00 2.636638e+00 3.205414e+00 1.799314e+00 1.787526e+00 2.153916e+00 1.269493e+00 1.669392e+00
<GCONST> 9.562832e+01
<TRANSP> 5
 0.000000e+00 1.000000e+00 0.000000e+00 0.000000e+00 0.000000e+00
 0.000000e+00 6.341780e-01 3.658219e-01 0.000000e+00 0.000000e+00
 0.000000e+00 0.000000e+00 6.374503e-01 3.625498e-01 0.000000e+00
 0.000000e+00 0.000000e+00 0.000000e+00 8.009993e-01 1.990007e-01
 0.000000e+00 0.000000e+00 0.000000e+00 0.000000e+00 0.000000e+00
<ENDHMM>
~h "ao"
<BEGINHMM>
<NUMSTATES> 5
<STATE> 2
<MEAN> 25
 7.497178e+00 2.273603e+00 -5.554304e+00 -6.057305e+00 -3.653389e+00 1.705452e+00 8.282573e-01 2.458280e+00 -2.291102e+00 4.942443e-01 -3.266791e-02 7.923639e-01 7.163730e-01 1.382928e-01 -4.650564e-01 -7.302294e-01 -3.312298e-01 2.408839e-01 1.064102e-01 3.449834e-01 -5.034387e-01 -1.175434e-01 4.845451e-02 8.893269e-02 3.095031e-01
<VARIANCE> 25
 3.805056e+01 2.365067e+01 2.096014e+01 3.928072e+01 4.328716e+01 3.129153e+01 3.468263e+01 2.401863e+01 3.459106e+01 2.765681e+01 2.641594e+01 1.938629e+01 2.153662e+00 1.035952e+00 1.290826e+00 2.222081e+00 2.077201e+00 2.065120e+00 1.714665e+00 1.357352e+00 1.852458e+00 1.563773e+00 1.604704e+00 1.184349e+00 1.090845e+00
<GCONST> 9.245074e+01
<STATE> 3
<MEAN> 25
 9.066226e+00 2.165298e+00 -6.964371e+00 -7.548895e+00 -3.893181e+00 2.469235e+00 8.787832e-01 3.316397e+00 -4.030128e+00 4.185036e-01 1.345732e-01 9.390955e-01 2.732622e-01 -8.689255e-02 -3.190377e-01 -1.582392e-01 2.126700e-02 6.855826e-02 -1.566893e-01 1.768425e-01 -3.060922e-01 1.857731e-02 5.225889e-02 3.337468e-04 1.853189e-01
<VARIANCE> 25
 2.490436e+01 2.042556e+01 2.013063e+01 3.747136e+01 3.696274e+01 2.539786e+01 3.551373e+01 2.068332e+01 3.082503e+01 2.585589e+01 3.010658e+01 2.000430e+01 1.121942e+00 6.846513e-01 9.063019e-01 2.017256e+00 1.457367e+00 1.229539e+00 1.460176e+00 9.783132e-01 1.580009e+00 1.189978e+00 1.259975e+00 9.369434e-01 6.487093e-01
<GCONST> 8.697399e+01
<STATE> 4
<MEAN> 25
 8.561776e+00 1.491962e+00 -7.570068e+00 -8.628796e+00 -1.884741e+00 2.458755e+00 -4.617382e-01 3.538745e+00 -4.771345e+00 2.297663e+00 -9.332787e-01 6.977108e-01 -1.147632e-01 -1.231357e-01 9.742338e-03 3.179023e-01 1.674987e-01 -2.239029e-01 -3.349085e-01 6.158572e-02 1.787496e-01 1.412217e-01 -1.448145e-02 -5.390023e-02 6.307028e-03
<VARIANCE> 25
 1.996571e+01 2.120819e+01 1.838788e+01 4.880737e+01 3.123565e+01 2.781076e+01 4.426960e+01 2.166779e+01 3.090871e+01 2.493701e+01 3.350168e+01 2.061127e+01 6.879719e-01 6.508090e-01 8.577794e-01 1.673649e+00 1.016854e+00 1.239983e+00 1.555743e+00 1.089030e+00 1.567921e+00 1.111319e+00 1.055703e+00 8.203799e-01 4.859222e-01
<GCONST> 8.561974e+01
<TRANSP> 5
 0.000000e+00 1.000000e+00 0.000000e+00 0.000000e+00 0.000000e+00
 0.000000e+00 7.747762e-01 2.252238e-01 0.000000e+00 0.000000e+00
 0.000000e+00 0.000000e+00 7.718651e-01 2.281348e-01 0.000000e+00
 0.000000e+00 0.000000e+00 0.000000e+00 9.245988e-01 7.540126e-02
 0.000000e+00 0.000000e+00 0.000000e+00 0.000000e+00 0.000000e+00
<ENDHMM>
~h "aw"
<BEGINHMM>
<NUMSTATES> 5
<STATE> 2
<MEAN> 25
 6.158928e+00 -3.683933e+00 -6.709720e+00 -3.395718e+00 4.875316e+00 2.407712e+00 1.398880e-01 4.242317e+00 -1.211897e+00 -1.556210e+00 -5.953830e+00 -8.905567e-01 1.000446e+00 -2.879193e-01 -6.788857e-01 -8.832808e-01 6.402087e-01 5.464069e-01 -2.387152e-01 2.241415e-01 -6.571139e-01 -1.939370e-01 -4.494588e-01 -2.068620e-01 6.913123e-01
<VARIANCE> 25
 3.571038e+01 2.844368e+01 2.018702e+01 3.135955e+01 3.789168e+01 2.626204e+01 2.152276e+01 3.064471e+01 2.978817e+01 2.721135e+01 3.449076e+01 1.755493e+01 2.538543e+00 1.236400e+00 1.862442e+00 1.879101e+00 2.599593e+00 2.254792e+00 1.746387e+00 2.606226e+00 1.856090e+00 2.443717e+00 2.781723e+00 1.125926e+00 1.452925e+00
<GCONST> 9.452663e+01
<STATE> 3
<MEAN> 25
 8.487990e+00 -3.780436e+00 -7.940278e+00 -5.533278e+00 5.710817e+00 3.880898e+00 -2.433192e-01 4.186905e+00 -2.978644e+00 -1.469512e+00 -6.251853e+00 -1.333354e+00 4.827319e-01 -5.287863e-02 -2.557743e-01 -4.687916e-01 2.489784e-01 3.828847e-01 -1.193483e-01 -2.344531e-02 -4.463604e-01 1.405975e-02 -3.084436e-02 -1.088787e-01 2.529522e-01
<VARIANCE> 25
 1.588284e+01 2.341358e+01 1.374952e+01 2.608053e+01 3.391573e+01 2.441119e+01 2.013227e+01 2.178127e+01 2.052856e+01 2.143692e+01 2.906717e+01 1.507987e+01 1.560110e+00 8.837022e-01 1.102863e+00 1.278912e+00 1.950622e+00 1.300667e+00 1.306504e+00 1.634339e+00 1.282183e+00 1.616045e+00 1.958669e+00 9.771570e-01 8.555223e-01
<GCONST> 8.629620e+01
<STATE> 4
<MEAN> 25
 9.205338e+00 -2.651782e+00 -7.758308e+00 -6.400015e+00 4.283548e+00 3.802681e+00 -1.115315e+00 2.863254e+00 -3.650271e+00 -1.678560e-01 -4.600591e+00 -1.681775e+00 -1.028873e-01 2.503722e-01 2.415689e-01 2.106111e-01 -2.907635e-01 -9.901965e-02 -1.377085e-01 -2.545127e-01 9.667499e-02 1.242380e-01 2.721993e-01 -6.470344e-02 -1.956507e-01
<VARIANCE> 25
 6.413677e+00 1.911462e+01 1.013002e+01 1.731310e+01 3.436291e+01 2.351234e+01 2.327057e+01 2.109796e+01 1.891329e+01 2.267197e+01 2.609481e+01 1.465322e+01 4.285253e-01 4.678194e-01 4.999390e-01 1.003709e+00 1.192655e+00 1.007190e+00 1.200708e+00 1.042099e+00 1.141442e+00 1.000300e+00 1.111022e+00 7.352607e-01 2.506872e-01
<GCONST> 7.747867e+01
<TRANSP> 5
 0.000000e+00 1.000000e+00 0.000000e+00 0.000000e+00 0.000000e+00
 0.000000e+00 6.955841e-01 3.044159e-01 0.000000e+00 0.000000e+00
 0.000000e+00 0.000000e+00 7.295031e-01 2.704969e-01 0.000000e+00
 0.000000e+00 0.000000e+00 0.000000e+00 9.393916e-01 6.060845e-02
 0.000000e+00 0.000000e+00 0.000000e+00 0.000000e+00 0.000000e+00
<ENDHMM>
~h "ay"
<BEGINHMM>
<NUMSTATES> 5
<STATE> 2
<MEAN> 25
 6.492879e+00 -3.618665e+00 -7.016392e+00 -4.342334e+00 4.538060e+00 2.760976e+00 6.923921e-01 4.005425e+00 -9.506045e-01 -1.664555e+00 -5.653133e+00 -8.331990e-01 1.336329e-01 -4.463816e-01 -1.441659e-01 -3.479367e-02 4.966983e-01 6.656214e-02 -1.262166e-02 4.192174e-01 -1.746252e-01 -1.935949e-01 -5.366379e-01 -2.419207e-02 1.768726e-01
<VARIANCE> 25
 3.174094e+01 1.660884e+01 2.748305e+01 3.323584e+01 3.100719e+01 2.389674e+01 2.483671e+01 3.345282e+01 2.395305e+01 2.681418e+01 3.762696e+01 1.834509e+01 1.056738e+00 8.802565e-01 1.447126e+00 1.492801e+00 1.994469e+00 1.884572e+00 1.339238e+00 2.040888e+00 1.595708e+00 1.574250e+00 1.868186e+00 1.008525e+00 8.611528e-01
<GCONST> 8.979673e+01
<STATE> 3
<MEAN> 25
 6.606039e+00 -4.460359e+00 -6.506873e+00 -4.198461e+00 5.307030e+00 1.926478e+00 5.338224e-01 5.552835e+00 -1.538672e+00 -2.055354e+00 -6.974629e+00 -7.489934e-01 -2.941007e-03 -1.325511e-01 2.690066e-01 7.830963e-02 3.506391e-02 -3.296951e-01 -5.861624e-02 3.925615e-01 -1.609650e-01 -8.833504e-02 -2.290702e-01 3.102203e-02 1.469236e-01
<VARIANCE> 25
 2.249076e+01 1.631405e+01 2.816806e+01 2.609134e+01 3.337566e+01 2.583875e+01 2.330029e+01 3.353843e+01 1.996260e+01 2.752143e+01 3.327116e+01 1.681692e+01 7.938269e-01 8.665499e-01 1.419447e+00 1.154824e+00 2.077772e+00 1.668063e+00 1.222158e+00 2.065233e+00 1.264829e+00 1.500207e+00 1.886650e+00 9.005932e-01 7.998579e-01
<GCONST> 8.774486e+01
<STATE> 4
<MEAN> 25
 5.164848e+00 -3.730211e+00 -3.059886e+00 -3.701699e+00 3.063427e+00 -7.122551e-01 9.662580e-01 6.377561e+00 -2.588122e+00 -1.366229e+00 -6.813675e+00 -3.403445e-01 -2.461057e-01 2.382751e-01 6.065522e-01 1.264301e-01 -5.162218e-01 -2.749710e-01 -7.902085e-02 -8.738083e-02 -6.329204e-02 1.780180e-01 3.319535e-01 -7.577549e-03 -1.026269e-01
<VARIANCE> 25
 1.986394e+01 1.927781e+01 4.339959e+01 2.151178e+01 5.066243e+01 3.359428e+01 2.421704e+01 3.763616e+01 2.037788e+01 2.765810e+01 3.156317e+01 1.660014e+01 4.785849e-01 8.236454e-01 1.430196e+00 9.245551e-01 2.029970e+00 1.561300e+00 1.372567e+00 2.375085e+00 1.213055e+00 1.523692e+00 1.782524e+00 9.369991e-01 4.297623e-01
<GCONST> 8.755058e+01
<TRANSP> 5
 0.000000e+00 1.000000e+00 0.000000e+00 0.000000e+00 0.000000e+00
 0.000000e+00 7.404099e-01 2.595901e-01 0.000000e+00 0.000000e+00
 0.000000e+00 0.000000e+00 7.481002e-01 2.518998e-01 0.000000e+00
 0.000000e+00 0.000000e+00 0.000000e+00 9.251620e-01 7.483806e-02
 0.000000e+00 0.000000e+00 0.000000e+00 0.000000e+00 0.000000e+00
<ENDHMM>
~h "ch"
<BEGINHMM>
<NUMSTATES> 5
<STATE> 2
<MEAN> 25
 -5.995086e+00 -1.695211e+00 1.256201e+00 -1.167998e+00 3.979762e+00 1.652391e+00 1.741039e+00 1.580109e+00 3.031967e+00 5.552381e-01 3.870663e-01 1.707705e+00 -1.086322e+00 -3.678932e-01 -2.498822e-01 -6.129022e-01 2.525254e-01 2.231473e-01 2.203273e-01 3.128223e-01 6.768795e-01 1.615605e-01 4.948448e-01 3.179219e-01 2.684820e-01
<VARIANCE> 25
 5.067378e+01 1.580420e+01 1.468545e+01 3.328990e+01 3.466040e+01 3.615760e+01 2.166877e+01 4.081146e+01 2.845492e+01 1.735922e+01 2.361942e+01 1.640305e+01 2.330279e+00 1.355846e+00 1.301343e+00 2.789026e+00 2.634194e+00 2.903641e+00 2.371286e+00 2.541024e+00 2.095313e+00 2.014884e+00 1.631478e+00 1.891350e+00 1.584969e+00
<GCONST> 9.420267e+01
<STATE> 3
<MEAN> 25
 -9.223571e+00 -2.573946e+00 9.915437e-01 -3.014729e+00 3.970772e+00 2.023583e+00 2.149535e+00 1.323867e+00 4.670328e+00 3.694273e-01 1.672205e+00 2.241695e+00 -6.702772e-01 -1.456469e-01 6.472910e-02 -4.281166e-01 -1.827576e-01 -6.305631e-02 4.792596e-02 -3.136215e-02 3.849508e-01 -1.134055e-01 2.286440e-01 1.330769e-01 5.028082e-01
<VARIANCE> 25
 5.430307e+01 1.404977e+01 1.402708e+01 3.238104e+01 3.220068e+01 2.818887e+01 2.135878e+01 3.244687e+01 2.703306e+01 1.905417e+01 2.301855e+01 1.754841e+01 3.475391e+00 1.105432e+00 1.344085e+00 2.569800e+00 2.634735e+00 2.715563e+00 1.892338e+00 2.209726e+00 2.039150e+00 1.918476e+00 1.629689e+00 1.581690e+00 1.553164e+00
<GCONST> 9.303544e+01
<STATE> 4
<MEAN> 25
 -9.476512e+00 -3.200217e+00 2.879874e+00 -3.397914e+00 1.386220e+00 1.602858e+00 2.115926e+00 1.287204e-02 6.471155e+00 -6.314828e-01 1.549346e+00 2.677781e+00 6.050920e-01 -1.095427e-02 3.557640e-01 9.765296e-02 -5.493302e-01 -1.416533e-01 -8.297781e-02 -1.903964e-02 -2.704022e-02 -1.510483e-01 -1.977198e-01 -1.398368e-02 4.463884e-02
<VARIANCE> 25
 6.731459e+01 1.377668e+01 2.146135e+01 2.350376e+01 3.568222e+01 3.487838e+01 2.425464e+01 3.049373e+01 2.503496e+01 2.267970e+01 2.436238e+01 1.624494e+01 4.839117e+00 1.191643e+00 2.038877e+00 1.822402e+00 2.284791e+00 2.496426e+00 1.939799e+00 2.524642e+00 2.394621e+00 2.005827e+00 2.041778e+00 1.542031e+00 1.621728e+00
<GCONST> 9.465204e+01
<TRANSP> 5
 0.000000e+00 1.000000e+00 0.000000e+00 0.000000e+00 0.000000e+00
 0.000000e+00 7.512363e-01 2.487637e-01 0.000000e+00 0.000000e+00
 0.000000e+00 0.000000e+00 7.593048e-01 2.406952e-01 0.000000e+00
 0.000000e+00 0.000000e+00 0.000000e+00 9.256959e-01 7.430404e-02
 0.000000e+00 0.000000e+00 0.000000e+00 0.000000e+00 0.000000e+00
<ENDHMM>
~h "dh"
<BEGINHMM>
<NUMSTATES> 5
<STATE> 2
<MEAN> 25
 -2.445682e+00 -2.435007e+00 8.026656e-01 2.876629e+00 1.784120e+00 1.832598e+00 1.766510e+00 -1.684541e+00 3.134429e+00 7.855276e-01 6.563861e-01 1.027427e+00 5.527902e-02 1.147660e-01 1.475043e-01 1.403224e-01 1.184248e-01 1.581754e-01 7.691623e-02 -4.271475e-02 4.870145e-02 1.846572e-03 3.759285e-02 4.552348e-02 -2.248875e-01
<VARIANCE> 25
 2.536007e+01 2.255911e+01 1.603699e+01 1.301255e+01 2.728956e+01 3.617196e+01 3.679007e+01 3.294527e+01 1.920796e+01 2.108446e+01 2.224921e+01 1.565228e+01 1.328892e+00 1.217744e+00 1.086610e+00 8.490247e-01 1.798879e+00 2.713853e+00 2.657321e+00 1.968343e+00 1.716718e+00 1.662306e+00 1.672082e+00 1.306174e+00 7.748054e-01
<GCONST> 8.870414e+01
<STATE> 3
<MEAN> 25
 -1.774390e+00 -1.590046e+00 1.466814e+00 3.269148e+00 1.709383e+00 1.605092e+00 1.478792e+00 -1.734948e+00 2.913396e+00 5.873497e-01 5.620468e-01 1.000546e+00 1.656576e-01 2.096227e-01 1.082935e-01 5.798528e-02 -6.477025e-02 -1.196603e-01 -8.639070e-02 4.647768e-02 -6.732181e-02 -8.017675e-02 -7.452681e-02 -2.530267e-02 4.207814e-02
<VARIANCE> 25
 2.006680e+01 2.062734e+01 1.420285e+01 1.229204e+01 2.779871e+01 4.265633e+01 4.198468e+01 3.354144e+01 1.835762e+01 2.300849e+01 2.260910e+01 1.493457e+01 1.261618e+00 9.894015e-01 9.798288e-01 8.378613e-01 1.850169e+00 2.938606e+00 2.783249e+00 1.876718e+00 1.509990e+00 1.530215e+00 1.710415e+00 1.268965e+00 6.961759e-01
<GCONST> 8.795231e+01
<STATE> 4
<MEAN> 25
 1.336219e+00 9.088753e-01 1.059027e+00 2.450127e+00 -2.799196e+00 -4.398172e+00 -2.944228e+00 2.162077e+00 1.726202e+00 -5.331659e-01 -8.089235e-01 4.297661e-01 1.250329e-01 1.030110e-01 -3.062100e-02 -7.760827e-02 -1.373315e-01 -2.303856e-01 -1.489183e-01 1.856710e-01 -7.174267e-02 1.244906e-02 -1.241501e-01 -5.090226e-02 1.670665e-01
<VARIANCE> 25
 1.624058e+01 1.564583e+01 1.270836e+01 1.442160e+01 4.460474e+01 5.851181e+01 4.906086e+01 5.488146e+01 1.645409e+01 2.206725e+01 2.066552e+01 1.227273e+01 1.088060e+00 7.365867e-01 7.876086e-01 7.788299e-01 2.017610e+00 2.633999e+00 2.789243e+00 2.048826e+00 1.197679e+00 1.231178e+00 1.361399e+00 9.726300e-01 7.320514e-01
<GCONST> 8.695206e+01
<TRANSP> 5
 0.000000e+00 1.000000e+00 0.000000e+00 0.000000e+00 0.000000e+00
 0.000000e+00 7.107628e-01 2.892372e-01 0.000000e+00 0.000000e+00
 0.000000e+00 0.000000e+00 7.130761e-01 2.869239e-01 0.000000e+00
 0.000000e+00 0.000000e+00 0.000000e+00 9.111060e-01 8.889402e-02
 0.000000e+00 0.000000e+00 0.000000e+00 0.000000e+00 0.000000e+00
<ENDHMM>
~h "eh"
<BEGINHMM>
<NUMSTATES> 5
<STATE> 2
<MEAN> 25
 3.460593e+00 -3.117758e+00 -1.078238e+00 -2.134289e+00 -8.495149e-01 -3.036336e+00 2.424204e+00 7.295727e+00 -3.205936e-01 -1.150255e+00 -4.806689e+00 8.765614e-02 9.237818e-02 -1.537676e-01 1.622491e-01 -1.459862e-01 -1.214673e-01 -1.596117e-01 2.946947e-01 5.843630e-01 -3.376198e-01 -1.193883e-01 -3.280335e-01 1.786678e-02 1.617319e-01
<VARIANCE> 25
 2.775628e+01 1.958843e+01 3.051103e+01 2.408783e+01 3.416059e+01 4.069658e+01 3.272665e+01 5.265284e+01 2.859941e+01 2.446235e+01 3.826047e+01 1.896157e+01 1.160490e+00 9.677542e-01 1.210531e+00 1.366654e+00 1.740607e+00 2.077448e+00 2.006699e+00 2.778894e+00 1.589793e+00 1.573107e+00 1.735310e+00 1.191509e+00 9.243609e-01
<GCONST> 9.185941e+01
<STATE> 3
<MEAN> 25
 3.509876e+00 -2.926303e+00 -2.388193e-01 -2.509700e+00 -1.565991e+00 -3.451084e+00 2.972095e+00 7.984785e+00 -1.392158e+00 -1.069043e+00 -5.058998e+00 9.277096e-02 6.149159e-02 7.425106e-02 1.730577e-01 -7.523034e-02 -1.776892e-01 -5.279581e-02 8.058356e-02 1.155386e-01 -2.688972e-01 8.060705e-02 -1.281676e-01 -3.326813e-02 8.494022e-02
<VARIANCE> 25
 2.117308e+01 1.871275e+01 2.538061e+01 2.348830e+01 3.173185e+01 3.862393e+01 2.978485e+01 4.989662e+01 2.842377e+01 2.459801e+01 3.818912e+01 1.772391e+01 9.449901e-01 8.415337e-01 1.054586e+00 1.255055e+00 1.634614e+00 1.871569e+00 1.772220e+00 2.458806e+00 1.387740e+00 1.381026e+00 1.452373e+00 1.037880e+00 9.491953e-01
<GCONST> 8.945190e+01
<STATE> 4
<MEAN> 25
 3.825180e+00 -2.516865e+00 4.555162e-01 -2.444150e+00 -2.496160e+00 -4.023649e+00 2.888328e+00 7.983248e+00 -1.966179e+00 -4.981484e-02 -5.465922e+00 3.148166e-01 -3.716337e-02 1.495075e-01 4.970709e-02 1.687431e-01 -3.366705e-02 1.014639e-01 -1.662693e-01 -3.804994e-01 4.129846e-02 1.714742e-01 9.623365e-02 -1.429038e-02 -1.892318e-01
<VARIANCE> 25
 1.780925e+01 1.700780e+01 2.448395e+01 2.541256e+01 3.055703e+01 3.885670e+01 2.969352e+01 4.256993e+01 3.231007e+01 2.488716e+01 3.970678e+01 1.723404e+01 6.784242e-01 6.899893e-01 8.146529e-01 1.225779e+00 1.544597e+00 1.715192e+00 1.479479e+00 2.302182e+00 1.451123e+00 1.390744e+00 1.471411e+00 9.989232e-01 7.409975e-01
<GCONST> 8.776019e+01
<TRANSP> 5
 0.000000e+00 1.000000e+00 0.000000e+00 0.000000e+00 0.000000e+00
 0.000000e+00 7.021313e-01 2.978687e-01 0.000000e+00 0.000000e+00
 0.000000e+00 0.000000e+00 6.961709e-01 3.038291e-01 0.000000e+00
 0.000000e+00 0.000000e+00 0.000000e+00 8.707098e-01 1.292902e-01
 0.000000e+00 0.000000e+00 0.000000e+00 0.000000e+00 0.000000e+00
<ENDHMM>
~h "er"
<BEGINHMM>
<NUMSTATES> 5
<STATE> 2
<MEAN> 25
 8.108038e+00 -1.699214e+00 -8.000761e-01 1.648512e+00 -4.631621e+00 -8.519506e+00 -6.581607e+00 5.833377e+00 2.066529e+00 -2.875286e+00 -7.334378e-01 1.971680e+00 5.824931e-01 -3.974526e-01 -1.039842e-01 3.540187e-01 -3.009730e-01 -8.057853e-01 -5.535870e-01 7.150801e-01 2.107169e-01 -2.057302e-01 -1.015159e-01 1.813878e-01 1.047472e-01
<VARIANCE> 25
 1.462569e+01 1.542684e+01 4.065764e+01 2.058215e+01 2.068449e+01 3.526921e+01 3.618924e+01 3.613582e+01 2.474360e+01 1.805925e+01 2.538215e+01 1.763330e+01 1.367408e+00 8.517026e-01 1.520886e+00 1.093428e+00 1.549382e+00 1.760880e+00 2.028116e+00 2.091613e+00 1.392968e+00 1.116406e+00 1.322799e+00 1.145483e+00 4.331278e-01
<GCONST> 8.720007e+01
<STATE> 3
<MEAN> 25
 8.806251e+00 -2.711178e+00 -6.969042e-01 2.941415e+00 -5.013536e+00 -1.062567e+01 -7.182587e+00 7.221897e+00 2.436274e+00 -3.334648e+00 -6.884004e-01 2.803083e+00 4.942105e-02 -1.482967e-01 8.893468e-02 2.428527e-01 -6.686338e-02 -3.379991e-01 -6.859398e-02 1.694895e-01 2.677545e-02 -7.753149e-02 3.052030e-02 1.511376e-01 -1.086867e-01
<VARIANCE> 25
 9.289944e+00 1.110552e+01 3.074609e+01 1.758442e+01 1.653533e+01 2.915610e+01 3.005781e+01 2.848941e+01 2.181791e+01 1.524893e+01 2.263630e+01 1.628128e+01 5.461296e-01 4.947258e-01 9.499758e-01 7.404484e-01 9.609049e-01 1.438974e+00 1.257693e+00 1.488191e+00 1.099682e+00 9.380040e-01 9.499630e-01 8.831932e-01 2.232880e-01
<GCONST> 7.917033e+01
<STATE> 4
<MEAN> 25
 6.019545e+00 -3.138810e+00 8.439009e-01 3.438945e+00 -4.318284e+00 -9.256152e+00 -4.999488e+00 5.840094e+00 2.408581e+00 -2.251037e+00 -2.323662e-01 3.004608e+00 -3.804448e-01 1.909993e-02 1.358892e-01 3.957703e-03 2.006911e-01 4.327897e-01 3.103617e-01 -3.170749e-01 -2.560061e-02 1.876129e-01 5.527417e-02 -4.576724e-02 -3.184935e-01
<VARIANCE> 25
 2.378442e+01 1.189494e+01 2.289665e+01 1.522786e+01 2.293843e+01 4.838398e+01 4.243533e+01 3.175609e+01 2.179197e+01 1.994724e+01 2.029235e+01 1.639537e+01 6.923928e-01 5.233111e-01 7.868221e-01 8.406979e-01 1.245280e+00 1.908849e+00 1.609240e+00 1.516819e+00 1.178209e+00 1.078542e+00 1.119582e+00 9.967225e-01 4.394895e-01
<GCONST> 8.340301e+01
<TRANSP> 5
 0.000000e+00 1.000000e+00 0.000000e+00 0.000000e+00 0.000000e+00
 0.000000e+00 8.034739e-01 1.965261e-01 0.000000e+00 0.000000e+00
 0.000000e+00 0.000000e+00 7.968432e-01 2.031568e-01 0.000000e+00
 0.000000e+00 0.000000e+00 0.000000e+00 9.435734e-01 5.642656e-02
 0.000000e+00 0.000000e+00 0.000000e+00 0.000000e+00 0.000000e+00
<ENDHMM>
~h "ey"
<BEGINHMM>
<NUMSTATES> 5
<STATE> 2
<MEAN> 25
 3.561404e+00 2.197730e+00 5.341882e+00 -2.739891e-01 -6.005929e+00 -5.385946e+00 -3.420901e+00 2.377118e+00 -2.151741e+00 -4.039391e-01 2.090015e+00 -9.970149e-01 -6.334592e-02 3.264907e-01 6.806350e-01 -3.338956e-01 -8.630863e-01 -1.697478e-01 -1.514834e-01 2.121380e-01 -3.196673e-01 1.394322e-01 3.407586e-01 -2.924283e-01 2.798080e-01
<VARIANCE> 25
 1.436723e+01 1.429954e+01 2.712029e+01 2.874365e+01 3.608923e+01 4.091712e+01 3.328917e+01 4.854763e+01 2.562739e+01 2.622191e+01 2.128454e+01 1.600084e+01 1.262421e+00 9.191160e-01 1.404261e+00 1.858869e+00 2.635997e+00 3.110585e+00 2.191737e+00 4.311691e+00 1.823058e+00 1.810350e+00 1.380563e+00 1.537528e+00 8.339232e-01
<GCONST> 9.218035e+01
<STATE> 3
<MEAN> 25
 3.106148e+00 3.227810e+00 6.956654e+00 -1.469757e+00 -7.705638e+00 -4.846311e+00 -3.723435e+00 2.020861e+00 -2.821732e+00 -3.052264e-02 2.744653e+00 -1.663801e+00 -1.198038e-01 3.031356e-01 4.547350e-01 -3.275347e-01 -4.588190e-01 1.761175e-01 -1.091597e-01 -1.484682e-01 -2.092152e-01 1.149232e-01 1.650819e-01 -2.037079e-01 7.916153e-02
<VARIANCE> 25
 9.281475e+00 1.292652e+01 2.376346e+01 2.798619e+01 3.122720e+01 3.736362e+01 3.143882e+01 3.717851e+01 2.385024e+01 2.482726e+01 2.174443e+01 1.746723e+01 7.363189e-01 6.335944e-01 1.134553e+00 1.538299e+00 2.158226e+00 2.146268e+00 1.728628e+00 3.107208e+00 1.417839e+00 1.426241e+00 1.165238e+00 1.223325e+00 6.723536e-01
<GCONST> 8.735353e+01
<STATE> 4
<MEAN> 25
 1.655120e+00 5.149826e+00 8.706728e+00 -2.390698e+00 -7.978259e+00 -2.985054e+00 -4.958384e+00 -1.688431e+00 -3.795508e+00 -1.020796e-01 3.315706e+00 -2.662431e+00 -9.197887e-02 5.416332e-03 -5.689389e-02 1.642190e-01 2.086435e-01 1.953815e-01 6.890537e-02 -2.768590e-01 3.583626e-02 -5.881383e-03 -4.254603e-02 2.170686e-02 -2.206032e-01
<VARIANCE> 25
 7.975730e+00 1.734077e+01 2.277000e+01 2.859746e+01 3.458216e+01 3.059935e+01 3.387988e+01 3.043321e+01 2.172415e+01 2.750749e+01 2.073263e+01 2.154118e+01 4.158685e-01 7.741567e-01 7.862611e-01 1.279399e+00 1.817627e+00 1.375719e+00 1.694820e+00 1.573583e+00 1.300741e+00 1.285778e+00 1.052773e+00 1.194991e+00 4.891193e-01
<GCONST> 8.455110e+01
<TRANSP> 5
 0.000000e+00 1.000000e+00 0.000000e+00 0.000000e+00 0.000000e+00
 0.000000e+00 6.860451e-01 3.139549e-01 0.000000e+00 0.000000e+00
 0.000000e+00 0.000000e+00 7.213618e-01 2.786382e-01 0.000000e+00
 0.000000e+00 0.000000e+00 0.000000e+00 9.590103e-01 4.098970e-02
 0.000000e+00 0.000000e+00 0.000000e+00 0.000000e+00 0.000000e+00
<ENDHMM>
~h "hh"
<BEGINHMM>
<NUMSTATES> 5
<STATE> 2
<MEAN> 25
 -3.219489e+00 -4.215772e+00 -3.714048e-01 1.930541e-01 3.408611e+00 4.213922e+00 5.828079e+00 1.977050e+00 2.374703e+00 5.034482e-01 3.826827e-01 1.575215e+00 -1.466300e-01 -1.008978e-01 1.975809e-02 -1.380932e-01 2.067308e-01 1.099124e-01 1.153321e-01 9.258310e-02 -7.110998e-02 -1.443532e-01 1.484753e-01 8.652099e-02 1.857706e-02
<VARIANCE> 25
 1.709374e+01 2.860554e+01 2.404081e+01 1.819376e+01 3.232682e+01 2.331339e+01 3.866748e+01 4.244036e+01 2.512280e+01 2.965645e+01 2.794252e+01 1.775922e+01 8.129030e-01 1.366354e+00 1.010306e+00 1.232587e+00 1.635204e+00 1.644367e+00 2.201092e+00 1.932676e+00 2.118687e+00 1.966491e+00 1.673138e+00 1.529467e+00 5.312725e-01
<GCONST> 8.956415e+01
<STATE> 3
<MEAN> 25
 -3.235078e+00 -3.987356e+00 -2.057146e-01 7.278293e-02 3.885328e+00 4.065417e+00 5.526054e+00 2.078430e+00 1.609417e+00 -2.753535e-01 4.288797e-01 1.676040e+00 2.935551e-02 1.714311e-01 9.619249e-02 -1.249469e-02 9.222347e-02 -5.673761e-02 -1.597636e-01 3.401971e-03 -2.432631e-01 -1.935236e-01 -1.305187e-02 5.078081e-03 1.248988e-01
<VARIANCE> 25
 1.734891e+01 3.515373e+01 3.038463e+01 2.010310e+01 3.621452e+01 2.319812e+01 4.605598e+01 4.743977e+01 2.571984e+01 3.057277e+01 2.714274e+01 2.136500e+01 7.250123e-01 1.276795e+00 9.863748e-01 1.119321e+00 1.388643e+00 1.433834e+00 1.992353e+00 1.851668e+00 1.816124e+00 1.777135e+00 1.478279e+00 1.480002e+00 4.423904e-01
<GCONST> 8.938303e+01
<STATE> 4
<MEAN> 25
 -1.698073e+00 -1.716665e+00 6.485219e-01 -3.812432e-02 2.748295e+00 2.566256e+00 3.148058e+00 1.285233e+00 -5.314000e-01 -1.930996e+00 -2.905641e-01 2.953146e-01 2.902655e-01 4.155719e-01 2.308542e-01 5.315375e-02 -1.451511e-01 -2.264348e-01 -4.149464e-01 -1.034609e-01 -3.031753e-01 -1.380088e-01 -1.129950e-01 -2.001514e-01 1.728553e-01
<VARIANCE> 25
 2.220577e+01 5.666996e+01 4.003023e+01 1.980685e+01 4.700462e+01 2.451323e+01 6.071849e+01 6.530986e+01 2.787888e+01 2.884497e+01 3.584352e+01 3.079575e+01 7.958463e-01 1.154459e+00 9.757724e-01 1.212263e+00 1.461049e+00 1.357820e+00 1.856170e+00 1.791883e+00 1.673388e+00 1.608228e+00 1.491733e+00 1.582085e+00 3.663638e-01
<GCONST> 9.160599e+01
<TRANSP> 5
 0.000000e+00 1.000000e+00 0.000000e+00 0.000000e+00 0.000000e+00
 0.000000e+00 6.669269e-01 3.330730e-01 0.000000e+00 0.000000e+00
 0.000000e+00 0.000000e+00 6.403700e-01 3.596300e-01 0.000000e+00
 0.000000e+00 0.000000e+00 0.000000e+00 7.384740e-01 2.615260e-01
 0.000000e+00 0.000000e+00 0.000000e+00 0.000000e+00 0.000000e+00
<ENDHMM>
~h "ih"
<BEGINHMM>
<NUMSTATES> 5
<STATE> 2
<MEAN> 25
 -1.403204e-01 2.190896e+00 4.496601e+00 7.096018e-01 -2.927766e+00 -1.184191e+00 -1.856092e+00 -1.999845e+00 -1.767883e+00 9.176663e-02 2.261190e+00 -1.115564e+00 2.328916e-01 5.937982e-01 8.248336e-01 -3.166310e-01 -8.400658e-01 -2.554992e-01 -6.235843e-01 -1.103626e-01 -6.314858e-01 -1.273456e-01 3.328217e-01 -5.688841e-01 4.011514e-01
<VARIANCE> 25
 2.302084e+01 3.360244e+01 3.399125e+01 2.631317e+01 4.739582e+01 4.305511e+01 4.050679e+01 3.365445e+01 3.406418e+01 2.433513e+01 2.087988e+01 2.530884e+01 1.719071e+00 1.955995e+00 2.389348e+00 2.102941e+00 3.652644e+00 2.981693e+00 3.454815e+00 2.570586e+00 3.095013e+00 1.985428e+00 1.882668e+00 2.255394e+00 1.289240e+00
<GCONST> 9.813741e+01
<STATE> 3
<MEAN> 25
 5.031427e-01 3.960266e+00 6.676151e+00 -3.566222e-01 -5.328340e+00 -1.450757e+00 -3.505936e+00 -2.315854e+00 -3.445088e+00 -4.029139e-01 3.286891e+00 -2.750327e+00 1.105608e-01 4.084364e-01 5.047130e-01 -2.676426e-01 -5.658179e-01 1.973398e-03 -3.823473e-01 -1.078871e-01 -3.680979e-01 -1.021489e-01 2.553035e-01 -4.117001e-01 2.556053e-01
<VARIANCE> 25
 1.507335e+01 3.130300e+01 2.992587e+01 2.556763e+01 4.884415e+01 3.699825e+01 3.801266e+01 3.272407e+01 2.929286e+01 2.521046e+01 2.182409e+01 2.630715e+01 1.064059e+00 1.498979e+00 2.079887e+00 1.842103e+00 3.319572e+00 2.298043e+00 2.934174e+00 2.135386e+00 2.486868e+00 1.738210e+00 1.679419e+00 1.979251e+00 1.075576e+00
<GCONST> 9.474157e+01
<STATE> 4
<MEAN> 25
 8.213475e-01 5.678599e+00 8.391032e+00 -1.162950e+00 -7.693919e+00 -1.298638e+00 -4.924476e+00 -3.467189e+00 -4.260976e+00 -1.280736e+00 4.193467e+00 -3.973197e+00 -2.229532e-02 -9.773348e-02 -1.824640e-01 1.978810e-01 1.886299e-01 3.478966e-03 1.638009e-01 -9.801422e-02 1.263407e-01 1.333273e-02 -1.376928e-01 2.066645e-01 -1.075659e-01
<VARIANCE> 25
 9.715987e+00 2.479075e+01 2.310200e+01 2.465472e+01 4.074626e+01 3.003867e+01 3.530429e+01 2.831758e+01 2.214290e+01 2.480085e+01 2.128484e+01 2.611805e+01 6.848819e-01 1.044557e+00 1.280052e+00 1.475300e+00 3.012681e+00 1.810148e+00 2.030427e+00 1.724749e+00 1.702670e+00 1.406494e+00 1.472842e+00 1.640359e+00 7.485416e-01
<GCONST> 8.913861e+01
<TRANSP> 5
 0.000000e+00 1.000000e+00 0.000000e+00 0.000000e+00 0.000000e+00
 0.000000e+00 6.888779e-01 3.111221e-01 0.000000e+00 0.000000e+00
 0.000000e+00 0.000000e+00 6.974901e-01 3.025098e-01 0.000000e+00
 0.000000e+00 0.000000e+00 0.000000e+00 9.011694e-01 9.883069e-02
 0.000000e+00 0.000000e+00 0.000000e+00 0.000000e+00 0.000000e+00
<ENDHMM>
~h "iy"
<BEGINHMM>
<NUMSTATES> 5
<STATE> 2
<MEAN> 25
 -3.373837e-01 3.999696e+00 6.870473e+00 1.750404e+00 -1.167310e+00 -1.249851e+00 -3.555471e+00 -4.587376e+00 -2.282703e+00 -2.348979e+00 2.309266e+00 -1.817569e+00 1.451979e-02 7.843422e-01 6.384180e-01 -2.819093e-01 -3.944129e-01 1.422290e-01 -6.763367e-01 -2.749116e-01 -4.413173e-01 -2.980418e-01 4.937127e-01 -6.565167e-01 1.875465e-01
<VARIANCE> 25
 2.128563e+01 2.275384e+01 2.480646e+01 2.063185e+01 5.223118e+01 3.348048e+01 3.459597e+01 2.803735e+01 2.860400e+01 2.373580e+01 1.872297e+01 2.199697e+01 1.173337e+00 1.261216e+00 1.336056e+00 1.416966e+00 2.347941e+00 2.202444e+00 2.505419e+00 2.035336e+00 2.149184e+00 1.801875e+00 1.692785e+00 1.903865e+00 5.257434e-01
<GCONST> 9.143636e+01
<STATE> 3
<MEAN> 25
 -3.685207e-01 5.911973e+00 8.130575e+00 9.720194e-01 -2.004700e+00 -1.126911e+00 -5.098956e+00 -5.083882e+00 -3.151064e+00 -3.182782e+00 3.434939e+00 -3.543398e+00 -1.799404e-02 6.027070e-01 3.689125e-01 -2.893585e-01 -3.076199e-01 1.136753e-01 -5.027482e-01 -1.129424e-01 -2.813105e-01 -2.694171e-01 4.233535e-01 -6.063803e-01 1.334589e-01
<VARIANCE> 25
 1.384712e+01 2.180368e+01 2.034488e+01 1.790555e+01 4.776184e+01 2.585492e+01 3.060779e+01 2.424607e+01 2.514605e+01 2.411543e+01 1.873316e+01 2.193855e+01 7.393899e-01 9.378806e-01 1.148162e+00 1.147862e+00 2.078031e+00 1.662637e+00 1.932893e+00 1.676168e+00 1.806811e+00 1.528499e+00 1.482214e+00 1.715034e+00 4.227645e-01
<GCONST> 8.712260e+01
<STATE> 4
<MEAN> 25
 -8.718559e-01 7.699780e+00 8.337942e+00 -3.135233e-01 -3.204708e+00 -7.103861e-01 -6.649223e+00 -5.608801e+00 -3.290577e+00 -4.785398e+00 5.179933e+00 -6.042130e+00 -1.341178e-02 -1.680515e-01 -1.424644e-01 4.371760e-02 7.425873e-03 2.384434e-02 1.711220e-01 4.720907e-02 5.076102e-02 1.303860e-01 -5.653619e-02 1.362138e-01 -1.432467e-01
<VARIANCE> 25
 7.357252e+00 2.755691e+01 1.691166e+01 1.545791e+01 3.799672e+01 2.037274e+01 3.251212e+01 2.017071e+01 2.030125e+01 3.009698e+01 2.184651e+01 2.919500e+01 4.148067e-01 9.790949e-01 7.820065e-01 9.505466e-01 1.867691e+00 1.313547e+00 1.737381e+00 1.389823e+00 1.397671e+00 1.397286e+00 1.330688e+00 1.704008e+00 3.980509e-01
<GCONST> 8.398383e+01
<TRANSP> 5
 0.000000e+00 1.000000e+00 0.000000e+00 0.000000e+00 0.000000e+00
 0.000000e+00 6.163422e-01 3.836578e-01 0.000000e+00 0.000000e+00
 0.000000e+00 0.000000e+00 6.572732e-01 3.427268e-01 0.000000e+00
 0.000000e+00 0.000000e+00 0.000000e+00 9.602422e-01 3.975778e-02
 0.000000e+00 0.000000e+00 0.000000e+00 0.000000e+00 0.000000e+00
<ENDHMM>
~h "jh"
<BEGINHMM>
<NUMSTATES> 5
<STATE> 2
<MEAN> 25
 -8.402666e-01 3.042586e+00 4.593545e+00 1.117238e+00 9.006072e-01 -9.076806e-01 -2.571578e-01 -1.725665e+00 -7.689244e-01 -1.623197e+00 6.817662e-01 3.523685e-01 -6.151990e-01 -1.517658e-01 -3.304308e-02 -1.889527e-01 4.306874e-01 -4.118116e-02 1.728809e-01 1.542539e-01 3.378791e-01 9.303647e-02 2.941487e-02 1.038407e-01 9.086293e-02
<VARIANCE> 25
 4.104715e+01 1.376154e+01 2.071024e+01 2.744881e+01 5.133326e+01 4.226977e+01 2.501243e+01 3.945092e+01 2.915278e+01 1.883098e+01 1.587566e+01 1.391130e+01 2.957612e+00 1.250971e+00 1.852320e+00 3.275961e+00 3.645608e+00 3.340666e+00 2.615502e+00 3.127493e+00 1.757099e+00 1.732640e+00 1.326249e+00 1.526115e+00 1.787026e+00
<GCONST> 9.502054e+01
<STATE> 3
<MEAN> 25
 -3.614277e+00 2.211376e+00 4.522868e+00 1.447012e-01 1.676205e+00 -6.713449e-01 4.820037e-01 -1.392878e+00 6.768168e-01 -1.028760e+00 1.099012e+00 6.027101e-01 -5.140859e-01 -1.728943e-01 -1.041808e-03 -1.819836e-01 -1.861056e-02 -1.711777e-01 1.174841e-01 9.746799e-02 2.296774e-01 4.472812e-02 8.042184e-02 9.584148e-02 2.867107e-01
<VARIANCE> 25
 5.865805e+01 1.998249e+01 3.014090e+01 2.871333e+01 5.365758e+01 4.444759e+01 2.714180e+01 3.867537e+01 2.792118e+01 2.087757e+01 1.479547e+01 1.334270e+01 3.988433e+00 1.272913e+00 2.218747e+00 2.845164e+00 4.044487e+00 3.378640e+00 2.615911e+00 3.291982e+00 1.791748e+00 1.875291e+00 1.287483e+00 1.421628e+00 1.798746e+00
<GCONST> 9.680206e+01
<STATE> 4
<MEAN> 25
 -5.713700e+00 -1.708432e-01 4.869811e+00 -1.020541e+00 3.137717e-01 4.885363e-01 1.443821e+00 -1.435321e+00 1.882708e+00 3.463343e-02 1.288760e+00 1.164178e+00 2.339872e-01 -2.230475e-01 4.382914e-02 -5.187130e-02 -3.168340e-01 -9.756994e-02 -3.639035e-02 1.691091e-01 -5.915164e-02 3.370302e-02 -9.033735e-02 5.485358e-02 5.962083e-02
<VARIANCE> 25
 6.531418e+01 3.225217e+01 3.234709e+01 3.020014e+01 5.241646e+01 5.901056e+01 3.255949e+01 3.881156e+01 2.631815e+01 2.384931e+01 1.472545e+01 1.306629e+01 4.518455e+00 1.361356e+00 2.356763e+00 2.209004e+00 3.882047e+00 3.175149e+00 3.043689e+00 3.644346e+00 1.649713e+00 1.732052e+00 1.362740e+00 1.335797e+00 1.669629e+00
<GCONST> 9.791042e+01
<TRANSP> 5
 0.000000e+00 1.000000e+00 0.000000e+00 0.000000e+00 0.000000e+00
 0.000000e+00 7.733759e-01 2.266241e-01 0.000000e+00 0.000000e+00
 0.000000e+00 0.000000e+00 7.662446e-01 2.337555e-01 0.000000e+00
 0.000000e+00 0.000000e+00 0.000000e+00 8.987114e-01 1.012886e-01
 0.000000e+00 0.000000e+00 0.000000e+00 0.000000e+00 0.000000e+00
<ENDHMM>
~h "ng"
<BEGINHMM>
<NUMSTATES> 5
<STATE> 2
<MEAN> 25
 2.225794e+00 5.487636e+00 8.153612e+00 -2.214473e+00 -6.092837e+00 8.468729e-01 -4.526686e+00 -3.364605e+00 -5.502467e+00 -1.946104e+00 4.076684e+00 -5.038321e+00 -8.842511e-03 -4.373959e-02 -1.095065e-01 9.266848e-02 3.040087e-01 3.429589e-01 1.639675e-01 -2.144041e-01 4.217448e-02 -1.129086e-01 -1.023960e-02 -5.374179e-02 -2.282714e-01
<VARIANCE> 25
 6.925135e+00 9.690088e+00 1.978516e+01 2.258523e+01 2.614041e+01 2.574796e+01 2.698030e+01 2.201329e+01 1.440531e+01 2.098456e+01 2.061256e+01 1.989947e+01 2.274007e-01 3.020467e-01 6.116797e-01 8.449695e-01 9.789062e-01 1.047247e+00 1.021992e+00 1.099373e+00 9.341245e-01 8.767156e-01 1.002785e+00 9.032413e-01 1.363830e-01
<GCONST> 7.539410e+01
<STATE> 3
<MEAN> 25
 2.467951e+00 4.590774e+00 6.663302e+00 -6.894473e-01 -4.149381e+00 1.875862e+00 -3.053888e+00 -4.133591e+00 -5.112448e+00 -2.301210e+00 3.248103e+00 -4.542267e+00 5.205732e-02 -1.926560e-01 -2.795448e-01 3.281736e-01 3.164242e-01 1.005114e-01 2.877948e-01 -1.427456e-01 9.724688e-02 -3.271193e-02 -2.094151e-01 1.593274e-01 -2.791334e-01
<VARIANCE> 25
 6.521970e+00 9.446000e+00 1.902589e+01 2.591941e+01 2.299777e+01 1.942240e+01 2.671665e+01 1.952541e+01 1.485401e+01 1.881332e+01 2.081617e+01 1.951447e+01 3.519087e-01 3.553393e-01 5.823542e-01 8.397800e-01 1.020709e+00 1.030497e+00 1.145479e+00 1.148443e+00 1.044075e+00 9.841279e-01 1.058606e+00 9.645848e-01 1.513801e-01
<GCONST> 7.595752e+01
<STATE> 4
<MEAN> 25
 2.288192e+00 2.800597e+00 4.701528e+00 1.809426e+00 -2.059852e+00 2.215430e+00 -9.597673e-01 -4.588079e+00 -3.965762e+00 -1.743315e+00 1.373924e+00 -3.024290e+00 -1.438027e-01 -2.598029e-01 -2.236717e-01 2.242426e-01 3.315664e-01 4.723459e-02 2.630789e-01 4.155436e-02 2.791967e-01 1.450707e-01 -1.924564e-01 2.607327e-01 -2.543613e-01
<VARIANCE> 25
 1.061084e+01 1.251506e+01 1.633263e+01 2.178672e+01 2.198348e+01 2.094796e+01 2.868323e+01 1.970572e+01 1.842784e+01 1.650727e+01 1.973555e+01 1.800410e+01 7.668243e-01 6.224196e-01 7.667821e-01 1.131579e+00 1.280676e+00 1.509367e+00 1.627065e+00 1.430838e+00 1.402288e+00 1.372380e+00 1.271335e+00 1.157696e+00 3.151461e-01
<GCONST> 8.127941e+01
<TRANSP> 5
 0.000000e+00 1.000000e+00 0.000000e+00 0.000000e+00 0.000000e+00
 0.000000e+00 8.378503e-01 1.621498e-01 0.000000e+00 0.000000e+00
 0.000000e+00 0.000000e+00 8.229700e-01 1.770300e-01 0.000000e+00
 0.000000e+00 0.000000e+00 0.000000e+00 9.190339e-01 8.096617e-02
 0.000000e+00 0.000000e+00 0.000000e+00 0.000000e+00 0.000000e+00
<ENDHMM>
~h "ow"
<BEGINHMM>
<NUMSTATES> 5
<STATE> 2
<MEAN> 25
 9.603745e+00 2.606640e+00 -6.572976e+00 -5.994449e+00 -3.281297e+00 2.024579e+00 -3.501617e+00 5.347724e-01 -5.871276e+00 5.154342e-01 8.445085e-01 1.025211e+00 2.642716e-01 2.237112e-01 -1.870674e-01 -5.086487e-01 -4.539808e-01 2.909265e-01 1.596924e-01 6.875368e-02 -5.157767e-01 -7.307347e-02 1.650112e-01 1.287039e-01 -8.355571e-03
<VARIANCE> 25
 9.139900e+00 1.385592e+01 2.348439e+01 3.281580e+01 2.672668e+01 2.015872e+01 2.206992e+01 3.386109e+01 2.103646e+01 2.369171e+01 3.779728e+01 1.625611e+01 6.808311e-01 4.107014e-01 8.839437e-01 1.349542e+00 1.097407e+00 1.192818e+00 1.146560e+00 1.340623e+00 1.308584e+00 1.068262e+00 1.257735e+00 9.221398e-01 3.212798e-01
<GCONST> 8.192242e+01
<STATE> 3
<MEAN> 25
 9.605747e+00 3.401128e+00 -6.055856e+00 -6.768288e+00 -4.622693e+00 2.262235e+00 -2.842838e+00 3.306442e-01 -6.844115e+00 1.221837e-01 1.098472e+00 1.200422e+00 -5.194056e-02 1.480867e-01 1.623342e-01 -6.601480e-02 -2.360677e-01 -5.070289e-03 8.228766e-02 -6.805497e-02 -1.312405e-01 -1.977990e-02 4.018279e-02 -1.818811e-02 -1.388754e-01
<VARIANCE> 25
 6.679413e+00 1.277235e+01 2.407891e+01 2.877281e+01 2.614720e+01 1.850513e+01 1.958567e+01 2.916846e+01 1.864077e+01 2.339435e+01 3.219730e+01 1.595967e+01 2.669865e-01 2.772961e-01 6.472608e-01 1.088312e+00 8.875002e-01 1.034790e+00 9.658691e-01 1.149899e+00 1.089227e+00 8.978034e-01 9.683101e-01 8.103031e-01 1.942190e-01
<GCONST> 7.694601e+01
<STATE> 4
<MEAN> 25
 8.161052e+00 4.032071e+00 -3.163075e+00 -5.036474e+00 -5.432245e+00 1.305895e+00 -2.390393e+00 -1.284507e+00 -5.924550e+00 -5.340559e-02 8.409648e-01 7.291932e-01 -3.253402e-01 -4.533432e-02 3.949187e-01 3.785896e-01 1.431549e-01 -1.200828e-01 3.920936e-02 -2.489333e-01 2.212012e-01 5.869837e-02 -3.121919e-02 -9.019227e-02 -2.508523e-01
<VARIANCE> 25
 1.109051e+01 1.185371e+01 2.468916e+01 3.275936e+01 2.600056e+01 1.884714e+01 2.126045e+01 2.927073e+01 2.170687e+01 2.211681e+01 2.226129e+01 1.595252e+01 3.122463e-01 3.622069e-01 6.430156e-01 1.147211e+00 1.085516e+00 1.232649e+00 1.205687e+00 1.330014e+00 1.262030e+00 1.047198e+00 1.067259e+00 8.800603e-01 1.691427e-01
<GCONST> 7.891441e+01
<TRANSP> 5
 0.000000e+00 1.000000e+00 0.000000e+00 0.000000e+00 0.000000e+00
 0.000000e+00 8.121051e-01 1.878949e-01 0.000000e+00 0.000000e+00
 0.000000e+00 0.000000e+00 7.929052e-01 2.070948e-01 0.000000e+00
 0.000000e+00 0.000000e+00 0.000000e+00 9.187050e-01 8.129501e-02
 0.000000e+00 0.000000e+00 0.000000e+00 0.000000e+00 0.000000e+00
<ENDHMM>
~h "oy"
<BEGINHMM>
<NUMSTATES> 5
<STATE> 2
<MEAN> 25
 1.063514e+00 3.110878e+00 1.088645e+00 1.658722e+00 2.866611e+00 1.918004e+00 1.075047e+00 -2.670142e+00 -2.152136e+00 -7.251465e-01 -1.023530e+00 1.170619e-01 -3.069209e-02 5.515839e-01 -1.812446e-01 -6.090186e-01 -3.821643e-01 -3.170932e-01 -3.205010e-01 3.575648e-01 -4.157665e-02 -2.045164e-01 1.321410e-02 1.389215e-01 7.801337e-01
<VARIANCE> 25
 3.696748e+01 1.743278e+01 2.797025e+01 4.567266e+01 2.979821e+01 2.166693e+01 3.412907e+01 2.742609e+01 2.810736e+01 2.592443e+01 1.222747e+01 1.427210e+01 5.548819e+00 2.241114e+00 1.358298e+00 4.248329e+00 3.012623e+00 3.472486e+00 4.392049e+00 2.992137e+00 2.368162e+00 1.481811e+00 1.747071e+00 1.457389e+00 1.185742e+00
<GCONST> 9.619018e+01
<STATE> 3
<MEAN> 25
 1.729205e+00 3.738306e+00 -2.306973e-01 -2.811848e-01 8.542925e-01 1.371693e+00 3.577288e-01 -1.184350e+00 -2.866825e+00 -9.948124e-01 -6.916436e-01 7.464531e-01 4.161536e-01 2.493915e-02 -5.356578e-01 -5.397199e-01 -7.288197e-01 -1.544952e-01 -2.810479e-01 5.203822e-01 -2.296359e-01 -9.071470e-02 2.360372e-01 2.384160e-01 6.773049e-01
<VARIANCE> 25
 5.443225e+01 1.724146e+01 3.081045e+01 5.868553e+01 3.823001e+01 3.449570e+01 4.243446e+01 3.027567e+01 2.188618e+01 2.620322e+01 1.310031e+01 1.291194e+01 5.516098e+00 2.066353e+00 1.496549e+00 4.633048e+00 3.262009e+00 3.769301e+00 4.006108e+00 2.385289e+00 2.491676e+00 1.643836e+00 1.720111e+00 1.422981e+00 1.072018e+00
<GCONST> 9.762741e+01
<STATE> 4
<MEAN> 25
 5.671968e+00 1.664308e+00 -3.975905e+00 -3.029060e+00 -1.399868e+00 -2.618439e+00 -2.226165e+00 2.791381e+00 -4.869067e+00 2.648258e+00 -1.619681e+00 -1.461125e-01 -2.775816e-01 1.203681e-01 -1.620743e-01 1.052622e-01 1.125835e-01 -9.183907e-02 1.518059e-01 -7.028387e-02 1.812152e-01 3.207289e-04 1.950470e-02 3.710882e-02 3.381001e-02
<VARIANCE> 25
 4.827547e+01 1.689286e+01 4.398987e+01 5.119530e+01 2.586936e+01 6.238696e+01 5.908156e+01 5.245595e+01 3.199788e+01 1.890639e+01 1.915509e+01 1.383236e+01 3.495231e+00 1.151540e+00 2.512381e+00 2.410214e+00 2.672093e+00 3.534018e+00 4.203625e+00 3.306015e+00 2.524048e+00 1.249032e+00 1.740028e+00 1.431642e+00 3.950593e-01
<GCONST> 9.698306e+01
<TRANSP> 5
 0.000000e+00 1.000000e+00 0.000000e+00 0.000000e+00 0.000000e+00
 0.000000e+00 6.619861e-01 3.380139e-01 0.000000e+00 0.000000e+00
 0.000000e+00 0.000000e+00 6.927110e-01 3.072890e-01 0.000000e+00
 0.000000e+00 0.000000e+00 0.000000e+00 9.627075e-01 3.729252e-02
 0.000000e+00 0.000000e+00 0.000000e+00 0.000000e+00 0.000000e+00
<ENDHMM>
~h "sh"
<BEGINHMM>
<NUMSTATES> 5
<STATE> 2
<MEAN> 25
 -1.101623e+01 -1.476889e+00 3.795161e+00 -1.491156e+00 3.228635e+00 1.386598e+00 2.438715e+00 -1.341196e+00 5.838918e+00 -4.354686e-01 2.379882e+00 2.880464e+00 -1.803479e+00 -6.177318e-01 8.045818e-02 -5.386056e-01 5.408925e-01 8.187509e-01 1.182959e+00 -5.636765e-04 1.035009e+00 3.299602e-02 2.792486e-01 4.345179e-01 3.157781e-01
<VARIANCE> 25
 5.237787e+01 2.545676e+01 1.654410e+01 2.888519e+01 2.817239e+01 3.240286e+01 3.377865e+01 3.099123e+01 3.072858e+01 2.331597e+01 1.811744e+01 1.516908e+01 4.360148e+00 1.682264e+00 1.855906e+00 2.645353e+00 2.809505e+00 3.092498e+00 3.931071e+00 2.947488e+00 2.901600e+00 1.983698e+00 1.750610e+00 1.547665e+00 6.658925e-01
<GCONST> 9.580833e+01
<STATE> 3
<MEAN> 25
 -1.499313e+01 -3.655330e+00 3.815222e+00 -3.269320e+00 2.653563e+00 2.251332e+00 4.621246e+00 -1.672103e+00 7.771739e+00 -2.843291e-03 2.713083e+00 3.697788e+00 -4.662744e-01 -3.166723e-01 7.847862e-02 -2.204368e-01 -1.989236e-01 5.812553e-02 2.913724e-01 -1.099461e-01 2.345619e-01 5.084737e-02 -1.454487e-02 7.252331e-02 9.573968e-02
<VARIANCE> 25
 3.022272e+01 1.620078e+01 1.290198e+01 2.191485e+01 2.789056e+01 2.640215e+01 2.330095e+01 2.952562e+01 2.150608e+01 1.960696e+01 1.716389e+01 1.687717e+01 2.959167e+00 1.409099e+00 1.115417e+00 1.657460e+00 1.672122e+00 2.192288e+00 2.373166e+00 2.257927e+00 2.335200e+00 1.609308e+00 1.546746e+00 1.340964e+00 6.474106e-01
<GCONST> 8.927236e+01
<STATE> 4
<MEAN> 25
 -1.283953e+01 -3.260016e+00 5.268110e+00 -2.723272e+00 1.285316e+00 1.452714e+00 4.789636e+00 -2.206810e+00 6.760727e+00 -2.183575e-02 2.054405e+00 3.406219e+00 1.188755e+00 3.804549e-01 5.092247e-01 1.533965e-01 -4.811203e-01 -3.175861e-01 -3.795480e-01 -1.921417e-01 -5.690681e-01 -6.445330e-02 -2.373792e-01 -1.581409e-01 -1.236757e-01
<VARIANCE> 25
 5.790871e+01 2.013328e+01 1.928867e+01 2.430946e+01 3.788192e+01 3.632921e+01 2.936485e+01 2.595553e+01 2.251819e+01 1.921859e+01 1.624623e+01 1.816529e+01 4.219423e+00 1.806136e+00 1.734821e+00 1.384543e+00 1.693794e+00 2.597984e+00 2.574195e+00 2.314058e+00 2.149559e+00 1.533163e+00 1.474477e+00 1.378760e+00 6.611274e-01
<GCONST> 9.244109e+01
<TRANSP> 5
 0.000000e+00 1.000000e+00 0.000000e+00 0.000000e+00 0.000000e+00
 0.000000e+00 7.912274e-01 2.087726e-01 0.000000e+00 0.000000e+00
 0.000000e+00 0.000000e+00 8.119109e-01 1.880891e-01 0.000000e+00
 0.000000e+00 0.000000e+00 0.000000e+00 9.040951e-01 9.590492e-02
 0.000000e+00 0.000000e+00 0.000000e+00 0.000000e+00 0.000000e+00
<ENDHMM>
~h "th"
<BEGINHMM>
<NUMSTATES> 5
<STATE> 2
<MEAN> 25
 -5.219848e+00 -2.517044e+00 -4.026469e+00 2.918936e+00 2.085214e+00 3.837433e+00 3.899944e+00 -1.161896e+00 4.662044e+00 2.278724e+00 1.198369e+00 2.013682e+00 -1.791396e-01 -2.003639e-01 -1.442510e-01 -8.423787e-02 5.053647e-03 2.005369e-01 2.045424e-01 1.010788e-01 1.535759e-01 1.494834e-01 1.060218e-01 1.688161e-01 -2.559932e-01
<VARIANCE> 25
 1.021845e+01 1.520179e+01 2.088945e+01 1.206101e+01 1.568142e+01 2.074255e+01 1.963679e+01 2.152811e+01 1.771613e+01 2.035457e+01 1.732821e+01 1.547738e+01 1.284294e+00 9.063394e-01 1.541351e+00 1.107171e+00 1.344479e+00 1.767192e+00 1.744681e+00 1.730771e+00 1.778819e+00 1.997850e+00 1.444195e+00 1.248398e+00 7.313366e-01
<GCONST> 8.403410e+01
<STATE> 3
<MEAN> 25
 -5.172119e+00 -2.841329e+00 -3.489227e+00 3.053619e+00 2.445432e+00 4.346944e+00 4.364718e+00 -1.108717e+00 4.634213e+00 2.274487e+00 8.513609e-01 2.333421e+00 -1.198353e-02 6.054505e-02 9.121160e-02 7.501569e-02 1.408059e-01 4.311666e-02 1.114524e-01 6.520359e-02 6.072136e-02 4.928001e-03 -3.486594e-02 8.486958e-02 -4.220518e-02
<VARIANCE> 25
 1.151287e+01 1.499880e+01 2.296951e+01 1.300067e+01 1.639305e+01 2.518055e+01 1.957575e+01 2.071171e+01 1.958165e+01 2.303351e+01 1.754728e+01 1.463685e+01 8.628526e-01 9.209569e-01 1.060478e+00 1.037918e+00 1.168231e+00 1.891297e+00 1.727385e+00 1.763013e+00 1.774487e+00 2.023971e+00 1.402118e+00 1.297886e+00 5.396292e-01
<GCONST> 8.351830e+01
<STATE> 4
<MEAN> 25
 -5.549013e+00 -1.640133e+00 -3.175383e+00 3.483902e+00 2.628258e+00 3.909439e+00 4.790006e+00 -1.586017e+00 4.256983e+00 1.652581e+00 7.548367e-01 2.527592e+00 1.017504e-01 2.051643e-01 -1.135495e-02 -9.648073e-02 6.124846e-02 -3.506714e-01 -2.353029e-02 4.299039e-02 -3.446491e-02 -9.211564e-02 5.691095e-02 3.970816e-02 2.334053e-01
<VARIANCE> 25
 1.392163e+01 1.838525e+01 2.366333e+01 1.114427e+01 1.575596e+01 3.260668e+01 2.180380e+01 2.143622e+01 2.248128e+01 2.982790e+01 1.857391e+01 1.392928e+01 9.826715e-01 7.478565e-01 1.211091e+00 1.236016e+00 1.263384e+00 2.307436e+00 1.879131e+00 1.829914e+00 2.031492e+00 2.259613e+00 1.856649e+00 1.340461e+00 7.230918e-01
<GCONST> 8.603149e+01
<TRANSP> 5
 0.000000e+00 1.000000e+00 0.000000e+00 0.000000e+00 0.000000e+00
 0.000000e+00 8.166576e-01 1.833424e-01 0.000000e+00 0.000000e+00
 0.000000e+00 0.000000e+00 7.631887e-01 2.368113e-01 0.000000e+00
 0.000000e+00 0.000000e+00 0.000000e+00 8.216007e-01 1.783993e-01
 0.000000e+00 0.000000e+00 0.000000e+00 0.000000e+00 0.000000e+00
<ENDHMM>
~h "uh"
<BEGINHMM>
<NUMSTATES> 5
<STATE> 2
<MEAN> 25
 4.624821e+00 5.335672e+00 2.633297e+00 1.663642e+00 -6.607988e+00 -2.776182e+00 -6.651969e+00 -2.280855e+00 -5.401998e+00 -1.639778e+00 2.787275e+00 -1.026404e+00 4.264585e-01 3.133433e-01 -1.236998e-01 -1.535710e-01 -5.533475e-01 1.405781e-01 -5.666606e-01 -1.005769e-01 -5.553692e-01 6.799925e-03 6.558630e-01 -2.639314e-01 1.284863e-01
<VARIANCE> 25
 1.693294e+01 1.154569e+01 4.780658e+01 2.694265e+01 3.567122e+01 4.075467e+01 4.196602e+01 2.187673e+01 3.057330e+01 2.287080e+01 2.860331e+01 2.026323e+01 1.119980e+00 9.606705e-01 1.021400e+00 1.169917e+00 2.377176e+00 1.234167e+00 1.930611e+00 1.855346e+00 1.728409e+00 1.297646e+00 1.629530e+00 1.368566e+00 6.273915e-01
<GCONST> 8.914703e+01
<STATE> 3
<MEAN> 25
 5.190280e+00 5.795789e+00 1.456840e+00 1.591517e+00 -6.637653e+00 -2.145977e+00 -8.443818e+00 -2.547844e+00 -6.220898e+00 -1.081637e+00 4.622564e+00 -1.886320e+00 4.502321e-02 3.677750e-02 -2.216900e-01 -3.728020e-02 2.457652e-02 1.279028e-01 -3.343292e-01 -4.616470e-02 -4.638740e-02 1.358924e-01 3.480001e-01 -1.951330e-01 -2.854869e-02
<VARIANCE> 25
 1.364257e+01 1.093089e+01 4.849700e+01 2.346810e+01 2.621861e+01 4.038152e+01 3.489639e+01 2.520564e+01 2.501399e+01 2.750920e+01 2.799522e+01 2.220762e+01 6.412486e-01 5.773739e-01 7.972784e-01 7.861335e-01 1.289440e+00 1.141872e+00 1.588678e+00 1.581611e+00 1.434983e+00 1.221566e+00 1.394840e+00 1.201138e+00 4.026014e-01
<GCONST> 8.471453e+01
<STATE> 4
<MEAN> 25
 4.202077e+00 5.488383e+00 6.101697e-01 1.278343e+00 -3.468949e+00 -3.142301e-01 -8.387283e+00 -3.149660e+00 -4.283898e+00 -6.175457e-01 6.510314e+00 -2.465909e+00 -1.501518e-01 -2.782344e-01 9.014213e-02 8.419548e-02 2.606424e-01 -4.654375e-02 1.997423e-01 4.324738e-02 3.122010e-01 8.925720e-02 -1.067882e-01 1.284156e-01 -2.031149e-01
<VARIANCE> 25
 2.085941e+01 2.225813e+01 3.463455e+01 2.428584e+01 2.615591e+01 3.991426e+01 4.830901e+01 2.456551e+01 3.100414e+01 2.682881e+01 3.817411e+01 2.693744e+01 1.065428e+00 1.030396e+00 1.460981e+00 1.213319e+00 1.613309e+00 2.268342e+00 3.635634e+00 1.985819e+00 1.966597e+00 1.637949e+00 2.067497e+00 2.191544e+00 1.040932e+00
<GCONST> 9.317199e+01
<TRANSP> 5
 0.000000e+00 1.000000e+00 0.000000e+00 0.000000e+00 0.000000e+00
 0.000000e+00 7.691831e-01 2.308169e-01 0.000000e+00 0.000000e+00
 0.000000e+00 0.000000e+00 7.769141e-01 2.230860e-01 0.000000e+00
 0.000000e+00 0.000000e+00 0.000000e+00 9.476177e-01 5.238236e-02
 0.000000e+00 0.000000e+00 0.000000e+00 0.000000e+00 0.000000e+00
<ENDHMM>
~h "uw"
<BEGINHMM>
<NUMSTATES> 5
<STATE> 2
<MEAN> 25
 3.095997e+00 4.566225e+00 2.233848e+00 4.846489e+00 -1.672009e+00 -4.806479e+00 -7.078477e+00 -2.351051e+00 -3.221141e+00 -2.717283e+00 1.847797e+00 -1.784463e+00 8.320416e-01 2.864263e-01 1.769340e-01 2.317536e-01 -4.425188e-01 2.086741e-01 -1.057194e+00 -4.997405e-01 -3.400769e-01 3.030666e-03 2.719331e-01 -5.313438e-01 -7.260866e-02
<VARIANCE> 25
 2.730308e+01 1.212736e+01 1.777571e+01 1.855375e+01 2.493202e+01 3.895519e+01 4.916217e+01 2.728622e+01 2.102462e+01 2.098898e+01 1.898766e+01 2.313957e+01 1.897421e+00 7.455312e-01 1.350244e+00 1.611288e+00 1.514874e+00 1.675509e+00 3.451661e+00 1.661270e+00 1.893098e+00 1.405802e+00 1.501292e+00 2.187357e+00 2.972387e-01
<GCONST> 8.855965e+01
<STATE> 3
<MEAN> 25
 4.231582e+00 5.005390e+00 1.956528e+00 4.901424e+00 -2.488502e+00 -3.844391e+00 -8.687332e+00 -3.348192e+00 -3.643290e+00 -2.412442e+00 2.613647e+00 -2.748407e+00 3.002502e-01 8.559997e-02 -1.060419e-01 1.458075e-02 -2.134560e-01 2.603008e-01 -4.518933e-01 -2.419045e-01 -7.452127e-02 1.173598e-01 2.260591e-01 -2.822009e-01 -7.853229e-02
<VARIANCE> 25
 1.675698e+01 1.047389e+01 1.614499e+01 1.767435e+01 2.046724e+01 3.634793e+01 4.494361e+01 2.811074e+01 2.018896e+01 2.013549e+01 1.889155e+01 2.294765e+01 9.601302e-01 5.162067e-01 7.471160e-01 9.325995e-01 1.118663e+00 1.335482e+00 2.276472e+00 1.401176e+00 1.383639e+00 1.102392e+00 1.177611e+00 1.634875e+00 2.179430e-01
<GCONST> 8.265327e+01
<STATE> 4
<MEAN> 25
 4.093462e+00 4.397143e+00 1.224808e+00 4.402342e+00 -3.057075e+00 -3.025165e+00 -8.741832e+00 -3.964612e+00 -2.623571e+00 -1.499856e+00 2.992586e+00 -3.624228e+00 -1.271696e-01 -1.908951e-01 -2.832950e-02 -8.246900e-02 6.801619e-02 1.510392e-01 3.069145e-01 3.652593e-02 1.418059e-01 1.117162e-01 -3.842222e-02 1.457249e-01 -1.598150e-01
<VARIANCE> 25
 1.155322e+01 1.513078e+01 1.441892e+01 1.747444e+01 2.357661e+01 3.475021e+01 5.477480e+01 3.306484e+01 2.380367e+01 2.646345e+01 2.183447e+01 2.978352e+01 6.183107e-01 6.010303e-01 6.519794e-01 7.897773e-01 1.335767e+00 1.662616e+00 2.365667e+00 1.818903e+00 1.372515e+00 1.261689e+00 1.252991e+00 1.549237e+00 3.721365e-01
<GCONST> 8.460056e+01
<TRANSP> 5
 0.000000e+00 1.000000e+00 0.000000e+00 0.000000e+00 0.000000e+00
 0.000000e+00 6.929702e-01 3.070298e-01 0.000000e+00 0.000000e+00
 0.000000e+00 0.000000e+00 7.085822e-01 2.914178e-01 0.000000e+00
 0.000000e+00 0.000000e+00 0.000000e+00 9.503613e-01 4.963864e-02
 0.000000e+00 0.000000e+00 0.000000e+00 0.000000e+00 0.000000e+00
<ENDHMM>
~h "zh"
<BEGINHMM>
<NUMSTATES> 5
<STATE> 2
<MEAN> 25
 -8.260511e+00 -1.153171e+00 9.874556e+00 2.642029e+00 -2.856815e+00 -3.686330e+00 2.684094e+00 -1.126779e+00 2.325962e+00 -2.593868e+00 3.835702e+00 1.992793e+00 -6.312401e-01 -3.578301e-02 6.011823e-01 -6.611781e-01 -1.423465e-01 -4.170943e-02 6.913179e-01 -2.377662e-01 5.002367e-01 -7.300168e-02 -1.538403e-01 -6.719612e-02 3.582640e-01
<VARIANCE> 25
 8.654635e+01 2.694897e+01 1.181894e+01 5.036695e+01 2.006137e+01 2.917675e+01 5.708856e+01 3.171828e+01 3.266077e+01 1.817671e+01 2.574730e+01 1.114624e+01 5.790591e+00 1.763913e+00 1.683192e+00 3.851604e+00 1.698890e+00 3.131080e+00 6.734849e+00 3.904058e+00 2.491128e+00 2.335954e+00 2.125113e+00 1.575208e+00 1.835962e+00
<GCONST> 9.872054e+01
<STATE> 3
<MEAN> 25
 -2.646421e+00 2.392181e+00 1.278811e+01 -1.082596e+00 -3.561631e+00 -2.162951e+00 1.745735e+00 -2.030378e+00 4.511078e-01 -1.646670e+00 7.107881e-01 8.374009e-01 5.793849e-01 4.071884e-01 3.873917e-01 -1.445066e-01 -2.931286e-01 4.500160e-04 -2.374471e-01 -7.307835e-02 -1.226030e-01 2.396079e-02 1.478127e-02 3.069526e-02 1.097034e-01
<VARIANCE> 25
 6.227457e+01 1.862398e+01 1.252053e+01 4.437030e+01 4.819544e+01 3.521090e+01 2.095659e+01 3.860826e+01 2.054979e+01 1.539976e+01 2.212686e+01 1.138796e+01 4.709108e+00 1.603066e+00 1.627895e+00 1.914572e+00 2.519720e+00 4.399700e+00 2.013343e+00 4.367094e+00 1.110876e+00 7.758083e-01 2.390724e+00 1.057549e+00 1.103354e+00
<GCONST> 9.335694e+01
<STATE> 4
<MEAN> 25
 1.090113e+00 6.774544e+00 8.204623e+00 -1.090030e-01 -4.313110e+00 -1.611235e+00 -2.239765e+00 -3.959563e+00 -1.361515e+00 -8.806024e-01 4.405416e-01 -3.338127e-01 1.366454e-01 -1.675048e-01 -2.963043e-01 9.200547e-02 7.849686e-02 -2.314732e-02 -4.040987e-02 9.370776e-02 6.395160e-02 -3.662933e-02 -5.291715e-02 2.461950e-02 -1.055995e-01
<VARIANCE> 25
 3.276923e+01 3.709003e+01 2.469388e+01 4.138486e+01 2.347881e+01 2.017186e+01 2.460109e+01 3.297659e+01 2.291470e+01 1.122161e+01 1.825328e+01 1.330937e+01 1.856865e+00 1.415223e+00 1.236427e+00 1.179386e+00 1.550685e+00 2.060815e+00 1.612745e+00 2.652624e+00 8.903098e-01 8.006792e-01 1.035606e+00 1.136355e+00 5.127971e-01
<GCONST> 8.699577e+01
<TRANSP> 5
 0.000000e+00 1.000000e+00 0.000000e+00 0.000000e+00 0.000000e+00
 0.000000e+00 8.886916e-01 1.113084e-01 0.000000e+00 0.000000e+00
 0.000000e+00 0.000000e+00 8.439187e-01 1.560813e-01 0.000000e+00
 0.000000e+00 0.000000e+00 0.000000e+00 9.678913e-01 3.210866e-02
 0.000000e+00 0.000000e+00 0.000000e+00 0.000000e+00 0.000000e+00
<ENDHMM>
~h "sil"
<BEGINHMM>
<NUMSTATES> 5
<STATE> 2
<MEAN> 25
 -7.670426e+00 -6.769376e+00 6.834279e-01 3.123943e+00 6.268755e+00 7.201729e+00 6.612928e+00 -7.759923e-01 5.834269e+00 3.395233e+00 3.811116e+00 3.022626e+00 -1.987907e-02 -4.882952e-02 -4.674593e-02 -5.024420e-02 -4.232951e-02 -2.828911e-03 -3.839927e-02 -3.287563e-02 -3.040419e-02 -2.346790e-02 -2.919709e-02 -2.719254e-02 -3.223088e-02
<VARIANCE> 25
